/*
 * FILE: generated.c
 */

#include <stdio.h>
#include <stdlib.h>
#include <string.h>
#include <math.h>
#include "dim6_sn_6.h"

static const int STRUCTURE[4][2] = {{6, 25}, {25, 30}, {30, 25}, {25, 3}};
static float output_0[25];
static float output_1[30];
static float output_2[25];
static float output_3[3];
static const float layer_0_weight[6][25] = {{-0.313990, -1.103151, -0.098551, 0.711482, 0.529236, -0.816705, -0.389082, -0.025368, -1.322443, 1.084623, -1.002474, -0.300059, 0.000000, -1.267383, -1.133914, -1.264852, -0.886504, 0.744514, 1.186211, -1.345828, 0.479287, -1.026231, 0.199111, 1.252463, 1.003646}, {-0.414828, -0.006587, 0.142870, 0.120433, -0.110247, -0.119080, -1.102512, 0.200163, 0.065284, 0.765300, -0.713864, -0.381105, -0.000000, 0.262567, 0.485694, 0.750215, -0.187796, -0.338821, 0.213528, 0.120675, 0.005136, 1.056976, -1.186863, -0.609296, -0.437998}, {0.325807, 0.163543, 0.111205, 0.110571, -0.018965, 0.185623, 0.060694, 0.132433, 0.078270, 0.048653, -0.137683, 0.337884, -0.000000, -0.051617, -0.279287, 0.070578, 0.012374, -0.307841, -0.053550, 0.007899, -0.078317, -0.033700, -0.028647, 0.053450, 0.264177}, {-0.117833, -0.109593, 0.047317, -0.091572, 0.072606, 0.012993, -0.002644, 0.042082, -0.011517, -0.002784, -0.012473, -0.116750, 0.000000, 0.021440, -0.007752, -0.002608, -0.043260, -0.071039, -0.083045, -0.003222, 0.237078, -0.008624, 0.028686, -0.009690, 0.075590}, {-0.054411, -0.214875, -0.223128, -0.131694, -0.145579, 0.063337, -0.004555, -0.032889, 0.043527, 0.027732, 0.010391, -0.055947, 0.000000, -0.000310, 0.031980, -0.001832, 0.112749, -0.107037, -0.001952, 0.038351, -0.009738, 0.002456, -0.045961, 0.016363, 0.325583}, {-0.483250, -0.333273, 0.034533, 0.443840, 0.464628, 0.095716, -0.070620, 0.636031, -0.042111, 0.128123, -0.011170, -0.468159, -0.000000, -0.066292, 0.184330, 0.023135, 0.085127, -0.180942, -0.232713, -0.044034, -0.637362, -0.058185, 0.231019, 0.035043, -0.101294}};
float * p_layer_0_weight = layer_0_weight;
static const float layer_0_bias[25] = {0.071118, -0.310460, 0.261639, 0.113191, 0.124304, -0.123549, -0.011247, -0.182739, 0.053954, -0.049219, 0.029844, 0.067035, -0.403592, 0.147084, 0.188653, -0.018555, 0.014357, 0.129429, 0.209992, 0.083108, 0.007320, 0.010972, -0.025739, -0.028859, -0.568258};
float * p_layer_0_bias = layer_0_bias;
static const float layer_1_weight[25][30] = {{-0.178874, 0.007079, 0.000000, -0.018632, 0.052689, 0.314730, 0.075148, 0.000000, 0.096230, -0.078345, -0.106811, -0.065995, -0.000000, -0.320616, -0.000000, 0.096138, 0.000000, -0.204322, 0.056704, 0.054425, -0.307239, 0.003218, -0.261400, 0.000000, 0.085894, 0.052922, 0.094541, -0.003634, 0.094620, 0.000000}, {0.491618, -0.102346, -0.000000, -0.125372, -0.078206, 0.618577, 0.631836, 0.000000, -0.233696, -0.139972, -0.076729, 0.468353, 0.000000, -0.091955, -0.000000, -0.234100, -0.000000, 0.069522, -0.142682, -0.144399, -0.166521, 0.021430, 0.037342, -0.000000, 0.675879, -0.139804, -0.237223, -0.194266, -0.235842, -0.000000}, {-0.139055, 0.057146, -0.000000, -0.002140, 0.058003, 0.202043, 0.099256, -0.000000, 0.055185, 0.000647, 0.052958, -0.174630, -0.000000, -0.290456, -0.000000, 0.055651, 0.000000, -0.067384, 0.075658, 0.074267, -0.044963, 0.029179, 0.118469, 0.000000, 0.100371, 0.072555, 0.053810, -0.033845, 0.053862, 0.000000}, {0.057090, 0.057588, -0.000000, -0.086924, 0.033485, -0.023897, -0.042043, -0.000000, 0.081395, -0.215495, -0.044342, -0.014366, 0.000000, 0.114250, -0.000000, 0.081350, -0.000000, -0.030918, 0.080012, 0.078481, -0.048613, -0.171936, 0.064491, -0.000000, -0.135186, 0.079455, 0.081537, -0.074470, 0.080939, -0.000000}, {-0.006646, 0.084714, 0.000000, -0.028224, 0.073610, 0.171936, -0.106606, -0.000000, 0.143372, -0.044029, 0.075963, -0.118754, -0.000000, -0.050807, -0.000000, 0.143955, 0.000000, -0.008509, 0.135488, 0.133846, 0.203792, -0.009263, 0.261897, -0.000000, -0.238584, 0.132963, 0.143325, -0.047168, 0.143192, -0.000000}, {-0.226178, -0.238290, 0.000000, 0.286608, 0.315845, -0.207189, 0.298079, -0.000000, 0.213233, 0.339682, 0.076570, -0.337015, -0.000000, -0.223399, 0.000000, 0.213686, -0.000000, -0.078922, 0.306799, 0.301575, 0.308602, 0.360466, -0.121020, 0.000000, -0.145787, 0.309048, 0.215242, 0.357798, 0.214651, -0.000000}, {-0.147068, -0.467438, -0.000000, -0.344473, -0.330912, 0.466158, 0.064555, -0.000000, -0.136904, -0.345492, -0.459282, -0.057391, 0.000000, 0.055259, 0.000000, -0.135404, -0.000000, 0.172871, -0.270207, -0.277327, 0.378963, -0.299483, 0.280046, 0.000000, 0.379948, -0.276937, -0.137695, -0.337063, -0.136142, -0.000000}, {-0.333831, -0.140541, 0.000000, -0.028577, 0.033826, 0.392673, 0.149528, -0.000000, 0.178543, 0.005689, -0.017214, -0.372356, 0.000000, -0.415722, -0.000000, 0.179449, -0.000000, 0.093110, 0.315727, 0.308873, 0.409715, 0.071919, -0.067594, 0.000000, -0.722391, 0.318327, 0.177213, -0.100851, 0.179767, -0.000000}, {-0.542749, -0.176587, -0.000000, 0.035372, -0.027539, 0.180255, -0.035743, -0.000000, -0.105286, 0.103153, -0.104993, -0.476096, 0.000000, -0.483633, -0.000000, -0.105122, -0.000000, 0.155679, -0.049147, -0.053711, 0.217823, 0.060225, -0.006680, 0.000000, -0.075548, -0.050275, -0.105762, 0.095580, -0.105940, -0.000000}, {0.242318, -0.591047, 0.000000, -0.546862, -0.211756, -0.044099, 0.140531, -0.000000, -0.131856, -0.389585, -0.641187, 0.296485, 0.000000, 0.234091, 0.000000, -0.132260, 0.000000, -0.003156, -0.120547, -0.121346, -0.229617, -0.367733, -0.174026, -0.000000, 0.229700, -0.122415, -0.133826, -0.517249, -0.131291, -0.000000}, {-0.519767, -0.705717, -0.000000, -0.689716, -0.637072, 0.383871, -0.338592, -0.000000, -0.377175, -0.736418, -0.782075, -0.302385, 0.000000, 0.297928, 0.000000, -0.376532, -0.000000, 0.448879, -0.659925, -0.670079, 0.634990, -0.641460, 0.634324, 0.000000, 0.133109, -0.668322, -0.377551, -0.470055, -0.378476, 0.000000}, {-0.172847, 0.004580, -0.000000, -0.020949, 0.055872, 0.304451, 0.073742, -0.000000, 0.097397, -0.082046, -0.108342, -0.064017, 0.000000, -0.315477, 0.000000, 0.097357, -0.000000, -0.201865, 0.059556, 0.057215, -0.306652, 0.002431, -0.260292, -0.000000, 0.082521, 0.055913, 0.095721, -0.005314, 0.095839, -0.000000}, {-0.000000, -0.000000, 0.000000, -0.000000, -0.000000, 0.000000, 0.000000, -0.000000, 0.000000, -0.000000, 0.000000, 0.000000, 0.000000, -0.000000, 0.000000, 0.000000, 0.000000, 0.000000, 0.000000, -0.000000, 0.000000, 0.000000, -0.000000, 0.000000, 0.000000, -0.000000, 0.000000, 0.000000, -0.000000, -0.000000}, {-0.410396, -0.035805, -0.000000, 0.033765, -0.048225, 0.156106, 0.001797, -0.000000, -0.130254, 0.093395, 0.047079, -0.405115, -0.000000, -0.368141, -0.000000, -0.129822, 0.000000, 0.112798, -0.046897, -0.048415, 0.130794, 0.055188, 0.106647, 0.000000, -0.009401, -0.049310, -0.130621, 0.035322, -0.131157, -0.000000}, {-0.471284, -0.050726, 0.000000, 0.042956, -0.141360, -0.042903, 0.026908, -0.000000, -0.179281, 0.249019, 0.143886, -0.415304, 0.000000, -0.457768, -0.000000, -0.179009, -0.000000, 0.187308, -0.077323, -0.078466, 0.121746, -0.053373, -0.180006, -0.000000, -0.152083, -0.076996, -0.177870, 0.091711, -0.179085, -0.000000}, {-0.248290, -0.388489, 0.000000, -0.439715, -0.316054, 0.197000, -0.048047, -0.000000, -0.259788, -0.855078, -0.562794, -0.247519, -0.000000, -0.300383, -0.000000, -0.259653, 0.000000, 0.091759, -0.313100, -0.314791, -0.154031, -0.439397, 0.224662, 0.000000, -0.015659, -0.310114, -0.261236, -0.412720, -0.261013, -0.000000}, {-0.113698, 0.078846, -0.000000, 0.081533, 0.112152, -0.644610, -0.035493, 0.000000, 0.189881, 0.076879, 0.020525, -0.049400, 0.000000, -0.113855, -0.000000, 0.190872, 0.000000, -0.020783, 0.160994, 0.158971, 0.105738, 0.111542, -0.587097, -0.000000, -0.127669, 0.159219, 0.191606, 0.120814, 0.191611, -0.000000}, {0.376412, 0.345725, 0.000000, 0.227671, 0.144917, 0.112654, -0.057135, -0.000000, 0.177985, 0.236461, 0.230642, 0.283014, -0.000000, 0.332896, 0.000000, 0.177873, 0.000000, -0.543834, 0.169957, 0.173613, -0.577685, 0.072574, -0.227831, -0.000000, -0.207810, 0.164820, 0.178560, 0.234159, 0.176390, 0.000000}, {0.135884, 0.116802, -0.000000, -0.064144, 0.008458, -0.181286, -0.073699, -0.000000, 0.065137, -0.100858, -0.004062, 0.177628, 0.000000, 0.176747, -0.000000, 0.065006, 0.000000, -0.191090, 0.028427, 0.029799, -0.474053, -0.081780, -0.538577, -0.000000, -0.051508, 0.024783, 0.064811, -0.067974, 0.064989, 0.000000}, {-0.541207, -0.125855, 0.000000, 0.039259, -0.052903, 0.146876, -0.036700, 0.000000, -0.138404, 0.112459, -0.036235, -0.487238, -0.000000, -0.455777, 0.000000, -0.138166, -0.000000, 0.164975, -0.061440, -0.064828, 0.205857, 0.054909, 0.034325, -0.000000, -0.077988, -0.062942, -0.138565, 0.081706, -0.138974, -0.000000}, {0.030465, 0.093678, -0.000000, 0.030282, -0.044656, 0.286398, -0.107187, 0.000000, -0.102081, -0.047837, 0.041320, 0.071769, 0.000000, 0.088600, -0.000000, -0.100952, -0.000000, 0.239301, 0.016527, 0.017476, 0.488767, -0.042841, 0.431109, -0.000000, -0.076668, 0.018883, -0.101138, 0.005578, -0.101524, 0.000000}, {-0.171466, -0.466274, -0.000000, -0.512194, -0.412101, 0.191184, 0.050274, 0.000000, -0.324480, -0.957770, -0.710739, -0.112675, -0.000000, 0.044595, -0.000000, -0.324614, -0.000000, 0.045942, -0.360908, -0.359356, -0.278833, -0.625094, 0.006541, 0.000000, 0.005018, -0.361163, -0.324969, -0.482280, -0.325668, 0.000000}, {-0.137345, -0.343321, -0.000000, -0.498833, -0.369732, 0.186637, -0.410748, -0.000000, 0.107702, -0.618234, -0.349124, -0.150638, 0.000000, 0.049604, 0.000000, 0.109824, 0.000000, -0.005735, -0.092659, -0.095216, 0.288013, -0.579483, 0.308144, -0.000000, -0.291935, -0.102703, 0.109603, -0.557141, 0.109306, -0.000000}, {0.198649, -0.707866, 0.000000, -0.463477, -0.425721, 0.261783, -0.190610, -0.000000, -0.084571, -0.380557, -0.540392, 0.224553, 0.000000, 0.224068, -0.000000, -0.084878, -0.000000, 0.015517, -0.348087, -0.350992, -0.143645, -0.405485, 0.330453, -0.000000, 0.222310, -0.349495, -0.084564, -0.417696, -0.084413, -0.000000}, {-0.038019, -0.360110, -0.000000, -0.121251, -0.105760, 0.167577, -0.491150, 0.000000, 0.340651, -0.148351, -0.204028, -0.070313, -0.000000, 0.028618, -0.000000, 0.341619, 0.000000, -0.286057, 0.098768, 0.099058, -0.199238, -0.106739, 0.368926, 0.000000, -0.524276, 0.099665, 0.343321, -0.092829, 0.341380, -0.000000}};
float * p_layer_1_weight = layer_1_weight;
static const float layer_1_bias[30] = {0.221313, 0.137509, -0.061257, 0.178077, 0.165358, -0.300470, 0.298941, -0.116073, 0.091810, 0.219420, 0.203283, 0.221720, -0.209787, 0.301835, -0.079109, 0.091476, -0.162908, 0.221360, 0.062786, 0.060577, 0.423309, 0.193639, 0.113196, -0.030551, 0.203561, 0.060335, 0.091222, 0.181821, 0.091405, -0.143914};
float * p_layer_1_bias = layer_1_bias;
static const float layer_2_weight[30][25] = {{-0.000000, -0.370206, -0.000000, 0.335549, -0.000000, -0.374673, -0.376600, -0.372312, -0.000000, 0.262598, -0.000000, -0.369446, -0.376004, 0.272401, 0.221022, 0.000000, -0.297926, 0.000000, 0.000000, -0.372825, 0.341371, 0.228310, 0.429890, -0.373552, -0.376264}, {0.000000, 0.313757, -0.000000, -0.321704, -0.000000, 0.368055, 0.354548, 0.375290, -0.000000, -0.421711, -0.000000, 0.386091, 0.360384, -0.379403, 0.572205, 0.000000, -0.312457, -0.000000, 0.000000, 0.325349, -0.217833, -0.448807, -0.389911, 0.372289, 0.355221}, {0.000000, 0.000000, -0.000000, 0.000000, 0.000000, 0.000000, -0.000000, 0.000000, -0.000000, 0.000000, 0.000000, -0.000000, 0.000000, 0.000000, 0.000000, -0.000000, 0.000000, -0.000000, -0.000000, 0.000000, -0.000000, -0.000000, 0.000000, -0.000000, -0.000000}, {0.000000, 0.402224, 0.000000, -0.381127, -0.000000, 0.391657, 0.395061, 0.389645, -0.000000, -0.355481, -0.000000, 0.386084, 0.393723, -0.280435, -0.037559, -0.000000, 0.300219, -0.000000, -0.000000, 0.400684, -0.357231, -0.347971, -0.404064, 0.390370, 0.394882}, {0.000000, 0.179199, -0.000000, -0.170410, -0.000000, 0.178088, 0.178508, 0.177958, -0.000000, -0.173918, 0.000000, 0.177371, 0.178415, -0.113029, 0.092115, -0.000000, 0.042979, -0.000000, 0.000000, 0.179106, -0.199164, -0.177398, -0.132077, 0.177929, 0.178465}, {0.000000, -0.007017, -0.000000, 0.005401, -0.000000, -0.070217, -0.054041, -0.078580, -0.000000, 0.107258, 0.000000, -0.091969, -0.060899, 0.231121, -0.369071, -0.000000, 0.373794, 0.000000, -0.000000, -0.020282, -0.283789, 0.126675, 0.052545, -0.075711, -0.054972}, {-0.000000, 0.050685, -0.000000, -0.040734, -0.000000, 0.017667, 0.025818, 0.013649, -0.000000, -0.002049, -0.000000, 0.006897, 0.022510, 0.089087, -0.141513, -0.000000, 0.168221, 0.000000, 0.000000, 0.043684, -0.141211, 0.002326, 0.090834, 0.015010, 0.025369}, {-0.000000, -0.000000, -0.000000, 0.000000, 0.000000, 0.000000, -0.000000, 0.000000, -0.000000, -0.000000, -0.000000, 0.000000, -0.000000, -0.000000, 0.000000, -0.000000, 0.000000, -0.000000, -0.000000, 0.000000, 0.000000, -0.000000, 0.000000, -0.000000, 0.000000}, {0.000000, 0.060144, -0.000000, -0.080703, -0.000000, 0.110484, 0.098104, 0.116978, 0.000000, -0.140528, 0.000000, 0.126703, 0.102816, -0.218292, 0.248095, -0.000000, -0.161974, -0.000000, -0.000000, 0.070506, -0.017269, -0.149493, -0.099405, 0.114482, 0.098696}, {-0.000000, 0.453643, 0.000000, -0.412920, 0.000000, 0.391158, 0.408530, 0.381397, 0.000000, -0.284031, 0.000000, 0.365453, 0.401363, -0.154852, -0.577696, -0.000000, 0.685850, -0.000000, 0.000000, 0.441962, -0.448939, -0.244570, -0.318751, 0.385203, 0.407642}, {0.000000, 0.497800, -0.000000, -0.486477, 0.000000, 0.496347, 0.497125, 0.496016, 0.000000, -0.500778, -0.000000, 0.494837, 0.497075, -0.369655, 0.180823, 0.000000, 0.216255, 0.000000, -0.000000, 0.497970, -0.390429, -0.508025, -0.565942, 0.495911, 0.497055}, {-0.000000, -0.288315, -0.000000, 0.263000, -0.000000, -0.295823, -0.296844, -0.294463, -0.000000, 0.210226, -0.000000, -0.293596, -0.296785, 0.237251, 0.162562, -0.000000, -0.223341, -0.000000, 0.000000, -0.291571, 0.254763, 0.182382, 0.378395, -0.295442, -0.296618}, {0.000000, -0.000000, -0.000000, -0.000000, 0.000000, -0.000000, 0.000000, 0.000000, -0.000000, 0.000000, -0.000000, -0.000000, 0.000000, -0.000000, 0.000000, -0.000000, 0.000000, -0.000000, -0.000000, -0.000000, -0.000000, -0.000000, -0.000000, -0.000000, -0.000000}, {0.000000, -0.277569, -0.000000, 0.232454, -0.000000, -0.256241, -0.263256, -0.252050, -0.000000, 0.180906, 0.000000, -0.246061, -0.260665, 0.092001, 0.175003, 0.000000, -0.227988, 0.000000, -0.000000, -0.274385, 0.275647, 0.164159, 0.216535, -0.253635, -0.262932}, {0.000000, 0.000000, 0.000000, 0.000000, 0.000000, 0.000000, 0.000000, 0.000000, 0.000000, -0.000000, -0.000000, -0.000000, -0.000000, -0.000000, -0.000000, -0.000000, -0.000000, 0.000000, -0.000000, 0.000000, 0.000000, 0.000000, 0.000000, 0.000000, -0.000000}, {-0.000000, 0.060039, 0.000000, -0.080776, -0.000000, 0.110619, 0.098189, 0.117142, 0.000000, -0.140708, -0.000000, 0.126911, 0.102914, -0.219209, 0.248032, -0.000000, -0.161944, -0.000000, 0.000000, 0.070452, -0.017068, -0.149623, -0.100606, 0.114638, 0.098782}, {0.000000, -0.000000, -0.000000, -0.000000, -0.000000, -0.000000, -0.000000, -0.000000, 0.000000, 0.000000, 0.000000, -0.000000, 0.000000, -0.000000, 0.000000, -0.000000, 0.000000, 0.000000, -0.000000, 0.000000, 0.000000, -0.000000, -0.000000, 0.000000, 0.000000}, {0.000000, -0.055495, -0.000000, 0.064033, 0.000000, -0.076743, -0.070902, -0.079591, 0.000000, 0.116005, -0.000000, -0.084701, -0.073159, 0.099305, -0.226129, -0.000000, 0.130835, -0.000000, 0.000000, -0.059339, 0.063225, 0.133562, -0.128580, -0.078305, -0.071172}, {0.000000, 0.182157, -0.000000, -0.174595, -0.000000, 0.207504, 0.201645, 0.210486, -0.000000, -0.199331, -0.000000, 0.214984, 0.204150, -0.216684, 0.176457, -0.000000, -0.060976, 0.000000, -0.000000, 0.188127, -0.180260, -0.200411, -0.246391, 0.209427, 0.202034}, {-0.000000, 0.182507, 0.000000, -0.175369, 0.000000, 0.208389, 0.202395, 0.211465, 0.000000, -0.201808, 0.000000, 0.216084, 0.204961, -0.218049, 0.183092, -0.000000, -0.066198, 0.000000, -0.000000, 0.188581, -0.179676, -0.203499, -0.245523, 0.210365, 0.202791}, {-0.000000, -0.032099, -0.000000, 0.030367, -0.000000, -0.034449, -0.033136, -0.035054, 0.000000, 0.064519, -0.000000, -0.036357, -0.033612, 0.011713, -0.135324, 0.000000, 0.078328, -0.000000, -0.000000, -0.032041, 0.046917, 0.080066, -0.270793, -0.034542, -0.033198}, {-0.000000, 0.364819, 0.000000, -0.342817, 0.000000, 0.334001, 0.342473, 0.329303, -0.000000, -0.290852, -0.000000, 0.321428, 0.339039, -0.178668, -0.199881, -0.000000, 0.391555, -0.000000, -0.000000, 0.359024, -0.383094, -0.278527, -0.284902, 0.330999, 0.342027}, {-0.000000, -0.109860, -0.000000, 0.069184, 0.000000, -0.085408, -0.090863, -0.082416, 0.000000, 0.063208, 0.000000, -0.077664, -0.088796, -0.025130, 0.022309, 0.000000, -0.060830, -0.000000, 0.000000, -0.104713, 0.095315, 0.067599, -0.419427, -0.083167, -0.090780}, {0.000000, 0.000000, -0.000000, 0.000000, 0.000000, -0.000000, -0.000000, 0.000000, 0.000000, 0.000000, 0.000000, -0.000000, -0.000000, -0.000000, -0.000000, -0.000000, 0.000000, -0.000000, 0.000000, -0.000000, -0.000000, 0.000000, -0.000000, 0.000000, 0.000000}, {0.000000, 0.047035, -0.000000, -0.028233, -0.000000, -0.017520, -0.001475, -0.025543, 0.000000, 0.049314, 0.000000, -0.039130, -0.007989, 0.212541, -0.329253, -0.000000, 0.332183, -0.000000, 0.000000, 0.033492, -0.197297, 0.058092, 0.159676, -0.022863, -0.002327}, {-0.000000, 0.180514, -0.000000, -0.172888, 0.000000, 0.205260, 0.199566, 0.208137, -0.000000, -0.196156, 0.000000, 0.212486, 0.201995, -0.213542, 0.170632, 0.000000, -0.056972, -0.000000, 0.000000, 0.186347, -0.180984, -0.196814, -0.245614, 0.207124, 0.199940}, {0.000000, 0.059715, -0.000000, -0.080652, -0.000000, 0.110587, 0.098086, 0.117146, 0.000000, -0.140913, -0.000000, 0.126974, 0.102840, -0.220259, 0.248763, -0.000000, -0.162541, -0.000000, -0.000000, 0.070190, -0.016136, -0.149851, -0.101505, 0.114631, 0.098683}, {-0.000000, 0.359608, -0.000000, -0.334761, -0.000000, 0.351002, 0.354197, 0.348952, -0.000000, -0.293439, 0.000000, 0.345524, 0.352891, -0.269752, -0.116625, 0.000000, 0.314462, -0.000000, -0.000000, 0.358647, -0.294954, -0.276893, -0.344454, 0.349861, 0.354063}, {-0.000000, 0.060054, -0.000000, -0.080805, -0.000000, 0.110531, 0.098126, 0.117044, -0.000000, -0.140642, -0.000000, 0.126795, 0.102843, -0.218903, 0.247672, -0.000000, -0.161597, -0.000000, -0.000000, 0.070448, -0.017216, -0.149557, -0.100658, 0.114544, 0.098719}, {0.000000, -0.000000, 0.000000, 0.000000, 0.000000, -0.000000, 0.000000, -0.000000, -0.000000, 0.000000, 0.000000, 0.000000, 0.000000, 0.000000, -0.000000, -0.000000, -0.000000, 0.000000, 0.000000, -0.000000, 0.000000, 0.000000, -0.000000, 0.000000, -0.000000}};
float * p_layer_2_weight = layer_2_weight;
static const float layer_2_bias[25] = {-0.158480, 0.288318, -0.002660, 0.542738, -0.087988, 0.254108, 0.263329, 0.249347, -0.210401, 0.562930, -0.019675, 0.240304, 0.259614, 0.501368, 0.598088, -0.194914, 0.380046, -0.050291, -0.092296, 0.281472, 0.454804, 0.564002, 0.526036, 0.250945, 0.262909};
float * p_layer_2_bias = layer_2_bias;
static const float layer_3_weight[25][3] = {{-0.000000, -0.000000, 0.000000}, {-0.039978, 0.321051, -1.068946}, {0.000000, 0.000000, -0.000000}, {-0.041914, -0.254122, 1.023065}, {0.000000, -0.000000, -0.000000}, {0.081853, 0.077458, -1.179390}, {0.045128, 0.142397, -1.150126}, {0.103599, 0.042376, -1.196235}, {0.000000, -0.000000, 0.000000}, {-0.339058, 0.033544, 0.926493}, {-0.000000, 0.000000, 0.000000}, {0.138459, -0.017150, -1.220753}, {0.060583, 0.115908, -1.161216}, {-0.248172, 0.659022, 0.987270}, {1.065309, -0.971564, -0.154156}, {0.000000, -0.000000, 0.000000}, {-0.884558, 1.049077, -0.398903}, {0.000000, 0.000000, -0.000000}, {-0.000000, 0.000000, 0.000000}, {-0.018633, 0.273467, -1.091313}, {0.405210, -1.088081, 1.434064}, {-0.435687, 0.069904, 0.889407}, {1.459091, 1.522819, 1.469236}, {0.093838, 0.054697, -1.189359}, {0.046830, 0.138962, -1.151863}};
float * p_layer_3_weight = layer_3_weight;
static const float layer_3_bias[3] = {-0.381560, -0.606874, -0.625037};
float * p_layer_3_bias = layer_3_bias;
    
float sigmoid(float num) {
    return 1 / (1 + exp(-num));
}

float step(float num) {
    if (num < 0) {
        return 0;
    }
    return 1;
}

float relu(float num) {
    if (num > 0) {
        return num;
    } else {
        return 0;
    }
}

float linear(float num) {
    return num;
}

void layer(float * in, float * layer_weight, float * layer_bias,   
            int row, int col, float * output, int use_activation) {
    int ii;
    int jj;
    float * p;

    for(ii = 0; ii < col; ii++) {
        p = layer_weight + ii;
        output[ii] = 0;
        for (jj = 0; jj < row; jj++) {
            output[ii] += in[jj] * (*p); 
            p += col;
        }
        output[ii] += layer_bias[ii];

        if (use_activation == 1) {
			output[ii] = relu(output[ii]);
        }
    }
}

void network(net_outputs *net_out, float * state_array) {
	layer(state_array, p_layer_0_weight, p_layer_0_bias, STRUCTURE[0][0], STRUCTURE[0][1], output_0, 1);
	layer(output_0, p_layer_1_weight, p_layer_1_bias, STRUCTURE[1][0], STRUCTURE[1][1], output_1, 1);
	layer(output_1, p_layer_2_weight, p_layer_2_bias, STRUCTURE[2][0], STRUCTURE[2][1], output_2, 1);
	layer(output_2, p_layer_3_weight, p_layer_3_bias, STRUCTURE[3][0], STRUCTURE[3][1], output_3, 0);

	net_out->out_0 = output_3[0];
	net_out->out_1 = output_3[1];
	net_out->out_2 = output_3[2];
}
