/*
 * FILE: generated.c
 */

#include <stdio.h>
#include <stdlib.h>
#include <string.h>
#include <math.h>
#include "network.h"

static const int STRUCTURE[4][2] = {{12, 25}, {25, 30}, {30, 15}, {15, 3}};
static float output_0[25];
static float output_1[30];
static float output_2[15];
static float output_3[3];
static const float layer_0_weight[12][25] = {{0.000000, -0.556730, -0.000000, 0.358399, 0.124136, -0.318757, -0.046942, -0.000000, 0.163974, 0.477523, 0.243255, -0.250647, -0.000000, -0.004522, 0.081299, -0.122967, 0.337183, -0.256580, -1.029580, 0.262308, -1.672424, 0.320696, 0.000000, 0.095042, -0.323969}, {-0.000000, 0.148714, 0.000000, 0.202560, -0.618218, -0.222103, 0.266458, 0.000000, -0.141487, 0.255273, -0.035829, 0.161425, -0.000000, 0.002495, 0.001380, 0.261758, -0.089670, -0.060384, 0.018216, 0.041499, -0.014543, 0.541972, 0.000000, -0.686821, 0.284905}, {-0.000000, 0.114789, -0.000000, 0.039879, 0.203630, 0.130123, -0.067564, -0.000000, -0.064467, 0.021701, -0.061771, 0.114332, 0.000000, 0.169837, -0.358806, -0.194421, 0.269665, 0.152344, -0.085706, 0.116477, -0.005097, 0.307894, -0.000000, 0.337680, 0.143967}, {0.000000, 0.027912, -0.000000, 0.673886, 0.023399, 0.297197, 0.170966, 0.000000, -0.015691, 0.467784, -0.283055, -0.605190, 0.000000, -0.501189, 1.034186, -0.074430, 0.681027, -0.649714, 1.083947, 0.043002, -0.129678, 0.117517, -0.000000, 0.103338, 0.242038}, {0.000000, -1.597890, 0.000000, -0.100189, 0.529877, -0.626605, 0.298223, -0.000000, -1.238045, -0.232408, 0.482335, 0.273909, -0.000000, 1.209886, -0.674326, -0.565527, 0.828297, 0.394124, -0.306698, -0.021431, 0.008455, -0.504016, 0.000000, -0.309387, 1.276441}, {-0.000000, 0.276164, 0.000000, -0.154425, 0.632018, -1.469108, 1.368392, -0.000000, 0.097770, -0.071958, 1.625624, -1.020366, -0.000000, -1.217897, -0.458431, -1.203577, -1.056302, -0.014840, 0.200636, -1.427182, 0.062068, 0.404214, -0.000000, 0.654758, -0.074668}, {0.000000, 0.867340, -0.000000, -0.587654, 0.768450, 0.645908, 0.039582, -0.000000, 0.851123, -0.054908, 0.730153, 0.378982, -0.000000, 0.493922, 0.703864, -0.757358, 0.717677, 0.046109, -0.274049, -0.106293, -0.081009, -1.901040, -0.000000, -1.579541, -0.794495}, {0.000000, 0.010145, 0.000000, -0.015124, -0.008705, -0.009060, -0.016919, -0.000000, 0.004776, 0.010548, 0.013106, -0.018665, -0.000000, -0.009803, 0.030576, -0.003427, 0.009593, -0.006608, -0.010912, -0.007928, 0.006378, 0.000832, -0.000000, -0.016430, 0.010124}, {-0.000000, -0.190058, -0.000000, 0.198460, -0.284201, 0.275070, 0.135627, -0.000000, 0.054919, -0.219137, 0.109128, 0.199422, 0.000000, 0.044506, -0.144350, 0.266006, 0.046150, 0.357127, -0.068139, 0.249728, 0.036669, 0.118594, -0.000000, 0.196784, -0.145051}, {0.000000, -0.065365, -0.000000, 0.172518, -0.046751, 0.153433, 0.137986, -0.000000, -0.214211, -0.182005, -0.025145, 0.040453, -0.000000, 0.011920, -0.335876, 0.104183, 0.159182, 0.132648, -0.093542, -0.016124, 0.139764, 0.125314, 0.000000, 0.285773, 0.056420}, {0.000000, 0.099732, -0.000000, 0.202198, 0.263083, -0.227725, 0.139926, -0.000000, 0.240803, -0.185819, 0.105800, 0.078357, -0.000000, -0.009034, 0.073593, -0.321316, -0.092737, 0.140530, 0.076309, 0.000623, -0.037107, 0.075382, -0.000000, -0.012737, 0.014866}, {-0.000000, 0.059653, 0.000000, 0.199765, -0.079485, -0.074700, 0.145073, -0.000000, 0.127329, -0.205253, 0.088043, 0.180057, 0.000000, -0.253235, 0.110059, -0.005889, -0.209509, 0.233370, 0.015440, 0.223013, 0.073129, 0.185741, -0.000000, -0.132382, -0.299552}};
float * p_layer_0_weight = layer_0_weight;
static const float layer_0_bias[25] = {-0.200916, 0.203169, -0.128281, -0.578922, 0.069150, 0.034211, -0.344522, -0.006642, -0.162523, 0.491258, -0.189367, -0.236762, -0.172778, 0.061779, 0.401005, -0.015781, 0.121519, -0.511811, 0.080367, -0.185750, -0.002795, -0.357334, -0.141617, -0.065309, 0.346324};
float * p_layer_0_bias = layer_0_bias;
static const float layer_1_weight[25][30] = {{0.000000, 0.000000, -0.000000, 0.000000, -0.000000, -0.000000, -0.000000, -0.000000, 0.000000, -0.000000, 0.000000, 0.000000, -0.000000, -0.000000, 0.000000, -0.000000, 0.000000, 0.000000, -0.000000, -0.000000, -0.000000, -0.000000, -0.000000, -0.000000, 0.000000, -0.000000, -0.000000, 0.000000, -0.000000, -0.000000}, {-0.064218, -0.343181, 0.058395, 0.023633, 0.211268, -0.000000, -0.268392, 0.274102, -0.431314, 0.000000, -0.088349, -0.181379, -0.000000, 0.000000, -0.062741, -0.423541, 0.000000, -0.359403, -0.414084, -0.070081, 0.382937, -0.090410, 0.000000, -0.059035, -0.000000, -0.267256, 0.019435, 0.000000, -0.000000, -0.229343}, {0.000000, 0.000000, -0.000000, -0.000000, 0.000000, 0.000000, 0.000000, 0.000000, 0.000000, -0.000000, -0.000000, -0.000000, -0.000000, 0.000000, 0.000000, 0.000000, -0.000000, 0.000000, -0.000000, 0.000000, -0.000000, -0.000000, -0.000000, 0.000000, -0.000000, -0.000000, 0.000000, -0.000000, 0.000000, 0.000000}, {0.035901, 0.123315, -0.554245, 0.193744, -0.227826, -0.000000, 0.119610, -0.116461, 0.137397, -0.000000, 0.108140, 0.180004, 0.000000, 0.000000, 0.037893, 0.089256, -0.000000, 0.272252, 0.082290, -0.122417, -0.126151, -1.154110, -0.000000, -0.623766, -0.000000, 0.167200, -0.047360, -0.000000, -0.000000, 0.128258}, {0.045348, -0.248484, 0.051993, 0.077792, 0.060945, 0.000000, -0.089169, 0.011847, -0.335309, -0.000000, 0.027219, 0.000243, -0.000000, -0.000000, 0.046177, -0.375976, -0.000000, 0.021343, -0.371945, -0.271334, 0.290740, -0.152407, -0.000000, -0.096962, 0.000000, -0.469058, -0.147506, -0.000000, -0.000000, -0.221230}, {-0.242802, 0.449163, -0.060391, -0.080526, -0.199274, -0.000000, 0.253885, 0.162551, 0.483508, -0.000000, -0.258169, -0.155467, 0.000000, -0.000000, -0.241212, 0.508160, -0.000000, -0.008809, 0.486519, -0.060571, -0.073038, -0.052623, -0.000000, 0.012020, -0.000000, -0.098479, 0.107148, -0.000000, -0.000000, 0.039653}, {0.239717, 0.032315, -0.415685, 0.164820, -0.064900, -0.000000, 0.044035, -0.402667, 0.061512, -0.000000, 0.355558, 0.215823, 0.000000, -0.000000, 0.241354, -0.010391, -0.000000, 0.248487, -0.015791, -0.118361, 0.124193, -0.340777, 0.000000, -0.240099, 0.000000, 0.256403, -0.478892, 0.000000, -0.000000, 0.068950}, {0.000000, 0.000000, 0.000000, -0.000000, -0.000000, 0.000000, 0.000000, -0.000000, 0.000000, -0.000000, -0.000000, 0.000000, -0.000000, 0.000000, 0.000000, 0.000000, 0.000000, -0.000000, 0.000000, -0.000000, 0.000000, 0.000000, -0.000000, 0.000000, -0.000000, 0.000000, 0.000000, -0.000000, -0.000000, -0.000000}, {-0.320239, -0.250228, 0.048362, 0.349936, 0.403784, 0.000000, -0.281833, 0.142194, -0.120874, -0.000000, -0.263368, -0.130421, 0.000000, 0.000000, -0.316713, -0.027547, -0.000000, -0.352830, -0.017670, -0.131156, 0.097652, -0.164025, -0.000000, -0.448336, -0.000000, -0.210326, -0.233877, 0.000000, -0.000000, 0.193287}, {-0.301217, 0.048450, 0.243582, -0.201482, 0.219722, 0.000000, 0.075539, 0.340920, 0.011289, -0.000000, -0.326977, -0.347516, 0.000000, -0.000000, -0.299411, 0.011994, 0.000000, -0.176953, 0.004778, -0.051127, 0.176725, 0.339750, -0.000000, 0.423242, -0.000000, 0.150657, 0.341994, -0.000000, -0.000000, -0.762859}, {0.303799, -0.014640, -0.180556, 0.067165, 0.119087, 0.000000, 0.020739, -0.505263, 0.046143, -0.000000, 0.362059, 0.339981, 0.000000, -0.000000, 0.304473, -0.001738, -0.000000, 0.180967, -0.002844, 0.071740, 0.035637, -0.049820, -0.000000, -0.094361, -0.000000, 0.224328, -0.345595, -0.000000, -0.000000, 0.084288}, {-0.121867, 0.100824, -0.093047, 0.320789, 0.268923, -0.000000, -0.021334, -0.111932, 0.247069, 0.000000, -0.036060, 0.098373, -0.000000, -0.000000, -0.120778, 0.209233, -0.000000, 0.194075, 0.205718, -0.159155, 0.183607, -0.056846, -0.000000, -0.032648, 0.000000, 0.068347, -0.071255, 0.000000, -0.000000, 0.314852}, {0.000000, 0.000000, -0.000000, 0.000000, 0.000000, -0.000000, 0.000000, 0.000000, 0.000000, -0.000000, 0.000000, 0.000000, 0.000000, -0.000000, -0.000000, 0.000000, 0.000000, 0.000000, -0.000000, -0.000000, 0.000000, -0.000000, 0.000000, -0.000000, -0.000000, 0.000000, -0.000000, 0.000000, -0.000000, 0.000000}, {0.571242, 0.431114, 0.192598, -0.617548, -0.457910, -0.000000, 0.520243, -0.186312, 0.223827, 0.000000, 0.502484, 0.436365, -0.000000, -0.000000, 0.570923, 0.130988, 0.000000, 0.380598, 0.108248, 0.134992, 0.044481, 0.114967, 0.000000, -0.036805, -0.000000, 0.728024, 0.182360, 0.000000, -0.000000, -0.157642}, {-0.116630, -0.232472, -0.338826, 0.047840, 0.139282, 0.000000, -0.203613, 0.249523, -0.198570, 0.000000, -0.113197, -0.147159, -0.000000, 0.000000, -0.116079, -0.082897, -0.000000, -0.168712, -0.065980, 0.170550, -0.016000, -0.124529, -0.000000, -0.241209, 0.000000, -0.035371, -0.045000, -0.000000, -0.000000, -0.150454}, {-0.132937, 0.068257, 0.216918, 0.065406, -0.196285, 0.000000, -0.173582, 0.335625, 0.389817, -0.000000, -0.099204, -0.250150, 0.000000, -0.000000, -0.135472, 0.617326, 0.000000, -0.386102, 0.637575, 0.609128, 0.174358, 0.285042, -0.000000, 0.303101, 0.000000, 0.052074, 0.422684, 0.000000, -0.000000, -0.007822}, {0.191332, 0.256281, -0.018184, -0.141370, -0.358507, 0.000000, 0.267824, -0.057551, 0.176158, -0.000000, 0.173320, 0.196327, -0.000000, 0.000000, 0.191985, 0.102257, -0.000000, 0.257920, 0.090545, -0.008342, -0.223418, -0.328935, 0.000000, -0.000127, 0.000000, 0.038162, 0.248010, -0.000000, -0.000000, -0.055435}, {-0.276570, 0.216843, -0.053742, 0.332887, 0.147140, 0.000000, -0.002216, -0.275826, 0.467049, 0.000000, -0.184047, -0.051161, 0.000000, -0.000000, -0.273503, 0.485259, 0.000000, 0.170843, 0.482306, -0.005098, 0.010352, 0.140539, 0.000000, 0.061076, 0.000000, 0.006281, -0.241489, 0.000000, -0.000000, 0.406692}, {-0.067153, 0.210286, 0.127805, 0.103991, 0.102303, -0.000000, 0.333899, 0.273019, 0.029381, -0.000000, -0.081201, -0.161063, 0.000000, -0.000000, -0.065931, -0.063803, 0.000000, 0.109944, -0.074560, -0.391960, 0.670737, 0.380916, -0.000000, 0.709433, 0.000000, -0.199698, 0.336349, -0.000000, -0.000000, 0.293182}, {-0.047576, 0.036602, 0.025029, 0.062668, -0.094496, -0.000000, -0.026323, 0.103934, 0.132762, 0.000000, -0.042240, -0.012266, 0.000000, 0.000000, -0.046757, 0.200545, -0.000000, -0.052101, 0.208309, 0.253339, -0.390319, -0.012294, 0.000000, 0.006310, -0.000000, 0.077403, 0.048382, -0.000000, -0.000000, 0.192581}, {-0.099649, 0.762170, 0.920821, -0.818003, -0.735400, -0.000000, 0.926784, 0.509324, -0.378548, 0.000000, -0.265054, -0.365401, 0.000000, 0.000000, -0.099050, -0.645851, -0.000000, -0.146742, -0.699876, -1.067118, 1.316387, 0.837090, -0.000000, 1.195178, -0.000000, -0.519938, 0.782934, -0.000000, -0.000000, -0.896493}, {0.227725, -0.057837, -0.020533, 0.108505, 0.065600, -0.000000, -0.031683, 0.028138, -0.026828, 0.000000, 0.249379, 0.187766, 0.000000, -0.000000, 0.228214, -0.054479, 0.000000, 0.089865, -0.054489, 0.093398, -0.472254, -0.121700, 0.000000, 0.024020, -0.000000, 0.088693, 0.140835, -0.000000, -0.000000, 0.198889}, {0.000000, -0.000000, -0.000000, 0.000000, -0.000000, 0.000000, 0.000000, -0.000000, 0.000000, 0.000000, 0.000000, 0.000000, 0.000000, -0.000000, 0.000000, -0.000000, 0.000000, -0.000000, -0.000000, 0.000000, 0.000000, -0.000000, -0.000000, 0.000000, 0.000000, 0.000000, -0.000000, -0.000000, 0.000000, -0.000000}, {-0.086281, 0.178785, 0.123478, 0.107994, 0.038850, -0.000000, 0.154966, -0.182603, 0.159733, 0.000000, -0.075783, 0.036527, -0.000000, -0.000000, -0.083669, 0.067161, 0.000000, 0.118778, 0.047631, -0.342538, 0.099372, -0.017632, -0.000000, 0.009854, -0.000000, -0.217171, -0.068193, 0.000000, -0.000000, 0.052590}, {0.120536, 0.225969, 0.103119, -0.209280, -0.744084, 0.000000, 0.267860, -0.018514, 0.100555, -0.000000, 0.070864, 0.019010, 0.000000, -0.000000, 0.120350, 0.068760, 0.000000, 0.208659, 0.060993, -0.054716, 0.413297, 0.230428, -0.000000, 0.130826, -0.000000, 0.159378, 0.157449, 0.000000, -0.000000, -0.014058}};
float * p_layer_1_weight = layer_1_weight;
static const float layer_1_bias[30] = {0.250771, 0.119003, 0.131605, -0.007180, 0.064291, -0.071497, 0.118659, 0.162657, 0.108895, -0.138677, 0.234975, 0.178601, -0.173938, -0.126340, 0.251753, 0.121280, -0.107693, 0.098611, 0.121243, 0.293913, -0.008759, 0.160749, -0.040322, 0.048512, -0.194007, 0.194562, 0.070763, -0.112627, -0.017204, 0.066296};
float * p_layer_1_bias = layer_1_bias;
static const float layer_2_weight[30][15] = {{0.042020, -0.000000, 0.040578, 0.117272, -0.444445, 0.015912, -0.000000, 0.000000, -0.000000, -0.159674, 0.000000, -0.000000, 0.000000, -0.000000, 0.048729}, {0.277939, -0.000000, 0.255525, -0.029537, 0.147515, 0.222308, -0.000000, -0.000000, 0.000000, -0.265911, 0.000000, -0.000000, 0.000000, -0.000000, 0.169163}, {0.434372, -0.000000, -0.355453, 0.536388, 0.187878, 0.484043, 0.000000, -0.000000, 0.000000, -0.240424, 0.000000, -0.000000, -0.000000, -0.000000, -0.455548}, {-0.571419, -0.000000, 0.151532, -0.255305, 0.130074, -0.601502, 0.000000, 0.000000, 0.000000, 0.227153, 0.000000, 0.000000, -0.000000, 0.000000, 0.350066}, {-0.665365, -0.000000, -0.012463, -0.146184, 0.335945, -0.677425, -0.000000, 0.000000, 0.000000, 0.274890, 0.000000, -0.000000, -0.000000, 0.000000, 0.257298}, {-0.000000, -0.000000, -0.000000, 0.000000, 0.000000, -0.000000, -0.000000, -0.000000, 0.000000, 0.000000, 0.000000, -0.000000, 0.000000, 0.000000, 0.000000}, {0.275098, -0.000000, 0.184919, 0.122270, 0.096886, 0.217726, 0.000000, -0.000000, -0.000000, -0.350357, -0.000000, -0.000000, 0.000000, 0.000000, 0.122811}, {0.005789, -0.000000, -0.383079, -0.019037, 0.163597, 0.110823, 0.000000, 0.000000, 0.000000, 0.364654, -0.000000, -0.000000, -0.000000, -0.000000, -0.405213}, {0.209448, -0.000000, 0.343939, -0.250039, 0.131071, 0.156572, 0.000000, -0.000000, -0.000000, -0.115534, -0.000000, -0.000000, 0.000000, -0.000000, 0.247487}, {0.000000, -0.000000, -0.000000, 0.000000, -0.000000, -0.000000, -0.000000, -0.000000, 0.000000, -0.000000, -0.000000, 0.000000, -0.000000, -0.000000, -0.000000}, {0.005717, 0.000000, 0.081123, 0.079802, -0.423481, -0.028479, -0.000000, 0.000000, 0.000000, -0.154331, -0.000000, -0.000000, -0.000000, 0.000000, 0.098286}, {0.014812, -0.000000, 0.172746, 0.025343, -0.283766, -0.038196, -0.000000, -0.000000, 0.000000, -0.190239, -0.000000, -0.000000, -0.000000, -0.000000, 0.180381}, {0.000000, 0.000000, -0.000000, -0.000000, -0.000000, -0.000000, -0.000000, 0.000000, 0.000000, -0.000000, -0.000000, 0.000000, 0.000000, 0.000000, 0.000000}, {-0.000000, 0.000000, -0.000000, -0.000000, 0.000000, 0.000000, -0.000000, 0.000000, 0.000000, -0.000000, -0.000000, 0.000000, 0.000000, 0.000000, -0.000000}, {0.042218, -0.000000, 0.041106, 0.116491, -0.444933, 0.016044, -0.000000, -0.000000, 0.000000, -0.159631, -0.000000, -0.000000, -0.000000, -0.000000, 0.049102}, {0.191633, -0.000000, 0.297656, -0.347721, 0.120482, 0.165766, -0.000000, -0.000000, 0.000000, 0.033292, -0.000000, -0.000000, -0.000000, -0.000000, 0.184861}, {-0.000000, -0.000000, 0.000000, 0.000000, -0.000000, 0.000000, -0.000000, 0.000000, 0.000000, -0.000000, -0.000000, 0.000000, -0.000000, 0.000000, 0.000000}, {0.122058, -0.000000, 0.360927, -0.052637, -0.152377, 0.028671, -0.000000, -0.000000, -0.000000, -0.315081, -0.000000, -0.000000, 0.000000, -0.000000, 0.337185}, {0.182649, -0.000000, 0.290443, -0.361464, 0.111704, 0.160550, 0.000000, 0.000000, -0.000000, 0.056166, 0.000000, 0.000000, 0.000000, 0.000000, 0.177630}, {0.023610, -0.000000, -0.025860, -0.296039, -0.221989, 0.075042, -0.000000, -0.000000, -0.000000, 0.298325, 0.000000, 0.000000, -0.000000, 0.000000, -0.090425}, {-0.009910, -0.000000, -0.306474, 1.333436, 0.588074, -0.122066, -0.000000, -0.000000, -0.000000, -1.122210, 0.000000, -0.000000, -0.000000, 0.000000, 0.008625}, {0.469717, -0.000000, -0.709254, 0.677607, 0.384657, 0.614962, 0.000000, -0.000000, -0.000000, 0.076251, -0.000000, -0.000000, 0.000000, 0.000000, -0.791862}, {0.000000, 0.000000, -0.000000, -0.000000, 0.000000, 0.000000, -0.000000, -0.000000, -0.000000, -0.000000, 0.000000, 0.000000, 0.000000, 0.000000, 0.000000}, {0.968120, 0.000000, -1.086134, 1.477100, 0.873537, 1.098603, 0.000000, 0.000000, -0.000000, -0.618517, -0.000000, -0.000000, -0.000000, -0.000000, -1.178923}, {-0.000000, 0.000000, -0.000000, 0.000000, -0.000000, 0.000000, -0.000000, -0.000000, 0.000000, 0.000000, -0.000000, 0.000000, -0.000000, -0.000000, 0.000000}, {0.162669, -0.000000, 0.233979, -0.251007, -0.664836, 0.141207, 0.000000, 0.000000, -0.000000, 0.001965, -0.000000, 0.000000, -0.000000, -0.000000, 0.147307}, {0.544439, -0.000000, -0.178312, 0.059411, 0.166070, 0.613850, 0.000000, 0.000000, 0.000000, 0.017200, 0.000000, 0.000000, -0.000000, -0.000000, -0.383640}, {0.000000, 0.000000, -0.000000, 0.000000, -0.000000, -0.000000, -0.000000, 0.000000, 0.000000, 0.000000, -0.000000, 0.000000, -0.000000, 0.000000, -0.000000}, {0.000000, -0.000000, -0.000000, -0.000000, 0.000000, -0.000000, -0.000000, -0.000000, 0.000000, -0.000000, -0.000000, -0.000000, -0.000000, 0.000000, -0.000000}, {-0.327003, 0.000000, 0.620639, -0.598049, 0.132721, -0.433535, -0.000000, 0.000000, 0.000000, 0.069420, 0.000000, 0.000000, 0.000000, -0.000000, 0.675714}};
float * p_layer_2_weight = layer_2_weight;
static const float layer_2_bias[15] = {0.297709, -0.021598, 0.415866, 0.563419, 0.094319, 0.317844, -0.165333, -0.148749, -0.034299, 0.774680, -0.159461, -0.013712, -0.010927, -0.153762, 0.455032};
float * p_layer_2_bias = layer_2_bias;
static const float layer_3_weight[15][3] = {{-0.579677, -0.683345, 0.696415}, {0.000001, -0.000002, -0.000007}, {0.000745, -0.450232, -1.108137}, {1.254159, -0.034620, 1.920014}, {-1.130071, 2.243601, 2.252554}, {-0.798358, -0.596880, 0.939366}, {-0.000001, -0.000010, -0.000001}, {0.000003, 0.000012, 0.000011}, {0.000008, 0.000004, 0.000002}, {-0.795104, 0.608291, -0.309057}, {-0.000007, -0.000002, -0.000009}, {-0.000011, -0.000002, -0.000006}, {-0.000009, 0.000008, 0.000008}, {0.000003, 0.000000, -0.000006}, {0.405634, -0.296351, -1.269062}};
float * p_layer_3_weight = layer_3_weight;
static const float layer_3_bias[3] = {0.282257, 0.353956, -0.336579};
float * p_layer_3_bias = layer_3_bias;
    
float sigmoid(float num) {
    return 1 / (1 + exp(-num));
}

float step(float num) {
    if (num < 0) {
        return 0;
    }
    return 1;
}

float relu(float num) {
    if (num > 0) {
        return num;
    } else {
        return 0;
    }
}

float linear(float num) {
    return num;
}

void layer(float * in, float * layer_weight, float * layer_bias,   
            int row, int col, float * output, int use_activation) {
    int ii;
    int jj;
    float * p;

    for(ii = 0; ii < col; ii++) {
        p = layer_weight + ii;
        output[ii] = 0;
        for (jj = 0; jj < row; jj++) {
            output[ii] += in[jj] * (*p); 
            p += col;
        }
        output[ii] += layer_bias[ii];

        if (use_activation == 1) {
			output[ii] = relu(output[ii]);
        }
    }
}

void network(net_outputs *net_out, float * state_array) {
	layer(state_array, p_layer_0_weight, p_layer_0_bias, STRUCTURE[0][0], STRUCTURE[0][1], output_0, 1);
	layer(output_0, p_layer_1_weight, p_layer_1_bias, STRUCTURE[1][0], STRUCTURE[1][1], output_1, 1);
	layer(output_1, p_layer_2_weight, p_layer_2_bias, STRUCTURE[2][0], STRUCTURE[2][1], output_2, 1);
	layer(output_2, p_layer_3_weight, p_layer_3_bias, STRUCTURE[3][0], STRUCTURE[3][1], output_3, 0);

	net_out->out_0 = output_3[0];
	net_out->out_1 = output_3[1];
	net_out->out_2 = output_3[2];
}
