/*
 * FILE: generated.c
 */

#include <stdio.h>
#include <stdlib.h>
#include <string.h>
#include <math.h>
#include "phi_0827_2_2.h"

static const int STRUCTURE[4][2] = {{3, 25}, {25, 40}, {40, 40}, {40, 40}};
static float output_0[25];
static float output_1[40];
static float output_2[40];
static float output_3[40];
static const float layer_0_weight[3][25] = {{0.000003, -1.040341, -0.000001, 0.213795, 0.218926, 0.332492, 0.376501, 0.000000, -1.368651, -1.365128, -0.000003, 0.216262, 0.837978, -0.000002, -0.000001, -1.226205, -0.075884, -1.618295, -0.000002, 0.000001, -0.000001, -0.089408, -1.345054, -1.404771, -1.295501}, {-0.000000, 0.097613, -0.000002, 0.815737, 0.831617, -1.123257, -0.131231, -0.000001, -0.482645, -0.484691, 0.000001, 0.698531, 0.298162, -0.000000, -0.000000, 0.633465, -0.885655, -0.146122, -0.000000, 0.000002, 0.000003, -0.874149, -0.484618, -0.541871, 0.307072}, {-0.000001, -0.688579, 0.000002, -0.181511, -0.161413, 0.165848, 0.433418, -0.000000, 0.006167, 0.000991, -0.000000, 0.256648, -0.461313, 0.000003, -0.000000, 0.178873, -0.152310, -0.066434, -0.000003, 0.000002, -0.000000, -0.131011, 0.001787, -0.018724, 0.301570}};
static const float * p_layer_0_weight = layer_0_weight;
static const float layer_0_bias[25] = {-0.225419, 0.030611, -0.537032, 0.018194, 0.028201, -0.041139, -0.116041, -0.433085, 0.089932, 0.091773, -0.318289, -0.077852, 0.215461, -0.441702, -0.394418, -0.078086, 0.024710, 0.014359, -0.346676, -0.138990, -0.261782, 0.000943, 0.090583, 0.076439, -0.109213};
static const float * p_layer_0_bias = layer_0_bias;
static const float layer_1_weight[25][40] = {{-0.000000, 0.000000, -0.000000, 0.000000, -0.000000, 0.000000, -0.000000, -0.000000, 0.000000, 0.000000, -0.000000, 0.000000, 0.000000, 0.000000, -0.000000, -0.000000, 0.000000, -0.000000, -0.000000, -0.000000, -0.000000, 0.000000, -0.000000, 0.000000, -0.000000, 0.000000, 0.000000, -0.000000, 0.000000, 0.000000, 0.000000, 0.000000, 0.000000, 0.000000, 0.000000, -0.000000, -0.000000, 0.000000, 0.000000, -0.000000}, {-0.271791, -0.000000, 0.000002, -0.000000, -0.164883, -0.563983, -0.000000, -0.385044, -0.000000, -0.271781, 0.207483, 0.000000, 0.392854, -0.000000, -0.000000, -0.000000, 0.351481, -0.000000, 0.000000, 0.325487, -0.000000, -0.000000, 0.000000, 0.000000, -0.000000, -0.000000, 0.167391, -0.082720, -0.000003, -0.285381, 0.000000, 0.000000, -0.031072, 0.000000, -0.000002, 0.000000, -0.000000, 0.000000, -0.001501, -0.000000}, {-0.000000, -0.000000, 0.000000, -0.000000, -0.000000, 0.000000, 0.000000, -0.000000, -0.000000, 0.000000, -0.000000, 0.000000, -0.000000, -0.000000, 0.000000, 0.000000, 0.000000, -0.000000, -0.000000, -0.000000, -0.000000, -0.000000, 0.000000, 0.000000, 0.000000, -0.000000, -0.000000, 0.000000, 0.000000, -0.000000, -0.000000, -0.000000, -0.000000, 0.000000, -0.000000, -0.000000, -0.000000, -0.000000, 0.000000, -0.000000}, {0.366362, -0.000000, -0.000000, 0.000000, -0.489249, 0.068618, -0.000000, -0.469540, 0.000000, -0.429888, 0.511660, -0.000000, 0.272499, -0.000000, 0.000000, -0.000000, 0.268675, 0.000000, 0.000000, 0.640521, -0.000000, -0.000001, -0.000000, -0.000000, -0.000001, -0.000000, 0.057389, -0.497581, -0.000003, 0.538505, -0.000000, 0.000000, -0.073930, 0.000000, -0.000000, 0.000000, -0.000000, 0.000000, -0.004446, -0.000000}, {0.376881, 0.000000, -0.000013, 0.000000, -0.443633, 0.082163, 0.000000, -0.435985, 0.000000, -0.401579, 0.504684, 0.000000, 0.309944, 0.000000, -0.000001, -0.000000, 0.276755, 0.000000, 0.000000, 0.646307, -0.000001, -0.000005, -0.000000, 0.000000, -0.000001, -0.000000, 0.063891, -0.476997, -0.000011, 0.553791, -0.000000, 0.000000, -0.068043, -0.000000, -0.000010, -0.000000, 0.000000, -0.000000, -0.004504, -0.000000}, {0.224200, 0.000000, -0.000008, 0.000000, -0.181942, 0.164959, -0.000000, -0.203257, 0.000000, -0.164406, 0.240363, 0.000000, 0.241717, -0.000000, -0.000000, -0.000000, 0.244431, -0.000000, -0.000000, -1.375424, -0.000000, -0.000004, -0.000000, -0.000000, -0.000001, -0.000000, 0.450172, -1.097567, -0.000003, -0.027562, -0.000000, 0.000000, -0.042046, -0.000000, -0.000002, -0.000000, -0.000000, -0.000000, -0.003403, -0.000000}, {0.914066, -0.000000, 0.000004, -0.000000, -0.320077, -2.092956, -0.000000, -0.364062, -0.000000, -0.348152, 0.023027, 0.000000, -0.025651, 0.000000, 0.000000, 0.000000, 0.027904, 0.000000, -0.000000, 0.074080, 0.000000, 0.000000, -0.000000, 0.000000, -0.000000, 0.000000, 0.345143, -0.697905, 0.000004, 0.781181, 0.000000, 0.000000, -0.075220, 0.000000, 0.000003, 0.000000, -0.000000, 0.000000, -0.002811, 0.000000}, {0.000000, 0.000000, 0.000000, -0.000000, 0.000000, 0.000000, -0.000000, 0.000000, 0.000000, -0.000000, 0.000000, -0.000000, 0.000000, -0.000000, -0.000000, 0.000000, 0.000000, -0.000000, -0.000000, -0.000000, 0.000000, -0.000000, 0.000000, 0.000000, -0.000000, -0.000000, -0.000000, 0.000000, -0.000000, 0.000000, -0.000000, 0.000000, 0.000000, -0.000000, -0.000000, -0.000000, 0.000000, 0.000000, -0.000000, -0.000000}, {-0.694118, -0.000000, -0.000004, -0.000000, -0.009136, 0.049496, 0.000000, -0.024158, -0.000000, -0.011135, 0.132021, -0.000000, 0.307084, -0.000000, -0.000000, -0.000000, 0.290377, -0.000000, -0.000000, -0.114101, -0.000000, -0.000002, -0.000000, -0.000000, -0.000000, -0.000000, 0.081114, 0.000442, -0.000003, -0.469433, -0.000000, 0.000000, -0.008713, -0.000000, -0.000004, 0.000000, -0.000000, -0.000000, -0.000382, -0.000000}, {-0.685557, -0.000000, -0.000001, 0.000000, -0.012986, 0.051688, 0.000000, -0.026581, 0.000000, -0.013602, 0.135306, 0.000000, 0.308178, -0.000000, -0.000000, 0.000000, 0.293689, -0.000000, 0.000000, -0.096445, -0.000000, -0.000001, -0.000000, 0.000000, -0.000000, -0.000000, 0.083978, 0.003605, -0.000001, -0.473880, -0.000000, -0.000000, -0.008761, -0.000000, -0.000001, -0.000000, 0.000000, -0.000000, -0.000466, 0.000000}, {0.000000, 0.000000, 0.000000, 0.000000, -0.000000, 0.000000, 0.000000, -0.000000, -0.000000, 0.000000, -0.000000, -0.000000, -0.000000, 0.000000, -0.000000, -0.000000, 0.000000, -0.000000, -0.000000, 0.000000, 0.000000, -0.000000, -0.000000, 0.000000, -0.000000, 0.000000, 0.000000, -0.000000, -0.000000, 0.000000, 0.000000, -0.000000, -0.000000, 0.000000, -0.000000, 0.000000, 0.000000, -0.000000, 0.000000, 0.000000}, {0.044652, 0.000000, -0.000007, -0.000000, -0.490380, 0.098999, 0.000000, -0.485885, 0.000000, -0.456262, 0.189304, -0.000000, -0.009266, -0.000000, -0.000000, 0.000000, -0.034981, 0.000000, 0.000000, -0.031353, -0.000001, -0.000002, -0.000000, 0.000000, -0.000001, -0.000000, 0.190584, -0.160934, -0.000005, 0.362407, -0.000000, 0.000000, -0.050016, 0.000000, -0.000006, 0.000000, -0.000000, -0.000000, -0.002446, -0.000000}, {0.188824, -0.000000, 0.000007, -0.000000, 0.235655, 0.138657, -0.000000, 0.250656, 0.000000, 0.212402, 0.454080, -0.000000, -0.363126, -0.000000, 0.000000, 0.000000, -0.358629, -0.000000, 0.000000, 0.511962, 0.000000, 0.000001, 0.000000, 0.000000, -0.000000, 0.000000, 0.382391, 0.491139, 0.000004, -0.034106, 0.000000, 0.000000, 0.018802, 0.000000, 0.000004, -0.000000, 0.000000, 0.000000, 0.000830, 0.000000}, {-0.000000, 0.000000, -0.000000, -0.000000, -0.000000, 0.000000, 0.000000, 0.000000, 0.000000, 0.000000, -0.000000, -0.000000, -0.000000, 0.000000, 0.000000, -0.000000, 0.000000, 0.000000, 0.000000, 0.000000, 0.000000, 0.000000, 0.000000, -0.000000, -0.000000, 0.000000, 0.000000, -0.000000, -0.000000, -0.000000, 0.000000, -0.000000, 0.000000, -0.000000, -0.000000, -0.000000, -0.000000, 0.000000, -0.000000, -0.000000}, {-0.000000, -0.000000, 0.000000, 0.000000, 0.000000, 0.000000, 0.000000, 0.000000, 0.000000, -0.000000, -0.000000, 0.000000, 0.000000, 0.000000, 0.000000, -0.000000, -0.000000, 0.000000, 0.000000, -0.000000, -0.000000, 0.000000, 0.000000, 0.000000, 0.000000, -0.000000, 0.000000, -0.000000, -0.000000, -0.000000, 0.000000, -0.000000, -0.000000, -0.000000, 0.000000, -0.000000, -0.000000, -0.000000, -0.000000, -0.000000}, {-0.043366, 0.000000, -0.000005, -0.000000, -0.401278, 0.843635, -0.000000, -0.547303, 0.000000, -0.502886, 0.188293, 0.000000, 0.404606, 0.000000, -0.000000, 0.000000, 0.420029, -0.000000, 0.000000, -0.217658, -0.000000, -0.000001, -0.000000, 0.000000, -0.000000, -0.000000, -0.397081, -0.737946, -0.000003, 0.448187, 0.000000, 0.000000, -0.055298, -0.000000, -0.000003, -0.000000, 0.000000, 0.000000, -0.002461, 0.000000}, {0.235080, -0.000000, -0.000009, -0.000000, -0.394186, 0.412774, 0.000000, -0.437334, 0.000000, -0.353459, 0.633460, 0.000000, 0.323469, 0.000000, -0.000000, -0.000000, 0.307765, 0.000000, 0.000000, -0.228268, -0.000000, -0.000004, -0.000000, -0.000000, -0.000001, 0.000000, 0.668092, -1.067291, -0.000007, 0.151221, -0.000000, 0.000000, -0.052184, -0.000000, -0.000006, 0.000000, 0.000000, -0.000000, -0.003206, 0.000000}, {-0.309014, -0.000000, 0.000004, -0.000000, -0.138660, -0.337533, -0.000000, -0.142649, -0.000000, -0.144894, 0.500728, 0.000000, 0.723774, -0.000000, 0.000000, -0.000000, 0.746299, -0.000000, 0.000000, 0.419292, -0.000000, 0.000001, 0.000000, -0.000000, 0.000000, -0.000000, 0.399827, 0.568496, 0.000003, -0.286356, 0.000000, -0.000000, 0.005357, -0.000000, -0.000002, 0.000000, -0.000000, 0.000000, -0.001770, 0.000000}, {0.000000, -0.000000, -0.000000, 0.000000, 0.000000, 0.000000, 0.000000, -0.000000, 0.000000, 0.000000, 0.000000, 0.000000, 0.000000, 0.000000, 0.000000, -0.000000, -0.000000, -0.000000, 0.000000, 0.000000, -0.000000, 0.000000, -0.000000, -0.000000, -0.000000, -0.000000, 0.000000, 0.000000, 0.000000, 0.000000, 0.000000, -0.000000, -0.000000, -0.000000, 0.000000, 0.000000, 0.000000, 0.000000, -0.000000, 0.000000}, {-0.000000, 0.000000, -0.000000, 0.000000, -0.000000, -0.000000, -0.000000, -0.000000, -0.000000, -0.000000, -0.000000, -0.000000, -0.000000, -0.000000, -0.000000, -0.000000, -0.000000, -0.000000, -0.000000, -0.000000, -0.000000, -0.000000, 0.000000, -0.000000, 0.000000, 0.000000, -0.000000, -0.000000, 0.000000, 0.000000, 0.000000, 0.000000, -0.000000, -0.000000, -0.000000, -0.000000, -0.000000, 0.000000, -0.000000, -0.000000}, {-0.000000, -0.000000, -0.000000, 0.000000, 0.000000, -0.000000, -0.000000, -0.000000, 0.000000, -0.000000, -0.000000, 0.000000, -0.000000, -0.000000, -0.000000, -0.000000, -0.000000, 0.000000, -0.000000, -0.000000, -0.000000, -0.000000, -0.000000, 0.000000, 0.000000, -0.000000, -0.000000, 0.000000, -0.000000, -0.000000, 0.000000, 0.000000, -0.000000, 0.000000, -0.000000, 0.000000, -0.000000, -0.000000, -0.000000, 0.000000}, {0.463190, 0.000000, -0.000009, -0.000000, -0.373567, 0.423843, -0.000000, -0.422374, 0.000000, -0.348838, 0.672369, 0.000000, 0.373174, -0.000000, -0.000001, 0.000000, 0.360372, -0.000000, -0.000000, -0.094385, -0.000000, -0.000004, -0.000000, 0.000000, -0.000001, -0.000000, 0.705487, -0.835680, -0.000007, 0.447682, -0.000000, 0.000000, -0.040994, -0.000000, -0.000007, 0.000000, -0.000000, -0.000000, -0.002803, -0.000000}, {-0.670421, 0.000000, -0.000000, -0.000000, -0.014608, 0.049312, 0.000000, -0.026234, 0.000000, -0.012966, 0.129537, -0.000000, 0.306315, -0.000000, -0.000000, -0.000000, 0.290704, -0.000000, -0.000000, -0.085501, -0.000000, -0.000000, -0.000000, -0.000000, -0.000000, -0.000000, 0.082744, 0.005917, -0.000001, -0.463596, -0.000000, -0.000000, -0.007942, 0.000000, -0.000001, -0.000000, -0.000000, 0.000000, -0.000681, 0.000000}, {-0.744339, 0.000000, -0.000000, -0.000000, -0.031846, 0.045185, -0.000000, -0.043361, 0.000000, -0.026898, 0.148670, -0.000000, 0.319552, -0.000000, -0.000000, -0.000000, 0.303528, 0.000000, 0.000000, -0.120239, -0.000000, -0.000000, 0.000000, -0.000000, -0.000000, 0.000000, 0.111480, -0.003711, -0.000001, -0.539110, 0.000000, -0.000000, -0.006371, -0.000000, -0.000001, -0.000000, -0.000000, -0.000000, -0.000325, 0.000000}, {-0.151875, -0.000000, -0.000006, -0.000000, -0.791305, 0.789087, -0.000000, -0.911138, 0.000000, -0.858815, 0.181526, 0.000000, 0.478565, -0.000000, -0.000000, 0.000000, 0.492946, 0.000000, 0.000000, -0.688282, -0.000000, -0.000002, -0.000000, -0.000000, -0.000000, 0.000000, 0.115142, -0.541214, -0.000005, 0.342021, -0.000000, -0.000000, -0.072479, 0.000000, -0.000004, 0.000000, 0.000000, 0.000000, -0.004089, 0.000000}};
static const float * p_layer_1_weight = layer_1_weight;
static const float layer_1_bias[40] = {0.170685, -0.080268, -0.028506, -0.019742, 0.119098, -0.048946, -0.138972, 0.141794, -0.157101, 0.127865, -0.122700, -0.141283, -0.165842, -0.049911, -0.004483, -0.078674, -0.186373, -0.140394, -0.190014, -0.023575, -0.006608, -0.006090, -0.013044, -0.046449, -0.046676, -0.010142, -0.138257, 0.103239, -0.025053, 0.116399, -0.157604, -0.162757, -0.018767, -0.185168, -0.039507, -0.198823, -0.220732, -0.154547, -0.014369, -0.102705};
static const float * p_layer_1_bias = layer_1_bias;
static const float layer_2_weight[40][40] = {{-0.355627, -0.000000, -0.046324, -0.346871, -0.276030, -0.000000, -0.333568, 0.000000, 0.325073, -0.000716, 0.000000, -0.000073, 0.000000, 0.000000, -0.000032, -0.477658, -0.387343, -0.000199, -0.292124, -0.000000, -0.000001, -0.000000, -0.000000, -0.375890, -0.282454, -0.000000, 0.303546, -0.000947, 0.000000, -0.000000, -0.000000, 0.000000, -0.000000, -0.000000, -0.000000, 0.000000, -0.366928, -0.346340, -0.451349, 0.000000}, {-0.000000, -0.000000, -0.000000, 0.000000, 0.000000, 0.000000, 0.000000, -0.000000, -0.000000, 0.000000, 0.000000, 0.000000, -0.000000, 0.000000, 0.000000, 0.000000, 0.000000, 0.000000, 0.000000, 0.000000, -0.000000, 0.000000, 0.000000, 0.000000, 0.000000, -0.000000, 0.000000, 0.000000, -0.000000, -0.000000, -0.000000, 0.000000, 0.000000, -0.000000, 0.000000, -0.000000, 0.000000, -0.000000, -0.000000, -0.000000}, {0.000001, 0.000000, 0.000001, 0.000001, 0.000001, -0.000000, 0.000000, 0.000000, 0.000001, 0.000000, -0.000000, 0.000001, -0.000000, -0.000000, 0.000001, 0.000000, 0.000000, 0.000000, 0.000001, 0.000000, 0.000000, -0.000000, -0.000000, 0.000001, 0.000001, 0.000000, -0.000000, 0.000000, 0.000000, -0.000000, 0.000000, 0.000000, 0.000000, -0.000000, -0.000000, -0.000000, 0.000000, 0.000001, 0.000001, 0.000000}, {0.000000, -0.000000, 0.000000, 0.000000, 0.000000, -0.000000, 0.000000, 0.000000, -0.000000, 0.000000, 0.000000, 0.000000, -0.000000, 0.000000, -0.000000, -0.000000, -0.000000, -0.000000, -0.000000, -0.000000, -0.000000, 0.000000, 0.000000, -0.000000, 0.000000, 0.000000, 0.000000, -0.000000, -0.000000, -0.000000, -0.000000, 0.000000, 0.000000, 0.000000, -0.000000, -0.000000, 0.000000, 0.000000, -0.000000, 0.000000}, {0.029390, -0.000000, -0.008153, 0.033564, 0.152672, -0.000000, 0.179761, -0.000000, -0.065360, -0.000003, 0.000000, -0.000003, -0.000000, -0.000000, 0.000002, 0.099280, 0.034535, 0.000023, 0.152259, 0.000000, 0.000000, 0.000000, -0.000000, 0.036537, 0.093390, 0.000000, -0.091210, 0.000052, 0.000000, 0.000000, 0.000000, -0.000000, 0.000000, 0.000000, 0.000000, -0.000000, 0.034730, 0.166308, -0.033345, 0.000000}, {0.146277, -0.000000, 0.000065, 0.139568, -0.242552, 0.000000, -0.368578, -0.000000, 0.655944, -0.000055, -0.000000, 0.000012, -0.000000, -0.000000, -0.000016, -0.170312, 0.130453, -0.000043, -0.247160, -0.000000, -0.000000, -0.000000, 0.000000, 0.163550, -0.121486, -0.000000, 0.647524, -0.000736, -0.000000, -0.000000, -0.000000, 0.000000, -0.000000, 0.000000, -0.000000, -0.000000, 0.141321, -0.382260, 0.025068, -0.000000}, {-0.000000, -0.000000, 0.000000, -0.000000, -0.000000, -0.000000, 0.000000, -0.000000, -0.000000, 0.000000, 0.000000, 0.000000, 0.000000, -0.000000, -0.000000, 0.000000, 0.000000, 0.000000, -0.000000, 0.000000, -0.000000, 0.000000, 0.000000, 0.000000, 0.000000, -0.000000, -0.000000, 0.000000, 0.000000, 0.000000, -0.000000, -0.000000, 0.000000, -0.000000, 0.000000, -0.000000, -0.000000, 0.000000, 0.000000, -0.000000}, {0.094626, -0.000000, -0.004145, 0.100529, 0.197967, 0.000000, 0.224610, -0.000000, -0.134075, 0.000018, -0.000000, -0.000005, -0.000000, 0.000000, 0.000003, 0.167613, 0.107738, 0.000019, 0.209943, 0.000000, 0.000000, 0.000000, 0.000000, 0.106692, 0.159579, 0.000000, -0.184721, 0.000081, -0.000000, 0.000000, 0.000000, -0.000000, 0.000000, 0.000000, -0.000000, -0.000000, 0.106271, 0.212914, 0.061531, 0.000000}, {0.000000, -0.000000, 0.000000, -0.000000, 0.000000, -0.000000, 0.000000, 0.000000, 0.000000, -0.000000, -0.000000, 0.000000, 0.000000, 0.000000, 0.000000, 0.000000, -0.000000, -0.000000, -0.000000, 0.000000, -0.000000, -0.000000, 0.000000, 0.000000, -0.000000, 0.000000, 0.000000, -0.000000, 0.000000, 0.000000, -0.000000, -0.000000, 0.000000, 0.000000, 0.000000, 0.000000, -0.000000, -0.000000, 0.000000, 0.000000}, {0.053265, -0.000000, -0.005074, 0.054657, 0.159074, -0.000000, 0.183881, 0.000000, -0.070299, -0.000009, 0.000000, -0.000001, -0.000000, -0.000000, 0.000004, 0.109369, 0.062139, 0.000019, 0.161940, -0.000000, 0.000000, 0.000000, 0.000000, 0.066664, 0.114513, -0.000000, -0.130849, 0.000057, 0.000000, -0.000000, 0.000000, 0.000000, -0.000000, 0.000000, -0.000000, -0.000000, 0.069369, 0.155643, 0.023941, -0.000000}, {-0.318350, -0.000000, -0.013197, -0.319358, -0.192007, -0.000000, -0.119377, -0.000000, 0.281682, -0.000246, -0.000000, -0.000013, -0.000000, -0.000000, -0.000019, -0.099623, -0.338629, -0.000161, -0.141474, -0.000000, -0.000000, -0.000000, -0.000000, -0.328225, -0.314051, -0.000000, 0.282063, -0.000788, 0.000000, -0.000000, -0.000000, 0.000000, -0.000000, -0.000000, 0.000000, -0.000000, -0.331596, -0.083045, -0.250404, 0.000000}, {-0.000000, 0.000000, 0.000000, 0.000000, -0.000000, 0.000000, -0.000000, 0.000000, -0.000000, 0.000000, -0.000000, 0.000000, -0.000000, -0.000000, 0.000000, 0.000000, -0.000000, -0.000000, 0.000000, 0.000000, -0.000000, -0.000000, 0.000000, -0.000000, -0.000000, -0.000000, 0.000000, -0.000000, -0.000000, -0.000000, 0.000000, -0.000000, 0.000000, 0.000000, -0.000000, -0.000000, -0.000000, -0.000000, 0.000000, -0.000000}, {-0.409618, 0.000000, -0.032188, -0.389057, -0.398140, 0.000000, -0.370114, 0.000000, 0.152827, -0.000575, -0.000000, -0.000026, -0.000000, -0.000000, -0.000027, -0.216154, -0.415403, -0.000197, -0.449917, -0.000000, -0.000001, -0.000000, 0.000000, -0.421936, -0.459186, -0.000000, 0.147391, -0.000585, -0.000000, -0.000000, -0.000000, 0.000000, 0.000000, -0.000000, -0.000000, -0.000000, -0.428449, -0.450408, -0.181681, -0.000000}, {-0.000000, 0.000000, -0.000000, -0.000000, 0.000000, 0.000000, -0.000000, 0.000000, -0.000000, 0.000000, -0.000000, -0.000000, 0.000000, 0.000000, -0.000000, -0.000000, -0.000000, -0.000000, 0.000000, -0.000000, 0.000000, 0.000000, -0.000000, 0.000000, -0.000000, -0.000000, -0.000000, 0.000000, -0.000000, -0.000000, -0.000000, -0.000000, 0.000000, 0.000000, -0.000000, 0.000000, 0.000000, -0.000000, 0.000000, -0.000000}, {0.000000, 0.000000, 0.000000, 0.000000, 0.000000, -0.000000, 0.000000, -0.000000, 0.000000, 0.000000, -0.000000, 0.000000, -0.000000, -0.000000, 0.000000, -0.000000, 0.000000, 0.000000, 0.000000, -0.000000, -0.000000, 0.000000, -0.000000, 0.000000, 0.000000, 0.000000, -0.000000, -0.000000, 0.000000, 0.000000, 0.000000, 0.000000, -0.000000, -0.000000, -0.000000, -0.000000, -0.000000, 0.000000, 0.000000, 0.000000}, {-0.000000, -0.000000, -0.000000, 0.000000, -0.000000, -0.000000, -0.000000, -0.000000, 0.000000, -0.000000, -0.000000, 0.000000, 0.000000, 0.000000, 0.000000, 0.000000, 0.000000, 0.000000, 0.000000, -0.000000, 0.000000, -0.000000, 0.000000, 0.000000, 0.000000, 0.000000, 0.000000, 0.000000, -0.000000, -0.000000, 0.000000, -0.000000, -0.000000, 0.000000, 0.000000, -0.000000, 0.000000, 0.000000, -0.000000, 0.000000}, {-0.402807, 0.000000, -0.026471, -0.388133, -0.405467, -0.000000, -0.353205, 0.000000, 0.165371, -0.000452, -0.000000, -0.000034, 0.000000, -0.000000, -0.000028, -0.226272, -0.420644, -0.000260, -0.449337, -0.000000, -0.000000, 0.000000, 0.000000, -0.436758, -0.466435, -0.000000, 0.165041, -0.000544, 0.000000, 0.000000, -0.000000, -0.000000, -0.000000, 0.000000, -0.000000, -0.000000, -0.432074, -0.443561, -0.190025, -0.000000}, {0.000000, 0.000000, 0.000000, 0.000000, -0.000000, -0.000000, 0.000000, -0.000000, -0.000000, 0.000000, 0.000000, -0.000000, -0.000000, 0.000000, -0.000000, -0.000000, -0.000000, 0.000000, -0.000000, 0.000000, 0.000000, 0.000000, 0.000000, 0.000000, -0.000000, 0.000000, 0.000000, 0.000000, -0.000000, -0.000000, -0.000000, -0.000000, 0.000000, -0.000000, -0.000000, -0.000000, -0.000000, 0.000000, -0.000000, 0.000000}, {0.000000, -0.000000, -0.000000, -0.000000, -0.000000, 0.000000, -0.000000, 0.000000, 0.000000, -0.000000, 0.000000, 0.000000, 0.000000, -0.000000, -0.000000, -0.000000, 0.000000, -0.000000, 0.000000, -0.000000, 0.000000, -0.000000, -0.000000, -0.000000, 0.000000, -0.000000, -0.000000, 0.000000, -0.000000, -0.000000, -0.000000, 0.000000, -0.000000, 0.000000, -0.000000, 0.000000, 0.000000, 0.000000, -0.000000, 0.000000}, {-0.504790, 0.000000, -0.022831, -0.529126, -0.507823, -0.000000, -0.851214, -0.000000, 0.214252, -0.000606, 0.000000, -0.000109, -0.000000, -0.000000, -0.000062, -1.009394, -0.530831, -0.000296, -0.451822, 0.000000, -0.000001, 0.000000, -0.000000, -0.516931, -0.592608, -0.000000, 0.214901, -0.000677, -0.000000, 0.000000, -0.000000, 0.000000, -0.000000, -0.000000, -0.000000, -0.000000, -0.530453, -0.956602, -0.463128, 0.000000}, {0.000000, -0.000000, 0.000000, 0.000000, 0.000000, 0.000000, 0.000000, 0.000000, 0.000000, 0.000000, 0.000000, 0.000000, 0.000000, -0.000000, -0.000000, 0.000000, 0.000000, 0.000000, -0.000000, -0.000000, 0.000000, 0.000000, -0.000000, 0.000000, 0.000000, -0.000000, -0.000000, -0.000000, -0.000000, -0.000000, 0.000000, -0.000000, -0.000000, 0.000000, -0.000000, -0.000000, 0.000000, 0.000000, 0.000000, -0.000000}, {0.000000, 0.000000, 0.000000, -0.000000, 0.000000, -0.000000, 0.000000, 0.000000, 0.000000, -0.000000, -0.000000, 0.000000, 0.000000, -0.000000, 0.000000, -0.000000, 0.000000, -0.000000, 0.000000, -0.000000, 0.000000, 0.000000, 0.000000, 0.000000, 0.000000, 0.000000, 0.000000, 0.000000, 0.000000, -0.000000, 0.000000, 0.000000, 0.000000, -0.000000, -0.000000, 0.000000, 0.000000, 0.000000, 0.000000, 0.000000}, {-0.000000, 0.000000, -0.000000, -0.000000, -0.000000, -0.000000, -0.000000, 0.000000, 0.000000, -0.000000, -0.000000, 0.000000, -0.000000, 0.000000, -0.000000, -0.000000, -0.000000, 0.000000, -0.000000, -0.000000, -0.000000, 0.000000, 0.000000, -0.000000, -0.000000, 0.000000, -0.000000, -0.000000, 0.000000, -0.000000, -0.000000, -0.000000, -0.000000, -0.000000, 0.000000, -0.000000, -0.000000, -0.000000, -0.000000, 0.000000}, {0.000000, -0.000000, 0.000000, -0.000000, 0.000000, -0.000000, 0.000000, 0.000000, 0.000000, 0.000000, -0.000000, -0.000000, 0.000000, 0.000000, -0.000000, -0.000000, 0.000000, 0.000000, -0.000000, -0.000000, 0.000000, 0.000000, 0.000000, -0.000000, -0.000000, 0.000000, 0.000000, 0.000000, 0.000000, 0.000000, 0.000000, -0.000000, -0.000000, -0.000000, -0.000000, 0.000000, -0.000000, -0.000000, -0.000000, -0.000000}, {-0.000000, -0.000000, 0.000000, 0.000000, -0.000000, 0.000000, 0.000000, 0.000000, 0.000000, 0.000000, -0.000000, 0.000000, -0.000000, -0.000000, -0.000000, 0.000000, -0.000000, -0.000000, -0.000000, -0.000000, 0.000000, -0.000000, 0.000000, 0.000000, 0.000000, 0.000000, -0.000000, -0.000000, -0.000000, 0.000000, -0.000000, -0.000000, -0.000000, -0.000000, -0.000000, -0.000000, -0.000000, 0.000000, 0.000000, -0.000000}, {0.000000, 0.000000, -0.000000, -0.000000, 0.000000, -0.000000, 0.000000, -0.000000, -0.000000, -0.000000, 0.000000, -0.000000, -0.000000, -0.000000, 0.000000, -0.000000, -0.000000, 0.000000, 0.000000, -0.000000, 0.000000, 0.000000, 0.000000, -0.000000, 0.000000, 0.000000, -0.000000, -0.000000, -0.000000, 0.000000, 0.000000, -0.000000, 0.000000, -0.000000, 0.000000, 0.000000, 0.000000, 0.000000, -0.000000, 0.000000}, {-0.437576, -0.000000, -0.006620, -0.481092, -0.165572, 0.000000, -0.102932, -0.000000, 0.198812, -0.000207, 0.000000, 0.000001, -0.000000, -0.000000, -0.000022, -0.016380, -0.442211, -0.000150, -0.216854, -0.000000, 0.000000, -0.000000, 0.000000, -0.432086, -0.380965, -0.000000, 0.199717, -0.000439, 0.000000, -0.000000, -0.000000, -0.000000, 0.000000, -0.000000, -0.000000, -0.000000, -0.435325, -0.138002, -0.126401, -0.000000}, {0.321113, -0.000000, 0.048344, 0.328224, 0.506564, 0.000000, 0.508086, -0.000000, 0.175882, 0.000728, 0.000000, 0.000052, -0.000000, -0.000000, 0.000037, 0.497363, 0.322038, 0.000286, 0.565860, 0.000000, -0.000000, 0.000000, 0.000000, 0.319466, 0.474728, -0.000000, 0.219507, 0.001093, -0.000000, 0.000000, 0.000000, -0.000000, -0.000000, -0.000000, -0.000000, 0.000000, 0.325766, 0.537896, 0.290475, -0.000000}, {0.000000, 0.000000, 0.000000, 0.000000, 0.000000, -0.000000, 0.000000, -0.000000, 0.000000, 0.000000, 0.000000, 0.000000, 0.000000, 0.000000, 0.000000, 0.000000, 0.000000, 0.000000, 0.000000, -0.000000, -0.000000, 0.000000, -0.000000, 0.000000, 0.000000, 0.000000, -0.000000, 0.000000, -0.000000, 0.000000, -0.000000, -0.000000, 0.000000, -0.000000, -0.000000, -0.000000, 0.000000, 0.000000, 0.000000, 0.000000}, {-0.103909, -0.000000, -0.023556, -0.107272, -0.402869, 0.000000, -0.572159, -0.000000, 0.286626, -0.000705, -0.000000, -0.000084, 0.000000, 0.000000, -0.000036, -0.609309, -0.121391, -0.000139, -0.412379, -0.000000, -0.000001, -0.000000, 0.000000, -0.108480, -0.205189, -0.000000, 0.277058, -0.001042, 0.000000, -0.000000, -0.000000, -0.000000, -0.000000, -0.000000, -0.000000, -0.000000, -0.099276, -0.599280, -0.123486, 0.000000}, {0.000000, 0.000000, 0.000000, 0.000000, 0.000000, -0.000000, 0.000000, -0.000000, 0.000000, 0.000000, 0.000000, 0.000000, -0.000000, 0.000000, 0.000000, 0.000000, 0.000000, 0.000000, 0.000000, -0.000000, 0.000000, 0.000000, 0.000000, 0.000000, 0.000000, -0.000000, 0.000000, 0.000000, 0.000000, 0.000000, 0.000000, 0.000000, -0.000000, 0.000000, 0.000000, 0.000000, 0.000000, 0.000000, 0.000000, -0.000000}, {0.000000, -0.000000, -0.000000, 0.000000, -0.000000, 0.000000, -0.000000, 0.000000, -0.000000, -0.000000, 0.000000, 0.000000, -0.000000, 0.000000, 0.000000, -0.000000, -0.000000, 0.000000, 0.000000, -0.000000, -0.000000, 0.000000, 0.000000, 0.000000, -0.000000, -0.000000, -0.000000, -0.000000, -0.000000, -0.000000, -0.000000, -0.000000, -0.000000, 0.000000, -0.000000, -0.000000, 0.000000, 0.000000, -0.000000, 0.000000}, {0.000527, -0.000000, -0.007530, 0.000369, 0.006228, 0.000000, 0.007205, 0.000000, -0.001963, -0.000048, -0.000000, -0.000004, 0.000000, -0.000000, 0.000004, 0.004455, 0.001430, 0.000018, 0.006802, 0.000000, 0.000000, 0.000000, -0.000000, 0.002228, 0.008357, 0.000000, -0.003783, 0.000026, -0.000000, 0.000000, 0.000000, -0.000000, 0.000000, 0.000000, -0.000000, 0.000000, 0.001987, 0.005777, -0.001294, -0.000000}, {-0.000000, -0.000000, 0.000000, 0.000000, -0.000000, -0.000000, 0.000000, 0.000000, 0.000000, -0.000000, 0.000000, -0.000000, -0.000000, -0.000000, -0.000000, -0.000000, 0.000000, -0.000000, 0.000000, 0.000000, 0.000000, -0.000000, -0.000000, 0.000000, 0.000000, 0.000000, -0.000000, 0.000000, 0.000000, 0.000000, 0.000000, -0.000000, 0.000000, 0.000000, 0.000000, -0.000000, 0.000000, -0.000000, 0.000000, -0.000000}, {0.000000, -0.000000, -0.000000, 0.000000, 0.000000, 0.000000, 0.000000, 0.000000, -0.000000, 0.000000, -0.000000, 0.000000, 0.000000, -0.000000, 0.000000, 0.000000, 0.000000, 0.000000, 0.000000, 0.000000, -0.000000, -0.000000, -0.000000, 0.000000, 0.000000, -0.000000, -0.000000, 0.000000, -0.000000, -0.000000, -0.000000, -0.000000, 0.000000, -0.000000, -0.000000, -0.000000, 0.000000, 0.000000, 0.000000, 0.000000}, {-0.000000, 0.000000, -0.000000, -0.000000, -0.000000, -0.000000, 0.000000, 0.000000, -0.000000, -0.000000, 0.000000, 0.000000, 0.000000, -0.000000, -0.000000, -0.000000, -0.000000, -0.000000, 0.000000, 0.000000, -0.000000, 0.000000, 0.000000, 0.000000, -0.000000, 0.000000, -0.000000, -0.000000, -0.000000, 0.000000, 0.000000, -0.000000, -0.000000, 0.000000, -0.000000, 0.000000, 0.000000, -0.000000, 0.000000, -0.000000}, {-0.000000, 0.000000, 0.000000, -0.000000, 0.000000, -0.000000, 0.000000, -0.000000, -0.000000, -0.000000, 0.000000, 0.000000, -0.000000, -0.000000, -0.000000, -0.000000, -0.000000, 0.000000, -0.000000, 0.000000, 0.000000, -0.000000, 0.000000, -0.000000, 0.000000, -0.000000, 0.000000, -0.000000, 0.000000, -0.000000, -0.000000, 0.000000, 0.000000, -0.000000, 0.000000, 0.000000, 0.000000, 0.000000, -0.000000, 0.000000}, {0.000000, -0.000000, 0.000000, -0.000000, 0.000000, 0.000000, 0.000000, -0.000000, -0.000000, 0.000000, 0.000000, 0.000000, -0.000000, -0.000000, 0.000000, 0.000000, 0.000000, 0.000000, 0.000000, -0.000000, 0.000000, -0.000000, 0.000000, 0.000000, -0.000000, -0.000000, 0.000000, 0.000000, -0.000000, -0.000000, 0.000000, -0.000000, -0.000000, 0.000000, -0.000000, -0.000000, -0.000000, -0.000000, 0.000000, -0.000000}, {0.000412, -0.000000, 0.000317, 0.000425, 0.000502, -0.000000, 0.000615, -0.000000, -0.000256, 0.000016, -0.000000, -0.000002, -0.000000, -0.000000, 0.000004, 0.000305, 0.000447, 0.000013, 0.000656, -0.000000, 0.000000, 0.000000, 0.000000, 0.000453, 0.000720, 0.000000, -0.000285, 0.000237, 0.000000, -0.000000, 0.000000, 0.000000, -0.000000, 0.000000, -0.000000, 0.000000, 0.000407, 0.000470, 0.000509, 0.000000}, {0.000000, -0.000000, -0.000000, -0.000000, 0.000000, 0.000000, -0.000000, 0.000000, -0.000000, 0.000000, 0.000000, 0.000000, 0.000000, 0.000000, 0.000000, -0.000000, -0.000000, -0.000000, -0.000000, -0.000000, 0.000000, 0.000000, 0.000000, 0.000000, -0.000000, -0.000000, -0.000000, 0.000000, -0.000000, -0.000000, -0.000000, 0.000000, 0.000000, 0.000000, -0.000000, -0.000000, -0.000000, -0.000000, -0.000000, -0.000000}};
static const float * p_layer_2_weight = layer_2_weight;
static const float layer_2_bias[40] = {0.178097, -0.065975, -0.030641, 0.180276, 0.123205, -0.047923, 0.097734, -0.027835, 0.013824, -0.041429, -0.100232, -0.018596, -0.118114, -0.104672, -0.047011, 0.126788, 0.184135, -0.041011, 0.127771, -0.011856, -0.008148, -0.055645, -0.155924, 0.184163, 0.159018, -0.022138, -0.018601, -0.058325, -0.156045, -0.006663, -0.019783, -0.144218, -0.066559, -0.016854, -0.039769, -0.097699, 0.182466, 0.106185, 0.177552, -0.065312};
static const float * p_layer_2_bias = layer_2_bias;
static const float layer_3_weight[40][40] = {{0.272338, -0.005120, 0.016892, -0.000943, -0.274212, 0.006421, 0.003319, 0.182676, -0.012375, -0.017222, -0.164463, 0.002544, -0.014502, 0.288031, -0.198405, 0.014509, 0.004674, 0.003192, 0.003406, -0.003672, -0.282594, 0.010950, 0.021037, 0.233202, -0.025429, -0.122117, 0.005445, -0.006330, 0.002810, -0.278457, -0.007736, 0.072772, -0.006619, -0.279258, -0.009224, -0.002079, -0.023936, -0.004302, -0.000347, 0.247924}, {-0.000033, 0.000206, 0.000056, 0.000074, -0.000256, 0.000239, 0.000135, 0.000183, 0.000180, -0.000269, 0.000001, -0.000118, 0.000260, -0.000211, 0.000073, 0.000048, 0.000270, -0.000121, 0.000166, -0.000098, -0.000059, 0.000131, 0.000179, 0.000041, 0.000231, 0.000244, -0.000069, 0.000253, -0.000153, -0.000267, -0.000267, -0.000057, -0.000172, -0.000069, -0.000169, -0.000212, 0.000029, 0.000101, -0.000028, -0.000217}, {0.009729, -0.045503, 0.019033, -0.014769, -0.013078, -0.012878, 0.008564, -0.015568, 0.000704, -0.022048, 0.028727, -0.011378, 0.018401, 0.015725, 0.015643, 0.030367, -0.014182, -0.005311, -0.020983, -0.038442, -0.012377, -0.009040, 0.016654, -0.002204, -0.015150, 0.035325, 0.029692, 0.038031, -0.024021, -0.016294, 0.016243, 0.247006, -0.010730, -0.013127, -0.002782, -0.006233, -0.028055, -0.030395, -0.006309, 0.000233}, {0.279795, -0.018075, 0.015367, -0.006459, -0.281801, 0.006329, 0.009259, 0.189481, -0.021760, -0.014617, -0.171235, -0.022215, -0.008699, 0.295126, -0.205290, 0.013424, 0.004515, -0.011528, 0.005053, -0.002002, -0.290378, 0.007548, 0.021281, 0.240187, -0.030851, -0.118353, 0.001438, -0.010920, -0.014168, -0.286123, -0.009496, 0.083410, -0.017797, -0.286238, -0.009918, 0.007803, -0.018486, 0.003730, 0.000551, 0.255369}, {0.346190, 0.014024, -0.036678, 0.014627, -0.343484, 0.006682, -0.017799, 0.246906, 0.029050, 0.024885, -0.235707, 0.013737, 0.012411, 0.360526, -0.270464, -0.005230, -0.028830, 0.019188, 0.006526, 0.011799, -0.358747, -0.010076, -0.024126, 0.301296, 0.029336, 0.318994, 0.003157, -0.034964, 0.005106, -0.347653, 0.049398, -0.340848, 0.015312, -0.351780, 0.008078, 0.013784, 0.037458, -0.034843, 0.015047, 0.319605}, {0.000182, -0.000021, 0.000021, -0.000110, 0.000102, -0.000029, 0.000249, -0.000130, 0.000017, 0.000029, 0.000303, -0.000298, 0.000007, -0.000157, -0.000180, -0.000215, 0.000112, 0.000196, -0.000160, -0.000121, -0.000239, 0.000244, 0.000125, 0.000070, -0.000181, -0.000136, -0.000133, -0.000275, 0.000069, 0.000186, -0.000022, 0.000011, -0.000093, 0.000012, 0.000117, 0.000122, 0.000017, -0.000126, -0.000036, 0.000036}, {0.389946, -0.009658, 0.007487, -0.000665, -0.378033, -0.001855, -0.035202, 0.288287, -0.009869, -0.003850, -0.268255, 0.029419, -0.055338, 0.390151, -0.313954, -0.023420, 0.010451, 0.026833, -0.035123, 0.000368, -0.403041, 0.017190, -0.025276, 0.342193, -0.035874, -0.329052, 0.006761, 0.005131, 0.031403, -0.383667, -0.009137, 0.220870, 0.008988, -0.387811, -0.039957, 0.024249, 0.024612, 0.003355, 0.028738, 0.361588}, {-0.000195, -0.000268, -0.000175, -0.000144, -0.000199, -0.000123, 0.000121, -0.000111, 0.000114, -0.000190, -0.000049, -0.000214, -0.000047, -0.000188, 0.000174, 0.000060, 0.000138, 0.000160, 0.000280, -0.000095, -0.000313, -0.000127, -0.000067, 0.000312, -0.000253, -0.000072, -0.000039, -0.000185, 0.000147, 0.000151, 0.000198, -0.000219, -0.000164, -0.000041, -0.000042, -0.000172, -0.000160, 0.000309, 0.000126, 0.000122}, {-0.373186, -0.001553, 0.010984, -0.013839, 0.418029, 0.011071, -0.000759, -0.323093, -0.015459, -0.012425, 0.289580, -0.021119, -0.007250, -0.434042, 0.211868, -0.004287, 0.001908, -0.007202, 0.006380, 0.012202, 0.362383, 0.014330, 0.012564, -0.363130, -0.029332, -0.168353, -0.005988, -0.008393, -0.012645, 0.417482, 0.001898, 0.107578, -0.013766, 0.417119, -0.016934, 0.007071, -0.005107, 0.004613, -0.003772, -0.368817}, {0.004356, -0.000823, 0.000519, -0.000189, -0.004134, 0.001591, 0.000267, -0.000607, 0.003423, -0.001023, 0.000297, -0.000183, 0.000156, 0.005774, -0.001643, 0.002149, 0.001233, -0.000545, 0.001561, 0.002529, -0.006046, -0.001517, 0.001313, 0.000556, -0.003086, -0.004197, 0.000521, 0.001056, -0.000290, -0.003763, -0.001494, 0.009037, -0.005831, -0.004547, 0.001661, 0.002632, 0.000259, 0.003578, 0.000023, 0.002522}, {0.000164, -0.000074, -0.000226, -0.000231, 0.000200, -0.000029, -0.000086, -0.000154, 0.000044, -0.000249, -0.000225, -0.000104, -0.000204, 0.000009, 0.000223, -0.000122, 0.000119, 0.000275, -0.000053, 0.000027, -0.000239, -0.000026, 0.000242, 0.000125, 0.000127, 0.000137, -0.000192, 0.000146, -0.000167, -0.000080, -0.000193, -0.000009, 0.000151, -0.000124, 0.000106, -0.000209, 0.000058, -0.000041, 0.000015, 0.000111}, {0.000890, -0.001243, -0.001152, -0.002021, -0.000786, 0.001378, 0.003087, -0.000883, 0.000139, 0.000298, 0.000515, 0.000682, 0.000051, 0.001599, -0.000196, -0.003583, -0.002480, 0.002091, 0.000713, -0.002076, -0.001873, 0.001458, -0.002182, -0.000696, -0.001275, -0.002113, -0.001317, -0.000819, -0.000887, -0.000674, 0.000261, 0.003633, -0.002852, -0.001020, -0.000350, 0.000026, 0.001331, -0.001195, -0.000828, 0.000149}, {0.000057, -0.000111, -0.000202, -0.000150, 0.000212, -0.000063, 0.000014, -0.000138, 0.000258, -0.000076, 0.000266, -0.000115, -0.000079, -0.000136, 0.000156, -0.000276, 0.000127, -0.000133, -0.000095, 0.000255, 0.000201, 0.000131, -0.000171, -0.000095, 0.000226, 0.000160, -0.000132, -0.000144, -0.000177, -0.000033, 0.000080, -0.000138, 0.000044, 0.000059, 0.000234, -0.000210, 0.000010, 0.000183, -0.000180, -0.000022}, {-0.000033, 0.000084, 0.000008, -0.000243, -0.000088, 0.000084, -0.000288, -0.000021, -0.000096, 0.000222, -0.000089, -0.000196, 0.000063, -0.000044, -0.000320, -0.000331, 0.000081, -0.000029, -0.000124, -0.000105, -0.000017, 0.000090, -0.000030, -0.000059, 0.000148, 0.000372, 0.000267, 0.000194, 0.000353, -0.000018, 0.000302, -0.000025, -0.000086, 0.000334, 0.000109, 0.000038, 0.000258, 0.000142, 0.000133, 0.000181}, {0.001335, -0.000799, -0.002713, -0.000359, -0.000982, 0.003397, 0.000543, -0.000249, 0.002719, -0.001310, -0.000104, 0.002959, 0.002283, 0.001910, -0.000487, 0.000413, -0.000278, 0.002255, 0.000948, -0.001008, -0.002002, 0.000340, 0.000415, 0.000194, -0.001077, -0.001129, 0.001172, 0.001644, 0.000406, -0.001372, 0.000703, 0.001936, -0.004520, -0.001220, 0.000554, 0.001826, 0.002537, 0.000392, 0.001727, 0.000799}, {0.363806, 0.002971, 0.021795, -0.022002, -0.352038, -0.025968, 0.036196, 0.256457, -0.013620, -0.006649, -0.236704, -0.006440, 0.013292, 0.365311, -0.283933, 0.037578, 0.024279, -0.002229, 0.008263, -0.004127, -0.377920, 0.025951, 0.005819, 0.313275, -0.010748, -0.242309, -0.043726, 0.037328, -0.016086, -0.357348, -0.012681, 0.265202, -0.031806, -0.361679, -0.020750, 0.002843, -0.012597, 0.007815, 0.005652, 0.335148}, {0.316905, 0.006506, -0.003608, -0.002906, -0.319989, 0.003661, 0.011353, 0.227855, -0.011952, 0.007333, -0.207342, -0.014310, -0.003384, 0.333408, -0.241916, 0.000463, 0.004777, -0.006567, 0.021267, 0.010696, -0.326473, 0.003161, 0.008643, 0.278316, -0.003995, -0.137064, -0.016280, -0.029042, -0.001873, -0.324538, -0.007439, 0.098543, -0.009339, -0.324497, -0.006086, 0.018720, -0.012114, 0.002582, -0.004079, 0.292977}, {0.001685, 0.001110, 0.001097, -0.001108, -0.001600, 0.000784, 0.000146, -0.001200, -0.000248, -0.002208, 0.001460, 0.002599, -0.002436, 0.002450, 0.000022, -0.000257, -0.003129, 0.005424, -0.000860, 0.001718, -0.002127, -0.001870, -0.007751, -0.000313, -0.000159, -0.003549, -0.000166, 0.001869, -0.004602, -0.001543, -0.003303, 0.006647, -0.001138, -0.001618, -0.002841, -0.001375, 0.002099, -0.003734, 0.001950, 0.000446}, {0.400428, 0.008547, -0.029685, 0.008579, -0.397688, -0.021224, -0.024292, 0.300257, 0.048486, 0.022229, -0.289989, 0.004437, 0.004508, 0.415071, -0.324473, -0.024667, -0.015385, 0.024848, 0.040067, -0.007053, -0.412898, -0.005184, -0.032714, 0.355250, 0.042974, 0.488347, -0.007526, -0.035960, 0.007891, -0.401769, 0.010003, -0.467438, 0.042904, -0.406152, -0.034294, -0.033237, 0.046701, -0.014814, -0.004887, 0.373704}, {0.000193, -0.000280, 0.000084, -0.000011, -0.000046, 0.000288, 0.000131, 0.000108, 0.000104, -0.000270, -0.000154, 0.000108, -0.000084, 0.000113, 0.000162, -0.000172, 0.000255, -0.000300, -0.000098, 0.000029, -0.000025, 0.000228, 0.000278, -0.000228, -0.000153, -0.000231, 0.000243, -0.000196, 0.000219, 0.000149, -0.000053, -0.000094, 0.000093, -0.000302, 0.000025, 0.000137, 0.000194, 0.000197, -0.000153, -0.000054}, {0.000204, -0.000049, 0.000912, 0.000755, -0.000155, 0.000961, 0.000638, -0.000427, -0.000075, 0.000108, 0.000000, -0.001364, -0.000348, 0.000436, -0.000105, 0.000853, 0.000289, 0.000572, -0.000459, -0.000224, -0.000443, 0.000482, -0.000445, 0.000073, -0.000083, -0.000211, -0.000231, 0.000073, -0.000378, 0.000171, -0.000464, 0.000617, -0.001030, -0.000360, -0.000011, -0.000548, -0.000267, 0.000135, -0.000030, 0.000047}, {0.000296, 0.000274, -0.000042, -0.000278, -0.000272, -0.000127, -0.000150, -0.000044, -0.000327, -0.000026, -0.000347, 0.000189, -0.000055, 0.000468, -0.000392, 0.000071, -0.000273, 0.000038, -0.000117, -0.000143, -0.000411, 0.000244, 0.000268, 0.000285, 0.000315, 0.000210, -0.000215, 0.000027, 0.000025, 0.000066, -0.000220, -0.000000, 0.000068, -0.000111, -0.000103, 0.000211, -0.000017, -0.000154, -0.000212, 0.000385}, {-0.000252, 0.000044, 0.000239, 0.000153, -0.000051, -0.000254, 0.000232, -0.000175, 0.000088, 0.000239, -0.000002, 0.000127, -0.000154, 0.000264, -0.000044, -0.000190, 0.000121, 0.000044, 0.000073, 0.000048, -0.000132, -0.000254, -0.000265, 0.000027, 0.000167, -0.000048, -0.000216, 0.000248, 0.000031, -0.000225, 0.000068, 0.000037, 0.000197, 0.000213, 0.000130, 0.000094, -0.000203, 0.000190, 0.000282, -0.000145}, {0.317292, 0.006796, -0.005414, -0.005336, -0.320659, 0.012129, 0.009150, 0.229332, -0.014466, -0.004506, -0.207960, -0.011270, -0.005659, 0.333569, -0.242178, 0.009280, 0.012267, -0.000618, 0.023698, 0.010434, -0.326266, 0.013482, 0.007260, 0.279840, -0.010629, -0.160575, -0.008135, -0.025452, -0.000570, -0.325654, -0.006423, 0.133085, -0.001636, -0.324726, -0.007150, 0.007504, -0.014373, 0.003489, -0.002230, 0.293365}, {0.340149, 0.008284, -0.015333, 0.005909, -0.336417, 0.007042, 0.012769, 0.239126, 0.024385, -0.029744, -0.230228, -0.016958, 0.035617, 0.354167, -0.265585, -0.003707, -0.020821, -0.013350, 0.054243, 0.038809, -0.353521, -0.025220, -0.008372, 0.293818, 0.017148, 0.452780, -0.025125, -0.000240, -0.014687, -0.340318, 0.012265, -0.516790, -0.009837, -0.344943, 0.005069, -0.010871, 0.033935, -0.012240, -0.009362, 0.313243}, {0.000105, 0.000346, -0.000269, 0.000145, -0.000077, 0.000189, -0.000049, -0.000192, -0.000128, 0.000089, -0.000137, -0.000078, 0.000441, -0.000149, 0.000223, -0.000016, 0.000053, 0.000135, 0.000104, -0.000157, -0.000023, 0.000120, -0.000162, 0.000244, -0.000498, 0.000097, 0.000017, 0.000168, 0.000213, 0.000062, -0.000569, -0.000235, 0.000199, 0.000010, 0.000687, -0.000416, 0.000079, 0.000192, -0.000179, -0.000186}, {-0.365480, 0.007369, 0.002471, -0.005747, 0.414206, 0.022500, -0.005498, -0.316386, -0.003192, -0.009803, 0.285051, -0.003014, -0.013577, -0.431302, 0.201085, 0.002052, -0.005310, 0.003092, 0.011593, 0.011680, 0.354254, 0.008162, 0.031730, -0.356579, -0.026611, -0.184857, 0.006854, -0.011317, -0.003168, 0.412871, 0.016539, 0.154358, -0.005380, 0.412518, -0.001473, 0.019436, -0.005569, -0.017206, -0.022561, -0.362523}, {0.007795, 0.005678, -0.004321, 0.000011, -0.007281, -0.007651, 0.002841, 0.001776, 0.000654, 0.004586, -0.002646, -0.000006, 0.003078, 0.009030, -0.003997, -0.002057, -0.003548, -0.000222, 0.006992, -0.004461, -0.009245, 0.003193, -0.003940, 0.003119, 0.003581, -0.002758, -0.001622, -0.000459, 0.004235, -0.006861, -0.006728, 0.000061, -0.001504, -0.007581, -0.004974, -0.004858, 0.003109, 0.001676, 0.002777, 0.005599}, {0.000199, -0.000181, -0.000045, 0.000155, -0.000057, 0.000178, 0.000064, -0.000309, -0.000089, -0.000122, -0.000213, 0.000092, -0.000120, -0.000192, 0.000315, 0.000331, -0.000080, 0.000302, 0.000123, -0.000187, -0.000161, -0.000139, 0.000113, -0.000224, -0.000006, 0.000138, -0.000172, -0.000004, -0.000017, -0.000169, 0.000085, -0.000044, 0.000181, -0.000176, 0.000153, -0.000181, 0.000175, 0.000291, 0.000092, -0.000285}, {0.000018, -0.000385, 0.000296, 0.000181, 0.000173, 0.000073, 0.000158, 0.000285, 0.000346, -0.000175, -0.000225, -0.000260, -0.000014, -0.000197, -0.000214, 0.000290, -0.000239, -0.000146, -0.000055, 0.000248, -0.000094, -0.000196, -0.000205, 0.000106, 0.000395, 0.000256, 0.000185, 0.000197, 0.000337, 0.000039, -0.000133, -0.000120, 0.000093, -0.000029, 0.000033, -0.000201, 0.000018, 0.000269, 0.000281, 0.000183}, {0.000038, 0.000016, -0.000260, 0.000096, 0.000055, 0.000029, 0.000188, 0.000307, 0.000044, -0.000074, 0.000011, 0.000095, -0.000091, 0.000175, 0.000142, 0.000167, -0.000243, -0.000365, 0.000168, -0.000115, -0.000294, -0.000059, 0.000219, -0.000096, 0.000210, 0.000303, 0.000082, -0.000096, -0.000057, -0.000267, -0.000015, -0.000340, 0.000019, -0.000340, -0.000139, -0.000064, -0.000280, -0.000094, -0.000091, 0.000108}, {-0.000067, -0.000087, -0.000058, -0.000184, 0.000234, 0.000272, 0.000090, 0.000137, 0.000094, 0.000031, -0.000047, -0.000174, 0.000130, 0.000057, -0.000067, 0.000045, 0.000113, -0.000151, 0.000126, -0.000220, 0.000086, 0.000093, 0.000114, 0.000213, 0.000246, -0.000103, 0.000192, -0.000025, 0.000087, 0.000269, -0.000206, -0.000208, -0.000231, -0.000243, 0.000058, 0.000022, 0.000197, -0.000034, 0.000064, -0.000093}, {-0.000266, 0.000173, -0.000030, 0.000124, 0.000155, -0.000241, -0.000006, 0.000224, 0.000180, -0.000110, -0.000247, 0.000249, -0.000237, 0.000212, 0.000074, -0.000118, 0.000092, -0.000066, -0.000065, -0.000157, 0.000243, -0.000246, -0.000203, 0.000116, -0.000212, 0.000228, 0.000177, -0.000166, -0.000194, 0.000027, -0.000276, -0.000144, -0.000113, -0.000077, -0.000225, -0.000170, -0.000026, 0.000252, -0.000206, 0.000166}, {0.000041, 0.000102, 0.000120, -0.000174, 0.000005, 0.000020, -0.000010, 0.000208, 0.000311, -0.000183, -0.000248, -0.000106, 0.000052, 0.000383, 0.000255, 0.000298, 0.000303, 0.000034, -0.000318, -0.000343, -0.000218, -0.000256, -0.000041, -0.000069, -0.000083, 0.000122, 0.000305, -0.000131, 0.000228, 0.000016, 0.000106, 0.000036, -0.000273, -0.000063, 0.000046, 0.000326, 0.000337, 0.000091, 0.000379, -0.000115}, {0.000064, -0.000063, -0.000269, -0.000180, -0.000121, -0.000057, 0.000112, 0.000186, -0.000074, -0.000133, -0.000085, -0.000187, 0.000026, -0.000159, -0.000326, -0.000221, -0.000298, -0.000132, -0.000116, 0.000075, -0.000037, 0.000060, -0.000201, 0.000241, 0.000027, 0.000060, -0.000051, 0.000288, -0.000286, 0.000073, 0.000213, -0.000017, -0.000120, -0.000320, -0.000096, -0.000070, 0.000101, -0.000259, -0.000303, -0.000075}, {-0.000128, -0.000280, 0.000119, -0.000152, 0.000332, -0.000132, 0.000069, -0.000137, 0.000057, -0.000031, 0.000148, -0.000191, -0.000390, 0.000195, -0.000091, -0.000019, 0.000012, -0.000139, -0.000164, -0.000297, 0.000343, -0.000237, -0.000025, -0.000305, -0.000015, -0.000187, 0.000101, 0.000098, 0.000099, 0.000310, -0.000210, 0.000142, -0.000126, 0.000224, -0.000310, -0.000082, 0.000173, 0.000128, 0.000173, -0.000030}, {0.303924, 0.008198, 0.011527, -0.010116, -0.306759, 0.018025, 0.004922, 0.214831, -0.009334, -0.009232, -0.195065, -0.006560, -0.009424, 0.320471, -0.228999, 0.015225, -0.007759, 0.010573, 0.022280, 0.022651, -0.314086, 0.019413, 0.025797, 0.265430, -0.018869, -0.127758, 0.003718, -0.019587, -0.007582, -0.311149, 0.010075, 0.120502, -0.001583, -0.311171, 0.007186, 0.016265, -0.015465, -0.001438, -0.001438, 0.279732}, {0.448522, -0.051605, 0.031417, -0.000985, -0.448203, -0.038636, -0.024517, 0.350455, -0.000971, 0.009197, -0.337463, 0.024820, -0.015033, 0.465024, -0.371040, -0.007917, 0.020690, 0.004276, -0.027096, -0.062015, -0.460561, 0.014486, -0.014323, 0.405402, 0.027439, 0.288260, 0.023723, 0.017210, 0.025856, -0.451682, 0.003082, -0.251003, 0.026320, -0.455589, -0.049344, 0.004078, -0.019641, -0.016772, -0.001819, 0.422553}, {0.182415, 0.085396, -0.026001, -0.005334, -0.184946, 0.050500, 0.003688, 0.103255, -0.012742, -0.072477, -0.050783, -0.034395, -0.002792, 0.185512, -0.098406, 0.024448, 0.009290, -0.013830, 0.007660, 0.043856, -0.186277, -0.018951, 0.055019, 0.150109, -0.062759, -0.927017, -0.027243, -0.056068, 0.001425, -0.192208, 0.010180, 1.100604, -0.078767, -0.184310, 0.063972, 0.069165, 0.002602, -0.072842, -0.068832, 0.159482}, {0.000176, 0.000002, 0.000275, -0.000169, 0.000289, -0.000081, -0.000212, 0.000013, 0.000145, -0.000318, -0.000290, 0.000259, -0.000024, 0.000186, -0.000254, 0.000049, 0.000141, 0.000004, 0.000194, 0.000335, 0.000155, -0.000254, -0.000143, -0.000282, -0.000113, -0.000049, 0.000115, -0.000064, -0.000250, 0.000117, -0.000191, -0.000184, -0.000324, -0.000232, 0.000096, -0.000312, -0.000296, 0.000231, 0.000041, 0.000044}};
static const float * p_layer_3_weight = layer_3_weight;
static const float layer_3_bias[40] = {-0.035522, -0.001937, -0.002081, 0.004338, -0.144092, -0.005867, 0.003262, 0.027763, 0.001366, 0.004912, 0.015286, 0.001316, 0.005406, 0.167129, 0.071751, 0.000759, -0.000083, -0.002515, -0.006327, -0.001388, 0.098755, -0.006220, -0.011606, 0.054383, 0.014244, 0.152141, 0.001795, 0.008995, -0.000163, -0.139938, -0.005791, -0.135729, 0.001443, -0.101063, 0.005928, -0.005754, -0.001982, 0.005374, 0.002266, 0.004509};
static const float * p_layer_3_bias = layer_3_bias;
    
static float sigmoid(float num) {
    return 1.0f / (1.0f + expf(-num));
}

static float step(float num) {
    if (num < 0) {
        return 0;
    }
    return 1;
}

static float relu(float num) {
    if (num > 0) {
        return num;
    } else {
        return 0;
    }
}

static float linear(float num) {
    return num;
}

static void layer(const float * in, const float * layer_weight, const float * layer_bias,   
            int row, int col, float * output, int use_activation) {
    int ii;
    int jj;
    const float * p;

    for(ii = 0; ii < col; ii++) {
        p = layer_weight + ii;
        output[ii] = 0;
        for (jj = 0; jj < row; jj++) {
            output[ii] += in[jj] * (*p); 
            p += col;
        }
        output[ii] += layer_bias[ii];
        
        if (use_activation == 1) {
			output[ii] = relu(output[ii]);
        }
    }
}

const float* nn_phi_2(const float* input) {
	layer(input, p_layer_0_weight, p_layer_0_bias, STRUCTURE[0][0], STRUCTURE[0][1], output_0, 1);
	layer(output_0, p_layer_1_weight, p_layer_1_bias, STRUCTURE[1][0], STRUCTURE[1][1], output_1, 1);
	layer(output_1, p_layer_2_weight, p_layer_2_bias, STRUCTURE[2][0], STRUCTURE[2][1], output_2, 1);
	layer(output_2, p_layer_3_weight, p_layer_3_bias, STRUCTURE[3][0], STRUCTURE[3][1], output_3, 0);

	return output_3;
}
