/*
 * FILE: generated.c
 */

#include <stdio.h>
#include <stdlib.h>
#include <string.h>
#include <math.h>
#include "phi_2.h"

static const int STRUCTURE[4][2] = {{6, 25}, {25, 40}, {40, 40}, {40, 40}};
static float output_0[25];
static float output_1[40];
static float output_2[40];
static float output_3[40];
static const float layer_0_weight[6][25] = {{0.366827, -0.467783, -0.730534, 0.003848, -2.021020, -0.736682, 0.959296, -0.499329, -0.455506, -0.810162, 1.426714, -0.413065, 1.091581, 0.624758, -0.486886, 1.046506, 0.697198, 0.000000, -1.110343, 1.480201, -1.324993, -0.324913, -0.054668, -0.042852, -0.715762}, {0.552133, 0.498229, -0.079217, -0.389258, -0.978615, -1.148964, 0.940565, 0.037788, 0.377720, -0.394819, 0.026873, 0.735740, -1.601456, -0.014559, 0.042267, 1.348490, 1.444528, 0.000000, -0.350810, -0.559484, 1.597424, 1.072580, 0.273499, -0.116621, -1.033815}, {0.747205, -1.686443, -0.763713, 0.462258, 0.099454, -0.445541, 0.524769, -0.182896, 0.365154, 0.145722, -0.224260, 0.047814, -0.058637, 0.109246, 0.097389, -0.082789, -0.353902, -0.000000, 0.528329, -0.234884, -0.061405, -0.144668, -0.225213, -0.245766, -0.530745}, {0.338829, 0.016026, -0.091962, -0.295696, 0.019385, -0.059743, -0.041386, -0.623718, 0.527205, 0.660668, -0.332995, -0.407217, -0.012297, 0.158422, 0.441757, -0.084431, 0.045800, 0.000000, -0.239964, 0.221908, 0.015704, -0.365379, -0.087377, -0.189631, 0.240324}, {0.302384, -0.065709, 0.002359, -0.457778, -0.025361, -0.252066, -0.022424, -0.045232, -0.648863, 0.287140, -0.026885, 0.421083, 0.046905, -0.017115, 0.251407, -0.123853, 0.021271, -0.000000, 0.084777, -0.167684, -0.028701, -0.421444, -0.601818, 0.276308, 0.327185}, {-0.310739, 0.383851, -0.455595, -0.483002, -0.027120, -0.119120, 0.013888, 0.591380, -0.125243, 0.108139, 0.110042, 0.076408, -0.022246, -0.583156, 0.666584, -0.000806, -0.058162, -0.000000, -0.254584, -0.292179, -0.066717, -0.019285, 0.346872, -0.774045, 0.081505}};
static const float * p_layer_0_weight = layer_0_weight;
static const float layer_0_bias[25] = {-0.281357, 0.127415, 0.009592, -0.342055, -0.026370, 0.027514, -0.187200, -0.085317, -0.319246, -0.088098, -0.112763, -0.167759, -0.001099, -0.025063, -0.047541, -0.071540, 0.039100, -0.339720, -0.173476, -0.050272, 0.006501, 0.042756, -0.094277, -0.008788, -0.014092};
static const float * p_layer_0_bias = layer_0_bias;
static const float layer_1_weight[25][40] = {{0.000000, 0.129122, -0.027549, 0.000000, -0.281426, -0.474953, -0.000000, 0.254224, -0.000000, 0.117958, 0.000000, 0.138184, 0.615795, 0.000000, -0.000000, 0.257301, -1.622117, 0.302913, -0.436897, -0.078245, 0.000000, -0.000000, -0.000000, -0.000000, 0.000000, 0.000000, -0.000000, -1.107651, -0.000000, -0.755117, 0.000000, 0.034298, -0.210109, -0.000000, -0.104645, 0.051885, -0.000000, 0.148614, 0.000000, 0.000000}, {-0.000000, -0.122615, 0.156765, 0.000000, 0.240392, -0.599490, -0.000000, 0.220848, 0.000000, 0.682797, -0.000000, 0.495957, -0.794717, 0.000000, -0.000000, -0.893412, 0.233422, 0.252826, -0.760935, -0.803547, -0.000000, -0.000000, 0.000000, -0.000000, -0.000000, 0.000000, -0.000000, -0.778505, -0.000000, -0.553025, -0.000000, 0.485769, -0.804791, -0.000000, 0.620767, -1.220235, 0.000000, 0.416019, 0.000000, 0.000000}, {-0.000000, -0.136322, 0.362024, -0.000000, 0.020545, 0.091912, -0.000000, 0.647836, 0.000000, -0.173655, 0.000000, 0.085827, 0.484150, 0.000000, -0.000000, 0.111593, 0.424990, -0.965241, -0.052879, 0.415803, -0.000000, 0.000000, 0.000000, -0.000000, 0.000000, -0.000000, -0.000000, 0.310325, -0.000000, 0.318796, -0.000000, -0.355098, -0.201087, -0.000000, 0.092225, 0.130314, -0.000000, 0.652676, -0.000000, -0.000000}, {0.000000, -0.433322, -0.348465, -0.000000, 0.675629, 0.089279, -0.000000, -0.776317, -0.000000, -0.626987, -0.000000, -0.022297, -0.080360, 0.000000, -0.000000, -0.286600, -0.358061, 0.113440, -0.086069, 0.384844, -0.000000, -0.000000, -0.000000, -0.000000, 0.000000, 0.000000, -0.000000, -0.459759, -0.000000, -0.523387, -0.000000, 0.093529, 0.066008, -0.000000, -0.572051, -0.167895, -0.000000, -0.217259, -0.000000, -0.000000}, {-0.000000, -0.544158, -0.507790, -0.000000, -0.435312, -0.716392, -0.000000, 0.057605, 0.000000, 0.001038, -0.000000, 0.196177, 0.354084, -0.000000, -0.000000, -0.115234, -0.295963, -0.055953, -1.597171, -0.227209, 0.000000, -0.000000, -0.000000, -0.000000, -0.000000, -0.000000, -0.000000, 0.250465, -0.000000, 0.687756, -0.000000, -0.954829, -0.522577, -0.000000, -0.025977, 0.588184, -0.000000, 0.364122, -0.000000, 0.000000}, {-0.000000, -0.024724, -1.120470, -0.000000, -0.324508, -0.189699, -0.000000, 0.003856, -0.000000, -0.582026, -0.000000, 0.074765, 0.208933, 0.000000, 0.000000, -0.824437, -0.098710, 0.103946, -0.329354, 0.183258, -0.000000, 0.000000, -0.000000, -0.000000, 0.000000, -0.000000, -0.000000, -0.527482, 0.000000, -0.001489, 0.000000, 0.148051, 0.363015, -0.000000, 0.137783, 0.772517, -0.000000, 0.571378, -0.000000, -0.000000}, {0.000000, -0.644416, 0.038365, 0.000000, 0.589135, -0.512293, -0.000000, 0.292654, 0.000000, -0.164294, 0.000000, 0.033989, 0.306625, -0.000000, -0.000000, -0.002750, -0.256972, 0.086406, 0.292539, 0.003645, -0.000000, -0.000000, -0.000000, 0.000000, 0.000000, 0.000000, -0.000000, 0.230220, -0.000000, -0.226259, -0.000000, -0.243640, -0.935653, -0.000000, 0.406536, 0.311033, -0.000000, 0.382753, -0.000000, -0.000000}, {0.000000, 0.240279, -0.013022, 0.000000, -0.655120, -0.232888, -0.000000, -1.064795, 0.000000, -0.232425, -0.000000, 0.490211, -0.229101, 0.000000, 0.000000, 0.018898, -0.192546, -1.298237, -0.085896, -0.122401, 0.000000, -0.000000, 0.000000, 0.000000, 0.000000, 0.000000, -0.000000, 0.147557, -0.000000, 0.195579, -0.000000, 0.429606, 0.200497, -0.000000, -0.584555, 0.261291, -0.000000, -0.246962, -0.000000, 0.000000}, {-0.000000, 0.411034, 0.233265, -0.000000, 0.458072, -0.166115, -0.000000, -1.048802, -0.000000, 0.351839, -0.000000, 0.454066, 0.745666, 0.000000, 0.000000, -0.165388, -0.481728, -0.386968, -0.618849, -0.359182, -0.000000, -0.000000, 0.000000, 0.000000, -0.000000, -0.000000, -0.000000, 0.014356, -0.000000, 0.453181, 0.000000, 0.280873, -0.282244, -0.000000, -0.370458, -0.580803, 0.000000, -0.569441, -0.000000, -0.000000}, {-0.000000, 0.261085, 0.000227, 0.000000, -0.102778, 0.024292, -0.000000, -0.353658, -0.000000, 0.331903, -0.000000, 0.468090, 0.251754, 0.000000, -0.000000, 0.204978, -0.312407, -0.833241, -0.263804, 0.322348, -0.000000, 0.000000, -0.000000, 0.000000, -0.000000, 0.000000, -0.000000, -0.367460, -0.000000, 0.012110, -0.000000, 0.030430, 0.179297, 0.000000, -0.338656, -0.815643, -0.000000, -0.042360, -0.000000, -0.000000}, {0.000000, -0.317480, 0.084707, -0.000000, -1.038597, -0.561817, -0.000000, -0.225002, 0.000000, 0.764129, -0.000000, 0.691800, -0.156440, -0.000000, -0.000000, 0.344356, -0.171782, 0.122887, 0.308844, -1.035097, 0.000000, 0.000000, 0.000000, -0.000000, -0.000000, -0.000000, -0.000000, -0.515806, 0.000000, 0.201292, 0.000000, -0.302563, -0.774748, -0.000000, 0.115767, -0.977782, -0.000000, 0.193766, -0.000000, 0.000000}, {-0.000000, 0.053915, -0.090736, 0.000000, -0.030079, -0.233819, -0.000000, -0.211385, 0.000000, -0.320334, -0.000000, 0.139184, 0.399258, -0.000000, -0.000000, -0.248082, -0.306997, -0.278149, 0.386427, 0.608542, -0.000000, -0.000000, 0.000000, 0.000000, -0.000000, -0.000000, -0.000000, 0.177954, -0.000000, 0.086170, -0.000000, 0.392394, 0.176847, 0.000000, -0.046959, -0.758066, -0.000000, -0.159685, -0.000000, -0.000000}, {-0.000000, -0.750269, 0.101128, 0.000000, -0.000070, -0.652390, -0.000000, 0.153266, -0.000000, 0.754581, -0.000000, 0.402610, -0.419369, -0.000000, -0.000000, -0.251938, -0.635179, 0.076510, 0.468432, 0.207704, 0.000000, -0.000000, 0.000000, -0.000000, -0.000000, -0.000000, -0.000000, -0.445244, -0.000000, 0.589885, 0.000000, -0.569662, -0.307752, -0.000000, -0.070407, 0.007323, 0.000000, 0.733136, 0.000000, -0.000000}, {-0.000000, 0.081413, -0.195470, 0.000000, -0.162495, -0.402127, -0.000000, -0.212898, 0.000000, -0.564993, -0.000000, -0.047623, -0.213444, -0.000000, -0.000000, 0.050938, 0.074073, 0.087712, 0.065199, -0.460992, -0.000000, -0.000000, -0.000000, 0.000000, -0.000000, -0.000000, -0.000000, -0.087718, 0.000000, -0.387921, 0.000000, 0.046577, -0.024183, -0.000000, -0.602963, 0.059157, -0.000000, 0.082323, -0.000000, -0.000000}, {0.000000, 0.283162, 0.226734, -0.000000, 0.081157, 0.184529, 0.000000, -0.232738, -0.000000, 0.035574, -0.000000, 0.086918, 0.149534, 0.000000, 0.000000, 0.089988, -0.599026, -0.503573, 0.299131, 0.509735, -0.000000, 0.000000, 0.000000, -0.000000, -0.000000, 0.000000, 0.000000, 0.101167, 0.000000, -0.018198, -0.000000, -0.552212, -0.331938, -0.000000, -0.992132, -0.219283, -0.000000, -0.407073, -0.000000, -0.000000}, {0.000000, -0.621210, -0.682847, -0.000000, -0.127275, -0.496574, -0.000000, -1.117303, -0.000000, 0.077041, 0.000000, 0.233203, -0.560470, -0.000000, -0.000000, -0.724087, 0.113617, -0.421036, 0.430129, -0.001086, 0.000000, -0.000000, -0.000000, 0.000000, -0.000000, -0.000000, -0.000000, 0.109851, -0.000000, 0.332169, -0.000000, -1.100924, -0.362849, -0.000000, 0.028929, 0.331909, -0.000000, 0.261863, -0.000000, -0.000000}, {0.000000, -0.500016, -0.874192, 0.000000, -0.342974, -0.546942, -0.000000, -0.452058, -0.000000, 0.054830, -0.000000, 0.140051, -0.393151, -0.000000, -0.000000, -0.942216, -0.188050, 0.224752, 0.315377, 0.253518, 0.000000, -0.000000, -0.000000, -0.000000, 0.000000, 0.000000, -0.000000, -0.715402, 0.000000, 0.127224, 0.000000, -0.344330, -0.494748, -0.000000, 0.211437, 0.245218, -0.000000, 0.276139, -0.000000, -0.000000}, {-0.000000, -0.000000, 0.000000, -0.000000, -0.000000, -0.000000, 0.000000, -0.000000, 0.000000, 0.000000, 0.000000, 0.000000, 0.000000, -0.000000, -0.000000, -0.000000, 0.000000, 0.000000, 0.000000, -0.000000, -0.000000, -0.000000, -0.000000, -0.000000, 0.000000, 0.000000, 0.000000, -0.000000, -0.000000, -0.000000, 0.000000, -0.000000, 0.000000, -0.000000, -0.000000, 0.000000, -0.000000, 0.000000, -0.000000, -0.000000}, {-0.000000, -0.062604, 0.224379, -0.000000, -0.099080, -0.451013, 0.000000, 0.082663, 0.000000, -0.126539, 0.000000, -0.125629, 0.346172, -0.000000, 0.000000, -0.031241, -0.331228, 0.322093, -1.287155, -0.424268, -0.000000, -0.000000, 0.000000, -0.000000, -0.000000, -0.000000, -0.000000, 0.142001, -0.000000, 0.072578, -0.000000, 0.340017, -0.705405, -0.000000, 0.094811, -0.566817, 0.000000, 0.386069, 0.000000, 0.000000}, {-0.000000, -0.183040, -0.270189, 0.000000, -0.481932, -0.783805, -0.000000, -0.197684, 0.000000, -0.367687, -0.000000, -0.620023, -0.528791, -0.000000, 0.000000, -0.311695, -0.362160, -0.509811, 0.496246, 0.271736, -0.000000, -0.000000, -0.000000, 0.000000, -0.000000, 0.000000, -0.000000, -0.558925, -0.000000, -0.245349, 0.000000, 0.114243, -0.300057, -0.000000, 0.228361, 0.094600, 0.000000, 0.587273, -0.000000, 0.000000}, {-0.000000, -1.212419, -1.028900, 0.000000, -0.076475, -0.260069, -0.000000, -0.199108, -0.000000, 0.356567, 0.000000, -0.107206, -0.024590, -0.000000, -0.000000, -0.326305, -0.290270, 0.018336, 0.317183, 0.169754, 0.000000, -0.000000, -0.000000, -0.000000, 0.000000, -0.000000, -0.000000, -0.359597, 0.000000, 0.771249, 0.000000, -0.592653, -0.763013, 0.000000, 0.017212, -0.728181, 0.000000, 0.142548, -0.000000, -0.000000}, {-0.000000, 0.093194, -0.351380, 0.000000, 0.106852, 0.211586, 0.000000, -0.877238, -0.000000, 0.286682, -0.000000, 0.176302, -1.095187, 0.000000, -0.000000, 0.362327, 0.406458, -0.360899, 0.156094, -0.573895, -0.000000, -0.000000, -0.000000, -0.000000, -0.000000, 0.000000, -0.000000, -0.142586, 0.000000, 0.200824, 0.000000, 0.099107, 0.420340, -0.000000, -0.053373, -0.438344, -0.000000, 0.113149, 0.000000, 0.000000}, {-0.000000, 0.224722, 0.098282, 0.000000, 0.328817, 0.066099, 0.000000, 0.114614, -0.000000, 0.278868, 0.000000, 0.195147, 0.235166, 0.000000, -0.000000, -0.400773, -0.512754, -1.273794, -0.790032, 0.543067, 0.000000, 0.000000, -0.000000, -0.000000, -0.000000, -0.000000, -0.000000, -0.160252, 0.000000, 0.021670, 0.000000, 0.009284, 0.191234, -0.000000, -0.467110, -0.130812, 0.000000, -0.533887, 0.000000, 0.000000}, {-0.000000, 0.258078, 0.086391, -0.000000, -0.255018, -0.828984, -0.000000, -0.214118, 0.000000, -0.122159, -0.000000, 0.130591, 0.075035, -0.000000, 0.000000, -0.230450, 0.241447, 0.319163, -0.166153, -0.266876, -0.000000, -0.000000, 0.000000, -0.000000, -0.000000, -0.000000, -0.000000, -0.067109, -0.000000, 0.322299, -0.000000, -0.029774, 0.482471, 0.000000, -0.642312, -0.726972, -0.000000, 0.096161, -0.000000, -0.000000}, {0.000000, -0.023376, -0.275302, 0.000000, 0.458897, 0.124329, 0.000000, -0.030558, -0.000000, 0.331268, 0.000000, 0.672357, -0.652333, 0.000000, -0.000000, -0.535955, -0.109910, -1.030391, -0.446589, -0.810792, -0.000000, 0.000000, -0.000000, 0.000000, -0.000000, 0.000000, -0.000000, -0.668861, 0.000000, 0.386057, 0.000000, -0.009366, 0.242536, -0.000000, 0.074486, -0.452902, -0.000000, 0.016399, -0.000000, -0.000000}};
static const float * p_layer_1_weight = layer_1_weight;
static const float layer_1_bias[40] = {-0.101330, 0.134723, 0.206532, -0.209899, 0.007894, 0.273898, -0.153503, 0.195724, -0.165490, -0.056532, -0.116401, -0.573397, -0.178712, -0.138516, -0.066674, 0.301242, 0.095505, 0.104303, -0.043731, 0.019889, -0.215240, -0.059655, -0.161614, -0.186713, -0.187999, -0.220669, -0.012892, 0.248821, -0.212905, -0.102852, -0.166962, 0.048712, 0.140633, -0.029716, 0.115048, 0.095868, -0.143616, -0.220550, -0.044636, -0.067786};
static const float * p_layer_1_bias = layer_1_bias;
static const float layer_2_weight[40][40] = {{-0.000000, 0.000000, -0.000000, -0.000000, -0.000000, -0.000000, 0.000000, -0.000000, -0.000000, -0.000000, -0.000000, -0.000000, 0.000000, 0.000000, 0.000000, 0.000000, -0.000000, -0.000000, -0.000000, -0.000000, 0.000000, 0.000000, 0.000000, 0.000000, -0.000000, 0.000000, 0.000000, -0.000000, -0.000000, 0.000000, 0.000000, -0.000000, -0.000000, 0.000000, -0.000000, 0.000000, -0.000000, -0.000000, -0.000000, -0.000000}, {-0.011258, -0.000000, 0.499806, -0.000000, 0.262829, 0.000000, -0.000000, 0.000000, 0.474739, -0.453305, 0.000000, 0.000000, -0.000000, -0.000000, -0.000000, -0.000000, -0.000000, -0.000000, -0.749708, -0.000000, 0.000000, -0.000000, 0.000000, 0.000000, 0.604319, 0.520284, 0.000000, -0.000000, 0.170585, 0.000000, -0.269774, -0.000000, 0.000000, -0.116560, -0.000000, -0.000000, -0.000000, -0.000000, 0.328781, -0.000000}, {-0.011047, -0.000000, 0.478004, -0.000000, 0.173434, -0.000000, -0.000000, -0.000000, -0.538264, -0.479486, -0.000000, -0.000000, -0.000000, -0.000000, -0.000000, -0.000000, -0.000000, -0.000000, -0.737075, 0.000000, -0.000000, 0.000000, 0.000000, -0.000000, 0.017307, 0.030289, 0.000000, 0.000000, 0.312381, -0.000000, -0.235536, -0.000000, -0.000000, 0.046874, 0.000000, -0.000000, -0.000000, 0.000000, 0.190102, -0.000000}, {-0.000000, -0.000000, -0.000000, 0.000000, -0.000000, 0.000000, -0.000000, -0.000000, -0.000000, -0.000000, -0.000000, -0.000000, 0.000000, 0.000000, -0.000000, 0.000000, -0.000000, 0.000000, 0.000000, 0.000000, 0.000000, 0.000000, 0.000000, 0.000000, 0.000000, -0.000000, -0.000000, -0.000000, 0.000000, -0.000000, 0.000000, -0.000000, -0.000000, -0.000000, 0.000000, -0.000000, 0.000000, 0.000000, 0.000000, 0.000000}, {-0.038524, 0.000000, 0.160917, -0.000000, -0.352413, 0.000000, 0.000000, -0.000000, 0.236851, -0.633350, -0.000000, 0.000000, -0.000000, -0.000000, -0.000000, -0.000000, -0.000000, 0.000000, -0.751196, 0.000000, -0.000000, -0.000000, 0.000000, 0.000000, -1.076024, -0.076119, 0.000000, -0.000000, -0.229923, 0.000000, 0.008199, 0.000000, -0.000000, 0.242104, 0.000000, 0.000000, -0.000000, 0.000000, 0.042294, -0.000000}, {-0.032574, -0.000000, 0.574266, 0.000000, 0.092831, 0.000000, -0.000000, 0.000000, 0.070940, -0.154571, -0.000000, 0.000000, -0.000000, 0.000000, -0.000000, -0.000000, 0.000000, 0.000000, -0.553382, 0.000000, -0.000000, 0.000000, 0.000000, 0.000000, -0.035485, 0.254685, -0.000000, 0.000000, 0.020879, 0.000000, -1.108071, -0.000000, 0.000000, -0.041611, -0.000000, -0.000000, -0.000000, -0.000000, 0.227941, -0.000000}, {-0.000000, 0.000000, 0.000000, 0.000000, 0.000000, 0.000000, -0.000000, -0.000000, -0.000000, 0.000000, 0.000000, 0.000000, 0.000000, -0.000000, -0.000000, 0.000000, 0.000000, 0.000000, 0.000000, 0.000000, -0.000000, 0.000000, -0.000000, -0.000000, 0.000000, 0.000000, 0.000000, 0.000000, -0.000000, 0.000000, -0.000000, 0.000000, 0.000000, -0.000000, 0.000000, -0.000000, -0.000000, -0.000000, 0.000000, 0.000000}, {-0.003698, -0.000000, -0.135254, -0.000000, 0.136853, -0.000000, -0.000000, -0.000000, -0.071585, -0.655736, -0.000000, -0.000000, 0.000000, 0.000000, -0.000000, -0.000000, -0.000000, 0.000000, -0.386066, -0.000000, 0.000000, -0.000000, -0.000000, -0.000000, 0.243520, -0.525639, -0.000000, -0.000000, -0.164098, -0.000000, -0.302401, -0.000000, -0.000000, 0.135164, -0.000000, -0.000000, -0.000000, -0.000000, -0.576478, -0.000000}, {-0.000000, 0.000000, -0.000000, -0.000000, -0.000000, -0.000000, -0.000000, -0.000000, 0.000000, -0.000000, -0.000000, 0.000000, -0.000000, 0.000000, 0.000000, -0.000000, 0.000000, -0.000000, 0.000000, -0.000000, -0.000000, 0.000000, 0.000000, 0.000000, 0.000000, -0.000000, 0.000000, -0.000000, 0.000000, -0.000000, -0.000000, -0.000000, 0.000000, 0.000000, 0.000000, 0.000000, 0.000000, -0.000000, 0.000000, 0.000000}, {-0.048447, -0.000000, -0.589094, -0.000000, -1.204733, -0.000000, 0.000000, -0.000000, -0.151632, -0.206603, -0.000000, -0.000000, -0.000000, 0.000000, -0.000000, -0.000000, 0.000000, -0.000000, -0.002017, -0.000000, -0.000000, -0.000000, -0.000000, -0.000000, -0.379293, -1.014906, -0.000000, 0.000000, -0.622825, 0.000000, -0.450412, -0.000000, 0.000000, 0.405278, 0.000000, 0.000000, 0.000000, 0.000000, 0.454489, 0.000000}, {0.000000, -0.000000, 0.000000, 0.000000, -0.000000, -0.000000, 0.000000, 0.000000, 0.000000, -0.000000, -0.000000, 0.000000, 0.000000, 0.000000, -0.000000, 0.000000, -0.000000, 0.000000, 0.000000, 0.000000, -0.000000, 0.000000, -0.000000, -0.000000, -0.000000, 0.000000, 0.000000, 0.000000, -0.000000, -0.000000, -0.000000, 0.000000, -0.000000, -0.000000, 0.000000, 0.000000, -0.000000, -0.000000, 0.000000, -0.000000}, {-0.018273, 0.000000, -0.465713, -0.000000, -0.534634, -0.000000, -0.000000, 0.000000, -0.722669, -0.678801, 0.000000, 0.000000, 0.000000, -0.000000, -0.000000, 0.000000, -0.000000, -0.000000, -0.270496, -0.000000, -0.000000, -0.000000, -0.000000, -0.000000, -0.449980, -0.699805, -0.000000, -0.000000, -0.853921, -0.000000, -0.235648, 0.000000, 0.000000, 0.352132, 0.000000, -0.000000, 0.000000, -0.000000, -0.050806, 0.000000}, {0.002595, -0.000000, -0.921231, -0.000000, 0.011002, -0.000000, -0.000000, -0.000000, 0.650794, -0.839173, -0.000000, -0.000000, -0.000000, 0.000000, -0.000000, -0.000000, -0.000000, 0.000000, -0.336227, -0.000000, 0.000000, -0.000000, -0.000000, -0.000000, -0.312504, -1.353054, -0.000000, -0.000000, 0.307954, -0.000000, -1.072564, -0.000000, -0.000000, 0.279316, 0.000000, -0.000000, -0.000000, -0.000000, 0.645812, -0.000000}, {0.000000, -0.000000, 0.000000, 0.000000, -0.000000, -0.000000, 0.000000, 0.000000, -0.000000, 0.000000, -0.000000, 0.000000, -0.000000, -0.000000, -0.000000, -0.000000, 0.000000, 0.000000, 0.000000, 0.000000, 0.000000, 0.000000, -0.000000, 0.000000, -0.000000, -0.000000, 0.000000, -0.000000, 0.000000, 0.000000, -0.000000, -0.000000, 0.000000, 0.000000, -0.000000, -0.000000, -0.000000, -0.000000, 0.000000, 0.000000}, {0.000000, -0.000000, 0.000000, -0.000000, 0.000000, -0.000000, 0.000000, -0.000000, -0.000000, -0.000000, 0.000000, 0.000000, -0.000000, 0.000000, 0.000000, -0.000000, 0.000000, 0.000000, -0.000000, 0.000000, 0.000000, -0.000000, -0.000000, -0.000000, 0.000000, 0.000000, 0.000000, -0.000000, -0.000000, -0.000000, 0.000000, 0.000000, 0.000000, -0.000000, -0.000000, 0.000000, 0.000000, -0.000000, -0.000000, -0.000000}, {-0.018593, 0.000000, 0.260165, -0.000000, -0.115010, -0.000000, 0.000000, -0.000000, -0.979003, -0.440392, -0.000000, -0.000000, -0.000000, 0.000000, -0.000000, -0.000000, -0.000000, 0.000000, -0.848167, -0.000000, -0.000000, 0.000000, 0.000000, -0.000000, -0.039122, -0.007735, 0.000000, -0.000000, 0.137102, -0.000000, -0.097883, 0.000000, -0.000000, -0.471163, 0.000000, -0.000000, -0.000000, -0.000000, -0.199980, -0.000000}, {-0.014406, 0.000000, 0.220286, 0.000000, 0.072226, 0.000000, -0.000000, 0.000000, 0.345833, -0.699682, 0.000000, 0.000000, 0.000000, -0.000000, -0.000000, 0.000000, 0.000000, -0.000000, -0.960858, -0.000000, -0.000000, -0.000000, 0.000000, 0.000000, 0.035317, 0.279077, -0.000000, -0.000000, 0.006172, -0.000000, 0.424262, -0.000000, 0.000000, -0.342621, 0.000000, 0.000000, -0.000000, -0.000000, 0.102059, 0.000000}, {-0.001841, -0.000000, 0.417433, -0.000000, -0.214226, 0.000000, -0.000000, -0.000000, -0.127690, 0.576093, -0.000000, -0.000000, -0.000000, 0.000000, -0.000000, 0.000000, 0.000000, 0.000000, 0.092029, 0.000000, -0.000000, -0.000000, -0.000000, -0.000000, -0.985420, -0.256645, -0.000000, -0.000000, -0.046262, 0.000000, 0.393585, -0.000000, -0.000000, -0.320481, -0.000000, -0.000000, 0.000000, -0.000000, -0.400458, -0.000000}, {-0.008469, -0.000000, -0.203754, 0.000000, 0.149670, -0.000000, 0.000000, 0.000000, 0.337321, -0.648734, -0.000000, -0.000000, -0.000000, -0.000000, -0.000000, 0.000000, -0.000000, -0.000000, -0.222738, 0.000000, -0.000000, 0.000000, -0.000000, 0.000000, -0.399578, -0.361314, -0.000000, -0.000000, -1.215456, -0.000000, -0.751184, -0.000000, -0.000000, 0.178848, -0.000000, -0.000000, 0.000000, 0.000000, -0.995235, -0.000000}, {-0.048163, 0.000000, -0.136701, 0.000000, 0.458000, -0.000000, -0.000000, 0.000000, -0.890803, 0.323623, -0.000000, 0.000000, -0.000000, -0.000000, 0.000000, -0.000000, 0.000000, -0.000000, -0.357556, -0.000000, -0.000000, -0.000000, -0.000000, -0.000000, -0.081431, -0.287662, 0.000000, -0.000000, 0.285995, -0.000000, -0.572535, -0.000000, 0.000000, 0.452828, 0.000000, -0.000000, 0.000000, 0.000000, -0.112383, -0.000000}, {0.000000, 0.000000, 0.000000, 0.000000, 0.000000, -0.000000, 0.000000, -0.000000, -0.000000, -0.000000, -0.000000, 0.000000, -0.000000, 0.000000, 0.000000, 0.000000, 0.000000, 0.000000, 0.000000, -0.000000, -0.000000, 0.000000, 0.000000, -0.000000, 0.000000, 0.000000, -0.000000, -0.000000, -0.000000, -0.000000, 0.000000, 0.000000, 0.000000, -0.000000, -0.000000, -0.000000, 0.000000, -0.000000, -0.000000, -0.000000}, {-0.000000, 0.000000, 0.000000, 0.000000, 0.000000, -0.000000, 0.000000, 0.000000, -0.000000, -0.000000, -0.000000, -0.000000, -0.000000, 0.000000, -0.000000, -0.000000, -0.000000, -0.000000, -0.000000, 0.000000, 0.000000, -0.000000, -0.000000, 0.000000, 0.000000, 0.000000, -0.000000, 0.000000, 0.000000, 0.000000, 0.000000, 0.000000, 0.000000, -0.000000, 0.000000, 0.000000, 0.000000, -0.000000, -0.000000, -0.000000}, {0.000000, -0.000000, 0.000000, -0.000000, 0.000000, 0.000000, -0.000000, -0.000000, 0.000000, -0.000000, -0.000000, -0.000000, 0.000000, 0.000000, -0.000000, -0.000000, -0.000000, -0.000000, -0.000000, 0.000000, 0.000000, -0.000000, -0.000000, 0.000000, 0.000000, 0.000000, -0.000000, -0.000000, 0.000000, 0.000000, 0.000000, 0.000000, -0.000000, -0.000000, -0.000000, 0.000000, -0.000000, -0.000000, -0.000000, 0.000000}, {-0.000000, 0.000000, -0.000000, -0.000000, 0.000000, -0.000000, -0.000000, -0.000000, -0.000000, 0.000000, 0.000000, -0.000000, -0.000000, 0.000000, 0.000000, -0.000000, 0.000000, 0.000000, 0.000000, 0.000000, -0.000000, -0.000000, -0.000000, 0.000000, -0.000000, -0.000000, -0.000000, 0.000000, -0.000000, -0.000000, 0.000000, -0.000000, 0.000000, -0.000000, -0.000000, -0.000000, 0.000000, -0.000000, -0.000000, -0.000000}, {-0.000000, 0.000000, 0.000000, 0.000000, 0.000000, 0.000000, -0.000000, 0.000000, -0.000000, 0.000000, -0.000000, -0.000000, 0.000000, 0.000000, 0.000000, 0.000000, 0.000000, -0.000000, 0.000000, -0.000000, -0.000000, 0.000000, 0.000000, -0.000000, 0.000000, 0.000000, 0.000000, -0.000000, 0.000000, 0.000000, 0.000000, -0.000000, 0.000000, 0.000000, -0.000000, -0.000000, 0.000000, 0.000000, 0.000000, -0.000000}, {0.000000, 0.000000, -0.000000, -0.000000, 0.000000, -0.000000, 0.000000, -0.000000, 0.000000, -0.000000, -0.000000, -0.000000, 0.000000, -0.000000, 0.000000, -0.000000, 0.000000, -0.000000, -0.000000, 0.000000, -0.000000, -0.000000, 0.000000, -0.000000, 0.000000, 0.000000, -0.000000, 0.000000, 0.000000, 0.000000, 0.000000, 0.000000, 0.000000, -0.000000, 0.000000, 0.000000, 0.000000, -0.000000, -0.000000, 0.000000}, {0.000000, 0.000000, 0.000000, 0.000000, 0.000000, 0.000000, 0.000000, -0.000000, -0.000000, 0.000000, -0.000000, 0.000000, -0.000000, 0.000000, 0.000000, 0.000000, 0.000000, -0.000000, 0.000000, -0.000000, 0.000000, 0.000000, 0.000000, -0.000000, 0.000000, -0.000000, 0.000000, -0.000000, -0.000000, -0.000000, -0.000000, -0.000000, -0.000000, -0.000000, -0.000000, 0.000000, -0.000000, 0.000000, -0.000000, 0.000000}, {-0.003068, 0.000000, 0.239786, 0.000000, 0.060008, 0.000000, -0.000000, 0.000000, -0.658736, -0.654732, -0.000000, 0.000000, -0.000000, -0.000000, 0.000000, -0.000000, -0.000000, -0.000000, -0.697148, 0.000000, -0.000000, 0.000000, 0.000000, 0.000000, -0.199625, -0.075492, 0.000000, -0.000000, -0.104339, -0.000000, -0.459136, 0.000000, 0.000000, -0.097337, -0.000000, -0.000000, 0.000000, -0.000000, 0.375565, -0.000000}, {0.000000, -0.000000, 0.000000, -0.000000, -0.000000, 0.000000, -0.000000, 0.000000, 0.000000, -0.000000, -0.000000, 0.000000, 0.000000, -0.000000, 0.000000, 0.000000, -0.000000, 0.000000, -0.000000, -0.000000, -0.000000, -0.000000, -0.000000, 0.000000, 0.000000, -0.000000, -0.000000, -0.000000, 0.000000, 0.000000, 0.000000, 0.000000, 0.000000, 0.000000, -0.000000, 0.000000, -0.000000, 0.000000, 0.000000, -0.000000}, {-0.018934, -0.000000, -0.859379, 0.000000, -0.533010, -0.000000, -0.000000, -0.000000, 0.225834, -0.067606, 0.000000, -0.000000, -0.000000, -0.000000, 0.000000, 0.000000, -0.000000, -0.000000, -0.579165, -0.000000, -0.000000, -0.000000, -0.000000, 0.000000, -0.995889, -0.220775, -0.000000, 0.000000, -0.973732, -0.000000, -0.233277, -0.000000, -0.000000, 0.359800, 0.000000, -0.000000, 0.000000, -0.000000, -0.627457, -0.000000}, {-0.000000, -0.000000, 0.000000, -0.000000, 0.000000, 0.000000, -0.000000, 0.000000, -0.000000, -0.000000, 0.000000, 0.000000, -0.000000, 0.000000, 0.000000, -0.000000, -0.000000, -0.000000, 0.000000, 0.000000, 0.000000, 0.000000, -0.000000, -0.000000, -0.000000, -0.000000, 0.000000, 0.000000, -0.000000, -0.000000, -0.000000, -0.000000, 0.000000, -0.000000, -0.000000, 0.000000, 0.000000, 0.000000, 0.000000, -0.000000}, {-0.020098, -0.000000, -0.127720, -0.000000, -0.099913, 0.000000, -0.000000, 0.000000, -0.208497, -0.667902, 0.000000, 0.000000, 0.000000, 0.000000, -0.000000, 0.000000, -0.000000, -0.000000, -0.609300, 0.000000, -0.000000, -0.000000, 0.000000, 0.000000, 0.524011, 0.483482, -0.000000, 0.000000, 0.244374, 0.000000, -0.368923, -0.000000, 0.000000, -0.348767, -0.000000, -0.000000, -0.000000, -0.000000, 0.377672, -0.000000}, {-0.005818, -0.000000, 0.283674, -0.000000, 0.601194, 0.000000, -0.000000, -0.000000, -0.964894, 0.226930, -0.000000, 0.000000, -0.000000, -0.000000, -0.000000, -0.000000, 0.000000, 0.000000, 0.406029, -0.000000, 0.000000, -0.000000, 0.000000, -0.000000, 0.460304, 0.812452, -0.000000, 0.000000, 0.185909, 0.000000, -0.320761, 0.000000, 0.000000, 0.526191, -0.000000, -0.000000, 0.000000, 0.000000, -0.059567, -0.000000}, {0.000000, -0.000000, 0.000000, 0.000000, 0.000000, -0.000000, -0.000000, 0.000000, 0.000000, 0.000000, -0.000000, -0.000000, -0.000000, -0.000000, -0.000000, -0.000000, -0.000000, 0.000000, 0.000000, 0.000000, -0.000000, 0.000000, -0.000000, 0.000000, 0.000000, -0.000000, -0.000000, 0.000000, 0.000000, -0.000000, 0.000000, -0.000000, -0.000000, -0.000000, -0.000000, -0.000000, 0.000000, -0.000000, 0.000000, -0.000000}, {-0.023606, 0.000000, 0.125632, -0.000000, -0.070695, -0.000000, -0.000000, -0.000000, -0.288537, -0.138601, 0.000000, 0.000000, -0.000000, -0.000000, -0.000000, 0.000000, -0.000000, -0.000000, -0.673158, -0.000000, -0.000000, 0.000000, -0.000000, -0.000000, 0.001125, -0.303404, -0.000000, 0.000000, -0.968637, -0.000000, -0.310502, -0.000000, -0.000000, -0.526754, 0.000000, -0.000000, 0.000000, 0.000000, -0.110647, -0.000000}, {-0.023423, -0.000000, -0.906381, 0.000000, 0.415795, -0.000000, 0.000000, 0.000000, -0.042533, 0.280867, -0.000000, -0.000000, 0.000000, -0.000000, -0.000000, 0.000000, 0.000000, -0.000000, -0.499650, 0.000000, 0.000000, 0.000000, -0.000000, 0.000000, -0.326270, -1.152535, -0.000000, 0.000000, -1.056614, 0.000000, -0.359923, 0.000000, 0.000000, 0.209675, -0.000000, 0.000000, 0.000000, -0.000000, -0.246106, 0.000000}, {0.000000, -0.000000, -0.000000, -0.000000, -0.000000, -0.000000, 0.000000, 0.000000, 0.000000, 0.000000, -0.000000, -0.000000, -0.000000, 0.000000, -0.000000, 0.000000, 0.000000, 0.000000, 0.000000, 0.000000, 0.000000, 0.000000, 0.000000, 0.000000, 0.000000, 0.000000, -0.000000, 0.000000, 0.000000, 0.000000, 0.000000, -0.000000, -0.000000, 0.000000, -0.000000, -0.000000, 0.000000, -0.000000, -0.000000, 0.000000}, {-0.040962, -0.000000, -0.616580, -0.000000, -0.775016, -0.000000, -0.000000, -0.000000, 0.318984, 0.212706, -0.000000, -0.000000, -0.000000, -0.000000, -0.000000, 0.000000, 0.000000, -0.000000, -0.296296, -0.000000, -0.000000, 0.000000, -0.000000, -0.000000, -0.256177, -0.832554, -0.000000, -0.000000, -0.652210, -0.000000, -0.163040, -0.000000, -0.000000, -0.525052, -0.000000, -0.000000, -0.000000, -0.000000, -0.726915, -0.000000}, {0.000000, -0.000000, -0.000000, -0.000000, 0.000000, 0.000000, -0.000000, 0.000000, -0.000000, 0.000000, -0.000000, 0.000000, 0.000000, 0.000000, 0.000000, -0.000000, 0.000000, -0.000000, -0.000000, 0.000000, 0.000000, 0.000000, -0.000000, -0.000000, -0.000000, 0.000000, -0.000000, 0.000000, -0.000000, 0.000000, 0.000000, -0.000000, -0.000000, 0.000000, -0.000000, -0.000000, 0.000000, 0.000000, -0.000000, -0.000000}, {0.000000, 0.000000, 0.000000, -0.000000, -0.000000, 0.000000, -0.000000, -0.000000, -0.000000, 0.000000, -0.000000, -0.000000, -0.000000, 0.000000, -0.000000, 0.000000, -0.000000, -0.000000, -0.000000, 0.000000, -0.000000, 0.000000, 0.000000, 0.000000, -0.000000, -0.000000, 0.000000, -0.000000, 0.000000, 0.000000, 0.000000, -0.000000, 0.000000, 0.000000, 0.000000, 0.000000, -0.000000, 0.000000, -0.000000, -0.000000}};
static const float * p_layer_2_weight = layer_2_weight;
static const float layer_2_bias[40] = {-0.045154, -0.109660, 0.087306, -0.167757, 0.424216, -0.188274, -0.091331, -0.186864, 0.184689, 0.304811, -0.203681, -0.144288, -0.138890, -0.135499, -0.132389, -0.209098, -0.087123, -0.098550, 0.373592, -0.071366, -0.093634, -0.141802, -0.132779, -0.067814, 0.250572, 0.064149, -0.036897, -0.126029, 0.229920, -0.172806, 0.514616, -0.076954, -0.288669, 0.191470, -0.107177, -0.062016, -0.207427, -0.166523, 0.278186, -0.033647};
static const float * p_layer_2_bias = layer_2_bias;
static const float layer_3_weight[40][40] = {{0.012901, 0.027747, 0.031129, 0.003122, -0.003476, 0.074116, 0.042018, 0.009858, -0.007940, -0.015147, -0.017482, 0.010758, -0.009055, -0.009125, -0.022282, -0.040560, -0.003502, 0.027490, -0.106590, 0.033960, 0.009842, 0.117530, 0.026976, -0.013157, 0.074047, 0.007516, 0.055759, -0.015836, -0.004923, 0.010128, -0.038605, -0.100121, 0.010462, -0.063659, -0.001567, 0.006128, 0.000355, -0.034313, -0.030281, 0.056116}, {0.000000, 0.000000, -0.000000, -0.000000, 0.000000, -0.000000, 0.000000, 0.000000, -0.000000, -0.000000, 0.000000, 0.000000, -0.000000, 0.000000, 0.000000, -0.000000, -0.000000, -0.000000, 0.000000, -0.000000, -0.000000, -0.000000, -0.000000, 0.000000, -0.000000, -0.000000, -0.000000, 0.000000, 0.000000, 0.000000, 0.000000, -0.000000, -0.000000, -0.000000, 0.000000, 0.000000, -0.000000, 0.000000, -0.000000, 0.000000}, {-0.021365, -0.007872, 0.324790, -0.012889, 0.022412, -0.055583, -0.052055, -0.040268, -0.011241, 0.042087, -0.047022, -0.016504, -0.020382, 0.057947, -0.009789, 0.029621, -0.008738, 0.015359, 0.154252, 0.065092, 0.032793, 0.650105, -0.014886, 0.861773, -0.190762, 0.004139, -0.398661, -0.032894, -0.003364, -0.895611, -0.676472, 0.170091, -0.043359, -0.746946, -0.032192, 0.009768, 0.021468, 0.018320, -0.330128, 0.928787}, {0.000000, 0.000000, 0.000000, 0.000000, 0.000000, -0.000000, -0.000000, 0.000000, -0.000000, 0.000000, -0.000000, -0.000000, 0.000000, 0.000000, -0.000000, -0.000000, 0.000000, 0.000000, 0.000000, -0.000000, -0.000000, -0.000000, -0.000000, 0.000000, -0.000000, 0.000000, -0.000000, 0.000000, -0.000000, -0.000000, 0.000000, -0.000000, 0.000000, 0.000000, -0.000000, -0.000000, 0.000000, 0.000000, -0.000000, 0.000000}, {0.070573, 0.020614, 0.452291, -0.057881, 0.058124, 0.044900, 0.021790, -0.031344, -0.055032, -0.030760, 0.033670, -0.038103, 0.012589, 0.001860, 0.007993, -0.003582, -0.065113, -0.015626, -0.532420, -0.010964, 0.010870, -0.168597, 0.043973, 0.017283, -0.715681, 0.036387, -0.764835, 0.004198, -0.027566, -0.009449, -0.906735, -0.537506, -0.050994, -0.541980, 0.053866, -0.074170, 0.003783, -0.092325, -0.451512, -0.608728}, {0.000000, -0.000000, 0.000000, -0.000000, -0.000000, -0.000000, 0.000000, -0.000000, -0.000000, -0.000000, -0.000000, 0.000000, -0.000000, -0.000000, 0.000000, 0.000000, -0.000000, 0.000000, 0.000000, -0.000000, 0.000000, 0.000000, 0.000000, 0.000000, 0.000000, -0.000000, 0.000000, -0.000000, -0.000000, -0.000000, -0.000000, 0.000000, 0.000000, -0.000000, -0.000000, -0.000000, -0.000000, 0.000000, -0.000000, 0.000000}, {0.000000, -0.000000, 0.000000, 0.000000, 0.000000, 0.000000, -0.000000, 0.000000, 0.000000, -0.000000, 0.000000, -0.000000, -0.000000, -0.000000, -0.000000, -0.000000, -0.000000, 0.000000, -0.000000, 0.000000, -0.000000, -0.000000, 0.000000, 0.000000, -0.000000, 0.000000, 0.000000, -0.000000, -0.000000, -0.000000, -0.000000, 0.000000, -0.000000, 0.000000, -0.000000, -0.000000, 0.000000, 0.000000, -0.000000, 0.000000}, {-0.000000, 0.000001, -0.000000, -0.000001, 0.000000, 0.000001, 0.000000, -0.000000, -0.000000, -0.000001, -0.000000, -0.000000, -0.000001, 0.000001, 0.000000, -0.000000, 0.000000, 0.000000, -0.000001, 0.000000, -0.000000, -0.000000, 0.000000, 0.000000, -0.000000, 0.000001, 0.000000, 0.000001, 0.000001, -0.000000, 0.000000, -0.000000, -0.000000, 0.000001, -0.000000, -0.000000, -0.000000, -0.000001, 0.000000, 0.000001}, {-0.011204, -0.004841, -0.102573, -0.043567, 0.010561, -0.008807, 0.002454, -0.029049, -0.046861, -0.014864, -0.038138, -0.004088, -0.029840, 0.040634, -0.024038, 0.025706, -0.010016, -0.009080, -0.840949, 0.046226, 0.035126, 0.240408, 0.018071, -0.436242, 0.548258, -0.000182, 0.199419, -0.019353, -0.021356, 0.442856, 0.491544, -0.812923, -0.039603, 0.132431, -0.006993, -0.004438, 0.005720, 0.004957, 0.120602, -0.021600}, {-0.001851, -0.008031, -0.997117, -0.028642, 0.077567, 0.130200, 0.070427, -0.041514, -0.080723, -0.010364, 0.074578, -0.052055, 0.038893, -0.005128, 0.023021, -0.020940, -0.009210, -0.003300, 0.154073, -0.016338, -0.000927, 0.845953, 0.014083, 0.100205, -1.003101, 0.040528, -0.890329, 0.010731, 0.008606, -0.099174, -0.104454, 0.103374, -0.127329, -0.196957, 0.120858, -0.030864, 0.033490, -0.129167, 0.964150, 0.696576}, {-0.000000, -0.000000, 0.000000, 0.000000, -0.000000, -0.000000, 0.000000, -0.000000, 0.000000, -0.000000, 0.000000, 0.000000, 0.000000, -0.000000, 0.000000, 0.000000, 0.000000, -0.000000, 0.000000, 0.000000, -0.000000, 0.000000, 0.000000, 0.000000, -0.000000, -0.000000, -0.000000, -0.000000, -0.000000, -0.000000, -0.000000, -0.000000, -0.000000, -0.000000, -0.000000, 0.000000, 0.000000, -0.000000, 0.000000, -0.000000}, {0.000000, -0.000000, -0.000000, -0.000000, -0.000000, -0.000000, 0.000000, 0.000000, 0.000000, -0.000000, -0.000000, -0.000000, -0.000000, 0.000000, -0.000000, 0.000000, 0.000000, 0.000000, -0.000000, 0.000000, 0.000000, -0.000000, -0.000000, 0.000000, 0.000000, -0.000000, -0.000000, 0.000000, -0.000000, 0.000000, 0.000000, 0.000000, 0.000000, 0.000000, 0.000000, 0.000000, -0.000000, -0.000000, -0.000000, 0.000000}, {0.000000, -0.000000, -0.000000, 0.000000, -0.000000, -0.000000, -0.000000, 0.000000, -0.000000, -0.000000, 0.000000, 0.000000, 0.000000, 0.000000, 0.000000, -0.000000, 0.000000, -0.000000, -0.000000, 0.000000, -0.000000, 0.000000, -0.000000, -0.000000, -0.000000, -0.000000, -0.000000, -0.000000, 0.000000, -0.000000, -0.000000, 0.000000, -0.000000, 0.000000, 0.000000, -0.000000, -0.000000, 0.000000, -0.000000, 0.000000}, {-0.000000, -0.000000, 0.000000, 0.000000, -0.000000, 0.000000, -0.000000, 0.000000, 0.000000, -0.000000, -0.000000, -0.000000, -0.000000, -0.000000, 0.000000, -0.000000, -0.000000, -0.000000, -0.000000, -0.000000, 0.000000, -0.000000, 0.000000, 0.000000, 0.000000, -0.000000, 0.000000, -0.000000, -0.000000, 0.000000, 0.000000, 0.000000, 0.000000, -0.000000, -0.000000, -0.000000, 0.000000, 0.000000, 0.000000, -0.000000}, {-0.000000, 0.000000, 0.000000, -0.000000, 0.000000, 0.000000, 0.000000, -0.000000, -0.000000, 0.000000, 0.000000, -0.000000, -0.000000, 0.000000, -0.000000, 0.000000, 0.000000, 0.000000, 0.000000, -0.000000, -0.000000, -0.000000, -0.000000, -0.000000, 0.000000, -0.000000, 0.000000, -0.000000, 0.000000, 0.000000, 0.000000, -0.000000, 0.000000, 0.000000, 0.000000, -0.000000, 0.000000, -0.000000, -0.000000, 0.000000}, {-0.000000, 0.000000, -0.000000, -0.000000, 0.000000, -0.000000, -0.000000, -0.000000, -0.000000, 0.000000, 0.000000, 0.000000, 0.000000, 0.000000, 0.000000, -0.000000, -0.000000, -0.000000, 0.000000, -0.000000, -0.000000, 0.000000, -0.000000, -0.000000, -0.000000, 0.000000, -0.000000, 0.000000, -0.000000, -0.000000, 0.000000, 0.000000, 0.000000, -0.000000, -0.000000, 0.000000, -0.000000, 0.000000, 0.000000, -0.000000}, {-0.000000, -0.000000, 0.000000, 0.000000, 0.000000, 0.000000, -0.000000, -0.000000, 0.000000, -0.000000, -0.000000, 0.000000, -0.000000, 0.000000, -0.000000, 0.000000, -0.000000, -0.000000, 0.000000, -0.000000, -0.000000, 0.000000, 0.000000, -0.000000, -0.000000, -0.000000, 0.000000, 0.000000, 0.000000, -0.000000, -0.000000, 0.000000, -0.000000, -0.000000, -0.000000, -0.000000, 0.000000, 0.000000, 0.000000, -0.000000}, {-0.000000, -0.000000, 0.000000, 0.000000, 0.000000, 0.000000, -0.000000, 0.000000, 0.000000, -0.000000, -0.000000, 0.000000, -0.000000, -0.000000, -0.000000, -0.000000, 0.000000, 0.000000, -0.000000, -0.000000, -0.000000, -0.000000, 0.000000, -0.000000, 0.000000, -0.000000, -0.000000, -0.000000, 0.000000, 0.000000, 0.000000, 0.000000, -0.000000, 0.000000, -0.000000, 0.000000, -0.000000, 0.000000, -0.000000, 0.000000}, {-0.135811, 0.042492, -1.236404, 0.170990, -0.070024, 0.016136, 0.026061, -0.014711, -0.097550, -0.051569, -0.126443, 0.016543, -0.159199, 0.091083, -0.138261, 0.068158, 0.187944, -0.024024, 0.157599, 0.133688, 0.078795, -0.584297, 0.012043, -0.997767, -0.529950, 0.024845, -0.424079, -0.099038, -0.002814, 1.013447, -1.219516, 0.239166, -0.017615, -1.218326, 0.018796, 0.185616, -0.100941, 0.105829, 1.236437, -0.682394}, {-0.000000, -0.000000, 0.000000, -0.000000, -0.000000, -0.000000, -0.000000, 0.000000, 0.000000, 0.000000, -0.000000, 0.000000, 0.000000, 0.000000, 0.000000, 0.000000, 0.000000, 0.000000, 0.000000, -0.000000, -0.000000, 0.000000, -0.000000, -0.000000, -0.000000, -0.000000, -0.000000, -0.000000, -0.000000, -0.000000, 0.000000, 0.000000, 0.000000, 0.000000, 0.000000, -0.000000, -0.000000, 0.000000, 0.000000, -0.000000}, {0.000000, 0.000000, -0.000000, -0.000000, 0.000000, 0.000000, -0.000000, 0.000000, -0.000000, 0.000000, -0.000000, -0.000000, -0.000000, 0.000000, -0.000000, 0.000000, -0.000000, 0.000000, 0.000000, 0.000000, 0.000000, 0.000000, -0.000000, 0.000000, 0.000000, -0.000000, -0.000000, 0.000000, 0.000000, 0.000000, 0.000000, -0.000000, -0.000000, -0.000000, -0.000000, -0.000000, -0.000000, 0.000000, -0.000000, 0.000000}, {-0.000000, 0.000000, -0.000000, 0.000000, 0.000000, -0.000000, 0.000000, -0.000000, 0.000000, -0.000000, 0.000000, 0.000000, -0.000000, 0.000000, 0.000000, -0.000000, 0.000000, -0.000000, -0.000000, 0.000000, 0.000000, -0.000000, 0.000000, -0.000000, 0.000000, -0.000000, 0.000000, -0.000000, 0.000000, -0.000000, -0.000000, 0.000000, -0.000000, 0.000000, -0.000000, 0.000000, 0.000000, -0.000000, -0.000000, -0.000000}, {0.000000, -0.000000, 0.000000, -0.000000, -0.000000, -0.000000, 0.000000, -0.000000, 0.000000, -0.000000, -0.000000, -0.000000, -0.000000, -0.000000, 0.000000, -0.000000, -0.000000, 0.000000, -0.000000, -0.000000, 0.000000, 0.000000, 0.000000, -0.000000, 0.000000, 0.000000, -0.000000, 0.000000, -0.000000, -0.000000, -0.000000, -0.000000, 0.000000, 0.000000, -0.000000, -0.000000, -0.000000, 0.000000, -0.000000, -0.000000}, {-0.000000, -0.000000, -0.000000, 0.000000, 0.000000, 0.000000, -0.000000, 0.000000, -0.000000, 0.000000, -0.000000, 0.000000, 0.000000, -0.000000, -0.000000, 0.000000, 0.000000, -0.000000, -0.000000, 0.000000, 0.000000, -0.000000, 0.000000, 0.000000, 0.000000, 0.000000, -0.000000, -0.000000, 0.000000, -0.000000, 0.000000, 0.000000, -0.000000, 0.000000, -0.000000, 0.000000, -0.000000, 0.000000, -0.000000, -0.000000}, {-0.074193, -0.032479, 0.435793, 0.002181, 0.042419, 0.110345, 0.119474, 0.014474, -0.053929, -0.065398, 0.056047, 0.018381, 0.039120, -0.048280, 0.020639, -0.041281, 0.014561, -0.046883, 0.523434, -0.033637, 0.016074, -0.420233, 0.014943, -0.628281, 0.367665, 0.037019, 0.270226, 0.014018, 0.014325, 0.640102, -0.797717, 0.459000, -0.080926, -0.651616, 0.096179, 0.043977, 0.053458, -0.056647, -0.418435, -0.893187}, {-0.027694, -0.005346, 0.983170, -0.027880, 0.037175, -0.000163, 0.069113, 0.006300, 0.058334, -0.072409, -0.016505, 0.058154, 0.029759, -0.014409, 0.030149, -0.002518, 0.010498, -0.120231, -0.530364, -0.039119, 0.068412, -0.117027, -0.045913, 0.769397, 0.873273, 0.071886, 0.711198, 0.079048, -0.023865, -0.781176, 0.054104, -0.483663, 0.008912, 0.204241, -0.016112, 0.009152, 0.074333, -0.007173, -0.985122, -0.011059}, {-0.000000, 0.000000, -0.000000, -0.000000, -0.000000, -0.000000, 0.000000, 0.000000, 0.000000, 0.000000, 0.000000, 0.000000, 0.000000, -0.000000, 0.000000, 0.000000, -0.000000, -0.000000, -0.000000, 0.000000, 0.000000, 0.000000, -0.000000, 0.000000, 0.000000, -0.000000, 0.000000, -0.000000, 0.000000, 0.000000, 0.000000, -0.000000, -0.000000, -0.000000, 0.000000, 0.000000, -0.000000, -0.000000, -0.000000, 0.000000}, {0.000000, 0.000000, -0.000000, 0.000000, 0.000000, -0.000000, 0.000000, 0.000000, 0.000000, 0.000000, 0.000000, 0.000000, 0.000000, 0.000000, -0.000000, -0.000000, 0.000000, -0.000000, 0.000000, 0.000000, -0.000000, -0.000000, -0.000000, -0.000000, -0.000000, 0.000000, 0.000000, -0.000000, -0.000000, 0.000000, -0.000000, 0.000000, -0.000000, -0.000000, -0.000000, 0.000000, 0.000000, -0.000000, -0.000000, -0.000000}, {0.077971, 0.017052, 0.384471, -0.037472, -0.049849, -0.020693, -0.000128, -0.060438, 0.037284, -0.011046, -0.026471, -0.057098, -0.048808, 0.020227, -0.014879, 0.005005, -0.036030, 0.061375, -0.383594, 0.022526, -0.075748, -0.231780, 0.054502, 1.129099, 0.065041, -0.050389, 0.126631, -0.042318, 0.002838, -1.152445, -0.632064, -0.254649, 0.111816, -0.569327, -0.037491, -0.065939, 0.006314, 0.022265, -0.394385, 0.251679}, {0.000000, -0.000000, 0.000000, 0.000000, -0.000000, -0.000000, 0.000000, 0.000000, 0.000000, -0.000000, 0.000000, 0.000000, 0.000000, 0.000000, -0.000000, 0.000000, -0.000000, -0.000000, -0.000000, 0.000000, 0.000000, -0.000000, -0.000000, 0.000000, -0.000000, -0.000000, -0.000000, 0.000000, -0.000000, -0.000000, 0.000000, 0.000000, 0.000000, -0.000000, -0.000000, 0.000000, 0.000000, -0.000000, 0.000000, 0.000000}, {0.047292, 0.038099, -0.666701, 0.020163, 0.016748, -0.009188, -0.012432, -0.027554, 0.007583, -0.014829, 0.014428, -0.014359, 0.015819, -0.020585, -0.004424, 0.016289, -0.025865, -0.054759, -0.142141, -0.030489, 0.038968, -0.874919, 0.010870, -0.469730, 0.122661, 0.011921, 0.347093, 0.011974, -0.042749, 0.471510, -0.503805, -0.057027, 0.022709, -0.508920, -0.020128, -0.032470, -0.046252, -0.021322, 0.664453, -0.550536}, {-0.000000, -0.000000, 0.000000, -0.000000, -0.000000, 0.000000, -0.000000, -0.000000, -0.000000, -0.000000, -0.000000, -0.000000, 0.000000, -0.000000, 0.000000, 0.000000, 0.000000, 0.000000, -0.000000, -0.000000, 0.000000, -0.000000, 0.000000, 0.000000, 0.000000, 0.000000, -0.000000, 0.000000, 0.000000, -0.000000, -0.000000, 0.000000, 0.000000, -0.000000, 0.000000, 0.000000, 0.000000, 0.000000, -0.000000, -0.000000}, {0.000000, 0.000000, 0.000000, 0.000000, -0.000000, -0.000000, 0.000000, 0.000000, 0.000000, 0.000000, -0.000000, 0.000000, 0.000000, 0.000000, 0.000000, 0.000000, -0.000000, 0.000000, -0.000000, 0.000000, 0.000000, -0.000000, 0.000000, 0.000000, 0.000000, -0.000000, -0.000000, 0.000000, -0.000000, 0.000000, -0.000000, 0.000000, -0.000000, -0.000000, 0.000000, 0.000000, -0.000000, 0.000000, 0.000000, 0.000000}, {0.023432, 0.000345, 0.188139, -0.017787, -0.043443, -0.054471, -0.001309, 0.052233, 0.015543, -0.012389, -0.028672, 0.036552, -0.019905, 0.007617, -0.011152, 0.005862, -0.041995, 0.007160, -0.225444, 0.017932, 0.006902, -0.127537, 0.008903, 0.306490, -0.533656, -0.023705, -0.284613, -0.017243, -0.022746, -0.313250, 0.513998, -0.260611, 0.044563, 0.910802, -0.047047, -0.015037, 0.024512, 0.047070, -0.200862, -0.127537}, {0.000000, 0.000000, -0.000000, -0.000000, -0.000000, 0.000000, 0.000000, -0.000000, -0.000000, -0.000000, 0.000000, 0.000000, 0.000000, 0.000000, -0.000000, 0.000000, 0.000000, -0.000000, 0.000000, -0.000000, -0.000000, -0.000000, 0.000000, 0.000000, -0.000000, -0.000000, -0.000000, 0.000000, 0.000000, 0.000000, 0.000000, 0.000000, 0.000000, 0.000000, -0.000000, 0.000000, 0.000000, -0.000000, 0.000000, 0.000000}, {0.000000, -0.000000, 0.000000, -0.000000, -0.000000, -0.000000, -0.000000, 0.000000, -0.000000, -0.000000, -0.000000, -0.000000, 0.000000, -0.000000, -0.000000, 0.000000, 0.000000, -0.000000, -0.000000, 0.000000, -0.000000, -0.000000, 0.000000, 0.000000, 0.000000, -0.000000, 0.000000, -0.000000, -0.000000, -0.000000, -0.000000, 0.000000, -0.000000, -0.000000, -0.000000, 0.000000, -0.000000, -0.000000, 0.000000, -0.000000}, {0.000000, 0.000000, -0.000000, 0.000000, -0.000000, -0.000000, -0.000000, 0.000000, 0.000000, 0.000000, 0.000000, -0.000000, -0.000000, 0.000000, 0.000000, -0.000000, -0.000000, 0.000000, 0.000000, -0.000000, 0.000000, 0.000000, -0.000000, 0.000000, 0.000000, -0.000000, -0.000000, -0.000000, -0.000000, 0.000000, -0.000000, -0.000000, 0.000000, -0.000000, -0.000000, 0.000000, -0.000000, 0.000000, -0.000000, -0.000000}, {0.000000, 0.000000, 0.000000, 0.000000, -0.000000, -0.000000, -0.000000, -0.000000, 0.000000, 0.000000, -0.000000, 0.000000, -0.000000, -0.000000, -0.000000, 0.000000, -0.000000, -0.000000, 0.000000, 0.000000, 0.000000, 0.000000, -0.000000, -0.000000, -0.000000, 0.000000, -0.000000, 0.000000, 0.000000, -0.000000, -0.000000, -0.000000, -0.000000, -0.000000, -0.000000, 0.000000, -0.000000, 0.000000, 0.000000, 0.000000}, {-0.077207, -0.036009, 0.628829, 0.081553, -0.046366, -0.019613, -0.067203, 0.062238, -0.001258, 0.058663, -0.021822, 0.069558, 0.023965, -0.010117, -0.001162, 0.018479, 0.105417, -0.012359, -0.024532, -0.009677, 0.039069, -0.018457, -0.070533, 0.249475, 0.366505, -0.049218, 0.374044, 0.054521, 0.034992, -0.266437, 0.241512, -0.065010, -0.003874, 0.526376, -0.033409, 0.088711, -0.091477, 0.064324, -0.627157, -0.105793}, {-0.000000, -0.000000, -0.000000, 0.000000, 0.000000, -0.000000, 0.000000, 0.000000, 0.000000, 0.000000, -0.000000, 0.000000, -0.000000, -0.000000, -0.000000, -0.000000, -0.000000, 0.000000, -0.000000, 0.000000, 0.000000, -0.000000, -0.000000, 0.000000, 0.000000, -0.000000, 0.000000, -0.000000, 0.000000, -0.000000, 0.000000, 0.000000, -0.000000, -0.000000, 0.000000, 0.000000, 0.000000, 0.000000, 0.000000, 0.000000}};
static const float * p_layer_3_weight = layer_3_weight;
static const float layer_3_bias[40] = {-0.015093, -0.012012, -0.028678, 0.010287, -0.004087, 0.000671, 0.000241, 0.007238, 0.019513, 0.007565, 0.005391, 0.002875, 0.009570, -0.013011, 0.011014, -0.013798, 0.015279, 0.007083, 0.237570, -0.011411, -0.012686, 0.031738, -0.008575, 0.319812, 0.094034, -0.003156, 0.145955, 0.007287, 0.018318, -0.391799, 0.160351, 0.236870, 0.010939, 0.071725, 0.000679, 0.013977, 0.003190, 0.011128, 0.012108, 0.144808};
static const float * p_layer_3_bias = layer_3_bias;
    
static float sigmoid(float num) {
    return 1.0f / (1.0f + expf(-num));
}

static float step(float num) {
    if (num < 0) {
        return 0;
    }
    return 1;
}

static float relu(float num) {
    if (num > 0) {
        return num;
    } else {
        return 0;
    }
}

static float linear(float num) {
    return num;
}

static void layer(const float * in, const float * layer_weight, const float * layer_bias,   
            int row, int col, float * output, int use_activation) {
    int ii;
    int jj;
    const float * p;

    for(ii = 0; ii < col; ii++) {
        p = layer_weight + ii;
        output[ii] = 0;
        for (jj = 0; jj < row; jj++) {
            output[ii] += in[jj] * (*p); 
            p += col;
        }
        output[ii] += layer_bias[ii];
        
        if (use_activation == 1) {
			output[ii] = relu(output[ii]);
        }
    }
}

const float* nn_phi_2(const float* input) {
	layer(input, p_layer_0_weight, p_layer_0_bias, STRUCTURE[0][0], STRUCTURE[0][1], output_0, 1);
	layer(output_0, p_layer_1_weight, p_layer_1_bias, STRUCTURE[1][0], STRUCTURE[1][1], output_1, 1);
	layer(output_1, p_layer_2_weight, p_layer_2_bias, STRUCTURE[2][0], STRUCTURE[2][1], output_2, 1);
	layer(output_2, p_layer_3_weight, p_layer_3_bias, STRUCTURE[3][0], STRUCTURE[3][1], output_3, 0);

	return output_3;
}
