/*
 * FILE: generated.c
 */

#include <stdio.h>
#include <stdlib.h>
#include <string.h>
#include <math.h>
#include "phi_2.h"

static const int STRUCTURE[4][2] = {{6, 25}, {25, 40}, {40, 40}, {40, 40}};
static float output_0[25];
static float output_1[40];
static float output_2[40];
static float output_3[40];
static const float layer_0_weight[6][25] = {{-0.498104, 0.347217, 0.818309, -0.285037, -0.989487, -0.790307, -0.882587, 0.185690, -0.324516, 0.017718, -0.022975, 0.102593, -1.780513, 0.651495, 0.000000, 1.248333, 1.670707, -2.227108, 0.303721, -0.608801, -0.064758, -0.133967, 0.635738, 0.518897, -1.485502}, {1.132082, 0.062097, 0.562845, -0.675891, 0.265992, -0.422189, 1.011453, -0.058860, 0.189793, -0.044825, -0.189479, 0.241045, 0.486379, 0.302444, -0.000000, -0.208090, 0.590984, -0.191638, 0.039309, -1.421509, -0.815358, 1.260668, -0.114721, -0.936646, 0.040291}, {-0.080962, 0.207922, 0.200469, 0.126537, 0.272934, -0.618066, 0.350035, -0.088247, -0.057269, 0.687703, -0.427507, 0.097801, 0.006560, -0.136160, 0.000000, 0.532441, -0.061046, 0.051964, -0.708067, 0.007510, -0.338351, -0.237604, 0.147566, 0.088088, -0.219955}, {0.009473, -0.407083, 0.383863, 0.511317, 0.158942, -0.069135, -0.147901, -0.020280, -0.141103, 0.122434, -0.230742, -0.037760, 0.129298, -0.542258, -0.000000, 0.172358, 0.013072, -0.242546, 0.043015, -0.081841, 0.278480, 0.006012, 0.690157, -0.420149, -0.569343}, {-0.208285, 0.502163, 0.096651, 0.269584, -0.187167, 0.138187, 0.025476, -0.474381, -0.115919, 0.030693, 0.211657, 0.412127, 0.105668, -0.197184, 0.000000, -0.116359, -0.042789, 0.028069, 0.018821, 0.014271, -0.062658, 0.003007, -0.076176, 0.184376, -0.035182}, {0.069684, -0.117872, 0.269066, 0.049668, -0.415583, -0.215489, 0.111903, -0.378827, 0.664905, -0.019718, 0.608125, -0.249455, -0.289650, 0.077427, -0.000000, 0.189567, -0.006632, 0.280933, -0.117335, -0.015350, 0.150240, -0.076417, -0.367549, -0.082068, -0.258665}};
static const float * p_layer_0_weight = layer_0_weight;
static const float layer_0_bias[25] = {0.014694, -0.146665, -0.180674, -0.106949, -0.050160, 0.066090, -0.115911, -0.074128, 0.188818, -0.173917, 0.031423, -0.283341, 0.039317, -0.131566, -0.314053, -0.258223, -0.023687, -0.023801, 0.245946, -0.000400, 0.087237, 0.043280, -0.130064, -0.072205, 0.018957};
static const float * p_layer_0_bias = layer_0_bias;
static const float layer_1_weight[25][40] = {{-0.000000, -0.000000, 0.000000, 0.000000, 0.434185, -0.000000, -0.884482, 0.046124, 0.359080, -1.268538, 0.150174, -1.074193, -0.120450, -0.150744, 0.009584, 0.000000, 0.176937, 0.000000, -0.018151, 0.251997, -0.000000, 0.000806, -1.167107, 0.136068, -0.000000, 0.605769, -0.000000, 0.067645, 0.000000, 0.000000, 0.188340, 0.268694, -0.161803, -0.000000, -0.123694, -0.000000, -0.000000, 0.003339, -0.064810, -0.000000}, {-0.000000, 0.000000, -0.000000, 0.000000, -0.822617, 0.000000, 0.011321, 0.013845, 0.159438, -0.158360, -0.044706, -0.072791, 0.010601, 0.451418, 0.135326, 0.000000, 0.108124, 0.000000, -0.736463, 0.396573, 0.000000, 0.022340, 0.165054, -1.160257, 0.000000, -0.588737, -0.000000, -0.101427, 0.000000, -0.000000, 0.519466, 0.477523, -0.494768, 0.000000, -0.189757, 0.000000, 0.000000, -0.207099, -0.302888, -0.000000}, {-0.000000, -0.000000, -0.000000, -0.000001, -1.427128, -0.000000, -0.119239, 0.012481, 0.549513, 0.305452, -0.056437, 0.344823, -0.859475, 0.232260, 0.036458, 0.000000, 0.011315, -0.000000, -0.480428, -0.598154, -0.000000, 0.230322, -0.994259, -0.501988, -0.000000, -0.394282, 0.000000, -0.055451, -0.000000, 0.000000, 0.027286, 0.407896, 0.109980, 0.000000, -0.149048, -0.000000, 0.000000, -0.133722, 0.448043, -0.000000}, {0.000000, 0.000000, -0.000000, 0.000000, 0.039759, -0.000000, -0.386014, -0.215917, 0.163203, -0.186271, -0.219910, -0.825748, 0.273837, -0.307674, 0.094998, 0.000000, 0.150576, 0.000000, -0.022172, -0.110763, -0.000000, -0.941469, -0.249807, -0.309572, 0.000000, 0.169548, 0.000000, 0.398950, -0.000000, -0.000000, 0.363698, 0.294423, -0.314017, -0.000000, 0.551800, 0.000000, -0.000000, -0.284920, -0.243370, -0.000000}, {-0.000000, -0.000000, 0.000000, -0.000000, -0.019307, -0.000000, -0.379023, 0.063663, -0.031133, 0.278119, 0.227062, -0.400572, 0.073299, -0.707429, -0.653844, -0.000000, 0.128470, 0.000000, 0.273187, 0.038243, 0.000000, -0.745035, -0.171129, 0.357467, -0.000000, -0.184408, -0.000000, 0.330852, 0.000000, -0.000000, 0.273282, -0.788267, 0.331721, -0.000000, -0.152197, -0.000000, 0.000000, -0.191439, 0.146665, -0.000000}, {-0.000000, -0.000000, -0.000000, -0.000000, -1.011009, -0.000000, 0.241307, 0.059992, 0.411461, -0.399842, -0.260244, -0.580370, 0.181014, 0.623076, 0.254367, -0.000000, 0.017404, -0.000000, 0.060570, -0.416775, 0.000000, 0.521556, -0.594695, -0.052978, 0.000000, -0.019248, 0.000000, 0.571173, -0.000000, 0.000000, -0.659430, 0.117013, 0.290632, 0.000000, 0.029242, -0.000000, -0.000000, 0.210825, -0.107905, 0.000000}, {-0.000000, -0.000000, -0.000000, -0.000000, -0.297432, 0.000000, -1.407856, -0.757919, 0.013988, 0.266699, 0.437766, 0.104553, -1.442371, -0.021914, -0.488974, -0.000000, 0.625390, -0.000000, -0.186488, -0.189182, -0.000000, -0.117849, -0.366948, -0.117947, 0.000000, -0.151766, 0.000000, -0.138615, 0.000000, -0.000000, 0.246128, 0.522930, 0.065131, 0.000000, -0.194628, -0.000000, 0.000000, -0.783220, -0.139289, 0.000000}, {0.000000, -0.000000, 0.000000, 0.000000, -0.059933, -0.000000, 0.056956, -0.144016, 0.302002, 0.712329, 0.334757, 0.147328, 0.112001, 0.164959, -0.219804, -0.000000, -0.005446, -0.000000, -0.243507, 0.326824, 0.000000, -0.077975, -0.606374, -0.571470, -0.000000, 0.012601, -0.000000, -0.148332, -0.000000, -0.000000, 0.528012, -0.862184, 0.414241, -0.000000, 0.282614, 0.000000, 0.000000, -0.369812, -0.018878, -0.000000}, {-0.000000, -0.000000, -0.000000, -0.000000, 0.179420, -0.000000, -0.283338, -0.021565, -0.972839, 0.072987, -0.055829, -0.054029, 0.084845, 0.188266, 0.270493, -0.000000, -0.151758, -0.000000, -0.737314, 0.122024, -0.000000, 0.106469, -0.223886, -0.368831, -0.000000, 0.258896, -0.000000, 0.124780, 0.000000, 0.000000, -0.147704, 0.321031, 0.187035, -0.000000, -0.169177, -0.000000, -0.000000, -0.955276, -0.779978, -0.000000}, {-0.000000, 0.000000, 0.000000, -0.000000, -0.160589, 0.000000, -0.304375, -0.493001, 0.002315, 0.418202, 0.301007, -0.592241, -0.306512, -0.682803, -0.247005, -0.000000, -0.110478, -0.000000, -0.031850, -1.011395, -0.000000, 0.357228, -0.495366, -0.684134, 0.000000, -0.927991, -0.000000, 0.316533, 0.000000, 0.000000, 0.431704, 0.097820, -0.629509, 0.000000, 0.155113, -0.000000, -0.000000, -0.839759, 0.260860, -0.000000}, {-0.000000, 0.000000, 0.000000, -0.000000, -0.367324, -0.000000, -0.446156, 0.098089, -0.176641, -0.057009, 0.208693, -0.023558, 0.178217, 0.144396, 0.119485, -0.000000, -0.092948, -0.000000, -1.195458, 0.100075, -0.000000, 0.530911, -0.494432, 0.134126, 0.000000, -0.135430, -0.000000, 0.374328, -0.000000, -0.000000, -0.824802, 0.075080, 0.358950, 0.000000, -0.200981, -0.000000, -0.000000, -1.191713, -1.231769, 0.000000}, {0.000000, 0.000000, -0.000000, -0.000000, -0.308720, -0.000000, -0.657508, 0.182219, -0.485013, -0.351360, 0.034812, -0.028000, -0.186500, 0.099582, -0.083544, -0.000000, -0.211574, -0.000000, -0.988477, 0.384336, -0.000000, -0.366865, 0.607293, 0.329690, -0.000000, 0.214986, 0.000000, -0.020349, 0.000000, 0.000000, 0.140897, 0.629119, -1.036209, -0.000000, 0.200659, 0.000000, -0.000000, -0.507938, -0.322980, 0.000000}, {-0.000000, 0.000000, 0.000000, -0.000000, -0.290320, -0.000000, -0.898059, 0.219696, -0.176303, -0.325639, 0.152940, 0.184393, -0.390676, 0.244053, -0.147661, 0.000000, 0.525815, 0.000000, 0.426218, -0.499452, -0.000000, -0.710404, 0.003331, 0.253866, -0.000000, 0.063480, -0.000000, 0.013112, -0.000000, -0.000000, 0.089537, 0.103561, 0.272006, -0.000000, 0.152466, -0.000000, -0.000000, -0.055167, -0.011343, -0.000000}, {-0.000000, -0.000000, 0.000000, 0.000000, 0.617938, 0.000000, 0.107638, -0.256851, 0.184592, -0.150396, 0.031214, -0.492924, -0.218757, 0.478747, -0.020870, -0.000000, -0.090649, 0.000000, 0.205747, 0.343516, 0.000000, 0.487335, -0.259754, -1.260315, 0.000000, 0.091067, -0.000000, 0.500388, -0.000000, -0.000000, 0.432893, -0.575449, -0.052481, 0.000000, 0.268726, 0.000000, -0.000000, -0.099505, -0.028186, 0.000000}, {0.000000, -0.000000, -0.000000, -0.000000, 0.000000, 0.000000, -0.000000, 0.000000, 0.000000, -0.000000, 0.000000, -0.000000, -0.000000, 0.000000, -0.000000, 0.000000, -0.000000, -0.000000, -0.000000, 0.000000, -0.000000, -0.000000, -0.000000, -0.000000, -0.000000, 0.000000, -0.000000, -0.000000, 0.000000, 0.000000, 0.000000, 0.000000, -0.000000, -0.000000, -0.000000, -0.000000, 0.000000, -0.000000, 0.000000, -0.000000}, {0.000000, -0.000000, -0.000000, -0.000000, -0.664812, -0.000000, -0.041583, 0.518611, -0.056923, 0.693879, 0.621215, -1.126827, 0.292689, 0.325542, -0.207926, -0.000000, -0.822392, 0.000000, -0.934315, 0.139093, -0.000000, -0.270502, 0.987646, 0.609875, -0.000000, -0.084669, 0.000000, -0.712530, 0.000000, -0.000000, 0.199962, 0.248227, -1.108715, -0.000000, -0.908732, -0.000000, 0.000000, 0.361301, -0.060779, -0.000000}, {-0.000000, 0.000000, -0.000000, -0.000000, -0.190030, 0.000000, 0.740513, -0.196937, 0.374905, -0.006864, -0.233815, 0.187588, 0.433818, 0.365961, -0.534886, 0.000000, 0.397326, -0.000000, 0.230436, -0.414583, -0.000000, 1.096251, -0.317886, -0.318992, 0.000000, 0.137450, -0.000000, -0.824921, -0.000000, -0.000000, 0.009578, -0.052175, -0.440396, 0.000000, -0.476389, -0.000000, -0.000000, 0.327375, 0.752333, -0.000000}, {-0.000000, -0.000000, 0.000000, -0.000000, -0.505341, -0.000000, -0.172733, -0.435386, -0.837582, 0.478015, -0.071438, 0.174665, 0.229902, -0.074585, 0.372561, -0.000000, 0.474670, -0.000000, 0.409559, 0.344973, 0.000000, -0.370737, -0.462224, -0.193919, 0.000000, -0.529400, 0.000000, 0.528348, 0.000000, -0.000000, -1.371055, 0.246896, 0.476252, -0.000000, -0.758540, 0.000000, 0.000000, -0.280134, 0.522787, 0.000000}, {0.000000, -0.000000, 0.000000, -0.000000, -0.463739, -0.000000, 0.520149, 0.591027, 0.017491, 0.166036, 0.293653, -0.205914, 0.251305, 0.536903, 0.164679, -0.000000, 0.025812, 0.000000, 0.342609, 0.201248, -0.000000, 0.623594, 0.345212, 0.144011, -0.000000, 0.771439, -0.000000, 0.092336, -0.000000, -0.000000, -1.581208, -0.859866, 0.190824, -0.000000, 0.093533, -0.000000, -0.000000, 0.433697, 0.068954, -0.000000}, {-0.000000, 0.000000, -0.000000, -0.000001, -0.568482, 0.000000, -0.126811, -0.954428, 0.252331, 0.299990, -1.831060, 0.335601, 0.822198, 0.271831, -0.505961, -0.000000, 0.603311, -0.000000, -0.797043, -0.476696, -0.000000, -0.119071, -1.573653, 0.133416, 0.000000, 0.254761, -0.000000, -0.571794, 0.000000, -0.000000, 0.133548, -0.500789, -0.280870, -0.000000, -0.944427, -0.000000, -0.000000, 0.143099, -0.103365, -0.000000}, {0.000000, -0.000000, 0.000000, -0.000000, -0.513243, 0.000000, 0.289054, -0.022867, -0.225836, -0.033467, -1.000006, -0.020018, 0.328684, 0.507953, 0.368960, 0.000000, 0.426615, -0.000000, -0.101861, -0.257162, -0.000000, 0.082162, -0.680543, -0.070171, -0.000000, 0.149527, -0.000000, -0.088443, -0.000000, -0.000000, 0.242368, 0.401189, 0.161970, 0.000000, 0.118692, -0.000000, -0.000000, 0.020998, -0.353802, 0.000000}, {0.000000, -0.000000, -0.000000, -0.000001, -0.170930, -0.000000, -0.028232, -0.820169, 0.175571, -0.880689, 0.583179, 0.334376, 0.153334, 0.537562, -1.276898, 0.000000, 0.893323, -0.000000, 0.376481, -0.152716, 0.000000, 0.076513, -0.043957, 0.104371, -0.000000, 0.654560, -0.000000, -0.417520, -0.000000, -0.000000, -0.337047, 0.129476, -0.524900, 0.000000, -0.758061, -0.000000, -0.000000, 0.018018, 0.123423, -0.000000}, {-0.000000, -0.000000, 0.000000, 0.000000, -0.994180, -0.000000, -0.039396, -0.375782, -0.034885, 0.389446, -0.135881, 0.268081, -0.144696, -0.137180, -0.923482, -0.000000, -0.283802, -0.000000, 0.265192, -0.500896, -0.000000, -0.315795, -0.454076, -0.952655, -0.000000, 0.159305, -0.000000, 0.576273, -0.000000, -0.000000, -0.255330, -0.129226, -0.257419, 0.000000, -0.012058, -0.000000, 0.000000, 0.510502, -0.041438, -0.000000}, {-0.000000, 0.000000, 0.000000, -0.000000, -0.041070, -0.000000, -0.188809, 0.121131, 0.501710, -0.110942, -0.708331, -0.711285, 0.476350, -0.518575, -0.197867, -0.000000, 0.139535, -0.000000, -0.456339, 0.430730, -0.000000, -0.094999, -0.035404, 0.127828, 0.000000, 0.068500, -0.000000, -0.185092, -0.000000, 0.000000, -0.196559, 0.072634, -1.022512, 0.000000, -0.401240, -0.000000, -0.000000, 0.155154, -0.372608, 0.000000}, {-0.000000, -0.000000, 0.000000, 0.000000, -0.193732, -0.000000, -0.080037, 0.350405, 0.063570, 0.446320, -0.316102, -0.046496, 0.230549, 0.219472, 0.155001, -0.000000, -0.040548, 0.000000, 0.109457, 0.342559, -0.000000, -0.116562, -1.475217, 0.364973, -0.000000, -0.110167, 0.000000, -0.816135, -0.000000, -0.000000, -0.879051, -0.117516, 0.095242, -0.000000, 0.200791, -0.000000, 0.000000, 0.366864, 0.446659, -0.000000}};
static const float * p_layer_1_weight = layer_1_weight;
static const float layer_1_bias[40] = {-0.138320, -0.150095, -0.065121, -0.159693, 0.193389, -0.100058, 0.164499, 0.105964, -0.032909, -0.114572, 0.001557, 0.167302, -0.200610, -0.175690, 0.075097, -0.157800, -0.109030, -0.113570, -0.038084, -0.015012, -0.185837, -0.108549, 0.161588, 0.090571, -0.215081, -0.142014, -0.048629, -0.142410, -0.166566, -0.167986, -0.081099, -0.173602, -0.025913, -0.133373, 0.144731, -0.138124, -0.180934, 0.062507, 0.126487, -0.140535};
static const float * p_layer_1_bias = layer_1_bias;
static const float layer_2_weight[40][40] = {{-0.000000, 0.000000, 0.000000, -0.000000, -0.000000, -0.000000, 0.000000, -0.000000, -0.000000, -0.000000, -0.000000, 0.000000, 0.000000, 0.000000, 0.000000, 0.000000, -0.000000, -0.000000, -0.000000, 0.000000, -0.000000, 0.000000, 0.000000, 0.000000, -0.000000, -0.000000, -0.000000, -0.000000, -0.000000, -0.000000, -0.000000, -0.000000, 0.000000, -0.000000, 0.000000, 0.000000, 0.000000, -0.000000, -0.000000, -0.000000}, {0.000000, -0.000000, -0.000000, -0.000000, 0.000000, -0.000000, 0.000000, 0.000000, -0.000000, -0.000000, 0.000000, -0.000000, -0.000000, -0.000000, 0.000000, -0.000000, 0.000000, 0.000000, -0.000000, 0.000000, 0.000000, -0.000000, -0.000000, 0.000000, 0.000000, -0.000000, -0.000000, 0.000000, -0.000000, -0.000000, 0.000000, -0.000000, 0.000000, -0.000000, -0.000000, 0.000000, 0.000000, 0.000000, -0.000000, -0.000000}, {0.000000, 0.000000, -0.000000, 0.000000, -0.000000, -0.000000, -0.000000, 0.000000, 0.000000, 0.000000, -0.000000, 0.000000, 0.000000, -0.000000, 0.000000, 0.000000, -0.000000, -0.000000, -0.000000, -0.000000, -0.000000, -0.000000, 0.000000, 0.000000, 0.000000, 0.000000, 0.000000, 0.000000, -0.000000, 0.000000, -0.000000, 0.000000, -0.000000, 0.000000, -0.000000, 0.000000, -0.000000, -0.000000, -0.000000, -0.000000}, {-0.000000, 0.000000, -0.000000, -0.000000, -0.000000, -0.000000, -0.000000, -0.000000, -0.000000, -0.000000, -0.000000, 0.000000, -0.000000, -0.000000, -0.000000, -0.000000, 0.000000, -0.000000, -0.000000, -0.000000, -0.000000, -0.000000, 0.000000, -0.000000, 0.000000, -0.000000, -0.000000, 0.000000, -0.000000, -0.000000, -0.000000, 0.000000, 0.000000, -0.000000, -0.000000, -0.000000, -0.000000, 0.000000, 0.000000, 0.000000}, {-0.151680, -0.000000, -0.000295, 0.218794, -0.000000, 0.262200, 0.157987, 0.000000, -0.000000, 0.158305, -0.188412, -0.000000, 0.000000, 0.029391, 0.001112, 0.052522, -0.000000, -1.055492, -0.334665, -0.000000, -0.427752, -0.000000, 0.000000, -0.347608, 0.000000, 0.597171, -0.000000, -0.000000, -0.605342, 0.069655, -0.000000, 0.000000, -0.000000, 0.000000, 0.054834, -0.000000, -0.000000, -0.000000, -0.054542, 0.388389}, {-0.000000, -0.000000, 0.000000, -0.000000, -0.000000, 0.000000, 0.000000, 0.000000, 0.000000, -0.000000, -0.000000, -0.000000, -0.000000, 0.000000, 0.000000, 0.000000, -0.000000, 0.000000, 0.000000, -0.000000, -0.000000, 0.000000, -0.000000, -0.000000, 0.000000, -0.000000, 0.000000, 0.000000, -0.000000, 0.000000, 0.000000, 0.000000, 0.000000, -0.000000, -0.000000, 0.000000, 0.000000, 0.000000, 0.000000, -0.000000}, {0.397043, 0.000000, -0.000363, -0.584959, -0.000000, -0.159287, -0.659799, 0.000000, -0.000000, -0.945282, 0.034846, -0.000000, -0.000000, -0.539350, 0.197156, -0.467492, 0.000000, 0.065663, 0.060499, 0.000000, -0.411221, 0.000000, -0.000000, -0.760477, -0.000000, 0.334076, -0.000000, 0.000000, 0.453703, 0.254439, -0.000000, -0.000000, 0.000000, -0.000000, -0.876143, -0.000000, -0.000000, -0.000000, -0.224108, 0.067966}, {0.438788, 0.000000, 0.000040, 0.031810, -0.000000, 0.077534, 0.095140, 0.000000, 0.000000, 0.357051, -0.744168, 0.000000, -0.000000, 0.270935, 0.261757, 0.281842, -0.000000, -0.041628, 0.101023, -0.000000, 0.037333, -0.000000, 0.000000, -0.472386, -0.000000, -0.070058, -0.000000, -0.000000, 0.337246, 0.496482, 0.000000, 0.000000, -0.000000, 0.000000, 0.558711, -0.000000, 0.000000, -0.000000, -0.642772, 0.313691}, {0.227310, -0.000000, -0.000221, 0.088982, -0.000000, -0.954114, 0.046967, -0.000000, 0.000000, -0.138734, -0.535529, 0.000000, -0.000000, -0.981632, -0.577978, 0.122131, -0.000000, 0.375011, 0.443951, 0.000000, 0.160469, -0.000000, 0.000000, -0.200251, 0.000000, 0.324677, -0.000000, -0.000000, -0.044665, -0.260942, 0.000000, -0.000000, -0.000000, 0.000000, 0.078261, 0.000000, -0.000000, -0.000000, 0.014035, 0.114533}, {-0.937114, -0.000000, 0.000187, -0.248792, -0.000000, -1.425706, 0.028485, 0.000000, -0.000000, -0.739921, -0.438438, -0.000000, -0.000000, -0.062079, 0.035276, -0.846223, -0.000000, 0.306947, 0.336622, 0.000000, 0.336862, -0.000000, -0.000000, 0.328209, 0.000000, -0.137811, 0.000000, -0.000000, -0.053313, -0.435560, -0.000000, 0.000000, -0.000000, -0.000000, 0.136917, -0.000000, -0.000000, 0.000000, 0.153610, -0.236078}, {-0.270941, -0.000000, -0.000798, -0.233121, -0.000000, 0.020108, -0.400297, -0.000000, -0.000000, 0.001449, -0.066858, -0.000000, -0.000000, -0.199226, -1.056971, -0.251362, 0.000000, -0.020506, 0.156384, -0.000000, -0.294306, -0.000000, -0.000000, 0.050733, -0.000000, -0.110192, 0.000000, -0.000000, 0.303606, -0.890662, -0.000000, -0.000000, -0.000000, -0.000000, -0.011984, -0.000000, -0.000000, -0.000000, -0.057880, -0.282538}, {0.141490, -0.000000, 0.000001, -0.225532, 0.000000, -0.439231, -0.118470, -0.000000, -0.000000, -0.197273, 0.289885, -0.000000, -0.000000, -0.633267, -0.882546, -0.048806, -0.000000, 0.260385, 0.151450, -0.000000, 0.418584, -0.000000, -0.000000, 0.247107, 0.000000, 0.306911, -0.000000, -0.000000, -0.814295, -0.932914, -0.000000, -0.000000, -0.000000, -0.000000, -0.041643, -0.000000, -0.000000, -0.000000, 0.557111, -0.476664}, {-0.311348, -0.000000, -0.000337, -0.765951, -0.000000, 0.068438, -0.408451, -0.000000, 0.000000, -0.484583, -0.075400, -0.000000, -0.000000, -0.259102, -0.520317, -0.557780, 0.000000, -0.172726, -0.032431, -0.000000, -0.504582, -0.000000, -0.000000, -0.139237, 0.000000, -0.202712, 0.000000, -0.000000, 0.347846, -0.701911, -0.000000, 0.000000, 0.000000, -0.000000, -0.418525, -0.000000, -0.000000, -0.000000, 0.317238, -0.104462}, {-0.161021, -0.000000, -0.000451, -0.412561, 0.000000, 0.238731, -0.349507, -0.000000, -0.000000, -0.322485, -0.940802, -0.000000, -0.000000, -0.049089, -0.260762, -0.485526, -0.000000, -0.619936, 0.577562, -0.000000, -0.002900, -0.000000, -0.000000, -0.370830, 0.000000, 0.208648, -0.000000, 0.000000, 0.075745, -0.657381, -0.000000, 0.000000, -0.000000, -0.000000, -0.165727, -0.000000, -0.000000, -0.000000, 0.195389, 0.222043}, {-0.079882, -0.000000, 0.000112, 0.533117, -0.000000, 0.223977, -0.017717, -0.000000, -0.000000, 0.024358, -0.496240, 0.000000, -0.000000, 0.163989, 0.268510, 0.137366, 0.000000, -0.850510, -0.021750, 0.000000, 0.231322, -0.000000, 0.000000, 0.604235, -0.000000, 0.254579, -0.000000, -0.000000, -0.189675, 0.098891, 0.000000, -0.000000, -0.000000, 0.000000, 0.104130, -0.000000, 0.000000, -0.000000, -0.148501, -0.863449}, {-0.000000, 0.000000, -0.000000, -0.000000, -0.000000, -0.000000, -0.000000, -0.000000, 0.000000, -0.000000, -0.000000, 0.000000, -0.000000, -0.000000, 0.000000, -0.000000, -0.000000, -0.000000, 0.000000, -0.000000, -0.000000, 0.000000, 0.000000, -0.000000, -0.000000, 0.000000, 0.000000, 0.000000, 0.000000, 0.000000, -0.000000, -0.000000, 0.000000, -0.000000, -0.000000, 0.000000, 0.000000, -0.000000, -0.000000, -0.000000}, {0.052731, -0.000000, -0.000897, -0.573797, -0.000000, 0.137045, -0.551555, 0.000000, 0.000000, -0.382837, 0.210308, 0.000000, -0.000000, -0.132152, -0.077055, -0.397122, -0.000000, -0.018419, 0.087416, -0.000000, -0.498270, -0.000000, -0.000000, -0.169701, -0.000000, 0.037604, 0.000000, -0.000000, 0.456595, -0.591089, -0.000000, -0.000000, -0.000000, -0.000000, -0.737508, -0.000000, 0.000000, -0.000000, 0.035018, -0.170943}, {-0.000000, 0.000000, 0.000000, 0.000000, -0.000000, 0.000000, -0.000000, 0.000000, -0.000000, 0.000000, -0.000000, 0.000000, -0.000000, -0.000000, -0.000000, 0.000000, -0.000000, -0.000000, 0.000000, -0.000000, -0.000000, -0.000000, 0.000000, -0.000000, 0.000000, -0.000000, 0.000000, -0.000000, -0.000000, 0.000000, 0.000000, -0.000000, -0.000000, 0.000000, 0.000000, 0.000000, -0.000000, -0.000000, -0.000000, -0.000000}, {-0.552716, 0.000000, -0.000321, -0.046091, -0.000000, -0.560718, -0.491800, -0.000000, -0.000000, -0.855252, -0.418191, 0.000000, -0.000000, -0.463173, -0.431060, -1.089554, -0.000000, -0.055329, -0.426147, 0.000000, 0.008206, 0.000000, 0.000000, 0.698163, 0.000000, -0.089276, 0.000000, -0.000000, -0.369576, -0.486077, -0.000000, 0.000000, 0.000000, -0.000000, -0.305944, 0.000000, 0.000000, -0.000000, 0.033360, 0.378089}, {-0.810561, -0.000000, 0.000252, -0.133453, 0.000000, 0.133368, 0.469053, 0.000000, -0.000000, 0.099294, -0.157024, -0.000000, -0.000000, 0.103019, 0.248404, -0.114861, 0.000000, -0.361760, 0.118144, -0.000000, -0.035560, -0.000000, -0.000000, 0.081980, -0.000000, -0.671116, 0.000000, 0.000000, -0.559873, 0.230707, 0.000000, 0.000000, -0.000000, -0.000000, 0.100274, 0.000000, 0.000000, -0.000000, -0.008569, 0.309880}, {0.000000, -0.000000, -0.000000, 0.000000, -0.000000, -0.000000, 0.000000, 0.000000, -0.000000, 0.000000, -0.000000, -0.000000, -0.000000, 0.000000, -0.000000, -0.000000, 0.000000, 0.000000, -0.000000, 0.000000, 0.000000, 0.000000, -0.000000, 0.000000, -0.000000, -0.000000, 0.000000, -0.000000, 0.000000, -0.000000, 0.000000, 0.000000, -0.000000, -0.000000, -0.000000, -0.000000, -0.000000, -0.000000, 0.000000, -0.000000}, {-0.204669, 0.000000, -0.000594, -0.200596, -0.000000, 0.368388, -0.765467, -0.000000, 0.000000, -0.747269, -0.398955, -0.000000, 0.000000, -0.401105, -0.328532, -0.836215, 0.000000, -0.726441, -1.247513, -0.000000, -0.029960, -0.000000, -0.000000, -1.071150, -0.000000, 0.059202, -0.000000, 0.000000, 0.308925, -0.505818, -0.000000, -0.000000, 0.000000, -0.000000, -0.401322, -0.000000, -0.000000, -0.000000, 0.099541, -0.575887}, {-0.081406, 0.000000, 0.000075, -0.238755, -0.000000, 0.022066, 0.152778, -0.000000, -0.000000, 0.189706, -0.378858, 0.000000, -0.000000, 0.233573, 0.250391, -0.176867, -0.000000, 0.591939, -0.432031, 0.000000, 0.037118, 0.000000, 0.000000, -0.675937, -0.000000, 0.870376, 0.000000, -0.000000, 0.419545, 0.226176, 0.000000, -0.000000, 0.000000, 0.000000, -0.022998, -0.000000, -0.000000, 0.000000, -0.621045, 0.403485}, {0.552375, -0.000000, -0.000300, -0.452240, -0.000000, 0.290596, 0.185141, -0.000000, -0.000000, 0.713059, -0.009161, 0.000000, 0.000000, -0.228245, -0.476965, 0.275342, -0.000000, -0.147178, -0.753979, -0.000000, 0.255767, -0.000000, 0.000000, 0.107485, 0.000000, -0.488533, -0.000000, -0.000000, 0.343526, -0.084318, 0.000000, 0.000000, 0.000000, 0.000000, 0.520170, -0.000000, -0.000000, -0.000000, -0.360445, -0.199044}, {0.000000, 0.000000, -0.000000, -0.000000, 0.000000, 0.000000, -0.000000, -0.000000, -0.000000, -0.000000, -0.000000, 0.000000, -0.000000, 0.000000, 0.000000, 0.000000, -0.000000, 0.000000, 0.000000, -0.000000, -0.000000, -0.000000, 0.000000, 0.000000, -0.000000, 0.000000, 0.000000, -0.000000, -0.000000, -0.000000, -0.000000, -0.000000, 0.000000, -0.000000, 0.000000, 0.000000, -0.000000, -0.000000, -0.000000, -0.000000}, {-0.004728, 0.000000, -0.000288, -0.441056, -0.000000, 0.361281, 0.137259, 0.000000, -0.000000, -0.825831, -0.165721, -0.000000, -0.000000, -0.666376, 0.087476, -0.381386, 0.000000, -0.908820, 0.063285, -0.000000, -0.918913, -0.000000, -0.000000, -0.044074, 0.000000, -1.649446, -0.000000, 0.000000, -0.038059, 0.105507, -0.000000, -0.000000, -0.000000, -0.000000, -0.784156, 0.000000, -0.000000, -0.000000, -0.298460, 0.108001}, {-0.000000, -0.000000, -0.000000, 0.000000, -0.000000, -0.000000, 0.000000, -0.000000, -0.000000, -0.000000, 0.000000, -0.000000, -0.000000, 0.000000, -0.000000, -0.000000, 0.000000, -0.000000, 0.000000, -0.000000, -0.000000, -0.000000, 0.000000, -0.000000, 0.000000, 0.000000, -0.000000, -0.000000, 0.000000, -0.000000, -0.000000, -0.000000, -0.000000, 0.000000, 0.000000, -0.000000, 0.000000, 0.000000, -0.000000, -0.000000}, {-0.107573, -0.000000, -0.000259, -0.139042, -0.000000, 0.914533, 0.484458, -0.000000, -0.000000, 0.179044, -0.718524, -0.000000, 0.000000, 0.203393, -0.379179, 0.194398, -0.000000, -0.642289, -0.411984, -0.000000, 0.558247, -0.000000, 0.000000, 0.483410, -0.000000, 0.196574, -0.000000, -0.000000, -0.509276, 0.376247, -0.000000, -0.000000, -0.000000, 0.000000, 0.195738, 0.000000, 0.000000, -0.000000, 0.419712, -0.211946}, {0.000000, -0.000000, 0.000000, 0.000000, 0.000000, -0.000000, -0.000000, 0.000000, -0.000000, 0.000000, -0.000000, -0.000000, -0.000000, 0.000000, -0.000000, -0.000000, -0.000000, 0.000000, 0.000000, -0.000000, -0.000000, 0.000000, 0.000000, 0.000000, -0.000000, -0.000000, 0.000000, 0.000000, -0.000000, 0.000000, -0.000000, 0.000000, 0.000000, -0.000000, -0.000000, 0.000000, -0.000000, 0.000000, -0.000000, 0.000000}, {0.000000, 0.000000, 0.000000, 0.000000, 0.000000, -0.000000, -0.000000, -0.000000, -0.000000, -0.000000, 0.000000, 0.000000, -0.000000, 0.000000, 0.000000, 0.000000, -0.000000, -0.000000, -0.000000, 0.000000, -0.000000, -0.000000, -0.000000, -0.000000, -0.000000, 0.000000, -0.000000, -0.000000, -0.000000, -0.000000, 0.000000, -0.000000, -0.000000, 0.000000, 0.000000, 0.000000, 0.000000, -0.000000, -0.000000, -0.000000}, {0.813209, 0.000000, 0.000167, 0.525379, 0.000000, -0.170975, -0.687921, -0.000000, -0.000000, 0.022172, -0.094193, -0.000000, 0.000000, 0.767491, 0.580741, -0.032021, -0.000000, -0.367644, 0.279446, 0.000000, 0.188757, -0.000000, -0.000000, -0.109709, -0.000000, -0.508209, -0.000000, 0.000000, -0.450530, -0.628064, 0.000000, 0.000000, -0.000000, -0.000000, 0.495142, -0.000000, 0.000000, -0.000000, 0.719774, 0.597858}, {0.260911, -0.000000, -0.000131, 0.219266, -0.000000, 0.050437, 0.039723, -0.000000, 0.000000, 0.086460, 0.688322, -0.000000, 0.000000, 0.559700, 0.310443, -0.747002, 0.000000, -0.198155, 0.347926, -0.000000, 0.428965, -0.000000, 0.000000, -1.434829, 0.000000, -0.391359, -0.000000, 0.000000, 0.029994, -0.356464, 0.000000, -0.000000, -0.000000, 0.000000, 0.442561, -0.000000, 0.000000, -0.000000, 0.263699, -0.478580}, {-0.994082, 0.000000, 0.000083, 0.119667, -0.000000, 0.047027, 0.333534, -0.000000, 0.000000, 0.149784, -0.670571, -0.000000, -0.000000, 0.132300, -0.029293, 0.337480, 0.000000, 0.358454, -0.421807, 0.000000, -0.190679, -0.000000, 0.000000, 0.322351, -0.000000, 0.181089, -0.000000, -0.000000, 0.309302, -0.204832, -0.000000, -0.000000, -0.000000, 0.000000, 0.384378, 0.000000, -0.000000, -0.000000, -1.069538, -0.272849}, {-0.000000, -0.000000, -0.000000, -0.000000, -0.000000, 0.000000, -0.000000, -0.000000, 0.000000, -0.000000, -0.000000, -0.000000, -0.000000, -0.000000, 0.000000, -0.000000, 0.000000, 0.000000, 0.000000, 0.000000, -0.000000, -0.000000, -0.000000, 0.000000, -0.000000, -0.000000, -0.000000, 0.000000, 0.000000, 0.000000, -0.000000, -0.000000, -0.000000, -0.000000, 0.000000, 0.000000, 0.000000, 0.000000, -0.000000, 0.000000}, {-0.138648, 0.000000, 0.000228, 0.562049, -0.000000, -0.224593, 0.429860, -0.000000, -0.000000, 0.277787, 0.279192, 0.000000, -0.000000, 0.371443, 0.269264, 0.367611, -0.000000, -0.401625, -0.147980, 0.000000, 0.505246, -0.000000, 0.000000, 0.220353, -0.000000, -0.232123, 0.000000, 0.000000, 0.850986, 0.033081, 0.000000, -0.000000, -0.000000, 0.000000, 0.292111, -0.000000, -0.000000, 0.000000, -0.128937, 0.672943}, {-0.000000, -0.000000, 0.000000, -0.000000, -0.000000, -0.000000, 0.000000, 0.000000, 0.000000, -0.000000, 0.000000, 0.000000, 0.000000, 0.000000, 0.000000, -0.000000, 0.000000, -0.000000, -0.000000, 0.000000, 0.000000, -0.000000, -0.000000, -0.000000, -0.000000, -0.000000, -0.000000, -0.000000, -0.000000, -0.000000, -0.000000, -0.000000, 0.000000, -0.000000, 0.000000, 0.000000, -0.000000, 0.000000, 0.000000, 0.000000}, {-0.000000, -0.000000, -0.000000, 0.000000, -0.000000, -0.000000, 0.000000, 0.000000, -0.000000, 0.000000, -0.000000, 0.000000, -0.000000, 0.000000, -0.000000, -0.000000, 0.000000, -0.000000, -0.000000, 0.000000, -0.000000, 0.000000, 0.000000, -0.000000, -0.000000, 0.000000, 0.000000, -0.000000, -0.000000, -0.000000, -0.000000, -0.000000, 0.000000, 0.000000, -0.000000, -0.000000, -0.000000, 0.000000, 0.000000, -0.000000}, {0.306845, -0.000000, -0.000503, -0.045131, -0.000000, -0.190730, -0.940732, 0.000000, -0.000000, -0.637366, -0.789783, -0.000000, -0.000000, -0.031306, 0.159890, 0.530323, 0.000000, -0.463501, -0.238445, -0.000000, -0.392667, -0.000000, -0.000000, 0.127682, 0.000000, 0.002879, -0.000000, 0.000000, 0.201168, 0.283739, -0.000000, -0.000000, -0.000000, -0.000000, -0.451272, -0.000000, -0.000000, -0.000000, -1.065694, 0.467604}, {0.007820, -0.000000, -0.000234, -0.023055, -0.000000, -1.209660, 0.451111, -0.000000, 0.000000, 0.095956, -0.360620, -0.000000, -0.000000, -0.876351, -0.669224, 0.055767, -0.000000, 0.313322, -0.264471, 0.000000, 0.317375, 0.000000, -0.000000, 0.159982, 0.000000, 0.226912, 0.000000, 0.000000, 0.174390, -0.622217, -0.000000, -0.000000, -0.000000, 0.000000, -0.041290, 0.000000, -0.000000, 0.000000, -0.276656, 0.025625}, {-0.000000, -0.000000, -0.000000, 0.000000, 0.000000, 0.000000, -0.000000, 0.000000, -0.000000, 0.000000, -0.000000, 0.000000, -0.000000, 0.000000, -0.000000, 0.000000, 0.000000, 0.000000, -0.000000, -0.000000, 0.000000, -0.000000, 0.000000, 0.000000, -0.000000, 0.000000, -0.000000, -0.000000, 0.000000, -0.000000, -0.000000, -0.000000, 0.000000, -0.000000, -0.000000, 0.000000, -0.000000, -0.000000, -0.000000, -0.000000}};
static const float * p_layer_2_weight = layer_2_weight;
static const float layer_2_bias[40] = {-0.031713, -0.206018, -0.095642, 0.313508, -0.004788, -0.348160, -0.009646, -0.071641, -0.116809, 0.108421, 0.196501, -0.122866, -0.170541, 0.021444, 0.099182, 0.171108, -0.053137, 0.229144, -0.093565, -0.205772, -0.009426, -0.183882, -0.145346, -0.117415, -0.193647, -0.090582, -0.050901, -0.128096, -0.198388, 0.115279, -0.050293, -0.141263, -0.111851, -0.064724, 0.020870, -0.043419, -0.196373, -0.037374, 0.006418, -0.107879};
static const float * p_layer_2_bias = layer_2_bias;
static const float layer_3_weight[40][40] = {{-0.144521, 0.519970, -0.184061, -0.162520, -0.162448, -0.249912, 0.337230, -0.148791, 0.336754, -0.373101, 0.022479, -0.005613, -0.173981, 0.243544, 0.400014, 0.327881, 0.073268, 0.293344, 0.343581, -0.008385, 0.174842, -0.179136, -0.335053, -0.329203, 0.131709, -0.143122, 0.305679, -0.273824, 0.050304, 0.545494, -0.061711, -0.063121, -0.036200, -0.384296, -0.223081, 0.375862, -0.517695, 0.145820, 0.461896, -0.117231}, {-0.000000, 0.000000, 0.000000, -0.000000, -0.000000, 0.000000, 0.000000, 0.000000, 0.000000, 0.000000, 0.000000, -0.000000, -0.000000, 0.000000, 0.000000, 0.000000, 0.000000, 0.000000, 0.000000, 0.000000, 0.000000, 0.000000, -0.000000, -0.000000, 0.000000, 0.000000, 0.000000, -0.000000, -0.000000, 0.000000, -0.000000, -0.000000, 0.000000, 0.000000, 0.000000, -0.000000, -0.000000, -0.000000, 0.000000, 0.000000}, {0.000004, -0.000036, 0.000013, -0.000032, -0.000033, 0.000010, 0.000014, -0.000031, 0.000014, 0.000011, 0.000010, 0.000014, -0.000008, 0.000003, 0.000013, 0.000013, 0.000015, 0.000013, 0.000014, 0.000001, 0.000067, -0.000011, -0.000014, 0.000004, -0.000021, -0.000029, 0.000012, -0.000008, 0.000002, -0.000033, -0.000002, -0.000002, 0.000027, 0.000010, 0.000041, -0.000011, 0.000026, -0.000009, -0.000033, -0.000003}, {-0.036692, -0.097686, -0.016020, -0.004344, -0.013873, 0.004771, 0.326244, -0.005372, 0.325964, -0.017335, 0.038736, -0.001169, 0.209385, 0.013175, -0.001505, 0.337081, 0.026700, 0.452324, 0.283675, 0.024980, 0.008070, -0.022048, -0.332792, 0.049356, -0.012906, -0.030141, 0.421420, 0.151099, 0.034604, -0.109093, 0.009232, -0.003333, -0.038972, -0.025398, -0.000385, 0.019082, 0.038080, 0.020362, -0.131684, 0.003955}, {-0.000000, -0.000000, 0.000000, 0.000000, -0.000000, 0.000000, -0.000000, 0.000000, -0.000000, -0.000000, -0.000000, 0.000000, -0.000000, -0.000000, 0.000000, 0.000000, -0.000000, 0.000000, -0.000000, 0.000000, -0.000000, 0.000000, -0.000000, -0.000000, 0.000000, -0.000000, -0.000000, 0.000000, -0.000000, 0.000000, 0.000000, -0.000000, -0.000000, -0.000000, 0.000000, -0.000000, -0.000000, -0.000000, -0.000000, 0.000000}, {-0.042388, -0.025692, -0.034583, -0.034628, -0.054218, -0.047698, 0.211691, -0.012520, 0.210497, 0.295121, 0.015985, -0.000094, 0.136999, 0.055085, -0.694099, 0.227903, 0.031036, 0.439254, 0.050217, 0.015189, 0.048229, -0.051997, -0.229972, 0.266478, 0.007175, -0.045090, 0.399634, 0.756938, 0.309911, -0.041816, -0.002518, -0.024002, -0.017672, 0.282976, -0.032948, -0.292287, 0.029664, 0.037673, -0.047819, -0.028696}, {0.073678, -0.171300, 0.004276, -0.000428, 0.096676, 0.048260, 0.412685, 0.031348, 0.412821, -0.296730, 0.025380, -0.004807, -0.081868, -0.019036, 0.101061, 0.419265, -0.031432, 0.556534, 0.362003, 0.015924, -0.058294, 0.072323, -0.420496, -0.073413, -0.037677, 0.087994, 0.534637, -0.020552, -0.086562, -0.175622, 0.026633, -0.001404, -0.033706, -0.298862, 0.038624, 0.297087, 0.139260, -0.021944, -0.187632, 0.012884}, {-0.000000, -0.000000, -0.000000, 0.000000, 0.000000, -0.000000, 0.000000, 0.000000, -0.000000, 0.000000, -0.000000, -0.000000, -0.000000, 0.000000, -0.000000, -0.000000, -0.000000, -0.000000, 0.000000, 0.000000, 0.000000, 0.000000, 0.000000, 0.000000, -0.000000, -0.000000, -0.000000, -0.000000, 0.000000, 0.000000, 0.000000, -0.000000, 0.000000, 0.000000, -0.000000, 0.000000, -0.000000, 0.000000, 0.000000, 0.000000}, {0.000000, 0.000000, 0.000000, 0.000000, 0.000000, -0.000000, 0.000000, 0.000000, 0.000000, 0.000000, 0.000000, 0.000000, 0.000000, -0.000000, -0.000000, 0.000000, 0.000000, -0.000000, 0.000000, 0.000000, -0.000000, 0.000000, 0.000000, -0.000000, 0.000000, -0.000000, 0.000000, -0.000000, 0.000000, 0.000000, 0.000000, 0.000000, -0.000000, -0.000000, 0.000000, 0.000000, -0.000000, -0.000000, 0.000000, 0.000000}, {0.021034, 0.036349, 0.056501, 0.033127, 0.026263, 0.057304, 0.354378, 0.056643, 0.354274, -0.313286, 0.055537, 0.036632, -0.168899, -0.081800, 0.187742, 0.353013, 0.023446, 0.388500, 0.324921, 0.076435, -0.067900, 0.053476, -0.358015, -0.093626, 0.004303, 0.038247, 0.394574, -0.209109, -0.103821, 0.042413, -0.013766, 0.021861, -0.022945, -0.313694, 0.052850, 0.313287, -0.031694, -0.024151, 0.050852, -0.017050}, {0.042069, -0.173132, 0.024187, -0.005142, 0.012422, 0.003139, 0.218778, -0.015471, 0.218584, 0.475187, -0.036258, 0.010077, 1.023261, 0.001086, 0.099555, 0.239538, -0.038787, 0.272990, 0.237178, -0.012656, -0.013708, 0.026596, -0.218094, 0.315812, 0.004466, 0.043880, 0.235386, 0.295167, -0.160577, -0.199948, -0.000485, 0.019074, 0.031699, 0.451976, 0.010819, -0.469788, 0.111209, -0.011823, -0.084767, 0.014599}, {-0.000000, 0.000000, -0.000000, -0.000000, -0.000000, 0.000000, 0.000000, -0.000000, 0.000000, -0.000000, -0.000000, 0.000000, -0.000000, 0.000000, 0.000000, 0.000000, 0.000000, 0.000000, 0.000000, -0.000000, -0.000000, -0.000000, -0.000000, -0.000000, -0.000000, 0.000000, -0.000000, -0.000000, -0.000000, 0.000000, 0.000000, -0.000000, -0.000000, -0.000000, -0.000000, 0.000000, 0.000000, 0.000000, -0.000000, 0.000000}, {0.000000, -0.000000, 0.000000, -0.000000, -0.000000, 0.000000, 0.000000, 0.000000, 0.000000, 0.000000, 0.000000, 0.000000, -0.000000, 0.000000, 0.000000, 0.000000, -0.000000, -0.000000, 0.000000, -0.000000, -0.000000, -0.000000, 0.000000, -0.000000, 0.000000, -0.000000, 0.000000, 0.000000, -0.000000, 0.000000, 0.000000, -0.000000, -0.000000, -0.000000, 0.000000, 0.000000, -0.000000, -0.000000, -0.000000, 0.000000}, {0.059660, 0.339448, 0.011361, -0.001462, 0.028825, 0.067982, 0.199857, -0.038975, 0.198803, -0.331467, -0.017110, -0.084971, -0.242298, -0.007741, 0.086154, 0.180668, -0.078705, 0.170618, 0.162047, 0.003415, -0.043066, 0.062394, -0.202700, 0.103445, -0.015230, 0.059091, 0.207178, -0.207109, 0.180820, 0.357892, 0.076036, 0.045689, -0.013685, -0.329752, 0.077603, 0.331061, -0.223567, 0.039525, 0.419250, 0.068920}, {-0.003028, -0.417589, -0.068234, -0.070396, -0.004863, -0.059711, 0.384973, 0.000797, 0.385227, -0.351435, 0.041236, 0.001740, -0.114342, 0.019234, 0.125607, 0.391394, 0.007965, 0.514298, 0.330513, 0.036314, 0.109416, -0.005548, -0.393059, -0.002732, 0.130698, -0.021167, 0.499187, -0.116324, -0.226004, -0.425516, -0.034060, 0.036187, -0.012432, -0.349074, -0.054529, 0.350743, 0.344817, -0.023519, -0.402607, -0.036352}, {-0.016796, -0.048731, 0.013889, 0.015803, 0.002414, 0.006804, 0.405441, 0.070383, 0.405329, -0.115997, -0.014572, 0.050503, 0.064415, -0.011336, 0.097310, 0.415556, 0.046126, 0.513559, 0.371207, -0.005920, 0.020178, -0.007094, -0.410916, 0.034411, -0.027864, -0.017518, 0.486615, 0.036566, 0.146667, -0.058040, -0.049760, -0.045402, 0.010935, -0.123535, -0.007497, 0.117621, 0.029614, -0.005205, -0.086580, -0.054022}, {0.000000, -0.000000, -0.000000, -0.000000, -0.000000, 0.000000, -0.000000, 0.000000, 0.000000, -0.000000, -0.000000, 0.000000, -0.000000, -0.000000, -0.000000, -0.000000, 0.000000, -0.000000, -0.000000, 0.000000, -0.000000, -0.000000, -0.000000, -0.000000, 0.000000, 0.000000, 0.000000, 0.000000, 0.000000, -0.000000, 0.000000, -0.000000, 0.000000, 0.000000, -0.000000, -0.000000, 0.000000, -0.000000, -0.000000, -0.000000}, {-0.044481, -0.056688, -0.043369, -0.063048, -0.053289, -0.029009, -0.368543, -0.029764, -0.368564, -0.037236, 0.027998, -0.012383, -0.042248, 0.044514, -0.151322, -0.367577, 0.030019, -0.406186, -0.341117, 0.004905, 0.062760, -0.031437, 0.372096, 0.160522, 0.034700, -0.044170, -0.405559, -0.028773, 0.128440, -0.075130, 0.016122, 0.000930, -0.032507, -0.007556, -0.023960, 0.030486, 0.066977, 0.052480, -0.014308, -0.027514}, {-0.031091, -0.320654, -0.113082, -0.113921, -0.048685, -0.001455, 0.243064, -0.098650, 0.245922, 0.097289, 0.074420, -0.061609, 0.539092, 0.107309, -0.124646, 0.301128, -0.010479, 0.503517, 0.212976, 0.040210, 0.093976, 0.006927, -0.253354, 0.131120, 0.099987, -0.028851, 0.447583, 0.372898, -0.342935, -0.345380, 0.046849, 0.059439, -0.098392, 0.094563, -0.013050, -0.096797, 0.117224, 0.115029, -0.335132, 0.003673}, {-0.000000, 0.000000, 0.000000, 0.000000, -0.000000, -0.000000, 0.000000, 0.000000, -0.000000, 0.000000, 0.000000, -0.000000, -0.000000, 0.000000, -0.000000, 0.000000, -0.000000, 0.000000, 0.000000, -0.000000, 0.000000, -0.000000, -0.000000, -0.000000, 0.000000, -0.000000, 0.000000, 0.000000, 0.000000, 0.000000, -0.000000, -0.000000, 0.000000, 0.000000, 0.000000, -0.000000, -0.000000, -0.000000, 0.000000, -0.000000}, {-0.147526, -0.058230, -0.078972, -0.091708, -0.130464, -0.119423, 0.297911, 0.063182, 0.297121, -0.104127, 0.040582, 0.046628, 0.080728, 0.073588, -0.075710, 0.299519, 0.128162, 0.439469, 0.234172, 0.001375, 0.141624, -0.141058, -0.306211, -0.005203, 0.010699, -0.152705, 0.410470, 0.180355, -0.012735, -0.061086, -0.074886, -0.106808, -0.031143, -0.111129, -0.110804, 0.105714, 0.068974, 0.067084, -0.083510, -0.134514}, {-0.000000, 0.000000, 0.000000, 0.000000, -0.000000, 0.000000, -0.000000, 0.000000, -0.000000, 0.000000, -0.000000, -0.000000, 0.000000, 0.000000, 0.000000, 0.000000, 0.000000, -0.000000, -0.000000, 0.000000, -0.000000, -0.000000, 0.000000, 0.000000, 0.000000, -0.000000, 0.000000, 0.000000, -0.000000, 0.000000, -0.000000, -0.000000, -0.000000, 0.000000, 0.000000, -0.000000, -0.000000, -0.000000, 0.000000, 0.000000}, {0.000000, 0.000000, -0.000000, -0.000000, -0.000000, 0.000000, 0.000000, -0.000000, 0.000000, -0.000000, -0.000000, 0.000000, -0.000000, 0.000000, -0.000000, 0.000000, 0.000000, 0.000000, 0.000000, 0.000000, -0.000000, -0.000000, -0.000000, -0.000000, -0.000000, -0.000000, -0.000000, -0.000000, -0.000000, 0.000000, 0.000000, -0.000000, 0.000000, -0.000000, 0.000000, 0.000000, -0.000000, 0.000000, -0.000000, 0.000000}, {-0.113033, 0.758594, 0.098286, 0.082490, -0.103753, -0.069195, 0.209527, 0.031316, 0.205808, 0.212090, -0.028296, 0.025568, 0.593623, -0.026892, -0.418034, 0.184959, 0.108949, 0.293516, 0.129665, -0.030665, -0.054908, -0.148069, -0.216154, 0.455250, -0.100721, -0.123655, 0.275552, 0.617449, 0.443861, 0.776893, -0.046910, -0.095242, 0.032069, 0.178342, -0.053374, -0.203916, -0.570805, 0.009476, 0.881831, -0.082709}, {0.000000, 0.000000, 0.000000, 0.000000, 0.000000, 0.000000, -0.000000, 0.000000, -0.000000, 0.000000, -0.000000, -0.000000, 0.000000, 0.000000, -0.000000, -0.000000, 0.000000, -0.000000, 0.000000, 0.000000, -0.000000, -0.000000, -0.000000, 0.000000, -0.000000, 0.000000, 0.000000, -0.000000, 0.000000, -0.000000, -0.000000, -0.000000, 0.000000, 0.000000, 0.000000, 0.000000, 0.000000, -0.000000, -0.000000, 0.000000}, {0.098502, -0.364136, 0.131713, 0.097589, 0.090223, 0.018775, -0.543915, 0.010221, -0.543413, 0.341567, -0.095322, -0.033633, 0.008379, -0.120115, -0.635177, -0.523072, -0.076638, -0.410762, -0.555979, 0.002889, -0.098110, 0.047116, 0.539532, 0.014423, 0.007998, 0.094143, -0.449086, 0.482026, -0.245026, -0.398017, 0.009755, 0.044458, 0.090428, 0.380172, 0.031230, -0.350594, 0.148540, -0.123122, -0.454077, 0.066758}, {-0.000000, 0.000000, -0.000000, 0.000000, -0.000000, -0.000000, 0.000000, -0.000000, 0.000000, -0.000000, -0.000000, 0.000000, 0.000000, 0.000000, -0.000000, 0.000000, 0.000000, 0.000000, -0.000000, 0.000000, -0.000000, 0.000000, -0.000000, -0.000000, -0.000000, 0.000000, 0.000000, 0.000000, 0.000000, 0.000000, -0.000000, 0.000000, -0.000000, 0.000000, 0.000000, -0.000000, -0.000000, -0.000000, -0.000000, -0.000000}, {-0.000000, -0.000000, 0.000000, 0.000000, 0.000000, 0.000000, -0.000000, 0.000000, 0.000000, 0.000000, -0.000000, -0.000000, 0.000000, -0.000000, 0.000000, 0.000000, 0.000000, 0.000000, 0.000000, 0.000000, 0.000000, -0.000000, 0.000000, -0.000000, -0.000000, 0.000000, -0.000000, -0.000000, -0.000000, -0.000000, 0.000000, 0.000000, -0.000000, -0.000000, -0.000000, -0.000000, -0.000000, -0.000000, 0.000000, -0.000000}, {-0.046588, -0.117783, -0.017113, -0.039628, -0.044650, -0.042662, -0.056819, 0.011571, -0.055481, 0.891870, 0.026882, 0.050129, 0.156699, 0.021546, 0.215911, -0.031097, 0.052823, -0.063627, 0.023900, -0.022190, 0.041101, -0.042942, 0.063248, 0.046815, -0.009653, -0.043062, -0.086880, -0.115989, -0.092953, -0.136250, -0.049960, -0.048652, -0.027963, 0.858563, -0.046523, -0.883720, 0.053884, 0.037298, -0.165232, -0.054591}, {0.017361, -0.180099, 0.014922, -0.014750, -0.051809, 0.072939, 0.550759, -0.018438, 0.550955, -0.504398, 0.030868, -0.016906, -0.233312, -0.018300, 0.386660, 0.555124, -0.023211, 0.640312, 0.517655, -0.009815, 0.004239, 0.053847, -0.555977, -0.082436, -0.013683, 0.013941, 0.630739, -0.380056, -0.267513, -0.186021, 0.066036, 0.075832, -0.008159, -0.503284, 0.049585, 0.504021, 0.109416, 0.022927, -0.134203, 0.071520}, {0.000000, -0.000000, 0.000000, 0.000000, 0.000000, -0.000000, -0.000000, -0.000000, -0.000000, -0.000000, -0.000000, -0.000000, 0.000000, -0.000000, 0.000000, -0.000000, 0.000000, 0.000000, -0.000000, -0.000000, -0.000000, 0.000000, 0.000000, 0.000000, -0.000000, -0.000000, -0.000000, 0.000000, 0.000000, -0.000000, -0.000000, 0.000000, -0.000000, -0.000000, -0.000000, 0.000000, 0.000000, -0.000000, -0.000000, -0.000000}, {0.000000, 0.000000, -0.000000, 0.000000, -0.000000, -0.000000, -0.000000, -0.000000, 0.000000, -0.000000, -0.000000, 0.000000, 0.000000, -0.000000, -0.000000, -0.000000, 0.000000, -0.000000, 0.000000, -0.000000, -0.000000, -0.000000, 0.000000, 0.000000, 0.000000, -0.000000, 0.000000, -0.000000, 0.000000, -0.000000, -0.000000, -0.000000, 0.000000, 0.000000, 0.000000, -0.000000, 0.000000, 0.000000, 0.000000, 0.000000}, {0.000000, 0.000000, 0.000000, 0.000000, 0.000000, -0.000000, -0.000000, -0.000000, 0.000000, 0.000000, -0.000000, -0.000000, 0.000000, -0.000000, 0.000000, -0.000000, -0.000000, 0.000000, 0.000000, 0.000000, 0.000000, -0.000000, 0.000000, -0.000000, -0.000000, -0.000000, 0.000000, 0.000000, 0.000000, 0.000000, -0.000000, -0.000000, -0.000000, 0.000000, 0.000000, -0.000000, 0.000000, 0.000000, 0.000000, -0.000000}, {0.000000, 0.000000, 0.000000, 0.000000, -0.000000, 0.000000, -0.000000, 0.000000, -0.000000, -0.000000, -0.000000, 0.000000, -0.000000, 0.000000, 0.000000, 0.000000, -0.000000, 0.000000, 0.000000, 0.000000, -0.000000, 0.000000, -0.000000, -0.000000, 0.000000, -0.000000, -0.000000, -0.000000, 0.000000, -0.000000, -0.000000, 0.000000, 0.000000, -0.000000, -0.000000, 0.000000, 0.000000, 0.000000, 0.000000, -0.000000}, {-0.080181, 0.258095, -0.068390, -0.044897, -0.080294, -0.155454, 0.283434, -0.120341, 0.282540, -0.279487, -0.002435, 0.018782, -0.154290, 0.103635, 0.085087, 0.274746, 0.054109, 0.354831, 0.239268, -0.070008, 0.053759, -0.126350, -0.288672, 0.023929, 0.037312, -0.092039, 0.355224, -0.119268, 0.167981, 0.272265, -0.035989, -0.067064, -0.003248, -0.280918, -0.145010, 0.279769, -0.173318, 0.038027, 0.290651, -0.059145}, {-0.000000, 0.000000, -0.000000, 0.000000, -0.000000, 0.000000, -0.000000, 0.000000, 0.000000, -0.000000, -0.000000, -0.000000, 0.000000, 0.000000, -0.000000, -0.000000, 0.000000, -0.000000, 0.000000, -0.000000, 0.000000, -0.000000, 0.000000, 0.000000, 0.000000, -0.000000, -0.000000, 0.000000, -0.000000, 0.000000, 0.000000, 0.000000, 0.000000, -0.000000, -0.000000, 0.000000, -0.000000, -0.000000, 0.000000, 0.000000}, {-0.000000, 0.000000, 0.000000, -0.000000, -0.000000, 0.000000, 0.000000, -0.000000, 0.000000, -0.000000, -0.000000, -0.000000, -0.000000, 0.000000, 0.000000, 0.000000, 0.000000, -0.000000, 0.000000, -0.000000, -0.000000, 0.000000, -0.000000, -0.000000, -0.000000, -0.000000, -0.000000, -0.000000, -0.000000, 0.000000, -0.000000, -0.000000, 0.000000, -0.000000, 0.000000, 0.000000, -0.000000, -0.000000, 0.000000, 0.000000}, {-0.000000, 0.000000, 0.000000, 0.000000, 0.000000, -0.000000, -0.000000, -0.000000, -0.000000, 0.000000, 0.000000, -0.000000, -0.000000, -0.000000, -0.000000, 0.000000, 0.000000, 0.000000, 0.000000, 0.000000, 0.000000, -0.000000, 0.000000, 0.000000, 0.000000, -0.000000, -0.000000, -0.000000, -0.000000, -0.000000, 0.000000, 0.000000, 0.000000, 0.000000, 0.000000, -0.000000, -0.000000, -0.000000, -0.000000, -0.000000}, {0.083058, 0.296929, 0.079311, 0.059186, 0.067186, -0.007979, 0.338751, -0.006180, 0.336888, 0.023761, -0.090799, 0.020257, -0.217704, -0.080736, -0.147474, 0.324404, -0.042640, 0.344340, 0.289862, -0.085257, -0.068086, 0.035268, -0.341766, 0.010343, -0.004741, 0.085681, 0.335067, 0.347099, 0.593688, 0.315261, -0.045941, -0.017069, 0.085446, 0.007079, -0.024308, -0.019779, -0.090198, -0.082336, 0.270793, 0.000911}, {-0.007780, -0.090175, -0.033620, -0.042288, -0.034970, -0.012428, -0.439300, -0.058336, -0.439680, 0.331827, 0.026564, -0.065436, 0.349959, 0.036638, 0.017456, -0.439111, -0.023229, -0.478877, -0.396898, -0.001995, 0.053748, -0.014083, 0.444676, 0.121544, 0.021380, -0.020444, -0.494374, -0.259721, -0.239386, -0.096569, 0.048674, 0.026030, -0.030958, 0.348641, -0.000715, -0.335327, 0.049943, 0.046482, 0.016828, 0.026411}};
static const float * p_layer_3_weight = layer_3_weight;
static const float layer_3_bias[40] = {0.018131, 0.049096, 0.013614, 0.020056, 0.016667, 0.020775, -0.041808, 0.010649, -0.041921, -0.032043, -0.008440, -0.003324, -0.084087, -0.018106, -0.030269, -0.049794, -0.016800, -0.093503, -0.046395, 0.008033, -0.020889, 0.019408, 0.042232, -0.053034, -0.006464, 0.016364, -0.078960, 0.012597, -0.000896, 0.053624, 0.005147, 0.014276, 0.012928, -0.034664, 0.017710, 0.032646, -0.041260, -0.015031, 0.044613, 0.018918};
static const float * p_layer_3_bias = layer_3_bias;
    
static float sigmoid(float num) {
    return 1.0f / (1.0f + expf(-num));
}

static float step(float num) {
    if (num < 0) {
        return 0;
    }
    return 1;
}

static float relu(float num) {
    if (num > 0) {
        return num;
    } else {
        return 0;
    }
}

static float linear(float num) {
    return num;
}

static void layer(const float * in, const float * layer_weight, const float * layer_bias,   
            int row, int col, float * output, int use_activation) {
    int ii;
    int jj;
    const float * p;

    for(ii = 0; ii < col; ii++) {
        p = layer_weight + ii;
        output[ii] = 0;
        for (jj = 0; jj < row; jj++) {
            output[ii] += in[jj] * (*p); 
            p += col;
        }
        output[ii] += layer_bias[ii];
        
        if (use_activation == 1) {
			output[ii] = relu(output[ii]);
        }
    }
}

const float* nn_phi_2(const float* input) {
	layer(input, p_layer_0_weight, p_layer_0_bias, STRUCTURE[0][0], STRUCTURE[0][1], output_0, 1);
	layer(output_0, p_layer_1_weight, p_layer_1_bias, STRUCTURE[1][0], STRUCTURE[1][1], output_1, 1);
	layer(output_1, p_layer_2_weight, p_layer_2_bias, STRUCTURE[2][0], STRUCTURE[2][1], output_2, 1);
	layer(output_2, p_layer_3_weight, p_layer_3_bias, STRUCTURE[3][0], STRUCTURE[3][1], output_3, 0);

	return output_3;
}
