/*
 * FILE: generated.c
 */

#include <stdio.h>
#include <stdlib.h>
#include <string.h>
#include <math.h>
#include "phi_2.h"

static const int STRUCTURE[4][2] = {{6, 25}, {25, 40}, {40, 40}, {40, 40}};
static float output_0[25];
static float output_1[40];
static float output_2[40];
static float output_3[40];
static const float layer_0_weight[6][25] = {{-0.000000, 0.636292, -0.313988, -0.000000, -0.482674, 0.336553, -0.119448, -0.998930, 0.241241, 0.651561, 1.163733, -1.242058, -0.903935, -0.177406, -0.072074, -0.151448, -1.443089, -0.562986, 0.334729, 0.473184, -0.063793, -0.559054, 1.401359, -0.341010, -0.784954}, {0.000000, 0.196968, 0.264660, 0.000000, -0.031275, 0.059549, -0.054671, -0.727987, 0.078182, -0.756968, 0.941657, -1.214833, 0.653550, 0.438558, -0.255663, -0.051543, 0.130590, -1.115569, 0.225844, 1.259007, -0.512275, 0.411151, -1.193172, -0.053903, 1.580279}, {-0.000000, -0.315769, 0.120813, -0.000000, -1.706900, 0.816731, 0.111807, 0.223262, -0.115856, 0.241903, 0.190915, -0.028814, -0.087361, 0.286119, -0.092253, -0.118100, -0.143212, -0.245027, 0.684049, -0.389672, 0.641542, 0.733576, -0.015122, -0.071988, 0.016747}, {-0.000000, -0.458119, 0.064585, 0.000000, 0.159632, 0.005514, -0.212973, 0.229443, 0.066706, -0.274522, 0.024893, 0.077461, 0.166305, -0.499426, 0.744708, 0.172169, -0.009396, -0.307259, 0.265239, -0.024983, -0.137637, 0.091440, 0.039346, 0.416449, -0.003006}, {0.000000, -0.088018, 0.539777, -0.000000, 0.048956, -0.042543, -0.052405, 0.200488, -0.659415, 0.409671, 0.034447, -0.025093, -0.183293, -0.221365, 0.153134, -0.047141, 0.103698, 0.092513, 0.199329, 0.010892, -0.210210, -0.091552, 0.005469, 0.387715, -0.005962}, {-0.000000, 0.004483, -0.356082, 0.000000, 0.234560, -0.342427, 0.633381, 0.133914, 0.068091, 0.104501, 0.006000, 0.031097, 0.294639, -0.063789, -0.095656, -0.804910, -0.331654, 0.081493, 0.313594, -0.026766, -0.353753, -0.020554, -0.045086, 0.428311, -0.035578}};
static const float * p_layer_0_weight = layer_0_weight;
static const float layer_0_bias[25] = {-0.440452, -0.184583, -0.146209, -0.415127, 0.077484, -0.141434, -0.014051, 0.020990, -0.063876, -0.162540, -0.095903, -0.013048, -0.028404, -0.124250, -0.098244, 0.077835, -0.027569, 0.029236, -0.062950, 0.076517, -0.136067, -0.067203, 0.017258, -0.077796, -0.007526};
static const float * p_layer_0_bias = layer_0_bias;
static const float layer_1_weight[25][40] = {{0.000000, 0.000000, 0.000000, 0.000000, 0.000000, -0.000000, 0.000000, 0.000000, 0.000000, -0.000000, -0.000000, -0.000000, -0.000000, 0.000000, -0.000000, 0.000000, 0.000000, 0.000000, -0.000000, 0.000000, -0.000000, -0.000000, 0.000000, -0.000000, -0.000000, 0.000000, -0.000000, 0.000000, 0.000000, -0.000000, -0.000000, -0.000000, 0.000000, -0.000000, -0.000000, -0.000000, -0.000000, -0.000000, 0.000000, -0.000000}, {-0.715591, 0.140953, 0.000000, 0.000000, 0.000000, -0.000240, -0.224670, 0.275988, -0.087568, -0.000000, 0.020771, 0.512322, -0.245186, -0.327595, 0.328039, 0.021370, -0.599559, 0.000000, 0.173022, -0.217043, -0.000000, 0.427550, 0.107969, 0.126927, -0.000000, 0.207823, 0.138956, 0.000000, 0.328889, -0.000000, -0.292460, 0.012889, 0.347117, -0.000000, -0.534197, -0.073273, -0.000000, 0.000000, -0.077335, -0.000000}, {0.135886, -0.119597, -0.000000, -0.000000, -0.000000, 0.239681, 0.009132, 0.405899, -0.095467, 0.000000, -0.166307, 0.021106, -0.133278, 0.145558, -0.123172, -0.153221, -0.154422, -0.000000, -0.525764, 0.138759, 0.000000, 0.112005, -0.012074, -0.279442, -0.000000, -0.071936, -0.081337, 0.000000, 0.118430, -0.000000, 0.295239, 0.325933, 0.046123, -0.000000, -0.021190, -0.563889, 0.000000, -0.000000, -0.119317, -0.000000}, {0.000000, 0.000000, -0.000000, 0.000000, -0.000000, 0.000000, -0.000000, 0.000000, 0.000000, -0.000000, 0.000000, -0.000000, -0.000000, -0.000000, 0.000000, -0.000000, -0.000000, 0.000000, 0.000000, 0.000000, 0.000000, 0.000000, 0.000000, 0.000000, 0.000000, -0.000000, -0.000000, -0.000000, 0.000000, 0.000000, -0.000000, -0.000000, -0.000000, -0.000000, -0.000000, -0.000000, -0.000000, -0.000000, -0.000000, 0.000000}, {-0.763899, 0.417082, 0.000000, -0.000000, 0.000000, -0.431258, -0.769949, 0.147080, -0.045183, -0.000000, 0.117091, -0.417099, 0.199334, -0.330292, -0.057105, 0.311444, -0.743123, -0.000000, -0.513261, -0.194918, -0.000000, -0.199164, 0.205588, -0.623270, -0.000000, 0.208196, -0.274838, -0.000000, 0.055236, -0.000000, -0.724551, -0.296659, 0.109834, -0.000000, -0.885560, -0.107348, -0.000000, -0.000000, -0.252884, -0.000000}, {0.090933, 0.294633, 0.000000, 0.000000, -0.000000, 0.122483, 0.041476, 0.392228, 0.317627, 0.000000, 0.076323, 0.073930, -0.513925, 0.087646, 0.096244, -0.291187, -0.137747, 0.000000, 0.039299, -0.306096, -0.000000, 0.507378, 0.044970, -0.191332, -0.000000, -0.382625, -0.290294, -0.000000, -0.461719, 0.000000, -0.428990, -0.379669, 0.221513, -0.000000, -0.002040, -0.208262, 0.000000, 0.000000, -0.265798, -0.000000}, {0.133920, -0.593979, 0.000000, 0.000000, -0.000000, -0.076211, -0.062205, -0.124402, 0.114312, 0.000000, -0.114343, 0.468705, 0.180395, 0.154792, -0.093368, 0.101498, -0.097680, -0.000000, 0.072750, -0.043979, -0.000000, 0.161486, 0.101823, -0.088603, -0.000000, -0.105787, 0.113282, 0.000000, -0.068720, 0.000000, 0.145250, 0.134548, -0.567103, 0.000000, -0.057457, -0.004877, -0.000000, -0.000000, -0.091480, 0.000000}, {0.072506, -0.162646, 0.000000, 0.000000, -0.000000, -0.023749, -0.013941, 0.136452, -0.501996, -0.000000, -0.316889, -0.131130, -0.078134, -0.119787, 0.252263, -0.337027, -0.164566, 0.000000, 0.073856, -0.202656, -0.000000, 0.101153, -0.226805, -0.249088, -0.000000, 0.012602, 0.072228, -0.000000, 0.173432, 0.000000, 0.100066, -0.771610, 0.468718, -0.000000, 0.183749, -0.341564, -0.000000, -0.000000, 0.348988, -0.000000}, {-0.098218, -0.176905, -0.000000, -0.000000, -0.000000, 0.043331, 0.020183, 0.338967, -0.151010, -0.000000, 0.336785, 0.277815, -0.162704, 0.260220, -0.324694, 0.086070, 0.036584, -0.000000, -0.272782, 0.056770, 0.000000, 0.194846, -0.002314, -0.117498, 0.000000, 0.406136, 0.028025, -0.000000, 0.068693, -0.000000, 0.189378, -0.472459, -0.164909, 0.000000, 0.164646, -0.135651, 0.000000, 0.000000, -0.089871, 0.000000}, {0.066285, -0.374580, 0.000000, 0.000000, -0.000000, 0.009164, 0.365188, 0.017182, 0.200866, -0.000000, 0.057776, -0.039330, 0.189472, 0.017698, 0.395055, 0.011401, -0.109458, 0.000000, -0.463683, 0.225496, 0.000000, 0.088187, 0.206228, 0.025066, -0.000000, 0.318417, 0.150900, -0.000000, -0.147761, -0.000000, 0.213597, 0.114777, 0.292110, 0.000000, -0.314998, -0.276620, -0.000000, 0.000000, 0.130661, 0.000000}, {-0.429151, 0.343555, 0.000000, -0.000000, 0.000000, -0.354894, -0.407598, 0.122580, 0.443970, -0.000000, 0.097172, 0.180508, -0.343108, 0.111809, 0.296137, -0.312033, -0.154371, 0.000000, -0.217229, -0.126445, 0.000000, 0.205671, -0.970142, 0.053387, -0.000000, 0.046788, -0.351842, 0.000000, -0.188432, 0.000000, 0.077934, -0.148781, -0.379557, -0.000000, -0.380748, 0.084172, -0.000000, -0.000000, -0.049997, -0.000000}, {-0.405007, 0.128910, 0.000000, -0.000000, -0.000000, -0.274136, -0.469184, -0.226017, -0.801392, -0.000000, 0.166276, -0.124398, -0.381674, -0.299520, 0.435631, -0.150400, -0.568749, 0.000000, -0.190338, -0.468193, 0.000000, 0.142818, -0.733520, 0.094998, 0.000000, -0.232180, -0.281327, 0.000000, 0.142339, 0.000000, 0.366582, -0.079508, 0.242589, 0.000000, 0.048802, -0.499324, -0.000000, 0.000000, 0.132596, -0.000000}, {0.267714, -0.361551, -0.000000, -0.000000, 0.000000, -0.219362, 0.031481, -0.092444, -0.475660, 0.000000, -0.297950, 0.292230, -0.229252, -0.073547, 0.227531, 0.069263, -0.003081, -0.000000, 0.193830, 0.111180, 0.000000, 0.314002, 0.158233, 0.041616, -0.000000, 0.232107, 0.212528, 0.000000, 0.257716, -0.000000, 0.123908, 0.001867, 0.258320, -0.000000, 0.325619, 0.259918, -0.000000, 0.000000, -0.061088, -0.000000}, {0.306425, -0.250757, -0.000000, -0.000000, -0.000000, 0.152553, 0.235017, 0.219851, -0.140959, 0.000000, 0.001131, 0.178879, -0.110742, 0.096157, -0.169157, 0.125444, 0.031193, -0.000000, -0.103325, 0.014117, -0.000000, 0.113225, 0.147134, 0.123364, -0.000000, -0.121092, -0.093828, -0.000000, 0.007198, -0.000000, -0.283345, 0.100005, -0.846732, -0.000000, 0.118148, 0.221884, -0.000000, -0.000000, -0.366063, 0.000000}, {0.139738, -0.117462, -0.000000, -0.000000, -0.000000, 0.178216, 0.242296, 0.153162, -0.449782, -0.000000, 0.042220, -0.018235, -0.046616, 0.075753, 0.378439, -0.375084, 0.154668, -0.000000, -0.362685, 0.025860, -0.000000, -0.386772, 0.125105, 0.217283, 0.000000, 0.262145, 0.205440, -0.000000, 0.140842, -0.000000, -0.357653, -0.109052, 0.076129, -0.000000, 0.236753, -0.826475, -0.000000, -0.000000, -0.307647, -0.000000}, {-0.124508, 0.227899, -0.000000, -0.000000, 0.000000, 0.194723, 0.190587, -0.090644, -0.041376, 0.000000, 0.283215, -0.063876, -0.269685, -0.062114, -0.086729, -0.161954, 0.030952, -0.000000, -0.264421, 0.152619, -0.000000, -0.073839, 0.216525, 0.205729, -0.000000, -0.406610, -0.080696, -0.000000, 0.036677, -0.000000, -0.298202, 0.322154, -0.001896, -0.000000, 0.010546, -0.251139, -0.000000, -0.000000, 0.258970, 0.000000}, {-0.387920, 0.178484, -0.000000, -0.000000, 0.000000, -0.398137, -0.076213, 0.025580, -0.222281, -0.000000, -0.502122, -0.281192, -0.431528, 0.070687, -0.255091, -0.016859, -0.040803, -0.000000, -0.031320, -0.339496, -0.000000, 0.276182, -0.016727, -0.326038, 0.000000, -0.215617, -0.508929, -0.000000, 0.477221, 0.000000, -0.189144, 0.168783, -0.033965, 0.000000, -0.273200, -0.118286, 0.000000, -0.000000, 0.341724, -0.000000}, {-0.156747, 0.092847, -0.000000, -0.000000, 0.000000, -0.215954, 0.232825, -0.374349, -0.216255, -0.000000, -0.003563, 0.098516, 0.140935, -1.014807, 0.188633, 0.226294, -0.181996, -0.000000, -0.422904, -0.283669, -0.000000, 0.054058, -0.271918, 0.022784, -0.000000, 0.124363, -0.114877, -0.000000, 0.209767, 0.000000, 0.175601, -0.222452, 0.148562, -0.000000, -0.796744, -0.404131, -0.000000, 0.000000, -0.046543, 0.000000}, {0.063422, 0.048072, -0.000000, 0.000000, -0.000000, 0.061331, -0.093277, 0.092011, 0.208452, 0.000000, -0.601625, 0.301669, 0.078363, 0.201184, -0.021902, -0.132759, 0.053365, 0.000000, 0.120968, -0.305564, -0.000000, 0.452872, -0.622839, -0.078154, -0.000000, -0.287625, -0.023654, -0.000000, -0.075236, 0.000000, -0.068098, -0.098997, -0.013894, -0.000000, -0.120892, -0.167825, -0.000000, 0.000000, -0.554166, -0.000000}, {-0.785357, 0.165002, -0.000000, -0.000000, 0.000000, -0.391461, -0.370158, -0.160774, 0.014369, -0.000000, -0.256879, 0.301183, 0.132965, -0.795523, -0.047169, -0.105113, -0.231128, 0.000000, -0.422633, -0.230006, -0.000000, 0.041721, 0.010208, 0.298505, 0.000000, 0.387995, -0.372011, 0.000000, 0.178515, -0.000000, 0.154830, 0.006435, -0.297764, -0.000000, -0.324636, 0.185121, -0.000000, 0.000000, -0.059466, 0.000000}, {-0.033431, 0.196992, -0.000000, -0.000000, 0.000000, 0.062413, -0.009434, 0.099531, 0.261408, -0.000000, 0.212396, -0.294177, -0.291813, 0.130985, -0.169371, -0.300495, 0.013359, -0.000000, -0.173293, -0.322951, -0.000000, 0.600751, -0.017382, -0.175452, -0.000000, -0.564774, -0.663338, 0.000000, -0.068742, 0.000000, 0.025389, -0.028920, 0.083276, 0.000000, 0.120127, 0.019386, -0.000000, -0.000000, -0.287203, 0.000000}, {0.143597, 0.203358, 0.000000, -0.000000, -0.000000, 0.075984, -0.121593, 0.223813, 0.013117, 0.000000, -0.101088, -0.092514, -0.532296, 0.165229, -0.188581, -0.240567, -0.154359, -0.000000, 0.188885, -0.193514, 0.000000, 0.364838, -0.319551, -0.787703, -0.000000, -0.255344, -0.261224, -0.000000, -0.023178, 0.000000, -0.097153, -0.199637, 0.121195, -0.000000, 0.184250, 0.062533, -0.000000, 0.000000, 0.158884, -0.000000}, {-0.421928, -0.316786, -0.000000, -0.000000, -0.000000, -0.400736, -0.356322, -0.594309, 0.295884, -0.000000, 0.392061, 0.009612, 0.279414, -0.194793, 0.413915, -0.568109, -0.210724, -0.000000, -0.055306, -0.521946, -0.000000, 0.281937, -0.165102, 0.182173, 0.000000, 0.114482, -0.234880, 0.000000, 0.160406, -0.000000, -0.052110, -0.276792, -0.056850, 0.000000, -0.281563, 0.132630, -0.000000, 0.000000, -0.020748, -0.000000}, {-0.078847, -0.372874, -0.000000, 0.000000, 0.000000, 0.152071, 0.094575, 0.324502, -0.085089, 0.000000, 0.084803, 0.211561, 0.114851, 0.212622, 0.082021, 0.239439, 0.089366, 0.000000, 0.088314, 0.016062, -0.000000, -0.188340, -0.544763, -0.053799, 0.000000, 0.228158, 0.366206, -0.000000, 0.123954, -0.000000, 0.052691, -0.466045, 0.158367, -0.000000, 0.115413, -0.270475, -0.000000, -0.000000, -0.570567, -0.000000}, {0.175398, -0.010427, 0.000000, -0.000000, -0.000000, -0.171262, -0.348812, -0.032273, -0.223680, -0.000000, -0.077019, 0.047205, -0.561917, -0.669485, -0.325174, -0.412723, -0.780888, 0.000000, -0.177287, -0.408662, -0.000000, 0.155895, -0.122302, 0.167668, 0.000000, 0.234687, -0.215107, -0.000000, 0.563466, 0.000000, -0.221078, 0.061925, -0.131240, 0.000000, -0.006576, 0.271396, -0.000000, -0.000000, 0.094181, 0.000000}};
static const float * p_layer_1_weight = layer_1_weight;
static const float layer_1_bias[40] = {0.156874, -0.009859, -0.031013, -0.159195, -0.184787, 0.138426, 0.071511, -0.175932, 0.009520, -0.148418, -0.075188, -0.106900, 0.119323, 0.021766, -0.166890, 0.195808, 0.262080, -0.180804, 0.137070, 0.322184, -0.063560, -0.477341, 0.194953, 0.073957, -0.062201, -0.012090, 0.215625, -0.093305, -0.043232, -0.203333, 0.032472, 0.161050, -0.030276, -0.155349, 0.046638, 0.152596, -0.013026, -0.152481, 0.159857, -0.053417};
static const float * p_layer_1_bias = layer_1_bias;
static const float layer_2_weight[40][40] = {{0.000000, -0.149625, -0.000000, 0.000000, 0.288847, -0.000000, 0.281725, 0.290926, -0.355342, 0.103371, -0.307218, -0.000000, -0.000000, -0.000000, 0.000000, 0.045509, 0.115150, 0.298676, 0.108952, 0.000000, -0.158836, -0.271602, -0.000000, 0.327442, -0.000000, 0.144679, -0.000000, -0.000000, 0.002114, 0.244822, 0.000000, 0.164415, -0.000000, -0.000000, -0.152164, -0.419641, 0.000000, -0.000000, 0.333881, -0.119433}, {0.000000, -0.395542, -0.000000, -0.000000, -0.931578, 0.000000, -0.298670, -0.450658, 0.165607, -0.537472, 0.139290, -0.000000, -0.000000, 0.000000, 0.000000, -0.554993, -0.160879, 0.121341, -0.384207, -0.000000, -0.302182, 0.194402, -0.000000, -0.042325, 0.000000, -0.099305, -0.000000, -0.000000, 0.245947, -0.316634, 0.000000, 0.175454, -0.000000, -0.000000, -0.248505, 0.118728, -0.000000, 0.000000, -0.054770, -0.129768}, {0.000000, 0.000000, 0.000000, 0.000000, 0.000000, -0.000000, 0.000000, -0.000000, 0.000000, 0.000000, 0.000000, 0.000000, 0.000000, -0.000000, -0.000000, -0.000000, 0.000000, 0.000000, 0.000000, 0.000000, -0.000000, -0.000000, 0.000000, 0.000000, -0.000000, 0.000000, -0.000000, -0.000000, 0.000000, -0.000000, 0.000000, -0.000000, 0.000000, -0.000000, -0.000000, 0.000000, 0.000000, 0.000000, 0.000000, -0.000000}, {0.000000, -0.000000, 0.000000, 0.000000, -0.000000, -0.000000, 0.000000, -0.000000, -0.000000, 0.000000, 0.000000, 0.000000, 0.000000, 0.000000, 0.000000, -0.000000, -0.000000, -0.000000, 0.000000, 0.000000, 0.000000, 0.000000, 0.000000, 0.000000, 0.000000, 0.000000, 0.000000, -0.000000, 0.000000, 0.000000, -0.000000, -0.000000, 0.000000, -0.000000, -0.000000, -0.000000, 0.000000, -0.000000, 0.000000, -0.000000}, {-0.000000, -0.000000, 0.000000, -0.000000, -0.000000, -0.000000, 0.000000, 0.000000, -0.000000, -0.000000, -0.000000, 0.000000, -0.000000, -0.000000, 0.000000, 0.000000, 0.000000, 0.000000, 0.000000, 0.000000, -0.000000, -0.000000, -0.000000, -0.000000, -0.000000, 0.000000, -0.000000, -0.000000, -0.000000, 0.000000, 0.000000, 0.000000, 0.000000, 0.000000, 0.000000, -0.000000, 0.000000, 0.000000, 0.000000, 0.000000}, {0.000000, -0.788397, -0.000000, -0.000000, -0.166833, 0.000000, 0.173038, -0.218164, 0.219787, 0.054578, 0.053741, -0.000000, -0.000000, -0.000000, -0.000000, 0.116373, 0.009801, 0.014568, 0.145999, -0.000000, -0.027464, -0.072623, 0.000000, 0.205550, -0.000000, 0.317490, 0.000000, -0.000000, 0.227710, 0.119310, -0.000000, -0.757032, -0.000000, -0.000000, 0.090252, -0.307020, -0.000000, 0.000000, 0.256754, 0.082073}, {0.000000, 0.301238, -0.000000, -0.000000, -0.519292, -0.000000, 0.311606, -0.428264, -0.015018, 0.179912, -0.066579, -0.000000, -0.000000, 0.000000, -0.000000, 0.211805, 0.202868, -0.288089, 0.124689, 0.000000, 0.134876, 0.154292, -0.000000, 0.236397, 0.000000, 0.305896, 0.000000, -0.000000, 0.251517, 0.199758, 0.000000, -0.551931, 0.000000, 0.000000, 0.083337, 0.063416, -0.000000, -0.000000, 0.136965, -0.551894}, {0.000000, -0.260129, -0.000000, -0.000000, 0.351673, -0.000000, -0.041037, -0.329192, -0.360441, 0.119729, 0.120596, -0.000000, 0.000000, -0.000000, -0.000000, -0.118948, 0.077554, 0.079000, -0.016195, -0.000000, 0.107283, -0.406812, -0.000000, 0.056408, -0.000000, 0.362875, -0.000000, -0.000000, -0.605350, -0.086338, -0.000000, -0.411507, -0.000000, -0.000000, -0.268629, -0.423756, -0.000000, -0.000000, -0.336562, 0.175271}, {-0.000000, -0.086161, -0.000000, -0.000000, 0.100585, -0.000000, -0.341658, 0.032236, 0.195215, 0.007882, -0.184721, -0.000000, 0.000000, -0.000000, -0.000000, 0.107346, -0.067411, -0.444234, 0.145275, -0.000000, -0.141574, 0.019974, -0.000000, -0.528376, 0.000000, -0.064875, -0.000000, 0.000000, -0.474593, -0.305664, -0.000000, -0.147783, -0.000000, -0.000000, 0.064236, -0.109839, -0.000000, -0.000000, -0.569861, -0.818745}, {0.000000, -0.000000, -0.000000, -0.000000, 0.000000, -0.000000, 0.000000, -0.000000, 0.000000, 0.000000, -0.000000, 0.000000, -0.000000, -0.000000, -0.000000, -0.000000, 0.000000, -0.000000, 0.000000, 0.000000, -0.000000, 0.000000, 0.000000, 0.000000, -0.000000, 0.000000, -0.000000, -0.000000, -0.000000, 0.000000, -0.000000, 0.000000, -0.000000, 0.000000, -0.000000, -0.000000, 0.000000, -0.000000, -0.000000, 0.000000}, {0.000000, 0.030734, 0.000000, -0.000000, -0.449483, -0.000000, -0.618569, -0.084775, 0.114474, 0.224622, -0.303977, 0.000000, -0.000000, -0.000000, -0.000000, 0.111166, -0.493914, -0.014079, -0.669721, 0.000000, 0.044262, -0.711556, -0.000000, 0.287505, -0.000000, 0.210326, -0.000000, 0.000000, 0.241694, -0.623159, -0.000000, 0.155522, 0.000000, -0.000000, 0.138816, -0.900233, -0.000000, -0.000000, 0.074474, 0.140389}, {0.000000, 0.089961, -0.000000, -0.000000, 0.061660, -0.000000, -0.213602, -0.385289, 0.126205, 0.144455, -0.116460, -0.000000, -0.000000, -0.000000, -0.000000, -0.336192, -0.005375, -0.475898, -0.033642, 0.000000, 0.245380, 0.366249, -0.000000, 0.168944, -0.000000, -0.017792, 0.000000, 0.000000, -0.075396, -0.335693, -0.000000, 0.156912, -0.000000, -0.000000, -0.699477, 0.106068, -0.000000, -0.000000, -0.407389, -0.004284}, {-0.000000, -0.438513, -0.000000, -0.000000, 0.039643, -0.000000, -0.062702, -0.144129, -0.787239, 0.117259, -0.603789, 0.000000, -0.000000, 0.000000, 0.000000, 0.241564, -0.019190, -0.114183, -0.308064, -0.000000, -0.067862, 0.459441, 0.000000, 0.077777, -0.000000, -0.043364, 0.000000, -0.000000, -0.194289, 0.057291, 0.000000, 0.288213, -0.000000, 0.000000, -0.101489, 0.379999, -0.000000, -0.000000, -0.263702, -0.322791}, {-0.000000, -0.541615, -0.000000, 0.000000, 0.188388, 0.000000, -0.175018, -0.879042, 0.231976, 0.229721, -0.104697, -0.000000, -0.000000, -0.000000, -0.000000, 0.112369, 0.229943, -0.653191, 0.308230, -0.000000, 0.455387, 0.293374, 0.000000, -0.081168, -0.000000, 0.374095, 0.000000, 0.000000, 0.114320, -0.238985, 0.000000, -0.164057, -0.000000, -0.000000, -0.802861, -0.117798, -0.000000, 0.000000, -0.029459, -0.169951}, {-0.000000, -0.393567, -0.000000, -0.000000, 0.230922, 0.000000, -0.600309, -0.025027, 0.334790, -0.152777, -0.473986, 0.000000, -0.000000, -0.000000, -0.000000, -0.444664, 0.104669, -0.438744, -0.541973, -0.000000, -0.171567, 0.089812, -0.000000, -0.172710, -0.000000, -0.224293, -0.000000, 0.000000, -0.344738, -0.463560, -0.000000, 0.348087, 0.000000, -0.000000, 0.143819, -0.278765, -0.000000, 0.000000, -0.637076, -0.415811}, {0.000000, -0.541754, 0.000000, -0.000000, 0.305504, -0.000000, 0.114937, 0.254696, -0.013948, 0.422948, 0.256138, -0.000000, 0.000000, -0.000000, 0.000000, 0.444855, 0.183786, 0.149407, 0.017418, -0.000000, -0.061448, 0.028878, 0.000000, 0.332616, -0.000000, 0.414703, 0.000000, -0.000000, 0.165659, 0.047073, -0.000000, 0.303221, -0.000000, -0.000000, -0.499210, -0.121876, -0.000000, 0.000000, 0.004943, 0.051325}, {0.000000, 0.004881, -0.000000, -0.000000, -0.452408, 0.000000, 0.035945, -0.023067, 0.116193, 0.201275, 0.498571, -0.000000, 0.000000, 0.000000, 0.000000, 0.177677, 0.415800, -0.089792, 0.325859, 0.000000, 0.282921, 0.003629, -0.000000, -0.044240, 0.000000, 0.048085, -0.000000, -0.000000, 0.424799, -0.046302, -0.000000, 0.126103, 0.000000, -0.000000, -0.237966, -0.120121, 0.000000, 0.000000, 0.297561, -0.063478}, {0.000000, -0.000000, 0.000000, -0.000000, -0.000000, 0.000000, -0.000000, -0.000000, 0.000000, 0.000000, 0.000000, 0.000000, 0.000000, 0.000000, 0.000000, -0.000000, 0.000000, -0.000000, 0.000000, -0.000000, -0.000000, 0.000000, -0.000000, -0.000000, -0.000000, -0.000000, 0.000000, -0.000000, 0.000000, -0.000000, -0.000000, 0.000000, 0.000000, 0.000000, -0.000000, 0.000000, 0.000000, 0.000000, 0.000000, 0.000000}, {-0.000000, -0.139583, 0.000000, 0.000000, 0.173278, -0.000000, 0.021488, -0.007404, 0.204480, 0.087555, 0.078265, -0.000000, 0.000000, -0.000000, 0.000000, -0.123340, 0.090452, 0.288008, 0.124219, -0.000000, 0.058147, -0.046628, -0.000000, 0.084629, 0.000000, -0.182622, 0.000000, -0.000000, 0.108578, 0.022421, -0.000000, 0.238766, -0.000000, -0.000000, -0.790593, 0.023936, 0.000000, -0.000000, 0.171531, -0.409095}, {0.000000, -0.907992, -0.000000, 0.000000, -0.301157, 0.000000, 0.254421, 0.061064, 0.063225, 0.385828, 0.140277, -0.000000, -0.000000, 0.000000, 0.000000, 0.370229, -1.121727, 0.086622, 0.375926, 0.000000, -0.170356, 0.202405, -0.000000, -0.053321, 0.000000, 0.231395, -0.000000, 0.000000, 0.153294, 0.160348, -0.000000, -0.297081, 0.000000, 0.000000, 0.155092, -0.328051, -0.000000, 0.000000, 0.185831, 0.237933}, {0.000000, -0.000000, 0.000000, -0.000000, -0.000000, -0.000000, 0.000000, -0.000000, -0.000000, -0.000000, 0.000000, 0.000000, 0.000000, -0.000000, 0.000000, 0.000000, -0.000000, -0.000000, 0.000000, -0.000000, -0.000000, -0.000000, 0.000000, -0.000000, 0.000000, 0.000000, 0.000000, 0.000000, 0.000000, 0.000000, -0.000000, 0.000000, -0.000000, -0.000000, 0.000000, 0.000000, 0.000000, 0.000000, 0.000000, 0.000000}, {-0.000000, -0.615645, -0.000000, -0.000000, 0.347349, -0.000000, -0.376823, -0.388738, -0.452011, 0.544773, -0.199683, -0.000000, -0.000000, -0.000000, -0.000000, -1.152599, 0.492763, 0.223761, -0.116293, 0.000000, -0.071845, 0.206822, -0.000000, -0.246057, -0.000000, 0.182983, -0.000000, -0.000000, -0.255823, -0.381011, -0.000000, 0.093617, -0.000000, -0.000000, 0.528678, 0.275949, 0.000000, -0.000000, -0.400108, -0.210679}, {0.000000, -0.640424, -0.000000, 0.000000, 0.453605, -0.000000, 0.068622, -0.521150, 0.104051, 0.132976, -0.656201, -0.000000, 0.000000, 0.000000, -0.000000, 0.434852, 0.073745, 0.120300, 0.038184, -0.000000, -0.187554, 0.534796, 0.000000, -0.127197, -0.000000, -0.115965, -0.000000, 0.000000, 0.156468, 0.203729, 0.000000, -0.056751, -0.000000, 0.000000, -0.002770, -0.537744, 0.000000, -0.000000, 0.014927, -0.530856}, {-0.000000, 0.073219, -0.000000, -0.000000, -0.010069, -0.000000, -0.361269, -0.052605, 0.023570, -0.141769, -0.287686, -0.000000, 0.000000, 0.000000, -0.000000, 0.265557, -0.061596, -0.524731, 0.130842, 0.000000, -0.238136, 0.045725, -0.000000, -0.897168, -0.000000, -0.482730, -0.000000, -0.000000, -0.444568, -0.439461, -0.000000, 0.433901, -0.000000, 0.000000, -0.036473, -0.363412, 0.000000, 0.000000, -0.251422, -0.090692}, {-0.000000, 0.000000, -0.000000, -0.000000, 0.000000, -0.000000, 0.000000, 0.000000, 0.000000, -0.000000, -0.000000, 0.000000, 0.000000, 0.000000, 0.000000, 0.000000, -0.000000, -0.000000, 0.000000, 0.000000, -0.000000, 0.000000, -0.000000, 0.000000, -0.000000, 0.000000, 0.000000, -0.000000, 0.000000, -0.000000, -0.000000, 0.000000, 0.000000, 0.000000, -0.000000, -0.000000, 0.000000, -0.000000, 0.000000, -0.000000}, {0.000000, -0.278313, -0.000000, -0.000000, 0.149652, -0.000000, -0.562807, -0.416288, -0.393391, -0.132440, -0.491419, -0.000000, 0.000000, 0.000000, -0.000000, 0.111179, 0.063158, -0.141115, -0.221603, -0.000000, 0.152872, -0.382690, -0.000000, -0.608641, -0.000000, -0.160836, 0.000000, -0.000000, -0.449385, -0.355366, -0.000000, 0.168547, -0.000000, -0.000000, -0.472182, -0.876151, -0.000000, -0.000000, -0.376771, -0.055284}, {0.000000, -0.119717, -0.000000, -0.000000, -0.082411, 0.000000, 0.192147, -0.775963, 0.085712, 0.272729, -0.194826, -0.000000, -0.000000, 0.000000, -0.000000, 0.186565, -0.135474, -0.390950, 0.186673, 0.000000, -0.012846, 0.040109, 0.000000, 0.226125, -0.000000, 0.248229, 0.000000, 0.000000, 0.477694, 0.064325, -0.000000, -0.351726, 0.000000, 0.000000, 0.322388, 0.065390, -0.000000, 0.000000, 0.275652, 0.145748}, {-0.000000, 0.000000, 0.000000, -0.000000, -0.000000, -0.000000, 0.000000, -0.000000, 0.000000, 0.000000, 0.000000, 0.000000, -0.000000, 0.000000, -0.000000, -0.000000, -0.000000, 0.000000, 0.000000, -0.000000, -0.000000, -0.000000, 0.000000, -0.000000, -0.000000, 0.000000, -0.000000, 0.000000, 0.000000, 0.000000, -0.000000, -0.000000, -0.000000, 0.000000, 0.000000, 0.000000, 0.000000, 0.000000, -0.000000, 0.000000}, {-0.000000, 0.016727, 0.000000, -0.000000, 0.165555, -0.000000, -0.491052, -0.034058, -0.295752, 0.012028, -0.576838, 0.000000, 0.000000, 0.000000, 0.000000, -0.219149, 0.110779, 0.112305, -0.146013, 0.000000, -0.101658, -0.296238, -0.000000, 0.005885, -0.000000, -0.214490, -0.000000, 0.000000, -0.277861, -0.546303, -0.000000, 0.144777, -0.000000, -0.000000, -0.025179, -0.443135, -0.000000, -0.000000, -0.425148, -0.252166}, {-0.000000, -0.000000, 0.000000, -0.000000, -0.000000, 0.000000, 0.000000, 0.000000, 0.000000, 0.000000, -0.000000, -0.000000, -0.000000, 0.000000, -0.000000, 0.000000, 0.000000, 0.000000, 0.000000, 0.000000, -0.000000, -0.000000, -0.000000, 0.000000, -0.000000, -0.000000, 0.000000, 0.000000, -0.000000, -0.000000, -0.000000, 0.000000, -0.000000, 0.000000, 0.000000, -0.000000, -0.000000, -0.000000, -0.000000, 0.000000}, {0.000000, 0.284947, -0.000000, -0.000000, 0.008331, -0.000000, 0.127806, 0.398690, -0.480906, 0.004363, -0.131123, -0.000000, -0.000000, -0.000000, -0.000000, -0.397838, -0.302435, -0.431477, -0.128393, -0.000000, 0.090482, 0.176687, 0.000000, 0.003133, -0.000000, -0.072892, 0.000000, -0.000000, 0.022440, 0.021310, 0.000000, -0.016344, -0.000000, -0.000000, 0.018717, 0.088004, -0.000000, 0.000000, 0.058092, -0.277573}, {0.000000, 0.062102, -0.000000, -0.000000, -0.470146, -0.000000, -0.045976, 0.220109, 0.195248, 0.037910, 0.053034, -0.000000, 0.000000, -0.000000, -0.000000, 0.295197, -0.666487, 0.208771, 0.469455, 0.000000, 0.315682, 0.287297, 0.000000, -0.055071, -0.000000, 0.146256, 0.000000, -0.000000, -0.035363, -0.113291, -0.000000, -0.176925, 0.000000, 0.000000, 0.274660, -0.325649, 0.000000, -0.000000, 0.186635, -0.204808}, {-0.000000, -0.499275, 0.000000, -0.000000, 0.176579, 0.000000, 0.082800, 0.043291, 0.124698, -0.075651, -0.201035, -0.000000, -0.000000, -0.000000, 0.000000, 0.088344, 0.131756, -0.520096, 0.020809, 0.000000, -0.305950, -0.274479, 0.000000, -0.084537, 0.000000, -0.003131, -0.000000, 0.000000, 0.115045, 0.107433, -0.000000, 0.080670, -0.000000, -0.000000, -0.016856, 0.021919, -0.000000, -0.000000, -0.237586, -0.772006}, {-0.000000, 0.000000, -0.000000, -0.000000, -0.000000, -0.000000, 0.000000, -0.000000, 0.000000, 0.000000, 0.000000, -0.000000, 0.000000, -0.000000, -0.000000, 0.000000, 0.000000, -0.000000, 0.000000, 0.000000, 0.000000, 0.000000, 0.000000, 0.000000, 0.000000, 0.000000, -0.000000, 0.000000, -0.000000, -0.000000, -0.000000, 0.000000, 0.000000, -0.000000, 0.000000, -0.000000, -0.000000, 0.000000, -0.000000, -0.000000}, {0.000000, -0.502746, 0.000000, -0.000000, -0.503254, -0.000000, 0.028716, -0.227158, -0.237529, 0.332662, -0.259525, -0.000000, 0.000000, -0.000000, 0.000000, 0.100842, 0.090319, -0.166887, -0.171540, -0.000000, -0.256364, -0.235223, 0.000000, 0.197428, -0.000000, 0.276389, -0.000000, -0.000000, -0.000730, 0.090475, 0.000000, -0.226325, 0.000000, 0.000000, 0.023213, 0.076789, -0.000000, 0.000000, 0.108547, -0.402997}, {0.000000, -0.164614, 0.000000, -0.000000, -0.026464, -0.000000, 0.013283, 0.120671, 0.021629, 0.127622, -0.166196, -0.000000, 0.000000, -0.000000, 0.000000, 0.056191, -0.081975, -0.046154, -0.090092, 0.000000, -0.860077, -0.069632, 0.000000, 0.302886, 0.000000, -0.144190, -0.000000, -0.000000, 0.090764, 0.097112, 0.000000, -0.325057, -0.000000, -0.000000, -0.559644, 0.039889, 0.000000, -0.000000, 0.001546, -0.245503}, {0.000000, 0.000000, 0.000000, 0.000000, 0.000000, 0.000000, 0.000000, -0.000000, 0.000000, -0.000000, 0.000000, 0.000000, -0.000000, -0.000000, 0.000000, 0.000000, 0.000000, 0.000000, 0.000000, -0.000000, -0.000000, -0.000000, -0.000000, -0.000000, -0.000000, 0.000000, -0.000000, -0.000000, 0.000000, 0.000000, 0.000000, 0.000000, 0.000000, 0.000000, 0.000000, -0.000000, 0.000000, 0.000000, -0.000000, -0.000000}, {0.000000, 0.000000, -0.000000, 0.000000, 0.000000, 0.000000, -0.000000, -0.000000, 0.000000, -0.000000, 0.000000, 0.000000, 0.000000, 0.000000, 0.000000, -0.000000, 0.000000, 0.000000, -0.000000, 0.000000, -0.000000, 0.000000, -0.000000, -0.000000, -0.000000, -0.000000, -0.000000, -0.000000, 0.000000, 0.000000, 0.000000, -0.000000, -0.000000, 0.000000, 0.000000, 0.000000, 0.000000, -0.000000, -0.000000, 0.000000}, {-0.000000, 0.112065, -0.000000, -0.000000, -0.021165, -0.000000, -0.089338, 0.190812, -0.262846, -0.119287, -0.170026, -0.000000, -0.000000, 0.000000, -0.000000, 0.140787, -0.389937, -0.070502, -0.336731, 0.000000, -0.339948, -0.020279, 0.000000, -0.266321, 0.000000, -0.662148, -0.000000, -0.000000, 0.341612, -0.158296, 0.000000, -0.427303, 0.000000, -0.000000, -0.255570, 0.063415, -0.000000, -0.000000, -0.287840, 0.038090}, {-0.000000, 0.000000, -0.000000, 0.000000, 0.000000, 0.000000, 0.000000, 0.000000, -0.000000, -0.000000, 0.000000, 0.000000, 0.000000, -0.000000, -0.000000, -0.000000, -0.000000, -0.000000, 0.000000, -0.000000, 0.000000, -0.000000, -0.000000, -0.000000, 0.000000, -0.000000, -0.000000, -0.000000, 0.000000, 0.000000, -0.000000, 0.000000, -0.000000, -0.000000, 0.000000, -0.000000, 0.000000, 0.000000, -0.000000, -0.000000}};
static const float * p_layer_2_weight = layer_2_weight;
static const float layer_2_bias[40] = {-0.133893, 0.193206, -0.024042, -0.003660, -0.124073, -0.012406, 0.102941, 0.185947, 0.072684, -0.176494, 0.243495, -0.057751, -0.114560, -0.198314, -0.146655, -0.150817, 0.117183, 0.084638, 0.002052, -0.148516, 0.179456, -0.039632, -0.032655, 0.040876, -0.141797, -0.120425, -0.116095, -0.146026, -0.090572, 0.133978, -0.150041, 0.001544, -0.072015, -0.048182, 0.160496, 0.166369, -0.063310, -0.086363, 0.057977, 0.200889};
static const float * p_layer_2_bias = layer_2_bias;
static const float layer_3_weight[40][40] = {{-0.000000, -0.000000, -0.000000, -0.000000, 0.000000, -0.000000, 0.000000, -0.000000, 0.000000, 0.000000, -0.000000, 0.000000, 0.000000, 0.000000, 0.000000, -0.000000, -0.000000, -0.000000, -0.000000, -0.000000, -0.000000, 0.000000, 0.000000, -0.000000, -0.000000, 0.000000, -0.000000, 0.000000, 0.000000, 0.000000, -0.000000, 0.000000, -0.000000, 0.000000, -0.000000, -0.000000, 0.000000, -0.000000, -0.000000, -0.000000}, {0.257497, 0.000829, 0.352022, -0.121335, 0.134155, -0.119370, -0.252489, 0.363207, 0.181899, -0.236891, -0.184515, -0.124919, 0.359490, 0.147163, -0.024515, -0.384014, 0.421599, 0.202432, 0.496195, 0.302513, 0.119987, 0.290327, 0.220969, -0.343358, -0.158737, -0.287984, 0.117636, 0.119144, 0.068849, 0.122680, -0.270951, -0.142302, -0.108268, 0.236318, -0.439677, -0.288662, -0.128080, -0.349904, 0.047947, 0.134176}, {0.000000, 0.000000, 0.000000, -0.000000, -0.000000, -0.000000, 0.000000, 0.000000, -0.000000, 0.000000, 0.000000, -0.000000, 0.000000, 0.000000, 0.000000, 0.000000, 0.000000, 0.000000, 0.000000, -0.000000, -0.000000, 0.000000, 0.000000, 0.000000, -0.000000, 0.000000, -0.000000, 0.000000, -0.000000, 0.000000, -0.000000, 0.000000, -0.000000, 0.000000, 0.000000, -0.000000, 0.000000, -0.000000, -0.000000, -0.000000}, {0.000000, 0.000000, 0.000000, 0.000000, -0.000000, 0.000000, -0.000000, -0.000000, -0.000000, 0.000000, 0.000000, 0.000000, 0.000000, 0.000000, -0.000000, -0.000000, -0.000000, -0.000000, 0.000000, -0.000000, -0.000000, 0.000000, -0.000000, 0.000000, 0.000000, 0.000000, 0.000000, 0.000000, -0.000000, -0.000000, 0.000000, 0.000000, -0.000000, -0.000000, 0.000000, 0.000000, 0.000000, 0.000000, 0.000000, -0.000000}, {0.154501, 0.015570, 0.173201, -0.051872, 0.091340, 0.000163, -0.372836, 0.624691, 0.108075, -0.019324, -0.168387, -0.056263, 0.106323, 0.099699, -0.014351, -0.129797, 0.204147, 0.245690, 0.320712, -0.140125, 0.050816, 0.238337, 0.023247, -0.595960, -0.199339, -0.070848, 0.050316, 0.051292, 0.010299, 0.030737, 0.176509, -0.173171, -0.044732, 0.158041, -0.187797, -0.132877, 0.011242, 0.097347, 0.015034, -0.019911}, {-0.000000, -0.000000, -0.000000, -0.000000, -0.000000, 0.000000, -0.000000, -0.000000, 0.000000, 0.000000, -0.000000, -0.000000, 0.000000, 0.000000, -0.000000, 0.000000, 0.000000, 0.000000, 0.000000, 0.000000, -0.000000, 0.000000, 0.000000, 0.000000, -0.000000, 0.000000, -0.000000, -0.000000, -0.000000, -0.000000, -0.000000, -0.000000, -0.000000, -0.000000, 0.000000, 0.000000, -0.000000, -0.000000, 0.000000, 0.000000}, {-0.013676, 0.279470, -0.026038, -0.070899, -0.313278, -0.058930, -0.147016, 0.062037, -0.004042, -0.151010, -0.091127, -0.072674, 0.229958, 0.009765, -0.282699, -0.248895, 0.078317, 0.176699, 0.093299, -0.141141, 0.070606, -0.008918, 0.122796, -0.112695, -0.171390, -0.119677, 0.070766, 0.071206, -0.325666, 0.047715, 0.141056, -0.164718, -0.069205, 0.081059, -0.202294, -0.028783, -0.078843, 0.118265, 0.226019, 0.010293}, {-0.056641, -0.077600, 0.040002, 0.038119, -0.081805, -0.013333, 0.016231, 0.026591, -0.134866, -0.341728, 0.075072, 0.067797, 0.337455, -0.168308, 0.056024, -0.356617, 0.305240, -0.104103, 0.203049, -0.089653, -0.037024, -0.023203, 0.390737, -0.006602, 0.159121, -0.157664, -0.042315, -0.040883, 0.054140, 0.008256, 0.103993, 0.170686, 0.058777, -0.009700, -0.396723, -0.061255, -0.380255, 0.092103, -0.083184, -0.007660}, {0.190095, 0.146730, 0.089787, -0.050994, -0.007492, 0.019118, -0.209332, -0.158275, 0.329626, 0.202141, 0.028260, -0.041110, -0.225177, 0.411987, -0.115974, 0.246706, -0.283321, -0.028826, -0.242136, -0.063464, 0.051318, 0.050207, -0.257084, 0.128480, -0.012772, 0.152019, 0.052796, 0.051483, -0.101466, 0.058976, 0.035361, -0.023887, -0.059364, 0.030728, 0.316781, 0.102741, 0.314034, 0.017674, 0.146930, -0.079970}, {-0.099715, -0.011478, -0.088417, -0.102655, 0.034227, 0.167708, -0.011179, 0.479729, -0.086989, -0.243111, -0.158797, -0.134242, 0.254091, -0.074876, -0.004942, -0.235856, -0.056338, 0.249592, -0.037922, 0.179189, 0.101362, -0.015620, 0.226777, -0.455224, -0.256556, -0.249607, 0.103821, 0.104397, 0.017863, 0.048306, -0.184481, -0.271608, -0.109019, -0.124862, -0.147581, -0.151433, -0.166819, -0.140183, 0.006557, 0.180421}, {0.254805, 0.398248, 0.282172, 0.080525, -0.303231, 0.025263, -0.179953, -0.207858, 0.229247, 0.029075, 0.086868, 0.087795, 0.033732, 0.216161, -0.390800, -0.075439, 0.191518, -0.063324, 0.199356, 0.048608, -0.080633, -0.012914, -0.038559, 0.171444, 0.066476, 0.066654, -0.081602, -0.081361, -0.379061, -0.068398, -0.053702, 0.080379, 0.083892, -0.021655, -0.163356, 0.031352, 0.037821, -0.113427, 0.336556, -0.131766}, {0.000000, -0.000000, 0.000000, -0.000000, 0.000000, -0.000000, -0.000000, -0.000000, 0.000000, 0.000000, 0.000000, 0.000000, -0.000000, 0.000000, 0.000000, -0.000000, -0.000000, -0.000000, -0.000000, -0.000000, 0.000000, 0.000000, 0.000000, -0.000000, 0.000000, 0.000000, 0.000000, 0.000000, -0.000000, 0.000000, -0.000000, 0.000000, -0.000000, 0.000000, 0.000000, -0.000000, 0.000000, -0.000000, -0.000000, -0.000000}, {0.000000, 0.000000, -0.000000, 0.000000, 0.000000, 0.000000, 0.000000, -0.000000, -0.000000, -0.000000, 0.000000, 0.000000, -0.000000, -0.000000, -0.000000, -0.000000, -0.000000, -0.000000, 0.000000, 0.000000, -0.000000, 0.000000, -0.000000, 0.000000, 0.000000, -0.000000, -0.000000, -0.000000, -0.000000, 0.000000, -0.000000, 0.000000, 0.000000, 0.000000, -0.000000, 0.000000, 0.000000, -0.000000, -0.000000, -0.000000}, {0.000000, 0.000000, -0.000000, 0.000000, -0.000000, -0.000000, -0.000000, 0.000000, -0.000000, -0.000000, -0.000000, -0.000000, 0.000000, 0.000000, -0.000000, 0.000000, 0.000000, -0.000000, -0.000000, 0.000000, 0.000000, -0.000000, -0.000000, 0.000000, -0.000000, 0.000000, 0.000000, -0.000000, 0.000000, -0.000000, -0.000000, 0.000000, -0.000000, -0.000000, 0.000000, -0.000000, -0.000000, -0.000000, -0.000000, -0.000000}, {-0.000000, -0.000000, 0.000000, -0.000000, -0.000000, -0.000000, -0.000000, 0.000000, -0.000000, -0.000000, -0.000000, 0.000000, -0.000000, -0.000000, -0.000000, 0.000000, -0.000000, 0.000000, -0.000000, 0.000000, -0.000000, 0.000000, 0.000000, -0.000000, -0.000000, -0.000000, -0.000000, -0.000000, -0.000000, -0.000000, 0.000000, -0.000000, 0.000000, -0.000000, 0.000000, -0.000000, -0.000000, -0.000000, -0.000000, -0.000000}, {0.063464, 0.070562, 0.070959, -0.536697, -0.046273, -0.156834, -0.054488, 0.224412, 0.131189, -0.286583, -0.158561, -0.495784, 0.287279, 0.163514, -0.085673, -0.260119, 0.115468, 0.120625, 0.219464, 0.240308, 0.536770, -0.047814, 0.193031, -0.236699, -0.068259, -0.373122, 0.531857, 0.533097, -0.035779, 0.530708, -0.227377, -0.027224, -0.514692, -0.045329, -0.186718, -0.294522, -0.032483, -0.269925, 0.094676, 0.296758}, {0.163415, -0.091862, 0.174741, 0.018753, 0.197325, -0.028754, -0.207126, 0.245828, 0.111041, 0.071563, 0.028840, 0.040112, -0.011938, 0.089031, 0.093180, -0.010545, 0.115268, 0.056645, 0.261196, -0.216908, -0.018433, -0.041651, -0.045682, -0.202646, -0.090497, 0.062396, -0.020939, -0.020490, 0.135217, 0.014455, 0.239794, -0.113730, 0.029587, 0.046772, -0.072771, -0.298366, 0.041957, 0.155059, -0.095177, -0.118914}, {-0.242007, -0.102318, -0.242018, 0.117669, -0.106734, -0.028149, 0.035467, -0.168852, -0.242343, -0.027615, 0.152490, 0.138669, -0.039814, -0.246471, 0.097952, 0.039520, 0.012468, -0.205980, 0.069336, -0.311665, -0.115942, -0.058258, 0.066753, 0.176997, 0.197500, 0.106957, -0.118918, -0.118114, 0.044369, -0.088480, 0.315021, 0.168410, 0.128316, 0.058470, 0.013485, 0.006331, -0.133667, 0.372318, -0.134408, -0.134184}, {0.128439, 0.342278, 0.127557, -0.012780, -0.157491, -0.009581, -0.053132, 0.018917, 0.145286, 0.024212, -0.074199, -0.033127, 0.046326, 0.162923, -0.320030, -0.059690, 0.118310, 0.191719, 0.210290, 0.130131, 0.011477, 0.145850, -0.079150, -0.071615, -0.261678, -0.019872, 0.014562, 0.014162, -0.352937, -0.029272, -0.121250, -0.293511, -0.022599, 0.009753, -0.078340, 0.099557, 0.133381, -0.147414, 0.273362, -0.018660}, {-0.000000, 0.000000, 0.000000, 0.000000, 0.000000, -0.000000, -0.000000, -0.000000, -0.000000, -0.000000, -0.000000, 0.000000, -0.000000, 0.000000, 0.000000, -0.000000, 0.000000, 0.000000, -0.000000, -0.000000, 0.000000, 0.000000, -0.000000, -0.000000, -0.000000, 0.000000, 0.000000, -0.000000, -0.000000, -0.000000, -0.000000, 0.000000, -0.000000, 0.000000, 0.000000, 0.000000, -0.000000, 0.000000, 0.000000, 0.000000}, {0.206898, 0.227408, 0.210139, -0.058273, 0.032343, -0.054093, 0.057082, 0.013030, 0.247406, 0.082841, -0.056014, -0.056087, -0.021771, 0.290904, -0.193951, 0.008279, 0.209000, 0.135514, 0.232676, 0.135863, 0.057012, 0.287306, -0.120258, -0.033358, -0.195322, 0.026767, 0.058959, 0.057915, -0.187162, 0.042749, -0.102410, -0.212330, -0.063915, 0.081045, -0.052605, 0.208040, 0.181587, -0.179171, 0.193252, -0.034293}, {-0.177100, 0.005640, -0.254351, -0.409353, 0.052468, -0.046080, 0.239921, -0.010935, -0.007777, 0.032908, -0.128880, -0.408987, -0.090328, 0.093820, 0.000638, 0.139482, -0.247257, 0.095676, -0.204737, 0.175423, 0.408970, 0.054002, -0.131669, -0.030709, -0.102140, -0.105663, 0.413462, 0.411292, 0.002206, 0.348543, -0.176648, -0.086238, -0.426329, -0.066409, 0.242088, 0.169769, 0.238614, -0.135058, 0.020386, 0.275183}, {0.000000, -0.000000, -0.000000, 0.000000, 0.000000, -0.000000, 0.000000, 0.000000, 0.000000, 0.000000, -0.000000, 0.000000, 0.000000, -0.000000, 0.000000, 0.000000, 0.000000, -0.000000, -0.000000, -0.000000, -0.000000, -0.000000, -0.000000, 0.000000, -0.000000, 0.000000, 0.000000, 0.000000, -0.000000, -0.000000, -0.000000, -0.000000, -0.000000, -0.000000, -0.000000, 0.000000, 0.000000, -0.000000, -0.000000, -0.000000}, {-0.171047, 0.090179, -0.168152, -0.041492, -0.200389, 0.120813, 0.108544, 0.055173, -0.154572, -0.286715, -0.053486, -0.042924, 0.289396, -0.138908, -0.105367, -0.281952, 0.067366, 0.115565, -0.114393, -0.127775, 0.041487, -0.073050, 0.298807, -0.086991, -0.092578, -0.189285, 0.041091, 0.041651, -0.143815, 0.027914, 0.126863, -0.086313, -0.038223, -0.065017, -0.210031, 0.076679, -0.265800, 0.143629, 0.065601, 0.085877}, {0.000000, -0.000000, 0.000000, 0.000000, 0.000000, 0.000000, -0.000000, 0.000000, 0.000000, -0.000000, 0.000000, -0.000000, -0.000000, 0.000000, 0.000000, 0.000000, 0.000000, -0.000000, -0.000000, -0.000000, -0.000000, 0.000000, -0.000000, -0.000000, -0.000000, -0.000000, 0.000000, 0.000000, -0.000000, 0.000000, 0.000000, -0.000000, -0.000000, 0.000000, -0.000000, 0.000000, -0.000000, 0.000000, -0.000000, 0.000000}, {-0.143002, 0.076534, -0.119795, -0.024631, -0.012040, -0.181091, 0.154117, 0.308271, -0.139445, -0.126797, -0.181684, -0.062619, 0.199360, -0.118733, -0.083410, -0.206355, 0.187551, 0.287002, 0.261188, 0.153865, 0.022900, 0.066917, 0.102710, -0.308792, -0.344339, -0.169856, 0.026577, 0.026786, -0.105817, -0.041570, -0.132182, -0.388138, -0.034791, 0.045413, -0.219370, -0.072882, -0.064300, -0.105033, 0.056476, 0.121877}, {0.000000, -0.000000, 0.000000, -0.000000, -0.000000, -0.000000, 0.000000, 0.000000, -0.000000, 0.000000, 0.000000, 0.000000, 0.000000, -0.000000, 0.000000, -0.000000, -0.000000, -0.000000, -0.000000, 0.000000, 0.000000, 0.000000, -0.000000, 0.000000, -0.000000, -0.000000, 0.000000, -0.000000, 0.000000, 0.000000, 0.000000, -0.000000, -0.000000, 0.000000, 0.000000, 0.000000, -0.000000, -0.000000, 0.000000, -0.000000}, {-0.000000, -0.000000, 0.000000, -0.000000, -0.000000, 0.000000, 0.000000, 0.000000, 0.000000, -0.000000, 0.000000, -0.000000, 0.000000, 0.000000, 0.000000, -0.000000, -0.000000, -0.000000, -0.000000, -0.000000, 0.000000, -0.000000, -0.000000, -0.000000, 0.000000, 0.000000, 0.000000, -0.000000, 0.000000, 0.000000, -0.000000, -0.000000, -0.000000, -0.000000, -0.000000, 0.000000, -0.000000, -0.000000, 0.000000, 0.000000}, {-0.075551, 0.285328, -0.120163, -0.103218, -0.295587, -0.005157, 0.086696, -0.293782, 0.019819, -0.041927, -0.064273, -0.119599, -0.013259, 0.071718, -0.267098, 0.062374, -0.139818, 0.085798, -0.177012, 0.006888, 0.102708, 0.174690, -0.031910, 0.148300, -0.105128, -0.060982, 0.105891, 0.105341, -0.319249, 0.054943, -0.018108, -0.097805, -0.114823, 0.019384, 0.195619, 0.402573, 0.065989, 0.007852, 0.234766, 0.055735}, {-0.042158, 0.220730, -0.063830, -0.092882, -0.298277, -0.022345, -0.188598, 0.066483, -0.031795, -0.167019, -0.059338, -0.079740, 0.232352, -0.019258, -0.228713, -0.250929, 0.033929, 0.129965, 0.045395, -0.283837, 0.093350, -0.155224, 0.156162, -0.103081, -0.110169, -0.107190, 0.091794, 0.092402, -0.261964, 0.093859, 0.278929, -0.097141, -0.085342, 0.059171, -0.192912, -0.142569, -0.123071, 0.246707, 0.177091, -0.012237}, {0.000000, 0.000000, -0.000000, 0.000000, 0.000000, -0.000000, 0.000000, -0.000000, -0.000000, -0.000000, 0.000000, 0.000000, -0.000000, 0.000000, 0.000000, 0.000000, 0.000000, 0.000000, 0.000000, -0.000000, -0.000000, 0.000000, 0.000000, -0.000000, 0.000000, 0.000000, 0.000000, -0.000000, -0.000000, -0.000000, -0.000000, -0.000000, -0.000000, 0.000000, -0.000000, -0.000000, 0.000000, -0.000000, 0.000000, -0.000000}, {0.088333, 0.072985, 0.042176, -0.427334, -0.058993, -0.035650, -0.118976, 0.038516, 0.157105, -0.060228, -0.020312, -0.330181, 0.054760, 0.196399, -0.068859, -0.055193, 0.067949, -0.007490, 0.033132, -0.231282, 0.428926, 0.034834, 0.052124, -0.042928, 0.085127, -0.047010, 0.423609, 0.422871, -0.046629, 0.449731, 0.243462, 0.122396, -0.401991, 0.127076, -0.051990, 0.000183, -0.030983, 0.179939, 0.090823, -0.027791}, {-0.000000, 0.000000, -0.000000, -0.000000, 0.000000, 0.000000, 0.000000, -0.000000, 0.000000, 0.000000, -0.000000, -0.000000, -0.000000, -0.000000, 0.000000, 0.000000, -0.000000, 0.000000, -0.000000, 0.000000, 0.000000, 0.000000, -0.000000, 0.000000, -0.000000, 0.000000, 0.000000, 0.000000, -0.000000, 0.000000, -0.000000, 0.000000, -0.000000, 0.000000, 0.000000, -0.000000, 0.000000, -0.000000, -0.000000, -0.000000}, {-0.000000, 0.000000, -0.000000, -0.000000, 0.000000, 0.000000, 0.000000, 0.000000, -0.000000, -0.000000, -0.000000, -0.000000, -0.000000, -0.000000, 0.000000, -0.000000, 0.000000, 0.000000, -0.000000, -0.000000, 0.000000, 0.000000, -0.000000, -0.000000, 0.000000, -0.000000, -0.000000, 0.000000, -0.000000, 0.000000, 0.000000, -0.000000, 0.000000, 0.000000, 0.000000, 0.000000, -0.000000, 0.000000, -0.000000, -0.000000}, {0.353163, -0.019118, 0.381900, 0.261691, 0.012195, -0.034822, -0.151706, -0.148450, 0.240527, 0.155207, 0.305642, 0.330551, -0.093673, 0.144108, 0.035713, 0.042493, 0.146474, -0.342594, -0.092776, 0.187096, -0.260187, 0.358446, -0.077125, 0.192739, 0.367758, 0.266074, -0.268718, -0.267623, 0.025865, -0.175272, -0.200294, 0.342619, 0.293450, 0.310387, -0.063488, 0.168410, -0.001817, -0.198292, -0.036143, -0.303529}, {0.199272, 0.084355, 0.221038, -0.276558, -0.165147, 0.142063, -0.246429, 0.056666, 0.215118, -0.235378, -0.049964, -0.248345, 0.248167, 0.197703, -0.122884, -0.238995, -0.287342, -0.002825, -0.216665, 0.307258, 0.277333, -0.527189, 0.215201, -0.078300, 0.081689, -0.230933, 0.272084, 0.273292, -0.035810, 0.331341, -0.370754, 0.131927, -0.260349, -0.376020, -0.091544, -0.429729, -0.153631, -0.394670, 0.143187, 0.156833}, {-0.000000, -0.000000, -0.000000, -0.000000, 0.000000, -0.000000, 0.000000, 0.000000, 0.000000, 0.000000, -0.000000, -0.000000, -0.000000, 0.000000, 0.000000, 0.000000, -0.000000, 0.000000, 0.000000, -0.000000, -0.000000, -0.000000, -0.000000, -0.000000, -0.000000, -0.000000, 0.000000, -0.000000, -0.000000, 0.000000, -0.000000, -0.000000, -0.000000, 0.000000, -0.000000, -0.000000, -0.000000, -0.000000, -0.000000, 0.000000}, {-0.000000, 0.000000, -0.000000, -0.000000, 0.000000, 0.000000, -0.000000, 0.000000, -0.000000, 0.000000, 0.000000, 0.000000, 0.000000, 0.000000, -0.000000, 0.000000, 0.000000, -0.000000, -0.000000, -0.000000, -0.000000, 0.000000, -0.000000, 0.000000, 0.000000, 0.000000, -0.000000, -0.000000, 0.000000, -0.000000, -0.000000, 0.000000, -0.000000, -0.000000, -0.000000, -0.000000, 0.000000, -0.000000, 0.000000, 0.000000}, {-0.050108, 0.352972, -0.063944, 0.024278, -0.411864, 0.007004, -0.059907, -0.200375, -0.040459, -0.065851, -0.004254, 0.014667, 0.080380, -0.020889, -0.339187, -0.082359, 0.027108, 0.099562, -0.012498, -0.238935, -0.024541, 0.039189, 0.046435, 0.090555, -0.126739, -0.008987, -0.022737, -0.022753, -0.429485, -0.060942, 0.234213, -0.138227, 0.019062, 0.036360, -0.045572, 0.234396, -0.051751, 0.226394, 0.258820, -0.072609}, {0.046547, -0.051395, 0.111211, 0.339203, 0.146700, -0.176150, 0.411967, -0.287631, -0.022953, 0.402846, 0.267655, 0.339954, -0.372771, -0.046912, 0.107512, 0.337861, 0.228418, -0.294037, 0.188236, 0.159783, -0.339791, 0.651102, -0.347016, 0.321411, 0.235612, 0.381859, -0.339273, -0.339787, 0.010689, -0.337347, -0.108813, 0.195288, 0.337432, 0.322078, 0.133711, 0.491037, 0.242674, -0.095427, -0.170890, -0.254183}};
static const float * p_layer_3_weight = layer_3_weight;
static const float layer_3_bias[40] = {-0.051951, -0.065468, -0.053458, 0.079098, 0.076580, 0.016508, 0.072349, 0.009275, -0.056840, 0.057552, -0.003137, 0.053752, -0.082389, -0.060782, 0.067249, 0.086656, -0.061300, 0.012205, -0.060480, 0.040229, -0.079251, -0.034444, -0.056205, -0.001423, -0.099752, 0.032483, -0.077044, -0.077372, 0.064174, -0.080405, -0.043212, -0.241252, 0.068641, -0.037648, 0.081373, 0.010220, 0.040745, -0.023678, -0.056263, 0.017076};
static const float * p_layer_3_bias = layer_3_bias;
    
static float sigmoid(float num) {
    return 1.0f / (1.0f + expf(-num));
}

static float step(float num) {
    if (num < 0) {
        return 0;
    }
    return 1;
}

static float relu(float num) {
    if (num > 0) {
        return num;
    } else {
        return 0;
    }
}

static float linear(float num) {
    return num;
}

static void layer(const float * in, const float * layer_weight, const float * layer_bias,   
            int row, int col, float * output, int use_activation) {
    int ii;
    int jj;
    const float * p;

    for(ii = 0; ii < col; ii++) {
        p = layer_weight + ii;
        output[ii] = 0;
        for (jj = 0; jj < row; jj++) {
            output[ii] += in[jj] * (*p); 
            p += col;
        }
        output[ii] += layer_bias[ii];
        
        if (use_activation == 1) {
			output[ii] = relu(output[ii]);
        }
    }
}

const float* nn_phi_2(const float* input) {
	layer(input, p_layer_0_weight, p_layer_0_bias, STRUCTURE[0][0], STRUCTURE[0][1], output_0, 1);
	layer(output_0, p_layer_1_weight, p_layer_1_bias, STRUCTURE[1][0], STRUCTURE[1][1], output_1, 1);
	layer(output_1, p_layer_2_weight, p_layer_2_bias, STRUCTURE[2][0], STRUCTURE[2][1], output_2, 1);
	layer(output_2, p_layer_3_weight, p_layer_3_bias, STRUCTURE[3][0], STRUCTURE[3][1], output_3, 0);

	return output_3;
}
