/*
 * FILE: generated.c
 */

#include <stdio.h>
#include <stdlib.h>
#include <string.h>
#include <math.h>
#include "phi_0827_2.h"

static const int STRUCTURE[4][2] = {{3, 25}, {25, 40}, {40, 40}, {40, 40}};
static float output_0[25];
static float output_1[40];
static float output_2[40];
static float output_3[40];
static const float layer_0_weight[3][25] = {{0.000013, -1.524173, -0.000006, -0.000002, -0.162575, -1.789609, 0.377083, 1.298935, -0.794012, -0.000003, -1.274328, 0.364824, 0.725248, -0.411940, -0.934689, -0.000011, 0.000001, 0.729465, 0.127867, 0.769990, 1.638980, -0.368009, -0.000008, 0.000007, -0.678876}, {0.000003, -0.495333, 0.000010, -0.000007, -0.972695, -0.301128, -1.005052, -0.260752, -0.160111, -0.000004, 0.690977, 0.915322, -0.233504, -0.297328, 0.542019, 0.000001, -0.000011, -0.240038, 0.876971, -1.181770, 0.797317, -0.184785, -0.000003, -0.000011, -0.291968}, {-0.000006, -0.003906, 0.000001, -0.000001, -0.261647, -0.060154, -0.017371, -0.071688, 0.459101, 0.000002, 0.365100, -0.156985, -0.681616, -0.327396, -0.144737, -0.000011, 0.000007, -0.647199, -0.238597, 0.196263, 0.036252, 0.571051, 0.000005, -0.000004, 0.264133}};
static float * p_layer_0_weight = layer_0_weight;
static const float layer_0_bias[25] = {-0.398592, -0.010059, -0.245541, -0.459526, 0.058493, -0.012800, -0.084510, -0.043200, -0.126581, -0.178599, -0.129022, 0.010887, -0.014503, -0.187727, 0.003478, -0.366600, -0.485897, -0.010588, 0.048462, -0.056607, -0.022990, -0.150810, -0.344915, -0.367346, -0.103295};
static float * p_layer_0_bias = layer_0_bias;
static const float layer_1_weight[25][40] = {{0.000000, 0.000000, -0.000000, 0.000000, -0.000000, -0.000000, -0.000000, -0.000000, 0.000000, -0.000000, 0.000000, -0.000000, 0.000000, -0.000000, 0.000000, -0.000000, -0.000000, 0.000000, 0.000000, -0.000000, 0.000000, 0.000000, 0.000000, 0.000000, 0.000000, -0.000000, -0.000000, -0.000000, 0.000000, -0.000000, 0.000000, 0.000000, -0.000000, 0.000000, -0.000000, -0.000000, 0.000000, -0.000000, 0.000000, -0.000000}, {-0.000000, 0.000000, 0.000000, -0.000000, -0.295796, -0.340454, 0.150080, -0.309756, 0.207726, 0.000000, -0.011355, -0.000000, -0.000000, -0.000000, 0.000000, 0.000000, -0.000000, -0.000000, 0.030354, -0.000000, 0.426095, 0.000000, -0.338954, -0.000000, -0.319507, 0.207384, -0.000000, -0.000000, -0.000000, -0.000000, 0.000000, 0.126477, -0.000000, -0.000000, 0.000000, 0.000000, -0.000000, -0.300887, -0.000000, 0.130158}, {0.000000, -0.000000, 0.000000, 0.000000, -0.000000, 0.000000, -0.000000, 0.000000, -0.000000, -0.000000, -0.000000, -0.000000, -0.000000, 0.000000, -0.000000, -0.000000, 0.000000, 0.000000, 0.000000, 0.000000, 0.000000, 0.000000, -0.000000, -0.000000, -0.000000, -0.000000, 0.000000, 0.000000, -0.000000, 0.000000, -0.000000, 0.000000, 0.000000, -0.000000, -0.000000, 0.000000, 0.000000, 0.000000, 0.000000, -0.000000}, {0.000000, -0.000000, -0.000000, 0.000000, -0.000000, -0.000000, -0.000000, 0.000000, 0.000000, 0.000000, -0.000000, 0.000000, 0.000000, 0.000000, -0.000000, -0.000000, -0.000000, 0.000000, 0.000000, -0.000000, 0.000000, 0.000000, -0.000000, -0.000000, -0.000000, -0.000000, 0.000000, -0.000000, 0.000000, 0.000000, 0.000000, 0.000000, -0.000000, 0.000000, 0.000000, -0.000000, -0.000000, -0.000000, 0.000000, -0.000000}, {0.000000, 0.000000, -0.000000, -0.000000, -0.349259, -0.786528, -0.005302, -0.292503, 0.013261, -0.000000, -0.567885, 0.000000, -0.000000, 0.000000, -0.000000, -0.000000, -0.000000, -0.000000, -0.024049, 0.000000, 0.231786, 0.000000, -0.544646, -0.000000, -0.524505, -0.131256, -0.000000, -0.000000, -0.000000, -0.000000, 0.000000, 0.382031, -0.000000, -0.000000, -0.000000, -0.000000, 0.000000, -0.558147, 0.000000, -0.420215}, {0.000000, -0.000001, 0.000000, 0.000000, -0.472155, -0.033637, 0.161462, -0.489608, 0.247397, -0.000000, 0.075398, -0.000000, -0.000000, -0.000000, 0.000000, -0.000000, -0.000000, 0.000000, 0.036272, 0.000000, 0.828994, -0.000000, -0.620107, -0.000000, -0.603973, 0.265655, -0.000000, 0.000000, 0.000000, -0.000000, 0.000000, 0.098412, -0.000000, 0.000000, -0.000000, -0.000000, 0.000000, -0.595972, -0.000000, 0.165411}, {-0.000000, -0.000000, -0.000000, 0.000000, -0.478620, -0.356470, -0.057841, -0.473450, -0.050435, -0.000000, -0.294625, -0.000000, -0.000000, -0.000000, -0.000000, -0.000000, -0.000000, -0.000000, 0.009221, -0.000000, 0.143260, 0.000000, -1.109199, -0.000000, -1.099388, -0.125570, -0.000000, 0.000000, -0.000000, -0.000000, -0.000000, 0.642972, -0.000000, -0.000000, 0.000000, 0.000000, -0.000000, -1.227038, -0.000000, 0.230288}, {-0.000000, -0.000000, -0.000000, 0.000000, -0.243775, 0.283962, -0.077819, -0.343763, -0.405190, -0.000000, -0.732901, -0.000000, 0.000000, -0.000000, -0.000000, -0.000000, -0.000000, -0.000000, -0.094892, -0.000000, 0.536739, -0.000000, 0.290755, -0.000000, 0.270265, 0.048079, -0.000000, 0.000000, -0.000000, -0.000000, -0.000000, 0.207940, -0.000000, -0.000000, -0.000000, -0.000000, 0.000000, 0.406628, -0.000000, -0.355965}, {0.000000, -0.000001, 0.000000, 0.000000, -0.010598, -0.365711, -0.747080, -0.020137, -1.107954, -0.000000, -0.601550, -0.000000, 0.000000, -0.000000, -0.000000, -0.000000, -0.000000, -0.000000, -0.322146, -0.000000, 0.025847, -0.000000, -0.081623, -0.000000, -0.069744, -0.737204, -0.000000, 0.000000, -0.000000, 0.000000, 0.000000, -0.213406, -0.000000, -0.000000, -0.000000, -0.000000, -0.000000, -0.076869, -0.000000, -0.246826}, {-0.000000, -0.000000, 0.000000, 0.000000, -0.000000, 0.000000, -0.000000, -0.000000, -0.000000, -0.000000, 0.000000, -0.000000, 0.000000, -0.000000, 0.000000, -0.000000, -0.000000, 0.000000, 0.000000, -0.000000, -0.000000, 0.000000, 0.000000, -0.000000, 0.000000, -0.000000, -0.000000, 0.000000, -0.000000, 0.000000, 0.000000, -0.000000, -0.000000, -0.000000, 0.000000, 0.000000, 0.000000, 0.000000, 0.000000, -0.000000}, {0.000000, -0.000000, -0.000000, -0.000000, -0.415677, -1.294921, 0.290217, -0.372793, -0.131963, -0.000000, -0.553895, 0.000000, -0.000000, -0.000000, -0.000000, -0.000000, -0.000000, 0.000000, -0.013995, 0.000000, 0.453627, 0.000000, -0.006538, -0.000000, -0.017551, -0.419239, -0.000000, 0.000000, -0.000000, -0.000000, -0.000000, 0.272420, 0.000000, -0.000000, 0.000000, 0.000000, -0.000000, -0.146218, -0.000000, -0.568423}, {-0.000000, -0.000000, -0.000000, -0.000000, -0.452691, -0.100165, -0.143275, -0.323068, -0.050127, 0.000000, -0.053646, -0.000000, -0.000000, -0.000000, 0.000000, -0.000000, 0.000000, -0.000000, 0.009950, -0.000000, 0.114121, -0.000000, -0.360572, -0.000000, -0.378206, 0.390156, -0.000000, -0.000000, -0.000000, -0.000000, 0.000000, 0.544346, -0.000000, -0.000000, 0.000000, -0.000000, -0.000000, -0.288047, 0.000000, -0.431047}, {-0.000000, 0.000000, 0.000000, 0.000000, -0.173273, -0.400266, -0.428943, -0.241916, -0.221193, 0.000000, -0.391170, -0.000000, -0.000000, 0.000000, -0.000000, -0.000000, -0.000000, -0.000000, -0.102188, -0.000000, 0.076042, -0.000000, -0.166899, -0.000000, -0.178922, 0.155159, -0.000000, -0.000000, -0.000000, -0.000000, 0.000000, 0.141635, -0.000000, -0.000000, -0.000000, 0.000000, -0.000000, -0.231635, 0.000000, -0.223185}, {0.000000, -0.000000, -0.000000, 0.000000, 0.000000, -0.025974, -0.425642, -0.048950, -0.153849, 0.000000, -0.015292, -0.000000, 0.000000, 0.000000, 0.000000, -0.000000, -0.000000, 0.000000, -0.020340, -0.000000, 0.168097, -0.000000, 0.000000, -0.000000, 0.000000, -0.022171, -0.000000, -0.000000, -0.000000, -0.000000, -0.000000, 0.236187, -0.000000, -0.000000, -0.000000, -0.000000, 0.000000, -0.000000, 0.000000, -0.041785}, {0.000000, -0.000000, -0.000000, -0.000000, -0.154929, 0.314507, 0.015735, -0.344804, 0.202471, -0.000000, -0.392689, -0.000000, -0.000000, 0.000000, -0.000000, -0.000000, -0.000000, 0.000000, 0.007933, -0.000000, 0.320349, -0.000000, -0.157033, -0.000000, -0.176098, 0.262014, -0.000000, -0.000000, 0.000000, -0.000000, -0.000000, 0.251910, -0.000000, -0.000000, -0.000000, 0.000000, 0.000000, -0.119291, -0.000000, 0.188311}, {-0.000000, -0.000000, 0.000000, -0.000000, 0.000000, -0.000000, 0.000000, 0.000000, -0.000000, -0.000000, -0.000000, 0.000000, -0.000000, 0.000000, -0.000000, -0.000000, 0.000000, -0.000000, 0.000000, -0.000000, -0.000000, -0.000000, -0.000000, 0.000000, 0.000000, 0.000000, 0.000000, -0.000000, 0.000000, -0.000000, -0.000000, -0.000000, -0.000000, -0.000000, 0.000000, -0.000000, 0.000000, -0.000000, -0.000000, -0.000000}, {-0.000000, -0.000000, 0.000000, 0.000000, 0.000000, 0.000000, 0.000000, 0.000000, -0.000000, -0.000000, 0.000000, -0.000000, 0.000000, -0.000000, -0.000000, -0.000000, 0.000000, -0.000000, 0.000000, -0.000000, -0.000000, 0.000000, 0.000000, 0.000000, -0.000000, 0.000000, -0.000000, 0.000000, 0.000000, -0.000000, -0.000000, -0.000000, -0.000000, 0.000000, -0.000000, -0.000000, 0.000000, 0.000000, 0.000000, -0.000000}, {0.000000, -0.000000, 0.000000, 0.000000, -0.164851, -0.359475, -0.413188, -0.230230, -0.187969, 0.000000, -0.349094, -0.000000, -0.000000, 0.000000, 0.000000, -0.000000, -0.000000, -0.000000, -0.054036, -0.000000, 0.059625, -0.000000, -0.169988, -0.000000, -0.140160, 0.143741, -0.000000, 0.000000, -0.000000, -0.000000, -0.000000, 0.129076, -0.000000, -0.000000, 0.000000, 0.000000, -0.000000, -0.310779, 0.000000, -0.167975}, {0.000000, 0.000000, 0.000000, 0.000000, -0.421612, 0.011796, -0.165423, -0.329420, 0.128924, -0.000000, -0.068421, -0.000000, 0.000000, -0.000000, 0.000000, -0.000000, -0.000000, -0.000000, -0.010664, -0.000000, 0.054805, -0.000000, -0.311997, -0.000000, -0.333268, 0.389729, -0.000000, -0.000000, -0.000000, -0.000000, -0.000000, 0.455444, -0.000000, -0.000000, -0.000000, -0.000000, -0.000000, -0.303924, -0.000000, -0.310697}, {-0.000000, -0.000001, -0.000000, -0.000000, -0.254290, 0.162635, -0.001564, -0.261400, -0.257925, 0.000000, -1.090652, -0.000000, -0.000000, 0.000000, 0.000000, -0.000000, -0.000000, -0.000000, -0.095537, -0.000000, 0.100876, -0.000000, -0.086554, -0.000000, -0.085354, -0.848440, 0.000000, 0.000000, -0.000000, -0.000000, -0.000000, 0.243596, -0.000000, -0.000000, 0.000000, -0.000000, -0.000000, -0.082522, 0.000000, -1.271689}, {-0.000000, -0.000001, 0.000000, 0.000000, -0.907896, -0.332222, -0.324345, -0.900359, -0.387361, 0.000000, 0.233679, -0.000000, 0.000000, 0.000000, -0.000000, 0.000000, -0.000000, -0.000000, -0.113770, -0.000000, -0.055850, -0.000000, -0.305679, -0.000000, -0.301150, 0.357330, -0.000000, 0.000000, -0.000000, -0.000000, -0.000000, 0.334006, -0.000000, -0.000000, -0.000000, -0.000000, -0.000000, -0.200590, -0.000000, -0.217583}, {-0.000000, -0.000000, 0.000000, -0.000000, -0.016294, -0.315868, -0.882369, -0.028690, -0.477604, 0.000000, -0.456077, -0.000000, 0.000000, 0.000000, 0.000000, 0.000000, -0.000000, 0.000000, -0.071807, -0.000000, -0.155744, -0.000000, -0.162305, -0.000000, -0.148784, -0.668652, -0.000000, 0.000000, -0.000000, -0.000000, -0.000000, -0.340584, -0.000000, -0.000000, 0.000000, -0.000000, -0.000000, -0.154826, 0.000000, -0.238461}, {-0.000000, -0.000000, 0.000000, -0.000000, 0.000000, 0.000000, -0.000000, 0.000000, 0.000000, 0.000000, 0.000000, 0.000000, 0.000000, 0.000000, 0.000000, -0.000000, -0.000000, -0.000000, -0.000000, -0.000000, 0.000000, -0.000000, -0.000000, 0.000000, -0.000000, 0.000000, -0.000000, -0.000000, 0.000000, 0.000000, 0.000000, -0.000000, 0.000000, -0.000000, 0.000000, -0.000000, 0.000000, 0.000000, -0.000000, -0.000000}, {0.000000, -0.000000, 0.000000, -0.000000, -0.000000, 0.000000, -0.000000, 0.000000, 0.000000, 0.000000, -0.000000, -0.000000, -0.000000, -0.000000, 0.000000, 0.000000, 0.000000, -0.000000, 0.000000, 0.000000, 0.000000, 0.000000, -0.000000, 0.000000, -0.000000, -0.000000, 0.000000, 0.000000, -0.000000, 0.000000, -0.000000, 0.000000, -0.000000, -0.000000, 0.000000, 0.000000, -0.000000, -0.000000, -0.000000, -0.000000}, {0.000000, -0.000000, 0.000000, 0.000000, -0.098125, -0.085751, -0.963068, -0.067290, -1.090724, -0.000000, -0.300167, -0.000000, -0.000000, 0.000000, -0.000000, -0.000000, -0.000000, -0.000000, -0.269261, -0.000000, 0.099470, -0.000000, -0.040142, -0.000000, -0.057478, -0.652846, 0.000000, 0.000000, -0.000000, -0.000000, -0.000000, 0.336042, -0.000000, -0.000000, -0.000000, -0.000000, -0.000000, -0.034221, -0.000000, -0.796336}};
static float * p_layer_1_weight = layer_1_weight;
static const float layer_1_bias[40] = {-0.089779, -0.048039, -0.164406, -0.155679, 0.136518, 0.138190, 0.155474, 0.133900, -0.010786, -0.221345, 0.087964, -0.053660, -0.168290, -0.216302, -0.074129, -0.076600, -0.052459, -0.014799, -0.105615, -0.033871, -0.062296, -0.047161, 0.129208, -0.084016, 0.131931, 0.019015, -0.081501, -0.078583, -0.018456, -0.034569, -0.187476, -0.078922, -0.010709, -0.014677, -0.063787, -0.170022, -0.036257, 0.121236, -0.198496, 0.082133};
static float * p_layer_1_bias = layer_1_bias;
static const float layer_2_weight[40][40] = {{-0.000000, 0.000000, 0.000000, -0.000000, 0.000000, 0.000000, -0.000000, -0.000000, 0.000000, 0.000000, 0.000000, 0.000000, -0.000000, 0.000000, 0.000000, -0.000000, -0.000000, 0.000000, -0.000000, 0.000000, 0.000000, -0.000000, 0.000000, 0.000000, -0.000000, 0.000000, -0.000000, -0.000000, -0.000000, -0.000000, -0.000000, 0.000000, -0.000000, -0.000000, 0.000000, 0.000000, 0.000000, -0.000000, -0.000000, 0.000000}, {0.000001, -0.000002, -0.000003, -0.000003, -0.000000, -0.000000, 0.000000, -0.000000, -0.000000, -0.000000, 0.000003, -0.000000, -0.000000, -0.000002, -0.000001, -0.000000, -0.000002, -0.000000, -0.000001, -0.000000, 0.000000, -0.000000, 0.000000, 0.000000, 0.000000, -0.000000, 0.000000, -0.000000, -0.000000, -0.000000, 0.000000, -0.000000, -0.000001, -0.000000, -0.000000, -0.000003, -0.000000, -0.000002, -0.000000, -0.000003}, {0.000000, 0.000000, -0.000000, 0.000000, 0.000000, -0.000000, -0.000000, -0.000000, -0.000000, -0.000000, 0.000000, -0.000000, -0.000000, -0.000000, -0.000000, -0.000000, -0.000000, -0.000000, -0.000000, 0.000000, 0.000000, -0.000000, -0.000000, -0.000000, 0.000000, 0.000000, -0.000000, -0.000000, 0.000000, 0.000000, 0.000000, -0.000000, -0.000000, -0.000000, -0.000000, -0.000000, -0.000000, 0.000000, 0.000000, -0.000000}, {-0.000000, -0.000000, -0.000000, 0.000000, -0.000000, 0.000000, 0.000000, -0.000000, -0.000000, -0.000000, 0.000000, 0.000000, -0.000000, 0.000000, 0.000000, -0.000000, -0.000000, -0.000000, -0.000000, -0.000000, -0.000000, 0.000000, 0.000000, 0.000000, 0.000000, 0.000000, -0.000000, 0.000000, 0.000000, -0.000000, 0.000000, 0.000000, 0.000000, -0.000000, -0.000000, -0.000000, 0.000000, -0.000000, 0.000000, 0.000000}, {0.263824, 0.255338, 0.263737, 0.262558, -0.000000, 0.000000, 0.257273, 0.000000, 0.000000, -0.000000, -0.916522, 0.000000, -0.000000, 0.000674, 0.000010, -0.000000, 0.263565, -0.000000, -0.693459, 0.000000, -0.000000, 0.000000, -0.000000, -0.000000, 0.000000, 0.000000, 0.000000, -0.000000, 0.000000, 0.000000, -0.000000, 0.000000, 0.255787, -0.000000, -0.000004, 0.253737, 0.000000, 0.002647, -0.000000, 0.000683}, {0.441100, 0.430666, 0.383094, 0.377901, 0.000000, -0.000000, 0.424271, 0.000000, 0.000000, -0.000000, 0.273458, -0.000000, -0.000000, -0.001549, -0.000007, -0.000000, 0.437109, -0.000000, 0.722319, 0.000000, 0.000000, -0.000000, -0.000000, -0.000000, 0.000000, -0.000000, -0.000000, 0.000000, -0.000000, -0.000000, 0.000000, -0.000000, 0.432977, -0.000000, 0.000023, 0.394848, 0.000000, 0.007529, -0.000000, 0.004060}, {-0.255444, -0.201919, -0.016490, -0.018642, -0.000000, 0.000000, -0.210780, -0.000000, -0.000000, 0.000000, -0.221912, 0.000000, -0.000000, 0.001735, 0.000016, -0.000000, -0.202639, -0.000000, -0.550135, -0.000000, -0.000000, -0.000000, -0.000000, -0.000000, -0.000001, 0.000000, 0.000000, -0.000000, -0.000000, -0.000000, 0.000000, -0.000000, -0.240430, -0.000000, -0.000010, -0.006829, 0.000000, -0.007539, -0.000000, -0.004213}, {0.257006, 0.253530, 0.265454, 0.263627, -0.000000, -0.000000, 0.253954, 0.000000, -0.000000, -0.000000, -0.894600, 0.000000, 0.000000, 0.000533, 0.000011, 0.000000, 0.261056, -0.000000, -0.683565, -0.000000, -0.000000, -0.000000, -0.000000, -0.000000, -0.000000, 0.000000, -0.000000, -0.000000, -0.000000, 0.000000, 0.000000, 0.000000, 0.253479, -0.000000, -0.000004, 0.255516, 0.000000, 0.001621, -0.000000, 0.000420}, {-0.031094, -0.052057, -0.285297, -0.171478, -0.000000, -0.000000, 0.084412, -0.000000, -0.000000, 0.000000, 0.209907, -0.000000, 0.000000, 0.003780, 0.000026, -0.000000, -0.071776, -0.000000, -0.475893, -0.000000, -0.000000, -0.000000, 0.000000, 0.000000, 0.000000, -0.000000, -0.000000, -0.000000, 0.000000, 0.000000, 0.000000, -0.000000, -0.051606, 0.000000, -0.000002, -0.222111, -0.000000, 0.000839, -0.000000, -0.000707}, {-0.000000, 0.000000, -0.000000, 0.000000, 0.000000, 0.000000, 0.000000, -0.000000, -0.000000, -0.000000, 0.000000, 0.000000, -0.000000, -0.000000, -0.000000, -0.000000, -0.000000, 0.000000, 0.000000, 0.000000, -0.000000, 0.000000, -0.000000, -0.000000, 0.000000, 0.000000, 0.000000, -0.000000, 0.000000, -0.000000, -0.000000, -0.000000, 0.000000, -0.000000, -0.000000, -0.000000, -0.000000, -0.000000, -0.000000, -0.000000}, {0.251103, 0.218784, 0.227232, 0.217583, 0.000000, -0.000000, 0.232616, 0.000000, 0.000000, -0.000000, 0.323626, 0.000000, -0.000000, 0.000248, 0.000011, -0.000000, 0.240962, -0.000000, 0.657482, 0.000000, -0.000000, -0.000000, -0.000000, 0.000000, -0.000000, 0.000000, -0.000000, 0.000000, -0.000000, -0.000000, -0.000000, 0.000000, 0.228512, -0.000000, 0.000045, 0.239464, 0.000000, 0.007143, -0.000000, 0.003849}, {0.000000, -0.000000, -0.000000, -0.000000, 0.000000, -0.000000, -0.000000, -0.000000, -0.000000, -0.000000, -0.000000, 0.000000, -0.000000, -0.000000, 0.000000, 0.000000, 0.000000, -0.000000, -0.000000, -0.000000, -0.000000, -0.000000, -0.000000, -0.000000, -0.000000, -0.000000, 0.000000, -0.000000, 0.000000, 0.000000, -0.000000, 0.000000, 0.000000, 0.000000, 0.000000, 0.000000, 0.000000, 0.000000, 0.000000, -0.000000}, {-0.000000, 0.000000, -0.000000, 0.000000, 0.000000, -0.000000, -0.000000, -0.000000, -0.000000, -0.000000, 0.000000, -0.000000, 0.000000, 0.000000, 0.000000, 0.000000, 0.000000, -0.000000, 0.000000, 0.000000, 0.000000, 0.000000, 0.000000, 0.000000, 0.000000, 0.000000, -0.000000, -0.000000, -0.000000, 0.000000, -0.000000, -0.000000, 0.000000, -0.000000, -0.000000, -0.000000, 0.000000, -0.000000, -0.000000, -0.000000}, {-0.000000, -0.000000, 0.000000, 0.000000, 0.000000, -0.000000, 0.000000, -0.000000, -0.000000, 0.000000, -0.000000, -0.000000, -0.000000, 0.000000, -0.000000, 0.000000, -0.000000, 0.000000, 0.000000, 0.000000, -0.000000, -0.000000, 0.000000, -0.000000, -0.000000, -0.000000, -0.000000, -0.000000, -0.000000, -0.000000, -0.000000, 0.000000, 0.000000, 0.000000, -0.000000, 0.000000, -0.000000, 0.000000, -0.000000, -0.000000}, {0.000000, 0.000000, -0.000000, 0.000000, -0.000000, -0.000000, -0.000000, -0.000000, -0.000000, -0.000000, -0.000000, -0.000000, 0.000000, 0.000000, 0.000000, -0.000000, 0.000000, -0.000000, -0.000000, 0.000000, 0.000000, -0.000000, 0.000000, -0.000000, 0.000000, 0.000000, 0.000000, -0.000000, -0.000000, 0.000000, 0.000000, -0.000000, -0.000000, -0.000000, 0.000000, 0.000000, -0.000000, 0.000000, -0.000000, 0.000000}, {0.000000, 0.000000, -0.000000, -0.000000, -0.000000, 0.000000, 0.000000, -0.000000, 0.000000, 0.000000, -0.000000, 0.000000, -0.000000, -0.000000, -0.000000, -0.000000, 0.000000, 0.000000, 0.000000, -0.000000, 0.000000, -0.000000, -0.000000, -0.000000, -0.000000, 0.000000, 0.000000, 0.000000, 0.000000, -0.000000, 0.000000, 0.000000, 0.000000, -0.000000, -0.000000, 0.000000, -0.000000, -0.000000, -0.000000, 0.000000}, {-0.000000, 0.000000, -0.000000, -0.000000, -0.000000, 0.000000, 0.000000, 0.000000, -0.000000, -0.000000, -0.000000, -0.000000, 0.000000, 0.000000, 0.000000, -0.000000, 0.000000, 0.000000, 0.000000, 0.000000, -0.000000, -0.000000, -0.000000, 0.000000, -0.000000, -0.000000, 0.000000, -0.000000, 0.000000, -0.000000, 0.000000, 0.000000, -0.000000, -0.000000, 0.000000, 0.000000, 0.000000, 0.000000, 0.000000, 0.000000}, {0.000000, 0.000000, 0.000000, -0.000000, 0.000000, -0.000000, -0.000000, 0.000000, 0.000000, 0.000000, 0.000000, -0.000000, -0.000000, 0.000000, 0.000000, -0.000000, -0.000000, -0.000000, -0.000000, 0.000000, -0.000000, -0.000000, 0.000000, -0.000000, 0.000000, 0.000000, -0.000000, 0.000000, 0.000000, 0.000000, 0.000000, 0.000000, 0.000000, 0.000000, 0.000000, 0.000000, 0.000000, 0.000000, -0.000000, 0.000000}, {-0.004374, -0.022928, -0.123980, -0.079899, -0.000000, 0.000000, -0.010584, 0.000000, -0.000000, 0.000000, -0.011328, -0.000000, -0.000000, 0.002219, 0.000019, -0.000000, -0.009616, -0.000000, -0.093175, 0.000000, -0.000000, -0.000000, 0.000000, -0.000000, -0.000000, -0.000000, 0.000000, 0.000000, 0.000000, -0.000000, -0.000000, -0.000000, -0.014668, 0.000000, -0.000004, -0.025062, -0.000000, 0.003023, -0.000000, -0.000340}, {-0.000000, 0.000000, -0.000000, -0.000000, 0.000000, -0.000000, -0.000000, -0.000000, 0.000000, 0.000000, 0.000000, 0.000000, -0.000000, -0.000000, -0.000000, -0.000000, -0.000000, 0.000000, -0.000000, -0.000000, 0.000000, -0.000000, -0.000000, 0.000000, 0.000000, 0.000000, 0.000000, -0.000000, -0.000000, -0.000000, 0.000000, -0.000000, 0.000000, -0.000000, -0.000000, -0.000000, 0.000000, -0.000000, 0.000000, -0.000000}, {-0.499230, -0.467121, -0.592816, -0.539857, -0.000000, 0.000000, -0.483173, 0.000000, -0.000000, -0.000000, -0.206098, -0.000000, -0.000000, -0.001168, -0.000020, 0.000000, -0.496233, -0.000000, 0.181004, 0.000000, 0.000000, 0.000000, -0.000001, -0.000000, -0.000001, -0.000001, -0.000000, -0.000000, -0.000000, -0.000000, -0.000000, -0.000000, -0.477591, -0.000001, -0.000097, -0.531468, 0.000000, -0.014137, -0.000000, -0.008327}, {-0.000000, -0.000000, -0.000000, 0.000000, 0.000000, 0.000000, 0.000000, 0.000000, 0.000000, 0.000000, -0.000000, 0.000000, -0.000000, -0.000000, 0.000000, 0.000000, 0.000000, 0.000000, -0.000000, 0.000000, -0.000000, -0.000000, -0.000000, -0.000000, 0.000000, -0.000000, 0.000000, -0.000000, -0.000000, -0.000000, 0.000000, 0.000000, 0.000000, 0.000000, -0.000000, 0.000000, 0.000000, 0.000000, -0.000000, 0.000000}, {0.146109, 0.154511, 0.124656, 0.118914, -0.000000, 0.000000, 0.147155, -0.000000, 0.000000, 0.000000, -0.411249, 0.000000, 0.000000, -0.000437, -0.000004, 0.000000, 0.166752, -0.000000, -0.371511, -0.000000, 0.000000, -0.000000, -0.000000, -0.000000, -0.000000, -0.000000, 0.000000, -0.000000, 0.000000, 0.000000, -0.000000, 0.000000, 0.161921, -0.000000, -0.000021, 0.114948, -0.000000, -0.000972, -0.000000, -0.000225}, {0.000000, 0.000000, 0.000000, -0.000000, 0.000000, -0.000000, 0.000000, -0.000000, -0.000000, 0.000000, -0.000000, 0.000000, 0.000000, 0.000000, -0.000000, -0.000000, 0.000000, -0.000000, -0.000000, -0.000000, -0.000000, 0.000000, -0.000000, -0.000000, -0.000000, -0.000000, -0.000000, -0.000000, 0.000000, 0.000000, 0.000000, -0.000000, 0.000000, 0.000000, 0.000000, 0.000000, 0.000000, 0.000000, -0.000000, 0.000000}, {0.138904, 0.143917, 0.111382, 0.104821, -0.000000, -0.000000, 0.137277, 0.000000, 0.000000, -0.000000, -0.399846, 0.000000, 0.000000, -0.000423, 0.000003, 0.000000, 0.158826, -0.000000, -0.351794, 0.000000, 0.000000, 0.000000, 0.000001, 0.000000, 0.000000, 0.000000, -0.000000, 0.000000, -0.000000, 0.000000, 0.000000, 0.000000, 0.153473, 0.000000, -0.000013, 0.103302, 0.000000, -0.001293, -0.000000, -0.000437}, {-0.762600, -0.824370, -0.691140, -0.718568, -0.000000, -0.000000, -0.808960, -0.000000, 0.000000, 0.000000, -0.189547, -0.000000, 0.000000, -0.000680, -0.000051, -0.000000, -0.788809, 0.000000, -0.111760, -0.000000, -0.000000, -0.000000, -0.000001, -0.000000, -0.000001, 0.000000, 0.000000, -0.000000, 0.000000, -0.000000, -0.000001, 0.000000, -0.804993, -0.000001, -0.000079, -0.737282, 0.000000, -0.025516, 0.000000, -0.009904}, {0.000000, -0.000000, 0.000000, 0.000000, 0.000000, -0.000000, 0.000000, 0.000000, -0.000000, 0.000000, 0.000000, 0.000000, -0.000000, 0.000000, 0.000000, 0.000000, 0.000000, -0.000000, 0.000000, 0.000000, 0.000000, -0.000000, -0.000000, -0.000000, -0.000000, 0.000000, 0.000000, -0.000000, 0.000000, -0.000000, 0.000000, 0.000000, 0.000000, 0.000000, 0.000000, -0.000000, 0.000000, 0.000000, 0.000000, 0.000000}, {-0.000000, 0.000000, -0.000000, 0.000000, -0.000000, 0.000000, 0.000000, 0.000000, 0.000000, 0.000000, 0.000000, -0.000000, -0.000000, -0.000000, -0.000000, 0.000000, 0.000000, -0.000000, -0.000000, -0.000000, 0.000000, -0.000000, -0.000000, -0.000000, -0.000000, 0.000000, 0.000000, -0.000000, 0.000000, 0.000000, -0.000000, -0.000000, -0.000000, -0.000000, 0.000000, 0.000000, 0.000000, -0.000000, -0.000000, -0.000000}, {0.000000, -0.000000, -0.000000, 0.000000, -0.000000, -0.000000, 0.000000, -0.000000, -0.000000, 0.000000, -0.000000, -0.000000, -0.000000, -0.000000, 0.000000, -0.000000, -0.000000, 0.000000, -0.000000, -0.000000, -0.000000, -0.000000, 0.000000, -0.000000, 0.000000, 0.000000, 0.000000, -0.000000, 0.000000, -0.000000, 0.000000, -0.000000, 0.000000, 0.000000, 0.000000, 0.000000, 0.000000, 0.000000, -0.000000, 0.000000}, {-0.000000, -0.000000, -0.000000, 0.000000, 0.000000, -0.000000, -0.000000, 0.000000, 0.000000, -0.000000, 0.000000, -0.000000, -0.000000, -0.000000, -0.000000, -0.000000, -0.000000, -0.000000, -0.000000, -0.000000, 0.000000, 0.000000, -0.000000, -0.000000, 0.000000, 0.000000, -0.000000, -0.000000, 0.000000, 0.000000, 0.000000, -0.000000, 0.000000, -0.000000, 0.000000, -0.000000, -0.000000, 0.000000, -0.000000, -0.000000}, {0.000000, 0.000000, 0.000000, 0.000000, -0.000000, 0.000000, 0.000000, -0.000000, -0.000000, 0.000000, -0.000000, -0.000000, -0.000000, 0.000000, 0.000000, -0.000000, -0.000000, -0.000000, -0.000000, -0.000000, -0.000000, 0.000000, 0.000000, -0.000000, 0.000000, -0.000000, -0.000000, -0.000000, -0.000000, 0.000000, 0.000000, -0.000000, 0.000000, 0.000000, 0.000000, -0.000000, -0.000000, -0.000000, -0.000000, 0.000000}, {-0.506925, -0.479864, -1.003346, -1.013254, 0.000000, 0.000000, -0.677569, -0.000000, -0.000000, -0.000000, -0.444386, 0.000000, -0.000000, -0.002148, -0.000051, -0.000000, -0.509193, 0.000000, 0.290717, -0.000000, -0.000000, -0.000000, -0.000000, -0.000000, 0.000000, 0.000000, 0.000000, -0.000000, -0.000000, 0.000000, 0.000000, 0.000000, -0.425917, -0.000000, -0.000016, -0.956151, -0.000000, 0.002313, 0.000000, 0.001412}, {0.000000, -0.000000, 0.000000, -0.000000, -0.000000, -0.000000, -0.000000, 0.000000, -0.000000, -0.000000, 0.000000, 0.000000, 0.000000, 0.000000, 0.000000, -0.000000, -0.000000, 0.000000, -0.000000, -0.000000, 0.000000, -0.000000, 0.000000, 0.000000, 0.000000, -0.000000, 0.000000, -0.000000, -0.000000, 0.000000, -0.000000, -0.000000, -0.000000, 0.000000, -0.000000, 0.000000, -0.000000, -0.000000, 0.000000, -0.000000}, {0.000000, -0.000000, -0.000000, -0.000000, 0.000000, -0.000000, -0.000000, -0.000000, -0.000000, -0.000000, -0.000000, 0.000000, -0.000000, -0.000000, 0.000000, 0.000000, -0.000000, 0.000000, -0.000000, 0.000000, 0.000000, -0.000000, 0.000000, -0.000000, 0.000000, -0.000000, 0.000000, 0.000000, 0.000000, -0.000000, -0.000000, 0.000000, 0.000000, -0.000000, -0.000000, -0.000000, -0.000000, 0.000000, 0.000000, -0.000000}, {-0.000000, -0.000000, -0.000000, -0.000000, -0.000000, -0.000000, -0.000000, 0.000000, -0.000000, -0.000000, 0.000000, 0.000000, 0.000000, 0.000000, -0.000000, -0.000000, -0.000000, -0.000000, -0.000000, -0.000000, 0.000000, 0.000000, 0.000000, -0.000000, -0.000000, -0.000000, -0.000000, 0.000000, 0.000000, -0.000000, -0.000000, 0.000000, -0.000000, -0.000000, 0.000000, -0.000000, 0.000000, -0.000000, -0.000000, -0.000000}, {-0.000000, -0.000000, 0.000000, 0.000000, -0.000000, -0.000000, -0.000000, 0.000000, -0.000000, 0.000000, -0.000000, -0.000000, 0.000000, -0.000000, 0.000000, 0.000000, 0.000000, -0.000000, 0.000000, -0.000000, -0.000000, -0.000000, -0.000000, -0.000000, -0.000000, -0.000000, 0.000000, -0.000000, -0.000000, -0.000000, 0.000000, -0.000000, -0.000000, 0.000000, 0.000000, 0.000000, -0.000000, -0.000000, 0.000000, 0.000000}, {-0.000000, -0.000000, -0.000000, -0.000000, -0.000000, -0.000000, 0.000000, -0.000000, 0.000000, 0.000000, 0.000000, -0.000000, 0.000000, 0.000000, -0.000000, 0.000000, -0.000000, -0.000000, -0.000000, 0.000000, -0.000000, 0.000000, -0.000000, 0.000000, -0.000000, 0.000000, 0.000000, 0.000000, 0.000000, -0.000000, 0.000000, -0.000000, 0.000000, 0.000000, 0.000000, -0.000000, -0.000000, -0.000000, 0.000000, -0.000000}, {0.161346, 0.173960, 0.137780, 0.130793, 0.000000, 0.000000, 0.163217, -0.000000, 0.000000, -0.000000, -0.320727, 0.000000, -0.000000, -0.000453, 0.000004, 0.000000, 0.191615, -0.000000, -0.274380, 0.000000, 0.000000, 0.000000, 0.000000, -0.000000, 0.000001, 0.000000, 0.000000, 0.000000, -0.000000, -0.000000, 0.000000, 0.000000, 0.189431, 0.000000, -0.000011, 0.136006, 0.000000, -0.001528, -0.000000, -0.000561}, {0.000000, -0.000000, -0.000000, -0.000000, 0.000000, -0.000000, 0.000000, -0.000000, -0.000000, 0.000000, -0.000000, -0.000000, 0.000000, -0.000000, 0.000000, -0.000000, -0.000000, 0.000000, -0.000000, -0.000000, 0.000000, -0.000000, 0.000000, -0.000000, 0.000000, 0.000000, -0.000000, -0.000000, 0.000000, 0.000000, -0.000000, 0.000000, 0.000000, 0.000000, 0.000000, 0.000000, 0.000000, 0.000000, 0.000000, 0.000000}, {0.449501, 0.442413, 0.378963, 0.379293, 0.000000, -0.000000, 0.453996, -0.000000, 0.000000, -0.000000, 0.229165, -0.000000, 0.000000, 0.003925, 0.000053, -0.000000, 0.443406, -0.000000, -0.358610, -0.000000, -0.000000, -0.000000, 0.000000, -0.000000, 0.000001, 0.000000, 0.000000, 0.000000, -0.000000, -0.000000, 0.000000, -0.000000, 0.439855, -0.000000, 0.000028, 0.392844, -0.000000, 0.007989, -0.000000, 0.004423}};
static float * p_layer_2_weight = layer_2_weight;
static const float layer_2_bias[40] = {0.046561, 0.064753, 0.101533, 0.108645, -0.060802, -0.122083, 0.052263, -0.138835, -0.129686, -0.116381, 0.236573, -0.165488, -0.085185, -0.168468, -0.097947, -0.182224, 0.067510, -0.017158, 0.147824, -0.157331, -0.108819, -0.108504, -0.044953, -0.024270, -0.039501, -0.061865, -0.090286, -0.125947, -0.146665, -0.103547, -0.060455, -0.145795, 0.051989, -0.035647, -0.020874, 0.099560, -0.096402, -0.041653, -0.142884, -0.057561};
static float * p_layer_2_bias = layer_2_bias;
static const float layer_3_weight[40][40] = {{0.318308, -0.006184, 0.000596, -0.001715, -0.023482, -0.007431, -0.026698, 0.000917, -0.005029, 0.032608, -0.005109, -0.000747, 0.308428, 0.315605, 0.030196, 0.007986, 0.007849, -0.004918, 0.036510, -0.002215, 0.335636, 0.007488, 0.019186, -0.025407, -0.023285, -0.316769, 0.301761, 0.022825, 0.002968, -0.031156, -0.000054, 0.009049, -0.030671, 0.279398, -0.019121, -0.022930, 0.001167, -0.326632, 0.023019, 0.290537}, {0.319117, 0.025713, -0.014232, -0.023369, -0.008760, 0.009449, -0.002838, 0.013919, 0.012782, 0.013004, -0.005702, -0.004026, 0.307535, 0.316009, 0.022463, -0.015696, -0.023186, 0.026185, 0.019110, 0.016523, 0.334635, -0.010637, 0.002381, -0.016741, -0.008280, -0.317208, 0.300991, 0.008186, -0.020908, -0.026607, 0.029875, -0.027922, -0.026137, 0.279462, -0.010218, -0.007734, -0.000300, -0.327346, -0.004614, 0.289354}, {0.358378, -0.021826, 0.009817, 0.031428, 0.012200, -0.030853, 0.015128, -0.007484, -0.006884, -0.015426, -0.027483, 0.019068, 0.302094, 0.342272, -0.050062, 0.026685, 0.019009, -0.022768, -0.058884, -0.018381, 0.322957, 0.012287, -0.017806, 0.045191, 0.014837, -0.344676, 0.301124, -0.009185, 0.022756, 0.027936, -0.030176, 0.023849, 0.056871, 0.304065, 0.008709, 0.010345, -0.017619, -0.363352, -0.011233, 0.280464}, {0.350869, -0.007656, -0.014287, 0.011302, 0.013629, -0.020161, 0.010891, 0.006892, 0.001710, -0.021023, -0.035514, 0.008106, 0.305897, 0.338036, -0.037290, 0.015084, -0.001444, -0.002194, -0.044674, -0.008411, 0.328326, 0.000126, -0.016645, 0.036224, 0.016148, -0.340143, 0.303691, -0.007053, 0.013799, 0.025224, -0.015718, 0.009902, 0.042354, 0.300506, 0.003885, 0.010605, -0.010146, -0.356571, -0.020772, 0.285249}, {0.000090, -0.000052, -0.000070, -0.000013, -0.000054, 0.000039, 0.000027, 0.000041, 0.000060, 0.000003, 0.000044, -0.000028, -0.000041, 0.000032, -0.000058, -0.000067, -0.000002, 0.000082, -0.000023, 0.000094, 0.000052, 0.000013, 0.000043, -0.000033, 0.000060, 0.000019, -0.000048, -0.000032, -0.000004, -0.000007, 0.000008, 0.000024, -0.000007, 0.000070, -0.000074, 0.000055, -0.000049, -0.000019, 0.000090, -0.000049}, {0.000027, -0.000058, 0.000067, -0.000029, 0.000071, -0.000042, 0.000031, 0.000076, -0.000055, 0.000058, 0.000039, 0.000017, -0.000009, -0.000024, 0.000043, 0.000038, -0.000062, -0.000052, -0.000045, -0.000011, 0.000014, 0.000035, 0.000048, 0.000037, -0.000008, 0.000022, -0.000001, 0.000039, -0.000017, -0.000048, 0.000036, 0.000098, -0.000064, 0.000038, 0.000011, 0.000006, 0.000018, -0.000047, 0.000055, -0.000048}, {0.324758, 0.004606, -0.006033, -0.013992, -0.026141, 0.000440, -0.030411, 0.010295, -0.008610, 0.023058, 0.003733, 0.006051, 0.309876, 0.320492, 0.051501, -0.004780, 0.002135, 0.003151, 0.053088, -0.012184, 0.336589, -0.020351, 0.032074, -0.018798, -0.033566, -0.321880, 0.303803, 0.025870, 0.004039, -0.035804, 0.019401, -0.007921, -0.040674, 0.283813, -0.025637, -0.024576, 0.028742, -0.332780, 0.021334, 0.291314}, {0.000028, 0.000021, -0.000010, -0.000039, -0.000053, -0.000030, 0.000025, 0.000032, -0.000047, -0.000063, -0.000045, 0.000053, -0.000058, 0.000049, 0.000023, 0.000071, 0.000023, 0.000039, -0.000011, 0.000037, 0.000036, -0.000088, -0.000005, 0.000034, -0.000059, -0.000036, -0.000022, 0.000054, -0.000060, 0.000027, -0.000005, -0.000075, 0.000047, 0.000012, 0.000072, 0.000054, -0.000013, 0.000057, 0.000011, 0.000013}, {0.000031, -0.000032, 0.000013, 0.000040, 0.000069, -0.000035, 0.000010, 0.000009, -0.000057, 0.000007, 0.000040, -0.000077, -0.000028, -0.000052, 0.000060, -0.000023, -0.000029, 0.000033, 0.000032, -0.000061, 0.000077, -0.000006, -0.000077, -0.000024, -0.000030, -0.000018, -0.000001, -0.000038, 0.000023, -0.000004, -0.000019, -0.000023, 0.000069, -0.000053, 0.000004, 0.000021, -0.000057, -0.000016, -0.000017, 0.000040}, {-0.000023, -0.000022, -0.000041, -0.000065, -0.000038, -0.000048, 0.000063, -0.000006, 0.000058, -0.000092, 0.000089, -0.000082, -0.000012, -0.000006, 0.000072, -0.000060, 0.000066, -0.000032, -0.000047, -0.000053, 0.000054, -0.000042, 0.000024, 0.000014, -0.000050, 0.000059, -0.000036, 0.000067, -0.000017, 0.000032, -0.000050, -0.000075, -0.000064, -0.000002, 0.000042, -0.000029, -0.000048, 0.000010, -0.000050, 0.000031}, {-0.885976, -0.017131, 0.049645, 0.012338, -0.021374, -0.011186, -0.021985, -0.082870, -0.005266, 0.029480, -0.038125, -0.005031, -0.647790, -0.835967, 0.043398, 0.017005, 0.015849, -0.018884, 0.050012, 0.010048, -0.615869, 0.081768, 0.021715, -0.001488, -0.023985, 0.841076, -0.684077, 0.022172, -0.025819, -0.030008, -0.017404, 0.026316, 0.001232, -0.810116, -0.017304, -0.021498, -0.001632, 0.877022, 0.038495, -0.608786}, {-0.000002, 0.000073, -0.000027, -0.000090, -0.000037, -0.000017, 0.000038, -0.000073, -0.000010, 0.000007, -0.000006, 0.000002, -0.000046, 0.000065, 0.000019, 0.000088, 0.000041, -0.000079, 0.000088, 0.000024, 0.000010, -0.000070, -0.000028, -0.000073, -0.000007, -0.000002, 0.000003, -0.000062, 0.000024, 0.000031, 0.000004, 0.000002, -0.000061, -0.000012, 0.000053, 0.000011, -0.000004, -0.000041, -0.000033, 0.000028}, {0.000025, 0.000025, -0.000069, 0.000063, -0.000001, -0.000011, 0.000011, 0.000054, 0.000050, 0.000021, 0.000001, 0.000035, -0.000016, 0.000032, -0.000061, 0.000012, -0.000025, 0.000060, -0.000020, 0.000089, 0.000094, 0.000033, 0.000017, 0.000064, 0.000089, -0.000110, 0.000109, 0.000053, 0.000005, 0.000003, -0.000008, -0.000021, -0.000030, 0.000107, 0.000055, -0.000109, -0.000113, -0.000010, 0.000024, -0.000033}, {0.005502, 0.003927, 0.023623, 0.016750, 0.007029, -0.001531, -0.016480, 0.001253, -0.014146, 0.002844, -0.002158, 0.010824, 0.008725, 0.006389, 0.011600, -0.001193, -0.001515, 0.011414, 0.004214, -0.002651, 0.010639, 0.013660, 0.004898, -0.020043, 0.001994, -0.006630, 0.007635, -0.001497, 0.003708, 0.002084, 0.011925, -0.014783, 0.009974, 0.004781, 0.002694, 0.003428, 0.006856, -0.006098, -0.027611, 0.009491}, {0.000531, -0.000220, -0.000129, -0.000405, -0.001077, 0.001439, -0.002601, 0.002260, -0.001295, 0.002085, -0.002351, -0.001187, 0.000951, 0.000705, 0.000038, 0.003776, -0.002415, -0.001341, -0.000252, 0.000358, 0.001144, -0.002289, -0.000261, 0.000370, -0.001481, -0.000633, 0.000833, -0.000622, -0.002074, 0.001459, -0.002411, 0.002986, 0.001490, 0.000456, -0.001537, 0.000012, 0.001589, -0.000749, -0.002524, 0.000934}, {0.000039, -0.000088, -0.000026, -0.000047, 0.000018, -0.000010, -0.000025, -0.000078, 0.000000, -0.000008, -0.000049, 0.000017, 0.000016, -0.000034, -0.000058, 0.000037, 0.000013, 0.000037, 0.000037, -0.000055, -0.000003, 0.000016, 0.000010, -0.000010, 0.000050, 0.000027, -0.000026, 0.000058, -0.000121, -0.000075, -0.000079, 0.000063, 0.000025, 0.000041, -0.000021, 0.000037, 0.000025, -0.000042, 0.000047, -0.000007}, {0.342819, 0.032000, -0.030280, -0.031446, 0.007479, 0.026820, 0.007506, 0.029025, 0.016357, -0.002912, 0.001422, -0.020042, 0.328359, 0.338852, 0.001760, -0.018680, -0.029343, 0.030162, 0.004208, 0.021569, 0.355171, -0.019952, 0.001789, -0.015421, 0.005669, -0.340177, 0.322241, -0.005407, -0.015908, -0.011546, 0.031561, -0.030012, -0.018407, 0.302092, 0.000041, 0.006430, -0.004833, -0.350794, -0.001490, 0.309818}, {-0.000002, 0.000111, 0.000017, 0.000007, 0.000029, 0.000028, 0.000010, -0.000060, 0.000035, 0.000041, 0.000009, 0.000044, -0.000042, 0.000068, 0.000052, 0.000001, 0.000080, -0.000028, -0.000081, 0.000002, 0.000030, 0.000066, -0.000001, -0.000021, 0.000056, 0.000013, -0.000038, 0.000027, 0.000088, 0.000073, -0.000019, 0.000023, -0.000014, -0.000069, -0.000022, -0.000013, 0.000085, 0.000078, 0.000010, 0.000055}, {-0.553278, -0.002047, 0.041488, -0.005330, 0.011329, -0.011631, 0.016566, -0.026062, 0.036026, 0.002828, -0.015444, -0.013099, -0.603415, -0.565680, -0.001315, -0.000809, -0.001681, -0.005329, -0.014407, 0.009236, -0.626589, 0.069172, -0.010105, -0.005075, 0.011877, 0.565141, -0.593145, -0.005089, 0.002440, -0.006032, 0.000857, 0.010214, -0.002172, -0.554823, 0.003986, 0.012293, -0.020676, 0.560160, 0.028808, -0.597054}, {0.000039, 0.000079, -0.000073, 0.000048, -0.000033, -0.000075, 0.000057, -0.000009, 0.000043, -0.000011, -0.000019, 0.000040, -0.000036, 0.000028, 0.000030, -0.000066, -0.000029, -0.000012, 0.000072, -0.000015, 0.000059, 0.000006, 0.000001, 0.000022, 0.000044, -0.000040, -0.000066, -0.000011, -0.000062, 0.000076, 0.000003, -0.000013, -0.000013, -0.000027, 0.000013, -0.000064, -0.000003, 0.000020, 0.000062, -0.000047}, {0.000082, 0.000056, -0.000029, -0.000063, 0.000031, -0.000010, -0.000048, 0.000019, -0.000002, 0.000051, -0.000035, 0.000002, 0.000015, -0.000019, 0.000006, -0.000047, 0.000028, -0.000026, 0.000035, 0.000079, 0.000074, 0.000035, 0.000017, 0.000072, -0.000043, -0.000086, -0.000057, 0.000047, 0.000057, 0.000039, -0.000022, 0.000034, -0.000043, -0.000036, -0.000046, 0.000014, -0.000052, 0.000051, -0.000015, -0.000055}, {0.000017, -0.000006, -0.000077, 0.000062, 0.000021, 0.000024, -0.000025, 0.000063, 0.000028, 0.000109, -0.000012, -0.000011, 0.000002, -0.000021, -0.000064, 0.000083, 0.000020, 0.000054, -0.000004, -0.000066, 0.000032, 0.000088, -0.000076, -0.000019, 0.000062, -0.000004, -0.000013, 0.000060, 0.000107, 0.000100, -0.000084, -0.000045, 0.000066, -0.000084, 0.000075, 0.000044, -0.000055, 0.000048, -0.000066, 0.000007}, {0.000079, 0.000035, 0.000033, -0.000017, -0.000052, -0.000020, 0.000117, -0.000002, -0.000031, 0.000045, 0.000031, 0.000010, 0.000020, 0.000015, -0.000049, -0.000046, -0.000023, -0.000094, -0.000067, 0.000008, -0.000032, 0.000026, 0.000057, -0.000024, -0.000046, 0.000060, 0.000073, -0.000041, -0.000043, -0.000047, -0.000012, 0.000020, 0.000011, 0.000033, 0.000012, -0.000003, 0.000113, -0.000017, 0.000002, -0.000062}, {-0.000011, -0.000026, -0.000018, -0.000074, -0.000070, -0.000064, -0.000053, 0.000020, -0.000040, -0.000030, 0.000082, 0.000071, -0.000061, -0.000041, 0.000060, -0.000026, -0.000045, -0.000049, -0.000074, 0.000006, 0.000011, -0.000058, 0.000067, 0.000077, -0.000059, -0.000023, 0.000116, 0.000001, -0.000025, 0.000014, -0.000028, -0.000059, -0.000065, 0.000061, 0.000029, -0.000014, 0.000043, -0.000063, 0.000076, 0.000045}, {0.000067, 0.000116, 0.000039, -0.000075, -0.000025, 0.000113, 0.000113, -0.000061, -0.000127, 0.000114, -0.000032, -0.000027, -0.000053, 0.000033, -0.000002, 0.000110, 0.000122, -0.000125, 0.000019, -0.000072, 0.000097, -0.000043, -0.000029, 0.000059, -0.000147, -0.000010, 0.000084, -0.000152, -0.000092, 0.000012, -0.000067, -0.000022, -0.000013, 0.000059, 0.000041, 0.000050, 0.000157, -0.000070, 0.000091, -0.000061}, {0.000002, 0.000057, 0.000006, 0.000028, -0.000076, -0.000054, 0.000102, 0.000034, -0.000017, 0.000038, -0.000006, 0.000016, 0.000036, -0.000061, 0.000020, -0.000021, -0.000062, -0.000084, -0.000026, 0.000047, -0.000002, -0.000076, 0.000065, 0.000042, 0.000036, -0.000066, 0.000009, -0.000024, -0.000027, 0.000068, -0.000035, 0.000002, -0.000009, -0.000051, 0.000007, 0.000015, 0.000071, -0.000044, -0.000036, 0.000064}, {0.000020, 0.000049, -0.000041, -0.000026, -0.000035, 0.000039, -0.000032, 0.000005, -0.000040, 0.000052, 0.000010, -0.000058, -0.000076, 0.000052, -0.000063, 0.000004, -0.000022, 0.000006, 0.000070, -0.000063, -0.000072, -0.000028, -0.000015, 0.000027, -0.000037, 0.000037, 0.000066, 0.000033, 0.000004, 0.000065, 0.000060, -0.000051, -0.000074, 0.000056, 0.000056, -0.000049, -0.000049, 0.000050, -0.000066, 0.000062}, {-0.000065, -0.000072, -0.000018, 0.000010, 0.000029, 0.000041, -0.000054, 0.000009, 0.000031, -0.000042, -0.000059, 0.000041, 0.000065, 0.000074, -0.000084, 0.000013, 0.000017, -0.000038, 0.000056, -0.000026, 0.000027, 0.000020, -0.000046, 0.000029, 0.000031, 0.000052, -0.000050, -0.000075, -0.000025, 0.000028, 0.000012, -0.000006, -0.000069, -0.000043, -0.000028, 0.000035, -0.000065, -0.000072, 0.000075, 0.000016}, {0.000039, -0.000013, 0.000077, 0.000079, -0.000025, 0.000010, 0.000006, -0.000073, 0.000066, -0.000025, 0.000029, -0.000047, 0.000040, 0.000010, -0.000063, -0.000037, -0.000078, 0.000042, -0.000055, 0.000001, -0.000029, -0.000001, -0.000019, -0.000038, -0.000066, -0.000079, -0.000023, 0.000043, 0.000018, -0.000015, -0.000011, 0.000062, -0.000018, -0.000029, -0.000041, 0.000012, 0.000007, 0.000023, 0.000052, -0.000044}, {0.000025, -0.000059, 0.000007, -0.000001, -0.000022, 0.000034, 0.000074, -0.000064, 0.000073, -0.000014, -0.000023, -0.000054, -0.000044, -0.000035, -0.000016, -0.000027, 0.000000, 0.000054, -0.000074, -0.000046, 0.000047, 0.000011, 0.000077, -0.000034, -0.000072, 0.000019, -0.000025, -0.000018, -0.000030, 0.000068, 0.000071, 0.000010, 0.000074, -0.000014, -0.000002, -0.000012, -0.000025, 0.000004, 0.000059, -0.000075}, {0.000061, 0.000093, -0.000027, -0.000009, -0.000032, -0.000039, 0.000074, 0.000008, 0.000022, -0.000017, -0.000036, -0.000075, 0.000020, -0.000000, 0.000069, -0.000043, 0.000053, -0.000017, 0.000027, -0.000014, -0.000012, -0.000082, -0.000052, -0.000011, -0.000058, -0.000017, -0.000046, -0.000020, 0.000016, -0.000042, 0.000056, 0.000028, 0.000008, 0.000045, 0.000016, -0.000049, 0.000110, -0.000011, 0.000030, 0.000064}, {-0.000029, 0.000080, -0.000024, 0.000007, 0.000006, 0.000037, -0.000006, -0.000063, -0.000109, 0.000029, -0.000106, -0.000073, 0.000016, 0.000029, 0.000029, -0.000107, 0.000100, -0.000071, 0.000056, -0.000022, 0.000002, 0.000047, 0.000001, 0.000058, -0.000078, 0.000049, -0.000101, -0.000026, -0.000035, 0.000051, -0.000049, 0.000013, -0.000005, -0.000054, -0.000048, 0.000079, 0.000016, 0.000029, -0.000007, 0.000036}, {0.318346, 0.026733, -0.024748, -0.030525, 0.007554, 0.025288, 0.004172, 0.028296, 0.013212, -0.000746, 0.008826, -0.017478, 0.307898, 0.315520, 0.013060, -0.015677, -0.022860, 0.025894, 0.021420, 0.010910, 0.335073, -0.018556, 0.006464, -0.021024, 0.002895, -0.316792, 0.301324, -0.003405, -0.011464, -0.011167, 0.029583, -0.023012, -0.022385, 0.279151, 0.001938, 0.003630, -0.003776, -0.326703, -0.000269, 0.289782}, {-0.000002, 0.000039, 0.000012, 0.000011, 0.000051, 0.000071, 0.000044, -0.000015, -0.000027, 0.000081, -0.000031, -0.000002, -0.000053, -0.000036, -0.000014, 0.000021, -0.000045, 0.000077, -0.000043, -0.000016, -0.000035, -0.000019, -0.000083, -0.000055, 0.000025, 0.000023, 0.000050, -0.000069, -0.000016, -0.000076, -0.000069, -0.000081, -0.000038, 0.000037, -0.000022, 0.000028, 0.000090, -0.000017, -0.000007, 0.000055}, {0.000381, -0.000851, 0.000749, -0.000384, -0.001523, 0.001179, -0.004146, 0.002842, -0.001608, 0.001110, -0.003340, 0.000333, 0.000427, 0.000465, 0.000613, 0.002738, -0.001955, -0.001941, 0.000468, -0.000668, 0.000764, -0.001366, 0.000419, -0.000593, -0.001556, -0.000451, 0.000375, -0.000352, -0.000676, 0.001299, -0.001333, 0.004550, 0.000614, 0.000002, -0.001826, 0.000324, 0.001536, -0.000571, -0.000976, 0.000367}, {0.346851, -0.043468, 0.016347, 0.039882, -0.005758, -0.033185, 0.004160, -0.007946, -0.016833, 0.008174, -0.013091, 0.034409, 0.287799, 0.329815, -0.015387, 0.007981, 0.036787, -0.039546, -0.025736, -0.035750, 0.308477, -0.004585, 0.005969, 0.053398, 0.002615, -0.332345, 0.287142, 0.000962, 0.037922, 0.012017, -0.028605, 0.018063, 0.051400, 0.291130, 0.001333, 0.001968, 0.000732, -0.351702, 0.001208, 0.265610}, {-0.000045, -0.000003, -0.000000, -0.000019, -0.000013, 0.000012, -0.000039, -0.000017, 0.000062, -0.000005, 0.000004, -0.000019, 0.000070, -0.000046, 0.000018, -0.000038, 0.000053, -0.000068, -0.000055, 0.000016, -0.000059, 0.000060, -0.000025, -0.000035, -0.000002, 0.000002, 0.000021, -0.000013, 0.000008, -0.000072, -0.000049, 0.000045, -0.000063, -0.000049, -0.000059, 0.000017, 0.000071, 0.000007, 0.000058, 0.000074}, {0.001223, -0.004427, 0.007793, -0.006968, -0.001400, -0.005044, 0.027431, 0.017067, 0.013102, 0.008971, -0.019287, -0.009308, -0.001784, 0.000085, 0.095091, -0.020158, -0.018882, 0.015094, 0.063941, -0.005602, 0.003036, 0.009216, 0.059406, -0.011066, 0.021823, -0.000542, -0.002846, 0.007842, 0.011307, 0.013540, -0.006710, 0.002863, -0.000888, -0.006520, -0.017616, 0.008910, 0.000198, -0.002977, 0.022242, -0.004062}, {-0.000013, 0.000042, 0.000046, -0.000024, 0.000008, -0.000089, 0.000164, -0.000107, 0.000014, -0.000105, 0.000067, 0.000009, -0.000069, -0.000047, -0.000079, 0.000053, -0.000023, 0.000038, -0.000155, -0.000023, -0.000049, 0.000057, 0.000033, 0.000020, 0.000055, 0.000041, 0.000113, -0.000117, -0.000004, 0.000008, 0.000168, -0.000095, -0.000012, 0.000052, -0.000059, 0.000001, -0.000075, -0.000003, 0.000092, 0.000016}, {0.007785, 0.026535, -0.012632, 0.010357, -0.004073, -0.028983, -0.007612, 0.022695, 0.029705, 0.026746, -0.034940, 0.002406, 0.005237, 0.006948, 0.036382, -0.025930, -0.026636, 0.005396, 0.025441, 0.018587, 0.008524, -0.003194, 0.031922, 0.009939, 0.004753, -0.007270, 0.004441, -0.009617, 0.014798, -0.002252, -0.002757, -0.010299, 0.007828, 0.002133, -0.003305, 0.011655, -0.034922, -0.009009, 0.007296, 0.003738}};
static float * p_layer_3_weight = layer_3_weight;
static const float layer_3_bias[40] = {0.114718, -0.005883, -0.002859, 0.007424, -0.007404, -0.004557, -0.008264, 0.002873, -0.012509, 0.004097, -0.008954, 0.008403, 0.082091, 0.106787, 0.004093, 0.006372, 0.006855, -0.005006, 0.006276, -0.007398, 0.079964, -0.008647, 0.005818, 0.024007, -0.007345, -0.108411, 0.085443, 0.005858, 0.005261, -0.002215, -0.006127, 0.003382, 0.017335, 0.094494, -0.004987, -0.007534, 0.009199, -0.117479, -0.000367, 0.075584};
static float * p_layer_3_bias = layer_3_bias;
    
static float sigmoid(float num) {
    return 1 / (1 + exp(-num));
}

static float step(float num) {
    if (num < 0) {
        return 0;
    }
    return 1;
}

static float relu(float num) {
    if (num > 0) {
        return num;
    } else {
        return 0;
    }
}

static float linear(float num) {
    return num;
}

static void layer(const float * in, const float * layer_weight, const float * layer_bias,   
            int row, int col, float * output, int use_activation) {
    int ii;
    int jj;
    const float * p;

    for(ii = 0; ii < col; ii++) {
        p = layer_weight + ii;
        output[ii] = 0;
        for (jj = 0; jj < row; jj++) {
            output[ii] += in[jj] * (*p); 
            p += col;
        }
        output[ii] += layer_bias[ii];
        
        if (use_activation == 1) {
			output[ii] = relu(output[ii]);
        }
    }
}

const float* nn_phi_2(const float* input) {
	layer(input, p_layer_0_weight, p_layer_0_bias, STRUCTURE[0][0], STRUCTURE[0][1], output_0, 1);
	layer(output_0, p_layer_1_weight, p_layer_1_bias, STRUCTURE[1][0], STRUCTURE[1][1], output_1, 1);
	layer(output_1, p_layer_2_weight, p_layer_2_bias, STRUCTURE[2][0], STRUCTURE[2][1], output_2, 1);
	layer(output_2, p_layer_3_weight, p_layer_3_bias, STRUCTURE[3][0], STRUCTURE[3][1], output_3, 0);

	return output_3;
}
