/*
 * FILE: generated.c
 */

#include <stdio.h>
#include <stdlib.h>
#include <string.h>
#include <math.h>
#include "phi_0828_2_2.h"

static const int STRUCTURE[4][2] = {{6, 25}, {25, 40}, {40, 40}, {40, 40}};
static float output_0[25];
static float output_1[40];
static float output_2[40];
static float output_3[40];
static const float layer_0_weight[6][25] = {{1.470780, -1.848567, -1.223115, 0.526254, 1.320942, -0.289973, 0.047295, -0.153894, 0.166137, 0.774850, -1.312522, -1.015115, 0.468257, 0.436891, -0.350753, -0.664676, 0.259019, -1.480215, -0.323993, -0.993768, -0.642701, 0.433095, -0.327659, -0.208362, 1.515700}, {-0.097419, 0.176226, 0.297172, -0.636229, -0.519943, -0.042940, 0.123423, 0.155666, -0.189919, 0.063945, 0.327608, 0.247196, 0.796760, -0.501936, 0.206802, -0.289991, -0.074266, -0.107638, -1.291380, 0.028016, 0.263633, 0.031168, -0.707013, 1.383854, 0.436953}, {0.360411, 0.338595, 0.089978, 0.334916, 0.306383, 0.354191, -0.190699, -0.137880, -0.656219, -0.300935, 0.066339, -0.468405, -0.363995, -0.264578, 0.018919, 0.021850, -0.066308, -0.242944, -0.172951, 0.500660, -0.536305, -0.055225, 0.214047, -0.090157, 0.344520}, {0.332074, -0.022922, 0.316517, 0.079895, -0.232110, 0.371480, -0.147513, -0.332342, 0.376166, -0.325983, -0.252915, 0.154999, -0.089036, 0.540700, -0.352990, 0.530594, -0.007638, -0.152547, -0.120245, 0.150649, 0.146365, -0.501829, -0.037563, 0.015771, 0.043855}, {-0.024095, -0.018888, -0.347792, -0.217004, 0.114974, 0.039685, -0.105852, 0.339598, 0.172146, 0.039056, -0.221199, 0.160237, -0.146837, -0.119460, 0.104939, 0.255285, 0.394223, 0.197129, 0.051004, 0.134656, -0.033626, -0.153501, -0.242214, -0.004445, -0.106611}, {-0.290553, 0.059042, 0.197851, -0.024346, -0.041599, 0.350158, -0.555556, 0.052303, 0.192955, 0.393968, 0.089772, -0.221738, 0.109765, 0.071987, 0.522796, 0.115526, -0.150266, 0.098399, 0.003512, -0.094313, -0.246370, -0.254496, -0.318010, -0.062607, 0.150479}};
static const float * p_layer_0_weight = layer_0_weight;
static const float layer_0_bias[25] = {-0.097719, -0.077313, -0.014435, -0.219580, -0.122568, -0.137676, -0.019193, -0.187821, -0.130341, -0.068927, -0.004928, -0.214608, -0.066283, 0.064772, -0.063880, -0.075853, -0.155638, 0.079857, 0.052526, -0.036694, 0.191225, -0.253533, -0.192490, 0.008575, -0.162121};
static const float * p_layer_0_bias = layer_0_bias;
static const float layer_1_weight[25][40] = {{0.274517, 0.357605, 0.000001, 0.578415, 0.000000, -0.559676, 0.212301, 0.144402, 0.401087, -0.860582, 0.092071, -0.584617, 0.246899, -0.000000, -0.000002, -0.574921, 0.260618, -0.020055, 0.183006, 0.167553, -0.000002, -0.000001, 0.000002, -0.000001, -0.000002, -0.233702, 0.033693, 0.000001, -0.000002, -0.000002, 0.157299, -0.000003, 0.176408, 0.000000, 0.072827, -0.000001, -0.050777, -0.455258, -1.085908, 0.395880}, {0.038857, 0.023547, -0.000001, -0.044563, -0.000001, -0.292528, 0.877072, -0.037766, -0.134450, 0.264446, -0.124537, -0.062433, -0.872588, -0.000002, -0.000002, 0.024922, 0.859218, -0.024541, 0.057579, 0.239761, -0.000001, 0.000000, 0.000000, -0.000001, -0.000002, -0.101417, 0.368703, -0.000000, -0.000000, 0.000001, -0.123837, -0.000000, -0.541751, -0.000002, -0.051380, -0.000001, -0.115177, 0.718270, -0.212933, -0.690356}, {0.178788, -0.133107, -0.000001, 0.218098, -0.000001, -0.746884, 0.157390, -0.352316, 0.511879, 0.226833, 0.419248, -0.130875, -0.218822, -0.000002, -0.000001, 0.305774, 0.088364, 0.077625, -0.603093, -0.037342, 0.000000, -0.000001, -0.000001, -0.000000, 0.000000, -0.108107, 0.115959, 0.000002, 0.000000, -0.000001, -0.149165, 0.000001, 0.485546, 0.000001, -0.425007, 0.000000, -1.175093, -0.296827, 0.355209, 0.016717}, {-0.214930, -0.570826, 0.000000, -1.261076, 0.000001, -0.047694, 0.211536, 0.154936, -0.147040, 0.098516, 0.222865, -0.109978, -0.111342, 0.000001, 0.000001, -0.702894, -0.347735, -0.280142, -0.077098, -0.397896, -0.000002, 0.000001, 0.000001, -0.000002, 0.000001, -0.519007, 0.074148, -0.000001, -0.000000, -0.000001, -0.686820, 0.000000, -0.220423, -0.000000, -0.509418, -0.000001, -0.733582, -0.090828, 0.193308, 0.330219}, {-0.046465, -0.100614, 0.000001, 0.030469, -0.000001, -0.007322, 0.402883, -0.859773, 0.130537, -0.613457, -0.638938, -0.151560, 0.294480, -0.000001, -0.000003, -0.649159, -0.187833, 0.102484, -0.439478, 0.394251, 0.000001, 0.000001, 0.000000, 0.000001, -0.000002, -0.521308, 0.393828, -0.000002, -0.000001, -0.000000, 0.119303, 0.000000, 0.139325, -0.000000, -0.461196, -0.000002, -0.074483, 0.074514, 0.193223, -0.446071}, {-0.145531, 0.000478, -0.000002, -0.215611, -0.000002, 0.095069, -0.016888, -0.351480, 0.154385, 0.063104, -0.234521, 0.026977, -0.113539, -0.000002, -0.000002, 0.033008, 0.393436, 0.507087, 0.044952, -0.017454, 0.000002, -0.000001, -0.000002, 0.000001, 0.000002, 0.161165, 0.170726, 0.000002, 0.000001, 0.000001, -0.270922, -0.000000, -0.491515, -0.000002, -0.808484, 0.000001, 0.110605, -0.210890, -0.110653, -0.280728}, {-0.134062, 0.045185, -0.000001, -0.389087, -0.000002, -0.122224, -0.815334, -0.958887, 0.405538, -0.121034, -0.008193, -0.104212, 0.136048, 0.000000, 0.000001, -0.275770, -0.066388, 0.149752, 0.320067, 0.315147, -0.000001, 0.000001, 0.000000, -0.000002, 0.000001, 0.006025, -0.199991, 0.000000, 0.000000, 0.000001, -0.519113, -0.000001, -0.247217, -0.000001, -0.277667, -0.000001, 0.151607, 0.301515, -0.232371, 0.038933}, {-0.364904, 0.181815, -0.000002, -0.200307, -0.000001, 0.031435, -0.017042, -0.107138, 0.023312, 0.284640, 0.442621, -0.146790, -0.029746, 0.000000, -0.000001, -0.735464, -0.301192, 0.265622, -0.725499, -0.527591, 0.000002, -0.000000, 0.000001, -0.000001, 0.000000, -0.207153, -0.172900, 0.000002, 0.000001, -0.000001, -0.066701, -0.000002, 0.321499, 0.000001, -0.064937, -0.000001, 0.137349, -0.135829, 0.115601, -0.431004}, {-0.308264, -0.578920, -0.000000, 0.225406, -0.000001, -0.329564, -0.573822, 0.246476, -0.740269, 0.033740, -0.410840, -0.089275, 0.388250, -0.000002, 0.000000, -0.412101, 0.873402, -0.114645, -0.318941, 0.259243, 0.000002, 0.000002, -0.000001, 0.000000, 0.000001, -0.672987, -0.462351, 0.000000, -0.000001, -0.000001, 0.220647, -0.000001, -0.456493, 0.000001, 0.194576, -0.000000, 0.233797, 0.046389, -0.552092, 0.268298}, {-0.012771, 0.317235, 0.000001, -0.336963, 0.000001, 0.354910, -0.069475, 0.489160, 0.225840, -0.707025, 0.133739, -0.376334, 0.630385, -0.000002, -0.000000, -0.129676, 0.434891, 0.135846, 0.452014, 0.090690, -0.000001, -0.000001, -0.000001, 0.000001, 0.000001, -0.235877, -0.350405, -0.000001, -0.000003, 0.000000, 0.297709, -0.000001, -0.054396, -0.000001, 0.158800, -0.000001, 0.192538, -0.345733, -0.293193, 0.205778}, {0.278483, 0.507610, -0.000002, -0.150128, -0.000002, -0.153157, 0.108320, -0.328550, -0.351087, 0.225531, 0.063693, -0.002900, -0.222328, 0.000000, 0.000000, 0.337720, 0.369516, 0.096638, -0.516381, 0.159410, 0.000001, 0.000001, -0.000002, -0.000000, -0.000002, -0.006299, 0.026863, 0.000002, -0.000001, -0.000001, -0.110644, -0.000002, 0.237255, 0.000000, 0.017878, 0.000001, 0.114177, 0.354781, 0.024566, 0.339196}, {-0.428217, -0.717777, -0.000001, 0.450860, 0.000002, -0.004943, 0.370314, -0.000003, 0.060199, 0.224446, -0.002613, -0.792463, -0.185045, -0.000001, -0.000000, 0.238423, -0.411646, -0.100560, 0.253189, -0.000119, 0.000000, -0.000001, 0.000000, -0.000001, -0.000000, -0.238278, 0.793969, -0.000000, 0.000001, -0.000000, -0.153538, 0.000000, -1.293851, -0.000001, -0.318495, -0.000001, -0.125513, -0.522895, 0.309691, -0.643416}, {-0.519895, -1.011832, -0.000000, 0.047010, -0.000001, 0.141218, -0.202396, -0.022959, -0.493590, 0.147481, -0.544388, -0.528949, 0.067939, 0.000000, 0.000000, -0.590358, 0.270474, 0.311363, -0.032047, -0.586172, -0.000001, 0.000000, -0.000002, 0.000000, -0.000003, -0.847661, 0.408581, -0.000000, -0.000001, -0.000003, -0.487153, -0.000000, 0.341060, 0.000001, 0.245669, -0.000001, -0.280737, 0.167053, -0.260330, 0.173524}, {-0.208382, 0.051664, 0.000000, -0.150744, -0.000001, -0.202488, 0.202889, -0.189063, -0.088514, 0.183619, -0.135851, -0.333245, 0.433356, -0.000002, -0.000002, 0.211349, -0.367192, 0.306457, -0.054648, -0.013629, 0.000001, 0.000001, -0.000000, -0.000000, -0.000000, 0.193647, -0.937326, -0.000000, 0.000001, -0.000001, -0.066255, -0.000001, 0.173346, 0.000000, -0.045879, -0.000001, -0.032631, -0.145263, -0.560960, -0.007579}, {0.009488, 0.302660, -0.000001, -0.337708, 0.000000, 0.524164, -0.554720, -0.102228, 0.180371, -0.275484, -0.380967, 0.489002, -0.054270, 0.000001, 0.000001, -0.626660, 0.315139, 0.021099, -0.303985, -0.122394, -0.000001, 0.000000, -0.000000, -0.000001, 0.000001, 0.149102, -0.103621, 0.000001, -0.000001, -0.000001, 0.000117, 0.000002, 0.132535, 0.000000, 0.333875, -0.000002, -0.233203, -0.153481, 0.309169, 0.042208}, {0.508634, 0.240585, -0.000001, -0.045666, -0.000002, -0.364921, 0.003296, -0.700834, 0.186685, 0.360885, 0.131873, -0.278300, -0.206926, -0.000000, -0.000001, 0.171846, 0.175102, 0.289570, 0.188194, -0.213201, -0.000000, -0.000001, -0.000000, -0.000001, -0.000000, -0.024348, 0.161851, -0.000001, 0.000001, -0.000000, -0.192007, -0.000002, 0.355817, -0.000001, 0.030854, 0.000002, 0.266201, -0.121793, 0.207309, 0.484076}, {0.097577, -0.517753, 0.000001, 0.346829, -0.000000, 0.071389, -0.511255, -0.642563, 0.181186, -0.118185, 0.439858, -0.057531, -0.368381, -0.000001, 0.000000, -0.033060, 0.214738, 0.146020, -0.506991, -0.317509, 0.000000, -0.000001, -0.000001, 0.000001, -0.000000, -0.394578, -0.182554, -0.000000, 0.000001, 0.000001, 0.103367, 0.000000, 0.498405, -0.000001, -0.242913, 0.000000, 0.132579, -0.108742, 0.069495, 0.101833}, {-0.183017, 0.140166, 0.000000, -0.255508, -0.000000, 0.022778, -0.523309, -0.296490, 0.271905, 0.222905, 0.373679, -0.065260, -0.230902, 0.000001, -0.000000, -0.121611, 0.077342, 0.015055, -0.118270, -0.535712, 0.000000, 0.000002, -0.000001, 0.000001, -0.000002, -0.598617, -0.087665, 0.000000, 0.000001, 0.000001, -0.106137, 0.000001, 0.274400, -0.000000, 0.198642, 0.000001, -0.087036, 0.314893, 0.233333, 0.086110}, {-0.404307, -0.173391, -0.000001, 0.370989, 0.000002, -0.297037, 0.062169, -0.796572, -0.464353, 0.331645, -0.847852, -0.705163, 0.197443, 0.000001, -0.000001, 0.143834, -0.061474, -0.882547, -0.818843, -0.497699, 0.000000, -0.000001, 0.000000, 0.000001, 0.000001, -0.174104, 0.248566, -0.000003, 0.000001, -0.000002, -0.737595, 0.000000, 0.046436, -0.000001, -0.274061, 0.000002, -0.284455, 0.521873, -1.312805, -0.059172}, {-0.214563, -0.326187, 0.000001, 0.270738, -0.000000, -0.242527, 0.443517, -0.005893, -0.133570, 0.023333, -0.031002, -0.175056, -0.475961, -0.000002, -0.000001, -0.316990, 0.358124, 0.170085, 0.195358, 0.024406, -0.000002, -0.000000, -0.000001, -0.000001, -0.000002, -0.169199, 0.347874, -0.000000, -0.000001, 0.000000, 0.005359, -0.000000, 0.003488, 0.000001, 0.138624, -0.000000, 0.069336, 0.291916, -0.999112, -0.289374}, {-0.266707, -0.164245, -0.000000, -1.069136, 0.000000, -0.216867, 0.164266, -0.879615, 0.085201, -0.507468, -0.200328, -0.026049, 0.408838, -0.000002, 0.000000, 0.276843, -0.537228, -0.433393, 0.036247, -0.291629, 0.000000, -0.000000, 0.000001, -0.000001, -0.000003, 0.111342, -0.397874, 0.000001, 0.000000, 0.000000, -0.153485, -0.000000, 0.289601, -0.000001, 0.070075, -0.000000, 0.160730, 0.161270, -0.118814, -0.384700}, {0.166762, 0.423543, -0.000001, 0.176833, 0.000000, 0.449146, 0.158149, -0.846002, 0.180825, 0.078872, -0.027242, -0.345763, 0.051526, 0.000001, -0.000001, 0.052152, 0.350036, -0.937019, 0.159551, -0.502957, -0.000000, -0.000001, -0.000001, 0.000001, -0.000002, -0.862257, -0.741845, -0.000002, 0.000001, -0.000000, 0.041447, 0.000001, -0.468436, -0.000001, -0.285224, 0.000000, -0.288460, -0.547774, 0.049782, -0.295413}, {0.124499, -0.124400, -0.000001, -0.409773, -0.000001, 0.288313, -0.286202, 0.149287, 0.198410, -0.200368, 0.316131, 0.203987, -0.309392, -0.000001, 0.000001, -0.589854, -0.251288, -0.175711, 0.221900, -0.348248, 0.000000, -0.000002, 0.000001, 0.000001, 0.000001, -0.091696, 0.333791, 0.000001, -0.000000, 0.000000, -0.323196, -0.000002, -0.888148, 0.000001, -0.283371, -0.000001, -0.522460, 0.268783, -0.460393, 0.477323}, {-0.320621, -0.752992, 0.000001, -0.076924, -0.000002, 0.371489, -0.236542, -0.372109, -0.799574, 0.626095, -0.228578, -0.126431, 0.587600, 0.000001, 0.000002, -0.170485, -0.150392, -0.645001, -0.387418, -0.425337, -0.000002, -0.000001, -0.000001, 0.000002, -0.000002, -0.814828, 0.504892, -0.000005, 0.000001, -0.000001, -0.956204, 0.000001, 0.041224, 0.000001, -1.065141, -0.000000, -1.102248, 0.171111, 0.018959, -0.304367}, {-0.652543, -1.097200, 0.000001, -1.125369, 0.000000, 0.216732, -0.171888, -0.049582, 0.618404, -0.672961, 0.049046, -0.404248, -0.031679, 0.000001, 0.000001, 0.466100, 0.166821, -0.468642, -0.261390, 0.169943, -0.000000, 0.000001, -0.000000, 0.000001, -0.000003, -1.103605, 0.362798, 0.000005, -0.000002, 0.000001, 0.590512, 0.000000, -0.107489, -0.000000, -0.790364, -0.000002, -0.626625, -0.742075, -0.539264, -0.153356}};
static const float * p_layer_1_weight = layer_1_weight;
static const float layer_1_bias[40] = {0.199586, 0.072185, -0.118039, 0.022303, -0.151218, -0.190996, -0.071715, 0.177246, -0.094133, 0.028983, 0.037071, 0.209471, 0.043685, -0.203932, -0.153045, 0.081922, -0.106994, -0.013542, 0.146120, 0.144167, -0.143439, -0.161748, -0.190922, -0.180778, -0.170389, 0.175165, -0.035455, -0.189163, -0.233643, -0.101118, 0.156671, -0.209833, -0.213683, -0.262618, 0.126922, -0.157081, 0.136861, -0.121671, 0.118395, 0.012155};
static const float * p_layer_1_bias = layer_1_bias;
static const float layer_2_weight[40][40] = {{-0.001255, -0.000005, 0.181723, 0.015064, 0.233338, 0.003338, -0.000010, -0.098265, -0.000012, -0.000035, -0.000016, 0.064059, 0.072167, 0.000027, 0.153395, -1.161438, -0.000000, -1.344393, 0.000043, -0.000007, 0.038122, -0.000013, 0.216101, -0.000111, -0.098816, -0.000036, -0.000056, -0.000031, -0.000019, -0.000003, 0.134203, -0.000002, 0.173699, 0.254210, -0.000016, 0.195145, -0.395986, -0.000003, -0.170418, -0.029636}, {0.000190, -0.000015, -0.783441, -0.159798, 0.548736, -0.025151, -0.000001, -0.579272, 0.000007, -0.000030, -0.000003, 0.054568, -0.005317, -0.000057, 0.415502, -1.263308, 0.000009, -0.529586, -0.000280, 0.000008, 0.130793, 0.000079, 0.408381, 0.000101, 0.200853, 0.000069, -0.000032, 0.000057, 0.000005, 0.000010, 0.290188, -0.000012, -0.453717, -0.224211, -0.000017, 0.370970, 0.024899, -0.000008, 0.123513, -0.351071}, {0.000017, -0.000017, 0.000008, 0.000002, -0.000003, 0.000006, 0.000000, -0.000016, -0.000010, 0.000015, -0.000018, -0.000007, -0.000016, -0.000015, 0.000017, -0.000011, 0.000003, 0.000009, -0.000013, 0.000012, -0.000003, -0.000001, -0.000008, -0.000004, 0.000012, -0.000005, -0.000000, -0.000014, -0.000014, 0.000007, -0.000012, -0.000010, -0.000010, -0.000008, 0.000016, -0.000008, -0.000001, -0.000013, 0.000008, -0.000002}, {0.005648, 0.000006, -1.075577, 0.293167, 0.511739, 0.022492, 0.000012, -0.559727, -0.000017, -0.000008, 0.000013, 0.148093, -1.100867, 0.000010, 0.096620, -0.274944, -0.000002, 0.137939, -0.000062, 0.000010, -0.730564, 0.000176, -0.088649, -0.000084, -0.303628, 0.000008, 0.000174, 0.000052, -0.000018, -0.000017, -0.226862, 0.000005, -0.876641, 0.112479, 0.000001, 0.407855, 0.143997, 0.000008, 0.146626, 0.565515}, {0.000017, 0.000015, -0.000001, 0.000010, -0.000006, -0.000005, 0.000003, 0.000005, -0.000000, 0.000006, 0.000016, -0.000017, 0.000009, -0.000012, -0.000015, 0.000015, -0.000017, -0.000005, 0.000003, 0.000013, 0.000017, -0.000007, -0.000012, 0.000015, 0.000010, 0.000004, -0.000008, 0.000014, 0.000007, 0.000016, 0.000005, 0.000005, 0.000007, 0.000009, 0.000010, 0.000000, -0.000010, 0.000017, 0.000010, -0.000005}, {-0.007005, -0.000006, -0.862500, -0.312843, -0.033138, 0.062847, -0.000001, 0.137184, -0.000003, 0.000016, 0.000004, 0.151296, -0.207445, -0.000040, -0.452897, -0.142448, -0.000014, 0.857972, -0.000274, -0.000001, -0.464268, -0.000176, -0.584597, -0.000058, -0.250147, -0.000111, -0.000565, -0.000196, 0.000020, 0.000018, -0.111087, 0.000000, -0.309756, -0.065900, 0.000007, 0.491108, -1.402515, -0.000012, 0.245985, 0.080161}, {-0.003906, -0.000010, 0.418461, 0.005496, 0.305015, 0.258098, -0.000005, 0.035002, 0.000002, -0.000004, -0.000003, -0.029208, 0.004667, -0.000017, 0.275130, -1.115946, -0.000006, -0.566762, -0.000158, -0.000012, -0.188476, -0.000129, 0.085629, -0.000105, -0.717133, -0.000088, 0.000086, -0.000131, -0.000017, -0.000018, 0.052858, -0.000003, 0.261277, -0.329567, 0.000011, 0.286424, 0.195250, -0.000018, -0.137873, 0.428890}, {-0.006533, 0.000015, -1.589470, -0.112099, 0.074426, 0.107341, -0.000005, -0.618633, 0.000013, -0.000016, 0.000003, -0.019131, -0.228761, -0.000011, -0.682339, 0.560342, -0.000015, -0.185776, -0.000480, 0.000004, -1.140231, -0.000160, -0.444781, -0.000107, -0.678850, -0.000084, -0.000190, -0.000151, 0.000004, 0.000009, -0.664814, -0.000013, -0.273512, -0.062746, -0.000011, 0.262493, 0.142565, 0.000003, -0.226138, 0.619455}, {-0.007830, -0.000000, 0.391656, -0.827568, 0.039314, 0.158819, -0.000015, 0.369850, -0.000014, -0.000015, -0.000013, 0.175492, 0.331771, -0.000009, 0.001722, -0.695260, -0.000005, 0.048325, 0.000345, -0.000009, 0.481404, -0.000013, 0.095494, 0.000018, -0.690245, 0.000088, 0.000012, 0.000004, -0.000016, 0.000011, -0.263145, -0.000014, 0.203197, -0.178955, -0.000016, -0.746121, -1.233210, -0.000017, 0.004192, 0.194168}, {-0.007966, -0.000015, 0.365573, -0.421772, -0.011680, -0.227447, -0.000005, -0.658553, -0.000006, -0.000012, -0.000022, 0.186455, -0.130431, -0.000012, -0.473286, 0.043356, -0.000012, 0.242586, -0.000364, -0.000008, 0.003416, 0.000010, 0.456335, -0.000030, -0.247213, 0.000046, -0.000523, -0.000042, -0.000009, -0.000011, -0.882629, -0.000001, 0.036084, -0.588907, -0.000003, -1.082343, -0.000688, 0.000001, -0.375414, 0.508155}, {0.001395, -0.000010, -0.279224, 0.642408, 0.141092, 0.044138, -0.000006, 0.131839, -0.000005, 0.000000, 0.000007, 0.080241, -0.020164, -0.000000, 0.569167, 0.428668, -0.000012, 0.091319, -0.000050, 0.000000, 0.072524, 0.000102, -0.019980, -0.000066, -0.397983, -0.000081, 0.000068, 0.000007, 0.000007, -0.000017, 0.388883, 0.000016, 0.047067, -0.076329, 0.000002, -0.114130, -0.471148, -0.000021, -0.167265, 0.089121}, {0.000206, -0.000017, 0.078947, -0.186307, 0.037843, -0.538821, 0.000010, 0.077328, -0.000016, -0.000017, -0.000010, -0.277620, 0.022596, -0.000021, -0.134071, -0.129995, -0.000004, -0.185961, -0.000014, 0.000014, 0.039793, -0.000211, 0.089096, 0.000039, 0.002744, -0.000012, -0.000001, -0.000099, 0.000008, -0.000006, -0.070407, 0.000002, -0.263661, -0.196911, -0.000000, -0.100371, 0.123791, -0.000007, -0.909980, -0.187960}, {-0.011287, 0.000013, -0.502006, -0.477459, -0.249616, 0.192067, -0.000010, -0.584591, 0.000009, -0.000044, -0.000013, -0.807434, -1.073428, -0.000021, -0.305737, -0.087734, -0.000019, 0.080941, -0.000500, 0.000005, -0.452704, -0.000125, -1.019849, -0.000186, -0.080972, -0.000054, -0.000744, -0.000200, -0.000008, -0.000018, -0.422145, -0.000012, -0.285701, -0.012073, -0.000022, -1.007622, 0.075618, -0.000005, 0.238307, 0.251567}, {0.000003, 0.000003, 0.000007, -0.000001, 0.000007, 0.000016, 0.000007, 0.000008, -0.000011, -0.000007, -0.000009, 0.000004, 0.000003, 0.000015, -0.000007, -0.000000, 0.000002, 0.000014, -0.000006, -0.000008, -0.000022, 0.000004, -0.000011, 0.000007, -0.000007, 0.000006, -0.000006, -0.000022, -0.000007, 0.000000, 0.000001, 0.000013, 0.000009, 0.000012, 0.000018, -0.000005, -0.000019, 0.000008, 0.000018, 0.000017}, {-0.000002, 0.000005, -0.000011, 0.000006, 0.000011, -0.000005, -0.000014, -0.000010, 0.000003, 0.000004, 0.000017, -0.000005, 0.000004, 0.000022, 0.000017, -0.000000, 0.000004, -0.000003, 0.000010, -0.000001, -0.000011, 0.000002, 0.000007, -0.000009, -0.000017, -0.000008, -0.000006, -0.000007, 0.000003, -0.000006, -0.000002, -0.000016, 0.000018, 0.000013, 0.000009, -0.000008, 0.000005, 0.000005, 0.000010, 0.000019}, {-0.000447, 0.000015, 0.208365, 0.175131, -0.125059, 0.357583, 0.000008, 0.287230, 0.000009, -0.000023, -0.000005, -0.056893, 0.363889, -0.000065, 0.071213, -0.257891, -0.000016, -0.072652, -0.000310, 0.000010, -0.118799, -0.000131, 0.053817, -0.000156, 0.390505, -0.000008, -0.000190, -0.000140, -0.000017, 0.000012, 0.002654, 0.000006, -1.249032, -0.538066, -0.000002, -0.477668, -0.708334, -0.000011, -0.069339, 0.227178}, {-0.001614, 0.000005, -0.179058, -0.188772, 0.701194, 0.048300, 0.000013, -1.129005, 0.000010, -0.000005, 0.000005, 0.260953, -0.320529, 0.000058, 0.333717, 0.120650, 0.000010, 0.286545, -0.000621, -0.000005, -0.340841, 0.000096, 0.154127, 0.000057, -0.006492, -0.000038, 0.000244, 0.000114, -0.000022, -0.000012, -0.680672, -0.000003, -0.135521, 0.199215, 0.000004, 0.302276, -0.980644, -0.000017, 0.004706, 0.260012}, {0.002099, 0.000014, 0.116641, 0.176990, 0.256522, -0.235053, -0.000002, -0.031461, -0.000002, 0.000001, -0.000001, 0.108258, 0.249900, 0.000010, 0.299500, -0.129315, -0.000016, 0.117085, 0.000096, -0.000001, 0.131262, 0.000020, 0.161155, 0.000024, -0.187836, -0.000002, 0.000290, 0.000046, -0.000003, 0.000016, -0.111214, -0.000011, -0.005909, 0.305055, 0.000003, 0.085421, -1.568797, -0.000009, -0.530417, -1.071318}, {0.003544, -0.000009, -0.009446, 0.193920, 0.048569, 0.388773, -0.000001, -0.089684, -0.000013, -0.000003, 0.000004, -0.473473, 0.199385, 0.000031, 0.156073, -0.350034, -0.000025, -0.928678, 0.000339, -0.000013, 0.172257, 0.000050, 0.417867, -0.000047, 0.084832, 0.000031, -0.000069, 0.000018, 0.000009, 0.000003, 0.157056, 0.000010, 0.397617, -0.177690, 0.000001, 0.373608, 0.497898, 0.000008, 0.107260, 0.170798}, {-0.000803, -0.000009, 0.248774, 0.184603, 0.149948, 0.116101, -0.000004, -0.036331, 0.000007, 0.000008, -0.000011, -0.265575, 0.008458, -0.000036, 0.027296, -1.598313, 0.000013, -0.000513, -0.000281, 0.000005, 0.144484, -0.000205, -0.099847, -0.000056, -0.528712, -0.000043, 0.000034, -0.000087, -0.000022, -0.000007, 0.039027, -0.000017, 0.285444, -0.861826, -0.000020, 0.063902, -0.003363, -0.000020, 0.012777, -0.105737}, {0.000015, -0.000009, -0.000006, -0.000017, -0.000002, -0.000014, -0.000004, -0.000014, 0.000004, 0.000003, -0.000014, -0.000008, -0.000008, -0.000008, 0.000001, 0.000005, -0.000007, -0.000007, -0.000012, 0.000002, 0.000018, -0.000014, -0.000009, 0.000011, -0.000015, 0.000004, 0.000007, 0.000004, -0.000011, -0.000012, -0.000009, 0.000016, 0.000013, 0.000017, -0.000015, -0.000007, -0.000010, -0.000002, 0.000003, -0.000001}, {-0.000004, -0.000010, 0.000007, -0.000008, -0.000021, 0.000017, 0.000009, -0.000003, -0.000016, -0.000015, -0.000008, 0.000010, -0.000001, -0.000003, 0.000010, -0.000011, 0.000007, 0.000008, -0.000005, -0.000008, 0.000007, 0.000010, -0.000005, -0.000008, 0.000017, -0.000008, 0.000001, -0.000001, 0.000008, 0.000014, -0.000007, 0.000007, 0.000006, -0.000022, -0.000012, 0.000002, 0.000009, -0.000012, 0.000000, 0.000017}, {0.000000, 0.000006, 0.000016, 0.000008, 0.000015, 0.000016, -0.000009, 0.000015, 0.000004, -0.000017, 0.000012, 0.000006, -0.000004, -0.000014, -0.000016, -0.000010, 0.000014, -0.000003, -0.000018, 0.000005, -0.000013, 0.000018, 0.000001, 0.000012, 0.000013, -0.000003, -0.000017, 0.000000, 0.000005, 0.000002, -0.000006, -0.000004, 0.000012, -0.000002, 0.000015, -0.000011, -0.000004, -0.000007, 0.000001, -0.000013}, {-0.000008, -0.000015, -0.000001, 0.000017, -0.000018, 0.000001, 0.000003, -0.000013, -0.000005, 0.000005, 0.000012, -0.000018, -0.000003, -0.000005, -0.000004, -0.000003, -0.000015, -0.000014, 0.000002, 0.000016, -0.000018, 0.000011, 0.000004, -0.000003, -0.000016, 0.000012, -0.000009, 0.000009, 0.000011, -0.000001, -0.000019, 0.000011, 0.000006, -0.000014, 0.000009, 0.000010, 0.000014, 0.000016, 0.000006, -0.000011}, {-0.000010, 0.000007, 0.000026, -0.000005, -0.000013, 0.000014, -0.000012, 0.000017, -0.000002, -0.000008, -0.000007, 0.000020, 0.000012, 0.000014, -0.000005, -0.000018, 0.000008, 0.000002, 0.000004, -0.000003, 0.000003, 0.000003, 0.000016, -0.000009, -0.000010, -0.000009, 0.000003, 0.000019, 0.000000, -0.000009, 0.000001, -0.000011, -0.000004, 0.000002, -0.000006, 0.000017, 0.000016, 0.000009, -0.000008, -0.000005}, {0.004306, 0.000006, -0.868769, 0.024567, -0.016252, -0.730383, -0.000008, -0.068021, 0.000015, -0.000032, -0.000018, -0.030147, -0.290164, -0.000042, -0.160996, -0.217885, -0.000002, -1.068012, 0.000089, -0.000010, 0.278700, 0.000113, 0.199642, 0.000198, -0.243768, 0.000101, 0.000264, 0.000153, -0.000010, -0.000009, 0.092084, 0.000011, -0.415749, -0.505950, -0.000015, -0.259501, 0.038766, -0.000012, -0.693078, -0.306347}, {-0.006658, -0.000005, -0.186936, 0.047621, 0.092728, 0.013875, -0.000009, -0.248168, 0.000013, -0.000002, -0.000001, -0.513521, -0.706385, -0.000038, -0.074697, -0.158816, -0.000020, -0.539057, -0.000720, -0.000005, -0.746531, -0.000316, -0.127821, -0.000141, -0.300482, -0.000208, 0.000090, -0.000184, 0.000000, -0.000012, -0.191435, -0.000011, 0.149751, -0.562427, 0.000002, 0.385861, -1.051514, -0.000002, 0.201866, -0.022394}, {0.000004, 0.000002, -0.000007, -0.000000, -0.000011, -0.000010, 0.000001, 0.000016, 0.000012, -0.000002, -0.000002, 0.000019, 0.000002, 0.000005, -0.000016, -0.000024, 0.000006, 0.000025, -0.000010, 0.000002, 0.000002, 0.000012, -0.000007, 0.000004, 0.000004, -0.000001, -0.000001, 0.000014, 0.000008, 0.000006, -0.000004, 0.000001, -0.000013, 0.000013, -0.000021, -0.000004, 0.000007, -0.000003, 0.000003, -0.000022}, {-0.000005, -0.000012, 0.000013, -0.000007, 0.000021, -0.000010, 0.000000, -0.000003, 0.000004, 0.000012, -0.000002, 0.000013, 0.000013, -0.000017, 0.000007, 0.000013, -0.000016, -0.000002, -0.000005, -0.000003, 0.000010, -0.000007, -0.000008, 0.000012, -0.000018, -0.000001, 0.000008, 0.000014, 0.000004, -0.000008, -0.000004, 0.000009, 0.000009, 0.000010, 0.000017, -0.000003, 0.000006, 0.000008, 0.000017, 0.000003}, {-0.000010, -0.000011, 0.000006, -0.000001, -0.000014, -0.000023, 0.000002, -0.000018, -0.000006, -0.000016, 0.000012, -0.000007, 0.000006, 0.000019, -0.000015, -0.000005, 0.000004, -0.000013, 0.000002, -0.000013, 0.000003, 0.000006, 0.000011, -0.000017, 0.000011, 0.000013, -0.000004, -0.000019, -0.000004, -0.000017, -0.000004, -0.000014, -0.000007, 0.000003, 0.000003, 0.000001, 0.000006, -0.000014, 0.000021, 0.000019}, {0.000763, 0.000006, -0.799943, 0.035981, -0.131621, 0.134081, 0.000001, 0.184165, -0.000000, 0.000005, 0.000003, -0.435542, 0.238280, -0.000030, -0.130732, 0.198521, -0.000018, -0.186632, -0.000167, 0.000014, -0.141076, -0.000153, -0.136442, -0.000010, -1.166633, -0.000024, -0.000096, -0.000085, -0.000005, 0.000008, 0.040547, -0.000017, -0.090683, -0.283013, -0.000015, 0.297871, -0.408690, 0.000002, -1.024150, -0.011382}, {0.000018, 0.000008, 0.000016, 0.000004, -0.000011, 0.000012, 0.000005, -0.000001, 0.000006, -0.000017, 0.000015, -0.000015, 0.000004, -0.000000, 0.000005, -0.000009, 0.000018, 0.000016, -0.000017, 0.000012, -0.000013, 0.000002, 0.000007, -0.000001, -0.000008, -0.000002, 0.000001, 0.000017, 0.000006, 0.000010, 0.000001, 0.000013, -0.000004, -0.000004, -0.000017, -0.000015, -0.000010, -0.000005, -0.000010, 0.000006}, {0.003169, -0.000017, -0.790961, -0.202252, -0.647699, -0.522762, 0.000006, 0.114847, -0.000011, 0.000007, -0.000014, -0.758238, 0.248730, -0.000053, -0.066316, 0.577038, -0.000002, -0.036472, 0.000434, 0.000007, 0.031574, 0.000340, 0.061868, -0.000098, -0.416310, 0.000021, 0.000379, 0.000312, -0.000005, -0.000010, -0.375200, 0.000017, 0.420215, 0.129012, 0.000004, 0.412319, -0.408117, 0.000002, -0.221465, -0.202924}, {-0.000012, 0.000001, 0.000015, -0.000001, 0.000003, 0.000004, -0.000007, -0.000017, -0.000008, -0.000006, 0.000001, 0.000009, 0.000007, -0.000007, 0.000013, -0.000005, -0.000008, 0.000009, -0.000010, 0.000013, 0.000006, 0.000006, 0.000014, -0.000005, -0.000017, -0.000013, -0.000012, -0.000015, 0.000004, 0.000001, -0.000010, 0.000017, 0.000018, 0.000006, -0.000010, 0.000001, -0.000003, 0.000008, -0.000018, -0.000001}, {-0.003046, 0.000011, -1.278621, -0.719424, -0.227123, -1.821393, -0.000016, 0.235089, -0.000015, -0.000004, -0.000005, -0.430823, 0.068979, -0.000103, -0.113453, 0.235733, 0.000004, 0.038075, -0.000159, -0.000005, -0.005791, -0.000095, 0.059240, -0.000014, -0.090389, 0.000015, -0.000096, -0.000067, 0.000011, 0.000008, 0.251356, -0.000005, -0.406482, -0.335042, -0.000003, 0.250985, 0.311594, 0.000009, -0.246122, 0.155451}, {-0.000025, -0.000010, 0.000015, -0.000001, 0.000002, 0.000003, -0.000003, -0.000007, -0.000010, 0.000016, -0.000014, -0.000008, -0.000013, 0.000027, -0.000013, 0.000006, 0.000004, -0.000002, -0.000019, -0.000008, -0.000017, -0.000020, -0.000001, 0.000000, 0.000008, 0.000006, -0.000014, 0.000015, 0.000016, -0.000001, -0.000008, 0.000014, -0.000009, -0.000001, -0.000014, 0.000005, -0.000005, -0.000009, -0.000010, -0.000004}, {0.003613, -0.000002, 0.357312, -0.009401, -0.134040, -0.213302, -0.000000, -0.002223, -0.000011, -0.000017, -0.000006, -0.164284, 0.316302, -0.000052, 0.364456, -0.250947, 0.000005, 0.145882, 0.000564, -0.000015, 0.362588, 0.000212, 0.661409, 0.000159, 0.058148, 0.000199, 0.000137, 0.000175, 0.000007, 0.000010, 0.098731, -0.000005, -0.412312, 0.171056, -0.000021, -0.024908, -0.566262, -0.000014, -0.037582, 0.251639}, {-0.011498, 0.000005, -0.475812, -0.907108, -0.162424, 0.086881, -0.000010, -0.245328, -0.000012, 0.000009, 0.000006, 0.270447, -0.099786, 0.000041, -0.556283, -0.034469, -0.000011, -0.367345, -0.000423, 0.000001, -0.470231, -0.000227, -0.847002, -0.000130, -0.233871, -0.000182, -0.000319, -0.000115, 0.000001, -0.000014, -0.632129, -0.000017, 0.422643, -0.705015, -0.000024, -0.106250, -0.460524, 0.000001, 0.258272, 0.548140}, {-0.003721, 0.000003, -0.147110, -0.482687, 0.286223, 0.475683, 0.000008, -0.400311, 0.000003, 0.000002, 0.000012, 0.631170, 0.359520, 0.000076, 0.074731, -0.330855, 0.000002, -0.285668, 0.000154, -0.000007, 0.373936, -0.000179, 0.522991, 0.000048, 0.176228, -0.000025, 0.000135, -0.000002, -0.000019, -0.000010, 0.698058, 0.000013, -0.361878, 0.789382, 0.000002, 0.531958, -0.864439, -0.000019, 0.302160, 0.489211}, {-0.001817, -0.000003, -0.114428, 0.100375, 0.447076, 0.011861, -0.000009, -0.384700, 0.000012, -0.000009, 0.000007, 0.478364, -0.112535, -0.000020, -0.223748, 0.233018, -0.000005, 0.280157, -0.000422, 0.000010, -0.330831, -0.000137, 0.242274, -0.000006, -0.058796, -0.000023, 0.000031, -0.000009, -0.000013, 0.000003, 0.500883, 0.000013, 0.118558, -0.198182, -0.000016, -0.294500, -0.074012, -0.000003, -0.198753, -0.520705}};
static const float * p_layer_2_weight = layer_2_weight;
static const float layer_2_bias[40] = {-0.072901, -0.139239, 0.062734, 0.081538, -0.134428, 0.030670, -0.105393, 0.126360, -0.139045, -0.101567, -0.153262, 0.033088, 0.004506, -0.051408, 0.071910, 0.218113, -0.092935, 0.096250, -0.145688, -0.086654, 0.057654, -0.151915, -0.171186, -0.079327, 0.206738, -0.122797, -0.093848, -0.089463, -0.234089, -0.078162, 0.020123, -0.094571, 0.067784, 0.165101, -0.109804, -0.148990, 0.095184, -0.033820, 0.175844, -0.069035};
static const float * p_layer_2_bias = layer_2_bias;
static const float layer_3_weight[40][40] = {{0.000006, -0.000007, -0.000000, 0.000001, 0.000020, 0.000009, 0.000011, -0.000023, -0.000003, -0.000011, -0.000012, -0.000000, -0.000017, 0.000000, 0.000001, 0.000009, -0.000003, 0.000002, -0.000013, -0.000000, 0.000004, -0.000000, -0.000003, -0.000020, 0.000001, 0.000001, 0.000001, -0.000000, -0.000006, 0.000009, 0.000001, -0.000007, 0.000001, -0.000014, -0.000013, -0.000006, -0.000008, 0.000015, -0.000000, 0.000000}, {-0.000000, -0.000000, -0.000000, -0.000000, -0.000000, -0.000000, -0.000000, 0.000000, -0.000000, -0.000000, -0.000000, -0.000000, -0.000000, 0.000000, 0.000000, -0.000000, -0.000000, -0.000000, 0.000000, -0.000000, -0.000000, -0.000000, 0.000000, 0.000000, -0.000000, 0.000000, -0.000000, 0.000000, 0.000000, 0.000000, 0.000000, 0.000000, -0.000000, 0.000000, -0.000000, 0.000000, 0.000000, -0.000000, 0.000000, -0.000000}, {0.062226, -0.284276, -0.315302, 0.131204, 0.622624, -0.319415, 0.499557, -0.624297, 0.063261, -0.467782, -0.526193, -0.316381, -0.588441, 0.316929, 0.321648, -0.269431, 0.062788, 0.014459, -0.068069, 0.364384, 0.259189, -0.317885, 0.064721, -0.512668, 0.472874, 0.017396, -0.331735, 0.347248, 0.498627, 0.229348, 0.318807, 0.505600, -0.137530, 0.348999, 0.369375, 0.332227, -0.026606, 0.337186, -0.315236, 0.317727}, {-0.029328, 0.320001, 0.139090, -0.114415, -0.503075, -0.145035, -0.588780, 0.542757, 0.117272, 0.325009, 0.292742, 0.139478, 0.597035, -0.139404, -0.141364, -0.145961, 0.115311, 0.054370, 0.289297, 0.127783, -0.286458, 0.139810, 0.118330, 0.479025, 0.079916, 0.056560, -0.127885, 0.107621, -0.031736, -0.340969, -0.140892, -0.067499, -0.107601, 0.146911, 0.148793, 0.137105, -0.222926, -0.378135, 0.139266, -0.139218}, {-0.042650, 0.277637, 0.031619, 0.333977, 0.046307, -0.320266, 0.257586, -0.112977, 0.167471, 0.240960, 0.179472, 0.031547, -0.164750, -0.031361, -0.031540, -0.295845, 0.166252, -0.006490, 0.427020, 0.318457, -0.175043, 0.031541, 0.168825, 0.111055, 0.305158, -0.005371, -0.303343, 0.286181, 0.298605, -0.317158, -0.031808, 0.295857, -0.205954, 0.347258, 0.392560, 0.336909, -0.005213, -0.300486, 0.031338, -0.031154}, {-0.021905, -0.186710, -0.267693, -0.193029, -0.040210, 0.125805, -0.182129, 0.092126, -0.076303, -0.005527, 0.048686, -0.268681, 0.120645, 0.268620, 0.275055, 0.116692, -0.065794, -0.035452, -0.317702, -0.110402, 0.403605, -0.270294, -0.080272, -0.144557, -0.095988, -0.041914, 0.099327, -0.073459, -0.140550, 0.359263, 0.272748, -0.221871, 0.030782, -0.146572, -0.181867, -0.130505, -0.001282, 0.280794, -0.266918, 0.268639}, {-0.000000, 0.000000, -0.000000, -0.000000, -0.000000, 0.000000, -0.000000, -0.000000, -0.000000, -0.000000, 0.000000, 0.000000, 0.000000, -0.000000, 0.000000, 0.000000, 0.000000, -0.000000, 0.000000, -0.000000, 0.000000, 0.000000, -0.000000, 0.000000, 0.000000, -0.000000, 0.000000, -0.000000, 0.000000, 0.000000, -0.000000, -0.000000, -0.000000, 0.000000, -0.000000, -0.000000, 0.000000, -0.000000, -0.000000, 0.000000}, {-0.037267, -0.262460, 0.322657, -0.474892, 0.080499, -0.400660, -0.255754, 0.024313, 0.465690, -0.171027, -0.035830, 0.322325, 0.124390, -0.322198, -0.320654, -0.428663, 0.470642, 0.075972, -0.087867, 0.377458, 0.099962, 0.321911, 0.464052, -0.182239, 0.283758, 0.058875, -0.394771, 0.362247, 0.104022, 0.193546, -0.321508, -0.020516, -0.474475, 0.376953, 0.301811, 0.352316, 0.098020, 0.278496, 0.322694, -0.321996}, {-0.000000, 0.000000, -0.000000, -0.000000, 0.000000, -0.000000, -0.000000, 0.000000, -0.000000, 0.000000, 0.000000, -0.000000, -0.000000, 0.000000, 0.000000, -0.000000, 0.000000, -0.000000, -0.000000, -0.000000, -0.000000, -0.000000, 0.000000, 0.000000, 0.000000, 0.000000, -0.000000, -0.000000, -0.000000, -0.000000, -0.000000, -0.000000, 0.000000, -0.000000, 0.000000, 0.000000, 0.000000, 0.000000, 0.000000, -0.000000}, {-0.000000, -0.000000, -0.000000, -0.000000, -0.000000, -0.000000, 0.000000, 0.000000, 0.000000, -0.000000, -0.000000, -0.000000, 0.000000, -0.000000, 0.000000, 0.000000, 0.000000, -0.000000, 0.000000, 0.000000, 0.000000, 0.000000, 0.000000, 0.000000, 0.000000, -0.000000, -0.000000, 0.000000, -0.000000, -0.000000, 0.000000, 0.000000, -0.000000, 0.000000, 0.000000, 0.000000, -0.000000, 0.000000, -0.000000, 0.000000}, {-0.000000, 0.000000, 0.000000, 0.000000, 0.000000, -0.000000, 0.000000, 0.000000, 0.000000, 0.000000, 0.000000, -0.000000, -0.000000, -0.000000, -0.000000, -0.000000, -0.000000, -0.000000, -0.000000, 0.000000, 0.000000, -0.000000, -0.000000, 0.000000, 0.000000, 0.000000, 0.000000, -0.000000, 0.000000, -0.000000, 0.000000, -0.000000, 0.000000, 0.000000, -0.000000, -0.000000, -0.000000, 0.000000, 0.000000, 0.000000}, {-0.166072, 0.411781, 0.183939, 0.384871, -0.018929, -0.249261, 0.370255, -0.094822, 0.390813, 0.379082, 0.217852, 0.182676, -0.229320, -0.182467, -0.178353, -0.287787, 0.396366, -0.035480, 0.072085, 0.239334, 0.168124, 0.182321, 0.388131, 0.069380, 0.185700, -0.085325, -0.266482, 0.264491, 0.166766, 0.005747, -0.180053, 0.244263, -0.391199, 0.208441, 0.158696, 0.224039, -0.134919, -0.245617, 0.182365, -0.182492}, {-0.116524, 0.130770, 0.209883, 0.099843, 0.034397, -0.233285, 0.000075, -0.027387, 0.236154, 0.109061, 0.011192, 0.210086, -0.010548, -0.209934, -0.209867, -0.255872, 0.236485, 0.067555, 0.110222, 0.195676, -0.120339, 0.209578, 0.236467, 0.016077, 0.093500, 0.067455, -0.202527, 0.136737, 0.007892, -0.117667, -0.210244, 0.062035, -0.222346, 0.220187, 0.169934, 0.156737, -0.123089, -0.060563, 0.210580, -0.209582}, {-0.000000, 0.000000, 0.000000, 0.000000, -0.000000, -0.000000, -0.000000, 0.000000, 0.000000, 0.000000, 0.000000, 0.000000, 0.000000, 0.000000, -0.000000, 0.000000, 0.000000, -0.000000, -0.000000, 0.000000, -0.000000, 0.000000, 0.000000, -0.000000, 0.000000, -0.000000, -0.000000, 0.000000, 0.000000, 0.000000, -0.000000, 0.000000, -0.000000, -0.000000, -0.000000, -0.000000, 0.000000, 0.000000, -0.000000, 0.000000}, {-0.124905, -0.073308, 0.113498, -0.119609, 0.036242, -0.201813, -0.122153, 0.015195, 0.154065, 0.069733, 0.133183, 0.113733, 0.072802, -0.113543, -0.113307, -0.200691, 0.155628, 0.042521, -0.059374, 0.201608, 0.079915, 0.113067, 0.153908, -0.090242, 0.179072, 0.029064, -0.200198, 0.187945, 0.067675, 0.102814, -0.113839, -0.009172, -0.172766, 0.196513, 0.161931, 0.178024, 0.011113, 0.137604, 0.114391, -0.113112}, {-0.060479, 0.262031, 0.063625, 0.177811, 0.089504, -0.278374, 0.119034, -0.097485, 0.143630, 0.206988, 0.280970, 0.062621, -0.067671, -0.062795, -0.071935, -0.249174, 0.134088, 0.012647, 0.533428, 0.271804, -0.563826, 0.068631, 0.147826, 0.237209, 0.285883, 0.030530, -0.249649, 0.234434, 0.300850, -0.590555, -0.068091, 0.285555, -0.133173, 0.318581, 0.373979, 0.307334, 0.135355, -0.420318, 0.056453, -0.064180}, {0.000000, -0.000000, -0.000000, -0.000000, 0.000000, 0.000000, -0.000000, -0.000000, -0.000000, -0.000000, 0.000000, 0.000000, -0.000000, 0.000000, 0.000000, 0.000000, -0.000000, 0.000000, -0.000000, -0.000000, -0.000000, -0.000000, -0.000000, 0.000000, -0.000000, 0.000000, 0.000000, -0.000000, 0.000000, -0.000000, 0.000000, 0.000000, -0.000000, -0.000000, 0.000000, 0.000000, 0.000000, 0.000000, 0.000000, 0.000000}, {0.088853, -0.154514, -0.209822, 0.113922, 0.139718, -0.317431, 0.089621, -0.154913, 0.189675, -0.189637, -0.259119, -0.212750, -0.149439, 0.213141, 0.216004, -0.293527, 0.187703, -0.052672, 0.296277, 0.324554, 0.000092, -0.210369, 0.191263, -0.090332, 0.346233, -0.050101, -0.308875, 0.304860, 0.223436, -0.100599, 0.214370, 0.111663, -0.220777, 0.337700, 0.369197, 0.323933, -0.122089, 0.017855, -0.215922, 0.212775}, {-0.000000, 0.000000, 0.000000, 0.000000, -0.000000, -0.000000, -0.000000, 0.000000, -0.000000, 0.000000, 0.000000, 0.000000, 0.000000, -0.000000, -0.000000, -0.000000, -0.000000, 0.000000, 0.000000, -0.000000, -0.000000, 0.000000, -0.000000, 0.000000, -0.000000, 0.000000, 0.000000, -0.000000, 0.000000, -0.000000, -0.000000, 0.000000, 0.000000, 0.000000, 0.000000, 0.000000, 0.000000, -0.000000, 0.000000, -0.000000}, {0.000000, 0.000000, 0.000000, 0.000000, 0.000000, -0.000000, -0.000000, -0.000000, 0.000000, -0.000000, 0.000000, 0.000000, -0.000000, -0.000000, -0.000000, 0.000000, -0.000000, 0.000000, 0.000000, 0.000000, -0.000000, -0.000000, 0.000000, 0.000000, 0.000000, 0.000000, 0.000000, 0.000000, -0.000000, 0.000000, -0.000000, -0.000000, 0.000000, -0.000000, 0.000000, 0.000000, -0.000000, 0.000000, -0.000000, -0.000000}, {0.019347, -0.251819, 0.229955, -0.263229, -0.045275, -0.300980, -0.277140, 0.107229, 0.352285, -0.195196, -0.133106, 0.229980, 0.168510, -0.229790, -0.228779, -0.326376, 0.360440, -0.084457, -0.021339, 0.286218, 0.067695, 0.229248, 0.349793, -0.036347, 0.212126, -0.087570, -0.303305, 0.280565, 0.065429, 0.106236, -0.229572, -0.119367, -0.396102, 0.275127, 0.225064, 0.251642, 0.043668, 0.148189, 0.230658, -0.229388}, {-0.000000, 0.000000, 0.000000, 0.000000, -0.000000, -0.000000, 0.000000, -0.000000, -0.000000, 0.000000, 0.000000, 0.000000, -0.000000, -0.000000, -0.000000, -0.000000, -0.000000, 0.000000, 0.000000, -0.000000, -0.000000, 0.000000, -0.000000, 0.000000, -0.000000, 0.000000, 0.000000, -0.000000, 0.000000, -0.000000, -0.000000, 0.000000, 0.000000, 0.000000, 0.000000, 0.000000, -0.000000, -0.000000, 0.000000, -0.000000}, {0.072249, 0.071247, 0.265345, 0.129697, 0.150187, 0.011674, 0.264544, -0.208085, 0.093532, -0.223801, -0.410261, 0.265664, -0.257192, -0.265554, -0.265621, -0.017751, 0.085075, 0.194341, 0.026667, -0.060572, -0.184451, 0.265075, 0.095620, -0.012410, -0.150205, 0.191950, 0.058941, -0.140878, -0.153016, -0.119348, -0.265845, 0.058003, 0.049379, -0.023624, -0.071038, -0.104992, -0.214325, -0.086557, 0.266218, -0.265245}, {0.000000, -0.000000, -0.000000, -0.000000, 0.000000, 0.000000, 0.000000, -0.000000, 0.000000, -0.000000, -0.000000, -0.000000, -0.000000, 0.000000, 0.000000, 0.000000, 0.000000, 0.000000, -0.000000, -0.000000, 0.000000, -0.000000, 0.000000, -0.000000, -0.000000, 0.000000, 0.000000, 0.000000, -0.000000, 0.000000, 0.000000, -0.000000, 0.000000, -0.000000, -0.000000, -0.000000, -0.000000, 0.000000, -0.000000, 0.000000}, {-0.051000, 0.263508, -0.326062, 0.036890, -0.339923, 0.112114, -0.166354, 0.301213, -0.090933, 0.417317, 0.405058, -0.327500, 0.254571, 0.327458, 0.328684, 0.110107, -0.085719, -0.022682, -0.025947, -0.106579, 0.096630, -0.325863, -0.092842, 0.253001, -0.092978, -0.042613, 0.100962, -0.080279, -0.046084, 0.005062, 0.328481, -0.032661, 0.060116, -0.115533, -0.105656, -0.091807, -0.120345, -0.164220, -0.329505, 0.326769}, {-0.000000, 0.000000, 0.000000, 0.000000, -0.000000, -0.000000, -0.000000, -0.000000, -0.000000, 0.000000, 0.000000, 0.000000, 0.000000, -0.000000, -0.000000, -0.000000, 0.000000, -0.000000, 0.000000, 0.000000, -0.000000, 0.000000, -0.000000, 0.000000, 0.000000, 0.000000, -0.000000, -0.000000, 0.000000, -0.000000, -0.000000, 0.000000, 0.000000, 0.000000, 0.000000, 0.000000, 0.000000, -0.000000, 0.000000, -0.000000}, {-0.000000, 0.000000, -0.000000, -0.000000, 0.000000, -0.000000, 0.000000, -0.000000, -0.000000, 0.000000, 0.000000, -0.000000, 0.000000, 0.000000, 0.000000, 0.000000, -0.000000, -0.000000, -0.000000, -0.000000, 0.000000, -0.000000, -0.000000, -0.000000, -0.000000, -0.000000, 0.000000, -0.000000, 0.000000, 0.000000, 0.000000, 0.000000, -0.000000, 0.000000, -0.000000, 0.000000, -0.000000, 0.000000, -0.000000, 0.000000}, {0.000000, 0.000000, 0.000000, -0.000000, 0.000000, 0.000000, 0.000000, -0.000000, -0.000000, 0.000000, 0.000000, 0.000000, -0.000000, 0.000000, -0.000000, 0.000000, -0.000000, 0.000000, 0.000000, -0.000000, -0.000000, 0.000000, -0.000000, -0.000000, -0.000000, 0.000000, 0.000000, -0.000000, -0.000000, -0.000000, -0.000000, -0.000000, 0.000000, 0.000000, -0.000000, 0.000000, -0.000000, -0.000000, 0.000000, -0.000000}, {-0.000000, -0.000000, 0.000000, -0.000000, -0.000000, 0.000000, 0.000000, -0.000000, -0.000000, -0.000000, 0.000000, -0.000000, 0.000000, 0.000000, 0.000000, -0.000000, -0.000000, -0.000000, -0.000000, -0.000000, 0.000000, -0.000000, 0.000000, 0.000000, -0.000000, -0.000000, 0.000000, 0.000000, -0.000000, 0.000000, -0.000000, 0.000000, 0.000000, 0.000000, -0.000000, -0.000000, -0.000000, 0.000000, 0.000000, -0.000000}, {-0.000000, 0.000000, 0.000000, -0.000000, 0.000000, 0.000000, -0.000000, -0.000000, -0.000000, 0.000000, -0.000000, -0.000000, 0.000000, 0.000000, -0.000000, 0.000000, 0.000000, 0.000000, 0.000000, 0.000000, 0.000000, -0.000000, 0.000000, -0.000000, -0.000000, -0.000000, 0.000000, -0.000000, -0.000000, -0.000000, 0.000000, -0.000000, 0.000000, 0.000000, 0.000000, -0.000000, -0.000000, -0.000000, -0.000000, -0.000000}, {0.059790, 0.022424, 0.065608, -0.052673, -0.041092, -0.416246, -0.201098, 0.097500, 0.322270, 0.163419, 0.301587, 0.065413, 0.171788, -0.065175, -0.063739, -0.421753, 0.330705, 0.026025, 0.019120, 0.405769, 0.121385, 0.064751, 0.320560, -0.029765, 0.335892, 0.039522, -0.412966, 0.388295, 0.121481, 0.078492, -0.064777, 0.021255, -0.412406, 0.402460, 0.363875, 0.383674, 0.047204, 0.066632, 0.065957, -0.064762}, {0.000000, -0.000000, -0.000000, 0.000000, 0.000000, 0.000000, 0.000000, 0.000000, 0.000000, -0.000000, 0.000000, 0.000000, 0.000000, -0.000000, 0.000000, -0.000000, -0.000000, 0.000000, 0.000000, -0.000000, -0.000000, 0.000000, -0.000000, -0.000000, 0.000000, 0.000000, -0.000000, -0.000000, -0.000000, -0.000000, -0.000000, 0.000000, 0.000000, -0.000000, -0.000000, -0.000000, 0.000000, 0.000000, 0.000000, 0.000000}, {0.016929, -0.145950, -0.296930, -0.046678, 0.101381, 0.269528, 0.054939, -0.087240, -0.251657, -0.068071, -0.056671, -0.297435, -0.085131, 0.297253, 0.304081, 0.266757, -0.245951, -0.003602, -0.402869, -0.254889, 0.380325, -0.299862, -0.253932, -0.195876, -0.237628, -0.008338, 0.250398, -0.233568, -0.240470, 0.375998, 0.301922, -0.255518, 0.227957, -0.283695, -0.317285, -0.275761, 0.008986, 0.263337, -0.294869, 0.297269}, {0.106831, -0.097915, 0.154662, -0.242813, -0.300347, 0.340662, -0.282409, 0.317447, -0.154613, -0.014385, 0.075648, 0.155104, 0.299511, -0.155450, -0.155343, 0.311377, -0.154922, -0.017069, -0.261305, -0.367229, 0.048426, 0.154856, -0.155869, 0.145075, -0.426118, -0.003477, 0.351516, -0.368306, -0.410760, 0.153771, -0.154704, -0.377604, 0.230774, -0.354900, -0.373465, -0.355679, -0.076460, 0.082246, 0.155619, -0.155830}, {0.000000, 0.000000, 0.000000, 0.000000, 0.000000, 0.000000, -0.000000, 0.000000, -0.000000, 0.000000, 0.000000, -0.000000, -0.000000, -0.000000, 0.000000, -0.000000, -0.000000, 0.000000, 0.000000, 0.000000, 0.000000, -0.000000, -0.000000, -0.000000, -0.000000, 0.000000, 0.000000, 0.000000, -0.000000, 0.000000, -0.000000, 0.000000, -0.000000, -0.000000, -0.000000, -0.000000, 0.000000, 0.000000, -0.000000, -0.000000}, {-0.017815, -0.145265, -0.017344, -0.103259, -0.407273, -0.517374, -0.540866, 0.466619, 0.318942, -0.040925, -0.035306, -0.017581, 0.530511, 0.017718, 0.018021, -0.517461, 0.327171, -0.021490, 0.302186, 0.498195, 0.065368, -0.017543, 0.318365, 0.248903, 0.396085, -0.024864, -0.509326, 0.480974, 0.078849, -0.057941, 0.017586, -0.150609, -0.463019, 0.501317, 0.487738, 0.486137, -0.126365, -0.048496, -0.017658, 0.017953}, {-0.021212, 0.142029, -0.477167, -0.048127, -0.125516, -0.404882, -0.073667, 0.117684, 0.255102, 0.052775, 0.012915, -0.480150, 0.114652, 0.480725, 0.483864, -0.385695, 0.259374, 0.029904, 0.325323, 0.429984, 0.076746, -0.477995, 0.254943, 0.156595, 0.481268, -0.014635, -0.425029, 0.455182, 0.467550, -0.159399, 0.481799, 0.423754, -0.349415, 0.408001, 0.419876, 0.439010, -0.010253, -0.208307, -0.483244, 0.480587}, {-0.000000, -0.000000, 0.000000, 0.000000, 0.000000, -0.000000, -0.000000, 0.000000, 0.000000, -0.000000, 0.000000, -0.000000, 0.000000, -0.000000, -0.000000, -0.000000, 0.000000, 0.000000, 0.000000, -0.000000, 0.000000, 0.000000, 0.000000, -0.000000, 0.000000, -0.000000, 0.000000, 0.000000, 0.000000, -0.000000, 0.000000, -0.000000, 0.000000, -0.000000, -0.000000, -0.000000, 0.000000, -0.000000, 0.000000, -0.000000}, {-0.091310, -0.100230, -0.490794, 0.214049, 0.183715, 0.066172, 0.136950, -0.168140, -0.165227, -0.030559, -0.027985, -0.493470, -0.148154, 0.493211, 0.493560, 0.082503, -0.168548, 0.113091, -0.035070, -0.060833, -0.002197, -0.489669, -0.163270, -0.180149, -0.046903, 0.127322, 0.070207, -0.068446, -0.073259, 0.033826, 0.494166, -0.080562, 0.139613, -0.053330, -0.038098, -0.055494, -0.070477, 0.120230, -0.497600, 0.491765}, {0.128877, 0.072083, -0.392215, -0.566960, -0.564453, 0.000096, -0.635849, 0.590212, -0.134284, -0.146621, -0.135624, -0.393115, 0.640819, 0.393076, 0.385144, 0.024550, -0.140904, -0.065312, 0.215575, 0.003826, -0.289087, -0.387962, -0.130842, 0.565398, 0.034302, -0.082594, 0.011019, -0.006107, 0.067896, -0.283471, 0.388115, 0.065252, 0.114939, 0.024012, 0.062860, 0.030944, 0.109811, -0.302005, -0.398168, 0.392198}};
static const float * p_layer_3_weight = layer_3_weight;
static const float layer_3_bias[40] = {0.001977, 0.018781, 0.048021, 0.038360, 0.014617, 0.055333, 0.058572, -0.028503, -0.020410, 0.001707, -0.016934, 0.048366, -0.047248, -0.048418, -0.048400, 0.051390, -0.020510, 0.006880, -0.014415, -0.055097, -0.004759, 0.047945, -0.020646, -0.007642, -0.051568, 0.005701, 0.052408, -0.048337, -0.032184, 0.000482, -0.048260, -0.010768, 0.031768, -0.057548, -0.054386, -0.051187, 0.001776, -0.010964, 0.048795, -0.048396};
static const float * p_layer_3_bias = layer_3_bias;
    
static float sigmoid(float num) {
    return 1.0f / (1.0f + expf(-num));
}

static float step(float num) {
    if (num < 0) {
        return 0;
    }
    return 1;
}

static float relu(float num) {
    if (num > 0) {
        return num;
    } else {
        return 0;
    }
}

static float linear(float num) {
    return num;
}

static void layer(const float * in, const float * layer_weight, const float * layer_bias,   
            int row, int col, float * output, int use_activation) {
    int ii;
    int jj;
    const float * p;

    for(ii = 0; ii < col; ii++) {
        p = layer_weight + ii;
        output[ii] = 0;
        for (jj = 0; jj < row; jj++) {
            output[ii] += in[jj] * (*p); 
            p += col;
        }
        output[ii] += layer_bias[ii];
        
        if (use_activation == 1) {
			output[ii] = relu(output[ii]);
        }
    }
}

const float* nn_phi_2(const float* input) {
	layer(input, p_layer_0_weight, p_layer_0_bias, STRUCTURE[0][0], STRUCTURE[0][1], output_0, 1);
	layer(output_0, p_layer_1_weight, p_layer_1_bias, STRUCTURE[1][0], STRUCTURE[1][1], output_1, 1);
	layer(output_1, p_layer_2_weight, p_layer_2_bias, STRUCTURE[2][0], STRUCTURE[2][1], output_2, 1);
	layer(output_2, p_layer_3_weight, p_layer_3_bias, STRUCTURE[3][0], STRUCTURE[3][1], output_3, 0);

	return output_3;
}
