/*
 * FILE: generated.c
 */

#include <stdio.h>
#include <stdlib.h>
#include <string.h>
#include <math.h>
#include "phi_0828_2_3.h"

static const int STRUCTURE[4][2] = {{6, 25}, {25, 40}, {40, 40}, {40, 40}};
static float output_0[25];
static float output_1[40];
static float output_2[40];
static float output_3[40];
static const float layer_0_weight[6][25] = {{-0.702139, -0.027612, 1.957598, -0.617663, 0.526542, 0.529570, -0.022722, 0.067431, 0.301198, 0.253275, -0.753060, -0.860378, 0.029156, -0.984850, -0.477355, 0.352591, 0.519936, 0.584077, 0.730566, -0.482420, -1.437192, 0.002230, 0.240883, 0.876008, -2.706822}, {-0.022316, -0.424756, 0.299605, -0.327503, 0.686329, 0.002991, -0.096516, 0.354164, 0.519524, 0.057408, -1.044933, 0.468360, -0.066283, 1.181786, 0.634888, -0.296743, -0.131222, -0.510914, 1.088188, 0.926702, -0.861500, -0.188467, 0.043701, -1.251356, -0.033821}, {0.282770, -0.329612, -0.037046, -0.163231, -0.359310, 0.444471, -0.008116, -0.561549, -0.078850, 0.331727, -0.311585, 0.008146, -0.931215, -0.075263, -0.488107, 0.691362, 0.354634, -0.125742, 0.414819, -0.326023, -0.131918, -0.369131, 0.225008, 0.201674, 0.207598}, {0.275115, 0.140979, 0.037098, 0.365536, -0.044429, -0.286373, -0.585202, 0.290776, 0.311978, 0.143959, -0.141497, -0.163386, 0.002052, -0.078698, 0.119761, 0.074964, -0.213016, 0.926157, 0.151179, -0.099515, -0.256719, 0.528468, -0.100114, 0.005955, -0.010039}, {-0.361716, 0.131313, -0.073540, 0.428820, 0.076139, -0.329618, 0.010395, 0.144216, 0.265790, 0.319261, -0.110994, 0.338180, 0.287003, 0.072252, -0.300570, 0.064044, -0.046086, -0.081130, 0.033103, -0.046423, 0.114342, 0.152258, 0.318427, 0.149571, -0.027831}, {0.274541, 0.602819, 0.077901, 0.011020, -0.356209, -0.232250, 0.361608, 0.309623, 0.470228, -0.512253, -0.035361, 0.179238, 0.125597, -0.135200, 0.089795, 0.074896, 0.380123, 0.028240, 0.050318, 0.338345, -0.039673, -0.320359, 0.115945, -0.101165, 0.011272}};
static const float * p_layer_0_weight = layer_0_weight;
static const float layer_0_bias[25] = {-0.073110, 0.149685, -0.012554, -0.035261, 0.094693, -0.152398, -0.098380, -0.177869, -0.303046, -0.239605, 0.112313, -0.228000, -0.050473, -0.003791, 0.012448, -0.147032, -0.058524, 0.045890, -0.151836, 0.053789, 0.043623, -0.057655, -0.065544, 0.021423, -0.041079};
static const float * p_layer_0_bias = layer_0_bias;
static const float layer_1_weight[25][40] = {{-0.058777, -0.071573, 0.279014, -0.503229, -0.255130, -0.259774, 0.392341, 0.126871, 0.316072, -0.237194, -0.693763, -0.183319, -0.007704, -0.000008, -0.162384, -0.672137, 0.003666, 0.000007, -0.166744, -0.448007, -0.181760, 0.000001, -0.135830, 0.295026, -0.000007, 0.050273, 0.225105, -0.000006, -0.087946, 0.161573, -0.413375, -0.000032, -0.000006, -1.236745, 0.050201, 0.159055, 0.000012, -0.000044, -0.000005, -0.450245}, {-0.251239, -0.315591, -0.536604, 0.086176, -0.180099, -0.343858, -0.577710, 0.360631, -0.027070, 0.089261, 0.060531, 0.332280, 0.182392, -0.000028, -0.487448, 0.094277, 0.151719, 0.000010, 0.147284, -0.017745, -0.126411, -0.000036, -0.083541, 0.110278, 0.000019, 0.295718, 0.131600, -0.000031, -0.178815, 0.364013, -0.406928, 0.000008, -0.000030, 0.373085, -1.106891, 0.409067, -0.000000, -0.000023, -0.000047, -0.322573}, {-0.144290, -1.112506, 0.441806, 0.218145, -0.465026, -0.716305, -0.529480, 0.341838, -0.039694, -0.190553, -0.964866, -0.190508, 0.520779, 0.000025, -0.339140, 0.538239, -0.623400, 0.000008, -0.476420, -1.072748, 0.250393, -0.000041, -0.605295, 0.300946, -0.000006, -0.027360, 0.144940, -0.000024, 0.640199, 0.215284, 0.531055, 0.000005, 0.000003, -0.197145, -0.091455, -0.086543, 0.000011, -0.000005, 0.000003, 0.428287}, {-0.286990, 0.246077, -0.119070, -0.760441, -0.041086, -0.198504, 0.142171, 0.203841, 0.120888, 0.262569, -0.181104, -0.008667, -0.867582, -0.000017, -0.178364, -0.373531, 0.084092, -0.000026, -0.473169, -0.058964, -0.196286, -0.000007, 0.042955, 0.246918, 0.000008, -0.584150, -0.427868, 0.000006, -0.022784, 0.444069, -0.270553, -0.000034, -0.000008, -0.003746, 0.063604, -0.170529, -0.000034, -0.000052, -0.000021, -0.222612}, {-0.154595, 0.221491, 0.328990, 0.676947, 0.292175, -0.409725, -0.790351, 0.347023, -0.017183, 0.102488, -0.025216, 0.342090, -0.217550, 0.000014, 0.228293, 0.276729, -0.322643, -0.000011, 0.036182, -0.019792, -0.242293, -0.000024, 0.158812, 0.017528, -0.000028, 0.109564, 0.440774, 0.000001, 0.222457, -0.094730, 0.284087, -0.000020, -0.000005, 0.002425, -0.235402, -0.885048, -0.000038, 0.000017, 0.000009, -0.190876}, {0.002363, -0.050788, 0.460444, 0.014542, -0.035441, -0.080225, 0.060122, -0.268286, 0.799881, 0.229355, -0.559176, -0.713922, 0.085315, 0.000003, -0.012104, -0.268099, -0.019575, -0.000011, -0.344464, -0.390131, 0.340883, -0.000025, 0.132212, 0.242558, -0.000001, -0.469751, -0.297637, -0.000028, -0.023590, 0.051233, 0.025850, -0.000030, -0.000013, -0.591405, -0.222277, 0.081311, -0.000024, 0.000010, -0.000041, -0.068236}, {0.022395, 0.490429, 0.129234, -0.094933, -0.400538, 0.429027, -0.346133, -0.085474, 0.099485, 0.758024, 0.192818, 0.094384, 0.202319, -0.000048, -0.239684, 0.139801, 0.098337, -0.000029, 0.089220, -0.537602, 0.282151, 0.000030, 0.561765, -0.293650, -0.000002, -0.470757, 0.075236, 0.000006, 0.359294, 0.100429, -0.746319, -0.000001, 0.000001, -0.370225, -0.121540, 0.452942, -0.000027, 0.000001, 0.000026, -0.241239}, {0.066061, -0.378316, -0.344185, 0.492772, 0.027991, 0.191058, 0.115902, -0.193071, 0.370306, 0.363982, 0.099177, -0.119751, 0.229044, 0.000031, -0.409626, 0.146907, -0.192421, 0.000011, 0.014016, -1.234375, 0.279561, 0.000028, -0.368063, 0.047414, -0.000023, -0.478859, -0.821461, 0.000020, 0.523044, 0.847770, -0.308395, 0.000019, 0.000002, 0.216823, -0.120475, 0.072605, -0.000022, 0.000001, -0.000004, -0.434267}, {0.423406, -0.571376, -0.226526, -0.023873, 0.183912, -0.511165, 0.441219, -0.197204, 0.507331, 0.322098, -0.661763, -0.300473, -1.507431, -0.000001, 0.040466, 0.404774, 0.487030, -0.000013, -0.241197, -0.326973, 0.037117, 0.000036, 0.568463, 0.146690, 0.000018, -0.180278, -0.236381, -0.000025, -0.982884, -0.382702, -0.933160, -0.000009, 0.000022, 0.480852, -0.217129, -0.322985, 0.000018, -0.000009, 0.000011, 0.120866}, {-0.269420, 0.211137, -0.127796, 0.223700, -0.218003, 0.529796, 0.117362, -0.508964, 0.053070, -0.470616, -0.148151, 0.430992, -0.556235, -0.000017, -0.351426, -1.577827, -0.640538, -0.000013, -0.085744, -0.681560, -0.948034, 0.000010, -0.008210, -0.398931, -0.000005, 0.181516, 0.015683, -0.000014, 0.498673, -0.039631, -0.312001, 0.000032, 0.000001, -0.554501, 0.208130, 0.000952, 0.000029, -0.000004, 0.000012, 0.325725}, {-0.718422, -0.526065, -0.828175, 0.399006, -0.512804, -0.085538, 0.080608, -0.365939, 0.377882, -0.074677, 0.128893, 0.235330, 0.302286, -0.000004, -0.009923, -0.171894, -0.331974, -0.000036, 0.350179, 0.037462, 0.252332, 0.000005, -0.676444, 0.437109, 0.000003, 0.270812, 0.319481, 0.000032, 0.025346, 0.576704, 0.124600, 0.000009, 0.000028, 0.085703, -0.783918, -0.525884, 0.000003, -0.000035, -0.000002, 0.449170}, {0.037024, 0.176718, -0.209093, -0.184306, 0.305092, -0.102504, 0.772189, 0.338132, -0.244517, -0.497630, -0.149772, 0.375344, 0.864863, -0.000013, 0.637096, -0.107357, -0.065348, -0.000014, 0.157342, -0.094081, 0.209208, 0.000007, 0.031034, 0.162611, -0.000023, -0.013764, -0.175920, -0.000020, -0.407240, -0.491630, -0.211707, -0.000032, -0.000006, -0.031254, -0.136388, -0.725556, 0.000029, -0.000022, 0.000002, -0.794693}, {-0.079452, -0.661755, -0.105139, 0.450951, 0.371155, -0.737410, -0.476291, -0.260291, 0.295602, 0.162155, 0.632325, -0.424509, 0.289783, -0.000015, -0.716896, -0.387798, 0.575156, -0.000029, -0.315987, -0.261867, 0.144593, -0.000002, 0.139793, 0.692336, 0.000002, -0.467607, -2.694263, -0.000007, 0.135498, 0.407545, 0.327116, 0.000009, -0.000029, -0.557325, 0.058717, 0.115328, -0.000008, 0.000010, -0.000010, 0.040608}, {-0.313326, -0.127942, 0.343555, 0.095289, 0.604825, -0.365532, 0.172191, -1.065887, 0.485905, -0.106386, -0.022456, -0.009939, -0.598052, 0.000000, 0.247345, 0.076622, -1.361450, -0.000018, 0.191669, -0.059213, -0.409295, 0.000023, 0.280331, 0.147188, 0.000006, -0.837225, 0.441822, 0.000020, -0.567524, -0.762305, -0.328136, 0.000011, -0.000001, 0.791771, 0.026301, -0.363760, -0.000026, -0.000025, -0.000050, 0.679010}, {-0.616990, -1.539512, 0.501694, -0.151160, 0.459829, 0.255385, -0.101940, -0.206807, -0.752020, -0.423651, -0.784259, 0.293584, -0.471176, 0.000012, -0.582707, 0.129630, 0.146827, 0.000039, -0.449180, -0.714359, -0.304414, -0.000007, -0.070304, -0.135161, 0.000000, -0.628477, -0.099681, -0.000002, 0.597854, -0.024859, 0.158495, 0.000014, 0.000016, -0.629100, 0.240708, 0.117912, -0.000015, -0.000021, 0.000003, -0.078184}, {0.315908, 0.155138, 0.238827, -0.169373, -0.354479, -0.262425, 0.267904, -0.278749, 0.209006, -0.615606, 0.413100, -0.811376, -0.211107, 0.000001, 0.195184, -0.411106, -0.113908, -0.000051, -0.449860, -0.838577, -1.061699, -0.000002, -0.460236, -0.724331, 0.000002, -0.008515, 0.530551, -0.000030, 0.144888, -0.265908, 0.150259, -0.000016, -0.000019, -0.032864, -0.009603, 0.162697, -0.000039, -0.000018, -0.000009, 0.297112}, {0.269117, -0.162966, 0.112540, -0.069105, -0.238588, -0.203218, -0.283042, 0.075537, 0.033075, -1.213375, 0.007318, -0.464117, -0.065313, -0.000031, 0.179019, 0.030758, 0.099585, -0.000019, -0.184614, -1.180532, 0.367019, -0.000025, 0.041219, -0.183033, 0.000026, 0.077839, 0.294379, -0.000017, -0.107315, -0.039740, 0.264429, -0.000011, 0.000015, -0.193413, -0.094481, 0.284989, 0.000007, 0.000026, 0.000025, -0.117662}, {-0.766925, 0.139283, -0.130677, 0.303039, -0.069017, -0.893725, 0.027211, 0.215662, 0.186526, -0.186836, 0.313823, 0.142388, -0.430086, 0.000006, -0.864366, -0.331312, -0.226416, -0.000047, 0.337659, -0.136762, 0.204744, -0.000012, -0.750386, 0.270099, -0.000033, -0.389331, 0.222009, -0.000014, 0.081465, 0.050974, -0.844157, 0.000008, -0.000031, -0.028704, 0.374717, 0.160226, 0.000013, -0.000043, 0.000025, -0.053714}, {0.481174, -0.073794, 0.509883, 0.064565, -0.012696, -0.553883, 0.289275, -0.819444, 0.404953, 0.274724, 0.172216, 0.140462, 0.550868, -0.000016, -0.272563, 0.232483, -1.054130, -0.000006, 0.210977, -0.049700, 0.038530, 0.000008, -0.373718, -0.286898, 0.000011, -0.407361, 0.836017, -0.000016, -0.282778, -0.526768, 0.157459, -0.000033, -0.000010, 0.294633, -0.748288, -0.555393, 0.000000, 0.000016, -0.000045, 0.165846}, {0.052820, -0.478166, 0.200487, 0.438170, 0.216316, 0.119373, 0.323339, 0.277455, -0.406006, -1.229612, -0.556706, -0.404546, -0.768510, -0.000040, 0.027467, 0.394154, -0.233610, -0.000006, -0.185294, 0.657738, -0.182509, 0.000017, 0.497039, -0.009589, 0.000000, -0.541137, 0.021362, -0.000033, 0.368247, -0.274025, -0.197704, 0.000036, -0.000030, -0.579431, 0.320677, 0.373502, 0.000009, -0.000020, 0.000009, -0.112591}, {-1.066725, -0.563792, -0.315734, 0.020239, 0.020464, 0.048517, -0.005082, -0.252455, 0.361736, -0.269702, -0.040667, 0.262283, 0.509931, -0.000018, -0.616993, -1.011625, -0.292654, 0.000007, 0.014308, 0.015370, -0.390287, -0.000010, 0.099614, -0.366786, -0.000003, 0.173419, -0.157801, -0.000007, -0.059089, 0.594630, 0.259732, 0.000012, -0.000035, 0.298813, -0.851141, -0.443456, -0.000022, -0.000001, -0.000017, 0.170555}, {0.533599, -0.087097, 0.263466, 0.024051, 0.045639, -0.496222, -0.018072, -1.426076, -0.089754, -0.167728, -0.458698, -0.689225, -0.224663, 0.000009, -0.114505, 0.338259, -0.324510, -0.000044, 0.314387, 0.432982, -0.444832, 0.000001, 0.456805, 0.170556, 0.000026, 0.016005, 0.027887, -0.000017, -0.669194, -0.078431, 0.436233, 0.000014, 0.000032, 0.051340, 0.531359, -0.405600, -0.000016, -0.000015, 0.000022, 0.504271}, {0.270124, 0.001430, 0.173727, -0.030299, 0.100543, 0.011587, 0.093979, -0.137728, 0.233124, 0.138110, 0.163263, 0.191527, -1.015185, -0.000029, -0.055287, -0.211472, -0.033700, -0.000009, -0.263794, -0.841127, -0.764767, 0.000001, 0.030309, -0.002149, -0.000026, -0.026234, 0.211359, 0.000002, 0.035181, 0.086476, -0.872997, 0.000003, -0.000013, 0.087543, -0.202330, 0.091006, 0.000012, -0.000031, 0.000002, -0.273129}, {-0.494288, -0.083717, -0.115138, 0.310112, -1.057103, 0.080555, 0.126810, -0.159704, 0.473174, -0.304492, 0.254514, -0.213066, -0.444512, -0.000026, 0.219352, -0.086474, -0.527922, 0.000031, -0.624839, 0.098538, -1.220873, 0.000017, 0.166462, -0.252186, -0.000032, 0.488093, 0.182598, -0.000036, 0.417474, 0.309757, -0.049887, 0.000012, -0.000017, 0.045840, -0.031255, -0.537502, 0.000006, -0.000025, 0.000017, 0.280530}, {0.328944, -0.192476, -0.118731, -0.209317, 0.065578, -0.863268, 0.664421, -0.187272, 0.269380, 0.018606, -0.280807, -0.224283, -1.251845, -0.000033, -0.599850, -1.547852, 0.121312, -0.000011, 0.701731, 0.157910, 0.263241, -0.000043, -0.186805, 0.088460, 0.000022, -0.142667, 0.078858, -0.000016, -0.329691, -0.191659, 0.669308, -0.000012, -0.000032, -0.024702, -0.099197, 0.439170, -0.000026, -0.000016, -0.000007, 0.365532}};
static const float * p_layer_1_weight = layer_1_weight;
static const float layer_1_bias[40] = {0.121530, 0.089201, -0.113525, -0.068942, 0.165165, 0.300474, 0.044404, 0.008128, -0.346414, 0.209442, -0.015821, 0.011189, 0.071286, -0.245886, 0.147703, 0.070106, 0.253943, -0.231617, 0.158475, 0.199582, 0.062055, -0.151974, 0.050624, 0.023588, -0.167917, 0.067398, -0.298063, -0.118526, -0.134838, -0.182083, 0.020851, -0.197310, -0.091143, 0.001483, 0.088165, -0.189912, -0.172040, -0.146228, -0.200115, -0.000900};
static const float * p_layer_1_bias = layer_1_bias;
static const float layer_2_weight[40][40] = {{-0.072186, -0.000000, -0.208690, -0.000000, 0.161544, -0.374238, -0.144794, -0.000000, -0.000000, 0.189951, -0.058232, 0.133533, 0.303222, -1.142395, -0.000000, 0.004625, -0.266630, -0.133701, -0.000000, 0.182023, 0.000000, -0.013057, 0.000000, -0.000000, -0.376424, -0.000000, -0.431089, 0.186230, 0.000000, 0.137210, -0.000000, -0.000000, 0.141232, -0.458264, -0.240916, 0.000000, -0.000000, -0.077525, -0.357222, 0.062186}, {-0.215993, -0.000000, 0.021008, 0.000000, -0.473582, -0.222884, 0.229175, 0.000000, -0.000000, 0.284669, 0.216175, 0.097630, 0.163553, -0.514666, -0.000000, 0.179639, 0.104440, 0.279535, -0.000000, 0.026477, -0.000000, 0.064114, 0.000000, -0.000000, 0.232854, -0.000000, 0.106329, 0.055108, 0.000000, 0.030046, 0.000000, -0.000000, 0.294292, 0.127764, 0.250821, 0.000000, 0.000000, -0.149228, -0.039296, 0.138852}, {-0.189436, 0.000000, 0.049863, -0.000000, -0.033502, -0.080139, -0.025271, -0.000000, -0.000000, -0.116975, -0.704102, -0.246326, 0.049199, 0.013900, -0.000000, -0.842982, -0.654951, -0.177381, -0.000000, -0.140689, 0.000000, -0.827358, -0.000000, -0.000000, -0.157081, -0.000000, -0.357027, -0.041185, -0.000000, 0.118369, 0.000000, -0.000000, -0.342579, -0.745499, -0.057337, 0.000000, -0.000000, 0.191229, -0.639971, -0.314813}, {0.103437, 0.000000, 0.353408, 0.000000, 0.124578, -0.205332, -1.024626, -0.000000, -0.000000, -0.562354, 0.066591, -0.458902, -0.377052, -0.057463, -0.000000, -0.625457, 0.055927, 0.173455, -0.000000, -0.129907, -0.000000, -0.304868, 0.000000, -0.000000, -0.209189, -0.000000, -0.245930, -0.431140, -0.000000, -0.224162, -0.000000, -0.000000, -0.123572, -0.151960, -0.376108, 0.000000, 0.000000, -0.819686, -0.182415, -0.282692}, {-0.039059, -0.000000, 0.051809, 0.000000, -0.167313, -0.035730, -0.333066, -0.000000, -0.000000, -0.331306, -0.819455, -0.109705, -0.666425, -0.017318, -0.000000, 0.071064, 0.075219, 0.119216, 0.000000, -0.241498, -0.000000, -0.416572, 0.000000, -0.000000, -0.205145, -0.000000, 0.061791, -0.292318, 0.000000, -0.137117, 0.000000, -0.000000, -0.454898, -0.769345, -0.038638, -0.000000, -0.000000, -0.202460, -0.438424, -0.055582}, {-0.138837, -0.000000, -0.258808, -0.000000, 0.191788, 0.232247, -0.000817, -0.000000, -0.000000, 0.006706, -0.096794, 0.316482, 0.112722, 0.479437, -0.000000, 0.066957, -0.060756, -0.094461, -0.000000, 0.304277, -0.000000, -0.208531, -0.000000, 0.000000, 0.191723, 0.000000, 0.222744, 0.406045, -0.000000, 0.253814, 0.000000, -0.000000, 0.191856, -0.943193, 0.353060, 0.000000, 0.000000, -0.033027, 0.110845, 0.113381}, {-0.298745, 0.000000, 0.322281, -0.000000, 0.152673, -0.042100, -0.114319, 0.000000, -0.000000, 0.285211, -0.243520, -0.010378, 0.199849, -0.570268, -0.000000, 0.143490, -0.207987, -0.313768, -0.000000, 0.161790, -0.000000, -0.153444, -0.000000, -0.000000, -0.293857, -0.000000, -0.104176, -0.001526, -0.000000, 0.080015, -0.000000, -0.000000, 0.052878, 0.171366, -0.805747, -0.000000, 0.000000, -0.051280, -0.101846, 0.410315}, {0.245028, -0.000000, 0.547049, 0.000000, -0.685779, 0.014825, 0.141765, 0.000000, -0.000000, 0.189582, -0.177837, -0.355056, -0.288142, 0.015100, -0.000000, 0.183988, 0.249733, 0.417067, -0.000000, -0.225851, -0.000000, 0.143765, -0.000000, -0.000000, 0.152534, -0.000000, 0.017336, 0.407671, 0.000000, -0.167957, 0.000000, 0.000000, 0.171205, -0.028120, 0.069321, -0.000000, -0.000000, 0.135040, 0.335559, -0.206074}, {-0.454511, 0.000000, -0.141543, -0.000000, 0.055887, -0.075745, -0.611530, 0.000000, 0.000000, -0.520745, -0.381257, 0.024732, -0.488191, -0.158257, 0.000000, 0.307611, -0.142610, -0.615848, -0.000000, -0.187492, -0.000000, -1.035401, 0.000000, -0.000000, -0.450346, 0.000000, 0.087277, -0.356145, -0.000000, -0.374421, -0.000000, 0.000000, 0.359770, -0.126250, 0.121921, -0.000000, -0.000000, -0.167312, -1.183021, 0.274193}, {0.549221, -0.000000, 0.163092, 0.000000, 0.290906, 0.335859, -0.057504, -0.000000, -0.000000, -0.037814, -0.076186, 0.422165, 0.168890, -0.146532, 0.000000, 0.236863, 0.005876, 0.426879, -0.000000, 0.128227, -0.000000, 0.267300, 0.000000, -0.000000, 0.374455, -0.000000, 0.372566, -0.126400, 0.000000, -0.038600, -0.000000, -0.000000, -0.320251, 0.364859, 0.209386, -0.000000, -0.000000, 0.402124, 0.244596, -0.013502}, {-0.139775, 0.000000, 0.398609, 0.000000, -0.039536, -0.414872, 0.229012, -0.000000, 0.000000, 0.124036, 0.050005, 0.253440, 0.383338, -0.764871, -0.000000, -0.010036, -0.536836, -0.149254, 0.000000, 0.268622, 0.000000, 0.150599, 0.000000, -0.000000, -0.067576, 0.000000, -0.071550, 0.333230, -0.000000, -0.031069, 0.000000, 0.000000, 0.223001, 0.090648, -0.414616, -0.000000, 0.000000, -0.103034, -0.322286, -0.123171}, {0.181280, 0.000000, -0.078063, -0.000000, -0.578464, -0.426466, 0.268512, -0.000000, -0.000000, 0.125094, -0.038559, -0.420661, 0.275699, -0.387678, -0.000000, 0.239367, -0.057926, 0.148282, -0.000000, -0.107448, -0.000000, 0.029833, 0.000000, -0.000000, 0.031367, -0.000000, -0.020111, -0.069540, 0.000000, 0.496053, 0.000000, -0.000000, -0.141347, -0.005870, -0.194929, 0.000000, -0.000000, -0.535566, 0.233445, -0.620517}, {-0.046332, 0.000000, 0.022146, -0.000000, -0.585144, -0.269270, 0.870168, 0.000000, 0.000000, 0.117126, -0.644329, 0.551429, 0.446401, 0.369447, -0.000000, -0.190104, -0.249588, 0.332902, 0.000000, 0.389615, 0.000000, -0.176816, 0.000000, 0.000000, 0.229745, -0.000000, 0.173121, -0.741413, 0.000000, -0.291623, -0.000000, -0.000000, 0.090197, -0.011427, 0.174869, -0.000000, -0.000000, 0.210287, -0.565744, -0.974658}, {-0.000000, -0.000000, -0.000000, 0.000000, 0.000000, -0.000000, -0.000000, 0.000000, -0.000000, 0.000000, 0.000000, 0.000000, -0.000000, -0.000000, 0.000000, 0.000000, 0.000000, -0.000000, -0.000000, 0.000000, 0.000000, -0.000000, -0.000000, -0.000000, -0.000000, -0.000000, 0.000000, -0.000000, 0.000000, -0.000000, 0.000000, -0.000000, 0.000000, 0.000000, -0.000000, -0.000000, 0.000000, 0.000000, 0.000000, 0.000000}, {-0.225558, 0.000000, 0.003751, 0.000000, 0.035180, -0.433030, 0.121383, 0.000000, -0.000000, -0.113762, -0.214222, 0.078152, 0.127426, 0.073517, -0.000000, 0.033744, -0.853098, -0.365802, -0.000000, 0.118528, -0.000000, 0.167529, 0.000000, 0.000000, -0.213166, -0.000000, 0.059543, 0.147677, -0.000000, -0.121484, -0.000000, -0.000000, 0.280924, -0.716454, -0.266684, -0.000000, -0.000000, -0.310490, -0.054067, -0.881703}, {-0.421261, -0.000000, 0.042095, 0.000000, -0.221085, -0.113816, -0.782868, 0.000000, 0.000000, -0.261203, 0.348055, 0.193778, -0.694310, -0.103687, -0.000000, -0.428413, -0.360173, 0.413722, -0.000000, -0.041428, -0.000000, -0.026503, 0.000000, -0.000000, -0.367817, 0.000000, -0.684792, -0.171322, 0.000000, -0.420618, -0.000000, -0.000000, -0.231833, -0.381470, -0.429459, -0.000000, 0.000000, -0.635749, -0.190841, -0.111247}, {-0.375679, -0.000000, 0.309790, -0.000000, 0.316485, -1.118945, 0.029433, -0.000000, 0.000000, 0.258147, 0.306630, -0.324318, -0.100716, 0.003702, -0.000000, 0.314109, 0.223263, -0.248950, -0.000000, 0.193701, -0.000000, -0.002217, 0.000000, -0.000000, 0.202001, -0.000000, 0.051804, -0.032919, -0.000000, -0.714121, -0.000000, 0.000000, 0.128074, 0.172024, -0.079637, 0.000000, 0.000000, 0.022533, -0.030390, -0.851486}, {-0.000000, -0.000000, -0.000000, -0.000000, 0.000000, 0.000000, -0.000000, 0.000000, -0.000000, -0.000000, 0.000000, 0.000000, 0.000000, -0.000000, 0.000000, -0.000000, -0.000000, 0.000000, 0.000000, -0.000000, 0.000000, -0.000000, 0.000000, -0.000000, -0.000000, 0.000000, -0.000000, -0.000000, -0.000000, -0.000000, -0.000000, 0.000000, -0.000000, 0.000000, -0.000000, 0.000000, -0.000000, 0.000000, -0.000000, -0.000000}, {0.158258, -0.000000, -0.039337, -0.000000, -0.212083, -0.210901, -0.816847, -0.000000, -0.000000, 0.139409, 0.222974, -0.182401, -0.249094, 0.182214, -0.000000, -0.217689, 0.143946, 0.164151, -0.000000, 0.010282, 0.000000, -0.808327, -0.000000, -0.000000, -0.333740, 0.000000, -0.360675, 0.260208, -0.000000, 0.080990, 0.000000, -0.000000, 0.055421, -0.072717, -0.239685, 0.000000, 0.000000, 0.224245, -0.234587, -1.168751}, {-0.324197, 0.000000, 0.850206, -0.000000, -0.130342, 0.263339, -0.806379, -0.000000, -0.000000, 0.021196, 0.153069, 0.087182, 0.448470, 0.409568, -0.000000, -0.032314, -0.170909, 0.106330, -0.000000, -0.186802, -0.000000, 0.086719, -0.000000, -0.000000, 0.283104, 0.000000, 0.380497, 0.418590, -0.000000, 0.332706, 0.000000, 0.000000, -0.156137, 0.238260, 0.104622, -0.000000, 0.000000, 0.606374, 0.413674, -0.359094}, {0.267559, 0.000000, -0.062641, 0.000000, -0.884248, 0.304535, -0.277459, -0.000000, -0.000000, 0.235956, 0.565391, -0.073247, 0.031743, -0.349241, 0.000000, 0.214864, 0.181450, -0.566129, -0.000000, -0.285703, 0.000000, -0.174659, 0.000000, -0.000000, -0.050600, -0.000000, 0.176993, -0.015889, 0.000000, -0.009830, 0.000000, 0.000000, 0.385550, -0.083500, -0.319732, -0.000000, -0.000000, 0.159434, 0.577367, -0.123632}, {-0.000000, -0.000000, 0.000000, -0.000000, -0.000000, 0.000000, -0.000000, 0.000000, -0.000000, 0.000000, 0.000000, -0.000000, -0.000000, 0.000000, -0.000000, -0.000000, 0.000000, 0.000000, 0.000000, 0.000000, -0.000000, 0.000000, 0.000000, 0.000000, -0.000000, 0.000000, 0.000000, -0.000000, 0.000000, -0.000000, 0.000000, 0.000000, 0.000000, -0.000000, -0.000000, 0.000000, 0.000000, -0.000000, -0.000000, -0.000000}, {-0.414476, 0.000000, 0.322288, -0.000000, -0.768712, 0.095433, 0.104128, 0.000000, 0.000000, 0.133388, 0.100739, -0.177984, 0.140655, 0.186427, -0.000000, 0.046394, 0.268423, -0.208375, -0.000000, -0.164644, -0.000000, 0.218533, -0.000000, -0.000000, -0.199555, -0.000000, -0.109216, -0.068133, 0.000000, -0.180159, 0.000000, 0.000000, 0.069507, 0.143346, -0.047878, -0.000000, -0.000000, -0.501676, 0.273205, -0.172655}, {0.000452, -0.000000, 0.071751, -0.000000, -0.678957, -0.054029, -0.335128, -0.000000, -0.000000, -0.028039, -0.539486, 0.189776, -0.448056, -0.150597, -0.000000, 0.061285, 0.031044, 0.167954, 0.000000, -0.172434, -0.000000, -0.202741, -0.000000, 0.000000, 0.059353, -0.000000, 0.172439, -0.132992, -0.000000, -0.320639, -0.000000, -0.000000, -0.037443, 0.000597, -0.249570, 0.000000, 0.000000, 0.114971, 0.114417, -0.016464}, {-0.000000, 0.000000, -0.000000, 0.000000, -0.000000, -0.000000, -0.000000, 0.000000, -0.000000, -0.000000, 0.000000, 0.000000, 0.000000, -0.000000, -0.000000, 0.000000, 0.000000, -0.000000, -0.000000, 0.000000, 0.000000, 0.000000, -0.000000, -0.000000, -0.000000, -0.000000, 0.000000, -0.000000, -0.000000, -0.000000, -0.000000, -0.000000, 0.000000, 0.000000, 0.000000, 0.000000, 0.000000, -0.000000, 0.000000, 0.000000}, {-0.008860, -0.000000, 0.121877, 0.000000, -0.061506, -0.119650, 0.014070, 0.000000, -0.000000, -0.659199, 0.115526, -0.107387, 0.053436, -0.041030, -0.000000, -0.869463, -0.614096, -0.042846, -0.000000, -0.136679, -0.000000, 0.237043, -0.000000, -0.000000, 0.091833, -0.000000, -0.221016, -0.176291, 0.000000, 0.181103, 0.000000, -0.000000, -0.912888, -0.127467, -0.076776, -0.000000, -0.000000, -0.361050, 0.048410, -0.102045}, {0.376528, 0.000000, 0.356968, 0.000000, 0.283623, -0.199355, -0.570415, -0.000000, -0.000000, 0.339355, 0.269750, -0.381524, -0.177897, -0.857117, -0.000000, -0.709109, 0.041177, 0.081033, 0.000000, 0.242240, 0.000000, -0.315666, 0.000000, -0.000000, -0.119361, 0.000000, -0.634839, 0.344458, -0.000000, -0.398169, -0.000000, 0.000000, 0.292194, -0.747866, 0.177424, 0.000000, 0.000000, 0.375362, 0.093816, -0.221363}, {0.000000, 0.000000, 0.000000, -0.000000, -0.000000, 0.000000, -0.000000, 0.000000, 0.000000, -0.000000, -0.000000, 0.000000, -0.000000, -0.000000, -0.000000, 0.000000, -0.000000, -0.000000, -0.000000, 0.000000, 0.000000, -0.000000, -0.000000, 0.000000, -0.000000, -0.000000, 0.000000, 0.000000, 0.000000, 0.000000, 0.000000, -0.000000, -0.000000, 0.000000, -0.000000, -0.000000, -0.000000, -0.000000, -0.000000, -0.000000}, {0.253328, -0.000000, 0.110111, 0.000000, 0.291246, -0.359989, -0.052329, -0.000000, -0.000000, -0.385859, -0.393014, -0.089278, -0.350394, -0.145590, 0.000000, -0.637085, -0.354959, -0.350775, 0.000000, -0.306260, -0.000000, -0.477924, 0.000000, 0.000000, -0.144979, -0.000000, -0.233950, 0.114228, -0.000000, 0.076795, -0.000000, 0.000000, -0.199384, 0.237024, -0.529170, -0.000000, 0.000000, -0.341607, -0.214112, 0.263665}, {-0.093747, -0.000000, 0.121011, -0.000000, -0.084746, -0.385008, -0.429169, -0.000000, -0.000000, -0.400997, -0.240204, -0.302982, -0.576781, 0.196458, 0.000000, 0.004220, -0.320371, -0.049960, -0.000000, -0.709183, 0.000000, -1.282755, 0.000000, 0.000000, -0.419165, -0.000000, -0.352105, -0.388270, -0.000000, 0.110693, 0.000000, -0.000000, -0.120233, -0.375282, 0.028597, -0.000000, -0.000000, -0.459213, -0.393057, 0.008181}, {0.057443, -0.000000, 0.274214, -0.000000, 0.273223, 0.333632, 0.218456, -0.000000, -0.000000, 0.131134, 0.069061, -0.169431, 0.276549, -0.098684, -0.000000, -0.152108, -0.141902, 0.568886, -0.000000, -0.212623, 0.000000, 0.402059, -0.000000, 0.000000, -0.005944, -0.000000, -0.034379, 0.220760, 0.000000, -0.401890, -0.000000, 0.000000, 0.030168, -0.444649, -0.165982, -0.000000, 0.000000, 0.362501, 0.156814, -0.729748}, {0.000000, -0.000000, -0.000000, -0.000000, 0.000000, 0.000000, 0.000000, -0.000000, -0.000000, -0.000000, 0.000000, 0.000000, -0.000000, 0.000000, -0.000000, 0.000000, -0.000000, -0.000000, -0.000000, -0.000000, -0.000000, -0.000000, 0.000000, 0.000000, -0.000000, 0.000000, 0.000000, -0.000000, -0.000000, 0.000000, -0.000000, 0.000000, 0.000000, 0.000000, -0.000000, 0.000000, 0.000000, 0.000000, -0.000000, 0.000000}, {0.000000, 0.000000, -0.000000, 0.000000, 0.000000, -0.000000, -0.000000, 0.000000, 0.000000, 0.000000, -0.000000, 0.000000, -0.000000, 0.000000, -0.000000, -0.000000, -0.000000, -0.000000, -0.000000, -0.000000, 0.000000, -0.000000, 0.000000, -0.000000, -0.000000, -0.000000, 0.000000, 0.000000, -0.000000, -0.000000, 0.000000, 0.000000, 0.000000, -0.000000, 0.000000, 0.000000, -0.000000, 0.000000, 0.000000, -0.000000}, {0.382853, 0.000000, 0.106872, 0.000000, 0.087848, -0.254447, -0.024529, 0.000000, -0.000000, 0.021033, -0.126426, -0.436076, 0.054291, -0.149174, -0.000000, 0.196821, 0.062717, -0.278556, 0.000000, -0.915936, 0.000000, -0.158067, -0.000000, -0.000000, -0.304123, -0.000000, 0.227105, -0.816309, -0.000000, 0.222914, 0.000000, 0.000000, 0.219609, 0.138919, 0.121717, 0.000000, -0.000000, -0.079543, -0.030903, -0.063979}, {0.128289, -0.000000, -0.086912, 0.000000, -0.138226, 0.143753, 0.174947, -0.000000, -0.000000, -0.298484, 0.374872, -0.852971, -0.880768, 0.389556, 0.000000, -0.772068, -0.015081, -0.084660, 0.000000, -0.077892, -0.000000, 0.167226, -0.000000, -0.000000, -0.621168, 0.000000, -0.911101, 0.185412, -0.000000, -0.375681, 0.000000, -0.000000, 0.241363, 0.087062, -0.222483, -0.000000, -0.000000, -0.561264, -0.267176, 0.086888}, {-0.430231, 0.000000, -0.687568, 0.000000, -0.287339, 0.083819, -0.075906, 0.000000, 0.000000, -0.003901, -1.168611, -0.178731, 0.297222, 0.090649, -0.000000, -0.143697, 0.115598, -0.100660, 0.000000, -0.038345, 0.000000, -0.524220, -0.000000, -0.000000, 0.206891, -0.000000, -0.195687, 0.302464, -0.000000, 0.359361, -0.000000, -0.000000, 0.034150, 0.076410, 0.242038, -0.000000, -0.000000, -0.199618, 0.102227, -0.174518}, {-0.000000, 0.000000, 0.000000, -0.000000, 0.000000, -0.000000, -0.000000, -0.000000, 0.000000, 0.000000, 0.000000, -0.000000, 0.000000, 0.000000, -0.000000, -0.000000, -0.000000, 0.000000, 0.000000, -0.000000, 0.000000, 0.000000, -0.000000, 0.000000, 0.000000, -0.000000, -0.000000, 0.000000, -0.000000, -0.000000, -0.000000, 0.000000, -0.000000, -0.000000, 0.000000, 0.000000, 0.000000, 0.000000, 0.000000, -0.000000}, {0.000000, -0.000000, -0.000000, -0.000000, 0.000000, 0.000000, -0.000000, -0.000000, 0.000000, -0.000000, 0.000000, -0.000000, 0.000000, 0.000000, 0.000000, -0.000000, 0.000000, 0.000000, 0.000000, 0.000000, 0.000000, 0.000000, 0.000000, -0.000000, 0.000000, 0.000000, -0.000000, 0.000000, 0.000000, -0.000000, 0.000000, -0.000000, -0.000000, 0.000000, 0.000000, -0.000000, 0.000000, -0.000000, -0.000000, 0.000000}, {-0.000000, -0.000000, 0.000000, -0.000000, -0.000000, -0.000000, -0.000000, 0.000000, 0.000000, -0.000000, -0.000000, 0.000000, -0.000000, 0.000000, 0.000000, 0.000000, -0.000000, 0.000000, -0.000000, -0.000000, 0.000000, -0.000000, -0.000000, -0.000000, -0.000000, 0.000000, 0.000000, -0.000000, 0.000000, 0.000000, 0.000000, 0.000000, 0.000000, -0.000000, 0.000000, 0.000000, -0.000000, -0.000000, 0.000000, -0.000000}, {0.273906, 0.000000, 0.194051, 0.000000, 0.266611, 0.117589, -0.237333, -0.000000, -0.000000, -1.180006, 0.102546, 0.029958, -0.214842, 0.156370, -0.000000, -0.377082, 0.151413, 0.215520, 0.000000, -0.021222, 0.000000, 0.148837, 0.000000, -0.000000, -0.602887, -0.000000, -0.174695, 0.238387, 0.000000, 0.035092, -0.000000, 0.000000, 0.111266, -0.086071, -0.501918, 0.000000, 0.000000, -0.266903, 0.260926, 0.139565}};
static const float * p_layer_2_weight = layer_2_weight;
static const float layer_2_bias[40] = {0.092398, -0.164313, -0.246925, -0.081392, 0.076614, 0.277467, 0.075894, -0.114259, -0.090080, 0.020231, 0.094213, 0.063838, -0.010721, -0.056804, -0.054553, 0.056780, 0.096735, -0.006099, -0.040565, 0.141392, -0.026390, 0.038467, -0.250798, -0.057782, 0.095356, -0.132318, 0.072337, -0.005016, -0.090984, 0.092386, -0.062655, -0.135362, -0.023466, 0.095687, 0.076160, -0.081462, -0.143732, 0.000579, 0.034427, -0.085457};
static const float * p_layer_2_bias = layer_2_bias;
static const float layer_3_weight[40][40] = {{-0.073661, 0.201493, -0.150598, 0.008812, -0.152395, -0.089533, -0.205466, -0.103914, -0.071021, 0.090537, -0.032251, 0.063593, -0.013296, 0.023015, 0.067461, -0.084988, 0.090778, -0.265962, -0.230151, 0.020615, 0.100516, -0.037344, -0.007172, -0.021884, 0.206159, -0.172574, -0.185435, 0.030855, -0.003220, 0.162972, -0.206110, -0.013015, -0.108135, 0.175429, 0.129953, 0.041435, -0.123767, -0.023846, -0.241907, 0.014791}, {0.000000, 0.000000, -0.000000, 0.000000, 0.000000, -0.000000, 0.000000, -0.000000, 0.000000, -0.000000, 0.000000, -0.000000, 0.000000, 0.000000, -0.000000, 0.000000, 0.000000, -0.000000, 0.000000, -0.000000, 0.000000, 0.000000, -0.000000, 0.000000, 0.000000, 0.000000, 0.000000, -0.000000, -0.000000, 0.000000, -0.000000, 0.000000, -0.000000, -0.000000, 0.000000, -0.000000, -0.000000, -0.000000, 0.000000, -0.000000}, {0.005070, -0.012596, -0.106699, 0.038988, 0.417840, 0.009131, 0.016419, 0.114699, -0.174305, -0.180638, -0.044743, 0.117253, 0.061824, 0.024790, 0.007519, -0.393532, -0.014671, 0.172811, -0.197129, -0.284280, -0.140653, -0.068213, -0.039573, -0.138649, 0.035310, 0.090760, 0.290974, -0.249990, -0.064825, -0.189477, -0.033935, 0.060854, -0.183035, -0.472444, -0.300357, 0.129756, 0.499809, 0.060566, -0.018918, 0.194559}, {0.000000, 0.000000, 0.000000, -0.000000, -0.000000, 0.000000, 0.000000, 0.000000, -0.000000, 0.000000, 0.000000, 0.000000, 0.000000, 0.000000, -0.000000, -0.000000, -0.000000, -0.000000, -0.000000, -0.000000, 0.000000, 0.000000, 0.000000, -0.000000, 0.000000, 0.000000, 0.000000, -0.000000, 0.000000, 0.000000, -0.000000, -0.000000, -0.000000, 0.000000, 0.000000, 0.000000, 0.000000, -0.000000, -0.000000, -0.000000}, {0.059608, -0.165384, -0.040064, -0.003731, 0.040724, 0.086850, -0.358778, 0.101523, -0.249335, 0.157619, 0.034547, 0.218804, 0.038354, -0.016226, -0.071761, -0.010337, -0.090655, 0.170008, -0.237546, -0.147103, -0.006102, -0.196779, -0.007685, -0.240884, 0.321155, -0.246156, -0.198499, -0.174866, -0.040135, -0.297386, -0.325467, 0.006909, -0.262557, 0.028091, -0.113802, 0.203236, -0.008846, 0.047677, -0.349116, 0.188075}, {-0.067343, -0.148416, -0.125848, 0.006399, -0.087566, -0.078247, -0.268069, 0.035595, -0.105283, 0.154467, -0.024869, 0.123749, -0.039553, 0.019427, 0.060594, 0.149179, 0.090885, 0.203815, -0.033863, -0.030070, -0.354043, -0.120551, 0.017717, -0.107283, 0.196701, -0.190720, -0.228925, -0.075448, 0.045334, -0.412121, -0.200306, -0.019932, -0.110073, 0.147244, -0.028644, 0.111036, -0.161355, -0.053586, -0.223814, 0.087567}, {0.159535, -0.131640, -0.117418, 0.057785, -0.363292, 0.112959, -0.344940, -0.283208, -0.287549, -0.226257, -0.043447, -0.264727, 0.061881, 0.008393, -0.147640, 0.067983, -0.122962, 0.164850, -0.112095, 0.343245, -0.302873, 0.253457, -0.049709, -0.331883, -0.193591, 0.196995, -0.349823, 0.299572, -0.027303, -0.436849, 0.184637, -0.048953, -0.273384, 0.403093, 0.296684, -0.270609, -0.438557, 0.070415, 0.072156, -0.294847}, {-0.000000, 0.000000, -0.000000, -0.000000, 0.000000, 0.000000, 0.000000, -0.000000, 0.000000, -0.000000, 0.000000, 0.000000, 0.000000, 0.000000, 0.000000, -0.000000, 0.000000, 0.000000, -0.000000, -0.000000, 0.000000, -0.000000, -0.000000, -0.000000, 0.000000, -0.000000, -0.000000, -0.000000, 0.000000, 0.000000, -0.000000, -0.000000, -0.000000, -0.000000, -0.000000, -0.000000, -0.000000, 0.000000, 0.000000, 0.000000}, {-0.000000, 0.000000, -0.000000, 0.000000, 0.000000, 0.000000, 0.000000, -0.000000, -0.000000, -0.000000, 0.000000, -0.000000, 0.000000, -0.000000, 0.000000, -0.000000, 0.000000, -0.000000, 0.000000, -0.000000, 0.000000, 0.000000, 0.000000, -0.000000, 0.000000, 0.000000, -0.000000, 0.000000, -0.000000, 0.000000, 0.000000, -0.000000, -0.000000, 0.000000, 0.000000, 0.000000, 0.000000, 0.000000, -0.000000, -0.000000}, {-0.128134, 0.164511, -0.033269, -0.070196, -0.222412, -0.088477, 0.091576, -0.174750, 0.050533, -0.188529, 0.085665, -0.228851, -0.146715, -0.039516, 0.057083, -0.035673, 0.098672, -0.205761, -0.005072, 0.233965, 0.083483, 0.212997, 0.115497, 0.075220, -0.221503, 0.195893, -0.051928, 0.235717, -0.012200, 0.170707, 0.218522, 0.070804, 0.033986, 0.205548, 0.219870, -0.225088, -0.207557, -0.181085, 0.171161, -0.230627}, {-0.103881, 0.296891, -0.297334, -0.061371, 0.140146, -0.060963, 0.553328, -0.033129, -0.267106, -0.243467, 0.020233, -0.078641, -0.022704, 0.014936, 0.055463, -0.507153, 0.084255, -0.159293, -0.381337, -0.022881, 0.088025, 0.093226, 0.037556, -0.154145, -0.281069, 0.326983, 0.463508, -0.015289, 0.029212, 0.394744, 0.299210, -0.033697, -0.295176, -0.188565, -0.064266, -0.064013, 0.202779, -0.029834, 0.385765, -0.024225}, {-0.086729, 0.090835, 0.150811, 0.074641, 0.015268, -0.076342, 0.233172, 0.044188, 0.528180, -0.077349, -0.076205, -0.089248, 0.025628, 0.102819, 0.090929, 0.132144, 0.081052, -0.058850, 0.397068, 0.033358, -0.034357, 0.063565, -0.044489, 0.542373, -0.203130, 0.156048, 0.172559, 0.035882, 0.065347, -0.037405, 0.207435, 0.009492, 0.513580, -0.064971, -0.017492, -0.076254, 0.011391, 0.000187, 0.243664, -0.059034}, {0.009386, 0.026333, 0.039473, 0.002721, -0.368793, -0.011473, 0.023618, -0.258284, 0.106831, -0.314595, -0.037038, -0.369266, -0.052144, 0.055971, 0.025393, 0.112561, 0.012177, -0.015035, 0.134098, 0.379143, -0.022930, 0.334644, -0.083239, 0.110976, -0.437967, 0.374436, -0.105534, 0.348768, 0.062131, -0.202498, 0.433982, -0.034572, 0.098781, 0.366268, 0.300566, -0.361060, -0.455576, -0.026027, 0.391465, -0.364131}, {-0.139770, 0.367624, -0.132092, 0.125161, -0.434965, 0.057325, -0.476568, -0.187267, -0.007794, -0.026213, -0.014833, -0.060382, 0.070034, 0.095477, -0.086728, -0.216183, -0.044379, -0.296266, -0.207763, 0.189702, -0.213299, 0.084264, -0.020887, 0.097047, 0.190549, -0.120635, -0.385846, 0.106301, -0.105049, -0.305521, -0.193582, 0.141616, -0.105880, 0.522816, 0.155005, -0.094608, -0.489117, 0.021278, -0.313277, -0.117529}, {0.000000, 0.000000, -0.000000, -0.000000, 0.000000, -0.000000, -0.000000, 0.000000, -0.000000, 0.000000, -0.000000, -0.000000, -0.000000, 0.000000, -0.000000, -0.000000, -0.000000, 0.000000, -0.000000, -0.000000, 0.000000, 0.000000, -0.000000, 0.000000, -0.000000, 0.000000, -0.000000, 0.000000, 0.000000, 0.000000, -0.000000, 0.000000, -0.000000, 0.000000, 0.000000, 0.000000, 0.000000, 0.000000, 0.000000, -0.000000}, {-0.128890, 0.480557, -0.241662, -0.019932, -0.240870, -0.074654, -0.058934, -0.277105, -0.235069, -0.242107, 0.011062, -0.253523, -0.023734, 0.050080, 0.102343, -0.411588, 0.101956, -0.503586, -0.386013, 0.251674, 0.151935, 0.265110, 0.035665, -0.140463, -0.103759, 0.151337, -0.083737, 0.275487, -0.004235, 0.487763, 0.098929, -0.017234, -0.278671, 0.220528, 0.289079, -0.259839, -0.138936, -0.042172, -0.026724, -0.262864}, {0.153489, 0.104532, 0.172257, 0.032727, -0.297132, 0.062330, -0.239425, -0.125509, 0.104901, -0.044326, 0.008883, -0.128622, 0.078319, -0.024848, -0.104303, 0.076469, -0.055117, -0.165019, 0.070656, 0.202568, 0.037424, 0.120046, -0.011996, 0.104954, 0.042261, -0.030564, -0.279410, 0.185864, 0.125610, -0.007501, -0.048953, -0.140576, 0.081769, 0.353354, 0.194257, -0.141474, -0.352020, 0.094916, -0.140645, -0.167637}, {-0.029780, 0.321219, 0.150875, -0.026341, 0.062624, -0.010799, -0.088497, 0.320022, 0.411572, 0.280208, 0.045055, 0.247281, -0.062458, 0.008869, -0.022150, 0.077723, 0.020739, -0.345664, 0.275678, -0.329440, 0.163913, -0.263959, 0.042280, 0.443996, 0.169190, -0.200176, -0.095127, -0.272549, 0.052202, 0.170248, -0.162594, -0.029690, 0.369197, -0.011284, -0.173343, 0.260202, 0.043258, -0.059896, -0.138203, 0.292463}, {-0.000000, 0.000000, 0.000000, -0.000000, 0.000000, -0.000000, -0.000000, 0.000000, 0.000000, 0.000000, 0.000000, -0.000000, -0.000000, -0.000000, 0.000000, -0.000000, -0.000000, -0.000000, -0.000000, -0.000000, -0.000000, 0.000000, 0.000000, -0.000000, 0.000000, -0.000000, 0.000000, -0.000000, 0.000000, -0.000000, -0.000000, -0.000000, 0.000000, -0.000000, 0.000000, -0.000000, 0.000000, -0.000000, -0.000000, 0.000000}, {-0.077783, 0.126869, 0.104547, -0.012857, 0.132020, -0.071051, 0.281315, 0.097469, 0.261399, -0.088885, -0.037553, -0.021917, -0.036309, 0.012141, 0.099208, -0.120662, 0.076637, -0.041571, 0.133258, -0.058864, -0.019721, 0.010651, -0.011952, 0.314451, -0.170100, 0.163543, 0.284441, -0.060926, 0.023258, 0.006393, 0.177484, -0.023541, 0.239700, -0.163520, -0.123496, -0.007693, 0.139125, -0.032162, 0.231274, 0.022436}, {0.000000, 0.000000, 0.000000, -0.000000, -0.000000, 0.000000, -0.000000, -0.000000, 0.000000, 0.000000, 0.000000, 0.000000, 0.000000, 0.000000, 0.000000, 0.000000, 0.000000, 0.000000, -0.000000, -0.000000, 0.000000, -0.000000, -0.000000, -0.000000, -0.000000, -0.000000, -0.000000, -0.000000, -0.000000, -0.000000, 0.000000, 0.000000, 0.000000, 0.000000, 0.000000, -0.000000, 0.000000, -0.000000, -0.000000, 0.000000}, {-0.376310, 0.617579, -0.288566, 0.060355, -0.429756, -0.142424, -0.324708, -0.431699, -0.001037, -0.480006, -0.084294, -0.467878, -0.002520, 0.107603, 0.253092, -0.360417, 0.139233, -0.518325, -0.229311, 0.447382, -0.312717, 0.468616, -0.083830, 0.191240, -0.368292, 0.422078, -0.233121, 0.426318, 0.075977, -0.032829, 0.362014, 0.023905, -0.103439, 0.444440, 0.389208, -0.469810, -0.434813, -0.049505, 0.126957, -0.456504}, {0.000000, 0.000000, -0.000000, -0.000000, -0.000000, 0.000000, -0.000000, -0.000000, -0.000000, -0.000000, -0.000000, -0.000000, -0.000000, -0.000000, 0.000000, -0.000000, -0.000000, 0.000000, 0.000000, -0.000000, 0.000000, 0.000000, -0.000000, -0.000000, -0.000000, 0.000000, -0.000000, 0.000000, 0.000000, -0.000000, 0.000000, 0.000000, -0.000000, 0.000000, -0.000000, -0.000000, 0.000000, -0.000000, -0.000000, 0.000000}, {0.000000, 0.000000, 0.000000, 0.000000, -0.000000, 0.000000, -0.000000, -0.000000, -0.000000, -0.000000, -0.000000, 0.000000, -0.000000, 0.000000, -0.000000, 0.000000, -0.000000, 0.000000, -0.000000, 0.000000, 0.000000, 0.000000, -0.000000, 0.000000, -0.000000, -0.000000, -0.000000, 0.000000, -0.000000, 0.000000, 0.000000, 0.000000, -0.000000, -0.000000, 0.000000, -0.000000, 0.000000, -0.000000, -0.000000, -0.000000}, {0.101074, -0.007481, 0.065386, -0.007531, 0.018418, 0.048192, 0.352035, -0.025275, -0.092215, -0.228582, 0.017546, -0.135181, -0.074727, -0.036480, -0.069767, -0.140239, -0.049062, 0.111217, -0.048672, 0.070423, -0.038108, 0.124156, 0.009823, -0.078252, -0.353326, 0.340868, 0.294868, 0.047154, 0.008136, -0.163560, 0.363614, -0.031508, -0.092507, -0.026551, -0.026575, -0.119978, -0.001595, -0.056800, 0.476800, -0.092343}, {-0.000000, 0.000000, -0.000000, -0.000000, 0.000000, -0.000000, 0.000000, 0.000000, -0.000000, -0.000000, -0.000000, 0.000000, 0.000000, -0.000000, -0.000000, 0.000000, 0.000000, -0.000000, -0.000000, 0.000000, -0.000000, -0.000000, 0.000000, 0.000000, 0.000000, -0.000000, -0.000000, 0.000000, 0.000000, 0.000000, 0.000000, 0.000000, -0.000000, -0.000000, -0.000000, 0.000000, -0.000000, -0.000000, 0.000000, 0.000000}, {-0.011072, 0.246808, 0.021954, -0.033712, -0.061049, 0.003111, 0.248439, -0.090495, 0.149763, -0.241598, 0.033212, -0.209608, -0.072176, -0.018839, -0.049775, -0.179959, -0.010370, -0.174243, 0.025148, 0.143863, 0.085117, 0.195976, 0.025291, 0.230644, -0.286118, 0.282130, 0.228597, 0.140295, 0.129110, 0.095013, 0.290401, -0.110325, 0.114823, 0.029679, 0.067252, -0.198279, -0.052941, -0.067224, 0.282716, -0.174879}, {-0.021559, -0.173324, 0.072609, 0.004602, 0.104810, -0.067928, 0.598179, 0.058121, 0.190070, -0.103862, -0.035792, -0.062320, 0.024687, 0.041623, 0.067674, 0.086561, 0.076682, 0.289729, 0.227662, -0.002615, -0.322170, 0.038304, -0.006008, 0.176758, -0.350096, 0.267504, 0.438208, -0.017386, 0.108132, -0.308384, 0.360325, -0.084257, 0.214339, -0.158206, -0.085448, -0.042343, 0.092037, 0.015267, 0.530694, -0.019137}, {-0.000000, 0.000000, 0.000000, 0.000000, 0.000000, 0.000000, -0.000000, 0.000000, -0.000000, -0.000000, 0.000000, 0.000000, 0.000000, 0.000000, -0.000000, -0.000000, -0.000000, -0.000000, -0.000000, 0.000000, -0.000000, 0.000000, -0.000000, -0.000000, 0.000000, -0.000000, 0.000000, -0.000000, -0.000000, -0.000000, 0.000000, 0.000000, -0.000000, -0.000000, -0.000000, 0.000000, -0.000000, -0.000000, -0.000000, -0.000000}, {0.047049, 0.354966, 0.187534, -0.052098, 0.016321, 0.047046, -0.087014, 0.158317, 0.573374, 0.136024, 0.076833, 0.086343, -0.017790, -0.047666, -0.063697, 0.078685, -0.041236, -0.266166, 0.374055, -0.109371, 0.000775, -0.100363, 0.058753, 0.623526, 0.088678, -0.111566, -0.100978, -0.114527, 0.003771, -0.009417, -0.082749, -0.010078, 0.530613, 0.027505, -0.123466, 0.085548, -0.022115, -0.011685, -0.089465, 0.097138}, {-0.000000, -0.000000, 0.000000, 0.000000, -0.000000, 0.000000, 0.000000, 0.000000, 0.000000, -0.000000, -0.000000, -0.000000, -0.000000, -0.000000, 0.000000, -0.000000, 0.000000, -0.000000, -0.000000, -0.000000, -0.000000, -0.000000, -0.000000, 0.000000, 0.000000, 0.000000, 0.000000, 0.000000, 0.000000, 0.000000, 0.000000, -0.000000, 0.000000, -0.000000, -0.000000, -0.000000, -0.000000, 0.000000, 0.000000, 0.000000}, {0.000000, 0.000000, -0.000000, -0.000000, -0.000000, 0.000000, -0.000000, 0.000000, 0.000000, -0.000000, -0.000000, 0.000000, -0.000000, 0.000000, -0.000000, 0.000000, 0.000000, -0.000000, 0.000000, 0.000000, -0.000000, 0.000000, -0.000000, 0.000000, -0.000000, 0.000000, -0.000000, -0.000000, 0.000000, -0.000000, -0.000000, -0.000000, -0.000000, 0.000000, -0.000000, 0.000000, 0.000000, -0.000000, -0.000000, 0.000000}, {0.278426, -0.307479, 0.199552, -0.104716, -0.129594, 0.101336, 0.278226, -0.059319, 0.052461, -0.029720, 0.137999, -0.107902, -0.100136, -0.107383, -0.252637, 0.357872, -0.080311, 0.189802, 0.248284, 0.147034, 0.312199, 0.077438, 0.102066, -0.095089, -0.231099, 0.132242, -0.001825, 0.146529, -0.005375, 0.089823, 0.234917, -0.025822, 0.123009, 0.107659, 0.146707, -0.099569, -0.148738, -0.069718, 0.319404, -0.121255}, {-0.046376, 0.402968, -0.300874, 0.020797, -0.491472, 0.002562, -0.241931, -0.440562, -0.188485, -0.327941, 0.069833, -0.382476, -0.094875, -0.041909, -0.099912, -0.301678, 0.008053, -0.390202, -0.293557, 0.445232, -0.175808, 0.388509, 0.091531, -0.097900, -0.177089, 0.221533, -0.281850, 0.450618, 0.049580, 0.148490, 0.171015, -0.016678, -0.239312, 0.495737, 0.485787, -0.395936, -0.440533, -0.113833, 0.006750, -0.420398}, {0.047543, -0.082186, 0.046216, -0.065082, -0.064447, 0.100099, 0.078584, -0.067572, -0.174030, -0.213298, 0.031730, -0.153581, 0.030160, -0.008850, -0.075139, -0.074824, -0.109057, 0.183787, -0.061410, 0.130022, 0.054030, 0.141532, -0.014611, -0.177804, -0.264868, 0.270517, 0.114040, 0.090472, -0.159516, -0.272699, 0.267462, 0.085461, -0.168045, 0.081268, 0.020637, -0.144301, -0.126107, 0.052051, 0.275118, -0.129621}, {0.000000, -0.000000, -0.000000, -0.000000, -0.000000, 0.000000, -0.000000, 0.000000, -0.000000, -0.000000, 0.000000, -0.000000, 0.000000, -0.000000, -0.000000, -0.000000, -0.000000, -0.000000, 0.000000, -0.000000, -0.000000, 0.000000, 0.000000, -0.000000, 0.000000, -0.000000, 0.000000, 0.000000, -0.000000, 0.000000, 0.000000, 0.000000, 0.000000, -0.000000, -0.000000, 0.000000, 0.000000, 0.000000, -0.000000, 0.000000}, {0.000000, -0.000000, -0.000000, 0.000000, 0.000000, 0.000000, 0.000000, 0.000000, -0.000000, -0.000000, -0.000000, 0.000000, -0.000000, -0.000000, 0.000000, -0.000000, -0.000000, 0.000000, -0.000000, -0.000000, -0.000000, -0.000000, -0.000000, 0.000000, 0.000000, 0.000000, 0.000000, 0.000000, -0.000000, -0.000000, 0.000000, -0.000000, -0.000000, -0.000000, 0.000000, 0.000000, 0.000000, -0.000000, 0.000000, 0.000000}, {-0.023671, -0.124659, -0.098761, 0.044460, -0.291450, -0.073772, 0.222992, -0.294490, -0.013326, -0.234861, -0.095477, -0.315461, -0.075475, 0.109963, 0.078111, 0.131257, 0.080571, 0.202068, 0.119556, 0.363321, -0.400716, 0.292516, -0.078631, -0.042872, -0.343698, 0.282044, 0.087380, 0.345124, 0.081840, -0.261466, 0.336834, -0.075298, 0.015838, 0.215081, 0.323205, -0.311728, -0.287160, -0.069645, 0.335197, -0.333455}, {-0.088125, 0.140889, -0.005789, 0.058335, -0.321178, -0.117396, 0.190585, -0.258382, 0.104731, -0.299682, -0.049990, -0.354713, -0.064427, 0.019462, 0.114996, 0.003675, 0.131991, -0.089328, 0.064103, 0.348473, -0.245874, 0.327317, -0.024210, 0.148208, -0.380306, 0.335032, 0.044127, 0.332945, 0.115382, -0.091104, 0.374374, -0.001428, 0.088191, 0.290375, 0.289801, -0.347097, -0.353620, -0.068152, 0.325180, -0.346174}, {-0.078410, 0.326256, -0.038284, -0.009140, 0.025454, -0.125012, 0.517097, -0.248575, 0.311784, -0.507328, -0.022841, -0.480918, 0.018444, -0.097021, 0.069931, -0.336259, 0.130876, -0.197046, 0.159249, 0.299730, -0.070326, 0.466167, 0.117722, 0.362441, -0.534428, 0.533427, 0.501140, 0.352759, -0.006797, 0.239350, 0.534462, -0.183722, 0.297290, -0.214972, 0.176509, -0.460216, 0.165507, -0.008164, 0.519720, -0.411727}};
static const float * p_layer_3_weight = layer_3_weight;
static const float layer_3_bias[40] = {0.013634, -0.038465, 0.037865, -0.014754, 0.017624, -0.007264, 0.017840, -0.005020, -0.011914, 0.020685, 0.017076, -0.001810, -0.014431, -0.004306, -0.008440, 0.028720, 0.011064, 0.003721, 0.015636, 0.002013, 0.068273, 0.001666, 0.012339, -0.030310, 0.002076, -0.019024, -0.001171, 0.009409, 0.028903, 0.068794, -0.003635, -0.026319, -0.001069, -0.025266, 0.007594, -0.001894, 0.025734, -0.012573, 0.005907, -0.004696};
static const float * p_layer_3_bias = layer_3_bias;
    
static float sigmoid(float num) {
    return 1.0f / (1.0f + expf(-num));
}

static float step(float num) {
    if (num < 0) {
        return 0;
    }
    return 1;
}

static float relu(float num) {
    if (num > 0) {
        return num;
    } else {
        return 0;
    }
}

static float linear(float num) {
    return num;
}

static void layer(const float * in, const float * layer_weight, const float * layer_bias,   
            int row, int col, float * output, int use_activation) {
    int ii;
    int jj;
    const float * p;

    for(ii = 0; ii < col; ii++) {
        p = layer_weight + ii;
        output[ii] = 0;
        for (jj = 0; jj < row; jj++) {
            output[ii] += in[jj] * (*p); 
            p += col;
        }
        output[ii] += layer_bias[ii];
        
        if (use_activation == 1) {
			output[ii] = relu(output[ii]);
        }
    }
}

const float* nn_phi_2(const float* input) {
	layer(input, p_layer_0_weight, p_layer_0_bias, STRUCTURE[0][0], STRUCTURE[0][1], output_0, 1);
	layer(output_0, p_layer_1_weight, p_layer_1_bias, STRUCTURE[1][0], STRUCTURE[1][1], output_1, 1);
	layer(output_1, p_layer_2_weight, p_layer_2_bias, STRUCTURE[2][0], STRUCTURE[2][1], output_2, 1);
	layer(output_2, p_layer_3_weight, p_layer_3_bias, STRUCTURE[3][0], STRUCTURE[3][1], output_3, 0);

	return output_3;
}
