/*
 * FILE: generated.c
 */

#include <stdio.h>
#include <stdlib.h>
#include <string.h>
#include <math.h>
#include "phi_2.h"

static const int STRUCTURE[4][2] = {{6, 25}, {25, 40}, {40, 40}, {40, 40}};
static float output_0[25];
static float output_1[40];
static float output_2[40];
static float output_3[40];
static const float layer_0_weight[6][25] = {{-0.115959, 0.000000, -0.000000, -2.708424, 0.068373, 0.044234, -0.000000, -0.188231, 2.738767, -0.460369, 0.242162, 0.106847, 0.535389, -0.880053, 1.266147, -0.354278, 1.024280, -0.718344, -0.044537, -0.325187, 0.512761, -0.069021, -0.261539, 0.416436, -0.000000}, {-0.303200, -0.000000, -0.000000, -1.143110, -0.090855, 0.108766, -0.000000, -0.275822, 0.107207, 0.101754, -0.293787, 0.126748, 1.680498, 0.618280, -1.734616, 0.179910, 0.327338, 1.832000, 1.251626, -0.207654, 0.035969, 0.800406, 0.330635, -0.575417, 0.000000}, {0.235171, 0.000000, -0.000000, -0.112046, -0.400641, -0.090029, -0.000000, -0.669409, 0.077168, -0.458677, 0.575564, 0.597488, -0.362900, 0.308082, -0.071443, -0.925815, -1.118046, 0.338277, -0.350912, 0.845993, -0.061452, -0.205331, 0.346529, -0.126779, -0.000000}, {0.339739, 0.000000, -0.000000, -0.096037, -0.288277, 0.988901, -0.000000, 0.321569, 0.118732, -0.214828, -0.745368, -0.186996, 0.027501, 0.377038, 0.010643, 0.645889, -0.255486, 0.007711, -0.334997, 0.562616, -0.051507, -0.308650, 0.588365, 0.557689, 0.000000}, {0.589261, 0.000000, 0.000000, 0.012882, 0.525247, 0.113616, 0.000000, 0.072000, 0.067691, -0.148106, -0.293500, 0.439782, 0.003036, -0.554900, 0.023381, 0.232984, -0.039306, -0.044798, -0.426257, 0.070568, -0.055705, 0.310746, 0.423264, -0.603247, -0.000000}, {0.271515, -0.000000, 0.000000, -0.091483, 0.180076, 0.439922, -0.000000, 0.652804, -0.022030, 0.631552, 0.082088, 0.008735, -0.079485, 0.024251, -0.006972, -0.175780, 0.200976, 0.041989, 0.151842, 0.120039, -0.708338, 0.459206, -0.560648, -0.194078, -0.000000}};
static const float * p_layer_0_weight = layer_0_weight;
static const float layer_0_bias[25] = {-0.434982, -0.321492, -0.375347, 0.037038, -0.177463, -0.059441, -0.417155, -0.055057, -0.067118, 0.291797, -0.285341, -0.413171, 0.092688, -0.241786, 0.016144, 0.272930, 0.136749, -0.093069, 0.085057, -0.175944, -0.127056, -0.203094, -0.474038, -0.042750, -0.430804};
static const float * p_layer_0_bias = layer_0_bias;
static const float layer_1_weight[25][40] = {{0.000000, -0.217848, 0.182959, 0.198877, -0.000000, -0.515186, -0.252647, 0.324807, -0.000000, -0.000000, -0.806140, 0.000000, 0.000000, -0.000000, -0.728686, 0.000000, -0.000000, 0.379573, 0.011508, -1.026943, -0.541250, -0.951202, -0.437169, -0.047079, 0.073312, -0.000000, 0.094388, -0.520492, 0.000000, -0.266945, 0.674603, -0.000000, 0.000000, -0.000000, -0.000000, -0.000000, 0.130055, 0.190412, 0.260730, -0.000017}, {0.000000, -0.000000, 0.000000, 0.000000, -0.000000, -0.000000, 0.000000, -0.000000, -0.000000, -0.000000, 0.000000, 0.000000, 0.000000, 0.000000, 0.000000, -0.000000, -0.000000, -0.000000, -0.000000, 0.000000, -0.000000, -0.000000, -0.000000, 0.000000, 0.000000, -0.000000, 0.000000, -0.000000, -0.000000, 0.000000, 0.000000, 0.000000, -0.000000, -0.000000, -0.000000, 0.000000, -0.000000, -0.000000, -0.000000, 0.000000}, {0.000000, 0.000000, 0.000000, -0.000000, 0.000000, -0.000000, -0.000000, 0.000000, 0.000000, 0.000000, 0.000000, -0.000000, -0.000000, 0.000000, 0.000000, -0.000000, -0.000000, 0.000000, 0.000000, -0.000000, 0.000000, -0.000000, -0.000000, 0.000000, -0.000000, 0.000000, -0.000000, 0.000000, 0.000000, 0.000000, -0.000000, -0.000000, 0.000000, 0.000000, -0.000000, -0.000000, 0.000000, 0.000000, 0.000000, 0.000000}, {0.000000, -0.213858, -0.857986, 0.725465, -0.000000, 0.338843, -0.675306, -0.624067, -0.000000, -0.000000, 0.324820, -0.000000, -0.000000, 0.000000, 0.117946, 0.000000, 0.000000, -0.113739, -1.405921, 0.387609, 0.159681, 0.093016, -0.214656, -0.102913, -0.341196, 0.000000, 0.315526, -0.220905, -0.000000, 0.416349, 0.150137, -0.000000, -0.000000, -0.000000, -0.000000, -0.000000, -0.712616, -0.665381, 0.011348, -0.000028}, {-0.000000, 0.326788, -0.097153, -0.119286, -0.000000, -0.791717, 0.379339, 0.208983, -0.000000, -0.000000, -0.280463, -0.000000, -0.000000, -0.000000, -0.710252, 0.000000, 0.000000, 0.182220, -0.253021, -0.152456, -0.745906, -0.028510, -0.079327, -0.055402, -0.068542, 0.000000, 0.217732, -0.204826, -0.000000, 0.098023, 0.534531, -0.000000, -0.000000, -0.000000, 0.000000, 0.000000, -0.045893, 0.397583, -0.034614, -0.000013}, {0.000000, -0.028885, 0.081170, -0.737992, -0.000000, -0.111316, -0.403680, -0.401385, -0.000000, -0.000000, 0.120401, 0.000000, 0.000000, 0.000000, -0.559209, -0.000000, -0.000000, 0.274806, -0.193803, -1.389852, 0.132053, -0.001756, 0.082439, 0.190183, -0.145768, -0.000000, -0.067345, 0.205980, -0.000000, -0.033701, -0.024976, 0.000000, 0.000000, 0.000000, -0.000000, -0.000000, 0.076066, 0.228441, -0.204187, -0.000029}, {-0.000000, 0.000000, 0.000000, -0.000000, 0.000000, -0.000000, -0.000000, 0.000000, 0.000000, -0.000000, -0.000000, 0.000000, -0.000000, 0.000000, -0.000000, 0.000000, 0.000000, 0.000000, -0.000000, -0.000000, -0.000000, -0.000000, -0.000000, 0.000000, 0.000000, -0.000000, -0.000000, -0.000000, -0.000000, 0.000000, -0.000000, -0.000000, -0.000000, 0.000000, -0.000000, 0.000000, -0.000000, -0.000000, 0.000000, -0.000000}, {-0.000000, 0.261106, 0.042765, -0.509292, 0.000000, -0.299385, -0.474681, 0.300900, -0.000000, 0.000000, -0.347332, 0.000000, -0.000000, 0.000000, 0.168108, -0.000000, 0.000000, 0.244518, 0.124740, -0.077680, -0.120295, 0.212748, -0.650056, -0.568090, -0.326705, 0.000000, 0.059521, 0.186595, -0.000000, -0.755658, 0.486500, -0.000000, -0.000000, 0.000000, -0.000000, -0.000000, 0.129629, -0.823498, -0.174927, -0.000005}, {-0.000000, -0.783211, -0.687161, 0.225876, -0.000000, 0.374164, -0.026229, -0.106942, -0.000000, -0.000000, 0.189943, -0.000000, -0.000000, -0.000000, -0.414079, 0.000000, 0.000000, -0.229395, 0.474857, 0.175983, 0.439937, -0.234773, -0.161986, -0.489987, -0.062678, -0.000000, -1.442328, -0.724275, -0.000000, -0.672023, 0.086432, 0.000000, 0.000000, 0.000000, 0.000000, 0.000000, -0.473989, -0.831254, -1.027193, -0.000043}, {0.000000, 0.177898, -0.094333, -0.138284, -0.000000, -0.366559, -0.412353, 0.030260, -0.000000, -0.000000, -1.369818, -0.000000, 0.000000, 0.000000, 0.294886, -0.000000, 0.000000, 0.176316, 0.152110, -0.006243, -0.902139, 0.007507, -0.304025, -0.458607, 0.058898, -0.000000, -0.043460, -0.041106, 0.000000, 0.315830, 0.352250, 0.000000, -0.000000, -0.000000, -0.000000, -0.000000, -0.042416, -0.046793, 0.222177, -0.000041}, {0.000000, -0.417289, 0.311607, 0.068761, -0.000000, 0.168742, 0.026910, 0.182814, -0.000000, -0.000000, -0.008220, -0.000000, -0.000000, -0.000000, -0.807132, -0.000000, 0.000000, 0.060734, -0.078575, -0.290572, -0.454970, -0.471784, -0.284350, 0.188924, 0.017357, 0.000000, -0.374860, -0.307089, 0.000000, 0.291163, 0.879684, 0.000000, 0.000000, -0.000000, -0.000000, 0.000000, -0.043091, -0.095790, 0.325616, 0.000010}, {-0.000000, 0.145318, 0.529982, -0.005332, -0.000000, -0.730231, 0.004466, 0.775963, 0.000000, -0.000000, -0.451152, 0.000000, 0.000000, -0.000000, -0.287812, 0.000000, 0.000000, 0.500398, -0.270979, -0.029262, -0.516529, 0.567456, -0.511813, 0.027560, 0.006208, -0.000000, -0.116770, 0.421197, -0.000000, 0.049794, -0.159857, -0.000000, -0.000000, -0.000000, -0.000000, 0.000000, 0.095755, 0.319333, 0.246436, 0.000006}, {-0.000000, -0.682938, -0.466219, 0.401868, -0.000000, 0.005224, -0.045802, -0.180943, -0.000000, 0.000000, 0.050093, 0.000000, -0.000000, -0.000000, 0.216984, 0.000000, -0.000000, -0.802447, 0.411321, 0.205543, 0.235413, -0.736843, -0.801822, 0.004541, -1.316819, -0.000000, 0.181465, -0.118118, -0.000000, 0.249849, -0.102462, -0.000000, -0.000000, -0.000000, -0.000000, 0.000000, -0.637611, 0.158345, -1.021508, -0.000025}, {0.000000, -0.253738, 0.046777, -0.132272, -0.000000, -0.368412, 0.185860, 0.374049, -0.000000, 0.000000, 0.275805, 0.000000, -0.000000, -0.000000, -0.833247, -0.000000, -0.000000, 0.293088, 0.353204, -0.736991, 0.095186, 0.274464, -0.066254, 0.759514, 0.099284, 0.000000, 0.014051, 0.586647, 0.000000, -0.690638, 0.788399, 0.000000, 0.000000, 0.000000, -0.000000, -0.000000, 0.209083, -0.140477, 0.040231, 0.000025}, {-0.000000, -0.520047, -0.366234, 0.051308, -0.000000, 0.313633, -0.435447, -0.616797, -0.000000, -0.000000, -0.122782, 0.000000, 0.000000, 0.000000, -0.179627, -0.000000, -0.000000, -1.117337, -0.238447, 0.329417, -0.587026, -0.590372, -0.161180, -0.047996, -0.426319, -0.000000, 0.741466, -0.491191, -0.000000, 0.461344, 0.162110, 0.000000, 0.000000, 0.000000, -0.000000, -0.000000, -0.314914, -0.767723, -0.066942, -0.000010}, {-0.000000, -0.022647, -0.599296, -0.059329, 0.000000, -0.462216, -1.017025, -0.682293, -0.000000, -0.000000, -0.683519, -0.000000, 0.000000, -0.000000, -1.294343, 0.000000, -0.000000, 0.169968, 0.171704, 0.308254, 0.341912, -0.498613, 0.347696, -0.266836, 0.382153, -0.000000, 0.446137, 0.033712, -0.000000, 0.205275, 0.250326, -0.000000, -0.000000, 0.000000, -0.000000, -0.000000, -0.211233, 0.347733, -0.302104, -0.000045}, {-0.000000, 0.041165, -0.266223, 0.385615, -0.000000, 0.361291, -0.211554, -1.429369, 0.000000, 0.000000, -0.271308, -0.000000, 0.000000, 0.000000, -0.077315, -0.000000, 0.000000, -0.514711, 0.382868, 0.567754, 0.325650, -0.475271, -0.100726, -0.829284, -0.520670, 0.000000, 0.219791, 0.267692, -0.000000, -0.539608, 0.201927, -0.000000, -0.000000, 0.000000, 0.000000, 0.000000, -0.398060, -0.681152, -0.478235, -0.000023}, {-0.000000, -0.762869, -0.101966, -0.312568, 0.000000, 0.497136, 0.198092, 0.160411, 0.000000, 0.000000, 0.201361, -0.000000, -0.000000, 0.000000, -0.163265, -0.000000, 0.000000, -0.341400, 0.258229, 0.223363, 0.144086, -0.181495, -1.331574, 0.027803, -0.297002, -0.000000, 0.704960, -0.297451, -0.000000, 0.477607, 0.077763, -0.000000, -0.000000, -0.000000, 0.000000, -0.000000, -0.357708, 0.244320, -1.051818, -0.000043}, {-0.000000, -0.120369, 0.346685, -0.691124, 0.000000, -0.444152, 0.320629, 0.253497, -0.000000, -0.000000, -0.548234, -0.000000, -0.000000, -0.000000, -0.844141, -0.000000, -0.000000, 0.189166, 0.592740, 0.033395, -0.242937, 0.118106, -0.817083, -0.895858, 0.370798, -0.000000, 0.145903, 0.130718, -0.000000, 0.120498, 0.337852, 0.000000, 0.000000, 0.000000, -0.000000, -0.000000, 0.075372, -0.004309, 0.056997, -0.000014}, {-0.000000, 0.084094, -0.086232, -0.214302, 0.000000, 0.243427, 0.328371, -0.067731, -0.000000, 0.000000, -0.501152, -0.000000, -0.000000, -0.000000, 0.069323, -0.000000, -0.000000, 0.046793, -0.136607, -1.146929, 0.120971, -0.851292, 0.026010, 0.648205, -0.823712, -0.000000, -0.139492, -1.046705, 0.000000, -0.511515, 0.266132, -0.000000, 0.000000, 0.000000, 0.000000, -0.000000, 0.532558, 0.065638, -0.225503, 0.000030}, {-0.000000, -0.274066, 0.247429, 0.251233, -0.000000, 0.133603, 0.202400, -0.653290, -0.000000, 0.000000, -0.135312, 0.000000, -0.000000, -0.000000, -0.592734, 0.000000, 0.000000, 0.328339, 0.427696, 0.264412, -0.217004, 0.173857, -0.277181, -0.158370, 0.107691, -0.000000, -0.509545, 0.080102, -0.000000, 0.156365, 0.055269, -0.000000, 0.000000, 0.000000, -0.000000, 0.000000, 0.076566, 0.195852, -0.166942, -0.000019}, {0.000000, -0.008038, -0.342207, -0.554317, -0.000000, -0.473908, -0.092519, -0.050354, 0.000000, -0.000000, -0.429934, -0.000000, -0.000000, 0.000000, -0.401117, -0.000000, -0.000000, -0.010278, -0.331423, 0.265400, -1.108346, 0.464658, -0.113271, 0.210019, -0.151886, 0.000000, -0.548535, -0.312925, -0.000000, 0.085181, -0.300911, -0.000000, -0.000000, -0.000000, 0.000000, 0.000000, -0.441662, 0.424806, 0.250813, -0.000007}, {-0.000000, -1.245971, 0.211811, -0.474571, 0.000000, 0.260038, -0.282294, 0.394157, -0.000000, 0.000000, -0.137689, 0.000000, 0.000000, -0.000000, -0.128644, 0.000000, -0.000000, 0.158998, -0.491464, -0.145975, -0.655459, -0.511223, 0.040204, -0.020043, -0.022890, -0.000000, -0.137595, 0.534553, 0.000000, 0.413377, -0.211524, 0.000000, 0.000000, -0.000000, 0.000000, -0.000000, 0.262497, -0.039105, -0.375048, 0.000022}, {-0.000000, -0.505651, -0.003561, 0.156558, -0.000000, -0.481725, -0.059264, 0.019468, -0.000000, 0.000000, 0.001880, -0.000000, -0.000000, -0.000000, -0.288922, -0.000000, -0.000000, 0.166474, 0.084839, -0.152440, 0.275275, 0.167011, -1.171816, 0.253575, -0.059994, 0.000000, 0.201498, 0.041444, -0.000000, 0.198384, -0.240627, -0.000000, -0.000000, 0.000000, -0.000000, -0.000000, 0.013590, -0.210703, 0.664373, 0.000009}, {0.000000, 0.000000, -0.000000, 0.000000, -0.000000, -0.000000, -0.000000, 0.000000, 0.000000, -0.000000, -0.000000, -0.000000, 0.000000, 0.000000, 0.000000, -0.000000, -0.000000, -0.000000, 0.000000, 0.000000, 0.000000, -0.000000, -0.000000, -0.000000, 0.000000, -0.000000, -0.000000, -0.000000, -0.000000, -0.000000, -0.000000, 0.000000, 0.000000, -0.000000, -0.000000, -0.000000, -0.000000, 0.000000, -0.000000, 0.000000}};
static const float * p_layer_1_weight = layer_1_weight;
static const float layer_1_bias[40] = {-0.198979, 0.302468, 0.160676, 0.152922, -0.066936, 0.024112, 0.139904, 0.064453, -0.038306, -0.105786, 0.225448, -0.103575, -0.164614, -0.253365, 0.178499, -0.222241, -0.178259, 0.017355, -0.241106, -0.247002, 0.050121, 0.149288, 0.200654, -0.145140, 0.138378, -0.097397, -0.113861, 0.192017, -0.055952, -0.230268, -0.468108, -0.051011, -0.097098, -0.198891, -0.114174, -0.190284, 0.214873, -0.130737, -0.112730, -0.038948};
static const float * p_layer_1_bias = layer_1_bias;
static const float layer_2_weight[40][40] = {{0.000000, -0.000000, -0.000000, 0.000000, -0.000000, 0.000000, -0.000000, -0.000000, -0.000000, 0.000000, -0.000000, -0.000000, -0.000000, 0.000000, 0.000000, 0.000000, -0.000000, -0.000000, -0.000000, -0.000000, -0.000000, 0.000000, 0.000000, -0.000000, -0.000000, -0.000000, -0.000000, 0.000000, -0.000000, 0.000000, -0.000000, -0.000000, 0.000000, 0.000000, 0.000000, 0.000000, -0.000000, 0.000000, -0.000000, -0.000000}, {0.490278, 0.000000, -0.000000, 0.462050, 0.469840, 0.000000, -0.000000, 0.000000, 0.143000, 0.454062, -0.000000, 0.000000, 0.000000, -0.000000, -0.000000, -0.000000, -0.012855, 0.000000, 0.000000, -0.071914, 0.000000, -0.249013, -0.000000, -0.000000, 0.425965, -0.270972, 0.000000, 0.000000, -0.000000, 0.000000, 0.000000, 0.080042, -0.832799, -0.000000, -0.000000, 0.000000, -0.000000, -0.000070, 0.351060, -0.542019}, {-1.341249, -0.000000, 0.000000, 0.107335, 0.095628, -0.000000, -0.000000, 0.000000, 0.202797, 0.081807, -0.000000, 0.000000, -0.000000, 0.000000, -0.000000, -0.000000, -0.477767, 0.000000, 0.000000, -0.486379, -0.000000, -0.213061, -0.000000, -0.000000, 0.051101, -0.855201, 0.000000, 0.000000, -0.000000, 0.000000, -0.000000, -0.142645, 0.070179, 0.000000, 0.000000, 0.000000, -0.000000, -0.000285, 0.149265, -0.287280}, {-0.234176, 0.000000, -0.000000, -0.269548, -0.316670, -0.000000, -0.000000, -0.000000, -1.254995, -0.367495, -0.000000, 0.000000, -0.000000, -0.000000, -0.000000, -0.000000, -0.088997, 0.000000, -0.000001, 0.001525, -0.000000, -0.131527, 0.000000, -0.000000, -0.357998, -0.020443, -0.000000, -0.000000, 0.000000, -0.000000, -0.000000, 0.192611, 0.185342, -0.000000, -0.000000, 0.000000, -0.000000, -0.000843, -0.455878, -0.060748}, {0.000000, -0.000000, -0.000000, -0.000000, -0.000000, 0.000000, -0.000000, -0.000000, -0.000000, 0.000000, 0.000000, -0.000000, -0.000000, 0.000000, -0.000000, 0.000000, -0.000000, 0.000000, 0.000000, -0.000000, 0.000000, 0.000000, -0.000000, -0.000000, -0.000000, -0.000000, -0.000000, -0.000000, -0.000000, 0.000000, 0.000000, 0.000000, -0.000000, 0.000000, 0.000000, -0.000000, -0.000000, 0.000000, 0.000000, 0.000000}, {-0.183723, 0.000000, -0.000000, -0.159255, 0.117916, 0.000000, 0.000000, -0.000000, -0.152370, -0.060283, 0.000000, -0.000000, -0.000000, -0.000000, -0.000000, 0.000000, 0.082221, -0.000000, -0.000000, -0.914992, 0.000000, -0.291523, -0.000000, -0.000000, -0.055935, 0.043262, -0.000000, 0.000000, -0.000000, -0.000000, -0.000000, -0.800009, 0.553999, 0.000000, 0.000000, 0.000000, -0.000000, -0.000145, -0.165838, 0.179748}, {0.213134, -0.000000, 0.000000, -0.174983, -0.211967, 0.000000, -0.000000, 0.000000, -0.148137, 0.079519, -0.000000, -0.000000, 0.000000, -0.000000, 0.000000, 0.000000, 0.059961, 0.000000, -0.000000, -0.875071, -0.000000, 0.155265, 0.000000, -0.000000, 0.093220, -0.792308, -0.000000, -0.000000, 0.000000, 0.000000, -0.000000, -0.305702, 0.114766, -0.000000, 0.000000, -0.000000, -0.000000, -0.002607, -0.147086, -0.184312}, {-0.703763, -0.000000, -0.000000, -0.064535, -0.160453, 0.000000, 0.000000, -0.000000, 0.294478, 0.186736, -0.000000, -0.000000, -0.000000, -0.000000, -0.000000, -0.000000, 0.334166, -0.000000, 0.000000, -0.370377, 0.000000, -0.191054, -0.000000, -0.000000, 0.192172, -0.433613, 0.000000, -0.000000, -0.000000, 0.000000, -0.000000, 0.076899, -0.104466, -0.000000, 0.000000, 0.000000, -0.000000, -0.000865, -0.058449, -0.646850}, {0.000000, 0.000000, -0.000000, -0.000000, -0.000000, -0.000000, 0.000000, -0.000000, 0.000000, -0.000000, 0.000000, 0.000000, 0.000000, 0.000000, 0.000000, 0.000000, 0.000000, 0.000000, -0.000000, -0.000000, -0.000000, -0.000000, -0.000000, -0.000000, -0.000000, 0.000000, -0.000000, -0.000000, -0.000000, 0.000000, -0.000000, -0.000000, 0.000000, 0.000000, 0.000000, 0.000000, 0.000000, -0.000000, 0.000000, 0.000000}, {0.000000, 0.000000, 0.000000, 0.000000, -0.000000, -0.000000, 0.000000, 0.000000, -0.000000, 0.000000, 0.000000, 0.000000, 0.000000, 0.000000, 0.000000, 0.000000, 0.000000, -0.000000, 0.000000, 0.000000, 0.000000, -0.000000, 0.000000, 0.000000, -0.000000, -0.000000, 0.000000, -0.000000, 0.000000, -0.000000, -0.000000, -0.000000, 0.000000, -0.000000, 0.000000, 0.000000, -0.000000, 0.000000, 0.000000, -0.000000}, {0.137609, -0.000000, -0.000000, 0.428346, 0.577223, 0.000000, -0.000000, -0.000000, -0.688177, 0.315837, 0.000000, 0.000000, -0.000000, -0.000000, 0.000000, 0.000000, -0.671756, -0.000000, 0.000000, -0.213263, 0.000000, 0.419116, -0.000000, 0.000000, 0.277832, 0.148236, -0.000000, -0.000000, -0.000000, -0.000000, -0.000000, 0.071493, 0.814069, -0.000000, 0.000000, 0.000000, 0.000000, -0.001283, 0.126401, 0.146293}, {-0.000000, 0.000000, -0.000000, 0.000000, 0.000000, -0.000000, 0.000000, -0.000000, 0.000000, 0.000000, 0.000000, -0.000000, -0.000000, 0.000000, -0.000000, -0.000000, 0.000000, -0.000000, -0.000000, -0.000000, -0.000000, 0.000000, -0.000000, -0.000000, -0.000000, 0.000000, -0.000000, 0.000000, -0.000000, -0.000000, 0.000000, -0.000000, -0.000000, -0.000000, -0.000000, 0.000000, -0.000000, 0.000000, 0.000000, -0.000000}, {-0.000000, 0.000000, 0.000000, -0.000000, 0.000000, 0.000000, -0.000000, 0.000000, 0.000000, 0.000000, -0.000000, 0.000000, -0.000000, -0.000000, 0.000000, -0.000000, 0.000000, -0.000000, 0.000000, 0.000000, -0.000000, 0.000000, -0.000000, 0.000000, 0.000000, -0.000000, 0.000000, -0.000000, 0.000000, 0.000000, -0.000000, 0.000000, 0.000000, 0.000000, -0.000000, 0.000000, -0.000000, 0.000000, 0.000000, -0.000000}, {0.000000, -0.000000, -0.000000, -0.000000, -0.000000, -0.000000, 0.000000, 0.000000, 0.000000, 0.000000, -0.000000, 0.000000, 0.000000, 0.000000, -0.000000, 0.000000, 0.000000, 0.000000, -0.000000, -0.000000, -0.000000, -0.000000, -0.000000, 0.000000, -0.000000, 0.000000, 0.000000, 0.000000, -0.000000, -0.000000, -0.000000, -0.000000, 0.000000, -0.000000, 0.000000, -0.000000, 0.000000, 0.000000, 0.000000, -0.000000}, {-0.651428, -0.000000, -0.000000, -0.165644, -0.181003, -0.000000, -0.000000, -0.000000, -0.271494, -0.055837, -0.000000, -0.000000, 0.000000, -0.000000, -0.000000, 0.000000, 0.466869, -0.000000, 0.000000, -0.055681, 0.000000, -0.209813, -0.000000, -0.000000, 0.049644, -0.130963, 0.000000, 0.000000, -0.000000, -0.000000, -0.000000, -0.384335, -0.692099, 0.000000, 0.000000, -0.000000, 0.000000, 0.000473, -0.669253, -0.999177}, {-0.000000, -0.000000, 0.000000, 0.000000, 0.000000, -0.000000, -0.000000, 0.000000, 0.000000, -0.000000, 0.000000, -0.000000, 0.000000, 0.000000, 0.000000, 0.000000, 0.000000, 0.000000, 0.000000, 0.000000, 0.000000, 0.000000, -0.000000, 0.000000, 0.000000, -0.000000, 0.000000, -0.000000, 0.000000, -0.000000, -0.000000, 0.000000, 0.000000, -0.000000, -0.000000, -0.000000, -0.000000, -0.000000, 0.000000, -0.000000}, {-0.000000, 0.000000, 0.000000, -0.000000, -0.000000, 0.000000, 0.000000, 0.000000, -0.000000, -0.000000, 0.000000, 0.000000, 0.000000, 0.000000, 0.000000, 0.000000, 0.000000, 0.000000, -0.000000, 0.000000, 0.000000, 0.000000, 0.000000, 0.000000, -0.000000, 0.000000, 0.000000, 0.000000, -0.000000, -0.000000, -0.000000, 0.000000, 0.000000, 0.000000, 0.000000, 0.000000, 0.000000, -0.000000, -0.000000, -0.000000}, {0.259803, -0.000000, -0.000000, 0.226844, 0.131467, -0.000000, 0.000000, -0.000000, 0.337878, 0.305198, -0.000000, -0.000000, -0.000000, -0.000000, -0.000000, -0.000000, -0.136471, -0.000000, -0.000000, 0.216979, -0.000000, 0.563888, -0.000000, 0.000000, 0.544288, -0.765762, 0.000000, -0.000000, -0.000000, -0.000000, 0.000000, 0.096277, -0.028966, -0.000000, -0.000000, 0.000000, 0.000000, -0.001661, 0.139298, -0.120174}, {0.213684, 0.000000, -0.000000, -0.765765, -1.059280, -0.000000, 0.000000, -0.000000, -0.711138, -0.476628, 0.000000, -0.000000, -0.000000, -0.000000, -0.000000, 0.000000, -0.112396, -0.000000, -0.000001, 0.019253, -0.000000, -0.448504, 0.000000, 0.000000, -0.471133, -0.440696, -0.000000, 0.000000, 0.000000, -0.000000, -0.000000, -1.082594, 0.045371, -0.000000, -0.000000, 0.000000, 0.000000, -0.000659, -0.725686, -0.142218}, {-0.407369, -0.000000, -0.000000, -0.112622, 0.018350, -0.000000, -0.000000, -0.000000, 0.058218, -0.056274, -0.000000, 0.000000, 0.000000, -0.000000, -0.000000, -0.000000, -0.784251, -0.000000, -0.000000, -0.335480, 0.000000, -0.836785, -0.000000, 0.000000, -0.163073, -0.436471, -0.000000, -0.000000, -0.000000, -0.000000, -0.000000, -0.548985, 0.390766, -0.000000, 0.000000, -0.000000, 0.000000, -0.000324, -0.263801, -0.221796}, {-0.111297, -0.000000, -0.000000, -0.511928, -0.633576, 0.000000, -0.000000, -0.000000, -0.514102, -0.511476, -0.000000, -0.000000, -0.000000, -0.000000, 0.000000, -0.000000, -0.235564, -0.000000, -0.000001, 0.235632, -0.000000, -0.018278, 0.000000, -0.000000, -0.465092, -0.180703, -0.000000, -0.000000, -0.000000, -0.000000, 0.000000, 0.347435, 0.356346, 0.000000, 0.000000, 0.000000, -0.000000, -0.001347, -0.919493, 0.408855}, {-0.415655, -0.000000, -0.000000, 0.177150, 0.227839, -0.000000, 0.000000, -0.000000, 0.085774, 0.211327, 0.000000, -0.000000, 0.000000, 0.000000, -0.000000, -0.000000, -0.514569, -0.000000, 0.000000, -1.279354, 0.000000, 0.233246, 0.000000, -0.000000, 0.077478, 0.407262, -0.000000, 0.000000, -0.000000, 0.000000, 0.000000, 0.390447, 0.016839, -0.000000, 0.000000, 0.000000, 0.000000, -0.000430, 0.230013, -0.152735}, {-1.013361, 0.000000, 0.000000, 0.536472, 0.558420, -0.000000, -0.000000, 0.000000, -0.106706, 0.522669, 0.000000, 0.000000, -0.000000, 0.000000, 0.000000, -0.000000, -0.886107, -0.000000, 0.000000, 0.175293, 0.000000, -0.209530, -0.000000, -0.000000, 0.430642, -1.186452, -0.000000, -0.000000, -0.000000, -0.000000, -0.000000, 0.085889, -0.645327, -0.000000, 0.000000, -0.000000, 0.000000, -0.000167, 0.662894, -0.438432}, {-0.303807, -0.000000, -0.000000, -0.393692, -0.774833, -0.000000, -0.000000, -0.000000, -0.356549, -0.702595, -0.000000, -0.000000, 0.000000, -0.000000, -0.000000, 0.000000, 0.255562, -0.000000, -0.000000, 0.536049, -0.000000, 0.515143, -0.000000, -0.000000, 0.747795, -0.626289, 0.000000, 0.000000, 0.000000, -0.000000, -0.000000, 1.050684, 0.034268, -0.000000, -0.000000, -0.000000, 0.000000, -0.000566, -0.334995, -0.611742}, {-0.849267, -0.000000, 0.000000, 0.300432, 0.349138, -0.000000, -0.000000, 0.000000, 0.243397, 0.332332, 0.000000, 0.000000, 0.000000, -0.000000, 0.000000, 0.000000, -1.392533, 0.000000, 0.000000, 0.347319, 0.000000, 0.261167, -0.000000, -0.000000, 0.301894, -0.000091, 0.000000, -0.000000, -0.000000, 0.000000, -0.000000, 0.376817, -0.209212, -0.000000, 0.000000, -0.000000, -0.000000, -0.000884, 0.447219, -0.605773}, {0.000000, -0.000000, -0.000000, -0.000000, 0.000000, 0.000000, 0.000000, 0.000000, 0.000000, -0.000000, -0.000000, -0.000000, -0.000000, -0.000000, 0.000000, -0.000000, 0.000000, -0.000000, -0.000000, 0.000000, -0.000000, 0.000000, -0.000000, -0.000000, -0.000000, 0.000000, -0.000000, 0.000000, 0.000000, 0.000000, -0.000000, 0.000000, -0.000000, -0.000000, -0.000000, 0.000000, 0.000000, 0.000000, 0.000000, 0.000000}, {0.057716, 0.000000, -0.000000, -0.925747, -0.795697, -0.000000, -0.000000, -0.000000, -0.247774, -0.851833, -0.000000, -0.000000, -0.000000, -0.000000, -0.000000, -0.000000, 0.234532, -0.000000, 0.000000, -0.189336, -0.000001, -0.411943, -0.000000, -0.000000, -0.641790, -0.618907, 0.000000, 0.000000, -0.000000, -0.000000, -0.000000, -0.271673, -0.106849, -0.000000, -0.000000, 0.000000, -0.000000, 0.000040, -0.891271, -0.241632}, {0.347182, 0.000000, 0.000000, 0.168664, 0.176031, 0.000000, -0.000000, 0.000000, -0.222010, 0.159624, -0.000000, 0.000000, 0.000000, -0.000000, -0.000000, 0.000000, -0.282487, -0.000000, 0.000000, -0.919094, 0.000000, -0.024138, 0.000000, -0.000000, -0.019746, 0.230753, 0.000000, -0.000000, -0.000000, -0.000000, -0.000000, 0.227817, 0.185675, 0.000000, -0.000000, -0.000000, -0.000000, 0.001149, 0.368843, 0.161867}, {0.000000, -0.000000, -0.000000, 0.000000, -0.000000, -0.000000, 0.000000, -0.000000, 0.000000, -0.000000, -0.000000, 0.000000, -0.000000, 0.000000, -0.000000, 0.000000, 0.000000, 0.000000, 0.000000, -0.000000, -0.000000, 0.000000, 0.000000, 0.000000, 0.000000, 0.000000, 0.000000, 0.000000, -0.000000, -0.000000, -0.000000, -0.000000, 0.000000, -0.000000, -0.000000, 0.000000, -0.000000, -0.000000, 0.000000, -0.000000}, {-0.457919, -0.000000, -0.000000, -0.471289, -0.547255, -0.000000, 0.000000, -0.000000, 0.102958, -0.784590, -0.000000, -0.000000, -0.000000, 0.000000, 0.000000, 0.000000, 0.149232, -0.000000, -0.000000, 0.073548, 0.000000, -0.267846, 0.000000, 0.000000, -0.876466, -0.436351, 0.000000, 0.000000, 0.000000, 0.000000, -0.000000, 0.222385, 0.164804, 0.000000, 0.000000, -0.000000, 0.000000, -0.000677, -0.089913, -1.272661}, {0.577247, 0.000000, -0.000000, -0.308809, -0.111565, -0.000000, 0.000000, -0.000000, -0.941062, -0.668990, -0.000000, -0.000000, 0.000000, 0.000000, 0.000000, -0.000000, 0.401282, -0.000000, -0.000000, 0.219371, 0.000000, -0.013668, -0.000000, -0.000000, -0.026837, -0.241494, 0.000000, 0.000000, 0.000000, -0.000000, -0.000000, -0.479178, -0.538092, -0.000000, 0.000000, -0.000000, 0.000000, -0.000905, -0.590446, -0.317877}, {0.000000, 0.000000, -0.000000, 0.000000, -0.000000, 0.000000, 0.000000, 0.000000, 0.000000, -0.000000, -0.000000, -0.000000, -0.000000, 0.000000, -0.000000, 0.000000, 0.000000, -0.000000, 0.000000, 0.000000, 0.000000, -0.000000, -0.000000, 0.000000, 0.000000, -0.000000, -0.000000, 0.000000, 0.000000, 0.000000, -0.000000, -0.000000, 0.000000, -0.000000, 0.000000, -0.000000, -0.000000, 0.000000, 0.000000, 0.000000}, {-0.000000, 0.000000, -0.000000, -0.000000, -0.000000, 0.000000, -0.000000, -0.000000, 0.000000, -0.000000, -0.000000, 0.000000, -0.000000, 0.000000, 0.000000, 0.000000, 0.000000, -0.000000, 0.000000, 0.000000, 0.000000, 0.000000, 0.000000, -0.000000, 0.000000, 0.000000, 0.000000, -0.000000, -0.000000, 0.000000, -0.000000, 0.000000, 0.000000, 0.000000, 0.000000, -0.000000, -0.000000, -0.000000, 0.000000, -0.000000}, {0.000000, -0.000000, -0.000000, -0.000000, -0.000000, -0.000000, 0.000000, 0.000000, -0.000000, -0.000000, -0.000000, -0.000000, -0.000000, 0.000000, -0.000000, -0.000000, 0.000000, 0.000000, 0.000000, -0.000000, -0.000000, 0.000000, -0.000000, 0.000000, -0.000000, -0.000000, -0.000000, 0.000000, -0.000000, 0.000000, -0.000000, 0.000000, 0.000000, 0.000000, -0.000000, 0.000000, -0.000000, 0.000000, -0.000000, 0.000000}, {-0.000000, 0.000000, -0.000000, 0.000000, 0.000000, -0.000000, 0.000000, 0.000000, -0.000000, 0.000000, -0.000000, -0.000000, 0.000000, 0.000000, -0.000000, 0.000000, 0.000000, 0.000000, -0.000000, -0.000000, 0.000000, -0.000000, -0.000000, -0.000000, -0.000000, -0.000000, 0.000000, -0.000000, 0.000000, -0.000000, -0.000000, -0.000000, 0.000000, 0.000000, -0.000000, 0.000000, 0.000000, -0.000000, 0.000000, -0.000000}, {-0.000000, 0.000000, 0.000000, -0.000000, -0.000000, -0.000000, 0.000000, -0.000000, -0.000000, -0.000000, 0.000000, 0.000000, -0.000000, 0.000000, 0.000000, 0.000000, 0.000000, 0.000000, -0.000000, 0.000000, 0.000000, -0.000000, 0.000000, -0.000000, -0.000000, -0.000000, 0.000000, 0.000000, -0.000000, -0.000000, 0.000000, 0.000000, 0.000000, -0.000000, 0.000000, -0.000000, -0.000000, -0.000000, 0.000000, -0.000000}, {0.095688, -0.000000, -0.000000, 0.137097, 0.181321, -0.000000, -0.000000, -0.000000, 0.249724, 0.147364, -0.000000, -0.000000, -0.000000, -0.000000, -0.000000, -0.000000, -0.030670, -0.000000, -0.000000, 0.302910, -0.000000, -0.050389, 0.000000, -0.000000, 0.391875, -0.253825, 0.000000, 0.000000, -0.000000, 0.000000, -0.000000, -0.302875, -0.663086, -0.000000, -0.000000, -0.000000, -0.000000, -0.001169, -0.025294, -0.579274}, {-0.093627, 0.000000, 0.000000, -0.429460, -0.461017, -0.000000, -0.000000, 0.000000, 0.266264, -0.343770, -0.000000, 0.000000, -0.000000, -0.000000, 0.000000, -0.000000, -0.065574, 0.000000, 0.000000, -0.139016, 0.000000, 0.142368, -0.000000, -0.000000, -0.299762, -0.239269, -0.000000, -0.000000, -0.000000, 0.000000, -0.000000, 0.154598, -0.263575, 0.000000, -0.000000, -0.000000, 0.000000, -0.000475, -0.324854, -0.386480}, {-0.415506, 0.000000, 0.000000, -0.007125, -0.025007, 0.000000, 0.000000, 0.000000, 0.059903, -0.010838, -0.000000, 0.000000, -0.000000, 0.000000, -0.000000, -0.000000, 0.320940, 0.000000, 0.000000, 0.459787, -0.000000, 0.794841, -0.000000, -0.000000, 0.086100, 0.155937, -0.000000, 0.000000, 0.000000, 0.000000, -0.000000, 0.633558, -0.291919, 0.000000, -0.000000, 0.000000, 0.000000, 0.000628, 0.285483, 0.010598}, {0.000016, 0.000000, -0.000000, 0.000004, -0.000005, -0.000000, 0.000000, -0.000000, -0.000007, -0.000001, -0.000000, -0.000000, -0.000000, -0.000000, -0.000000, 0.000000, 0.000017, -0.000000, -0.000000, 0.000019, -0.000000, 0.000021, -0.000000, -0.000000, 0.000001, -0.000022, -0.000000, -0.000000, 0.000000, 0.000000, 0.000000, 0.000016, -0.000013, -0.000000, 0.000000, 0.000000, 0.000000, -0.000015, -0.000005, -0.000025}};
static const float * p_layer_2_weight = layer_2_weight;
static const float layer_2_bias[40] = {-0.110849, -0.203362, -0.093538, 0.085937, 0.115348, -0.089160, -0.136635, -0.091008, 0.247855, 0.118611, -0.058835, -0.150509, -0.054503, -0.194709, -0.084432, -0.214182, 0.052866, -0.100839, -0.106795, 0.206393, -0.357266, 0.380960, -0.168391, -0.086740, 0.136046, 0.254780, -0.164033, -0.167509, -0.093764, -0.067385, -0.023357, 0.049457, -0.061546, -0.085375, -0.152995, -0.152030, -0.157992, -0.158308, 0.067856, 0.334589};
static const float * p_layer_2_bias = layer_2_bias;
static const float layer_3_weight[40][40] = {{0.031300, 0.233236, -0.158360, 0.010895, -0.031553, 0.012733, 0.038348, 0.739442, -0.219143, -0.229943, -0.037470, -0.228932, -0.007523, 0.041924, 0.037408, 0.437120, 0.006354, 0.233463, 0.023711, 0.020291, 0.035873, 0.020857, 0.003070, -0.014511, -0.007868, -0.221267, -0.031148, -0.030877, 0.003177, 0.265147, -0.032498, -0.044974, 0.653750, 0.041437, -0.040026, 0.746867, 0.033772, -0.224284, -0.032028, 0.202377}, {-0.000000, -0.000000, 0.000000, 0.000000, -0.000000, -0.000000, -0.000000, 0.000000, 0.000000, -0.000000, -0.000000, -0.000000, 0.000000, -0.000000, 0.000000, 0.000000, -0.000000, 0.000000, -0.000000, 0.000000, 0.000000, -0.000000, -0.000000, -0.000000, 0.000000, 0.000000, 0.000000, 0.000000, 0.000000, 0.000000, 0.000000, -0.000000, 0.000000, -0.000000, 0.000000, -0.000000, -0.000000, -0.000000, 0.000000, 0.000000}, {0.000000, 0.000000, 0.000000, -0.000000, -0.000000, -0.000000, -0.000000, 0.000000, -0.000000, -0.000000, -0.000000, -0.000000, -0.000000, -0.000000, -0.000000, 0.000000, -0.000000, 0.000000, -0.000000, -0.000000, -0.000000, -0.000000, 0.000000, 0.000000, -0.000000, -0.000000, 0.000000, -0.000000, -0.000000, 0.000000, -0.000000, -0.000000, 0.000000, 0.000000, -0.000000, -0.000000, 0.000000, -0.000000, -0.000000, 0.000000}, {-0.026780, 0.275942, -0.065050, 0.000147, 0.008964, -0.009208, -0.019952, -0.082765, -0.296775, -0.287967, -0.008941, -0.275195, 0.014293, -0.028372, -0.027951, 0.216074, 0.011921, 0.283715, 0.010331, -0.048291, -0.011520, -0.017434, 0.000597, 0.008088, -0.004122, -0.255982, 0.016684, 0.023696, -0.005943, 0.258503, 0.037133, 0.007571, 0.009032, -0.059311, 0.033558, -0.082030, -0.009729, -0.286235, 0.037563, 0.244013}, {0.001244, 0.381359, -0.091181, 0.016394, 0.017221, -0.028344, 0.005684, -0.030664, -0.398541, -0.391495, -0.016110, -0.379745, 0.030077, 0.001044, -0.000371, 0.231018, 0.025547, 0.388056, 0.004162, 0.013942, -0.026674, 0.002873, -0.000066, 0.001599, 0.031732, -0.363824, 0.012653, -0.008905, 0.007735, 0.269429, 0.011675, 0.007606, 0.081030, 0.022939, -0.009543, -0.046158, 0.007948, -0.388240, -0.007477, 0.351360}, {0.000000, 0.000000, -0.000000, -0.000000, 0.000000, 0.000000, 0.000000, -0.000000, 0.000000, 0.000000, -0.000000, 0.000000, -0.000000, 0.000000, -0.000000, -0.000000, 0.000000, -0.000000, -0.000000, -0.000000, 0.000000, -0.000000, -0.000000, -0.000000, -0.000000, 0.000000, -0.000000, 0.000000, 0.000000, 0.000000, -0.000000, -0.000000, -0.000000, -0.000000, 0.000000, 0.000000, 0.000000, 0.000000, -0.000000, 0.000000}, {0.000000, 0.000000, 0.000000, 0.000000, -0.000000, -0.000000, 0.000000, 0.000000, -0.000000, -0.000000, -0.000000, -0.000000, 0.000000, 0.000000, -0.000000, -0.000000, -0.000000, 0.000000, -0.000000, -0.000000, 0.000000, 0.000000, 0.000000, 0.000000, 0.000000, -0.000000, -0.000000, 0.000000, -0.000000, 0.000000, -0.000000, -0.000000, 0.000000, 0.000000, -0.000000, 0.000000, -0.000000, -0.000000, 0.000000, -0.000000}, {-0.000000, 0.000000, 0.000000, 0.000000, -0.000000, 0.000000, 0.000000, -0.000000, -0.000000, -0.000000, 0.000000, -0.000000, -0.000000, -0.000000, -0.000000, -0.000000, 0.000000, 0.000000, -0.000000, -0.000000, -0.000000, -0.000000, -0.000000, -0.000000, 0.000000, 0.000000, -0.000000, 0.000000, 0.000000, -0.000000, -0.000000, 0.000000, -0.000000, 0.000000, -0.000000, -0.000000, 0.000000, -0.000000, -0.000000, 0.000000}, {-0.008706, 0.444428, 0.092614, -0.044194, 0.023118, 0.038487, -0.001333, 0.397175, -0.470945, -0.466043, -0.023762, -0.446015, 0.016001, 0.004002, 0.008442, -0.497925, 0.007516, 0.459986, 0.004202, 0.001616, -0.019045, -0.012011, 0.057698, -0.051497, -0.026100, -0.392043, -0.001244, 0.013384, 0.051438, -0.540065, 0.003787, -0.004498, 0.168804, 0.005497, 0.015056, 0.317317, 0.008228, -0.464786, 0.003700, 0.367707}, {-0.024518, 0.280947, -0.030673, 0.020870, 0.009541, -0.012074, -0.036794, 0.115458, -0.298941, -0.293120, -0.025841, -0.279879, 0.010314, -0.055071, -0.021060, 0.132636, 0.014119, 0.289445, -0.011388, -0.019533, 0.042557, -0.009052, 0.049895, -0.007861, -0.021241, -0.256047, 0.003087, 0.027568, 0.005572, 0.128662, 0.038652, 0.043675, 0.155755, -0.026787, 0.044510, 0.105927, -0.037839, -0.290268, 0.030337, 0.240333}, {0.000000, 0.000000, 0.000000, -0.000000, 0.000000, -0.000000, 0.000000, -0.000000, 0.000000, 0.000000, -0.000000, 0.000000, 0.000000, -0.000000, -0.000000, -0.000000, -0.000000, 0.000000, 0.000000, 0.000000, 0.000000, 0.000000, -0.000000, 0.000000, -0.000000, -0.000000, 0.000000, -0.000000, 0.000000, 0.000000, 0.000000, -0.000000, -0.000000, 0.000000, 0.000000, 0.000000, -0.000000, 0.000000, -0.000000, 0.000000}, {0.000000, 0.000000, 0.000000, -0.000000, -0.000000, 0.000000, -0.000000, -0.000000, -0.000000, -0.000000, -0.000000, -0.000000, -0.000000, -0.000000, -0.000000, -0.000000, 0.000000, 0.000000, -0.000000, -0.000000, -0.000000, 0.000000, 0.000000, 0.000000, -0.000000, -0.000000, -0.000000, -0.000000, 0.000000, -0.000000, -0.000000, 0.000000, 0.000000, -0.000000, -0.000000, -0.000000, 0.000000, -0.000000, 0.000000, 0.000000}, {-0.000000, 0.000000, 0.000000, 0.000000, -0.000000, 0.000000, 0.000000, 0.000000, -0.000000, 0.000000, 0.000000, 0.000000, -0.000000, -0.000000, -0.000000, 0.000000, 0.000000, -0.000000, 0.000000, -0.000000, 0.000000, 0.000000, -0.000000, 0.000000, -0.000000, -0.000000, -0.000000, 0.000000, -0.000000, -0.000000, 0.000000, -0.000000, -0.000000, 0.000000, -0.000000, -0.000000, 0.000000, -0.000000, -0.000000, -0.000000}, {0.000000, 0.000000, 0.000000, 0.000000, 0.000000, -0.000000, 0.000000, -0.000000, -0.000000, -0.000000, -0.000000, -0.000000, 0.000000, 0.000000, -0.000000, -0.000000, -0.000000, 0.000000, -0.000000, 0.000000, 0.000000, 0.000000, -0.000000, -0.000000, 0.000000, -0.000000, 0.000000, 0.000000, 0.000000, 0.000000, -0.000000, 0.000000, 0.000000, 0.000000, -0.000000, -0.000000, -0.000000, -0.000000, -0.000000, 0.000000}, {-0.000000, -0.000000, 0.000000, 0.000000, -0.000000, -0.000000, 0.000000, -0.000000, -0.000000, 0.000000, -0.000000, 0.000000, -0.000000, 0.000000, -0.000000, 0.000000, 0.000000, -0.000000, -0.000000, -0.000000, -0.000000, -0.000000, 0.000000, -0.000000, 0.000000, -0.000000, 0.000000, 0.000000, -0.000000, 0.000000, -0.000000, 0.000000, 0.000000, -0.000000, 0.000000, -0.000000, -0.000000, 0.000000, 0.000000, 0.000000}, {0.000000, -0.000000, -0.000000, 0.000000, 0.000000, 0.000000, 0.000000, 0.000000, -0.000000, -0.000000, 0.000000, 0.000000, 0.000000, 0.000000, 0.000000, -0.000000, -0.000000, 0.000000, 0.000000, 0.000000, -0.000000, 0.000000, -0.000000, -0.000000, -0.000000, -0.000000, -0.000000, 0.000000, -0.000000, 0.000000, -0.000000, -0.000000, -0.000000, 0.000000, -0.000000, -0.000000, 0.000000, -0.000000, -0.000000, 0.000000}, {0.061827, 0.053423, -0.049154, -0.050172, 0.015783, 0.018461, 0.044866, 0.627159, -0.065084, -0.074411, 0.056028, -0.053250, -0.007499, 0.040293, 0.056716, -0.396138, -0.079678, 0.071111, 0.042767, 0.035441, 0.080148, -0.002627, -0.014299, 0.011376, 0.005156, 0.018407, -0.074051, -0.052283, -0.026122, -0.591043, -0.064721, -0.039918, 0.349657, 0.024742, -0.060317, 0.595141, 0.037312, -0.068473, -0.069278, -0.058231}, {0.000000, 0.000000, -0.000000, 0.000000, 0.000000, -0.000000, -0.000000, 0.000000, -0.000000, -0.000000, 0.000000, 0.000000, -0.000000, -0.000000, -0.000000, -0.000000, -0.000000, 0.000000, -0.000000, 0.000000, 0.000000, -0.000000, 0.000000, 0.000000, 0.000000, -0.000000, -0.000000, 0.000000, 0.000000, -0.000000, -0.000000, -0.000000, 0.000000, 0.000000, -0.000000, -0.000000, 0.000000, -0.000000, -0.000000, 0.000000}, {-0.000001, 0.000000, 0.000001, -0.000000, -0.000000, 0.000000, 0.000000, 0.000001, 0.000000, -0.000000, 0.000001, 0.000000, -0.000001, -0.000000, -0.000001, 0.000001, -0.000001, 0.000000, 0.000001, 0.000000, -0.000000, 0.000000, 0.000001, -0.000000, 0.000001, -0.000000, -0.000000, -0.000000, 0.000000, -0.000000, 0.000000, -0.000000, 0.000000, -0.000000, 0.000000, 0.000002, -0.000001, 0.000000, 0.000001, -0.000000}, {0.073362, 0.437121, -0.125136, 0.027127, -0.007861, -0.039798, 0.077775, 0.543689, -0.413179, -0.427534, 0.006668, -0.429575, -0.038772, 0.086913, 0.083343, 0.649429, -0.025993, 0.433516, 0.071348, 0.086289, 0.066112, 0.076339, 0.008608, 0.010421, -0.030819, -0.440736, -0.072881, -0.070702, 0.023261, 0.544909, -0.078912, -0.084574, 0.622765, 0.087940, -0.074065, 0.533686, 0.066113, -0.415833, -0.070134, 0.424334}, {-0.000000, 0.000000, 0.000000, 0.000001, -0.000001, 0.000000, -0.000000, -0.000001, -0.000001, -0.000001, -0.000001, -0.000001, 0.000000, 0.000001, -0.000001, -0.000000, 0.000000, 0.000001, -0.000001, 0.000001, 0.000001, 0.000000, -0.000000, 0.000000, 0.000000, -0.000000, -0.000000, 0.000001, -0.000001, -0.000000, -0.000000, 0.000000, -0.000000, 0.000001, -0.000000, -0.000001, 0.000001, -0.000001, -0.000000, 0.000000}, {0.021195, 0.100399, 0.002650, 0.017227, -0.018932, -0.029795, 0.024765, -0.582920, -0.211456, -0.152312, 0.019820, -0.119175, -0.008361, 0.023896, 0.029440, -0.360332, -0.019570, 0.127017, 0.008021, 0.020083, 0.003819, 0.021430, -0.022594, 0.051841, 0.035043, -0.045937, -0.004715, -0.018595, -0.031884, -0.265268, -0.018159, -0.017723, -0.556646, 0.026012, -0.017639, -0.596066, 0.010843, -0.183906, -0.022601, 0.058670}, {0.000000, 0.000000, 0.000000, 0.000000, -0.000000, 0.000000, 0.000000, -0.000000, -0.000000, 0.000000, 0.000000, 0.000000, -0.000000, 0.000000, -0.000000, -0.000000, 0.000000, 0.000000, 0.000000, 0.000000, -0.000000, 0.000000, -0.000000, -0.000000, -0.000000, 0.000000, 0.000000, -0.000000, -0.000000, 0.000000, 0.000000, 0.000000, -0.000000, -0.000000, -0.000000, -0.000000, -0.000000, 0.000000, -0.000000, -0.000000}, {0.000000, 0.000000, -0.000000, 0.000000, 0.000000, -0.000000, 0.000000, 0.000000, 0.000000, -0.000000, -0.000000, 0.000000, 0.000000, -0.000000, 0.000000, 0.000000, -0.000000, 0.000000, -0.000000, -0.000000, -0.000000, 0.000000, 0.000000, 0.000000, -0.000000, -0.000000, -0.000000, 0.000000, 0.000000, 0.000000, 0.000000, 0.000000, 0.000000, -0.000000, -0.000000, 0.000000, -0.000000, 0.000000, 0.000000, 0.000000}, {0.018769, 0.290088, -0.023849, 0.003750, 0.005790, 0.013197, 0.004501, 0.165207, -0.304866, -0.300392, 0.025580, -0.288632, -0.024405, 0.018083, 0.002733, 0.385627, 0.002604, 0.297479, -0.019966, -0.006549, -0.007464, -0.010842, -0.056046, -0.004507, 0.013325, -0.268410, -0.015663, -0.011558, -0.020030, 0.333287, -0.041279, -0.004765, 0.238830, -0.003101, -0.020278, 0.163622, 0.008381, -0.297222, -0.025887, 0.253144}, {-0.128545, -0.746137, -0.120710, -0.067081, 0.053094, 0.079059, -0.102744, -0.575400, 0.803378, 0.782035, -0.005105, 0.762051, -0.037760, -0.104177, -0.139072, -0.244370, -0.012272, -0.767243, -0.059153, -0.119083, -0.027909, -0.074236, -0.000666, -0.042501, -0.086609, 0.686073, 0.108464, 0.098568, 0.013186, -0.203843, 0.124257, 0.077687, -0.503946, -0.111182, 0.071557, -0.569211, -0.100096, 0.801853, 0.143174, -0.684079}, {-0.000000, 0.000000, -0.000000, 0.000000, -0.000000, -0.000000, 0.000000, 0.000000, -0.000000, -0.000000, -0.000000, -0.000000, 0.000000, 0.000000, 0.000000, -0.000000, -0.000000, 0.000000, 0.000000, -0.000000, 0.000000, 0.000000, 0.000000, -0.000000, 0.000000, -0.000000, 0.000000, -0.000000, 0.000000, 0.000000, -0.000000, -0.000000, -0.000000, -0.000000, -0.000000, 0.000000, 0.000000, -0.000000, 0.000000, 0.000000}, {-0.000000, 0.000000, 0.000000, 0.000000, 0.000000, -0.000000, 0.000000, 0.000000, 0.000000, -0.000000, 0.000000, 0.000000, -0.000000, -0.000000, -0.000000, 0.000000, 0.000000, 0.000000, 0.000000, 0.000000, 0.000000, 0.000000, 0.000000, 0.000000, 0.000000, -0.000000, 0.000000, 0.000000, 0.000000, 0.000000, 0.000000, 0.000000, -0.000000, -0.000000, -0.000000, 0.000000, -0.000000, 0.000000, 0.000000, 0.000000}, {0.000000, -0.000000, -0.000000, 0.000000, 0.000000, 0.000000, 0.000000, -0.000000, 0.000000, 0.000000, -0.000000, -0.000000, -0.000000, -0.000000, -0.000000, -0.000000, -0.000000, -0.000000, 0.000000, 0.000000, -0.000000, 0.000000, 0.000000, -0.000000, 0.000000, 0.000000, 0.000000, 0.000000, -0.000000, 0.000000, 0.000000, -0.000000, 0.000000, -0.000000, 0.000000, 0.000000, 0.000000, -0.000000, -0.000000, -0.000000}, {-0.000000, -0.000000, -0.000000, -0.000000, 0.000000, 0.000000, 0.000000, -0.000000, -0.000000, 0.000000, -0.000000, 0.000000, 0.000000, -0.000000, -0.000000, -0.000000, 0.000000, 0.000000, -0.000000, 0.000000, 0.000000, 0.000000, 0.000000, 0.000000, -0.000000, -0.000000, 0.000000, -0.000000, 0.000000, -0.000000, -0.000000, -0.000000, 0.000000, 0.000000, -0.000000, -0.000000, 0.000000, -0.000000, -0.000000, -0.000000}, {-0.000000, -0.000000, 0.000000, 0.000000, -0.000000, -0.000000, -0.000000, -0.000000, 0.000000, 0.000000, 0.000000, 0.000000, -0.000000, -0.000000, -0.000000, -0.000000, 0.000000, 0.000000, -0.000000, 0.000000, -0.000000, -0.000000, 0.000000, -0.000000, -0.000000, 0.000000, -0.000000, 0.000000, -0.000000, -0.000000, 0.000000, 0.000000, -0.000000, 0.000000, 0.000000, -0.000000, 0.000000, 0.000000, -0.000000, -0.000000}, {0.091773, 0.146752, 0.267700, 0.013611, 0.028295, -0.034631, 0.085190, -0.600539, -0.364620, -0.253467, 0.055941, -0.190815, -0.025057, 0.076048, 0.087280, -0.636602, -0.059383, 0.203514, 0.100670, 0.091321, 0.102090, 0.051059, 0.025085, 0.013448, 0.007869, -0.014375, -0.108160, -0.087077, 0.026037, -0.650311, -0.080965, -0.087270, -0.609908, 0.088609, -0.072050, -0.628228, 0.119426, -0.327808, -0.095874, 0.032695}, {0.016633, -0.296450, -0.115912, 0.017949, -0.021759, -0.009511, 0.016488, -0.232961, 0.404719, 0.346443, 0.008900, 0.312676, 0.009471, 0.010350, 0.011794, -0.048903, -0.019511, -0.323773, 0.033282, 0.029829, 0.012565, 0.045630, -0.007353, 0.013876, 0.044103, 0.233161, -0.018117, -0.018300, -0.014123, 0.021389, -0.005569, -0.016991, -0.192673, 0.020246, -0.011292, -0.236088, 0.031977, 0.380726, -0.015667, -0.222405}, {0.000000, -0.000000, 0.000000, -0.000000, 0.000000, -0.000000, -0.000000, -0.000000, -0.000000, -0.000000, -0.000000, 0.000000, -0.000000, 0.000000, -0.000000, 0.000000, -0.000000, -0.000000, -0.000000, -0.000000, -0.000000, 0.000000, -0.000000, 0.000000, 0.000000, 0.000000, -0.000000, -0.000000, 0.000000, -0.000000, 0.000000, -0.000000, -0.000000, 0.000000, 0.000000, 0.000000, 0.000000, 0.000000, -0.000000, -0.000000}, {-0.000000, -0.000000, 0.000000, 0.000000, -0.000000, -0.000000, -0.000000, -0.000000, -0.000000, 0.000000, 0.000000, -0.000000, -0.000000, 0.000000, 0.000000, -0.000000, -0.000000, 0.000000, -0.000000, 0.000000, -0.000000, 0.000000, -0.000000, -0.000000, 0.000000, 0.000000, -0.000000, 0.000000, 0.000000, 0.000000, 0.000000, 0.000000, 0.000000, -0.000000, 0.000000, 0.000000, -0.000000, 0.000000, 0.000000, -0.000000}, {-0.000000, -0.000000, 0.000000, 0.000000, -0.000000, 0.000000, -0.000000, 0.000000, -0.000000, 0.000000, 0.000000, 0.000000, -0.000000, 0.000000, 0.000000, -0.000000, -0.000000, 0.000000, -0.000000, 0.000000, 0.000000, -0.000000, 0.000000, 0.000000, 0.000000, -0.000000, -0.000000, -0.000000, 0.000000, -0.000000, -0.000000, -0.000000, -0.000000, -0.000000, -0.000000, -0.000000, -0.000000, -0.000000, 0.000000, -0.000000}, {-0.000000, 0.000000, 0.000000, -0.000000, 0.000000, 0.000000, -0.000000, 0.000000, -0.000000, 0.000000, -0.000000, -0.000000, -0.000000, 0.000000, -0.000000, 0.000000, -0.000000, 0.000000, -0.000000, 0.000000, -0.000000, -0.000000, 0.000000, -0.000000, 0.000000, -0.000000, 0.000000, -0.000000, 0.000000, -0.000000, 0.000000, -0.000000, 0.000000, 0.000000, -0.000000, -0.000000, -0.000000, 0.000000, 0.000000, 0.000000}, {0.001302, 0.000129, 0.000288, -0.000891, 0.000488, 0.000132, 0.001071, 0.002485, 0.000657, 0.000200, -0.000658, 0.000018, 0.001110, -0.000986, -0.000506, 0.001672, -0.001009, -0.000033, -0.000388, 0.000756, 0.000810, 0.000832, -0.000795, -0.000779, 0.000612, -0.000383, -0.001357, 0.000525, 0.001323, 0.001507, -0.000660, -0.000146, 0.002059, -0.000825, -0.000233, 0.002649, -0.000415, 0.000461, -0.000329, 0.000266}, {-0.003340, 0.568107, -0.140366, 0.026062, -0.050313, -0.024341, 0.012750, 0.015697, -0.582139, -0.576963, -0.023668, -0.566531, 0.026411, 0.028546, -0.017999, 0.373563, 0.001458, 0.574210, 0.018459, 0.029761, -0.018771, 0.050748, -0.075284, 0.036369, 0.016283, -0.551257, 0.017454, -0.019779, -0.052327, 0.339721, -0.003312, -0.031936, 0.201280, 0.017698, -0.047711, -0.014646, -0.013327, -0.573576, 0.018064, 0.538512}, {0.072278, -0.481134, -0.040078, 0.042701, 0.039488, -0.043491, 0.066033, -0.329329, 0.604297, 0.546803, -0.010774, 0.502201, 0.030191, 0.075537, 0.072598, 0.080385, -0.016907, -0.519057, 0.060460, 0.060488, 0.056883, 0.036896, 0.001382, 0.002939, -0.032757, 0.383432, -0.079287, -0.068911, 0.012217, 0.183602, -0.082122, -0.070831, -0.245579, 0.064613, -0.071302, -0.315858, 0.056530, 0.582864, -0.072315, -0.367782}};
static const float * p_layer_3_weight = layer_3_weight;
static const float layer_3_bias[40] = {-0.016850, -0.024957, 0.015539, -0.008312, 0.015274, 0.000829, -0.014314, 0.100900, 0.074652, 0.041366, -0.005454, 0.030431, -0.005415, -0.014621, -0.017732, 0.041669, 0.018325, -0.032170, -0.009488, -0.012302, -0.017364, -0.021276, 0.000481, -0.003650, 0.003639, 0.015992, 0.016578, 0.014074, 0.001985, 0.041212, 0.017529, 0.013050, 0.062707, -0.012266, 0.015972, 0.113857, -0.010657, 0.059382, 0.018380, -0.019623};
static const float * p_layer_3_bias = layer_3_bias;
    
static float sigmoid(float num) {
    return 1.0f / (1.0f + expf(-num));
}

static float step(float num) {
    if (num < 0) {
        return 0;
    }
    return 1;
}

static float relu(float num) {
    if (num > 0) {
        return num;
    } else {
        return 0;
    }
}

static float linear(float num) {
    return num;
}

static void layer(const float * in, const float * layer_weight, const float * layer_bias,   
            int row, int col, float * output, int use_activation) {
    int ii;
    int jj;
    const float * p;

    for(ii = 0; ii < col; ii++) {
        p = layer_weight + ii;
        output[ii] = 0;
        for (jj = 0; jj < row; jj++) {
            output[ii] += in[jj] * (*p); 
            p += col;
        }
        output[ii] += layer_bias[ii];
        
        if (use_activation == 1) {
			output[ii] = relu(output[ii]);
        }
    }
}

const float* nn_phi_2(const float* input) {
	layer(input, p_layer_0_weight, p_layer_0_bias, STRUCTURE[0][0], STRUCTURE[0][1], output_0, 1);
	layer(output_0, p_layer_1_weight, p_layer_1_bias, STRUCTURE[1][0], STRUCTURE[1][1], output_1, 1);
	layer(output_1, p_layer_2_weight, p_layer_2_bias, STRUCTURE[2][0], STRUCTURE[2][1], output_2, 1);
	layer(output_2, p_layer_3_weight, p_layer_3_bias, STRUCTURE[3][0], STRUCTURE[3][1], output_3, 0);

	return output_3;
}
