/*
 * FILE: generated.c
 */

#include <stdio.h>
#include <stdlib.h>
#include <string.h>
#include <math.h>
#include "phi_2.h"

static const int STRUCTURE[4][2] = {{6, 25}, {25, 40}, {40, 40}, {40, 40}};
static float output_0[25];
static float output_1[40];
static float output_2[40];
static float output_3[40];
static const float layer_0_weight[6][25] = {{-0.691891, -0.848939, -0.357984, 0.640550, -0.511325, 0.486641, -0.621852, -0.610787, 0.754273, 0.858244, 0.657082, 0.810790, 0.055085, -0.025162, 1.282572, 1.007341, 0.661619, -0.577563, -0.836881, 0.800562, -0.160409, 0.052033, -0.143647, 0.248629, -1.290533}, {0.344048, 1.405850, 0.082004, -0.108053, 0.053502, -1.431303, -0.005822, -0.546460, -0.971896, 1.119722, -0.541841, -0.778391, 0.359546, -0.099745, 0.161479, 0.425586, -0.672711, -0.922912, -0.475333, 0.874685, -0.099044, 0.695858, 0.376013, -0.662807, -0.839668}, {0.242162, 0.084511, -0.213665, 0.768382, -1.722897, 0.098105, 0.065565, -0.980313, 0.108379, -0.249289, -0.419071, -0.188067, -0.458531, -0.126840, 0.177210, 0.041272, -0.324561, -0.210226, 0.248606, 0.005877, 0.216231, -0.903801, 0.145373, -0.013367, 0.033061}, {0.389136, 0.004573, -0.190349, 0.063236, -0.069243, -0.050217, -0.015833, 0.265490, -0.089927, -0.026985, -0.341193, 0.019146, -0.196123, -0.210626, 0.008606, 0.364022, 0.206648, -0.075090, 0.364311, -0.229646, 0.362895, 0.062505, -0.492170, -0.159113, -0.014922}, {-0.416429, 0.000265, 0.130875, 0.001991, -0.094394, 0.032466, 0.519322, 0.224993, 0.309495, -0.013094, -0.165099, 0.121534, -0.219928, -0.138343, -0.022633, 0.009266, -0.155311, 0.017912, 0.156852, -0.207989, 0.180650, -0.202024, -0.347022, -0.402694, -0.007910}, {0.028359, -0.049856, -0.813351, -0.169278, -0.084733, -0.025269, 0.058604, 0.169547, 0.048537, -0.026831, 0.132787, 0.037553, -0.109665, 0.575370, 0.064940, -0.246609, -0.144017, 0.057396, -0.080468, -0.020231, 0.516492, 0.081372, 0.058581, -0.311721, -0.043593}};
static const float * p_layer_0_weight = layer_0_weight;
static const float layer_0_bias[25] = {-0.185637, -0.026027, 0.060483, -0.166936, 0.047909, -0.046359, -0.198149, 0.061440, -0.069576, 0.051225, -0.115656, -0.008806, 0.047249, 0.017228, -0.079079, -0.066810, 0.000735, 0.003011, -0.080266, -0.010125, -0.163689, 0.174596, -0.126939, -0.134692, -0.040124};
static const float * p_layer_0_bias = layer_0_bias;
static const float layer_1_weight[25][40] = {{0.055457, -0.000000, -0.365613, -0.000000, -0.317266, -0.000000, 0.079274, -0.275643, -0.455179, 0.195018, -0.000000, 0.007241, -0.199139, -0.000000, -0.114535, -0.000000, -0.235560, -0.000000, -0.412021, 0.081362, -0.000000, 0.134642, -0.356014, 0.345023, -0.000000, 0.188021, 0.000000, 0.473066, -0.296058, -0.202542, 0.000000, -0.000000, 0.039129, 0.186711, -0.200288, -0.015767, -0.038873, 0.307596, 0.072764, 0.248208}, {-0.520074, -0.000000, -0.234205, -0.000000, 0.121397, -0.000000, 0.232442, -0.500861, 0.200272, -0.375026, -0.000000, -0.015682, -0.005370, 0.000000, -0.034629, 0.000000, -0.333757, -0.000000, 0.185166, 0.163099, -0.000000, 0.296015, 0.179887, 0.096586, -0.000000, 0.224324, -0.000000, -0.103173, 0.111742, 0.055424, 0.000000, -0.000000, -0.350201, 0.410420, -0.417001, -0.245979, -0.819478, 0.265698, -0.661026, -0.252122}, {0.049703, -0.000000, 0.191069, 0.000000, 0.172174, -0.000000, 0.068659, -0.190582, -0.444960, -0.067762, -0.000000, -0.531930, -0.018598, 0.000000, 0.123502, -0.000000, -0.366451, 0.000000, 0.162592, -0.810516, -0.000000, 0.151799, -0.120499, -0.055963, 0.000000, 0.223762, -0.000000, 0.082788, 0.155799, -0.200672, -0.000000, -0.000000, -0.173139, -0.110310, -0.064025, -0.053216, 0.215899, 0.078565, 0.029220, -0.098418}, {-0.234726, -0.000000, 0.152058, -0.000000, 0.317406, 0.000000, 0.240946, 0.313676, -0.197359, 0.091865, 0.000000, -0.033299, -0.375763, 0.000000, -0.465833, -0.000000, 0.512181, 0.000000, -0.054862, 0.122165, 0.000000, 0.202375, 0.210841, 0.218980, -0.000000, -0.568985, -0.000000, -0.049927, -0.315552, 0.182084, -0.000000, -0.000000, -0.621123, -0.347294, -0.109625, 0.027669, -0.345871, 0.017789, -0.234022, 0.082289}, {-0.542931, -0.000000, 0.230238, 0.000000, -0.864378, -0.000000, -0.309628, -0.005836, 0.216103, -0.222932, 0.000000, -0.016694, 0.018545, -0.000000, -0.219171, 0.000000, 0.302518, 0.000000, 0.308160, 0.181289, 0.000000, 0.294674, -0.279733, -0.028216, -0.000000, 0.017967, -0.000000, 0.098016, 0.212066, 0.102511, -0.000000, -0.000000, -1.371144, -0.253654, -0.714963, -1.264262, 0.151237, 0.219196, -0.206497, -0.057700}, {-0.505294, -0.000000, -0.129381, 0.000000, -0.111492, 0.000000, 0.207900, 0.007502, 0.201366, -0.113375, 0.000000, -0.088884, 0.020156, -0.000000, -0.121198, -0.000000, -0.324097, -0.000000, 0.081052, 0.081599, -0.000000, -0.156208, 0.204400, -0.120969, -0.000000, 0.111973, -0.000000, -0.054822, -0.223991, 0.054558, -0.000000, 0.000000, -0.593647, 0.409429, -0.371955, -0.407571, -0.759745, -0.108514, -0.565247, -0.279236}, {0.021046, 0.000000, -0.128885, 0.000000, -0.077385, -0.000000, -0.190207, -0.144545, -0.200968, 0.041067, -0.000000, -0.018957, 0.335540, 0.000000, 0.190668, 0.000000, -0.028646, -0.000000, -0.300353, 0.483181, -0.000000, 0.450753, 0.151336, 0.252106, 0.000000, 0.039358, 0.000000, 0.227634, -0.322134, 0.130270, -0.000000, 0.000000, -0.234079, 0.063595, 0.209903, -0.028384, 0.020976, -0.092731, -0.102167, 0.048188}, {-0.332264, 0.000000, -0.050963, -0.000000, -0.610841, -0.000000, -0.881559, -0.330284, -0.000564, -0.251475, -0.000000, -0.596807, -0.396134, 0.000000, -0.487759, -0.000000, 0.332008, -0.000000, 0.281330, 0.061814, 0.000000, -0.336952, -0.193906, 0.063156, -0.000000, -0.133570, 0.000000, 0.373571, 0.192184, -0.391100, -0.000000, -0.000000, 0.316091, -0.044134, -0.098611, 0.141456, -0.037797, -0.257601, -0.058016, -0.125794}, {-0.154091, -0.000000, -0.730307, -0.000000, -0.095567, -0.000000, 0.177781, 0.387411, -0.025550, -0.046766, 0.000000, -0.130510, -0.649326, -0.000000, -0.378137, -0.000000, -0.211147, -0.000000, -0.034635, 0.175321, 0.000000, -0.110373, 0.208432, -0.028500, 0.000000, 0.238626, -0.000000, 0.364775, -0.346406, 0.113458, -0.000000, -0.000000, 0.272113, 0.209175, 0.368306, -0.179480, 0.034244, -0.391804, -0.114633, -0.016804}, {-0.481506, -0.000000, 0.142199, 0.000000, -0.011189, 0.000000, -0.166906, 0.072054, 0.162325, -0.682727, -0.000000, 0.073724, 0.446504, 0.000000, -0.159218, -0.000000, -0.039619, 0.000000, 0.272366, 0.062086, -0.000000, -0.112054, 0.208517, -0.360315, -0.000000, 0.248003, -0.000000, 0.004335, -0.469307, -0.473816, -0.000000, -0.000000, -0.188209, 0.201872, -0.424234, -0.370250, -0.357473, -0.390736, -0.528308, -0.657833}, {-0.297606, -0.000000, -0.269570, -0.000000, 0.174754, 0.000000, 0.245219, 0.027263, -0.218438, -0.410622, -0.000000, -0.340870, 0.253211, 0.000000, -0.056634, 0.000000, 0.285960, -0.000000, 0.240537, -0.383226, -0.000000, 0.440402, 0.177453, 0.386305, -0.000000, 0.022064, -0.000000, 0.314375, -0.259341, -0.309928, 0.000000, 0.000000, 0.048052, -0.070529, -0.391802, -0.217920, -0.075571, 0.075989, -0.268027, -0.378364}, {-0.418624, -0.000000, -0.539053, 0.000000, -0.185624, -0.000000, -0.090441, -0.017910, 0.187340, -0.060742, 0.000000, -0.134188, -0.087997, 0.000000, 0.087643, -0.000000, -0.212225, -0.000000, 0.136748, 0.206294, 0.000000, 0.002610, 0.155919, -0.378577, 0.000000, 0.187368, -0.000000, 0.263654, -0.563921, -0.156555, -0.000000, 0.000000, 0.019595, 0.273536, 0.053090, -0.253098, 0.043782, -0.607187, -0.046996, -0.323219}, {0.038881, 0.000000, -0.075621, -0.000000, 0.043961, 0.000000, -0.429148, 0.268481, -0.008886, -0.253580, -0.000000, -0.313868, -0.024838, -0.000000, 0.071339, 0.000000, -0.022666, 0.000000, 0.129509, -0.103139, -0.000000, 0.002060, 0.191346, -0.220931, 0.000000, 0.255174, -0.000000, 0.146319, -0.185008, -0.194917, 0.000000, -0.000000, 0.132299, -0.084715, 0.283982, 0.350505, 0.178797, -0.085991, 0.046542, -0.032798}, {-0.008401, -0.000000, -0.068528, -0.000000, -0.477874, -0.000000, -0.391631, -0.034934, -0.054682, 0.189072, -0.000000, -0.021344, 0.049252, 0.000000, -0.043155, -0.000000, -0.006559, 0.000000, -0.670194, 0.305037, 0.000000, -0.331344, 0.214760, 0.257057, -0.000000, 0.050694, -0.000000, 0.113469, 0.228326, 0.237804, -0.000000, -0.000000, 0.176777, -0.019316, 0.026156, -0.122089, 0.113057, 0.021866, 0.117747, 0.093325}, {-0.394982, 0.000000, -0.130799, 0.000000, 0.026052, -0.000000, -0.029896, 0.216873, 0.114680, 0.124857, -0.000000, -0.321828, -0.057254, -0.000000, 0.042411, -0.000000, 0.236460, -0.000000, 0.194001, 0.348981, -0.000000, 0.217452, 0.396268, -0.153296, -0.000000, -0.164279, -0.000000, -0.117819, -0.353784, -0.315674, 0.000000, -0.000000, -0.216404, -0.063492, -0.097540, -0.365300, -0.367822, -0.399308, -0.137155, -0.271290}, {0.025730, 0.000000, 0.212047, 0.000000, 0.145241, -0.000000, -0.212014, 0.150093, -0.422862, -0.223550, -0.000000, -0.646241, 0.175044, 0.000000, 0.081003, 0.000000, 0.097763, -0.000000, 0.274403, 0.000569, -0.000000, 0.304891, 0.193511, 0.133281, 0.000000, -0.349290, -0.000000, -0.159015, -0.089881, -0.009750, -0.000000, 0.000000, -0.100335, -0.197760, -0.433302, -0.023970, -0.076151, -0.692007, 0.048535, -0.085617}, {-0.084118, 0.000000, -0.061186, 0.000000, -0.137094, 0.000000, -0.219859, 0.100960, 0.113746, -0.074011, 0.000000, -0.188250, 0.304086, -0.000000, 0.237753, -0.000000, -0.164416, -0.000000, 0.387879, -0.114463, 0.000000, 0.267428, 0.142614, -0.023342, 0.000000, -0.188250, -0.000000, -0.250479, -0.178473, -0.385302, 0.000000, -0.000000, -0.082193, 0.176067, -0.543585, 0.000039, 0.045564, -0.499185, -0.185603, -0.092082}, {-0.049600, -0.000000, -0.011422, -0.000000, -0.131632, 0.000000, 0.077177, -0.316570, -0.017700, -0.270541, -0.000000, 0.089244, 0.193545, -0.000000, -0.049068, -0.000000, 0.166369, 0.000000, 0.153140, 0.051269, -0.000000, -0.249614, -0.457921, -0.216705, 0.000000, 0.124042, 0.000000, 0.018572, 0.202274, 0.162201, 0.000000, -0.000000, -0.057943, 0.223502, -0.484240, -0.215007, -0.133023, 0.301985, -0.329710, -0.559244}, {-0.023298, -0.000000, -0.129399, -0.000000, -0.299820, -0.000000, 0.135656, -0.328029, -0.259165, 0.073744, 0.000000, 0.107451, -0.656855, 0.000000, -0.432671, -0.000000, -0.206417, -0.000000, -0.771786, 0.014332, 0.000000, 0.039980, -0.279973, 0.344394, -0.000000, 0.083202, 0.000000, 0.306276, 0.052176, 0.126604, -0.000000, -0.000000, -0.090306, 0.176845, 0.139225, 0.102160, 0.074240, 0.133587, 0.040254, 0.344923}, {-0.184818, 0.000000, -0.596862, -0.000000, -0.076612, -0.000000, 0.031698, 0.133997, 0.281438, -0.108426, 0.000000, 0.174838, -0.448859, -0.000000, -0.288998, -0.000000, 0.152568, -0.000000, 0.062406, 0.070162, -0.000000, -0.581485, 0.372513, -0.038848, -0.000000, 0.181604, -0.000000, 0.232374, -0.684515, -1.047576, 0.000000, -0.000000, -0.048309, 0.135100, 0.087396, -0.140816, 0.055427, -0.012924, -0.208620, 0.027819}, {-0.154616, -0.000000, -0.162376, -0.000000, 0.367256, 0.000000, -0.611860, 0.069625, -0.224449, 0.135082, -0.000000, 0.052811, -0.021271, 0.000000, 0.284454, -0.000000, -0.106715, -0.000000, -0.293296, 0.294305, 0.000000, 0.065974, -0.384761, 0.258527, 0.000000, -0.142337, -0.000000, 0.041188, -0.655948, 0.117221, 0.000000, 0.000000, -0.091669, -0.081646, 0.135854, -0.103055, -0.039508, -0.583890, 0.008807, 0.206767}, {-0.323665, -0.000000, -0.064666, -0.000000, -0.651777, 0.000000, -0.743960, 0.339054, 0.005288, -0.088647, 0.000000, -0.566670, -0.645666, -0.000000, -0.385019, 0.000000, 0.095429, -0.000000, 0.111357, 0.089179, 0.000000, -0.777541, -0.042556, -0.428731, -0.000000, -0.001236, -0.000000, 0.231581, -0.232276, -0.069989, -0.000000, 0.000000, 0.393134, 0.064267, -0.006345, -0.054495, 0.172280, -0.308779, 0.069144, -0.193692}, {0.081072, -0.000000, 0.100704, -0.000000, -0.123477, 0.000000, -0.239685, -0.116617, 0.094772, -0.054946, -0.000000, -0.166633, -0.062132, 0.000000, 0.064502, 0.000000, -0.958338, 0.000000, 0.045973, 0.132040, 0.000000, -0.724928, 0.328966, 0.314316, -0.000000, 0.111182, -0.000000, 0.410010, 0.027057, -0.458815, 0.000000, 0.000000, 0.000080, 0.111782, 0.144058, 0.306684, 0.112305, 0.172911, 0.003177, 0.170394}, {0.091454, -0.000000, 0.063567, -0.000000, 0.138036, -0.000000, 0.192179, -0.115677, -0.242699, -0.245357, -0.000000, -0.218063, 0.166500, -0.000000, -0.031070, 0.000000, -0.052181, -0.000000, 0.260923, -0.282584, -0.000000, 0.052906, 0.276972, 0.223628, 0.000000, -0.472057, 0.000000, -0.385783, -0.305934, -0.490455, 0.000000, 0.000000, -0.016609, -0.254267, -0.025772, -0.028984, 0.005286, -0.394545, -0.358919, -0.004346}, {-0.146688, 0.000000, 0.171939, 0.000000, -0.186882, -0.000000, 0.387087, -1.118307, -0.165829, -0.420992, -0.000000, 0.114679, 0.143844, 0.000000, -0.015479, -0.000000, 0.127515, -0.000000, -0.079291, 0.007777, -0.000000, -0.479889, -0.575741, -0.219883, -0.000000, 0.375536, -0.000000, -0.061262, 0.468730, 0.285967, -0.000000, -0.000000, -0.039126, 0.361072, -0.331683, -0.240959, -0.344308, 0.381638, -0.298499, -0.423056}};
static const float * p_layer_1_weight = layer_1_weight;
static const float layer_1_bias[40] = {0.258324, -0.014590, 0.064233, -0.114153, 0.083014, -0.157305, 0.028189, -0.017431, 0.085023, 0.151647, -0.060513, 0.154576, 0.089831, -0.185155, 0.179320, -0.087957, -0.001270, -0.172304, -0.187209, -0.096837, -0.157353, -0.112308, -0.255124, -0.069105, -0.093332, -0.027573, -0.052124, -0.241210, 0.035193, 0.104196, -0.201477, -0.160884, 0.144746, -0.033848, 0.182709, 0.196250, 0.107383, -0.004514, 0.189268, 0.137046};
static const float * p_layer_1_bias = layer_1_bias;
static const float layer_2_weight[40][40] = {{0.204135, 0.000000, 0.000000, -0.000000, 0.175656, 0.144133, 0.000000, 0.087261, -0.472910, 0.000000, -0.000000, -0.367738, 0.000000, 0.128795, -0.064787, 0.000000, 0.094373, 0.005142, 0.135275, -0.009710, 0.001371, 0.000107, 0.000000, -0.000000, 0.092993, -0.000000, -0.000000, 0.000000, 0.192212, -0.000000, 0.000000, 0.123456, 0.072422, -0.000000, -0.088026, 0.000000, 0.101943, 0.132270, -0.000000, -0.000000}, {-0.000000, -0.000000, 0.000000, 0.000000, 0.000000, -0.000000, -0.000000, -0.000000, -0.000000, 0.000000, 0.000000, -0.000000, -0.000000, 0.000000, -0.000000, 0.000000, 0.000000, 0.000000, 0.000000, 0.000000, 0.000000, -0.000000, -0.000000, 0.000000, -0.000000, 0.000000, -0.000000, -0.000000, 0.000000, 0.000000, 0.000000, -0.000000, -0.000000, -0.000000, 0.000000, 0.000000, -0.000000, -0.000000, -0.000000, 0.000000}, {0.171624, -0.000000, 0.000000, 0.000000, 0.249791, -0.039945, -0.000000, -0.009021, 0.171057, -0.000000, -0.000000, -0.230645, -0.000000, -0.084736, -0.122235, -0.000000, -0.074141, -0.550325, 0.032750, 0.047915, -0.043547, 0.000138, -0.000000, -0.000000, -0.090361, -0.000000, -0.000000, -0.000000, 0.125810, -0.000000, -0.000000, -0.269833, -0.037968, 0.000000, 0.036584, -0.000000, -0.048624, -0.097874, 0.000000, -0.000000}, {-0.000000, 0.000000, 0.000000, 0.000000, -0.000000, 0.000000, -0.000000, 0.000000, -0.000000, -0.000000, 0.000000, 0.000000, 0.000000, -0.000000, 0.000000, 0.000000, 0.000000, 0.000000, -0.000000, -0.000000, -0.000000, -0.000000, 0.000000, 0.000000, 0.000000, -0.000000, 0.000000, -0.000000, 0.000000, -0.000000, -0.000000, 0.000000, 0.000000, 0.000000, 0.000000, -0.000000, 0.000000, -0.000000, 0.000000, 0.000000}, {0.013118, 0.000000, -0.000000, -0.000000, -0.006204, -0.103293, -0.000000, 0.013083, -0.077103, -0.000000, 0.000000, -0.399906, -0.000000, -0.017971, -0.493902, -0.000000, 0.010338, -0.458264, -0.135684, 0.154058, 0.017161, -0.000103, -0.000000, -0.000000, -0.012336, 0.000000, -0.000000, -0.000000, 0.047279, 0.000000, -0.000000, -0.285235, -0.052929, -0.000000, 0.040105, 0.000000, -0.097905, -0.027017, -0.000000, 0.000000}, {0.000000, -0.000000, 0.000000, 0.000000, 0.000000, -0.000000, -0.000000, -0.000000, 0.000000, 0.000000, 0.000000, -0.000000, -0.000000, -0.000000, -0.000000, -0.000000, -0.000000, -0.000000, -0.000000, -0.000000, 0.000000, -0.000000, -0.000000, -0.000000, -0.000000, 0.000000, -0.000000, -0.000000, -0.000000, 0.000000, -0.000000, 0.000000, -0.000000, 0.000000, 0.000000, -0.000000, -0.000000, -0.000000, 0.000000, 0.000000}, {-0.109931, -0.000000, -0.000000, 0.000000, -0.222918, -0.276626, -0.000000, -0.064517, 0.040679, -0.000000, -0.000000, -0.321361, -0.000000, -0.076798, -0.015466, -0.000000, -0.103824, 0.047094, -0.383367, 0.227810, -0.055141, -0.000135, 0.000000, -0.000000, -0.096862, -0.000000, 0.000000, -0.000000, -0.092474, -0.000000, -0.000000, -0.323808, -0.312237, -0.000000, 0.131892, 0.000000, -0.213464, -0.118949, -0.000000, 0.000000}, {-0.347419, 0.000000, -0.000000, -0.000000, -0.101634, 0.001243, -0.000000, -0.425084, -0.032964, -0.000000, 0.000000, 0.154730, -0.000000, -0.474817, 0.032469, 0.000000, -0.391593, 0.007138, -0.162772, -0.016555, 0.039163, -0.000389, -0.000000, -0.000000, -0.384009, -0.000000, -0.000000, -0.000000, 0.018194, 0.000000, -0.000000, 0.178937, 0.087527, -0.000000, -0.106436, -0.000000, -0.274558, -0.443539, -0.000000, -0.000000}, {0.009748, -0.000000, 0.000000, -0.000000, -0.276413, -0.479612, -0.000000, -0.208892, -0.054189, -0.000000, 0.000000, -0.059148, 0.000000, 0.031178, 0.077052, 0.000000, -0.091477, -0.093929, -0.082517, -0.303547, -0.344570, -0.000127, 0.000000, -0.000000, -0.080879, -0.000000, 0.000000, 0.000000, -0.091987, -0.000000, -0.000000, -0.037628, -0.073003, -0.000000, -0.179559, -0.000000, -0.029274, 0.087806, -0.000000, -0.000000}, {-0.027292, -0.000000, -0.000000, -0.000000, 0.025919, -0.212134, 0.000000, 0.053028, -0.185057, 0.000000, 0.000000, 0.101480, 0.000000, 0.111327, -0.008686, -0.000000, 0.101945, 0.173989, 0.052821, -0.100494, -0.356284, -0.000100, 0.000000, 0.000000, 0.110375, -0.000000, -0.000000, 0.000000, 0.116942, -0.000000, -0.000000, 0.035361, 0.065422, 0.000000, -0.406601, 0.000000, 0.009738, 0.130095, 0.000000, -0.000000}, {0.000000, -0.000000, -0.000000, -0.000000, 0.000000, 0.000000, 0.000000, 0.000000, 0.000000, 0.000000, -0.000000, -0.000000, -0.000000, 0.000000, 0.000000, 0.000000, 0.000000, 0.000000, 0.000000, -0.000000, 0.000000, 0.000000, -0.000000, -0.000000, 0.000000, -0.000000, 0.000000, 0.000000, 0.000000, 0.000000, 0.000000, 0.000000, 0.000000, -0.000000, -0.000000, -0.000000, -0.000000, 0.000000, -0.000000, 0.000000}, {0.019895, -0.000000, -0.000000, -0.000000, -0.012851, -0.041758, -0.000000, -0.089931, -0.290934, -0.000000, -0.000000, 0.160127, -0.000000, 0.043546, 0.380975, 0.000000, -0.076618, 0.256664, -0.195764, -0.183774, -0.215123, -0.000248, -0.000000, -0.000000, -0.051265, -0.000000, -0.000000, 0.000000, 0.017693, 0.000000, -0.000000, -0.064485, 0.071129, 0.000000, -0.309609, -0.000000, -0.084906, 0.062359, -0.000000, -0.000000}, {-0.030742, -0.000000, -0.000000, -0.000000, -0.123997, 0.419169, -0.000000, -0.519420, -0.255863, -0.000000, -0.000000, 0.235011, -0.000000, -0.388033, 0.203242, -0.000000, -0.418412, 0.166836, -0.382165, -0.090669, 0.311291, -0.000392, 0.000000, -0.000000, -0.401820, 0.000000, 0.000000, 0.000000, -0.063513, -0.000000, -0.000000, -0.199557, 0.338274, -0.000000, 0.180291, 0.000000, -0.334587, -0.390503, -0.000000, -0.000000}, {0.000000, -0.000000, -0.000000, 0.000000, 0.000000, -0.000000, 0.000000, -0.000000, -0.000000, 0.000000, 0.000000, -0.000000, -0.000000, -0.000000, 0.000000, 0.000000, 0.000000, 0.000000, -0.000000, -0.000000, 0.000000, 0.000000, 0.000000, -0.000000, -0.000000, -0.000000, -0.000000, 0.000000, 0.000000, -0.000000, -0.000000, -0.000000, 0.000000, 0.000000, -0.000000, -0.000000, -0.000000, -0.000000, 0.000000, -0.000000}, {0.075201, -0.000000, -0.000000, -0.000000, 0.033397, 0.254131, 0.000000, -0.016429, -0.550982, 0.000000, -0.000000, 0.130380, -0.000000, -0.019981, -0.015973, 0.000000, -0.011447, 0.064527, 0.075718, -0.141813, 0.163739, 0.000095, 0.000000, -0.000000, -0.019891, -0.000000, 0.000000, 0.000000, 0.099534, -0.000000, -0.000000, 0.019013, 0.142113, 0.000000, 0.076169, -0.000000, -0.013383, -0.005654, -0.000000, 0.000000}, {-0.000000, -0.000000, 0.000000, -0.000000, -0.000000, 0.000000, -0.000000, -0.000000, 0.000000, 0.000000, 0.000000, 0.000000, 0.000000, 0.000000, 0.000000, -0.000000, -0.000000, -0.000000, 0.000000, -0.000000, 0.000000, -0.000000, 0.000000, -0.000000, -0.000000, 0.000000, 0.000000, -0.000000, -0.000000, -0.000000, -0.000000, 0.000000, 0.000000, -0.000000, -0.000000, -0.000000, -0.000000, -0.000000, -0.000000, -0.000000}, {-0.352769, -0.000000, -0.000000, -0.000000, -0.345402, 0.045506, -0.000000, -0.513120, -0.332225, -0.000000, -0.000000, -0.026516, -0.000000, -0.438718, 0.125572, -0.000000, -0.402215, -0.227910, -0.327913, -0.056215, -0.084896, -0.000428, -0.000000, -0.000000, -0.401188, 0.000000, -0.000000, -0.000000, -0.088945, 0.000000, -0.000000, 0.103038, -0.045031, 0.000000, -0.364574, 0.000000, -0.338360, -0.411310, -0.000000, -0.000000}, {-0.000000, 0.000000, -0.000000, -0.000000, -0.000000, -0.000000, -0.000000, 0.000000, 0.000000, -0.000000, 0.000000, -0.000000, -0.000000, -0.000000, 0.000000, -0.000000, -0.000000, 0.000000, -0.000000, 0.000000, -0.000000, 0.000000, 0.000000, 0.000000, -0.000000, -0.000000, -0.000000, -0.000000, 0.000000, -0.000000, 0.000000, -0.000000, -0.000000, -0.000000, -0.000000, -0.000000, 0.000000, 0.000000, -0.000000, 0.000000}, {-0.153848, -0.000000, -0.000000, -0.000000, -0.039906, -0.128456, -0.000000, -0.339271, 0.021349, -0.000000, 0.000000, -0.287598, 0.000000, -0.389518, -0.215908, -0.000000, -0.488412, -0.229978, -0.322959, -0.337323, -0.194130, -0.000389, 0.000000, -0.000000, -0.469055, -0.000000, -0.000000, -0.000000, -0.377056, -0.000000, -0.000000, 0.118253, -0.448734, 0.000000, -0.062813, 0.000000, -0.287360, -0.421590, -0.000000, -0.000000}, {-0.382729, -0.000000, -0.000000, -0.000000, 0.170275, -0.022933, 0.000000, 0.124577, -0.115248, -0.000000, -0.000000, 0.177979, -0.000000, -0.112327, 0.340889, 0.000000, 0.060126, 0.101423, -0.026495, -0.221897, -0.094366, -0.000126, 0.000000, -0.000000, 0.041845, -0.000000, -0.000000, -0.000000, -0.128046, 0.000000, -0.000000, -0.101730, 0.137264, -0.000000, 0.053924, -0.000000, -0.111970, -0.101749, -0.000000, 0.000000}, {0.000000, 0.000000, 0.000000, -0.000000, 0.000000, -0.000000, 0.000000, 0.000000, 0.000000, -0.000000, 0.000000, 0.000000, -0.000000, 0.000000, 0.000000, -0.000000, 0.000000, 0.000000, 0.000000, 0.000000, 0.000000, 0.000000, -0.000000, -0.000000, 0.000000, -0.000000, -0.000000, -0.000000, 0.000000, -0.000000, 0.000000, 0.000000, 0.000000, -0.000000, -0.000000, 0.000000, 0.000000, 0.000000, -0.000000, 0.000000}, {-0.129444, -0.000000, -0.000000, 0.000000, 0.291913, -0.123572, 0.000000, 0.400125, 0.260023, 0.000000, -0.000000, -0.601538, -0.000000, 0.318149, -0.489504, 0.000000, 0.380061, -0.375701, 0.265792, -0.101912, 0.056889, 0.000350, 0.000000, -0.000000, 0.375624, -0.000000, 0.000000, 0.000000, -0.134951, 0.000000, 0.000000, 0.101033, 0.127253, 0.000000, 0.228386, -0.000000, 0.294602, 0.270129, -0.000000, 0.000000}, {-0.365693, -0.000000, 0.000000, -0.000000, 0.006051, -0.355607, -0.000000, -0.189069, 0.173698, -0.000000, -0.000000, 0.040023, 0.000000, -0.234629, -0.033582, 0.000000, -0.150731, 0.065520, -0.190591, -0.484115, -0.315020, -0.000178, -0.000000, -0.000000, -0.150527, -0.000000, 0.000000, -0.000000, -0.283884, -0.000000, -0.000000, 0.231787, -0.418272, 0.000000, -0.391208, -0.000000, -0.207199, -0.252484, -0.000000, -0.000000}, {-0.462496, -0.000000, -0.000000, -0.000000, -0.175015, -0.335203, 0.000000, 0.152497, -0.381999, -0.000000, -0.000000, 0.172525, 0.000000, 0.017575, 0.044769, 0.000000, 0.119389, 0.311430, 0.019025, -0.310593, -0.305424, 0.000009, 0.000000, -0.000000, 0.103165, -0.000000, -0.000000, 0.000000, -0.363777, -0.000000, -0.000000, -0.049467, -0.020995, -0.000000, -0.367977, -0.000000, 0.022292, 0.017634, -0.000000, 0.000000}, {0.000000, -0.000000, -0.000000, 0.000000, 0.000000, -0.000000, 0.000000, -0.000000, -0.000000, 0.000000, 0.000000, 0.000000, -0.000000, -0.000000, 0.000000, 0.000000, 0.000000, -0.000000, 0.000000, 0.000000, 0.000000, 0.000000, 0.000000, -0.000000, 0.000000, 0.000000, -0.000000, 0.000000, 0.000000, 0.000000, -0.000000, 0.000000, -0.000000, -0.000000, 0.000000, 0.000000, 0.000000, -0.000000, -0.000000, -0.000000}, {-0.447186, 0.000000, -0.000000, -0.000000, -0.112026, -0.020726, -0.000000, -0.214315, -0.042470, -0.000000, -0.000000, 0.077110, -0.000000, -0.108424, -0.027506, -0.000000, -0.194298, -0.014385, -0.033848, -0.398855, -0.074590, -0.000051, -0.000000, -0.000000, -0.235716, -0.000000, -0.000000, -0.000000, -0.461266, -0.000000, -0.000000, -0.206228, -0.038631, -0.000000, -0.174723, 0.000000, -0.091934, -0.080264, -0.000000, -0.000000}, {0.000000, 0.000000, 0.000000, -0.000000, -0.000000, 0.000000, -0.000000, 0.000000, -0.000000, -0.000000, -0.000000, -0.000000, 0.000000, -0.000000, 0.000000, -0.000000, 0.000000, -0.000000, 0.000000, 0.000000, -0.000000, -0.000000, -0.000000, 0.000000, 0.000000, 0.000000, 0.000000, 0.000000, 0.000000, -0.000000, 0.000000, 0.000000, 0.000000, -0.000000, 0.000000, -0.000000, 0.000000, -0.000000, 0.000000, 0.000000}, {-0.357686, 0.000000, -0.000000, -0.000000, -0.153667, 0.072601, 0.000000, -0.169386, -0.391609, -0.000000, -0.000000, 0.053393, 0.000000, -0.257764, -0.041675, 0.000000, -0.131606, 0.239453, -0.214465, 0.051791, 0.034634, -0.000139, 0.000000, -0.000000, -0.163949, -0.000000, 0.000000, 0.000000, -0.143865, -0.000000, -0.000000, -0.380107, 0.192507, 0.000000, -0.222371, 0.000000, -0.143640, -0.233146, 0.000000, -0.000000}, {-0.442573, 0.000000, -0.000000, 0.000000, -0.007006, -0.067251, -0.000000, -0.188808, -0.007945, -0.000000, -0.000000, 0.085149, 0.000000, -0.318670, 0.115911, -0.000000, -0.451625, -0.084724, -0.372154, -0.663299, -0.303051, -0.000437, -0.000000, -0.000000, -0.399576, -0.000000, 0.000000, -0.000000, -0.592206, 0.000000, -0.000000, -0.423037, -0.286785, -0.000000, -0.374075, 0.000000, -0.313770, -0.354620, -0.000000, -0.000000}, {-0.063848, -0.000000, -0.000000, -0.000000, 0.020766, -0.428685, -0.000000, 0.052500, 0.076436, -0.000000, -0.000000, -0.377480, -0.000000, 0.110543, 0.290451, -0.000000, 0.056845, 0.055166, -0.244727, -0.129105, -0.270972, -0.000355, -0.000000, 0.000000, 0.065775, -0.000000, -0.000000, 0.000000, -0.028550, -0.000000, -0.000000, -0.171457, -0.086995, -0.000000, -0.262433, -0.000000, -0.079863, 0.103484, -0.000000, 0.000000}, {-0.000000, -0.000000, 0.000000, 0.000000, 0.000000, -0.000000, 0.000000, 0.000000, -0.000000, 0.000000, 0.000000, -0.000000, -0.000000, 0.000000, -0.000000, 0.000000, 0.000000, -0.000000, 0.000000, -0.000000, -0.000000, 0.000000, 0.000000, -0.000000, -0.000000, -0.000000, 0.000000, -0.000000, -0.000000, -0.000000, -0.000000, -0.000000, -0.000000, -0.000000, -0.000000, 0.000000, -0.000000, -0.000000, 0.000000, 0.000000}, {-0.000000, -0.000000, 0.000000, -0.000000, 0.000000, -0.000000, 0.000000, -0.000000, 0.000000, -0.000000, 0.000000, 0.000000, 0.000000, 0.000000, -0.000000, 0.000000, -0.000000, -0.000000, -0.000000, 0.000000, -0.000000, -0.000000, 0.000000, -0.000000, 0.000000, -0.000000, 0.000000, 0.000000, 0.000000, 0.000000, 0.000000, 0.000000, -0.000000, 0.000000, -0.000000, 0.000000, 0.000000, 0.000000, -0.000000, 0.000000}, {0.036606, -0.000000, 0.000000, -0.000000, 0.505522, -0.348265, 0.000000, 0.149631, 0.329217, 0.000000, -0.000000, -0.282237, -0.000000, 0.148829, -0.285996, 0.000000, 0.200822, -0.206328, 0.258006, 0.058264, 0.150561, 0.000246, 0.000000, -0.000000, 0.207867, 0.000000, 0.000000, 0.000000, -0.114552, 0.000000, 0.000000, 0.372629, -0.051727, 0.000000, 0.319280, -0.000000, 0.207656, 0.143389, 0.000000, -0.000000}, {-0.341046, -0.000000, -0.000000, -0.000000, -0.351637, -0.077087, -0.000000, -0.310856, -0.054679, -0.000000, 0.000000, 0.016363, 0.000000, -0.180455, 0.050326, 0.000000, -0.260436, -0.001032, -0.190216, -0.106779, -0.010767, -0.000111, -0.000000, -0.000000, -0.257170, -0.000000, 0.000000, -0.000000, -0.319019, 0.000000, -0.000000, -0.233541, -0.166045, 0.000000, -0.064111, -0.000000, -0.297749, -0.148895, -0.000000, 0.000000}, {0.035475, 0.000000, -0.000000, -0.000000, 0.221698, -0.340496, 0.000000, 0.120962, 0.220397, 0.000000, 0.000000, -0.223690, 0.000000, 0.161676, -0.278900, -0.000000, 0.128125, -0.183839, 0.133387, -0.023499, -0.380782, 0.000031, 0.000000, -0.000000, 0.116799, 0.000000, -0.000000, 0.000000, 0.036761, 0.000000, 0.000000, 0.125862, -0.104264, 0.000000, -0.445282, -0.000000, 0.126798, 0.182272, -0.000000, 0.000000}, {0.138732, -0.000000, 0.000000, -0.000000, 0.147576, -0.109918, 0.000000, 0.085652, -0.137200, 0.000000, 0.000000, -0.502449, 0.000000, 0.106182, -0.320261, -0.000000, 0.082441, -0.370118, 0.123622, 0.025358, 0.043499, 0.000080, -0.000000, 0.000000, 0.078834, 0.000000, 0.000000, 0.000000, 0.113874, -0.000000, 0.000000, 0.058166, -0.056663, 0.000000, -0.069579, 0.000000, 0.100722, 0.098285, 0.000000, 0.000000}, {0.071291, 0.000000, 0.000000, -0.000000, 0.199779, -0.444267, 0.000000, 0.257945, 0.147058, 0.000000, 0.000000, 0.034679, 0.000000, 0.235642, -0.228753, -0.000000, 0.278508, 0.114869, 0.298443, -0.358290, -0.141120, 0.000265, -0.000000, -0.000000, 0.284838, -0.000000, 0.000000, 0.000000, -0.249837, -0.000000, 0.000000, 0.363395, 0.067077, 0.000000, -0.029694, 0.000000, 0.305420, 0.221148, 0.000000, 0.000000}, {-0.306790, -0.000000, -0.000000, -0.000000, -0.029998, -0.035069, -0.000000, -0.364947, 0.075348, -0.000000, -0.000000, -0.353476, -0.000000, -0.275085, -0.029186, 0.000000, -0.421786, -0.301723, -0.181304, -0.100623, 0.006076, -0.000194, -0.000000, -0.000000, -0.426465, -0.000000, -0.000000, 0.000000, -0.428132, 0.000000, -0.000000, -0.089475, -0.356955, 0.000000, 0.066024, 0.000000, -0.268445, -0.319247, -0.000000, -0.000000}, {0.218444, -0.000000, 0.000000, -0.000000, 0.287929, -0.178908, 0.000000, 0.161120, -0.275450, 0.000000, 0.000000, 0.045538, -0.000000, 0.187892, -0.121094, -0.000000, 0.190930, 0.130252, 0.186625, -0.235129, -0.248259, 0.000086, 0.000000, -0.000000, 0.192854, -0.000000, 0.000000, 0.000000, 0.139659, -0.000000, 0.000000, 0.197329, 0.096850, -0.000000, -0.277432, 0.000000, 0.179476, 0.186531, 0.000000, -0.000000}, {-0.062910, -0.000000, -0.000000, -0.000000, -0.048019, -0.274647, 0.000000, 0.104688, -0.455941, 0.000000, 0.000000, -0.158918, 0.000000, 0.143368, -0.068280, -0.000000, 0.124221, 0.019302, 0.082656, -0.179225, -0.221103, 0.000009, 0.000000, -0.000000, 0.126625, -0.000000, 0.000000, 0.000000, -0.032428, -0.000000, -0.000000, 0.058089, -0.029440, -0.000000, -0.503818, -0.000000, 0.068706, 0.137396, -0.000000, -0.000000}};
static const float * p_layer_2_weight = layer_2_weight;
static const float layer_2_bias[40] = {0.075186, -0.100215, -0.087827, -0.006990, 0.068688, 0.130810, -0.092664, 0.012985, 0.143507, -0.102867, -0.083760, 0.089279, -0.168827, 0.018694, 0.067968, -0.080220, 0.017953, 0.072480, -0.020652, 0.153494, 0.135186, -0.098872, -0.089986, -0.042563, 0.017581, -0.097544, -0.155281, -0.031731, 0.152550, -0.111464, -0.062247, -0.022461, 0.063453, -0.147740, 0.145042, -0.193151, -0.025263, 0.025176, -0.005955, -0.121126};
static const float * p_layer_2_bias = layer_2_bias;
static const float layer_3_weight[40][40] = {{0.078276, 0.057747, 0.087237, -0.007497, -0.036871, 0.025791, -0.045444, 0.052336, -0.025393, 0.288772, 0.047574, -0.499770, -0.019019, -0.034086, -0.084719, -0.108617, -0.055189, -0.007201, -0.017728, -0.046595, -0.096349, -0.058890, 0.007478, 0.100569, -0.013248, 0.047847, 0.404391, -0.040108, 0.012682, 0.024431, 0.061644, 0.604632, -0.074052, 0.008966, -0.033497, -0.059074, 0.027376, -0.007543, -0.443711, -0.197803}, {0.000000, -0.000000, -0.000000, -0.000000, 0.000000, -0.000000, -0.000000, 0.000000, -0.000000, 0.000000, 0.000000, 0.000000, 0.000000, 0.000000, 0.000000, 0.000000, -0.000000, -0.000000, 0.000000, 0.000000, -0.000000, 0.000000, 0.000000, 0.000000, 0.000000, 0.000000, -0.000000, 0.000000, 0.000000, -0.000000, -0.000000, 0.000000, -0.000000, 0.000000, -0.000000, 0.000000, -0.000000, -0.000000, 0.000000, -0.000000}, {0.000000, 0.000000, -0.000000, 0.000000, -0.000000, -0.000000, -0.000000, 0.000000, -0.000000, 0.000000, -0.000000, -0.000000, -0.000000, -0.000000, 0.000000, 0.000000, 0.000000, 0.000000, 0.000000, 0.000000, -0.000000, 0.000000, -0.000000, -0.000000, 0.000000, 0.000000, 0.000000, -0.000000, -0.000000, -0.000000, -0.000000, 0.000000, 0.000000, -0.000000, -0.000000, 0.000000, 0.000000, 0.000000, -0.000000, -0.000000}, {0.000000, 0.000000, -0.000000, 0.000000, -0.000000, 0.000000, -0.000000, 0.000000, -0.000000, -0.000000, -0.000000, 0.000000, 0.000000, -0.000000, 0.000000, -0.000000, 0.000000, 0.000000, -0.000000, 0.000000, -0.000000, 0.000000, -0.000000, -0.000000, 0.000000, 0.000000, -0.000000, 0.000000, 0.000000, -0.000000, -0.000000, -0.000000, 0.000000, -0.000000, -0.000000, -0.000000, -0.000000, 0.000000, -0.000000, -0.000000}, {-0.097351, -0.022618, -0.294448, 0.102196, 0.012106, -0.117416, 0.044704, -0.076248, 0.084796, 0.093078, -0.084470, -0.553075, 0.027023, -0.002869, 0.056050, 0.017767, 0.307557, 0.109668, 0.005518, 0.040566, 0.092446, 0.054316, -0.102440, -0.128674, -0.028407, -0.043719, 0.138803, 0.046313, -0.010189, -0.021104, -0.041788, 0.293563, 0.302732, -0.119815, 0.026980, 0.030923, -0.029749, 0.105404, -0.563230, -0.472844}, {0.201546, 0.052831, 0.687122, -0.415666, -0.067213, -0.312747, 0.000583, 0.129436, 0.350600, 0.220441, 0.457232, 0.141527, 0.076700, -0.050315, -0.080491, -0.271446, -0.666774, -0.444767, -0.062513, -0.107501, -0.138729, -0.152623, 0.416514, 0.193685, -0.105451, -0.000210, 0.124408, 0.003108, 0.118815, 0.034854, 0.144826, -0.056866, -0.678800, 0.488348, 0.060398, -0.043675, 0.097987, -0.428076, 0.144913, 0.430942}, {-0.000000, 0.000000, 0.000000, 0.000000, 0.000000, 0.000000, -0.000000, 0.000000, 0.000000, 0.000000, 0.000000, 0.000000, -0.000000, 0.000000, -0.000000, -0.000000, -0.000000, 0.000000, 0.000000, 0.000000, -0.000000, -0.000000, -0.000000, 0.000000, 0.000000, 0.000000, 0.000000, -0.000000, 0.000000, 0.000000, 0.000000, -0.000000, -0.000000, -0.000000, -0.000000, 0.000000, -0.000000, 0.000000, 0.000000, 0.000000}, {0.120961, 0.054318, 0.053399, 0.158369, -0.047875, 0.043763, -0.219351, 0.080304, -0.033822, 0.211730, 0.020288, -0.043367, 0.019820, -0.011708, -0.049502, 0.006186, -0.049234, 0.156151, -0.034504, -0.044394, -0.075389, -0.094565, -0.158301, 0.128659, 0.182567, 0.220620, 0.255175, -0.216536, 0.060825, 0.028191, 0.091488, 0.291195, -0.052615, -0.151663, 0.008478, -0.018823, 0.055107, 0.157249, 0.019295, 0.117449}, {0.020864, 0.029133, -0.332128, -0.046154, -0.018568, 0.147501, 0.324843, -0.029055, -0.152046, -0.522587, -0.088678, -0.144780, -0.072891, -0.044541, -0.100645, -0.021431, 0.318422, -0.000947, -0.010278, -0.037763, -0.070746, -0.017234, 0.044813, 0.049855, -0.274297, -0.325670, -0.472437, 0.322730, -0.041236, 0.045028, 0.001561, -0.145810, 0.325787, -0.077965, -0.080093, -0.101268, 0.009382, -0.026017, -0.157221, -0.216509}, {0.000000, 0.000000, -0.000000, 0.000000, -0.000000, 0.000000, -0.000000, 0.000000, -0.000000, 0.000000, -0.000000, -0.000000, -0.000000, -0.000000, 0.000000, 0.000000, 0.000000, 0.000000, -0.000000, 0.000000, 0.000000, 0.000000, -0.000000, -0.000000, 0.000000, 0.000000, 0.000000, -0.000000, 0.000000, -0.000000, -0.000000, 0.000000, 0.000000, -0.000000, 0.000000, -0.000000, 0.000000, 0.000000, -0.000000, -0.000000}, {-0.000000, -0.000000, -0.000000, -0.000000, -0.000000, -0.000000, -0.000000, 0.000000, 0.000000, -0.000000, -0.000000, 0.000000, 0.000000, -0.000000, 0.000000, -0.000000, 0.000000, 0.000000, 0.000000, 0.000000, 0.000000, -0.000000, 0.000000, -0.000000, 0.000000, 0.000000, -0.000000, 0.000000, 0.000000, 0.000000, -0.000000, 0.000000, -0.000000, -0.000000, 0.000000, 0.000000, -0.000000, 0.000000, 0.000000, -0.000000}, {0.133595, 0.051475, 0.260286, 0.632451, -0.039581, -0.372855, -0.414832, 0.213170, 0.384882, 0.106267, 0.442895, 0.343191, -0.011827, 0.018151, -0.052675, -0.357487, -0.279947, 0.603480, -0.015484, -0.077620, -0.112834, -0.084658, -0.631819, 0.143272, 0.512371, 0.412970, 0.036642, -0.419296, 0.032781, -0.016696, 0.102725, -0.129320, -0.268398, -0.538124, -0.019188, -0.071380, 0.065755, 0.621736, 0.383324, 0.429705}, {-0.000000, 0.000000, -0.000000, -0.000000, -0.000000, -0.000000, -0.000000, 0.000000, 0.000000, -0.000000, -0.000000, -0.000000, -0.000000, 0.000000, 0.000000, -0.000000, -0.000000, -0.000000, -0.000000, -0.000000, -0.000000, 0.000000, -0.000000, -0.000000, 0.000000, 0.000000, -0.000000, 0.000000, -0.000000, -0.000000, -0.000000, -0.000000, 0.000000, -0.000000, -0.000000, 0.000000, -0.000000, -0.000000, -0.000000, 0.000000}, {0.035389, -0.003659, 0.099151, 0.094708, 0.005034, 0.093016, -0.206460, -0.006272, -0.082883, 0.222978, -0.010037, 0.042399, -0.006819, -0.011169, -0.050262, 0.001327, -0.087506, 0.091209, 0.000715, -0.014248, -0.048382, -0.024131, -0.094593, 0.051536, 0.146784, 0.208046, 0.251055, -0.202832, 0.004454, -0.000008, -0.004512, 0.244567, -0.096144, -0.084406, -0.009802, -0.018083, 0.006572, 0.092933, 0.111455, 0.175643}, {-0.071617, -0.096799, 0.058587, 0.083897, 0.112969, 0.217558, -0.218456, 0.007045, -0.201562, -0.003446, -0.190203, 0.393055, 0.012395, 0.078225, 0.012919, 0.242680, -0.062392, 0.062317, 0.106964, 0.098802, 0.033261, 0.083566, -0.083184, -0.028548, 0.250710, 0.217533, -0.086059, -0.220895, -0.054980, -0.080073, -0.125765, -0.270594, -0.062115, -0.031154, 0.002518, -0.023509, -0.112034, 0.074287, 0.398878, 0.191775}, {0.000000, -0.000000, -0.000000, -0.000000, -0.000000, -0.000000, 0.000000, -0.000000, 0.000000, 0.000000, 0.000000, 0.000000, -0.000000, 0.000000, -0.000000, 0.000000, -0.000000, -0.000000, -0.000000, -0.000000, -0.000000, -0.000000, -0.000000, -0.000000, -0.000000, -0.000000, -0.000000, 0.000000, 0.000000, -0.000000, -0.000000, 0.000000, -0.000000, -0.000000, 0.000000, -0.000000, -0.000000, -0.000000, 0.000000, -0.000000}, {0.068984, 0.041717, 0.057342, 0.158582, -0.048182, 0.037510, -0.240788, 0.032258, -0.031578, 0.261313, -0.005300, -0.052448, 0.046662, -0.038797, 0.004077, 0.026330, -0.047713, 0.155587, -0.054104, -0.046493, -0.029913, -0.062324, -0.158489, 0.045589, 0.192247, 0.242191, 0.292109, -0.237606, 0.070052, 0.049845, 0.053571, 0.303220, -0.054172, -0.149372, 0.054136, 0.046357, 0.061311, 0.157071, 0.013562, 0.111872}, {-0.046204, -0.113642, 0.327346, -0.045946, 0.139273, 0.050098, -0.210999, -0.026691, -0.027715, 0.162888, -0.041532, 0.303411, 0.044407, 0.139802, 0.050941, 0.212001, -0.327973, -0.069226, 0.135064, 0.079296, 0.014874, 0.038700, 0.046655, -0.037598, 0.176302, 0.211292, 0.123153, -0.210221, -0.008850, -0.089752, -0.128235, -0.039074, -0.328888, 0.106469, 0.041443, 0.038751, -0.107181, -0.056354, 0.325878, 0.345075}, {-0.007163, 0.036268, 0.034345, 0.245329, -0.053276, -0.090514, -0.286548, -0.000079, 0.086146, 0.325545, 0.044357, -0.205696, -0.003150, -0.007623, 0.087522, 0.010444, -0.025333, 0.241296, -0.065843, -0.028261, 0.064682, 0.014290, -0.245211, -0.044263, 0.257733, 0.287567, 0.343582, -0.284404, 0.024793, 0.049026, 0.050242, 0.367571, -0.030235, -0.232119, 0.014793, 0.065388, 0.059618, 0.243355, -0.143252, 0.010395}, {-0.146248, -0.114817, -0.102695, -0.305058, 0.133402, 0.324896, 0.308595, -0.088221, -0.330941, -0.093597, -0.333270, -0.332889, 0.022074, 0.115234, 0.135371, 0.256992, 0.132899, -0.298208, 0.120245, 0.096972, 0.097389, 0.147666, 0.304876, -0.139050, -0.301258, -0.307787, 0.098504, 0.309898, -0.067650, -0.119429, -0.159684, 0.326197, 0.116133, 0.284563, 0.018105, 0.052438, -0.103681, -0.302275, -0.327129, -0.300301}, {-0.083647, -0.059607, 0.309692, -0.356558, 0.073555, -0.084782, 0.154416, 0.033049, 0.099969, -0.032346, 0.073061, -0.015625, -0.044569, 0.098746, 0.010162, 0.050456, -0.298310, -0.369659, 0.091847, 0.065186, 0.048692, 0.104673, 0.356942, -0.044582, -0.181406, -0.154588, 0.003495, 0.154434, -0.088743, -0.048588, -0.097240, 0.009343, -0.303538, 0.386852, -0.041573, -0.015684, -0.091928, -0.362115, -0.022968, 0.121991}, {0.000776, -0.001485, 0.000258, 0.001370, -0.000194, 0.001026, -0.001730, 0.001145, -0.000902, 0.001585, 0.000011, 0.001343, 0.000187, -0.000395, 0.000511, 0.000388, -0.000227, 0.001360, -0.000431, -0.000530, -0.000073, -0.000402, -0.001369, 0.000528, 0.001699, 0.001748, 0.001773, -0.001697, 0.000048, 0.000193, 0.000485, 0.001431, -0.000258, -0.001335, 0.001324, -0.001140, 0.000445, 0.001363, 0.001628, 0.000667}, {0.000000, 0.000000, -0.000000, 0.000000, -0.000000, -0.000000, -0.000000, 0.000000, 0.000000, 0.000000, 0.000000, -0.000000, 0.000000, 0.000000, -0.000000, -0.000000, 0.000000, 0.000000, 0.000000, 0.000000, 0.000000, -0.000000, 0.000000, -0.000000, -0.000000, 0.000000, 0.000000, 0.000000, 0.000000, 0.000000, -0.000000, -0.000000, -0.000000, -0.000000, -0.000000, 0.000000, -0.000000, 0.000000, 0.000000, 0.000000}, {0.000000, 0.000000, -0.000000, 0.000000, -0.000000, 0.000000, -0.000000, 0.000000, -0.000000, -0.000000, -0.000000, -0.000000, -0.000000, -0.000000, 0.000000, -0.000000, 0.000000, 0.000000, -0.000000, 0.000000, -0.000000, 0.000000, -0.000000, -0.000000, 0.000000, 0.000000, -0.000000, -0.000000, 0.000000, -0.000000, -0.000000, -0.000000, 0.000000, -0.000000, -0.000000, 0.000000, 0.000000, 0.000000, -0.000000, -0.000000}, {0.061502, 0.041625, 0.046920, 0.147755, -0.048261, 0.045264, -0.228175, 0.023083, -0.039406, 0.248174, -0.015499, -0.044911, 0.029314, -0.039440, -0.006339, 0.029009, -0.038074, 0.144830, -0.052862, -0.041926, -0.028153, -0.050999, -0.147663, 0.044626, 0.180425, 0.229582, 0.277500, -0.225009, 0.046726, 0.048728, 0.049349, 0.287141, -0.043963, -0.138798, 0.035504, 0.025864, 0.055058, 0.146277, 0.016136, 0.098677}, {0.000000, -0.000000, -0.000000, -0.000000, 0.000000, -0.000000, 0.000000, -0.000000, 0.000000, -0.000000, 0.000000, -0.000000, -0.000000, 0.000000, -0.000000, 0.000000, -0.000000, 0.000000, -0.000000, -0.000000, 0.000000, 0.000000, -0.000000, -0.000000, 0.000000, -0.000000, -0.000000, 0.000000, 0.000000, 0.000000, 0.000000, -0.000000, 0.000000, 0.000000, -0.000000, -0.000000, 0.000000, 0.000000, 0.000000, -0.000000}, {-0.000000, -0.000000, 0.000000, 0.000000, -0.000000, -0.000000, -0.000000, 0.000000, 0.000000, 0.000000, 0.000000, 0.000000, 0.000000, 0.000000, 0.000000, -0.000000, 0.000000, 0.000000, -0.000000, 0.000000, 0.000000, 0.000000, 0.000000, -0.000000, -0.000000, -0.000000, -0.000000, -0.000000, 0.000000, 0.000000, 0.000000, -0.000000, -0.000000, -0.000000, 0.000000, 0.000000, -0.000000, 0.000000, 0.000000, -0.000000}, {-0.000000, 0.000000, 0.000000, 0.000000, -0.000000, -0.000000, 0.000000, -0.000000, -0.000000, 0.000000, 0.000000, -0.000000, -0.000000, 0.000000, -0.000000, 0.000000, 0.000000, 0.000000, 0.000000, -0.000000, 0.000000, -0.000000, -0.000000, 0.000000, -0.000000, -0.000000, 0.000000, 0.000000, -0.000000, -0.000000, 0.000000, 0.000000, -0.000000, -0.000000, 0.000000, -0.000000, 0.000000, 0.000000, -0.000000, -0.000000}, {0.091109, 0.022041, 0.208347, -0.101039, -0.010324, 0.093746, -0.007885, 0.021129, -0.081026, 0.271791, 0.028494, -0.312692, -0.007668, -0.007641, -0.093612, -0.059235, -0.173564, -0.103190, -0.000428, -0.043352, -0.106926, -0.075088, 0.101100, 0.118888, -0.064021, 0.010312, 0.386263, -0.002281, 0.025617, 0.013441, 0.046209, 0.511097, -0.195035, 0.108219, -0.009936, -0.050394, 0.019202, -0.102186, -0.272370, -0.040814}, {0.000000, -0.000000, 0.000000, 0.000000, -0.000000, -0.000000, 0.000000, 0.000000, 0.000000, -0.000000, -0.000000, -0.000000, -0.000000, 0.000000, 0.000000, 0.000000, -0.000000, 0.000000, -0.000000, -0.000000, -0.000000, -0.000000, -0.000000, 0.000000, -0.000000, 0.000000, 0.000000, 0.000000, -0.000000, 0.000000, 0.000000, 0.000000, 0.000000, -0.000000, -0.000000, -0.000000, 0.000000, 0.000000, 0.000000, -0.000000}, {0.000000, 0.000000, -0.000000, 0.000000, -0.000000, -0.000000, -0.000000, 0.000000, 0.000000, 0.000000, 0.000000, -0.000000, 0.000000, 0.000000, 0.000000, -0.000000, -0.000000, 0.000000, -0.000000, 0.000000, -0.000000, 0.000000, -0.000000, 0.000000, 0.000000, 0.000000, 0.000000, -0.000000, 0.000000, -0.000000, -0.000000, 0.000000, 0.000000, -0.000000, -0.000000, -0.000000, 0.000000, 0.000000, -0.000000, 0.000000}, {0.057552, -0.002812, -0.196393, 0.481139, 0.009622, -0.042973, -0.163963, 0.051316, 0.024300, 0.085771, 0.011378, -0.122243, 0.023989, -0.006830, -0.014092, -0.092815, 0.200990, 0.494111, 0.014143, -0.007591, -0.054869, -0.042670, -0.481561, 0.061363, 0.227323, 0.163856, 0.097295, -0.164994, 0.024510, -0.012952, 0.021515, 0.151748, 0.197437, -0.508651, 0.013658, -0.010665, 0.000414, 0.487187, -0.098576, -0.136169}, {-0.048340, -0.032763, 0.182458, 0.013234, 0.048938, -0.375486, 0.004462, 0.002323, 0.375949, 0.124722, 0.269983, -0.197540, 0.036868, 0.016385, 0.055942, -0.107059, -0.194057, 0.010271, 0.033920, 0.009166, -0.017669, 0.008254, -0.013204, -0.052393, -0.009733, -0.003661, 0.142503, 0.006107, 0.007338, -0.048699, -0.057362, 0.169563, -0.183687, -0.003486, 0.039444, 0.010205, -0.024967, 0.012179, -0.201889, 0.053469}, {-0.000000, -0.000000, -0.000000, 0.000000, -0.000000, -0.000000, 0.000000, 0.000000, 0.000000, -0.000000, 0.000000, -0.000000, 0.000000, 0.000000, -0.000000, -0.000000, -0.000000, -0.000000, -0.000000, 0.000000, -0.000000, 0.000000, -0.000000, 0.000000, -0.000000, -0.000000, 0.000000, -0.000000, -0.000000, 0.000000, 0.000000, 0.000000, 0.000000, -0.000000, 0.000000, 0.000000, 0.000000, 0.000000, 0.000000, 0.000000}, {-0.150857, -0.076037, 0.058277, -0.532697, 0.087881, -0.097354, 0.435868, -0.089179, 0.087780, -0.368300, -0.070690, -0.119193, -0.025802, 0.090940, 0.048506, 0.171226, -0.060271, -0.536686, 0.073125, 0.133595, 0.090578, 0.112453, 0.532816, -0.129786, -0.420223, -0.437425, -0.256071, 0.432704, -0.084889, -0.046724, -0.134481, -0.073380, -0.055621, 0.536029, -0.017385, -0.017090, -0.098702, -0.534111, -0.149376, -0.083890}, {0.000000, -0.000000, 0.000000, -0.000000, -0.000000, -0.000000, -0.000000, 0.000000, -0.000000, 0.000000, 0.000000, -0.000000, -0.000000, -0.000000, 0.000000, -0.000000, 0.000000, -0.000000, 0.000000, 0.000000, 0.000000, 0.000000, 0.000000, 0.000000, -0.000000, -0.000000, -0.000000, -0.000000, -0.000000, 0.000000, 0.000000, -0.000000, -0.000000, -0.000000, 0.000000, 0.000000, 0.000000, 0.000000, 0.000000, 0.000000}, {0.011123, 0.001112, 0.019198, 0.099878, -0.029146, -0.046002, -0.139883, 0.024510, 0.050788, 0.170956, 0.075544, -0.092741, 0.039472, -0.057169, 0.028278, -0.047007, -0.018424, 0.098817, -0.043661, 0.021457, 0.040087, -0.016012, -0.099848, -0.020859, 0.106576, 0.141071, 0.198745, -0.137269, 0.044427, 0.022403, 0.026487, 0.227238, -0.018600, -0.095973, 0.032769, 0.021158, 0.016785, 0.099306, -0.061843, 0.028182}, {0.025253, -0.018776, 0.122941, 0.085800, 0.018606, 0.119762, -0.214511, -0.018860, -0.108562, 0.234598, -0.028223, 0.061353, -0.016416, -0.000113, -0.057360, 0.013951, -0.109019, 0.081673, 0.011360, 0.001527, -0.045101, -0.012438, -0.085664, 0.049033, 0.148334, 0.216214, 0.262133, -0.210600, -0.012507, -0.005052, -0.023557, 0.247039, -0.119421, -0.073794, -0.022135, -0.032890, -0.007642, 0.083729, 0.134199, 0.198478}, {-0.000000, -0.000000, 0.000000, -0.000000, 0.000000, -0.000000, 0.000000, -0.000000, 0.000000, 0.000000, 0.000000, 0.000000, 0.000000, 0.000000, -0.000000, 0.000000, -0.000000, -0.000000, 0.000000, -0.000000, 0.000000, -0.000000, 0.000000, 0.000000, -0.000000, -0.000000, 0.000000, 0.000000, -0.000000, 0.000000, 0.000000, 0.000000, -0.000000, 0.000000, 0.000000, -0.000000, -0.000000, -0.000000, 0.000000, 0.000000}, {0.000000, -0.000000, -0.000000, -0.000000, 0.000000, -0.000000, -0.000000, -0.000000, -0.000000, -0.000000, 0.000000, 0.000000, -0.000000, -0.000000, -0.000000, 0.000000, -0.000000, -0.000000, -0.000000, -0.000000, 0.000000, 0.000000, 0.000000, -0.000000, -0.000000, 0.000000, 0.000000, -0.000000, 0.000000, 0.000000, 0.000000, 0.000000, 0.000000, 0.000000, 0.000000, 0.000000, -0.000000, 0.000000, 0.000000, -0.000000}};
static const float * p_layer_3_weight = layer_3_weight;
static const float layer_3_bias[40] = {-0.004033, -0.003923, -0.023226, -0.033301, 0.008279, 0.018405, -0.021025, -0.007178, -0.019187, 0.126951, -0.025810, 0.106551, 0.002046, 0.018502, 0.006654, 0.017922, 0.022139, -0.037990, 0.008414, 0.000276, -0.000073, 0.005436, 0.033454, -0.001645, 0.002833, 0.021355, 0.070145, -0.020225, 0.000062, -0.003912, -0.008742, -0.069397, 0.022951, 0.044937, 0.003168, 0.006515, -0.002980, -0.035467, 0.087150, 0.002191};
static const float * p_layer_3_bias = layer_3_bias;
    
static float sigmoid(float num) {
    return 1.0f / (1.0f + expf(-num));
}

static float step(float num) {
    if (num < 0) {
        return 0;
    }
    return 1;
}

static float relu(float num) {
    if (num > 0) {
        return num;
    } else {
        return 0;
    }
}

static float linear(float num) {
    return num;
}

static void layer(const float * in, const float * layer_weight, const float * layer_bias,   
            int row, int col, float * output, int use_activation) {
    int ii;
    int jj;
    const float * p;

    for(ii = 0; ii < col; ii++) {
        p = layer_weight + ii;
        output[ii] = 0;
        for (jj = 0; jj < row; jj++) {
            output[ii] += in[jj] * (*p); 
            p += col;
        }
        output[ii] += layer_bias[ii];
        
        if (use_activation == 1) {
			output[ii] = relu(output[ii]);
        }
    }
}

const float* nn_phi_2(const float* input) {
	layer(input, p_layer_0_weight, p_layer_0_bias, STRUCTURE[0][0], STRUCTURE[0][1], output_0, 1);
	layer(output_0, p_layer_1_weight, p_layer_1_bias, STRUCTURE[1][0], STRUCTURE[1][1], output_1, 1);
	layer(output_1, p_layer_2_weight, p_layer_2_bias, STRUCTURE[2][0], STRUCTURE[2][1], output_2, 1);
	layer(output_2, p_layer_3_weight, p_layer_3_bias, STRUCTURE[3][0], STRUCTURE[3][1], output_3, 0);

	return output_3;
}
