/*
 * FILE: generated.c
 */

#include <stdio.h>
#include <stdlib.h>
#include <string.h>
#include <math.h>
#include "phi_2.h"

static const int STRUCTURE[4][2] = {{6, 25}, {25, 40}, {40, 40}, {40, 40}};
static float output_0[25];
static float output_1[40];
static float output_2[40];
static float output_3[40];
static const float layer_0_weight[6][25] = {{0.254800, 0.471403, -0.568449, 0.442866, -0.926392, 0.092992, 0.011653, -1.135287, 0.141134, -1.573193, 1.035635, -1.142271, -0.325284, 1.905786, 0.294918, -1.743816, 0.253401, 0.168788, 1.284696, 0.791543, -0.592207, -0.565500, -0.524528, -0.743747, 1.109053}, {0.727467, -0.190076, 1.586554, -0.894096, -0.500497, -1.414884, -0.097630, 0.878471, -0.431867, -1.597370, 0.405251, 0.842762, 0.465518, -0.987761, 0.335956, -0.955389, -0.212311, -0.268997, -0.154258, -1.028444, 1.408498, -0.113187, -0.332580, 0.590321, 1.859674}, {0.202402, 1.023005, -0.525417, 0.000186, 0.192138, 0.018540, 0.985666, -0.253215, 0.515965, 0.064048, -0.550220, 0.350964, -0.231258, -0.061410, -2.020008, 0.204597, 0.622295, -0.514126, 0.213905, -0.442341, 0.394393, -0.136272, 0.259851, 0.159906, 0.274517}, {-0.760861, 0.062420, -0.033022, 0.028309, 0.390448, -0.220948, 0.180894, 0.258545, -0.365909, 0.079230, 0.220802, 0.121848, -0.093914, 0.001637, -0.206966, -0.113879, -0.156870, -0.150471, -0.132649, 0.143921, 0.018965, 0.932552, -0.041470, -0.258339, 0.008483}, {-0.176256, 0.045844, 0.005662, 0.377098, 0.220363, -0.279514, 0.008669, -0.270587, 0.496287, 0.030739, -0.272615, -0.162760, 0.209535, -0.013680, -0.142328, -0.050021, -0.393378, 0.071223, 0.153246, 0.094311, 0.379140, 0.177661, -0.693694, 0.300426, -0.006390}, {0.152118, -0.466573, -0.083746, 0.174540, 0.568256, -0.293476, 0.459343, 0.317654, -0.001123, 0.114062, 0.222218, -0.232631, -0.823717, 0.032387, 0.090859, -0.128549, 0.582460, 0.777769, 0.098321, -0.274853, 0.044355, -0.103894, -0.379835, 0.554464, -0.033672}};
static const float * p_layer_0_weight = layer_0_weight;
static const float layer_0_bias[25] = {0.025212, -0.208515, 0.154418, -0.015755, -0.158413, -0.182724, -0.130874, 0.005304, -0.327264, -0.030169, 0.057890, -0.238403, -0.103883, 0.017666, 0.052836, -0.024172, -0.308700, 0.186818, -0.261625, 0.214594, -0.069392, -0.069503, -0.207867, -0.388606, -0.069236};
static const float * p_layer_0_bias = layer_0_bias;
static const float layer_1_weight[25][40] = {{0.161210, 0.000000, 0.000000, -0.180277, -0.386140, -0.000000, -0.410224, 0.129409, 0.000000, -0.000000, -0.000000, -0.379923, 0.092983, 0.242548, 0.147625, 0.087282, -0.351992, -0.213769, 0.379332, -0.458809, -0.312283, 0.390065, 0.288394, 0.000000, -0.009756, 0.214979, -0.000000, 0.000000, -0.000000, -0.381548, -0.300632, 0.000000, -0.583362, -0.293029, 0.005836, 0.270847, 0.052535, 0.019281, 0.062384, 0.260695}, {-0.107589, -0.000000, -0.000001, -0.198445, 0.309858, 0.000000, 0.452660, -0.578419, -0.000000, -0.000000, -0.000000, 0.364368, -0.263340, -0.189905, 0.164791, -0.541763, -0.463650, -0.000080, 0.108571, 0.196998, -0.087965, -0.126218, 0.102990, -0.000000, 0.300562, -0.337507, -0.000000, -0.000000, 0.000000, 0.183084, 0.238934, 0.000000, -0.321385, -0.520333, -0.476135, 0.035217, 0.507267, 0.474478, -0.681520, 0.747512}, {0.381772, -0.000001, -0.000000, -0.695498, -0.338513, -0.000000, 0.314477, 0.062198, -0.000000, -0.000000, -0.000000, -0.102237, 0.267959, 0.057384, 0.002206, -0.247576, -0.581629, -0.478194, -0.887840, -0.570478, -0.218843, 0.246048, -0.340891, -0.000000, -0.273145, 0.378492, 0.000000, -0.000000, 0.000000, -0.689069, -0.778489, -0.000000, -0.166253, 0.135476, 0.534445, -0.807879, 0.131988, 0.078182, -0.087201, 0.149364}, {-0.368403, -0.000000, -0.000000, 0.277649, 0.175107, -0.000000, -0.353301, -0.145907, -0.000000, -0.000000, -0.000000, -0.457511, 0.010168, 0.015077, 0.077214, 0.190087, -0.655768, 0.189115, 0.049314, 0.075060, -0.143180, 0.089127, 0.241124, -0.000000, -0.294838, -0.873744, -0.000000, -0.000000, 0.000000, 0.220104, 0.059968, -0.000000, 0.161775, -0.226030, 0.281920, -0.064428, 0.144779, 0.109892, 0.058932, -0.042110}, {-0.019610, 0.000000, 0.000000, 0.419271, -0.097268, 0.000000, -0.467782, -0.097029, -0.000000, -0.000000, -0.000000, 0.126774, 0.480073, 0.253836, 0.091784, 0.473325, 0.013496, 0.400982, -0.164228, 0.186982, -0.256590, -0.457957, 0.352011, -0.000000, -0.237243, -0.838748, -0.000000, 0.000000, 0.000000, 0.046132, 0.056833, -0.000000, 0.421620, 0.453926, -0.213145, -0.141732, -1.470090, 0.284324, -0.118953, 0.142643}, {-0.549317, -0.000000, 0.000000, 0.137914, -0.443489, -0.000000, 0.271421, 0.116401, 0.000000, -0.000000, -0.000000, -0.725899, 0.450581, -0.578504, 0.350971, -0.117365, 0.292631, -0.039644, 0.145594, -0.582746, -0.032843, 0.088419, 0.211614, -0.000000, 0.499313, -0.284134, -0.000000, -0.000000, -0.000000, -0.247114, -0.353588, -0.000000, 0.254301, 0.081984, 0.091449, -0.081648, 0.251036, 0.013233, -0.597524, 0.327623}, {-0.009813, 0.000000, 0.000000, -0.434900, 0.449802, -0.000000, -0.897286, 0.213794, 0.000000, 0.000000, -0.000000, 0.339762, 0.123795, -0.037746, 0.450724, -0.164123, 0.172890, -0.251390, -0.336749, 0.168917, 0.381574, -0.400631, 0.432556, -0.000000, -0.113129, -0.060470, -0.000000, -0.000000, -0.000000, 0.676198, 0.151632, 0.000000, 0.110114, -0.017178, 0.010435, 0.265199, -0.319087, -0.113956, -0.140449, 0.537769}, {-0.203567, 0.000000, 0.000000, 0.093902, -0.601359, -0.000000, -0.286836, 0.126216, -0.000000, -0.000000, 0.000000, 0.142460, -0.282945, 0.166308, 0.200619, 0.068132, -1.086125, 0.029831, -0.151318, 0.204268, -0.511875, 0.100934, 0.243194, -0.000000, -0.570077, 0.656764, -0.000000, 0.000000, -0.000000, 0.038927, -0.086403, -0.000000, 0.329039, 0.234006, 0.216686, -0.090794, -0.037844, 0.567428, 0.333316, -0.010307}, {-0.366258, -0.000000, -0.000000, 0.448561, -0.446677, -0.000000, -0.489472, -0.062414, 0.000000, -0.000000, -0.000000, -0.226638, -0.224706, 0.035524, 0.167554, 0.366320, -0.725553, 0.312913, 0.103436, 0.411787, -0.691527, 0.355220, -0.044895, 0.000000, -0.091936, -0.266000, -0.000000, -0.000000, 0.000000, 0.311076, -0.599245, -0.000000, -0.510954, 0.299199, 0.049399, -0.006160, -0.077724, 0.066774, -0.006988, 0.108582}, {0.162039, -0.000000, -0.000001, 0.426336, -0.203394, -0.000000, 0.426852, -1.063472, -0.000000, -0.000000, -0.000000, 0.356719, -0.452152, -0.376902, 0.229337, -0.010535, 0.076915, -0.499246, -1.489324, -0.377544, -0.544316, -0.501204, 0.080545, -0.000000, 0.269098, -0.895783, -0.000000, -0.000000, -0.000000, 0.465430, -0.217019, -0.000000, -0.326904, 0.054188, 0.675536, -0.493479, -0.339104, -0.195824, -0.682883, -0.171954}, {-0.266386, 0.000000, 0.000000, -0.174639, 0.255911, -0.000000, -0.092120, 0.271390, -0.000000, 0.000000, -0.000000, -0.756191, 0.114150, -0.419598, -0.936056, 0.499852, 0.129102, -0.118171, 0.112610, -0.021895, -0.169970, 0.290455, -0.237968, -0.000000, -0.044342, 0.175156, -0.000000, -0.000000, -0.000000, -0.451989, -0.211071, 0.000000, -0.311114, 0.348025, -0.001056, -0.063161, -0.566146, -0.142165, -0.171641, -0.065967}, {0.626573, -0.000000, -0.000000, -0.421352, 0.291450, -0.000000, 0.312007, -0.384601, -0.000000, -0.000000, -0.000000, -0.076898, -0.200305, 0.298447, 0.617359, -1.262440, 0.250405, 0.185743, -0.451913, 0.155290, -0.348986, 0.025927, -0.013623, -0.000000, 0.486041, -0.132840, 0.000000, -0.000000, 0.000000, 0.293160, 0.155729, 0.000000, -0.490376, -0.130061, 0.546585, -0.295397, 0.121011, 0.354325, -0.313771, 0.390914}, {-0.170265, 0.000000, -0.000000, 0.060310, -0.202534, -0.000000, 0.223448, -0.147343, 0.000000, -0.000000, -0.000000, -0.674035, -0.323822, 0.294862, 0.023588, -0.096731, 0.269247, 0.028021, 0.052138, 0.099234, 0.124449, -0.330156, -0.533575, 0.000000, -0.070890, -0.213301, -0.000000, 0.000000, 0.000000, -0.067230, -1.103692, 0.000000, -0.317195, -0.474941, 0.159510, 0.125008, 0.125660, 0.071346, -0.426144, 0.469368}, {0.073914, -0.000001, -0.000001, 0.236128, 0.468787, -0.000000, 0.058444, -0.025217, -0.000000, -0.000000, -0.000000, -0.881033, 0.489294, -0.877200, -0.107058, 0.000648, -0.249325, -0.399416, -0.439935, -0.717905, -0.268512, 0.223235, 0.176945, -0.000000, 0.526412, -0.180775, -0.000000, -0.000000, 0.000000, 0.068159, -0.194077, -0.000000, 0.065326, 0.007699, 0.339079, -0.756399, -0.023807, 0.008648, -0.360772, 0.402815}, {0.303287, 0.000000, -0.000000, -0.165962, 0.187785, 0.000000, 0.505245, 0.225120, -0.000000, -0.000000, -0.000000, -0.037178, -0.171078, -0.862960, -0.597652, -0.554213, -0.882594, -0.111753, -0.088427, -0.597623, -0.070722, -0.037707, 0.499240, -0.000000, 0.091281, -0.006673, -0.000000, -0.000000, 0.000000, -0.017357, 0.128111, 0.000000, 0.443473, -0.654280, 0.477072, -0.965397, 0.114319, 0.184143, -0.705379, -0.280483}, {0.469113, -0.000000, 0.000000, 0.231638, -0.576053, -0.000000, 0.051289, -0.100439, 0.000000, 0.000000, 0.000000, 0.071055, -1.261099, -0.136976, 0.027982, -0.126880, 0.071640, -0.376192, -0.355513, -0.751129, -0.884185, -0.468317, -0.277498, -0.000000, 0.215486, -0.986949, 0.000000, 0.000000, 0.000000, 0.192991, -0.281942, -0.000000, -0.286230, -0.547774, 0.381478, -0.054770, 0.041745, -0.376773, -0.509907, -0.064828}, {0.119890, 0.000000, 0.000000, -0.963505, 0.027751, -0.000000, -0.531800, 0.071924, -0.000000, -0.000000, -0.000000, 0.318982, 0.121888, -0.004877, 0.456326, -0.068635, -0.052027, -0.287192, 0.025214, -0.758328, 0.021703, 0.220315, 0.426061, -0.000000, -0.498864, 0.097690, -0.000000, 0.000000, 0.000000, 0.053283, 0.438985, -0.000000, -0.309611, 0.640492, -0.022718, -0.047730, -0.436913, -0.039483, 0.370970, 0.342469}, {-0.094409, -0.000000, 0.000000, -0.002672, 0.024287, -0.000000, -0.216082, 0.109606, -0.000000, -0.000000, -0.000000, -0.288486, 0.338441, -0.084665, 0.015210, 0.559445, 0.078687, -0.340317, -0.103776, -0.600970, 0.030107, -0.001782, 0.366318, 0.000000, -0.144456, -0.461777, -0.000000, 0.000000, 0.000000, -0.059031, -0.780867, -0.000000, 0.264117, 0.154504, 0.172081, -0.008864, -0.864662, 0.260338, 0.154890, -0.364794}, {-0.140571, -0.000000, -0.000000, -0.476366, -0.352152, 0.000000, -0.101794, -0.068558, -0.000000, -0.000000, 0.000000, -0.328539, 0.363327, -0.208573, 0.484606, 0.289155, -0.866934, 0.276731, -0.500110, -0.260640, -0.864229, 0.016343, 0.003569, 0.000000, 0.474786, 0.125289, -0.000000, -0.000000, -0.000000, -0.324667, -0.759874, -0.000000, 0.014183, -0.617887, 0.393584, -0.699881, 0.072998, 0.450217, 0.129225, 0.302631}, {-0.477698, 0.000000, 0.000000, 0.401598, 0.038853, 0.000000, 0.224272, -0.745441, 0.000000, 0.000000, -0.000000, -0.570010, 0.191558, 0.018648, -0.423116, -0.124790, 0.078788, -0.120911, -0.014834, 0.037056, -0.227439, 0.146036, -0.147167, -0.000000, 0.176903, -0.550894, -0.000000, -0.000000, 0.000000, -0.019742, 0.020469, -0.000000, 0.012753, -0.046318, 0.095429, -0.571768, -0.068657, 0.014830, -0.257681, -0.089941}, {0.558298, -0.000000, -0.000000, -0.471464, -0.316855, 0.000000, -0.033557, -0.562092, 0.000000, 0.000000, -0.000000, -0.027569, 0.194203, -0.468905, 0.538750, -0.210360, -0.109882, 0.235809, 0.173254, 0.227505, 0.264001, -0.355859, 0.370345, -0.000000, -0.108879, -0.141140, -0.000000, -0.000000, -0.000000, 0.013266, -0.770838, -0.000000, -0.228854, -0.021468, -0.072311, -0.112546, 0.179432, 0.065008, -0.063425, 0.161920}, {0.311354, 0.000000, 0.000000, 0.313854, -0.076115, -0.000000, -0.013740, -0.511970, -0.000000, 0.000000, -0.000000, 0.082322, -0.167411, 0.114878, -0.538792, -0.382851, -0.607893, 0.258283, 0.268733, 0.316969, 0.274937, 0.704211, -0.446087, 0.000000, -0.022685, -0.354186, -0.000000, -0.000000, -0.000000, -0.325589, 0.235005, -0.000000, -0.163014, 0.371082, -0.013570, 0.088528, -0.250502, 0.556616, -0.061678, -0.200925}, {-0.256036, -0.000000, 0.000000, -0.107705, -0.739137, 0.000000, -0.061810, 0.176977, -0.000000, -0.000000, -0.000000, 0.138379, 0.140611, -0.092864, 0.244532, -0.388656, 0.314228, 0.544268, 0.329095, 0.082273, -0.322267, -0.370556, -0.305665, -0.000000, 0.115103, -0.113682, 0.000000, -0.000000, -0.000000, -0.618748, -0.027668, 0.000000, -0.798628, -0.086481, -0.290657, -0.068284, 0.259746, 0.380777, -0.150958, 0.147823}, {0.036620, 0.000000, -0.000000, 0.318267, -0.308111, 0.000000, -0.548823, -1.019534, -0.000000, -0.000000, 0.000000, 0.200786, 0.406945, 0.108133, -0.266119, 0.445232, 0.105552, 0.080382, -0.071455, 0.365834, -0.252446, -0.295519, 0.157506, 0.000000, -0.031527, -0.489626, 0.000000, -0.000000, -0.000000, -0.077567, -0.190087, -0.000000, -0.211870, 0.370667, -0.424242, 0.055070, -0.245217, -0.048110, -0.118906, -0.306793}, {0.352229, -0.000001, -0.000001, -0.465424, 0.355638, 0.000000, 0.244819, -0.118019, -0.000000, 0.000000, 0.000000, -0.003365, 0.498927, -0.276371, 0.341584, -0.006333, -0.125704, -0.262974, -0.220759, -0.510112, 0.169716, -0.254162, 0.276595, 0.000000, -0.609852, 0.519099, 0.000000, 0.000000, -0.000000, -0.282841, -1.459571, 0.000000, -1.184880, -0.116945, 0.136522, -0.676424, -0.255358, -0.194843, -0.433504, 0.289739}};
static const float * p_layer_1_weight = layer_1_weight;
static const float layer_1_bias[40] = {-0.065277, -0.176203, -0.212705, -0.185155, -0.034697, -0.097122, -0.119868, 0.148171, -0.225998, -0.221488, -0.021157, 0.246984, -0.221387, 0.208655, -0.144858, -0.128766, 0.250956, 0.272147, 0.131930, 0.067664, 0.347259, -0.144697, -0.361036, -0.212684, 0.041371, -0.041620, -0.216525, -0.031519, -0.203781, 0.156063, 0.175179, -0.171306, 0.204638, -0.157156, -0.158263, 0.407948, 0.084929, -0.243452, 0.407517, -0.400151};
static const float * p_layer_1_bias = layer_1_bias;
static const float layer_2_weight[40][40] = {{-0.690200, -0.811106, -0.000000, -0.000000, -0.323705, 0.152206, -0.376266, 0.045015, -0.145006, -0.689176, -0.360446, 0.017337, -0.049285, 0.133922, 0.156890, -0.000000, 0.126145, -0.328704, -0.667114, -0.000000, -0.385444, -0.000000, -1.173381, -0.300400, 0.013452, 0.000000, -0.138936, -0.503604, 0.016945, -0.000000, -0.138504, -0.000000, -0.000000, -0.361875, -0.104686, -0.486190, 0.000000, 0.047489, -0.000000, -0.000000}, {0.000000, 0.000000, 0.000000, -0.000000, 0.000000, 0.000000, 0.000000, 0.000000, -0.000000, 0.000000, 0.000000, 0.000000, 0.000000, 0.000000, 0.000000, 0.000000, -0.000000, 0.000000, 0.000000, -0.000000, -0.000000, 0.000000, -0.000000, -0.000000, 0.000000, 0.000000, 0.000000, 0.000000, 0.000000, 0.000000, -0.000000, -0.000000, 0.000000, 0.000000, 0.000000, 0.000000, -0.000000, -0.000000, -0.000000, -0.000000}, {-0.000000, -0.000000, -0.000000, -0.000000, 0.000000, -0.000000, 0.000000, 0.000000, 0.000000, 0.000000, 0.000000, 0.000000, 0.000000, 0.000000, 0.000000, -0.000000, -0.000000, 0.000000, 0.000000, -0.000000, -0.000000, -0.000000, 0.000000, 0.000000, -0.000000, -0.000000, 0.000000, 0.000000, 0.000000, -0.000000, 0.000000, 0.000000, -0.000000, 0.000000, 0.000000, -0.000000, -0.000000, 0.000000, 0.000000, 0.000000}, {-0.345852, -0.237570, -0.000000, 0.000000, -0.231577, -0.252401, -0.900836, 0.020616, -0.073779, -0.033909, -0.503449, 0.109503, -0.460953, 0.377199, -0.205122, 0.000000, -0.232075, -0.433934, 0.164633, 0.000000, -0.593919, -0.000000, -0.572015, -0.423231, 0.211242, 0.000000, -0.640359, -0.740284, -0.226416, 0.000000, 0.053696, 0.000000, -0.000000, 0.426511, -0.113910, -0.262123, -0.000000, -0.063493, -0.000000, -0.000000}, {-0.280744, -0.146670, -0.000000, -0.000000, 0.079406, -0.140557, -0.219451, -0.225750, -0.474126, 0.263742, -0.298689, 0.048344, -0.173560, -0.050356, -0.716402, -0.000000, 0.162116, -0.354324, 0.187905, -0.000000, -0.201981, -0.000000, -0.038087, -1.041094, -0.450759, -0.000000, -0.610676, 0.269563, 0.288398, 0.000000, -0.022138, -0.000000, 0.000000, -0.601640, -0.260517, -0.140161, -0.000000, -0.055916, -0.000000, -0.000000}, {0.000000, 0.000000, 0.000000, -0.000000, 0.000000, 0.000000, 0.000000, 0.000000, -0.000000, 0.000000, 0.000000, 0.000000, -0.000000, -0.000000, -0.000000, 0.000000, 0.000000, -0.000000, 0.000000, -0.000000, -0.000000, 0.000000, -0.000000, -0.000000, -0.000000, 0.000000, -0.000000, -0.000000, 0.000000, 0.000000, -0.000000, 0.000000, -0.000000, 0.000000, 0.000000, 0.000000, -0.000000, 0.000000, -0.000000, 0.000000}, {-0.145681, -0.338527, -0.000000, -0.000000, 0.042887, -0.408525, 0.209755, -0.818464, 0.172974, 0.101624, -0.197137, 0.065655, -0.514526, -0.145714, 0.083995, 0.000000, -0.093143, -0.498470, 0.185765, 0.000000, -0.426407, -0.000000, -0.703965, 0.219379, -0.477671, -0.000000, -0.820586, -0.446847, -0.055962, -0.000000, 0.164452, -0.000000, -0.000000, 0.102291, 0.215449, -0.323505, -0.000000, -0.302381, -0.000001, -0.000000}, {0.077233, 0.157391, -0.000000, -0.000000, 0.145705, -0.738868, 0.055767, -0.012605, -0.155110, 0.191450, -0.605947, -0.001105, -0.778197, 0.397297, 0.137225, 0.000000, -0.654477, 0.329465, 0.048381, -0.000000, 0.407278, 0.000000, -0.231482, 0.168931, -0.146204, -0.000000, -0.160947, 0.002423, -0.031950, -0.000000, -0.125427, -0.000000, -0.000000, -1.003302, 0.262855, 0.295291, 0.000000, -0.195032, 0.000000, -0.000000}, {-0.000000, 0.000000, -0.000000, 0.000000, -0.000000, 0.000000, -0.000000, -0.000000, 0.000000, 0.000000, -0.000000, 0.000000, 0.000000, -0.000000, -0.000000, 0.000000, 0.000000, 0.000000, 0.000000, 0.000000, 0.000000, -0.000000, 0.000000, 0.000000, 0.000000, -0.000000, 0.000000, -0.000000, 0.000000, -0.000000, -0.000000, 0.000000, 0.000000, 0.000000, -0.000000, -0.000000, 0.000000, 0.000000, 0.000000, 0.000000}, {-0.000000, -0.000000, 0.000000, 0.000000, 0.000000, -0.000000, -0.000000, 0.000000, 0.000000, -0.000000, -0.000000, -0.000000, 0.000000, -0.000000, 0.000000, 0.000000, 0.000000, -0.000000, 0.000000, 0.000000, -0.000000, -0.000000, -0.000000, -0.000000, -0.000000, -0.000000, -0.000000, 0.000000, 0.000000, -0.000000, 0.000000, -0.000000, -0.000000, 0.000000, -0.000000, 0.000000, -0.000000, 0.000000, 0.000000, -0.000000}, {0.000000, -0.000000, -0.000000, -0.000000, -0.000000, 0.000000, 0.000000, -0.000000, -0.000000, 0.000000, 0.000000, 0.000000, 0.000000, -0.000000, -0.000000, 0.000000, 0.000000, -0.000000, -0.000000, -0.000000, -0.000000, -0.000000, -0.000000, 0.000000, 0.000000, -0.000000, -0.000000, -0.000000, -0.000000, 0.000000, 0.000000, 0.000000, -0.000000, -0.000000, -0.000000, -0.000000, 0.000000, -0.000000, 0.000000, 0.000000}, {-0.000424, -0.659221, -0.000000, 0.000000, -0.314112, -0.047004, -0.696374, 0.164587, -0.052275, -0.253054, 0.186117, -0.030039, -0.273505, -0.165310, 0.391175, -0.000000, 0.057265, -0.127204, -1.240457, 0.000000, -0.243876, 0.000000, -0.146478, -0.192728, -0.284634, 0.000000, 0.284749, 0.044789, -0.379785, -0.000000, -0.453090, -0.000000, -0.000000, -0.031360, -0.470901, -0.356457, 0.000000, -0.414653, -0.000001, -0.000000}, {-0.197653, -0.368509, -0.000000, -0.000000, -0.174694, -0.225465, -0.117791, 0.005648, -0.134120, -0.007653, -0.133093, -0.121161, -0.788700, -0.080931, -0.086419, -0.000000, -0.526464, -0.624124, -0.210888, -0.000000, -0.212099, -0.000000, -0.082611, -1.205788, -0.387586, -0.000000, -0.435826, 0.153539, 0.337642, -0.000000, -0.282318, -0.000000, -0.000000, -0.099981, -0.027206, -0.168595, -0.000000, 0.017901, -0.000000, -0.000000}, {0.255321, 0.226747, 0.000000, -0.000000, 0.046390, 0.142526, -0.318540, 0.049744, -0.304931, 0.383592, 0.250675, 0.334358, 0.023896, 0.067628, 0.118678, 0.000000, -0.574038, 0.129376, 0.194972, -0.000000, 0.089285, -0.000000, 0.088644, -0.305704, 0.212804, -0.000000, -0.230603, 0.138143, -1.124345, 0.000000, -0.752565, 0.000000, -0.000000, 0.038751, -0.293153, -0.133754, -0.000000, -0.229874, 0.000000, -0.000000}, {0.126712, -0.093078, -0.000000, 0.000000, -0.397812, 0.340757, -0.260698, 0.022524, -0.864492, -0.852692, 0.065342, -0.411893, -0.115436, 0.125675, 0.024872, -0.000000, -0.080209, -0.073465, -0.077846, 0.000000, -0.469258, -0.000000, -0.133601, -0.097092, 0.223020, 0.000000, 0.228024, -0.759202, 0.037135, 0.000000, 0.159434, 0.000000, -0.000000, -0.716521, 0.232664, 0.190118, -0.000000, 0.079583, -0.000001, 0.000000}, {-0.124980, -0.113124, 0.000000, 0.000000, -0.724616, -0.621617, 0.026709, 0.185949, 0.279423, 0.017916, 0.202032, -0.107703, -0.264411, -0.022676, 0.172807, -0.000000, -0.000885, 0.481314, -0.412438, -0.000000, 0.511830, 0.000000, 0.185327, 0.377193, -0.019054, -0.000000, 0.264209, -0.290520, 0.297379, -0.000000, -0.418877, -0.000000, 0.000000, 0.058234, 0.158233, -0.866327, -0.000000, 0.059767, -0.000000, 0.000000}, {-0.077771, -0.385510, -0.000000, 0.000000, 0.114936, 0.101921, -0.014505, 0.333501, -0.519754, -0.356773, 0.362933, -0.268274, 0.165283, -0.554089, 0.009954, -0.000000, 0.005438, -0.112601, -0.583187, -0.000000, -0.806805, -0.000000, -0.017386, 0.129946, -0.092985, 0.000000, -0.076902, 0.046303, 0.099854, 0.000000, -0.422921, -0.000000, 0.000000, 0.191005, 0.095013, 0.169014, -0.000000, 0.368084, -0.000000, -0.000000}, {-0.030443, 0.271393, -0.000000, -0.000000, -0.317150, -0.123609, 0.380464, -0.213807, 0.081030, 0.197963, 0.289704, 0.439654, 0.013421, -0.874673, -0.226066, -0.000000, -0.097331, 0.003080, -0.398523, -0.000000, -0.109611, 0.000000, 0.407832, 0.080039, 0.296225, -0.000000, 0.192996, -0.295036, -0.111540, -0.000000, 0.079792, -0.000000, -0.000000, 0.139966, 0.277075, -0.030360, -0.000000, 0.048851, -0.000000, -0.000000}, {-0.035771, 0.603668, 0.000000, -0.000000, -0.137022, -0.490365, 0.679167, 0.038128, -0.182144, -0.177954, 0.137728, 0.066019, -0.067457, -0.209345, -0.098469, -0.000000, -0.147021, 0.025545, 0.067296, 0.000000, 0.282355, 0.000000, 0.450062, -0.030345, -0.590809, 0.000000, 0.565945, -0.343499, 0.079287, 0.000000, -0.151348, -0.000000, -0.000000, 0.132738, 0.180281, -0.210159, 0.000000, -0.730793, -0.000000, -0.000000}, {0.261060, 0.212473, 0.000000, -0.000000, -0.344223, -0.174823, -0.154385, -0.354938, -0.596292, 0.377059, 0.459093, 0.174112, 0.320986, 0.124588, -0.114202, -0.000000, -0.506776, 0.555357, -0.305682, -0.000000, 0.273749, -0.000000, 0.376120, -0.211505, 0.456331, 0.000000, 0.359274, -0.704793, -0.665018, 0.000000, -0.420765, -0.000000, -0.000000, -0.010246, 0.047630, 0.606327, 0.000000, -0.418305, -0.000000, -0.000000}, {-0.258130, -0.268360, -0.000000, 0.000000, 0.157983, -0.494551, 0.116662, -0.474838, -0.373412, 0.155226, -0.080733, -0.303347, -0.210869, 0.183773, -0.128511, -0.000000, 0.306229, 0.295245, 0.273584, -0.000000, -0.050942, 0.000000, -0.243680, -0.232588, -0.659756, -0.000000, -0.111881, 0.041332, -0.166609, -0.000000, -0.122765, -0.000000, 0.000000, 0.363258, 0.405298, 0.317586, 0.000000, 0.182959, -0.000001, -0.000000}, {0.501952, -0.189586, 0.000000, 0.000000, 0.442895, -0.433177, 0.138039, 0.289788, -0.175477, -0.723533, -0.454781, -0.317208, -0.141408, -0.124974, -0.775332, 0.000000, 0.118339, -0.335041, 0.061000, 0.000000, -0.111660, 0.000000, 0.031512, -0.226388, -0.217806, -0.000000, -0.647592, -0.448235, -0.237636, 0.000000, 0.345787, 0.000000, -0.000000, -0.544532, 0.220588, 0.021014, -0.000000, -0.095756, -0.000000, 0.000000}, {-0.360178, -0.250081, -0.000000, -0.000000, -0.402533, -0.356799, -0.146969, 0.156001, -0.091490, -0.070167, -0.275492, -0.237876, -0.329966, -0.008979, 0.192881, -0.000000, -0.625310, -0.063827, 0.263004, 0.000000, -0.479539, -0.000000, 0.410519, 0.225599, -0.134016, 0.000000, 0.365560, -0.235435, -0.724023, 0.000000, -0.810719, 0.000000, 0.000000, -0.176752, 0.505486, 0.019014, -0.000000, -0.078109, -0.000001, 0.000000}, {0.000000, 0.000000, 0.000000, -0.000000, -0.000000, 0.000000, -0.000000, 0.000000, 0.000000, -0.000000, -0.000000, 0.000000, -0.000000, -0.000000, 0.000000, 0.000000, 0.000000, -0.000000, -0.000000, -0.000000, -0.000000, 0.000000, -0.000000, 0.000000, -0.000000, -0.000000, 0.000000, -0.000000, 0.000000, -0.000000, -0.000000, 0.000000, 0.000000, -0.000000, -0.000000, 0.000000, 0.000000, 0.000000, -0.000000, -0.000000}, {-0.718083, 0.040970, -0.000000, -0.000000, -0.647581, 0.148531, -0.294545, -0.102362, -0.182023, -0.143354, 0.034288, 0.149771, 0.134264, -0.690036, 0.009440, 0.000000, -0.023494, -0.221051, -0.278687, -0.000000, -0.073447, 0.000000, -0.650089, -0.291733, 0.006620, -0.000000, 0.059693, -0.117799, 0.082899, -0.000000, 0.358126, -0.000000, -0.000000, -0.850892, -0.094679, -0.073276, -0.000000, 0.188950, -0.000000, -0.000000}, {-0.675027, -0.580685, -0.000000, -0.000000, -0.661680, 0.063757, -0.369825, 0.129709, -0.066124, -0.462453, -0.076990, -0.620260, -0.231457, -0.687008, -0.221388, -0.000000, -0.418005, -0.515956, -0.364884, -0.000000, 0.250139, -0.000000, -0.214713, -0.196972, -0.727971, 0.000000, 0.002504, -0.562417, 0.038753, -0.000000, -0.254850, 0.000000, -0.000000, -0.802545, -1.087034, -0.406511, -0.000000, -0.342024, -0.000000, -0.000000}, {0.000000, -0.000000, -0.000000, -0.000000, -0.000000, -0.000000, -0.000000, -0.000000, -0.000000, -0.000000, -0.000000, -0.000000, -0.000000, 0.000000, -0.000000, -0.000000, 0.000000, -0.000000, -0.000000, 0.000000, -0.000000, -0.000000, 0.000000, 0.000000, 0.000000, 0.000000, 0.000000, 0.000000, -0.000000, -0.000000, -0.000000, -0.000000, -0.000000, -0.000000, -0.000000, -0.000000, -0.000000, 0.000000, -0.000000, 0.000000}, {0.000000, -0.000000, 0.000000, -0.000000, 0.000000, 0.000000, -0.000000, -0.000000, -0.000000, -0.000000, -0.000000, -0.000000, -0.000000, 0.000000, -0.000000, 0.000000, -0.000000, -0.000000, 0.000000, -0.000000, -0.000000, 0.000000, -0.000000, -0.000000, -0.000000, -0.000000, 0.000000, 0.000000, -0.000000, -0.000000, 0.000000, 0.000000, -0.000000, -0.000000, 0.000000, -0.000000, -0.000000, -0.000000, -0.000000, -0.000000}, {0.000000, -0.000000, -0.000000, 0.000000, -0.000000, 0.000000, -0.000000, -0.000000, 0.000000, -0.000000, 0.000000, 0.000000, 0.000000, 0.000000, 0.000000, -0.000000, 0.000000, 0.000000, 0.000000, 0.000000, -0.000000, 0.000000, -0.000000, 0.000000, -0.000000, 0.000000, -0.000000, -0.000000, 0.000000, 0.000000, 0.000000, 0.000000, -0.000000, -0.000000, -0.000000, 0.000000, -0.000000, -0.000000, -0.000000, 0.000000}, {-0.588335, -0.006941, -0.000000, 0.000000, 0.184165, 0.068398, -0.617204, -0.583131, 0.051018, -0.250708, -0.413767, -0.163265, -0.402491, -0.162995, 0.262198, -0.000000, -0.166160, 0.016398, 0.262442, 0.000000, 0.090568, -0.000000, 0.157711, -0.001641, 0.396407, -0.000000, 0.336510, 0.339341, -0.535673, -0.000000, -0.165345, -0.000000, 0.000000, -0.393433, -0.082590, 0.037150, -0.000000, -0.267457, -0.000000, -0.000000}, {-0.396065, 0.139087, 0.000000, 0.000000, 0.054248, -0.719789, 0.101117, -0.626855, 0.433290, -0.051980, 0.506218, -0.126600, -0.069993, -0.631699, -0.005935, -0.000000, -0.216631, 0.457806, -0.880802, -0.000000, 0.272253, -0.000000, 0.029442, -0.710807, 0.212335, -0.000000, -0.039865, 0.088984, 0.376873, 0.000000, -0.248382, 0.000000, -0.000000, 0.248442, -0.003185, -0.003853, -0.000000, -0.232944, 0.000000, 0.000000}, {-0.000000, -0.000000, 0.000000, -0.000000, 0.000000, -0.000000, -0.000000, -0.000000, -0.000000, -0.000000, -0.000000, 0.000000, -0.000000, -0.000000, 0.000000, 0.000000, -0.000000, 0.000000, 0.000000, 0.000000, -0.000000, -0.000000, 0.000000, 0.000000, -0.000000, 0.000000, 0.000000, 0.000000, 0.000000, -0.000000, -0.000000, 0.000000, 0.000000, 0.000000, -0.000000, -0.000000, 0.000000, 0.000000, -0.000000, -0.000000}, {-0.640184, 0.249120, 0.000000, -0.000000, -0.384219, -0.181874, -0.116841, 0.106681, -0.347175, 0.216473, 0.404137, 0.237564, -0.288996, -0.227638, -0.009685, -0.000000, -0.782987, 0.308772, 0.138086, -0.000000, -0.332482, -0.000000, 0.422144, 0.288473, 0.244980, -0.000000, -0.140212, 0.307042, -0.362366, -0.000000, 0.021884, -0.000000, 0.000000, 0.250110, -0.562406, 0.049413, 0.000000, -0.555947, -0.000000, -0.000000}, {0.237729, -0.427366, -0.000000, -0.000000, 0.164607, -0.326840, 0.128095, 0.633532, 0.152132, 0.339980, 0.135524, 0.276698, -0.744028, 0.034076, -0.125829, -0.000000, -0.414322, 0.102931, -0.295000, -0.000000, -0.184077, -0.000000, -0.074466, 0.399707, 0.214914, 0.000000, 0.166223, 0.256939, 0.101769, -0.000000, 0.106588, -0.000000, 0.000000, -0.043611, 0.121886, -0.204086, 0.000000, 0.317205, -0.000000, -0.000000}, {-0.220816, -0.200223, -0.000000, -0.000000, -0.025511, 0.085155, -0.274830, 0.028386, -0.190627, -0.703829, -0.357724, -0.635381, -0.097443, 0.114552, -0.309127, -0.000000, -0.824087, -1.057371, -0.092716, -0.000000, -0.017800, 0.000000, 0.027220, -0.061841, 0.039740, -0.000000, -0.070412, -0.238953, -0.141933, -0.000000, -0.201828, 0.000000, -0.000000, -0.055503, 0.015016, -0.086680, -0.000000, -0.513938, -0.000001, 0.000000}, {0.175730, 0.155163, -0.000000, -0.000000, 0.315496, -0.214369, -0.080228, -0.558260, -0.749905, 0.062023, 0.407508, -0.280855, 0.374417, -0.047971, 0.494054, -0.000000, -0.052206, 0.362521, 0.214489, -0.000000, 0.333242, -0.000000, -0.041568, -0.391321, -0.826663, 0.000000, -0.042546, 0.273246, -0.121056, 0.000000, -0.202286, -0.000000, -0.000000, -0.229769, -0.136600, -0.229074, -0.000000, -0.051749, -0.000000, 0.000000}, {0.294302, 0.068544, 0.000000, 0.000000, -1.154299, 0.289002, 0.078727, -0.681987, 0.239112, 0.160340, 0.231954, 0.170916, -0.226599, -0.201189, -0.290589, -0.000000, 0.236206, -0.236921, -0.287108, -0.000000, 0.227393, -0.000000, -0.103715, 0.247881, 0.206986, -0.000000, -0.065917, 0.016488, -0.048472, 0.000000, 0.324027, -0.000000, -0.000000, -0.189099, -0.040164, -0.461532, 0.000000, 0.156752, 0.000000, -0.000000}, {-0.035194, 0.157893, 0.000000, 0.000000, 0.215071, 0.163980, -0.187643, 0.250781, -0.257878, 0.129318, 0.392344, 0.109435, -0.286797, -0.566901, -0.659862, -0.000000, 0.104897, -0.186548, -0.056014, -0.000000, -0.079305, -0.000000, 0.060756, -0.215523, 0.032741, 0.000000, 0.105333, -0.107337, 0.043656, 0.000000, 0.220540, -0.000000, -0.000000, -0.148224, 0.245155, -0.305821, 0.000000, -0.671904, 0.000000, -0.000000}, {0.004875, 0.253759, 0.000000, -0.000000, 0.266177, 0.289107, 0.232709, -0.480694, 0.256816, 0.193945, 0.126854, 0.065787, 0.031231, 0.070384, 0.361480, -0.000000, -0.550475, 0.113772, -0.215120, -0.000000, -0.751293, -0.000000, 0.097752, -0.025668, -0.833215, -0.000000, -0.046086, 0.085129, -0.865850, 0.000000, -0.247821, -0.000000, -0.000000, 0.042840, 0.221924, -0.280989, 0.000000, 0.193064, -0.000000, 0.000000}, {-0.487955, -0.185735, -0.000000, -0.000000, -0.424581, 0.274703, -0.372482, 0.196240, 0.310311, -0.461750, -0.397475, -0.704605, -0.438853, -0.577222, -0.708152, -0.000000, -0.024943, 0.081766, 0.121244, -0.000000, -0.285480, -0.000000, -0.765692, -0.580342, 0.155622, 0.000000, 0.414162, 0.236184, 0.512710, 0.000000, 0.003908, -0.000000, -0.000000, -0.182226, 0.022725, -0.187812, -0.000000, -0.197294, -0.000000, -0.000000}};
static const float * p_layer_2_weight = layer_2_weight;
static const float layer_2_bias[40] = {0.125184, 0.007620, -0.140877, -0.139122, -0.037881, 0.022702, 0.257490, 0.113158, 0.420661, 0.095762, 0.042742, 0.139540, 0.367319, 0.212234, 0.067793, -0.111440, 0.260836, 0.155500, 0.236228, -0.158905, 0.169371, -0.151374, -0.026469, 0.225565, 0.037984, -0.098639, -0.034850, 0.068456, 0.013747, -0.156771, 0.149820, -0.127181, -0.154865, 0.143748, -0.102954, 0.267455, -0.108001, 0.337571, -0.022230, -0.076120};
static const float * p_layer_2_bias = layer_2_bias;
static const float layer_3_weight[40][40] = {{-0.058445, 0.767622, -0.085447, 0.058189, -0.414543, -0.248408, -0.315499, -0.417820, 0.384682, -0.048974, 0.190964, -0.237737, -0.641575, 0.732613, 0.294279, 0.434172, -0.514716, -0.632192, -0.188629, 0.923796, -0.014530, 0.395035, -0.169827, 0.614101, 1.648615, 0.320541, -0.398121, -0.770627, 0.691493, -0.414507, 0.253046, -0.281945, -0.491973, 0.135300, -0.385597, -0.713751, -0.554530, -0.348490, -0.085343, -0.650584}, {0.057792, -0.236427, -0.565425, -0.704155, -0.488224, 0.617103, -0.532715, -0.173956, 0.259324, -0.119233, -0.379086, 0.065506, -0.588453, -0.556493, 0.583975, 0.468947, -0.718346, -0.137546, 0.079716, -0.321335, 0.211807, 0.851719, -0.410707, -0.212544, -0.508197, 0.244832, 0.201448, -0.694342, 0.159274, 0.064011, -0.208744, -0.553249, 0.296917, -0.561586, 0.271390, 0.269378, 0.078678, -0.472683, -0.071546, -0.752619}, {0.000000, -0.000000, 0.000000, 0.000000, 0.000000, 0.000000, -0.000000, -0.000000, 0.000000, -0.000001, -0.000000, -0.000000, 0.000000, -0.000000, -0.000000, 0.000000, 0.000000, 0.000000, -0.000000, -0.000000, -0.000000, 0.000000, -0.000000, -0.000000, 0.000000, 0.000000, -0.000000, -0.000000, 0.000000, -0.000000, -0.000000, -0.000000, -0.000000, 0.000000, -0.000000, 0.000000, -0.000000, 0.000000, -0.000000, -0.000000}, {0.000000, -0.000000, -0.000000, 0.000000, -0.000000, -0.000000, -0.000000, 0.000000, 0.000000, 0.000000, -0.000000, 0.000000, 0.000000, -0.000000, -0.000000, -0.000000, 0.000000, 0.000000, -0.000000, 0.000000, 0.000000, -0.000000, 0.000000, -0.000000, -0.000000, -0.000000, -0.000000, 0.000000, -0.000000, -0.000000, -0.000000, -0.000000, -0.000000, -0.000000, 0.000000, 0.000000, 0.000000, -0.000000, 0.000000, 0.000000}, {0.175053, -0.126150, 0.370593, 0.191735, 0.107925, 0.124699, -0.535497, 0.508081, -0.363404, 0.375324, -0.312525, 0.202913, -0.071350, -0.103831, 0.243085, 0.659212, 0.234474, 0.247823, 0.066969, -0.085609, 0.256197, -0.313620, 0.591875, -0.151323, -0.437818, -0.530095, -0.108071, -0.176911, -0.005631, -0.274870, 0.180489, 0.091868, 0.724586, -0.072417, -0.229428, 0.431474, 0.440134, -1.016012, 0.569590, 0.367854}, {-0.034836, 0.511886, 0.042600, -0.355466, 0.277958, -0.079275, 0.075961, 0.094906, 0.006058, 0.047896, 0.229863, -0.228743, -0.098775, 0.214792, 0.209919, -0.222282, -0.363824, -0.063616, 0.084586, 0.350288, -0.147454, -0.140881, 0.077609, -0.113824, 0.021978, -0.033550, 0.043877, 0.292522, -0.867299, 0.568605, 0.010140, 0.011581, 0.036444, 0.004641, -0.187431, -0.298944, 0.463430, 0.277904, -0.067620, -0.443824}, {0.092090, 0.750213, -0.051335, 0.261339, -0.115044, 0.122639, 0.236454, -0.117864, -0.122274, -0.274097, 0.079182, -0.352775, -0.074351, 0.271961, 0.216579, 0.044972, -0.127407, 0.223713, -0.571520, 0.429287, -0.304036, -0.439116, -0.020437, -0.091048, 0.237302, -0.063218, -0.216780, -0.041307, 0.398813, -0.767336, 0.653050, -0.078946, -0.249351, 0.079717, -0.939688, -0.093274, 0.224674, -0.252998, -0.144077, -0.181155}, {-0.026913, -0.178800, -0.044112, -0.044263, -0.636732, 0.008941, -0.124356, -0.498626, 0.382351, 0.191788, 0.072902, -0.282129, 0.142114, -0.049179, -0.446503, -0.125771, 0.163439, -0.062940, 0.022718, 0.012868, 0.072773, 0.106449, 0.106981, 0.119924, -0.094635, -0.069445, 0.527408, -0.600379, -0.043333, 0.624457, -0.725845, -0.065494, -0.016101, -0.102313, 0.610207, -0.305800, -0.031434, 0.374119, 0.037163, -0.141844}, {-0.063988, 0.259502, 0.075445, 0.172185, 0.161944, -0.136495, 0.588451, -0.247519, 0.357831, -0.286647, -0.747484, 0.292726, -0.578967, 0.093323, 0.178506, -0.429335, -0.125829, -0.490018, -0.676770, 0.095774, -0.208964, -0.346942, -0.069186, -0.264673, 0.812706, -0.002121, 0.375656, 0.447232, -0.148507, -0.178638, -0.502370, -0.185328, -0.140180, 0.023693, 0.355776, -0.035234, 0.531380, 0.246996, 0.435002, -0.159677}, {-0.000821, 0.442491, 0.288948, 0.002185, -1.083246, -0.172673, -0.569165, -0.527152, 0.047497, 0.626762, -0.309953, 0.011618, -0.232352, 0.155236, -0.153789, 0.398635, 0.096757, -0.173342, -0.412920, 0.571357, 0.251980, 0.245277, 0.119468, -0.345009, -0.115607, 0.071670, -0.196335, -0.625977, 0.020742, 0.159401, 0.020798, 0.333757, -0.046023, -0.163989, -0.468504, -0.292165, 0.197392, -0.623975, 0.089971, -0.029258}, {-0.106078, -0.202285, 0.083956, 0.134156, 0.258436, -0.051836, -0.446567, 0.163649, 0.387650, 0.776115, -0.349930, -0.425662, 0.047681, 0.128339, -0.705953, 0.153606, -0.087811, -0.591542, -0.391885, 0.181978, 0.064898, -0.718722, 0.204021, 0.179314, 0.479765, 0.143105, 0.338003, 0.003090, -0.056922, 0.175536, -0.394918, 0.016643, -0.086580, -0.325296, 0.358666, -0.227653, 0.006367, -0.294790, 0.109854, -0.174632}, {0.118645, 0.505235, -0.097234, 0.246358, -0.601808, 0.079910, 0.020623, -0.366208, 0.259044, 0.187954, 0.247245, 0.019451, -0.163433, 0.557812, 0.042121, -0.216575, 0.455367, -0.103078, 0.113831, 0.502281, 0.671483, 0.093631, 0.350249, 0.471816, -0.164188, -0.165648, -0.173202, -0.169672, -0.328721, 0.343797, -0.536826, 0.152898, -0.421041, -0.201127, 0.195842, -0.253083, -0.092040, 0.007465, 0.411534, 0.044354}, {0.113514, 0.069299, -0.229508, -0.188267, 0.367564, 0.202300, -0.316849, 0.356253, 0.016134, 0.558368, -0.157248, -0.085385, -0.158369, -0.348369, -0.050581, -0.219922, -0.156133, 0.195944, 0.145992, -0.140535, 0.207223, -0.274204, 0.372715, 0.152805, -0.418820, -0.504919, 0.130475, 0.307326, -0.487687, 0.203480, -0.315067, 0.463047, 0.463162, -0.510579, 0.122489, 0.159652, -0.032964, -0.142702, 0.158369, -0.262485}, {-0.028702, -0.205205, 0.164078, 0.261042, -0.197814, -0.126393, -0.166493, -0.659200, 0.376672, 0.150870, 0.159639, 0.139892, -0.465218, -0.453406, -0.029373, 0.022483, -0.016677, 0.010157, -0.102752, -0.143892, -0.067454, 0.084751, 0.636616, 0.184547, 0.318999, -0.656172, -0.548457, -0.579252, 0.284127, 0.434281, 0.291978, -0.008434, 0.751933, -0.032341, -0.179333, -0.155315, -0.824866, 0.261526, 0.053856, 0.068282}, {0.039850, -0.012987, -0.090755, -0.494427, 0.048541, 0.074965, -0.445247, -0.085444, -0.156678, 0.287854, 0.346838, -0.023711, -0.236158, -0.448472, -0.215946, 0.230809, -0.674487, 0.013126, 0.104958, -0.118829, 0.030630, -0.053624, -0.432303, -0.469933, 0.687146, 0.014920, 0.228198, -0.162498, -0.001981, -0.198405, -0.335881, -0.062774, 0.434501, 0.636382, 0.251081, -0.606163, 0.011366, -0.369420, -0.504489, -0.456580}, {0.000000, 0.000000, 0.000000, -0.000000, -0.000000, -0.000000, 0.000000, -0.000000, 0.000000, -0.000000, 0.000000, 0.000000, -0.000001, -0.000000, -0.000000, 0.000000, 0.000000, 0.000000, -0.000000, 0.000000, -0.000000, -0.000000, 0.000000, -0.000000, 0.000000, 0.000000, -0.000000, -0.000000, -0.000000, -0.000000, 0.000000, 0.000000, -0.000000, -0.000000, -0.000000, 0.000000, -0.000000, -0.000000, -0.000000, -0.000000}, {-0.032900, 0.605926, 0.081490, 0.162476, 0.357892, -0.069550, 0.359956, 0.388390, -0.598280, -0.028953, 0.198405, -0.077199, -0.106888, 0.493967, 0.186130, -0.399551, 0.209649, 0.517927, 0.553974, 0.441346, 0.070105, -0.069427, -0.072753, 0.306531, 0.219933, -0.140969, -0.430562, 0.609200, -0.236958, -0.492313, -0.468313, 0.002567, -0.562262, 0.219765, 0.083525, 0.102183, 0.050561, -0.286366, 0.086147, 0.006490}, {-0.061242, -0.754911, 0.338538, -0.102646, 0.078562, -0.395885, -0.624247, 0.457212, -0.376936, 0.567682, -0.108934, -0.659826, 0.494980, -0.048654, -0.290910, 0.268227, 0.003300, 0.298331, 0.515640, 0.043256, -0.535649, 0.161316, -0.033804, 0.199847, -0.420725, 0.095197, 0.034181, -0.100709, 0.089764, -0.134328, 0.239223, -0.219100, -0.130859, -0.058503, -0.062016, 0.480148, 0.192251, -0.793000, -0.131754, 0.104325}, {0.053739, -0.175620, 0.048495, -0.101896, -1.445419, -0.125402, 0.054503, -0.503268, -0.115509, -0.060638, -0.064979, 0.092650, 0.125550, -0.108317, -0.418384, 0.076168, 0.233169, 0.243882, -0.060554, 0.022540, 0.217059, 0.923873, -0.115767, -0.078710, 0.025043, 0.128929, 0.308976, -0.532628, 0.041184, -0.045927, -0.314217, 0.102013, -0.132904, 0.048696, 0.245993, -0.080858, 0.027304, -0.092492, -0.122266, 0.112609}, {-0.000000, -0.000000, 0.000000, 0.000000, 0.000000, -0.000000, 0.000000, -0.000000, 0.000000, -0.000000, -0.000000, 0.000000, 0.000000, -0.000000, -0.000000, 0.000000, -0.000000, 0.000000, -0.000000, 0.000000, 0.000000, 0.000000, 0.000000, -0.000000, 0.000000, 0.000000, -0.000000, 0.000000, 0.000000, -0.000000, 0.000000, -0.000000, -0.000000, 0.000000, -0.000000, -0.000000, -0.000000, -0.000000, -0.000000, 0.000000}, {-0.031297, -0.434351, 0.296407, -0.310008, -0.348216, -0.283333, -0.380032, -0.108281, -0.108634, 0.603460, -0.127272, 1.533030, -0.340292, -0.428373, 0.875089, 0.349170, 0.115641, -0.476625, 0.323457, -1.169153, 0.440592, 0.691356, -0.503337, -0.464202, 0.158172, 0.413866, 0.446683, -0.287982, 0.050207, -0.061794, -0.332474, 0.376051, 0.143679, 0.930996, 0.828681, 0.195794, 0.138978, -0.121093, 0.488039, 0.478980}, {0.000000, -0.000000, 0.000000, -0.000000, 0.000000, 0.000000, 0.000000, 0.000000, 0.000000, 0.000000, -0.000000, 0.000000, 0.000000, 0.000000, 0.000000, -0.000000, 0.000000, -0.000000, -0.000000, -0.000000, 0.000000, -0.000000, -0.000000, -0.000000, -0.000000, 0.000000, 0.000000, 0.000000, -0.000000, -0.000000, -0.000000, 0.000000, -0.000000, 0.000000, -0.000000, -0.000000, -0.000000, 0.000000, -0.000000, 0.000000}, {0.150087, -0.061204, -0.013479, 0.036646, -0.335620, 0.106913, -0.350337, -0.231367, -0.189904, 0.272080, 1.077313, -0.117275, -0.327139, -0.055054, 0.655735, 0.122247, -0.298311, 0.656245, 0.800052, -0.294564, -0.380270, 0.690194, 0.162695, 0.236066, 0.579112, -0.651887, -0.377247, -0.668762, 0.134136, -0.095358, 0.321809, -0.711106, 0.518728, 0.666822, -0.041043, -0.223165, -0.483496, -0.297518, -0.291923, -0.245542}, {-0.128596, -0.015031, 0.218073, -0.086529, 0.022772, -0.192991, 0.034971, -0.054773, 0.110407, 0.036889, -0.053932, 0.135718, 0.449632, 0.102477, 0.268985, 0.070943, 0.072117, -0.220704, -0.117948, -0.119678, -0.557084, -0.060310, 0.950394, -0.576302, -0.280398, -0.386604, 0.558347, -0.144266, -0.143995, 0.220714, 0.770969, 0.246396, 0.753884, -0.384207, -0.448767, -0.265632, 0.893231, -0.059752, 0.253548, 0.296359}, {0.011304, -0.223538, 0.075161, -0.373509, -0.084166, -0.032127, 0.302501, -0.033475, -0.297437, -0.141706, 0.287183, 0.152888, -0.224002, -0.276569, 0.075446, -0.171867, -0.104805, 0.048737, 0.197643, -0.159046, 0.051140, 0.061403, 0.155501, -0.345436, 0.195069, -0.072722, 0.106701, 0.295235, -1.510588, 0.981391, 0.338628, 0.029412, 0.230761, 0.295141, -0.210627, 0.114612, 0.459475, 0.284600, -0.105640, 0.057243}, {-0.000000, 0.000000, -0.000000, 0.000000, 0.000000, -0.000000, 0.000000, 0.000000, -0.000000, 0.000000, 0.000000, 0.000000, -0.000000, -0.000000, 0.000000, 0.000000, -0.000000, -0.000000, 0.000000, 0.000000, -0.000000, 0.000000, -0.000000, 0.000000, -0.000000, -0.000000, 0.000000, -0.000000, -0.000000, 0.000000, -0.000000, -0.000000, 0.000000, -0.000000, -0.000000, -0.000000, 0.000000, -0.000000, -0.000000, 0.000000}, {0.015946, 0.341980, 0.016086, -0.523258, -0.298115, -0.010408, -0.263204, -0.300073, 0.022813, 0.602606, 0.383125, 0.170148, 0.324040, 0.282145, -0.004120, 0.069003, 0.048040, -0.209564, 0.210045, 0.145032, 0.133623, 0.633848, -0.318759, -0.411079, -0.226876, 0.531605, -0.057546, -0.176037, -0.027889, 0.388847, -0.009463, 0.120400, -0.158926, 0.042903, -0.029362, -0.735243, 0.006835, -0.006634, -0.423154, 0.052395}, {-0.099888, 0.417265, -0.170674, -0.163518, -0.035679, 0.116262, -0.244498, 0.274931, -0.155189, 0.525802, -0.504440, -0.110891, -0.668898, -0.002700, 0.694074, -0.155811, -0.243261, 0.302206, 0.059503, 0.221656, 0.007233, 0.575152, -0.168419, 0.446055, -0.040583, -0.036443, -0.236310, 0.120973, -0.048644, -0.289866, -0.045064, -0.046064, -0.337929, -0.227394, -0.150475, 0.600492, 0.134860, -0.266408, 0.419033, -0.509061}, {-0.029891, -0.182982, 0.044964, -0.829966, 0.191105, -0.038758, -0.082404, 0.143973, 0.142216, -0.060848, -0.104382, -0.973064, -0.140344, -0.679675, -0.135387, -0.058826, -0.809259, 0.290736, 0.174616, 0.019487, -0.147717, 0.145389, 0.012907, 0.169198, -0.064703, -0.176860, 0.246666, 0.068172, -0.045499, 0.059588, -0.060456, 0.118642, 0.359161, -0.312210, 0.005954, -0.049801, -0.020395, 0.291770, -0.331531, -0.888541}, {0.000000, -0.000000, 0.000000, -0.000000, -0.000000, 0.000000, -0.000000, -0.000000, 0.000000, -0.000000, -0.000000, 0.000000, 0.000000, -0.000000, 0.000000, -0.000000, 0.000000, -0.000000, -0.000000, 0.000000, 0.000000, 0.000000, 0.000000, -0.000000, -0.000000, 0.000000, -0.000000, -0.000000, 0.000000, -0.000000, 0.000000, -0.000000, -0.000000, -0.000000, -0.000000, 0.000000, 0.000000, -0.000000, -0.000000, -0.000000}, {0.053724, -0.096888, 0.028667, -0.105745, -0.209075, 0.003389, 0.360695, -0.058549, -0.492882, -0.327324, 0.115827, -0.236681, 0.270932, -0.138849, -0.220699, -0.129198, 0.070574, 0.642122, 0.063224, -0.063016, -0.431951, 0.114059, 0.269457, -0.640530, -0.010100, -0.419493, 0.304608, 0.161962, -0.147611, -0.237752, -0.011525, -0.055481, 0.405235, 0.111474, -0.046721, -0.164440, 0.544295, -0.229623, -0.195426, 0.136176}, {-0.000000, 0.000000, 0.000000, -0.000000, 0.000000, -0.000000, -0.000000, -0.000000, 0.000000, -0.000000, -0.000000, 0.000000, -0.000000, -0.000000, 0.000000, -0.000000, -0.000000, 0.000000, -0.000000, -0.000000, -0.000000, 0.000000, 0.000000, 0.000000, -0.000000, 0.000000, -0.000000, -0.000000, -0.000000, 0.000000, -0.000000, -0.000000, 0.000000, -0.000000, -0.000000, 0.000000, -0.000000, 0.000000, 0.000000, 0.000000}, {-0.000000, -0.000000, -0.000000, -0.000000, -0.000000, 0.000000, 0.000000, 0.000000, -0.000000, -0.000000, 0.000000, 0.000000, 0.000000, -0.000000, -0.000000, -0.000000, -0.000000, 0.000000, -0.000000, -0.000000, 0.000000, -0.000000, -0.000000, 0.000000, 0.000000, 0.000000, 0.000000, -0.000000, -0.000000, -0.000000, -0.000000, 0.000000, 0.000000, -0.000000, -0.000000, 0.000000, -0.000000, -0.000000, -0.000000, -0.000000}, {0.114349, -0.223394, -0.632803, 0.791883, -0.350266, 0.464813, -0.014635, -0.395307, 0.005054, 0.610287, 0.607004, 0.032728, 0.173882, -0.007248, 0.052646, -0.099591, 0.365310, 0.208864, -0.460724, -0.557210, -0.456370, -0.879461, 0.100900, -0.174654, -0.318849, -0.209859, -0.179901, -0.271658, -0.038099, 0.002143, 1.115336, -0.691543, -0.223274, 0.773288, -0.743129, 0.405620, -0.032514, -0.077912, -0.004615, 0.445536}, {-0.117655, 0.218063, -0.204815, 0.189062, -0.026613, 0.031188, -0.240588, 0.403043, -0.577535, 0.430215, 0.372172, -0.106064, -0.128936, 0.138054, -0.228006, 0.206002, 0.071533, 0.376818, 0.264634, 0.063052, 0.157247, -0.425813, 0.223592, 0.231242, 0.410482, -0.324063, -0.145272, -0.030566, 0.121268, -0.619122, 0.161440, 0.556990, -0.090706, 0.260438, -0.277790, -0.058588, -0.177582, -0.658009, 0.049733, 0.067636}, {0.092093, 0.047162, -0.281336, -0.115109, 0.105060, 0.250102, -0.166674, 0.284065, -0.252126, 0.185999, 0.179165, 0.567310, 0.188512, 0.205638, 0.300441, 0.031117, 0.249666, 0.076589, 0.516477, -0.298003, 0.136383, 0.395082, -0.087022, -0.303572, -0.322911, 0.067279, 0.109161, 0.128251, -0.165327, -0.046624, -0.241259, -0.061839, 0.009623, 0.024831, 0.365317, 0.055250, 0.121858, -0.539668, 0.069195, 0.307901}, {0.000000, 0.000000, 0.000000, -0.000000, 0.000000, 0.000000, 0.000000, -0.000000, -0.000000, -0.000000, 0.000000, 0.000000, 0.000000, 0.000000, -0.000000, -0.000000, 0.000000, -0.000000, -0.000000, -0.000000, -0.000000, -0.000000, 0.000000, -0.000000, 0.000000, -0.000000, 0.000000, -0.000000, -0.000000, 0.000000, 0.000000, 0.000000, 0.000000, -0.000000, 0.000000, 0.000000, 0.000000, -0.000000, -0.000000, 0.000000}, {-0.120014, -0.471347, 0.057234, 0.289819, 0.013282, -0.094638, 0.034372, -0.005994, -0.194818, 0.050393, 0.288295, 0.002867, -0.002581, 0.009336, -0.109485, -0.192143, 0.436868, 0.383360, 0.480262, -0.177615, 0.027573, 0.026167, 0.745637, 0.194426, 0.138743, -0.676212, 0.229911, 0.109680, -0.571297, 0.270100, -0.161599, -0.173375, 0.469568, 0.127986, 0.296752, 0.077927, 0.086070, -0.107196, 0.376494, 0.362373}, {-0.000001, 0.000001, 0.000000, -0.000001, -0.000002, 0.000000, -0.000000, -0.000000, -0.000001, 0.000001, 0.000000, 0.000001, -0.000000, 0.000000, -0.000001, 0.000001, 0.000000, -0.000001, 0.000001, 0.000000, 0.000002, 0.000001, -0.000001, -0.000000, 0.000000, 0.000001, -0.000001, -0.000001, -0.000000, -0.000000, -0.000000, -0.000000, -0.000002, 0.000001, -0.000000, 0.000001, -0.000000, -0.000001, -0.000001, 0.000000}, {0.000000, 0.000000, -0.000000, 0.000000, 0.000000, -0.000000, -0.000000, 0.000000, 0.000000, -0.000000, 0.000000, -0.000000, 0.000000, 0.000000, 0.000000, 0.000000, -0.000000, -0.000000, 0.000000, 0.000000, -0.000000, -0.000000, 0.000000, -0.000000, -0.000000, 0.000000, -0.000000, 0.000000, -0.000000, 0.000000, 0.000000, 0.000000, 0.000000, -0.000000, -0.000000, 0.000000, -0.000000, -0.000000, -0.000000, -0.000000}};
static const float * p_layer_3_weight = layer_3_weight;
static const float layer_3_bias[40] = {0.002180, -0.017068, -0.016424, 0.111360, 0.119682, 0.031641, 0.064556, 0.027627, 0.089130, 0.596814, -0.063095, 0.094088, 0.071461, 0.031547, 0.017998, 0.037317, 0.055882, -0.137173, -0.148222, -0.048479, 0.031485, -0.096135, -0.159969, 0.040937, -0.093191, 0.194395, -0.101153, 0.059279, 0.199039, -0.026064, 0.135847, -0.018856, -0.169813, -0.005579, -0.064842, 0.099998, -0.136905, 0.282073, -0.029353, 0.093819};
static const float * p_layer_3_bias = layer_3_bias;
    
static float sigmoid(float num) {
    return 1.0f / (1.0f + expf(-num));
}

static float step(float num) {
    if (num < 0) {
        return 0;
    }
    return 1;
}

static float relu(float num) {
    if (num > 0) {
        return num;
    } else {
        return 0;
    }
}

static float linear(float num) {
    return num;
}

static void layer(const float * in, const float * layer_weight, const float * layer_bias,   
            int row, int col, float * output, int use_activation) {
    int ii;
    int jj;
    const float * p;

    for(ii = 0; ii < col; ii++) {
        p = layer_weight + ii;
        output[ii] = 0;
        for (jj = 0; jj < row; jj++) {
            output[ii] += in[jj] * (*p); 
            p += col;
        }
        output[ii] += layer_bias[ii];
        
        if (use_activation == 1) {
			output[ii] = relu(output[ii]);
        }
    }
}

const float* nn_phi_2(const float* input) {
	layer(input, p_layer_0_weight, p_layer_0_bias, STRUCTURE[0][0], STRUCTURE[0][1], output_0, 1);
	layer(output_0, p_layer_1_weight, p_layer_1_bias, STRUCTURE[1][0], STRUCTURE[1][1], output_1, 1);
	layer(output_1, p_layer_2_weight, p_layer_2_bias, STRUCTURE[2][0], STRUCTURE[2][1], output_2, 1);
	layer(output_2, p_layer_3_weight, p_layer_3_bias, STRUCTURE[3][0], STRUCTURE[3][1], output_3, 0);

	return output_3;
}
