/*
 * FILE: generated.c
 */

#include <stdio.h>
#include <stdlib.h>
#include <string.h>
#include <math.h>
#include "phi_2.h"

static const int STRUCTURE[4][2] = {{3, 25}, {25, 40}, {40, 40}, {40, 40}};
static float output_0[25];
static float output_1[40];
static float output_2[40];
static float output_3[40];
static const float layer_0_weight[3][25] = {{-0.680541, 1.050811, -1.524675, -0.956139, 0.895309, 0.585217, 0.570307, 0.735157, -0.496884, -0.246689, 1.297091, -1.889282, 0.374390, 0.941062, 0.153249, -0.968622, 0.374384, 0.103868, 0.098186, 0.144857, 0.373006, 0.085249, -0.000000, 0.322233, 0.958265}, {-0.887182, 0.787120, -0.344565, 1.090936, 0.938596, 0.756561, 0.747265, -0.444442, -0.283987, -0.854225, -0.511620, -0.093969, -0.301983, -0.823716, 0.245924, 1.088525, -0.301977, -0.779594, 0.203502, 0.271917, -0.300891, 0.253063, 0.000000, 0.427293, -0.885227}, {-0.249748, 0.061020, -0.201581, -0.025777, 0.132175, 0.357469, 0.364959, -0.119560, -0.860304, -0.182379, -0.033326, 0.135480, 0.092282, 0.282886, -0.473136, -0.017342, 0.092276, -0.253855, -0.471256, -0.473113, 0.091157, -0.495474, 0.000000, 0.553223, 0.039417}};
static const float * p_layer_0_weight = layer_0_weight;
static const float layer_0_bias[25] = {0.035989, -0.022271, 0.095802, -0.009932, -0.043356, -0.061760, -0.064899, -0.138080, 0.205077, 0.013609, -0.002608, -0.044322, -0.640315, -0.083601, 0.219805, -0.013300, -0.640285, 0.065226, 0.157568, 0.220007, -0.638501, 0.233479, -0.392862, -0.151172, 0.004201};
static const float * p_layer_0_bias = layer_0_bias;
static const float layer_1_weight[25][40] = {{-0.000000, -0.157417, -0.000000, 0.169787, -0.328606, -0.000000, -0.087823, 0.315955, 0.384722, -0.325505, -0.686115, -0.000000, -0.000000, 0.000000, -0.499481, -0.579192, 0.336420, -0.065385, 0.000000, -0.000000, -0.485364, -0.000000, -0.000000, -0.281749, -0.000000, 0.485802, -0.379293, -0.000000, 0.154901, -0.000000, 0.311988, -0.000000, -0.000000, -0.000000, -0.463302, -0.000000, -0.000000, -0.174235, -0.059925, 0.022909}, {-0.000000, 0.271512, -0.000000, 0.274120, -0.003780, -0.000000, 0.211472, 0.267394, 0.341164, -0.298966, 0.136952, 0.000000, -0.000000, -0.000000, -0.389995, -0.441019, -0.070506, -0.265944, -0.000000, -0.000000, 0.150479, -0.000000, -0.000000, -0.789622, 0.000000, 0.296154, -0.132953, 0.000000, -0.273597, -0.000000, 0.184864, -0.000000, -0.000000, -0.000000, -0.338508, -0.000000, -0.000000, 0.260837, -0.002825, 0.017139}, {-0.000000, -0.000000, -0.000000, -0.960499, -0.072161, -0.000000, -0.163609, -0.130864, 0.253221, -0.078943, -0.237774, 0.000000, -0.000000, -0.000000, -0.037668, -0.000140, 0.154660, 0.071973, -0.000000, -0.000000, -0.086492, 0.000000, -0.000000, -0.005992, -0.000000, 0.367560, -0.125114, -0.000000, 0.460901, 0.000000, -0.137259, -0.000000, -0.000000, -0.000000, 0.032616, 0.000000, -0.000000, 0.000003, 0.096444, -0.055105}, {-0.000000, -0.000219, -0.000000, 0.135934, -0.005846, 0.000000, 0.033370, 0.458365, 0.194525, -0.659105, 0.051485, 0.000000, -0.000000, 0.000000, -0.175997, -0.179573, -0.001415, -0.657861, 0.000000, -0.000000, -0.580313, 0.000000, 0.000000, -0.437571, -0.000000, -0.187729, -0.689787, -0.000000, 0.242247, -0.000000, 0.134686, 0.000000, -0.000000, -0.000000, -0.303426, 0.000000, -0.000000, -0.001553, 0.240337, 0.381071}, {0.000000, 0.310075, -0.000000, 0.275831, -0.210530, 0.000000, 0.191315, 0.320336, 0.280637, -0.318440, 0.157471, 0.000000, 0.000000, -0.000000, -0.499686, -0.401090, -0.301034, -0.290048, -0.000000, -0.000000, 0.121365, -0.000000, 0.000000, -0.791806, 0.000000, 0.304980, -0.190743, 0.000000, -0.159622, -0.000000, 0.161302, -0.000000, -0.000000, -0.000000, -0.450310, -0.000000, -0.000000, 0.305221, -0.456096, 0.060890}, {-0.000000, 0.292754, -0.000000, 0.106890, -0.468847, -0.000000, 0.211803, 0.278895, 0.031770, -0.122513, 0.238878, -0.000000, -0.000000, -0.000000, -0.579999, -0.254041, -0.696705, -0.135029, -0.000000, -0.000000, 0.072224, 0.000000, -0.000000, -0.359050, 0.000000, 0.116949, -0.070199, 0.000000, -0.282921, -0.000000, -0.050743, -0.000000, -0.000000, 0.000000, -0.484269, 0.000000, -0.000000, 0.296315, -0.539153, 0.033512}, {0.000000, 0.288911, -0.000000, 0.101615, -0.478418, -0.000000, 0.213063, 0.281759, 0.025512, -0.120564, 0.240773, -0.000000, -0.000000, -0.000000, -0.587474, -0.250533, -0.675962, -0.133916, -0.000000, -0.000000, 0.069976, 0.000000, -0.000000, -0.367938, 0.000000, 0.110803, -0.070876, 0.000000, -0.281369, -0.000000, -0.054884, -0.000000, -0.000000, 0.000000, -0.473940, -0.000000, -0.000000, 0.293035, -0.539075, 0.030537}, {0.000000, 0.265914, -0.000000, -0.246889, 0.105605, -0.000000, 0.173258, 0.172253, -0.279902, -0.086430, 0.082814, -0.000000, 0.000000, -0.000000, -0.217363, -0.007382, 0.421025, -0.068842, 0.000000, 0.000000, -0.090353, 0.000000, -0.000000, -0.153009, -0.000000, -0.434722, -0.015127, -0.000000, -0.599272, 0.000000, -0.654086, -0.000000, 0.000000, -0.000000, -0.393807, -0.000000, 0.000000, 0.249949, 0.476788, 0.185691}, {-0.000000, 0.000000, 0.000000, -0.123497, -0.690766, 0.000000, -0.537550, 0.082061, 0.300854, -0.418132, -0.076293, 0.000000, -0.000000, -0.000000, 0.167820, -0.401430, -0.083664, 0.061758, 0.000000, -0.000000, -0.399733, 0.000000, -0.000000, -0.146554, -0.000000, 0.486883, -0.139720, -0.000000, 0.152290, -0.000000, 0.019889, -0.000000, -0.000000, -0.000000, 0.103887, -0.000000, -0.000000, 0.000003, -0.532498, 0.281795}, {-0.000000, 0.205728, -0.000000, 0.088449, -0.110928, -0.000000, -0.462292, 0.307201, 0.249689, -0.275778, -0.495059, 0.000000, -0.000000, 0.000000, -0.376007, -0.441163, 0.329817, -0.112736, -0.000000, -0.000000, -0.239963, 0.000000, -0.000000, -0.210034, -0.000000, 0.304294, -0.218458, -0.000000, 0.085253, -0.000000, 0.247189, 0.000000, -0.000000, 0.000000, -0.359568, -0.000000, -0.000000, 0.188876, 0.062735, 0.055066}, {-0.000000, 0.249687, -0.000000, -0.176484, 0.244051, -0.000000, 0.320319, 0.018957, 0.223332, -0.502081, 0.034137, -0.000000, -0.000000, -0.000000, -0.162232, -0.440346, 0.004662, -0.540223, -0.000000, 0.000000, 0.055059, -0.000000, 0.000000, -0.290469, 0.000000, 0.040029, -0.374210, 0.000000, -0.532723, -0.000000, 0.358187, -0.000000, -0.000000, -0.000000, -0.145866, -0.000000, -0.000000, 0.234307, 0.289001, -0.406392}, {-0.000000, -0.000008, 0.000000, -0.832092, 0.036205, -0.000000, 0.341926, -0.224845, 0.144625, -0.153570, 0.055380, -0.000000, -0.000000, -0.000000, -0.603281, -0.070975, 0.101625, 0.010605, -0.000000, -0.000000, -0.502573, 0.000000, -0.000000, -0.427503, 0.000000, 0.045224, -0.215688, -0.000000, 0.506356, -0.000000, -0.489453, -0.000000, -0.000000, -0.000000, -0.464729, 0.000000, -0.000000, 0.000003, 0.349282, -0.220748}, {0.000000, 0.481119, -0.000000, 0.000000, 0.261224, -0.000000, -0.485621, 0.228917, 0.201859, -0.000000, -0.297477, 0.000000, -0.000000, -0.000000, 0.000000, -0.000000, 0.441920, -0.000000, 0.000000, -0.000000, -0.000000, -0.000000, 0.000000, -0.000000, -0.000000, -0.054569, -0.000000, -0.000000, -0.000000, -0.000000, 0.368299, -0.000000, 0.000000, -0.000000, 0.000000, -0.000000, 0.000000, 0.464096, 0.264608, 0.000000}, {-0.000000, 0.243871, -0.000000, -0.653365, 0.105455, 0.000000, 0.381086, 0.206622, -0.028799, -0.186389, 0.153505, 0.000000, 0.000000, -0.000000, -0.263426, -0.391593, 0.213714, -0.396101, 0.000000, -0.000000, -0.898387, 0.000000, 0.000000, -0.349193, -0.000000, -0.204796, -0.155901, 0.000000, -0.009760, -0.000000, 0.330018, -0.000000, -0.000000, -0.000000, -0.210218, -0.000000, -0.000000, 0.227986, 0.234293, -0.332413}, {-0.000000, 0.127973, 0.000000, 0.234527, 0.069263, 0.000000, -0.225766, -0.121395, 0.186826, -0.042046, -0.534908, -0.000000, 0.000000, 0.000000, 0.205540, 0.029463, -0.545061, -0.001660, 0.000000, 0.000000, 0.057057, -0.000000, 0.000000, 0.066223, -0.000000, 0.216835, -0.003256, -0.000000, -0.046284, -0.000000, 0.143458, -0.000000, -0.000000, -0.000000, 0.183851, -0.000000, -0.000000, 0.110845, -0.211603, 0.256287}, {0.000000, -0.000172, -0.000000, 0.135499, -0.012123, -0.000000, 0.039012, 0.456333, 0.192799, -0.642377, 0.057042, -0.000000, -0.000000, 0.000000, -0.188825, -0.182623, -0.000845, -0.639371, -0.000000, -0.000000, -0.575271, -0.000000, -0.000000, -0.448715, 0.000000, -0.184131, -0.682489, -0.000000, 0.238092, -0.000000, 0.138298, -0.000000, -0.000000, -0.000000, -0.316922, -0.000000, -0.000000, -0.001563, 0.238725, 0.377845}, {0.000000, 0.481088, -0.000000, 0.000000, 0.261172, 0.000000, -0.485582, 0.228916, 0.201852, 0.000000, -0.297441, -0.000000, -0.000000, -0.000000, 0.000000, -0.000000, 0.441887, 0.000000, -0.000000, -0.000000, -0.000000, 0.000000, 0.000000, 0.000000, -0.000000, -0.054557, -0.000000, -0.000000, -0.000000, 0.000000, 0.368295, 0.000000, 0.000000, -0.000000, -0.000000, -0.000000, 0.000000, 0.464065, 0.264564, 0.000000}, {-0.000000, 0.225751, -0.000000, 0.084115, -0.019974, -0.000000, -0.310329, 0.253389, 0.234005, -0.323395, -0.470805, 0.000000, -0.000000, 0.000000, -0.185386, -0.440379, 0.204994, -0.124317, 0.000000, -0.000000, -0.288656, 0.000000, -0.000000, -0.068588, 0.000000, 0.283541, -0.322905, -0.000000, -0.062042, 0.000000, 0.250869, 0.000000, 0.000000, -0.000000, -0.196234, -0.000000, -0.000000, 0.208967, 0.063510, 0.082781}, {-0.000000, 0.181298, -0.000000, 0.165078, 0.068485, -0.000000, -0.243089, -0.176695, 0.164291, -0.017076, -0.530998, -0.000000, 0.000000, 0.000000, 0.192050, 0.028512, -0.442361, 0.013939, -0.000000, 0.000000, -0.013171, -0.000000, -0.000000, 0.051256, -0.000000, 0.189054, 0.008254, -0.000000, -0.045462, -0.000000, 0.192630, -0.000000, -0.000000, 0.000000, 0.193095, 0.000000, -0.000000, 0.169246, -0.232238, 0.232540}, {-0.000000, 0.150338, -0.000000, 0.241552, 0.057395, -0.000000, -0.232229, -0.111164, 0.194852, -0.043701, -0.535505, 0.000000, 0.000000, 0.000000, 0.199375, 0.038421, -0.547435, 0.006769, 0.000000, -0.000000, 0.053483, -0.000000, -0.000000, 0.074499, -0.000000, 0.217563, -0.011582, -0.000000, -0.035328, 0.000000, 0.131043, -0.000000, -0.000000, 0.000000, 0.181584, -0.000000, 0.000000, 0.133849, -0.206970, 0.259536}, {-0.000000, 0.478267, -0.000000, 0.000000, 0.262171, -0.000000, -0.483748, 0.226066, 0.199873, 0.000000, -0.298714, 0.000000, 0.000000, -0.000000, -0.000000, -0.000000, 0.439861, 0.000000, -0.000000, -0.000000, 0.000000, 0.000000, -0.000000, 0.000000, -0.000000, -0.054723, -0.000000, -0.000000, -0.000000, 0.000000, 0.367065, -0.000000, 0.000000, 0.000000, -0.000000, 0.000000, 0.000000, 0.461210, 0.265575, 0.000000}, {0.000000, 0.021782, -0.000000, 0.208092, 0.029020, 0.000000, -0.353668, -0.109198, 0.178594, -0.052859, -0.563248, -0.000000, -0.000000, 0.000000, 0.194861, 0.039863, -0.559996, 0.017041, -0.000000, -0.000000, 0.037383, -0.000000, 0.000000, 0.074610, -0.000000, 0.213762, -0.036313, 0.000000, -0.028297, -0.000000, 0.121679, -0.000000, -0.000000, -0.000000, 0.165911, -0.000000, -0.000000, 0.033091, -0.224891, 0.257276}, {-0.000000, -0.000000, -0.000000, -0.000000, 0.000000, -0.000000, 0.000000, 0.000000, 0.000000, 0.000000, 0.000000, -0.000000, 0.000000, 0.000000, 0.000000, -0.000000, -0.000000, -0.000000, 0.000000, -0.000000, 0.000000, 0.000000, 0.000000, 0.000000, 0.000000, -0.000000, -0.000000, -0.000000, -0.000000, 0.000000, -0.000000, 0.000000, 0.000000, -0.000000, -0.000000, 0.000000, -0.000000, -0.000000, 0.000000, 0.000000}, {0.000000, 0.252318, -0.000000, -0.101496, -0.645838, 0.000000, 0.308048, 0.220946, -0.175546, -0.021362, 0.366699, -0.000000, -0.000000, 0.000000, -0.678981, -0.284854, -0.276487, -0.025654, 0.000000, -0.000000, -0.073237, 0.000000, -0.000000, -0.477149, 0.000000, 0.010587, 0.014229, 0.000000, -0.134243, 0.000000, -0.120727, 0.000000, -0.000000, 0.000000, -0.539792, 0.000000, -0.000000, 0.248730, -0.495076, -0.159289}, {-0.000000, 0.244268, -0.000000, -0.308262, 0.166018, -0.000000, 0.353774, 0.202192, 0.138287, -0.330932, 0.071563, -0.000000, -0.000000, -0.000000, -0.243895, -0.415405, 0.194138, -0.439917, 0.000000, -0.000000, -0.476345, 0.000000, -0.000000, -0.296618, -0.000000, 0.016902, -0.350381, 0.000000, -0.094900, -0.000000, 0.418049, -0.000000, -0.000000, -0.000000, -0.219897, 0.000000, -0.000000, 0.228524, 0.245366, -0.167056}};
static const float * p_layer_1_weight = layer_1_weight;
static const float layer_1_bias[40] = {-0.119260, -2.115289, -0.151940, 0.052158, 0.130441, -0.125962, -0.266254, -0.372538, -0.165109, 0.200529, 0.010204, -0.003663, -0.015671, -0.247326, 0.115751, 0.252135, 0.059989, 0.219143, -0.132097, -0.036379, 0.129030, -0.109853, -0.204557, 0.213552, -0.207967, -0.176672, 0.198876, -0.313953, 0.015459, -0.003331, -0.100166, -0.088276, -0.029339, -0.122395, 0.188070, -0.142015, -0.229011, -2.040626, 0.060810, -0.204962};
static const float * p_layer_1_bias = layer_1_bias;
static const float layer_2_weight[40][40] = {{-0.000000, 0.000000, -0.000000, 0.000000, -0.000000, 0.000000, -0.000000, 0.000000, -0.000000, 0.000000, -0.000000, -0.000000, -0.000000, 0.000000, -0.000000, -0.000000, 0.000000, -0.000000, 0.000000, 0.000000, -0.000000, -0.000000, 0.000000, 0.000000, -0.000000, 0.000000, 0.000000, 0.000000, 0.000000, 0.000000, 0.000000, 0.000000, 0.000000, -0.000000, -0.000000, 0.000000, 0.000000, 0.000000, -0.000000, 0.000000}, {0.000000, -0.000000, -0.000000, -0.000000, -0.000160, 0.000000, 0.823667, 0.000000, 0.000000, -0.539202, -0.197364, -0.000000, -0.000000, -0.224390, -0.000000, -0.000000, -0.000000, -0.000000, -0.000000, 0.000000, 0.000000, -0.000000, 0.000000, 0.000000, -0.339940, 0.000000, -0.000000, 0.000000, 0.000000, -0.000000, -0.000000, -0.000000, -0.000000, 0.000000, -0.000000, -0.000000, 0.000000, -0.000000, 0.000000, 0.475538}, {-0.000000, -0.000000, 0.000000, -0.000000, -0.000000, 0.000000, -0.000000, 0.000000, -0.000000, -0.000000, 0.000000, 0.000000, -0.000000, -0.000000, 0.000000, -0.000000, 0.000000, -0.000000, 0.000000, 0.000000, 0.000000, 0.000000, 0.000000, -0.000000, -0.000000, -0.000000, 0.000000, 0.000000, 0.000000, -0.000000, 0.000000, 0.000000, 0.000000, 0.000000, 0.000000, 0.000000, -0.000000, -0.000000, 0.000000, -0.000000}, {-0.000000, -0.361922, -0.325991, -0.000000, -0.786707, -0.000000, 0.240338, -0.349970, -0.000000, -0.255890, -0.865776, -0.000000, -0.000000, -0.240122, -0.000000, -0.000000, 0.006280, 0.000000, 0.000000, -0.384894, -0.261293, 0.000000, -0.000000, 0.006140, -0.143407, -0.000000, 0.054436, -0.000000, -0.000000, -0.000000, -0.000000, -0.484511, 0.000000, -0.111948, -0.000000, -0.000000, -0.000000, -0.000000, 0.000000, 0.308457}, {-0.000000, 0.024198, 0.016566, -0.000000, 0.217663, 0.000000, 0.023108, 0.021338, -0.000000, -0.601337, 0.447668, 0.000000, -0.000000, 0.361032, -0.000000, 0.000000, -0.547712, -0.000000, -0.000000, 0.027556, 0.053843, 0.000000, -0.000000, -0.123868, -0.054854, -0.000000, -0.065585, 0.000000, -0.000000, 0.000000, -0.000000, -0.126189, 0.000000, -0.684846, -0.000000, 0.000000, -0.000000, 0.000000, 0.000000, 0.271936}, {-0.000000, -0.000000, 0.000000, 0.000000, 0.000000, 0.000000, 0.000000, 0.000000, -0.000000, 0.000000, -0.000000, 0.000000, -0.000000, 0.000000, 0.000000, -0.000000, -0.000000, -0.000000, 0.000000, 0.000000, -0.000000, -0.000000, -0.000000, 0.000000, 0.000000, -0.000000, 0.000000, -0.000000, 0.000000, -0.000000, -0.000000, 0.000000, -0.000000, 0.000000, 0.000000, -0.000000, -0.000000, -0.000000, -0.000000, 0.000000}, {0.000000, -0.318010, -0.332594, -0.000000, -0.037241, -0.000000, -0.648004, -0.315980, 0.000000, 0.416617, -0.327170, -0.000000, -0.000000, -0.239396, -0.000000, -0.000000, -0.094602, -0.000000, 0.000000, -0.319026, -0.135762, 0.000000, 0.000000, -0.563750, 0.363503, 0.000000, -0.182599, -0.000000, -0.000000, -0.000000, 0.000000, -0.106710, 0.000000, -0.108776, -0.000000, -0.000000, -0.000000, 0.000000, 0.000000, -0.344139}, {-0.000000, -0.370587, -0.353749, -0.000000, -0.679196, -0.000000, 0.302347, -0.375264, -0.000000, 0.394138, -0.051594, -0.000000, 0.000000, -0.092490, 0.000000, -0.000000, -0.749664, -0.000000, -0.000000, -0.378228, -0.230993, 0.000000, -0.000000, -0.864219, 0.588268, -0.000000, -0.287166, -0.000000, -0.000000, -0.000000, -0.000000, -0.364190, 0.000000, -0.228135, -0.000000, -0.000000, -0.000000, -0.000000, -0.000000, 0.444449}, {-0.000000, -0.526609, -0.568893, 0.000000, -0.038385, -0.000000, -0.036392, -0.527563, 0.000000, 0.053644, -0.146688, 0.000000, 0.000000, -0.071112, -0.000000, -0.000000, -0.207382, -0.000000, 0.000000, -0.529783, -0.589451, 0.000000, -0.000000, -0.115930, -0.216620, -0.000000, -0.375456, -0.000000, 0.000000, -0.000000, -0.000000, -0.213354, -0.000000, -0.608515, -0.000000, -0.000000, -0.000000, -0.000000, -0.000000, 0.146104}, {-0.000000, 0.281838, 0.280424, -0.000000, -0.467547, -0.000000, -0.432799, 0.280100, -0.000000, -0.362500, -0.262436, -0.000000, -0.000000, -0.721905, 0.000000, 0.000000, -0.230332, -0.000000, -0.000000, 0.286770, 0.171586, 0.000000, -0.000000, -0.176676, -0.250413, 0.000000, 0.035395, -0.000000, -0.000000, -0.000000, -0.000000, -0.064238, -0.000000, -0.041118, -0.000000, 0.000000, -0.000000, 0.000000, 0.000000, -0.576363}, {-0.000000, 0.185134, 0.185154, -0.000000, -0.075788, -0.000000, 0.041592, 0.176972, -0.000000, 0.515598, -0.278478, -0.000000, -0.000000, -0.394082, -0.000000, -0.000000, 0.067009, -0.000000, 0.000000, 0.190554, 0.243289, 0.000000, 0.000000, -0.134430, 0.398732, -0.000000, 0.099559, -0.000000, -0.000000, -0.000000, 0.000000, 0.091611, -0.000000, 0.189566, -0.000000, -0.000000, 0.000000, -0.000000, -0.000000, -0.084479}, {-0.000000, -0.000000, 0.000000, -0.000000, 0.000000, -0.000000, -0.000000, 0.000000, -0.000000, -0.000000, -0.000000, 0.000000, 0.000000, 0.000000, -0.000000, 0.000000, -0.000000, -0.000000, 0.000000, -0.000000, 0.000000, 0.000000, 0.000000, 0.000000, 0.000000, 0.000000, 0.000000, -0.000000, 0.000000, -0.000000, -0.000000, -0.000000, -0.000000, 0.000000, -0.000000, -0.000000, 0.000000, -0.000000, 0.000000, -0.000000}, {-0.000000, -0.000000, -0.000000, 0.000000, 0.000000, -0.000000, -0.000000, -0.000000, -0.000000, 0.000000, -0.000000, -0.000000, -0.000000, 0.000000, -0.000000, -0.000000, -0.000000, -0.000000, -0.000000, 0.000000, -0.000000, 0.000000, 0.000000, 0.000000, 0.000000, -0.000000, 0.000000, 0.000000, 0.000000, 0.000000, 0.000000, -0.000000, -0.000000, -0.000000, -0.000000, 0.000000, 0.000000, -0.000000, -0.000000, 0.000000}, {-0.000000, -0.000005, -0.000007, 0.000000, -0.000013, -0.000000, 0.000008, 0.000001, -0.000000, 0.000007, -0.000006, -0.000000, -0.000000, -0.000015, 0.000000, -0.000000, 0.000011, 0.000000, -0.000000, -0.000001, -0.000008, -0.000000, 0.000000, -0.000022, -0.000012, -0.000000, -0.000000, -0.000000, -0.000000, -0.000000, -0.000000, 0.000001, 0.000000, -0.000011, -0.000000, 0.000000, -0.000000, -0.000000, 0.000000, -0.000000}, {0.000000, 0.450313, 0.459853, -0.000000, 0.103585, 0.000000, 0.470330, 0.458675, 0.000000, 0.618905, -0.243766, 0.000000, -0.000000, -0.034377, 0.000000, -0.000000, -0.402891, -0.000000, 0.000000, 0.439443, 0.379268, 0.000000, 0.000000, 0.032592, 0.249462, -0.000000, 0.228599, -0.000000, -0.000000, 0.000000, 0.000000, 0.119139, 0.000000, -0.745197, -0.000000, 0.000000, 0.000000, -0.000000, -0.000000, -0.510540}, {0.000000, 0.268528, 0.274239, 0.000000, -1.042594, -0.000000, 0.285000, 0.266847, 0.000000, -0.029213, 0.057204, 0.000000, 0.000000, 0.547650, -0.000000, 0.000000, -0.213192, 0.000000, -0.000000, 0.270439, 0.147635, -0.000000, -0.000000, 0.121631, -0.465842, 0.000000, -0.003033, -0.000000, -0.000000, -0.000000, -0.000000, 0.012679, -0.000000, -0.256803, -0.000000, -0.000000, -0.000000, 0.000000, -0.000000, -0.557043}, {0.000000, -0.219150, -0.206372, 0.000000, -0.438180, 0.000000, 0.445757, -0.204183, -0.000000, 0.122716, -0.086314, 0.000000, -0.000000, 0.037541, -0.000000, -0.000000, -0.894249, 0.000000, -0.000000, -0.216731, -0.292151, -0.000000, -0.000000, -0.145181, -0.420397, -0.000000, -0.805321, 0.000000, 0.000000, 0.000000, 0.000000, -0.282675, 0.000000, -0.648659, -0.000000, 0.000000, -0.000000, 0.000000, 0.000000, -0.434033}, {-0.000000, 0.315043, 0.314210, -0.000000, 0.236600, 0.000000, -0.458304, 0.308855, 0.000000, 0.028375, -0.192306, -0.000000, -0.000000, -0.692284, -0.000000, 0.000000, -0.134944, -0.000000, -0.000000, 0.311424, 0.135441, -0.000000, -0.000000, -0.297916, -0.620716, -0.000000, -0.048966, -0.000000, -0.000000, -0.000000, -0.000000, -0.042987, 0.000000, -0.076742, -0.000000, -0.000000, -0.000000, 0.000000, -0.000000, -0.182275}, {-0.000000, 0.000000, 0.000000, 0.000000, -0.000000, 0.000000, -0.000000, -0.000000, 0.000000, 0.000000, -0.000000, -0.000000, -0.000000, 0.000000, -0.000000, -0.000000, 0.000000, -0.000000, -0.000000, -0.000000, -0.000000, -0.000000, 0.000000, -0.000000, -0.000000, 0.000000, 0.000000, 0.000000, -0.000000, 0.000000, -0.000000, -0.000000, -0.000000, 0.000000, -0.000000, -0.000000, -0.000000, -0.000000, 0.000000, -0.000000}, {-0.000000, -0.000000, 0.000000, -0.000000, 0.000000, -0.000000, -0.000000, 0.000000, 0.000000, -0.000000, 0.000000, 0.000000, -0.000000, -0.000000, -0.000000, 0.000000, -0.000000, -0.000000, -0.000000, 0.000000, 0.000000, -0.000000, -0.000000, -0.000000, 0.000000, 0.000000, -0.000000, 0.000000, 0.000000, 0.000000, 0.000000, -0.000000, -0.000000, 0.000000, -0.000000, 0.000000, 0.000000, -0.000000, -0.000000, -0.000000}, {-0.000000, 0.068062, 0.066640, -0.000000, -0.641232, 0.000000, -0.663315, 0.073688, -0.000000, -0.407418, -0.711120, 0.000000, -0.000000, -0.334119, -0.000000, -0.000000, 0.231729, -0.000000, 0.000000, 0.064523, 0.140498, -0.000000, 0.000000, 0.470511, -0.153849, 0.000000, 0.316858, -0.000000, 0.000000, 0.000000, -0.000000, -0.234973, -0.000000, -0.024782, 0.000000, 0.000000, 0.000000, 0.000000, 0.000000, 0.360491}, {-0.000000, 0.000000, 0.000000, -0.000000, 0.000000, -0.000000, -0.000000, 0.000000, -0.000000, 0.000000, 0.000000, -0.000000, -0.000000, 0.000000, 0.000000, -0.000000, -0.000000, 0.000000, -0.000000, 0.000000, 0.000000, -0.000000, 0.000000, 0.000000, 0.000000, 0.000000, 0.000000, -0.000000, 0.000000, 0.000000, 0.000000, 0.000000, -0.000000, 0.000000, -0.000000, 0.000000, 0.000000, -0.000000, -0.000000, -0.000000}, {-0.000000, 0.000000, 0.000000, -0.000000, 0.000000, 0.000000, 0.000000, -0.000000, -0.000000, 0.000000, -0.000000, 0.000000, -0.000000, 0.000000, 0.000000, -0.000000, 0.000000, -0.000000, -0.000000, 0.000000, 0.000000, -0.000000, -0.000000, 0.000000, 0.000000, 0.000000, -0.000000, 0.000000, -0.000000, 0.000000, 0.000000, 0.000000, -0.000000, 0.000000, -0.000000, -0.000000, 0.000000, 0.000000, 0.000000, -0.000000}, {-0.000000, 0.578065, 0.575032, -0.000000, 0.088404, -0.000000, -0.384610, 0.576477, -0.000000, -0.700737, 0.557340, 0.000000, 0.000000, -0.238856, -0.000000, -0.000000, -0.474673, 0.000000, -0.000000, 0.574489, 0.453431, -0.000000, -0.000000, 0.104199, 0.247146, 0.000000, 0.118403, -0.000000, -0.000000, 0.000000, -0.000000, 0.117285, -0.000000, -0.822574, -0.000000, -0.000000, -0.000000, -0.000000, -0.000000, -0.824241}, {-0.000000, -0.000000, -0.000000, -0.000000, 0.000000, -0.000000, -0.000000, -0.000000, -0.000000, 0.000000, -0.000000, 0.000000, -0.000000, -0.000000, 0.000000, -0.000000, -0.000000, -0.000000, -0.000000, -0.000000, -0.000000, 0.000000, -0.000000, -0.000000, 0.000000, -0.000000, -0.000000, -0.000000, -0.000000, -0.000000, 0.000000, -0.000000, -0.000000, -0.000000, -0.000000, -0.000000, -0.000000, -0.000000, 0.000000, 0.000000}, {-0.000000, -0.740736, -0.784084, -0.000000, -0.097632, -0.000000, -0.216776, -0.761220, 0.000000, 0.040484, -0.974463, 0.000000, -0.000000, -0.369719, 0.000000, -0.000000, -0.146453, -0.000000, -0.000000, -0.735434, -0.256026, -0.000000, -0.000000, -0.024192, 0.018735, 0.000000, -0.284897, -0.000000, 0.000000, -0.000000, -0.000000, -0.220918, -0.000000, -0.081002, -0.000000, -0.000000, -0.000000, -0.000000, 0.000000, 0.245329}, {-0.000000, 0.192590, 0.186945, -0.000000, -0.583604, 0.000000, -0.584130, 0.189853, -0.000000, -0.486458, -0.320225, -0.000000, 0.000000, -0.711494, -0.000000, 0.000000, -0.062763, -0.000000, 0.000000, 0.188487, 0.123800, -0.000000, 0.000000, -0.108138, -0.122113, -0.000000, 0.133496, -0.000000, 0.000000, 0.000000, -0.000000, -0.102362, -0.000000, -0.050214, 0.000000, -0.000000, 0.000000, 0.000000, 0.000000, -1.029830}, {-0.000000, -0.000000, -0.000000, -0.000000, -0.000000, -0.000000, -0.000000, -0.000000, 0.000000, 0.000000, 0.000000, -0.000000, -0.000000, 0.000000, 0.000000, 0.000000, -0.000000, -0.000000, -0.000000, -0.000000, -0.000000, 0.000000, 0.000000, -0.000000, 0.000000, -0.000000, -0.000000, -0.000000, -0.000000, 0.000000, -0.000000, -0.000000, -0.000000, 0.000000, -0.000000, -0.000000, -0.000000, -0.000000, -0.000000, -0.000000}, {0.000000, 0.011760, -0.005415, -0.000000, 0.262393, 0.000000, -0.180666, -0.009083, 0.000000, 0.199111, 0.208115, -0.000000, -0.000000, 0.378216, -0.000000, 0.000000, -0.115258, -0.000000, -0.000000, 0.015697, -0.135218, -0.000000, -0.000000, -0.558450, -0.596927, 0.000000, -0.466359, -0.000000, -0.000000, -0.000000, -0.000000, -0.043177, -0.000000, -0.202262, 0.000000, -0.000000, -0.000000, -0.000000, 0.000000, -0.580757}, {0.000000, -0.000000, 0.000000, -0.000000, 0.000000, -0.000000, -0.000000, 0.000000, -0.000000, 0.000000, 0.000000, 0.000000, 0.000000, -0.000000, 0.000000, 0.000000, -0.000000, -0.000000, -0.000000, 0.000000, 0.000000, -0.000000, -0.000000, 0.000000, -0.000000, -0.000000, -0.000000, -0.000000, -0.000000, 0.000000, -0.000000, 0.000000, -0.000000, 0.000000, -0.000000, 0.000000, -0.000000, -0.000000, 0.000000, -0.000000}, {0.000000, -0.620404, -0.614542, -0.000000, -0.062425, 0.000000, 0.009568, -0.623777, 0.000000, -0.003411, 0.090319, -0.000000, 0.000000, -0.030891, -0.000000, -0.000000, -0.247350, -0.000000, -0.000000, -0.628019, -0.365872, -0.000000, -0.000000, 0.021040, -0.077574, 0.000000, -0.429378, -0.000000, 0.000000, -0.000000, -0.000000, -0.172138, -0.000000, -0.280156, 0.000000, 0.000000, -0.000000, -0.000000, -0.000000, 0.128365}, {0.000000, 0.000000, -0.000000, -0.000000, 0.000000, -0.000000, -0.000000, -0.000000, -0.000000, -0.000000, -0.000000, 0.000000, -0.000000, 0.000000, 0.000000, 0.000000, 0.000000, 0.000000, 0.000000, -0.000000, 0.000000, 0.000000, 0.000000, -0.000000, -0.000000, -0.000000, -0.000000, 0.000000, -0.000000, -0.000000, 0.000000, 0.000000, 0.000000, 0.000000, -0.000000, -0.000000, -0.000000, 0.000000, 0.000000, -0.000000}, {0.000000, -0.000000, -0.000000, 0.000000, -0.000000, -0.000000, 0.000000, -0.000000, -0.000000, 0.000000, -0.000000, -0.000000, -0.000000, -0.000000, -0.000000, 0.000000, -0.000000, 0.000000, -0.000000, -0.000000, -0.000000, 0.000000, -0.000000, -0.000000, -0.000000, -0.000000, -0.000000, 0.000000, 0.000000, -0.000000, -0.000000, -0.000000, -0.000000, -0.000000, 0.000000, 0.000000, -0.000000, 0.000000, -0.000000, 0.000000}, {-0.000000, 0.000000, 0.000000, -0.000000, -0.000000, -0.000000, -0.000000, 0.000000, -0.000000, 0.000000, 0.000000, 0.000000, -0.000000, -0.000000, -0.000000, -0.000000, -0.000000, 0.000000, 0.000000, -0.000000, -0.000000, 0.000000, 0.000000, -0.000000, 0.000000, 0.000000, -0.000000, -0.000000, -0.000000, -0.000000, 0.000000, -0.000000, 0.000000, -0.000000, -0.000000, -0.000000, 0.000000, 0.000000, 0.000000, 0.000000}, {0.000000, 0.427043, 0.450229, -0.000000, 0.102387, 0.000000, 0.435616, 0.437261, 0.000000, 0.492489, -0.302253, -0.000000, -0.000000, -0.039540, 0.000000, 0.000000, -0.450415, -0.000000, -0.000000, 0.420634, 0.347580, -0.000000, 0.000000, 0.111362, 0.197273, 0.000000, 0.246657, 0.000000, -0.000000, 0.000000, -0.000000, 0.089850, -0.000000, -0.627669, -0.000000, -0.000000, 0.000000, 0.000000, -0.000000, -0.762883}, {0.000000, -0.000000, -0.000000, -0.000000, -0.000000, -0.000000, 0.000000, 0.000000, -0.000000, -0.000000, -0.000000, -0.000000, -0.000000, -0.000000, 0.000000, 0.000000, -0.000000, -0.000000, -0.000000, 0.000000, -0.000000, -0.000000, -0.000000, -0.000000, 0.000000, -0.000000, -0.000000, -0.000000, 0.000000, -0.000000, 0.000000, 0.000000, -0.000000, 0.000000, 0.000000, 0.000000, 0.000000, -0.000000, -0.000000, -0.000000}, {-0.000000, -0.000000, -0.000000, -0.000000, 0.000000, -0.000000, 0.000000, -0.000000, -0.000000, -0.000000, 0.000000, -0.000000, -0.000000, 0.000000, 0.000000, -0.000000, -0.000000, -0.000000, 0.000000, -0.000000, -0.000000, -0.000000, -0.000000, 0.000000, -0.000000, 0.000000, 0.000000, -0.000000, -0.000000, -0.000000, 0.000000, -0.000000, -0.000000, -0.000000, -0.000000, -0.000000, -0.000000, 0.000000, -0.000000, 0.000000}, {0.000000, 0.000000, 0.000000, -0.000000, 0.001386, 0.000000, 0.799475, 0.000000, -0.000000, -0.525987, -0.180088, 0.000000, -0.000000, -0.155010, -0.000000, -0.000000, 0.000000, -0.000000, -0.000000, 0.000000, -0.000000, 0.000000, -0.000000, -0.000000, -0.333548, -0.000000, -0.000000, 0.000000, 0.000000, -0.000000, -0.000000, 0.000000, 0.000000, -0.000000, 0.000000, 0.000000, -0.000000, -0.000000, -0.000000, 0.462381}, {-0.000000, -0.144865, -0.147933, -0.000000, 0.006360, -0.000000, 0.420275, -0.140199, -0.000000, 0.111641, 0.498216, -0.000000, -0.000000, 0.529363, -0.000000, -0.000000, -0.794603, 0.000000, 0.000000, -0.149217, -0.134188, -0.000000, -0.000000, -0.381811, -0.093406, -0.000000, -0.545042, -0.000000, 0.000000, -0.000000, -0.000000, -0.155997, -0.000000, -0.497419, -0.000000, -0.000000, -0.000000, -0.000000, -0.000000, -0.058045}, {-0.000000, -0.138232, -0.184929, -0.000000, -0.499199, 0.000000, 0.154927, -0.164329, 0.000000, 0.174753, 0.125177, 0.000000, 0.000000, 0.032686, 0.000000, 0.000000, -0.271678, -0.000000, 0.000000, -0.081829, -0.311368, -0.000000, -0.000000, -0.732676, -0.535855, 0.000000, -0.110756, -0.000000, 0.000000, -0.000000, -0.000000, -0.180469, -0.000000, -0.516082, -0.000000, -0.000000, -0.000000, -0.000000, -0.000000, 0.064934}};
static const float * p_layer_2_weight = layer_2_weight;
static const float layer_2_bias[40] = {-0.171915, 0.148167, 0.147562, -0.014830, 0.167826, -0.047071, 0.065205, 0.144819, -0.010713, 0.008546, 0.205702, -0.087074, -0.189108, 0.140174, -0.118953, -0.125661, 0.370559, -0.068430, -0.155421, 0.136693, 0.107771, -0.128361, -0.059194, 0.325265, 0.146727, -0.208365, 0.181515, -0.227260, -0.021136, -0.180275, -0.046838, -0.033778, -0.063909, 0.262112, -0.044522, -0.226495, -0.099827, -0.259216, -0.142807, -0.177401};
static const float * p_layer_2_bias = layer_2_bias;
static const float layer_3_weight[40][40] = {{-0.000000, -0.000000, 0.000000, 0.000000, 0.000000, -0.000000, -0.000000, -0.000000, -0.000000, -0.000000, -0.000000, -0.000000, 0.000000, 0.000000, 0.000000, 0.000000, -0.000000, 0.000000, 0.000000, -0.000000, 0.000000, 0.000000, 0.000000, -0.000000, -0.000000, -0.000000, -0.000000, 0.000000, -0.000000, -0.000000, -0.000000, 0.000000, 0.000000, -0.000000, 0.000000, -0.000000, 0.000000, -0.000000, 0.000000, -0.000000}, {-0.542039, -0.439417, 0.074214, 0.502859, 0.432697, 0.054935, 0.530903, 0.553036, 0.015842, 0.007988, 0.017408, -0.011461, 0.042830, -0.170770, -0.029720, 0.242073, -0.061084, 0.013252, 0.006934, 0.008469, -0.047355, -0.010100, -0.233825, -0.389058, -0.003661, -0.344336, -0.025675, 0.011379, 0.034764, 0.058155, -0.004476, -0.122972, 0.017550, -0.004219, 0.039617, 0.044391, -0.002023, -0.067520, 0.017908, -0.068959}, {-0.527571, -0.438950, 0.054381, 0.487230, 0.432433, 0.049455, 0.515746, 0.539781, -0.003280, 0.012258, 0.033801, -0.005514, 0.022073, -0.151812, -0.024796, 0.241521, -0.076920, -0.005374, 0.004794, -0.005456, -0.033851, -0.017962, -0.233184, -0.386771, -0.012455, -0.345154, -0.020244, 0.003348, 0.030359, 0.044625, -0.029588, -0.126795, 0.022003, -0.013201, 0.050993, 0.031402, 0.003065, -0.083280, 0.012722, -0.054224}, {-0.000000, -0.000000, -0.000000, -0.000000, 0.000000, 0.000000, 0.000000, 0.000000, 0.000000, 0.000000, -0.000000, 0.000000, -0.000000, -0.000000, 0.000000, 0.000000, -0.000000, 0.000000, 0.000000, 0.000000, -0.000000, 0.000000, -0.000000, -0.000000, -0.000000, 0.000000, 0.000000, -0.000000, -0.000000, 0.000000, 0.000000, 0.000000, -0.000000, 0.000000, -0.000000, -0.000000, -0.000000, 0.000000, -0.000000, 0.000000}, {-0.045285, 0.692118, 0.459164, -0.086390, -0.667819, 0.004917, 0.015426, -0.138190, -0.019603, 0.019427, 0.384105, 0.106402, -0.124139, -0.727843, -0.061397, 0.118694, -0.273303, -0.059557, -0.062237, -0.129860, -0.082674, 0.130498, -0.093917, 0.763179, -0.044991, 0.738415, 0.049536, -0.054618, 0.000734, 0.156403, -0.067486, 1.232972, 0.000995, 0.034244, -1.010037, -0.040638, -0.054470, -0.264241, 0.007202, -0.469826}, {0.000000, -0.000000, -0.000000, 0.000000, 0.000000, -0.000000, -0.000000, -0.000000, -0.000000, -0.000000, 0.000000, -0.000000, -0.000000, -0.000000, -0.000000, 0.000000, -0.000000, 0.000000, 0.000000, -0.000000, -0.000000, -0.000000, 0.000000, 0.000000, -0.000000, 0.000000, 0.000000, 0.000000, 0.000000, 0.000000, 0.000000, -0.000000, -0.000000, 0.000000, -0.000000, 0.000000, 0.000000, 0.000000, -0.000000, -0.000000}, {0.532523, 0.122388, 0.073194, -0.448095, -0.139657, 0.075942, -0.506090, -0.458374, 0.005252, 0.007912, -0.644689, -0.052600, 0.015337, 0.618300, -0.019869, -0.336430, 0.719078, 0.025924, -0.018364, 0.036242, -0.129245, -0.041598, 0.314437, 0.087125, 0.007277, 0.068646, 0.005076, -0.018283, 0.047231, 0.145462, -0.039350, -0.491696, 0.052216, -0.000243, 0.276177, 0.019388, 0.034106, 0.725001, -0.022588, -0.084643}, {-0.522509, -0.430242, 0.029546, 0.481569, 0.423823, 0.038484, 0.510525, 0.534045, 0.008932, -0.010095, 0.036384, 0.009441, 0.034499, -0.157362, -0.008190, 0.237607, -0.081885, 0.026661, 0.011016, -0.011790, -0.016127, 0.016518, -0.229405, -0.378879, 0.005184, -0.334986, -0.008939, -0.005141, 0.015099, 0.019165, -0.020918, -0.145594, 0.001913, 0.018311, 0.079166, 0.021849, -0.026246, -0.088280, 0.029583, -0.026043}, {0.000000, -0.000000, 0.000000, 0.000000, -0.000000, -0.000000, -0.000000, -0.000000, 0.000000, -0.000000, 0.000000, 0.000000, 0.000000, -0.000000, 0.000000, -0.000000, 0.000000, 0.000000, 0.000000, -0.000000, -0.000000, -0.000000, -0.000000, 0.000000, 0.000000, -0.000000, -0.000000, -0.000000, -0.000000, 0.000000, -0.000000, -0.000000, 0.000000, 0.000000, 0.000000, 0.000000, -0.000000, 0.000000, 0.000000, 0.000000}, {-0.197321, 0.841144, -0.003369, 0.229161, -0.844442, -0.010058, 0.202502, 0.181329, -0.050681, 0.033225, -0.221578, -0.079706, 0.000224, -0.175161, -0.006187, -0.138314, 0.084903, 0.005471, -0.057206, 0.051442, -0.068324, -0.025301, 0.153838, 0.762831, 0.024607, 0.759758, -0.058173, 0.070576, 0.084981, 0.086388, -0.053663, -0.453160, 0.062788, 0.031098, 0.340702, 0.079318, -0.028126, 0.075625, 0.132391, 0.037249}, {-0.604800, -0.042423, 0.156366, 0.717700, 0.023116, -0.101232, 0.659999, 0.602055, 0.006977, -0.082092, -0.883970, -0.008819, -0.061231, -0.519449, 0.039710, 0.000506, 1.086560, -0.010895, -0.001926, 0.037124, 0.019307, -0.006840, 0.007231, -0.023940, -0.018402, 0.032435, 0.052327, -0.037711, 0.028113, 0.038365, 0.032202, 0.029608, 0.015854, -0.025152, -0.125134, -0.036217, -0.028001, 1.091577, 0.116509, -0.091784}, {0.000000, -0.000000, 0.000000, -0.000000, 0.000000, 0.000000, 0.000000, -0.000000, -0.000000, 0.000000, -0.000000, -0.000000, -0.000000, 0.000000, -0.000000, -0.000000, 0.000000, -0.000000, 0.000000, 0.000000, -0.000000, 0.000000, 0.000000, 0.000000, -0.000000, 0.000000, -0.000000, -0.000000, -0.000000, 0.000000, 0.000000, -0.000000, -0.000000, 0.000000, -0.000000, 0.000000, 0.000000, -0.000000, -0.000000, 0.000000}, {0.000000, 0.000000, 0.000000, 0.000000, 0.000000, -0.000000, 0.000000, -0.000000, -0.000000, 0.000000, -0.000000, -0.000000, -0.000000, -0.000000, 0.000000, -0.000000, 0.000000, -0.000000, -0.000000, -0.000000, -0.000000, 0.000000, -0.000000, 0.000000, 0.000000, 0.000000, -0.000000, 0.000000, -0.000000, 0.000000, -0.000000, -0.000000, -0.000000, 0.000000, -0.000000, 0.000000, 0.000000, 0.000000, -0.000000, -0.000000}, {-0.205712, 0.004957, -0.136457, 0.343435, -0.026029, -0.034399, 0.247562, 0.224618, -0.002453, 0.012099, -0.971736, 0.014248, 0.024985, -0.074978, 0.097918, 0.280122, 1.268092, 0.013147, 0.009073, -0.000438, 0.049187, 0.004050, -0.279140, 0.083336, 0.069195, 0.068201, -0.081563, 0.073146, -0.002035, -0.080909, 0.003133, -0.311139, 0.024107, -0.037092, 0.254746, 0.074313, 0.020006, 1.280734, 0.030239, 0.162719}, {0.000000, -0.000000, 0.000000, -0.000000, 0.000000, -0.000000, -0.000000, -0.000000, 0.000000, 0.000000, 0.000000, 0.000000, 0.000000, -0.000000, 0.000000, -0.000000, 0.000000, 0.000000, -0.000000, 0.000000, 0.000000, -0.000000, 0.000000, -0.000000, -0.000000, -0.000000, -0.000000, 0.000000, -0.000000, 0.000000, -0.000000, 0.000000, 0.000000, 0.000000, 0.000000, -0.000000, -0.000000, 0.000000, -0.000000, 0.000000}, {-0.000000, -0.000000, 0.000000, -0.000000, 0.000000, 0.000000, -0.000000, -0.000000, -0.000000, -0.000000, -0.000000, 0.000000, 0.000000, 0.000000, -0.000000, -0.000000, 0.000000, -0.000000, -0.000000, 0.000000, -0.000000, -0.000000, 0.000000, -0.000000, 0.000000, -0.000000, 0.000000, -0.000000, 0.000000, 0.000000, 0.000000, 0.000000, -0.000000, -0.000000, -0.000000, -0.000000, -0.000000, -0.000000, -0.000000, -0.000000}, {0.289163, 0.071376, -0.203201, -0.277963, -0.070680, -0.151155, -0.319028, -0.288872, -0.042323, -0.088020, 0.184803, 0.020288, -0.032264, 0.206316, 0.058159, 1.075464, -0.194666, -0.014109, 0.025222, -0.000544, 0.203612, -0.045177, -1.102806, 0.170437, -0.052010, 0.099405, 0.057346, -0.046681, -0.029151, -0.220279, -0.044688, -0.082539, -0.021840, 0.052809, 0.188307, -0.031281, -0.080355, -0.195215, 0.138322, 0.238998}, {-0.000000, 0.000000, -0.000000, -0.000000, -0.000000, 0.000000, -0.000000, 0.000000, 0.000000, 0.000000, 0.000000, 0.000000, -0.000000, -0.000000, -0.000000, 0.000000, -0.000000, 0.000000, 0.000000, 0.000000, -0.000000, 0.000000, -0.000000, -0.000000, 0.000000, -0.000000, 0.000000, -0.000000, 0.000000, -0.000000, -0.000000, -0.000000, -0.000000, 0.000000, 0.000000, 0.000000, -0.000000, 0.000000, 0.000000, 0.000000}, {-0.000000, 0.000000, 0.000000, 0.000000, 0.000000, 0.000000, 0.000000, 0.000000, 0.000000, 0.000000, 0.000000, -0.000000, 0.000000, -0.000000, -0.000000, 0.000000, -0.000000, -0.000000, -0.000000, 0.000000, 0.000000, -0.000000, 0.000000, 0.000000, -0.000000, 0.000000, 0.000000, 0.000000, 0.000000, -0.000000, 0.000000, -0.000000, 0.000000, -0.000000, -0.000000, 0.000000, 0.000000, -0.000000, 0.000000, -0.000000}, {-0.549138, -0.434474, 0.057303, 0.510486, 0.427604, 0.053567, 0.540909, 0.558668, 0.024551, -0.013083, 0.008834, 0.012668, 0.030135, -0.195589, -0.013320, 0.220498, -0.053269, 0.022468, 0.015000, -0.011074, -0.034861, 0.022032, -0.212424, -0.384186, -0.004705, -0.337135, 0.006122, -0.012573, 0.006042, 0.037960, -0.006782, -0.123113, -0.013929, 0.010893, 0.041762, 0.011728, -0.024267, -0.059842, 0.029404, -0.055405}, {-0.281481, -0.234972, -0.046547, 0.261882, 0.226627, -0.135106, 0.260304, 0.302155, 0.047666, -0.007755, -0.007128, -0.027096, 0.003087, 0.140262, 0.019644, 0.316950, -0.057796, -0.013195, -0.039309, 0.040362, 0.112895, -0.012395, -0.312268, -0.155830, 0.035738, -0.145494, -0.033166, 0.024133, 0.046327, -0.073817, 0.067611, -0.190744, 0.034711, -0.092592, 0.157101, 0.044920, 0.070584, -0.064846, 0.048876, 0.068719}, {-0.000000, -0.000000, 0.000000, 0.000000, -0.000000, 0.000000, -0.000000, -0.000000, 0.000000, -0.000000, 0.000000, -0.000000, -0.000000, 0.000000, -0.000000, 0.000000, -0.000000, -0.000000, 0.000000, 0.000000, -0.000000, 0.000000, -0.000000, -0.000000, -0.000000, -0.000000, 0.000000, -0.000000, -0.000000, -0.000000, 0.000000, -0.000000, 0.000000, -0.000000, 0.000000, -0.000000, 0.000000, 0.000000, -0.000000, -0.000000}, {0.000000, -0.000000, 0.000000, -0.000000, 0.000000, -0.000000, -0.000000, -0.000000, 0.000000, -0.000000, -0.000000, -0.000000, 0.000000, 0.000000, -0.000000, -0.000000, 0.000000, -0.000000, 0.000000, -0.000000, 0.000000, 0.000000, 0.000000, -0.000000, -0.000000, -0.000000, -0.000000, 0.000000, 0.000000, -0.000000, 0.000000, -0.000000, 0.000000, -0.000000, 0.000000, -0.000000, 0.000000, 0.000000, -0.000000, 0.000000}, {-0.015991, -0.145261, 0.614220, -0.037412, 0.147143, 0.025923, -0.017510, -0.006162, -0.068652, -0.004955, 0.165024, -0.058818, -0.007927, -0.215042, 0.028732, 0.581510, -0.088285, 0.064949, -0.061504, 0.032099, -0.313778, -0.021848, -0.588320, -0.070533, 0.060750, -0.085923, -0.097146, 0.103578, 0.069745, 0.454628, -0.041262, 0.655485, 0.109255, 0.064505, -0.672297, 0.088706, -0.027247, -0.082338, -0.001274, -0.563938}, {-0.026098, 0.949743, 0.050421, 0.050771, -0.953885, 0.064819, 0.007241, -0.022993, -0.004922, -0.013279, -0.180474, -0.014019, 0.026940, -0.132095, 0.049733, 0.118751, 0.025481, 0.048466, 0.032734, 0.019629, -0.064488, -0.061761, -0.129710, 0.961173, 0.030318, 0.880342, 0.002715, -0.003714, -0.016532, 0.057614, -0.009222, -0.056312, 0.014136, -0.021390, 0.002461, -0.020208, 0.039459, 0.013517, -0.099567, -0.052115}, {-0.000000, -0.000000, -0.000000, -0.000000, 0.000000, -0.000000, -0.000000, -0.000000, -0.000000, -0.000000, -0.000000, -0.000000, 0.000000, -0.000000, 0.000000, -0.000000, 0.000000, 0.000000, -0.000000, -0.000000, 0.000000, -0.000000, 0.000000, -0.000000, -0.000000, -0.000000, -0.000000, -0.000000, -0.000000, 0.000000, 0.000000, 0.000000, -0.000000, 0.000000, 0.000000, 0.000000, 0.000000, 0.000000, -0.000000, 0.000000}, {0.020456, -0.028316, -0.334884, -0.017561, 0.024965, -0.125347, -0.050690, 0.001254, -0.016931, -0.058443, 0.122585, -0.008716, -0.043214, 0.240017, 0.105253, 0.744256, -0.191373, -0.045319, -0.069517, -0.001691, 0.192618, -0.012001, -0.754383, 0.074278, 0.080459, 0.031087, 0.021605, -0.020224, 0.046155, -0.256375, 0.008874, -0.356833, 0.059801, -0.007901, 0.445750, 0.004602, -0.024013, -0.197841, -0.005242, 0.345641}, {0.000000, 0.000000, -0.000000, -0.000000, -0.000000, 0.000000, -0.000000, -0.000000, -0.000000, -0.000000, 0.000000, 0.000000, -0.000000, 0.000000, 0.000000, 0.000000, 0.000000, 0.000000, -0.000000, 0.000000, -0.000000, -0.000000, -0.000000, 0.000000, 0.000000, 0.000000, -0.000000, -0.000000, 0.000000, 0.000000, 0.000000, 0.000000, -0.000000, 0.000000, 0.000000, -0.000000, 0.000000, -0.000000, -0.000000, 0.000000}, {0.000000, -0.000000, 0.000000, -0.000000, 0.000000, 0.000000, 0.000000, -0.000000, -0.000000, -0.000000, -0.000000, 0.000000, 0.000000, -0.000000, -0.000000, -0.000000, -0.000000, -0.000000, -0.000000, -0.000000, -0.000000, 0.000000, 0.000000, -0.000000, -0.000000, -0.000000, 0.000000, -0.000000, -0.000000, 0.000000, 0.000000, -0.000000, -0.000000, 0.000000, 0.000000, 0.000000, 0.000000, 0.000000, -0.000000, -0.000000}, {-0.000000, -0.000000, 0.000000, 0.000000, 0.000000, 0.000000, 0.000000, 0.000000, 0.000000, 0.000000, 0.000000, -0.000000, -0.000000, -0.000000, -0.000000, -0.000000, -0.000000, -0.000000, 0.000000, -0.000000, 0.000000, 0.000000, 0.000000, 0.000000, -0.000000, -0.000000, -0.000000, 0.000000, -0.000000, -0.000000, 0.000000, -0.000000, 0.000000, -0.000000, -0.000000, -0.000000, 0.000000, -0.000000, 0.000000, 0.000000}, {-0.000000, -0.000000, 0.000001, 0.000001, 0.000000, -0.000002, -0.000000, 0.000000, 0.000000, -0.000001, -0.000001, 0.000000, 0.000001, 0.000001, -0.000000, 0.000002, -0.000000, 0.000002, -0.000001, -0.000000, -0.000001, -0.000001, -0.000001, 0.000000, -0.000000, 0.000000, 0.000000, -0.000001, 0.000001, -0.000001, 0.000000, 0.000000, 0.000001, 0.000001, 0.000001, -0.000001, -0.000001, -0.000001, 0.000001, 0.000001}, {-0.112233, 0.066517, 0.019520, 0.118551, -0.076475, -0.003817, 0.102644, 0.120847, 0.032829, 0.139078, -0.203628, 0.100990, 0.104702, 0.111129, -0.030494, 0.158139, 0.131673, 0.101876, -0.045608, -0.099444, 0.018811, 0.093665, -0.158213, 0.113812, 0.091626, 0.129898, -0.139688, 0.162339, -0.043240, 0.015044, 0.029247, -0.162283, -0.009485, -0.030631, 0.089721, 0.021799, 0.074416, 0.125903, -0.153385, 0.009404}, {-0.000000, -0.000000, -0.000000, -0.000000, 0.000000, -0.000000, -0.000000, -0.000000, -0.000000, -0.000000, -0.000000, 0.000000, 0.000000, -0.000000, -0.000000, 0.000000, 0.000000, -0.000000, -0.000000, -0.000000, -0.000000, 0.000000, -0.000000, 0.000000, -0.000000, -0.000000, 0.000000, 0.000000, 0.000000, -0.000000, 0.000000, 0.000000, -0.000000, 0.000000, -0.000000, 0.000000, 0.000000, -0.000000, -0.000000, -0.000000}, {-0.119501, -0.014805, -0.068926, 0.111149, 0.014378, 0.199280, 0.088603, 0.100207, 0.109248, 0.099422, 0.161717, -0.129913, 0.115172, -0.185385, -0.101094, 1.281506, -0.202040, 0.021955, 0.007855, 0.104473, -0.072910, 0.032654, -1.293673, 0.061345, 0.045027, 0.026011, -0.130894, 0.085238, 0.133226, 0.000562, 0.069389, -0.074313, 0.014745, -0.070082, 0.096536, 0.135132, 0.098564, -0.208131, 0.004984, 0.052633}, {-0.000000, 0.000000, 0.000000, -0.000000, 0.000000, -0.000000, -0.000000, 0.000000, -0.000000, 0.000000, 0.000000, 0.000000, -0.000000, 0.000000, -0.000000, -0.000000, -0.000000, 0.000000, -0.000000, 0.000000, -0.000000, -0.000000, 0.000000, -0.000000, 0.000000, 0.000000, 0.000000, 0.000000, 0.000000, -0.000000, 0.000000, 0.000000, 0.000000, -0.000000, 0.000000, 0.000000, 0.000000, -0.000000, 0.000000, 0.000000}, {-0.000000, 0.000000, 0.000000, -0.000000, -0.000000, -0.000000, 0.000000, -0.000000, 0.000000, 0.000000, 0.000000, 0.000000, -0.000000, 0.000000, -0.000000, -0.000000, -0.000000, 0.000000, -0.000000, 0.000000, 0.000000, 0.000000, 0.000000, -0.000000, 0.000000, -0.000000, -0.000000, -0.000000, -0.000000, 0.000000, -0.000000, -0.000000, 0.000000, 0.000000, 0.000000, -0.000000, 0.000000, 0.000000, -0.000000, -0.000000}, {0.000000, -0.000000, 0.000000, -0.000000, 0.000000, -0.000000, -0.000000, -0.000000, 0.000000, -0.000000, -0.000000, -0.000000, 0.000000, 0.000000, 0.000000, 0.000000, 0.000000, -0.000000, -0.000000, -0.000000, -0.000000, -0.000000, -0.000000, -0.000000, -0.000000, -0.000000, -0.000000, 0.000000, 0.000000, 0.000000, -0.000000, -0.000000, 0.000000, -0.000000, 0.000000, -0.000000, -0.000000, 0.000000, -0.000000, -0.000000}, {0.000000, -0.000000, -0.000000, -0.000000, 0.000000, 0.000000, 0.000000, 0.000000, -0.000000, -0.000000, 0.000000, -0.000000, 0.000000, -0.000000, 0.000000, 0.000000, 0.000000, -0.000000, 0.000000, -0.000000, -0.000000, 0.000000, -0.000000, 0.000000, -0.000000, -0.000000, -0.000000, 0.000000, 0.000000, -0.000000, 0.000000, -0.000000, 0.000000, 0.000000, 0.000000, -0.000000, 0.000000, 0.000000, 0.000000, -0.000000}, {-0.000000, 0.000000, 0.000000, 0.000000, -0.000000, -0.000000, 0.000000, -0.000000, -0.000000, -0.000000, 0.000000, -0.000000, -0.000000, -0.000000, 0.000000, 0.000000, 0.000000, 0.000000, -0.000000, 0.000000, -0.000000, -0.000000, -0.000000, -0.000000, -0.000000, -0.000000, -0.000000, -0.000000, 0.000000, 0.000000, -0.000000, -0.000000, -0.000000, 0.000000, -0.000000, -0.000000, -0.000000, -0.000000, 0.000000, 0.000000}, {-0.085474, -0.458654, 0.357262, 0.144241, 0.442475, -0.035482, 0.089511, 0.148417, -0.020172, -0.001204, -0.704867, -0.064692, 0.048665, -0.015750, 0.024912, 0.187414, 0.846705, 0.068307, 0.031716, 0.077966, -0.056252, -0.022315, -0.176561, -0.595666, 0.055798, -0.503253, -0.066454, 0.054553, 0.118383, 0.104478, -0.027677, 0.182560, 0.085756, -0.061830, -0.359773, 0.108165, 0.004253, 0.851028, 0.145997, -0.271136}};
static const float * p_layer_3_weight = layer_3_weight;
static const float layer_3_bias[40] = {0.368747, -0.203382, -0.133757, -0.368190, 0.202000, -0.020950, -0.359827, -0.375166, 0.054085, -0.019072, 0.240678, 0.011745, 0.003698, 0.154152, 0.024906, -0.120799, -0.160359, 0.001170, 0.023686, 0.000961, 0.055903, -0.009095, 0.089528, -0.084128, 0.021449, -0.146793, -0.020011, 0.013976, -0.015486, -0.088182, 0.053308, 0.085172, -0.004657, -0.045047, 0.014084, 0.001128, 0.041542, -0.149141, -0.052795, 0.102753};
static const float * p_layer_3_bias = layer_3_bias;
    
static float relu(float num) {
    if (num > 0) {
        return num;
    } else {
        return 0;
    }
}

static void layer(const float * in, const float * layer_weight, const float * layer_bias,   
            int row, int col, float * output, int use_activation) {
    int ii;
    int jj;
    const float * p;

    for(ii = 0; ii < col; ii++) {
        p = layer_weight + ii;
        output[ii] = 0;
        for (jj = 0; jj < row; jj++) {
            output[ii] += in[jj] * (*p); 
            p += col;
        }
        output[ii] += layer_bias[ii];

        if (use_activation == 1) {
			output[ii] = relu(output[ii]);
        }
    }
}

const float* nn_phi_2(const float* input) {
	layer(input, p_layer_0_weight, p_layer_0_bias, STRUCTURE[0][0], STRUCTURE[0][1], output_0, 1);
	layer(output_0, p_layer_1_weight, p_layer_1_bias, STRUCTURE[1][0], STRUCTURE[1][1], output_1, 1);
	layer(output_1, p_layer_2_weight, p_layer_2_bias, STRUCTURE[2][0], STRUCTURE[2][1], output_2, 1);
	layer(output_2, p_layer_3_weight, p_layer_3_bias, STRUCTURE[3][0], STRUCTURE[3][1], output_3, 0);

	return output_3;
}
