/*
 * FILE: generated.c
 */

#include <stdio.h>
#include <stdlib.h>
#include <string.h>
#include <math.h>
#include "phi_0902_2.h"

static const int STRUCTURE[4][2] = {{6, 25}, {25, 40}, {40, 40}, {40, 40}};
static float output_0[25];
static float output_1[40];
static float output_2[40];
static float output_3[40];
static const float layer_0_weight[6][25] = {{-1.128833, 0.000007, 0.000042, -0.470328, -0.000012, 1.465141, -0.348194, -0.170869, -0.000016, -0.123784, -0.000009, 1.032647, -0.617348, -0.000007, -1.364154, 0.000016, 2.746282, 0.004442, -1.871818, 0.455339, -0.667533, 0.000002, -0.000002, -0.367043, -0.020625}, {-0.092465, 0.000002, 0.000007, 0.328115, 0.000022, 0.296968, -0.292459, -1.758247, 0.000009, 0.898466, -0.000007, -0.905625, 1.625720, 0.000004, 0.884912, -0.000002, 0.107161, 0.000156, -0.028087, 0.528918, 1.568850, -0.000007, -0.000000, 0.001686, 0.153790}, {0.060882, 0.000006, 0.000005, -1.062158, -0.000015, -0.497166, 0.018441, 0.015166, 0.000006, 0.023817, -0.000010, -0.006387, -0.012059, -0.000003, 0.047484, -0.000010, 0.098149, -0.000530, -0.033392, 0.151057, -0.029097, 0.000007, -0.000011, 0.564187, -0.230945}, {-0.356517, 0.000003, -0.000025, 0.281872, -0.000020, -0.853694, 0.009957, -0.105491, 0.000010, 0.186381, -0.000005, 0.146125, 0.037192, -0.000008, 0.020970, -0.000004, 0.543253, -0.000461, -0.072126, 1.126009, 0.048793, -0.000009, 0.000001, 0.264865, 0.254075}, {0.082957, 0.000001, -0.000001, 0.017711, -0.000006, -0.093566, -0.724928, 0.006534, 0.000001, -0.354626, -0.000003, -0.041227, -0.020567, 0.000006, -0.151731, -0.000009, 0.253738, -0.000032, -0.531089, -0.178426, -0.016415, -0.000002, 0.000005, 0.059562, 0.507262}, {-0.929600, 0.000001, 0.000014, 0.197449, 0.000004, 0.003850, -0.133991, 0.011297, 0.000012, -0.271756, -0.000001, -0.607817, -0.065961, 0.000005, 0.205379, 0.000007, -0.226752, -0.002205, 0.112493, -0.003532, -0.104186, 0.000006, -0.000004, 0.973188, 0.024222}};
static const float * p_layer_0_weight = layer_0_weight;
static const float layer_0_bias[25] = {0.011684, -0.134557, -0.149195, 0.199381, -0.202548, 0.024201, -0.077244, 0.002749, -0.198974, -0.098746, -0.271113, 0.020872, -0.007251, -0.302977, -0.019134, -0.314675, -0.172999, -0.175117, -0.142802, -0.070845, -0.002593, -0.376669, -0.367683, -0.081719, 0.022853};
static const float * p_layer_0_bias = layer_0_bias;
static const float layer_1_weight[25][40] = {{0.000002, 0.544191, -0.142280, -0.000014, 0.372733, -0.000031, 0.000002, -0.000012, -0.000007, 0.000008, -0.000078, -0.848969, 0.000000, 0.527950, -0.000003, -0.000028, -0.037575, -0.000293, 0.458184, -0.161184, -0.067515, -0.037644, -0.000006, -0.000009, -0.254005, -0.516391, 0.322003, -0.121567, 0.000013, 0.406389, -0.236959, -0.000009, -0.625560, -0.000008, -0.500995, 0.020392, 0.000004, 0.000003, -0.000009, -0.655382}, {-0.000005, -0.000011, -0.000003, -0.000057, -0.000001, 0.000013, 0.000003, 0.000005, 0.000001, -0.000001, 0.000010, -0.000012, -0.000010, -0.000017, 0.000008, 0.000005, -0.000014, -0.000011, 0.000011, 0.000003, -0.000001, -0.000018, 0.000001, -0.000011, -0.000006, 0.000001, -0.000013, -0.000010, 0.000010, -0.000007, 0.000001, -0.000003, -0.000016, 0.000000, 0.000002, 0.000007, -0.000005, 0.000002, 0.000010, 0.000006}, {0.000004, -0.000028, 0.000039, -0.000025, 0.000032, 0.000016, -0.000010, -0.000006, -0.000003, -0.000012, -0.000003, 0.000010, 0.000001, -0.000074, -0.000004, -0.000029, -0.000003, 0.000008, -0.000016, -0.000012, -0.000052, 0.000002, -0.000011, -0.000008, -0.000002, 0.000012, -0.000112, -0.000025, -0.000046, -0.000065, -0.000151, 0.000006, 0.000006, -0.000012, 0.000011, 0.000035, -0.000000, 0.000005, 0.000005, 0.000016}, {0.000007, 0.303342, -0.419232, -0.000002, -0.193474, -0.000034, -0.000011, -0.000021, -0.000015, -0.000007, -0.000043, -0.078635, 0.000005, 0.110749, 0.000005, 0.000002, 1.079053, -0.000040, -0.160896, -0.398199, -0.006490, 0.432800, -0.000008, -0.000006, -0.233389, 0.192435, -0.741024, -0.124510, -0.000095, 0.152559, 0.586225, -0.000000, 0.586147, -0.000005, 0.548841, 0.579137, 0.000003, -0.000011, 0.000003, -0.942743}, {-0.000012, -0.000008, 0.000029, 0.000004, -0.000001, -0.000006, -0.000004, -0.000019, -0.000011, -0.000004, -0.000001, -0.000012, 0.000008, 0.000031, -0.000007, -0.000005, -0.000023, -0.000021, 0.000005, 0.000038, -0.000008, -0.000025, 0.000006, -0.000005, -0.000023, -0.000020, -0.000022, -0.000010, -0.000002, 0.000055, -0.000031, -0.000000, -0.000004, -0.000005, -0.000014, 0.000024, -0.000008, -0.000007, 0.000012, -0.000015}, {-0.000012, 0.581934, 0.263934, 0.000022, -0.080552, -0.000061, -0.000009, 0.000004, -0.000006, 0.000001, -0.000022, -0.122690, 0.000004, 0.377668, -0.000009, -0.000013, 0.514995, 0.000001, -0.644210, 0.144152, -0.287155, 0.431585, 0.000010, -0.000011, 0.383839, -0.280832, -0.022208, 0.238336, -0.000128, -0.007214, 0.723620, -0.000008, 0.216613, -0.000010, 0.202089, 0.690028, -0.000004, 0.000004, 0.000003, -0.210871}, {-0.000009, -0.167240, -0.243359, -0.000010, 0.220240, 0.000005, -0.000006, 0.000006, -0.000001, 0.000001, -0.000009, -0.013535, -0.000002, 0.066800, -0.000014, -0.000009, -0.041197, -0.000017, 0.102894, -0.272723, -1.108865, -0.395657, -0.000002, -0.000002, -0.046286, 0.062787, 0.439668, -1.286674, 0.000050, -0.174155, 0.253732, -0.000011, 0.191536, 0.000001, 0.174771, 0.267877, -0.000002, -0.000011, -0.000000, 0.039815}, {0.000009, 0.077706, -0.871872, -0.000018, -0.464413, -0.000098, -0.000012, 0.000001, -0.000012, 0.000001, -0.000151, -0.718707, 0.000003, -1.794223, -0.000001, -0.000100, -0.035859, -0.000314, -0.279565, -0.775915, -0.247452, 0.617118, 0.000000, -0.000010, -0.814430, -0.434308, -0.221966, -0.158670, -0.000024, 0.210876, 0.544306, -0.000009, -0.907061, -0.000004, -0.897748, -2.267709, 0.000002, 0.000002, -0.000030, 0.556222}, {-0.000010, -0.000040, -0.000006, -0.000023, -0.000020, 0.000011, -0.000016, -0.000003, -0.000010, -0.000006, -0.000013, -0.000007, -0.000011, -0.000047, -0.000008, -0.000022, 0.000020, -0.000028, -0.000036, 0.000007, -0.000001, -0.000027, 0.000001, -0.000012, -0.000009, 0.000012, -0.000048, -0.000005, 0.000005, -0.000001, -0.000036, -0.000013, -0.000003, -0.000006, -0.000006, 0.000011, -0.000013, 0.000002, 0.000004, -0.000010}, {-0.000009, 0.263863, 0.119848, 0.000017, 0.035862, -0.000058, -0.000002, -0.000010, -0.000015, 0.000001, -0.000009, 0.225100, -0.000009, 0.684809, -0.000007, 0.000004, 0.067575, 0.000012, 0.697614, 0.070208, -0.512888, -0.437595, 0.000001, -0.000008, 0.245072, 0.396212, -0.168491, -0.973773, 0.000058, 0.597471, -0.724672, -0.000000, 0.186877, -0.000008, 0.118133, 0.618523, 0.000008, 0.000010, 0.000002, -0.810238}, {0.000007, -0.000007, -0.000013, 0.000008, -0.000006, 0.000006, 0.000006, -0.000011, -0.000008, -0.000007, -0.000006, -0.000006, 0.000011, 0.000006, -0.000007, 0.000007, -0.000000, -0.000011, -0.000010, -0.000005, 0.000013, -0.000005, 0.000004, 0.000010, 0.000011, -0.000005, 0.000011, -0.000007, 0.000006, -0.000010, -0.000001, 0.000001, 0.000003, -0.000005, -0.000003, -0.000007, 0.000010, -0.000008, -0.000008, 0.000010}, {0.000000, 0.349362, -0.126728, -0.000001, 0.066506, -0.000131, -0.000011, -0.000009, -0.000007, -0.000010, -0.000129, -0.745100, -0.000002, -0.149729, 0.000004, -0.000049, 0.128854, -0.000105, 0.299353, -0.185454, 0.010771, 0.197235, -0.000003, -0.000005, -0.644547, -0.774976, -0.011514, 0.011479, 0.000002, 0.305540, 0.241300, 0.000008, -0.534318, 0.000002, -0.373676, -0.893469, -0.000005, -0.000009, -0.000022, 0.094170}, {-0.000001, -0.056456, -0.573776, -0.000008, -0.242977, -0.000216, -0.000007, -0.000001, 0.000007, -0.000004, -0.000109, -0.858001, 0.000001, 0.369901, 0.000013, -0.000072, 0.033125, -0.000319, 0.055315, -0.572125, -1.129313, 0.150737, 0.000006, -0.000002, -0.473094, -0.167003, -0.562053, -0.271054, 0.000031, -0.096657, 0.443298, -0.000001, -0.710176, -0.000007, -0.903359, 0.460615, 0.000007, -0.000008, -0.000043, -0.627316}, {-0.000012, 0.000005, 0.000005, 0.000011, -0.000010, 0.000008, -0.000009, 0.000006, 0.000007, 0.000007, -0.000007, 0.000003, -0.000006, -0.000002, 0.000005, -0.000006, 0.000011, 0.000009, -0.000012, -0.000008, 0.000003, 0.000002, 0.000002, 0.000009, 0.000002, 0.000009, 0.000002, 0.000008, 0.000008, 0.000011, -0.000004, 0.000007, 0.000007, 0.000010, 0.000007, -0.000006, -0.000003, -0.000010, 0.000010, 0.000007}, {-0.000003, 0.037649, 0.217873, 0.000026, -0.422872, -0.000076, 0.000004, -0.000004, 0.000001, 0.000001, -0.000018, 0.257154, 0.000002, 0.308766, 0.000004, -0.000012, -0.045824, -0.000027, -0.546401, -0.138182, -1.230012, 0.262648, -0.000002, -0.000001, 0.098775, 0.180690, -0.438070, 0.045084, -0.000011, -0.154138, 0.220006, 0.000000, 0.333618, -0.000009, 0.232548, 0.449543, 0.000004, 0.000010, 0.000015, -0.554659}, {-0.000010, 0.000006, 0.000015, 0.000005, -0.000006, 0.000003, 0.000010, 0.000006, -0.000011, 0.000008, 0.000005, -0.000009, -0.000005, 0.000017, 0.000004, 0.000000, 0.000002, 0.000002, -0.000010, 0.000009, -0.000011, 0.000009, -0.000003, -0.000000, -0.000007, -0.000015, -0.000032, -0.000011, 0.000007, -0.000003, 0.000035, 0.000007, -0.000002, -0.000008, 0.000002, 0.000004, 0.000007, 0.000008, 0.000003, -0.000042}, {0.000009, -0.607109, -0.246732, -0.000014, 0.500141, 0.000061, -0.000009, -0.000018, -0.000007, -0.000004, -0.000005, -0.288757, 0.000002, -0.256495, -0.000009, -0.000016, 0.195238, 0.000068, 0.697890, 0.034494, 0.205021, -1.117138, -0.000012, -0.000003, 0.149346, -0.126270, 0.350901, -0.383562, -0.000003, -0.484082, -0.220217, -0.000008, 0.226351, -0.000014, 0.337581, 0.054692, 0.000001, -0.000003, 0.000002, -0.212718}, {0.000006, 0.000423, 0.001419, 0.000006, 0.000866, -0.000164, -0.000017, -0.000007, 0.000009, 0.000006, -0.000016, -0.004089, 0.000001, 0.004835, -0.000005, -0.000036, 0.000910, -0.000202, 0.001533, 0.000611, 0.000597, -0.000745, 0.000003, -0.000005, -0.003059, -0.003973, 0.001423, 0.000190, 0.000031, 0.001149, 0.000377, -0.000005, 0.003072, -0.000007, -0.000281, 0.000333, 0.000003, -0.000005, -0.000016, -0.002058}, {-0.000008, -0.510698, -0.008225, -0.000015, 0.213061, -0.000009, -0.000014, -0.000007, 0.000003, 0.000011, -0.000010, 0.055547, 0.000005, 0.134460, -0.000009, -0.000014, -0.054725, -0.000022, 0.109588, -0.330497, -1.020107, -0.838831, 0.000004, -0.000011, 0.061972, -0.002829, 0.697923, -0.985307, 0.000009, -0.753398, 0.273320, -0.000007, 0.245189, -0.000001, 0.228413, 0.268949, 0.000003, -0.000003, 0.000011, -0.135221}, {0.000009, -1.005183, 0.036857, -0.000028, -0.749155, -0.000016, -0.000009, -0.000002, -0.000007, -0.000003, -0.000054, 0.015601, -0.000010, 0.228369, -0.000004, -0.000025, -0.244804, -0.000124, -1.255397, 0.103024, -0.450203, 0.138419, 0.000005, -0.000002, 0.078861, 0.614076, -0.343173, -0.508229, -0.000010, 0.234186, -0.210972, -0.000010, -0.098313, 0.000003, 0.015631, 0.224452, 0.000001, 0.000006, 0.000002, -0.001982}, {0.000010, -0.056643, -0.561945, -0.000026, -0.153644, -0.000150, -0.000002, -0.000003, 0.000003, -0.000004, -0.000069, -0.819013, 0.000004, 0.366805, -0.000011, -0.000067, 0.038761, -0.000189, 0.085460, -0.502905, -1.037090, 0.078743, -0.000003, -0.000006, -0.445254, -0.169859, -0.448823, -0.276710, -0.000021, -0.092194, 0.408547, -0.000005, -0.582914, -0.000009, -0.752588, 0.407730, 0.000006, 0.000004, -0.000052, -0.459321}, {0.000011, 0.000009, -0.000004, 0.000010, -0.000000, -0.000009, 0.000008, 0.000007, 0.000001, 0.000006, -0.000007, -0.000010, -0.000011, 0.000008, 0.000011, -0.000006, 0.000002, -0.000006, 0.000000, 0.000002, 0.000001, -0.000003, -0.000001, 0.000000, -0.000011, -0.000000, -0.000004, 0.000008, 0.000005, 0.000007, 0.000009, 0.000010, -0.000006, 0.000000, 0.000004, 0.000007, 0.000002, -0.000012, -0.000009, 0.000010}, {-0.000004, 0.000005, -0.000010, 0.000005, -0.000003, -0.000009, 0.000002, -0.000007, -0.000000, -0.000010, -0.000006, -0.000000, 0.000002, 0.000008, 0.000007, 0.000011, -0.000004, -0.000011, 0.000000, 0.000000, -0.000008, -0.000004, 0.000009, 0.000001, -0.000011, -0.000004, 0.000003, -0.000009, -0.000010, 0.000009, -0.000000, 0.000002, 0.000003, -0.000005, 0.000007, -0.000002, -0.000011, 0.000009, 0.000005, -0.000005}, {0.000002, -1.196873, 0.146314, -0.000018, -0.398963, 0.000018, -0.000016, -0.000005, -0.000004, 0.000012, -0.000019, 0.090799, -0.000007, -0.234239, 0.000003, -0.000033, -0.301498, -0.000150, -1.270720, -0.250712, -0.029404, -0.069425, 0.000007, 0.000004, 0.230502, 0.584555, -0.160097, 0.277469, -0.000050, -0.851074, -0.593842, 0.000004, -0.313304, -0.000005, -0.244765, -0.187691, -0.000004, 0.000001, 0.000002, -0.048149}, {0.000006, -0.297758, -0.170480, 0.000009, -0.013553, -0.000044, -0.000004, -0.000018, 0.000006, 0.000009, -0.000013, 0.107901, 0.000008, -0.307502, -0.000011, -0.000007, 0.170115, 0.000008, 0.147673, -0.260076, 0.062633, -0.183250, 0.000009, 0.000000, 0.089688, 0.220846, -0.104012, -1.209675, 0.000015, -0.127229, 0.323918, 0.000001, -0.078688, 0.000010, -0.061900, 0.200701, -0.000003, 0.000010, 0.000004, -0.671507}};
static const float * p_layer_1_weight = layer_1_weight;
static const float layer_1_bias[40] = {-0.198343, 0.011561, 0.255964, -0.096417, 0.098461, -0.000264, -0.024046, -0.115124, -0.126695, -0.167217, -0.037804, 0.238583, -0.199147, -0.214130, -0.099759, -0.007941, -0.080516, -0.001892, -0.155789, 0.328789, 0.241215, 0.149554, -0.161822, -0.093582, 0.177348, -0.051350, 0.011586, 0.272935, -0.233457, 0.102980, -0.245752, -0.082839, 0.153348, -0.065895, 0.157474, -0.306952, -0.251756, -0.152221, -0.108257, 0.071428};
static const float * p_layer_1_bias = layer_1_bias;
static const float layer_2_weight[40][40] = {{-0.000070, 0.000030, 0.000070, 0.000024, -0.000054, 0.000032, -0.000028, -0.000014, 0.000050, 0.000047, 0.000064, -0.000011, -0.000051, -0.000049, -0.000051, -0.000010, 0.000050, 0.000062, 0.000087, 0.000009, 0.000053, 0.000017, -0.000062, -0.000069, 0.000077, -0.000075, 0.000047, -0.000071, -0.000011, 0.000014, 0.000058, -0.000032, 0.000014, 0.000077, -0.000056, 0.000030, -0.000043, -0.000021, 0.000026, 0.000025}, {-0.000062, 0.000019, -0.000008, -0.881643, -0.000047, -0.000060, -0.434759, -0.002558, -0.000030, -0.593562, -0.000093, 0.000003, 0.000027, 0.165866, -0.000003, 0.423124, 0.120303, -0.001152, -0.000161, -0.168336, -0.000499, -1.091623, -0.000870, -0.000287, -0.000063, -0.229598, 0.000009, -0.000010, 0.187930, -0.008985, 0.027488, 0.000066, -0.000014, -0.000028, -0.001655, -0.000561, -0.000075, -0.000145, 0.635494, -0.548890}, {-0.000013, 0.000020, -0.000061, 0.284197, 0.000023, -0.000034, -0.118291, 0.001308, 0.000063, 0.173338, -0.000052, 0.000054, -0.000056, 0.313505, -0.000017, -0.904710, 0.009711, -0.000120, 0.000044, -0.149739, 0.000151, -0.419979, 0.002031, 0.000127, -0.000018, -0.437726, -0.000074, -0.000003, -1.011835, -0.000133, -0.436563, 0.000055, 0.000075, -0.000062, -0.000053, 0.000181, -0.000060, -0.000010, -0.836368, 0.223139}, {-0.000076, -0.000064, 0.000022, 0.000030, -0.000019, -0.000023, 0.000034, -0.000056, -0.000200, 0.000022, -0.000132, -0.000004, -0.000040, -0.000054, -0.000070, -0.000057, -0.000006, 0.000019, -0.000024, -0.000018, -0.000000, 0.000069, -0.000001, -0.000004, 0.000046, -0.000055, -0.000051, 0.000018, 0.000069, -0.000007, -0.000010, 0.000051, -0.000008, 0.000063, -0.000039, 0.000020, -0.000058, 0.000009, 0.000059, 0.000044}, {-0.000052, 0.000053, -0.000005, 0.107590, 0.000022, 0.000075, -0.425949, 0.001529, -0.000145, 0.414301, -0.000027, 0.000052, -0.000046, 0.169118, 0.000045, 0.310594, -0.022750, 0.000199, -0.000081, 0.227202, -0.000067, 0.007445, 0.003539, 0.000054, -0.000003, -0.576450, -0.000050, -0.000060, -0.289131, 0.001358, 0.161836, 0.000057, -0.000075, 0.000007, 0.000497, 0.000022, -0.000072, -0.000018, -0.253410, 0.093969}, {-0.000055, 0.000083, -0.000008, -0.000004, 0.000047, -0.000072, 0.000124, 0.000044, -0.000049, -0.000147, -0.000061, 0.000080, -0.000015, 0.000082, -0.000052, -0.000065, -0.000034, -0.000116, -0.000029, -0.000265, 0.000003, -0.000133, 0.000054, 0.000032, -0.000040, -0.000366, 0.000083, -0.000027, -0.000215, -0.000066, -0.000454, -0.000058, 0.000034, 0.000023, -0.000069, -0.000050, -0.000062, -0.000008, -0.000125, -0.000006}, {-0.000018, -0.000085, -0.000106, 0.000032, -0.000064, -0.000064, 0.000102, 0.000024, 0.000042, -0.000009, -0.000079, -0.000130, -0.000003, -0.000041, 0.000019, -0.000014, 0.000041, 0.000023, 0.000043, 0.000069, -0.000008, -0.000061, 0.000059, -0.000080, -0.000012, -0.000036, -0.000006, 0.000015, -0.000021, -0.000040, -0.000023, 0.000071, 0.000009, 0.000070, 0.000033, -0.000086, -0.000015, 0.000044, -0.000067, -0.000020}, {0.000008, -0.000083, 0.000036, -0.000044, 0.000076, -0.000061, -0.000011, -0.000054, -0.000059, -0.000011, -0.000071, 0.000053, -0.000055, 0.000082, 0.000007, 0.000062, -0.000025, -0.000008, 0.000029, 0.000041, 0.000016, 0.000089, -0.000077, -0.000030, -0.000048, -0.000046, 0.000055, -0.000036, -0.000007, -0.000027, 0.000020, 0.000024, 0.000005, -0.000043, -0.000004, -0.000008, 0.000057, -0.000067, 0.000055, -0.000010}, {0.000017, 0.000041, 0.000066, 0.000074, 0.000028, -0.000002, 0.000048, -0.000003, 0.000002, 0.000038, 0.000032, -0.000036, 0.000022, 0.000032, 0.000069, 0.000047, 0.000049, -0.000023, 0.000002, -0.000007, 0.000019, -0.000046, -0.000028, -0.000031, 0.000083, 0.000072, 0.000018, -0.000058, -0.000063, 0.000044, 0.000004, -0.000072, -0.000048, -0.000034, 0.000042, -0.000084, -0.000025, -0.000057, 0.000038, 0.000040}, {-0.000067, -0.000056, -0.000083, -0.000070, 0.000064, -0.000025, -0.000060, -0.000006, 0.000046, -0.000004, -0.000022, 0.000003, -0.000059, 0.000026, 0.000053, 0.000015, 0.000048, -0.000071, 0.000074, -0.000001, -0.000018, 0.000023, -0.000073, -0.000066, 0.000053, -0.000013, 0.000031, 0.000081, -0.000030, 0.000040, 0.000049, 0.000071, -0.000069, -0.000027, -0.000082, -0.000048, -0.000005, 0.000020, 0.000073, -0.000042}, {-0.000065, -0.000062, 0.000015, -0.000040, -0.000039, 0.000058, -0.000055, -0.000100, -0.000115, -0.000089, -0.000090, -0.000031, 0.000042, -0.000011, 0.000068, -0.000133, -0.000044, -0.000081, -0.000068, 0.000031, -0.000023, -0.000128, -0.000127, 0.000014, 0.000063, -0.000149, 0.000045, 0.000066, -0.000222, -0.000153, -0.000368, -0.000069, 0.000080, -0.000076, -0.000139, -0.000154, -0.000041, -0.000123, -0.000019, -0.000055}, {0.000025, 0.000019, 0.000064, 0.437078, -0.000063, -0.000060, -0.470477, 0.000839, 0.000072, 0.280407, 0.000028, -0.000007, -0.000030, 0.391565, -0.000059, -0.260167, -0.238214, 0.000082, 0.000029, -0.453803, 0.000446, -1.839686, 0.007798, 0.000062, 0.000076, -0.574932, 0.000049, -0.000012, -0.512158, 0.001529, -0.243027, -0.000042, -0.000016, 0.000021, 0.000332, 0.000550, 0.000047, 0.000111, 0.069538, 0.425151}, {-0.000026, -0.000033, 0.000040, 0.000058, -0.000045, -0.000022, -0.000019, -0.000068, -0.000001, -0.000067, -0.000078, -0.000042, -0.000006, -0.000049, -0.000030, -0.000052, 0.000014, 0.000017, 0.000062, -0.000076, 0.000011, -0.000045, -0.000026, -0.000037, 0.000044, -0.000055, -0.000038, -0.000081, 0.000061, 0.000005, -0.000069, 0.000007, -0.000005, -0.000070, 0.000070, 0.000027, -0.000060, -0.000018, 0.000017, -0.000022}, {-0.000068, 0.000019, 0.000013, -0.900078, -0.000078, -0.000078, 0.372695, -0.001628, 0.000014, -0.661288, -0.000057, 0.000020, -0.000026, -0.192842, 0.000050, 0.284411, -0.074217, -0.000557, 0.000096, -1.213419, 0.000498, 0.284837, -0.021286, -0.000331, 0.000040, 0.468059, -0.000010, -0.000025, -0.053913, -0.005051, 0.004895, -0.000080, -0.000008, -0.000009, -0.001283, 0.000402, -0.000049, -0.000116, 0.265249, -0.091067}, {-0.000010, 0.000074, -0.000060, 0.000034, 0.000048, -0.000004, -0.000017, -0.000056, -0.000036, 0.000033, -0.000009, -0.000080, 0.000049, 0.000053, 0.000077, 0.000035, -0.000011, 0.000026, 0.000057, -0.000110, -0.000051, -0.000097, 0.000036, 0.000036, 0.000075, 0.000065, 0.000057, -0.000008, -0.000040, 0.000000, -0.000100, 0.000082, 0.000032, -0.000034, 0.000040, -0.000055, -0.000022, 0.000007, 0.000031, 0.000055}, {-0.000045, 0.000013, -0.000024, 0.000077, -0.000075, -0.000059, -0.000098, -0.000052, 0.000047, 0.000020, -0.000034, 0.000056, -0.000069, 0.000057, -0.000042, -0.000173, -0.000065, -0.000012, -0.000138, -0.000203, 0.000099, -0.000126, 0.000043, 0.000012, -0.000080, -0.000022, -0.000080, 0.000029, -0.000108, 0.000078, -0.000255, 0.000044, 0.000044, -0.000029, -0.000060, -0.000082, 0.000021, -0.000076, 0.000063, 0.000026}, {-0.000052, -0.000016, 0.000022, -0.188810, -0.000051, 0.000004, -0.544099, -0.004410, 0.000062, -0.089753, -0.000031, 0.000013, 0.000062, -0.543529, 0.000010, -0.304872, 0.172748, -0.000147, -0.000030, -0.061289, 0.000044, -0.000323, -0.010502, -0.000036, 0.000038, 1.012469, 0.000005, 0.000052, 0.580212, 0.000823, -0.417795, -0.000038, -0.000022, 0.000075, 0.000064, -0.000352, -0.000087, 0.000091, 0.314406, -0.131595}, {-0.000030, -0.000004, -0.000049, 0.000064, -0.000010, -0.000044, -0.000088, -0.000078, -0.000025, 0.000019, 0.000028, 0.000067, -0.000067, 0.000082, 0.000003, -0.000536, 0.000175, -0.000178, -0.000007, -0.000239, -0.000193, -0.000235, 0.000024, -0.000006, 0.000045, 0.000372, -0.000068, -0.000063, 0.000275, 0.000042, -0.000178, -0.000015, -0.000083, 0.000075, -0.000005, -0.000203, -0.000036, 0.000069, 0.000056, 0.000199}, {0.000036, 0.000070, -0.000010, 0.268357, 0.000008, -0.000042, 0.053436, -0.001952, -0.000019, 0.302429, -0.000067, 0.000046, 0.000035, -0.514688, 0.000017, 0.457373, 0.025100, -0.000031, -0.000079, 0.668699, -0.000628, 0.148894, -0.007052, 0.000104, -0.000049, -0.470750, -0.000041, -0.000081, -0.222832, -0.000062, 0.412210, -0.000075, -0.000013, -0.000020, 0.000260, -0.000521, -0.000031, 0.000028, -0.220036, 0.478901}, {-0.000044, -0.000044, -0.000076, 0.200114, 0.000019, -0.000002, -0.475569, 0.001292, 0.000036, 0.419906, -0.000060, -0.000090, -0.000103, 0.443775, -0.000038, -0.821993, 0.016706, -0.000082, -0.000082, 0.316499, 0.000045, -0.216446, 0.003391, 0.000050, 0.000018, -0.288727, -0.000077, -0.000088, -0.264058, 0.000940, -0.006100, 0.000069, 0.000071, 0.000045, 0.000049, 0.000180, -0.000067, 0.000029, -0.751909, 0.194270}, {-0.000050, 0.000002, -0.000003, 0.327987, -0.000002, 0.000023, -0.244928, 0.003013, 0.000175, -0.091168, -0.000012, -0.000100, -0.000088, 0.754697, -0.000071, -1.216683, 0.010094, 0.000154, 0.000066, -0.130095, 0.000421, 0.219209, 0.010375, 0.000071, 0.000041, 0.120078, -0.000087, -0.000086, -0.035076, -0.000268, -0.456271, 0.000014, -0.000002, 0.000053, -0.000228, 0.000500, -0.000028, -0.000016, 0.332684, 0.166792}, {0.000047, -0.000041, 0.000016, -0.495745, 0.000067, -0.000020, -0.715222, -0.001478, 0.000011, -1.264861, -0.000089, -0.000067, -0.000039, -0.084318, 0.000030, -0.046786, 0.059712, -0.000937, -0.000226, -1.169901, -0.000180, 0.273241, -0.003322, -0.000158, -0.000046, 0.313909, -0.000011, 0.000064, 0.344690, -0.000182, 0.048562, -0.000021, 0.000003, -0.000011, -0.001024, -0.000609, -0.000058, -0.000138, 0.329484, -0.504225}, {-0.000068, -0.000074, 0.000071, -0.000057, -0.000006, 0.000056, -0.000084, -0.000030, -0.000012, 0.000007, -0.000022, -0.000004, 0.000070, -0.000031, -0.000077, -0.000041, -0.000041, 0.000024, 0.000089, -0.000043, 0.000073, -0.000051, 0.000017, -0.000027, 0.000073, -0.000079, -0.000064, -0.000001, 0.000013, -0.000052, 0.000081, -0.000055, 0.000045, -0.000039, -0.000030, 0.000013, -0.000033, 0.000090, -0.000010, 0.000002}, {-0.000065, -0.000002, 0.000068, -0.000002, -0.000012, 0.000025, -0.000058, -0.000068, 0.000022, 0.000047, 0.000036, -0.000068, -0.000046, -0.000052, -0.000030, -0.000061, -0.000063, -0.000065, -0.000016, -0.000009, 0.000003, -0.000054, -0.000052, 0.000019, -0.000060, -0.000038, -0.000042, 0.000017, 0.000013, -0.000024, 0.000045, -0.000045, 0.000048, -0.000079, 0.000076, -0.000013, 0.000004, -0.000045, -0.000030, 0.000017}, {0.000031, 0.000027, -0.000022, 0.286743, -0.000067, -0.000078, 0.206829, -0.000430, -0.000117, 0.148593, -0.000009, -0.000046, 0.000002, 0.139765, -0.000011, -1.034447, 0.007495, -0.000058, 0.000071, -0.462466, 0.000051, -0.661762, -0.003987, -0.000065, 0.000032, -0.225497, 0.000006, 0.000054, -0.275483, 0.000023, -0.224613, 0.000057, -0.000013, -0.000079, -0.000006, 0.000146, -0.000039, -0.000079, 0.205475, 0.215288}, {0.000061, -0.000077, -0.000060, 0.224670, 0.000010, -0.000072, 0.061682, -0.001203, -0.000115, -0.214720, 0.000015, -0.000022, -0.000138, -0.067469, -0.000012, -0.319098, -0.380068, -0.000148, -0.000069, -0.565849, -0.000130, 0.153101, -0.006658, -0.000058, -0.000019, -0.420904, 0.000053, 0.000063, -0.298543, -0.001713, -0.885766, -0.000023, -0.000034, -0.000015, -0.000573, -0.000147, -0.000043, 0.000018, -0.693668, 0.047452}, {-0.000001, 0.000063, -0.000022, 0.112238, -0.000017, 0.000051, 0.122184, 0.000450, 0.000157, 0.206089, -0.000079, 0.000091, 0.000032, 0.179372, 0.000083, 0.440490, 0.036755, 0.000121, -0.000105, 0.310149, -0.000068, -0.571080, 0.000568, 0.000127, 0.000061, -1.012386, 0.000034, -0.000007, -0.817941, 0.000021, 0.016589, -0.000018, -0.000047, 0.000032, 0.000023, 0.000097, -0.000011, -0.000019, -0.290606, 0.262786}, {-0.000036, -0.000031, -0.000080, -0.774485, -0.000060, 0.000008, 0.154417, 0.006461, 0.000024, -0.258246, -0.000019, 0.000013, -0.000073, 0.851804, -0.000048, -0.469531, -0.287370, -0.000843, 0.000233, -0.143505, 0.000426, 0.896481, 0.033665, -0.000210, -0.000023, -0.566990, -0.000101, 0.000016, -0.562432, -0.006416, -0.991695, 0.000031, 0.000059, 0.000085, -0.001785, 0.000821, -0.000009, -0.000067, -0.797540, -0.581025}, {-0.000018, 0.000040, -0.000006, -0.000340, 0.000005, 0.000024, -0.000122, -0.000017, -0.000152, -0.000178, -0.000015, 0.000024, -0.000088, -0.000179, 0.000022, 0.000212, -0.000278, 0.000111, -0.000226, 0.000016, -0.000019, -0.000051, 0.000090, -0.000239, 0.000064, 0.000326, -0.000092, 0.000033, -0.000017, 0.000012, 0.000162, -0.000059, -0.000060, -0.000052, 0.000222, 0.000018, 0.000002, -0.000118, -0.000187, -0.000395}, {0.000046, -0.000058, -0.000020, -0.746245, -0.000064, 0.000047, -0.109044, 0.001759, -0.000038, -0.464797, -0.000079, -0.000062, 0.000019, 0.096627, -0.000001, 0.316435, -0.033542, -0.000915, 0.000147, -0.336834, 0.000527, 0.027286, 0.004838, -0.000132, 0.000040, 0.398544, -0.000092, -0.000033, 0.386753, -0.002889, 0.170151, 0.000059, -0.000097, 0.000009, -0.001588, 0.000577, -0.000063, -0.000134, 0.457075, -1.147490}, {-0.000026, -0.000041, -0.000019, -0.277856, -0.000033, 0.000050, -0.417141, -0.000647, 0.000036, -0.393003, -0.000048, 0.000023, -0.000055, -0.713397, -0.000095, -0.865397, 0.193126, -0.000335, -0.000190, -0.685811, -0.000992, -0.706931, -0.001780, -0.000098, -0.000022, -0.054556, 0.000008, 0.000019, -0.011058, 0.000218, -1.471985, -0.000014, -0.000076, -0.000096, -0.000195, -0.001409, 0.000030, -0.000118, 0.405316, -0.352418}, {0.000070, -0.000055, 0.000034, 0.000068, 0.000016, 0.000051, -0.000046, -0.000048, -0.000054, -0.000001, -0.000020, 0.000043, 0.000022, -0.000003, -0.000022, 0.000025, -0.000048, 0.000007, -0.000034, -0.000020, -0.000036, 0.000028, 0.000034, 0.000064, 0.000083, 0.000050, 0.000045, 0.000030, 0.000041, 0.000009, 0.000069, -0.000040, -0.000028, -0.000049, -0.000059, 0.000056, -0.000042, 0.000074, -0.000101, 0.000051}, {-0.000064, -0.000013, 0.000054, 0.389783, -0.000073, 0.000015, -0.705467, 0.000465, -0.000012, 0.513153, 0.000009, -0.000006, 0.000025, 0.549248, 0.000019, -0.494333, 0.107408, 0.000127, -0.000069, -0.492601, 0.000393, 0.154707, 0.003561, 0.000122, 0.000029, 0.026996, -0.000021, 0.000051, 0.777367, 0.000684, -0.397081, -0.000042, -0.000070, -0.000023, 0.000248, 0.000310, -0.000074, -0.000005, 0.646721, 0.496080}, {0.000000, -0.000025, 0.000009, 0.000063, 0.000071, 0.000062, -0.000066, -0.000001, 0.000067, 0.000006, -0.000056, 0.000077, 0.000066, 0.000040, 0.000060, -0.000025, -0.000002, 0.000037, 0.000050, 0.000056, 0.000044, 0.000043, 0.000059, -0.000074, -0.000072, 0.000001, 0.000003, 0.000083, -0.000007, 0.000066, 0.000059, -0.000062, -0.000060, -0.000002, 0.000036, 0.000129, -0.000017, 0.000091, -0.000062, 0.000051}, {0.000021, -0.000019, 0.000074, 0.355084, 0.000021, 0.000060, -0.870107, -0.000218, -0.000069, 0.481358, 0.000001, -0.000014, 0.000022, 0.496818, 0.000062, -0.543913, 0.128414, -0.000034, 0.000004, -0.439070, 0.000165, 0.018944, 0.000823, 0.000060, -0.000057, -0.017521, -0.000001, -0.000014, 0.763550, 0.000100, 0.011172, -0.000076, 0.000032, -0.000089, 0.000138, -0.000031, 0.000003, -0.000015, 0.540463, 0.473157}, {0.000028, -0.000039, -0.000006, -1.235064, -0.000048, -0.000030, 0.394995, -0.008023, -0.000250, -1.028583, 0.000001, 0.000057, -0.000011, -0.159503, -0.000089, -0.775828, -0.217264, -0.000955, -0.000496, -0.845330, -0.001088, 0.223845, -0.032629, -0.000734, 0.000054, 0.486469, 0.000019, -0.000068, -0.457024, -0.005191, -0.949713, -0.000004, 0.000068, -0.000068, -0.002013, -0.001774, 0.000049, -0.000465, 0.031550, -0.253286}, {0.000023, 0.000071, -0.000029, 0.000014, -0.000039, -0.000009, -0.000012, -0.000040, -0.000044, 0.000067, 0.000054, -0.000057, -0.000026, -0.000069, -0.000019, 0.000050, -0.000045, 0.000075, 0.000003, -0.000072, -0.000069, 0.000061, 0.000037, -0.000019, -0.000035, 0.000060, -0.000083, 0.000052, 0.000028, 0.000052, 0.000062, 0.000067, 0.000061, 0.000028, -0.000018, -0.000079, -0.000058, 0.000009, 0.000022, -0.000040}, {-0.000010, 0.000007, -0.000056, 0.000055, -0.000035, -0.000013, 0.000021, 0.000014, -0.000036, -0.000010, 0.000070, 0.000074, 0.000009, -0.000069, -0.000036, -0.000000, 0.000003, 0.000009, -0.000042, -0.000027, 0.000040, -0.000074, 0.000038, 0.000052, -0.000057, -0.000070, 0.000075, 0.000052, -0.000062, 0.000019, -0.000040, -0.000073, -0.000049, -0.000010, -0.000013, -0.000064, -0.000076, 0.000064, 0.000051, -0.000079}, {-0.000016, -0.000033, -0.000027, 0.000043, 0.000014, -0.000023, -0.000030, 0.000001, -0.000016, 0.000018, 0.000051, -0.000080, -0.000054, 0.000057, 0.000043, -0.000039, -0.000089, 0.000069, -0.000032, -0.000068, -0.000069, -0.000018, -0.000017, -0.000062, 0.000004, 0.000017, 0.000077, -0.000001, -0.000058, 0.000056, 0.000007, -0.000025, -0.000057, 0.000053, 0.000060, 0.000037, 0.000011, 0.000030, -0.000110, 0.000081}, {-0.000056, -0.000044, 0.000013, -0.880474, -0.000050, 0.000070, 0.303557, -0.005999, -0.000146, -0.812966, 0.000006, -0.000073, -0.000070, -1.084572, 0.000036, -0.446016, -0.014374, -0.000938, -0.000577, -0.121701, -0.001616, 0.476587, -0.020059, -0.000278, -0.000055, -0.127272, -0.000001, -0.000019, -0.000428, -0.004170, -0.264178, 0.000051, -0.000051, -0.000059, -0.002363, -0.001456, 0.000066, -0.000190, 0.057960, -0.638669}};
static const float * p_layer_2_weight = layer_2_weight;
static const float layer_2_bias[40] = {-0.070283, -0.167070, -0.195805, 0.021390, -0.107330, -0.103166, 0.104193, -0.225539, -0.087752, 0.052170, -0.084285, -0.196642, -0.139869, -0.140857, -0.160675, 0.183841, -0.564962, -0.062503, -0.058116, 0.279687, -0.126529, 0.037106, -0.297895, -0.088713, -0.113960, 0.160355, -0.263805, -0.156329, 0.023140, -0.129569, 0.257480, -0.156391, -0.148685, -0.091915, -0.077187, -0.130464, -0.065526, -0.063578, -0.276589, -0.072014};
static const float * p_layer_2_bias = layer_2_bias;
static const float layer_3_weight[40][40] = {{-0.000224, -0.000214, -0.000092, 0.000225, -0.000274, 0.000046, 0.000247, 0.000072, 0.000057, -0.000089, -0.000027, 0.000231, 0.000209, 0.000107, 0.000025, -0.000122, -0.000248, 0.000235, 0.000157, -0.000133, 0.000040, 0.000180, 0.000048, -0.000160, 0.000089, 0.000170, 0.000026, -0.000142, -0.000130, 0.000262, -0.000240, 0.000269, -0.000128, 0.000160, 0.000257, -0.000043, -0.000116, 0.000141, 0.000210, 0.000087}, {-0.000010, 0.000027, 0.000198, 0.000084, 0.000110, 0.000188, 0.000267, -0.000069, 0.000243, 0.000012, -0.000200, 0.000065, 0.000298, 0.000105, -0.000147, 0.000168, 0.000142, -0.000116, -0.000273, 0.000157, -0.000207, -0.000022, -0.000161, -0.000137, -0.000218, -0.000323, -0.000090, 0.000134, 0.000100, -0.000212, 0.000311, -0.000063, -0.000199, 0.000018, -0.000203, -0.000024, -0.000223, 0.000251, 0.000060, -0.000198}, {-0.000214, 0.000093, 0.000332, -0.000009, -0.000198, 0.000190, -0.000346, -0.000080, -0.000338, -0.000125, 0.000155, -0.000212, -0.000147, -0.000059, -0.000117, -0.000070, -0.000188, 0.000145, 0.000014, -0.000156, 0.000074, -0.000139, -0.000148, -0.000261, 0.000133, 0.000073, 0.000137, -0.000139, 0.000161, -0.000002, 0.000019, 0.000025, -0.000080, 0.000222, -0.000096, 0.000049, 0.000011, -0.000232, -0.000196, -0.000123}, {0.378986, 0.041211, -0.052994, 0.022978, 0.087985, -0.524264, -0.494817, -0.049628, 0.065118, 0.424934, -0.021826, -0.492936, 0.284345, 0.011641, -0.070608, 0.034457, -0.057811, -0.054582, 0.467767, 0.170205, 0.022086, 0.058804, -0.264360, 0.093827, 0.061911, -0.069160, 0.024810, 0.043376, 0.005431, -0.046970, 0.051259, -0.042848, -0.081635, -0.025160, -0.499776, -0.517594, 0.505586, -0.133504, 0.047998, 0.061981}, {-0.000107, 0.000027, 0.000166, -0.000191, 0.000238, 0.000010, 0.000181, -0.000018, 0.000273, -0.000213, 0.000037, 0.000165, -0.000060, -0.000183, -0.000256, 0.000240, 0.000120, 0.000064, 0.000070, 0.000262, 0.000030, 0.000023, 0.000164, -0.000137, -0.000264, 0.000269, 0.000266, 0.000131, 0.000265, -0.000014, -0.000142, -0.000172, -0.000037, 0.000092, 0.000014, 0.000146, 0.000239, -0.000211, 0.000225, 0.000060}, {0.000242, 0.000060, -0.000244, -0.000008, -0.000249, 0.000156, -0.000145, 0.000003, 0.000181, 0.000127, 0.000124, 0.000095, -0.000018, 0.000247, -0.000264, 0.000259, -0.000008, 0.000168, 0.000190, -0.000111, 0.000100, -0.000067, 0.000030, -0.000184, 0.000121, -0.000050, 0.000081, -0.000272, 0.000271, 0.000053, 0.000255, -0.000104, 0.000009, -0.000220, 0.000096, -0.000110, -0.000149, -0.000267, -0.000175, 0.000103}, {-0.196806, -0.047855, 0.154609, -0.088538, -0.300739, 0.253066, 0.226098, 0.078909, -0.104321, -0.628380, -0.293401, 0.251295, -0.693843, 0.053699, 0.073360, -0.171153, 0.183881, 0.158804, -0.595799, 0.334121, -0.129417, -0.079383, 0.649881, -0.102186, -0.076015, 0.071442, 0.085439, -0.048808, 0.065083, 0.150853, -0.156521, 0.010774, -0.094021, 0.061942, -0.080427, 0.058522, -0.254349, -0.296760, 0.049244, -0.136133}, {0.000399, -0.004197, 0.002151, -0.000101, 0.001938, -0.001406, -0.000427, 0.010691, 0.010298, 0.000462, 0.001661, -0.000500, -0.002610, -0.006016, -0.005568, -0.004505, -0.001075, 0.006054, 0.001085, -0.007522, -0.000824, 0.010346, 0.001150, -0.001143, 0.012310, -0.006000, 0.003368, -0.003955, -0.008124, -0.012085, -0.003181, -0.002055, 0.003092, -0.003669, -0.000742, -0.001037, 0.000903, 0.002154, -0.006682, -0.007761}, {-0.000157, 0.000142, 0.000039, -0.000009, -0.000314, -0.000160, 0.000202, 0.000277, 0.000096, 0.000111, 0.000153, -0.000159, -0.000258, -0.000384, 0.000161, -0.000300, -0.000286, 0.000053, 0.000231, -0.000096, 0.000385, 0.000140, 0.000320, 0.000086, 0.000053, -0.000185, 0.000291, 0.000052, -0.000178, -0.000401, 0.000048, -0.000024, 0.000068, 0.000088, -0.000038, 0.000168, -0.000121, -0.000137, -0.000153, 0.000133}, {0.288433, -0.132803, -0.014227, 0.000461, -0.056190, -0.479115, -0.456215, -0.046460, 0.021183, 0.312035, -0.039092, -0.453878, 0.086167, 0.010689, -0.052347, 0.037264, -0.045714, -0.011990, 0.372944, -0.184250, -0.001526, 0.052477, -0.062425, 0.029169, 0.020567, -0.050452, 0.004816, 0.019883, 0.017011, -0.021458, 0.016424, 0.153716, 0.146369, 0.011166, -0.463790, -0.473774, 0.453175, 0.168771, -0.148438, 0.028464}, {0.000067, 0.000070, 0.000133, 0.000280, -0.000241, 0.000193, 0.000152, 0.000018, 0.000110, -0.000108, -0.000218, -0.000024, -0.000138, -0.000189, 0.000157, 0.000254, -0.000144, -0.000112, -0.000100, 0.000205, -0.000014, 0.000129, -0.000008, 0.000042, -0.000118, 0.000074, 0.000105, -0.000084, 0.000132, -0.000110, -0.000041, -0.000045, -0.000119, -0.000195, -0.000282, -0.000155, -0.000014, 0.000065, -0.000247, 0.000043}, {-0.000067, -0.000049, -0.000084, -0.000025, -0.000080, -0.000069, 0.000166, -0.000076, 0.000041, -0.000100, -0.000137, 0.000161, 0.000142, -0.000221, -0.000145, -0.000275, -0.000009, 0.000053, 0.000154, 0.000282, -0.000201, 0.000029, -0.000074, 0.000053, -0.000088, -0.000070, 0.000158, -0.000270, -0.000174, -0.000006, -0.000333, -0.000010, 0.000043, 0.000213, 0.000085, -0.000225, -0.000191, -0.000142, -0.000198, -0.000047}, {0.000100, -0.000220, -0.000018, -0.000025, -0.000026, 0.000087, 0.000208, 0.000200, 0.000092, 0.000072, 0.000035, -0.000264, 0.000190, 0.000267, -0.000059, -0.000265, 0.000270, -0.000200, -0.000230, -0.000155, -0.000062, -0.000014, -0.000006, -0.000177, -0.000202, -0.000084, 0.000180, -0.000166, 0.000179, 0.000248, -0.000083, 0.000257, -0.000232, -0.000096, 0.000079, -0.000078, 0.000207, 0.000016, -0.000147, -0.000124}, {0.356229, 0.024669, -0.024766, 0.048417, 0.143984, -0.481778, -0.452548, 0.008584, -0.029691, 0.412986, 0.136812, -0.452384, 0.282785, -0.052962, 0.028349, 0.036530, -0.008002, -0.023451, 0.450202, -0.096481, 0.035537, -0.011405, -0.273848, -0.060894, -0.040221, 0.031939, -0.062311, -0.014436, -0.079375, 0.012432, -0.062900, -0.031322, 0.037905, 0.035182, -0.434268, -0.463768, 0.465718, 0.084105, 0.030155, 0.000739}, {-0.000259, -0.000085, 0.000185, 0.000056, -0.000055, -0.000143, 0.000105, -0.000147, 0.000307, -0.000010, -0.000035, 0.000106, 0.000179, -0.000056, -0.000077, 0.000200, 0.000326, 0.000194, -0.000124, 0.000225, -0.000012, -0.000217, -0.000046, 0.000198, -0.000135, 0.000022, -0.000031, -0.000074, -0.000176, -0.000177, 0.000174, -0.000046, 0.000171, -0.000187, 0.000141, -0.000138, -0.000291, -0.000122, -0.000078, 0.000218}, {0.386554, 0.100949, -0.015973, 0.032522, 0.182298, 0.640254, 0.597400, 0.012347, -0.021902, 0.507995, -0.036455, 0.610900, 0.575554, -0.029039, 0.010834, 0.023938, -0.022860, -0.010888, 0.296869, 0.386816, 0.002417, -0.002967, -0.520353, -0.014138, -0.024164, 0.021122, -0.021865, -0.011044, -0.035365, 0.010832, -0.014775, -0.186165, -0.178736, -0.000580, 0.583455, 0.583139, -0.522774, -0.336644, 0.156677, -0.002743}, {-0.358571, -0.190840, 0.213672, -0.174955, -0.166934, -0.059361, -0.036095, 0.134091, -0.202454, -0.355655, 0.099297, -0.067541, -0.266862, -0.107899, 0.052360, 0.316387, -0.326741, 0.281519, -0.328788, -0.443502, 0.240584, -0.060559, 0.221354, -0.122566, 0.145303, 0.013831, 0.071091, -0.215060, -0.126017, -0.179398, -0.078699, 0.206969, 0.172060, -0.068274, 0.098656, 0.086888, -0.079471, 0.387577, -0.220797, -0.240535}, {-0.000098, -0.000319, 0.000178, 0.000668, -0.000240, -0.000422, 0.000011, 0.000007, -0.000109, -0.000032, -0.000196, -0.000001, -0.000473, -0.000157, 0.000553, 0.000032, -0.000039, 0.000290, 0.000298, 0.000015, -0.000407, -0.000491, 0.000757, -0.000260, 0.000244, 0.000187, 0.000375, 0.000597, -0.000580, -0.000169, -0.000040, 0.000118, 0.000073, -0.000202, -0.000455, -0.000153, 0.000108, 0.000352, -0.000040, 0.000517}, {0.000050, -0.000053, 0.000028, 0.000334, 0.000063, 0.000218, 0.000072, 0.000001, 0.000080, -0.000304, -0.000103, -0.000144, 0.000071, -0.000083, -0.000353, 0.000051, 0.000208, -0.000135, 0.000134, -0.000148, 0.000355, -0.000183, -0.000361, 0.000139, 0.000073, -0.000156, 0.000132, 0.000227, 0.000429, -0.000328, -0.000035, -0.000189, -0.000067, -0.000394, 0.000102, -0.000179, 0.000045, 0.000201, -0.000150, 0.000072}, {-0.464510, -0.127393, 0.025118, 0.025308, 0.537576, 0.936309, 0.927975, -0.039365, -0.009977, 0.483662, 0.634145, 0.920389, 0.968446, -0.022836, -0.028018, -0.008824, -0.042627, 0.033783, -0.040632, -0.333423, -0.033625, 0.059950, -0.899127, -0.066140, -0.001486, 0.050315, -0.030206, 0.051036, -0.066401, -0.012225, -0.012374, 0.088395, 0.198709, 0.015067, 1.015395, 0.975345, -0.857183, 0.258116, -0.124147, -0.025193}, {0.000174, -0.000536, 0.000115, -0.000069, 0.000361, -0.000426, 0.000055, -0.000558, -0.000178, 0.000002, 0.000140, -0.000001, -0.001071, 0.000774, 0.000368, 0.000396, 0.000274, 0.000305, 0.000104, 0.000613, 0.000908, -0.000747, 0.000200, -0.000789, 0.000334, -0.000369, 0.000021, 0.000402, -0.000437, -0.000775, 0.000537, -0.000079, 0.000481, -0.000046, -0.000122, -0.000274, 0.000152, 0.000706, -0.000893, 0.000099}, {0.125587, 0.332225, -0.117365, 0.087592, -0.991186, 0.191914, 0.226395, 0.011319, 0.052953, -0.309221, -0.934828, 0.233525, -1.624183, -0.058393, -0.004034, 0.149700, -0.121780, -0.128161, -0.283141, 1.108336, 0.125431, 0.021911, 1.495469, 0.018992, 0.053037, 0.012474, -0.125100, 0.021849, -0.088554, -0.108120, 0.112558, -0.568106, -0.640062, -0.031793, -0.331399, -0.124033, -0.114155, -0.986580, 0.497192, 0.090119}, {0.005438, 0.007670, 0.007349, -0.005474, -0.023902, -0.012382, -0.009614, 0.008838, -0.004258, 0.005104, 0.000294, -0.009777, -0.031580, -0.004866, 0.010203, 0.002245, -0.006620, -0.004005, 0.008544, -0.016605, -0.013379, -0.007303, 0.029126, -0.016249, 0.000531, 0.000086, -0.013867, 0.005834, 0.005442, -0.001047, -0.002773, -0.003838, -0.015163, 0.008842, -0.010952, -0.010871, 0.010087, 0.012220, -0.003316, 0.013539}, {-0.000175, -0.000272, 0.000026, 0.000146, 0.000337, -0.000240, -0.000082, 0.000101, 0.000127, 0.000097, -0.000173, 0.000109, -0.000359, 0.000117, -0.000350, -0.000110, 0.000133, -0.000100, 0.000188, -0.000030, 0.000247, -0.000122, -0.000040, -0.000166, -0.000010, -0.000078, -0.000011, -0.000297, 0.000405, 0.000049, 0.000172, 0.000080, 0.000192, -0.000250, -0.000070, -0.000265, -0.000140, 0.000102, -0.000071, -0.000028}, {0.000091, -0.000228, -0.000004, 0.000100, -0.000262, 0.000179, 0.000254, 0.000118, -0.000137, -0.000261, 0.000266, -0.000094, 0.000204, 0.000108, -0.000182, 0.000273, -0.000148, 0.000260, 0.000049, 0.000243, 0.000063, -0.000049, 0.000155, 0.000121, -0.000080, -0.000107, 0.000101, -0.000273, -0.000197, 0.000061, -0.000182, 0.000223, 0.000009, -0.000038, -0.000129, 0.000158, -0.000182, 0.000087, 0.000125, -0.000259}, {-0.579469, -0.032622, -0.024301, 0.014040, 0.032309, 0.324177, 0.295174, -0.027049, 0.016682, -0.844490, 0.026542, 0.294601, -0.351030, -0.021406, -0.022892, -0.001292, -0.003762, -0.021909, -0.870701, -0.075998, 0.012276, 0.004858, 0.287534, 0.046410, -0.004397, -0.046774, 0.038376, -0.010972, 0.021164, -0.005602, -0.001634, 0.085716, 0.057669, 0.017867, 0.145191, 0.287332, -0.456527, 0.075228, -0.057056, 0.024896}, {0.000145, 0.000134, -0.000236, 0.000290, -0.000085, -0.000031, 0.000055, -0.000204, -0.000047, -0.000323, -0.000089, 0.000145, 0.000337, -0.000225, -0.000028, 0.000037, 0.000083, -0.000080, -0.000197, 0.000037, -0.000131, -0.000395, 0.000092, 0.000396, 0.000148, 0.000151, -0.000037, -0.000055, 0.000177, -0.000281, 0.000023, -0.000226, -0.000115, -0.000198, -0.000038, 0.000081, -0.000264, 0.000126, -0.000090, 0.000386}, {0.000031, -0.000133, -0.000065, -0.000177, -0.000252, 0.000111, 0.000138, 0.000213, -0.000234, 0.000289, -0.000016, 0.000106, 0.000206, 0.000059, -0.000218, 0.000086, 0.000112, -0.000312, -0.000134, -0.000227, 0.000221, -0.000092, -0.000034, -0.000179, -0.000006, 0.000297, -0.000278, -0.000100, -0.000213, 0.000064, -0.000128, -0.000139, 0.000224, -0.000201, -0.000208, -0.000273, 0.000092, 0.000004, 0.000211, -0.000014}, {-0.731315, -0.137008, 0.067023, -0.043508, 0.041870, 0.237882, 0.222243, 0.062952, -0.072916, -0.643228, 0.208660, 0.200812, -0.085703, -0.028820, 0.064960, -0.023898, 0.034772, 0.071347, -0.750059, -0.460067, -0.058064, -0.076318, 0.058172, -0.054465, -0.084130, 0.051689, 0.032015, -0.090815, 0.021442, 0.057655, -0.052490, 0.157202, 0.154211, -0.066531, 0.306904, 0.358994, -0.408278, 0.338004, -0.146587, -0.071611}, {0.000210, -0.002239, 0.001668, -0.003712, 0.001172, -0.001017, -0.000260, 0.000585, 0.003159, 0.000045, 0.000951, -0.000059, -0.001725, -0.002188, 0.000425, -0.001974, -0.001692, -0.002181, 0.000860, 0.000930, 0.000071, 0.002164, 0.000155, -0.002310, 0.001504, -0.005047, 0.001933, -0.003333, -0.002035, -0.001092, -0.003691, -0.002360, 0.002220, -0.003124, -0.001017, -0.001269, 0.000520, 0.003903, -0.002341, -0.001539}, {-0.210485, 0.031585, -0.067295, 0.015560, 0.038593, 0.569990, 0.525593, -0.040781, 0.097437, -0.060030, -0.219071, 0.541565, 0.336592, 0.007021, -0.070161, 0.053587, -0.062855, -0.080223, -0.331652, 0.041595, 0.077582, 0.052320, -0.289511, 0.133510, 0.089763, -0.121476, 0.107107, 0.045157, 0.128510, -0.098963, 0.104781, 0.041184, -0.074681, 0.015539, 0.453158, 0.506526, -0.542767, -0.029233, 0.005441, 0.093681}, {-0.000001, 0.000009, -0.000158, 0.000263, -0.000028, 0.000002, -0.000213, 0.000080, 0.000245, -0.000012, 0.000130, -0.000025, 0.000023, 0.000072, -0.000015, -0.000271, 0.000113, 0.000086, -0.000191, 0.000130, 0.000127, -0.000129, 0.000163, 0.000063, 0.000195, 0.000104, 0.000071, -0.000087, -0.000132, 0.000038, -0.000235, -0.000115, 0.000069, -0.000081, 0.000046, -0.000109, 0.000248, -0.000193, 0.000201, 0.000012}, {0.000240, -0.000032, -0.000002, -0.000357, 0.000099, -0.000370, -0.000263, -0.000267, -0.000053, 0.000104, 0.000005, -0.000366, -0.000372, 0.000028, 0.000309, -0.000149, -0.000342, 0.000095, 0.000030, -0.000363, 0.000078, -0.000097, -0.000104, -0.000083, 0.000045, -0.000024, -0.000049, -0.000047, 0.000080, 0.000242, -0.000130, 0.000186, -0.000029, 0.000147, 0.000147, -0.000274, -0.000117, -0.000219, -0.000166, -0.000304}, {-0.000159, -0.000001, 0.000181, 0.000131, 0.000228, -0.000138, -0.000114, -0.000121, 0.000199, 0.000123, -0.000286, -0.000082, 0.000267, -0.000152, 0.000125, -0.000007, -0.000133, 0.000038, -0.000084, 0.000209, -0.000030, 0.000097, 0.000103, -0.000205, -0.000206, -0.000027, 0.000086, -0.000294, -0.000077, 0.000090, 0.000089, -0.000097, -0.000247, -0.000153, -0.000233, 0.000016, 0.000221, -0.000310, 0.000080, 0.000106}, {0.000330, -0.000382, -0.000030, 0.000317, 0.000531, -0.000187, -0.000162, 0.001067, -0.000129, -0.000036, -0.000037, 0.000134, -0.001058, -0.000395, 0.000239, 0.000091, 0.000456, 0.000275, 0.000476, 0.000782, 0.000011, 0.000459, -0.000018, -0.000646, 0.000938, -0.000241, 0.000311, 0.000222, -0.000536, 0.000042, -0.000179, 0.000053, 0.000498, -0.000020, -0.000475, -0.000287, -0.000117, 0.001090, -0.000150, -0.000232}, {0.000246, -0.000580, 0.000139, -0.000845, 0.000371, -0.000054, -0.000368, -0.000382, -0.000301, 0.000003, 0.000102, -0.000209, -0.000718, 0.000977, 0.000662, 0.000548, -0.000013, -0.000125, -0.000044, 0.000966, 0.001416, -0.000824, 0.000740, -0.001042, 0.000451, -0.000089, 0.000839, 0.000867, -0.000620, -0.001137, -0.000715, -0.000398, 0.000236, -0.000254, -0.000407, -0.000161, 0.000035, 0.000766, -0.000942, 0.000789}, {0.000113, 0.000074, 0.000252, 0.000081, -0.000208, -0.000008, 0.000159, -0.000139, 0.000050, 0.000000, -0.000083, -0.000137, 0.000179, 0.000094, 0.000181, -0.000268, 0.000134, -0.000149, -0.000067, -0.000256, 0.000098, -0.000066, 0.000073, -0.000175, -0.000074, 0.000177, -0.000318, 0.000176, 0.000055, 0.000023, 0.000272, 0.000029, 0.000026, -0.000107, 0.000039, 0.000070, 0.000043, -0.000151, 0.000306, -0.000295}, {0.000156, 0.000195, -0.000346, -0.000077, 0.000079, 0.000044, -0.000086, 0.000294, 0.000238, 0.000014, 0.000237, -0.000221, 0.000054, 0.000105, -0.000339, -0.000120, 0.000113, -0.000056, 0.000065, -0.000155, -0.000039, 0.000144, -0.000252, -0.000138, -0.000209, -0.000064, 0.000068, -0.000002, -0.000103, 0.000122, 0.000146, 0.000274, 0.000016, -0.000116, -0.000263, -0.000309, -0.000086, -0.000166, -0.000201, 0.000042}, {-0.782318, -0.088011, -0.078766, 0.061020, 0.304952, 0.070968, 0.077827, -0.067210, 0.096074, -0.501014, 0.575318, 0.029484, 0.083027, -0.026210, -0.071811, 0.079599, -0.062035, -0.088089, -0.590495, -0.836323, 0.092033, 0.069100, -0.150111, 0.070808, 0.096365, -0.082591, -0.015764, 0.067872, 0.001069, -0.094136, 0.079296, 0.220137, 0.349871, 0.013263, 0.428451, 0.383777, -0.291796, 0.686191, -0.185219, 0.095287}, {0.143714, 0.014152, -0.046581, 0.056652, -0.014903, -0.301609, -0.272740, 0.014650, 0.037394, 0.192373, 0.082143, -0.271450, 0.077206, -0.039917, 0.006307, 0.046922, -0.027328, -0.050869, 0.236371, -0.043104, 0.048715, -0.005517, -0.059852, 0.045153, 0.029345, 0.012142, -0.004498, 0.015121, -0.001565, -0.016972, 0.023953, 0.025670, 0.013277, -0.089822, -0.268253, -0.288683, 0.278599, 0.046044, -0.028369, 0.034845}};
static const float * p_layer_3_weight = layer_3_weight;
static const float layer_3_bias[40] = {0.135045, 0.014223, -0.011458, 0.009549, -0.034697, -0.167542, -0.180077, 0.028089, -0.017365, 0.093866, -0.017845, -0.166007, 0.026367, -0.012518, 0.027628, 0.021649, -0.000653, -0.012768, 0.174708, -0.039713, 0.008037, -0.023119, -0.012889, -0.021284, -0.020749, 0.027477, -0.040529, -0.021901, -0.032455, 0.009966, -0.012647, -0.004984, 0.008237, -0.037076, -0.130824, -0.191292, 0.214980, 0.025256, 0.002319, -0.002163};
static const float * p_layer_3_bias = layer_3_bias;
    
static float sigmoid(float num) {
    return 1.0f / (1.0f + expf(-num));
}

static float step(float num) {
    if (num < 0) {
        return 0;
    }
    return 1;
}

static float relu(float num) {
    if (num > 0) {
        return num;
    } else {
        return 0;
    }
}

static float linear(float num) {
    return num;
}

static void layer(const float * in, const float * layer_weight, const float * layer_bias,   
            int row, int col, float * output, int use_activation) {
    int ii;
    int jj;
    const float * p;

    for(ii = 0; ii < col; ii++) {
        p = layer_weight + ii;
        output[ii] = 0;
        for (jj = 0; jj < row; jj++) {
            output[ii] += in[jj] * (*p); 
            p += col;
        }
        output[ii] += layer_bias[ii];
        
        if (use_activation == 1) {
			output[ii] = relu(output[ii]);
        }
    }
}

const float* nn_phi_2(const float* input) {
	layer(input, p_layer_0_weight, p_layer_0_bias, STRUCTURE[0][0], STRUCTURE[0][1], output_0, 1);
	layer(output_0, p_layer_1_weight, p_layer_1_bias, STRUCTURE[1][0], STRUCTURE[1][1], output_1, 1);
	layer(output_1, p_layer_2_weight, p_layer_2_bias, STRUCTURE[2][0], STRUCTURE[2][1], output_2, 1);
	layer(output_2, p_layer_3_weight, p_layer_3_bias, STRUCTURE[3][0], STRUCTURE[3][1], output_3, 0);

	return output_3;
}
