/*
 * FILE: generated.c
 */

#include <stdio.h>
#include <stdlib.h>
#include <string.h>
#include <math.h>
#include "rho_2.h"

static const int STRUCTURE[4][2] = {{40, 40}, {40, 40}, {40, 40}, {40, 1}};
static float output_0[40];
static float output_1[40];
static float output_2[40];
static float output_3[1];
static const float layer_0_weight[40][40] = {{0.000021, -0.000002, 0.000001, 0.000002, 0.000004, -0.000042, 0.039321, 0.000001, 0.000003, 0.042407, 0.000002, 0.000042, -0.023482, -0.000003, 0.000005, 0.036617, -0.000000, -0.000000, 0.000002, 0.000231, -0.024205, 0.000003, -0.030371, -0.000002, 0.000001, -0.000004, 0.000002, 0.000003, -0.020487, 0.000002, -0.038242, 0.128585, 0.000045, 0.000006, 0.061113, 0.000673, 0.000001, 0.000007, -0.001538, -0.011880}, {-0.000005, 0.000000, -0.000002, 0.000002, 0.000003, -0.000012, -0.379154, 0.000004, 0.000000, 0.300873, -0.000002, -0.000051, -0.403066, 0.000003, 0.000008, -0.340125, -0.000003, 0.000000, 0.000005, -0.000487, -0.153507, -0.000005, 0.024702, -0.000001, -0.000000, -0.000000, -0.000000, -0.000004, -0.017006, -0.000001, -0.060383, -0.062690, -0.000041, 0.000002, 0.005814, 0.011745, 0.000002, 0.000006, -0.001256, -0.001960}, {0.000002, 0.000000, 0.000005, 0.000001, 0.000002, -0.000186, 0.021962, 0.000000, 0.000004, 0.048389, -0.000014, 0.000029, -0.020129, 0.000001, 0.000018, -0.082847, 0.000002, 0.000002, -0.000002, -0.000261, -0.017204, -0.000002, -0.030309, 0.000004, 0.000004, -0.000007, -0.000004, -0.000003, 0.000235, -0.000002, -0.015046, 0.066523, -0.000141, 0.000003, 0.031084, -0.012202, -0.000001, -0.000000, -0.000438, 0.002817}, {0.000036, 0.000004, 0.000000, 0.000002, 0.000002, 0.000146, 0.013816, -0.000000, 0.000004, 0.060207, 0.000001, 0.000041, -0.011305, 0.000003, 0.000007, -0.093439, 0.000001, -0.000003, 0.000001, -0.000007, -0.020857, -0.000002, -0.028804, -0.000002, 0.000004, -0.000004, -0.000004, -0.000001, -0.031825, -0.000002, -0.019981, 0.090027, 0.000064, 0.000005, 0.044051, -0.027998, 0.000001, 0.000001, 0.003306, 0.024161}, {0.000079, -0.000001, 0.000002, 0.000002, 0.000003, -0.000018, 0.033886, -0.000003, 0.000002, 0.044240, 0.000003, 0.000035, -0.021657, -0.000001, 0.000010, 0.073853, -0.000002, 0.000001, -0.000000, 0.000436, -0.013591, -0.000003, -0.022046, 0.000002, -0.000000, -0.000002, -0.000001, 0.000001, -0.059474, -0.000001, -0.027428, 0.129245, 0.000042, 0.000006, 0.058874, -0.035410, 0.000000, -0.000001, -0.013882, 0.036317}, {-0.000030, 0.000000, 0.000003, -0.000003, 0.000001, -0.000152, 0.055512, -0.000001, 0.000005, 0.007630, 0.000003, -0.000039, 0.013143, -0.000003, -0.000003, 0.145600, -0.000000, 0.000003, -0.000002, 0.000019, -0.031402, -0.000002, -0.010848, 0.000004, 0.000001, -0.000001, 0.000002, 0.000001, -0.022113, -0.000001, -0.030218, 0.087402, -0.000050, 0.000004, 0.046615, -0.010016, -0.000001, -0.000002, -0.000140, 0.051190}, {-0.000033, 0.000000, 0.000001, -0.000001, -0.000003, -0.000016, -0.035564, 0.000003, -0.000000, -0.337169, -0.000000, -0.000035, -0.095404, 0.000003, -0.000004, -0.319785, 0.000003, -0.000003, -0.000003, -0.000585, 0.422369, 0.000001, 0.359535, 0.000002, -0.000002, -0.000001, -0.000003, -0.000002, -0.556126, 0.000002, -0.623089, -0.438951, -0.000082, 0.000000, 0.405501, -0.076919, -0.000001, 0.000003, 0.003569, -0.494248}, {-0.000048, -0.000006, 0.000003, -0.000001, -0.000003, 0.000060, 0.009847, -0.000003, 0.000003, 0.014672, 0.000005, 0.000003, -0.001766, 0.000003, 0.000009, -0.101475, -0.000002, -0.000001, 0.000000, -0.000102, 0.021928, -0.000004, -0.013060, 0.000002, -0.000003, -0.000000, 0.000000, 0.000002, -0.011597, -0.000001, -0.002254, -0.005282, -0.000074, -0.000001, 0.009350, -0.025743, 0.000002, -0.000005, 0.001347, 0.031357}, {-0.000018, 0.000001, -0.000001, 0.000002, -0.000001, 0.000028, -0.031207, 0.000001, 0.000003, -0.337786, -0.000009, -0.000007, -0.085706, 0.000003, -0.000005, -0.320553, -0.000003, -0.000002, 0.000002, -0.000607, 0.422412, 0.000005, 0.360136, -0.000001, -0.000003, -0.000003, -0.000001, -0.000001, -0.556109, 0.000000, -0.621232, -0.436024, -0.000095, 0.000002, 0.404935, -0.076289, -0.000005, 0.000002, 0.003801, -0.494065}, {0.000014, -0.000001, -0.000001, 0.000001, -0.000001, -0.000052, 0.500019, -0.000003, 0.000001, -0.036679, -0.000023, -0.000021, 0.620436, -0.000000, -0.000011, 0.042426, 0.000001, -0.000003, 0.000000, -0.001342, -0.684645, -0.000002, -0.658288, -0.000004, -0.000005, -0.000009, 0.000002, 0.000003, -0.732957, -0.000000, -0.077619, -0.784050, -0.000272, -0.000002, -0.639523, -0.213816, -0.000001, -0.000001, -0.003441, -0.805839}, {-0.000060, -0.000003, -0.000004, -0.000000, 0.000005, 0.000048, 0.003489, 0.000001, 0.000004, -0.058505, 0.000002, -0.000018, 0.022722, -0.000004, 0.000010, 0.133512, 0.000002, 0.000002, 0.000004, -0.000285, 0.004744, -0.000001, 0.052412, -0.000001, -0.000000, -0.000003, 0.000002, 0.000001, 0.024260, 0.000004, 0.009813, -0.075504, -0.000053, 0.000005, -0.035126, 0.014410, -0.000003, 0.000005, 0.005810, 0.003252}, {-0.000014, 0.000003, -0.000001, -0.000001, 0.000000, 0.000183, -0.007188, -0.000000, -0.000003, 0.015094, 0.000022, -0.000039, 0.018721, -0.000004, -0.000018, -0.169619, 0.000004, -0.000001, -0.000003, 0.000381, 0.018616, -0.000005, -0.002857, -0.000000, 0.000000, 0.000004, -0.000002, 0.000003, -0.016377, -0.000001, 0.001851, -0.047042, 0.000148, -0.000001, 0.007135, 0.038634, 0.000000, 0.000004, 0.012277, 0.056037}, {0.000020, -0.000000, 0.000003, -0.000000, -0.000002, 0.000019, 0.214983, -0.000004, -0.000005, -0.088617, 0.000004, 0.000007, 0.684442, 0.000002, -0.000004, 0.335312, 0.000003, 0.000002, -0.000004, 0.000404, 0.048089, 0.000001, -0.602910, 0.000002, -0.000002, 0.000003, -0.000004, 0.000001, 0.277762, 0.000002, -0.165397, -1.007871, 0.000095, -0.000001, 0.327920, -0.109895, -0.000002, -0.000002, 0.010289, 0.261102}, {-0.000022, -0.000005, -0.000003, -0.000001, -0.000004, -0.000126, -0.042893, -0.000002, -0.000003, -0.039036, -0.000007, -0.000032, 0.020781, -0.000002, -0.000007, 0.058765, -0.000003, -0.000001, -0.000001, -0.000069, 0.017422, 0.000002, 0.015597, -0.000003, -0.000003, -0.000007, -0.000001, -0.000000, 0.004243, 0.000003, 0.024253, -0.092213, -0.000089, -0.000003, -0.046701, 0.019126, -0.000005, -0.000001, 0.002504, -0.012887}, {-0.000012, -0.000000, 0.000002, 0.000002, 0.000002, 0.000062, 0.309227, -0.000001, -0.000002, 0.342888, -0.000011, 0.000007, 0.296473, -0.000003, 0.000000, -0.528166, 0.000001, 0.000003, 0.000003, -0.000663, 0.231558, 0.000000, 0.194613, -0.000002, 0.000002, -0.000008, 0.000001, -0.000001, -0.198473, -0.000003, -0.063317, -0.004850, -0.000109, -0.000002, 0.262337, -0.057491, -0.000003, 0.000002, 0.003344, -0.171917}, {-0.000013, -0.000000, -0.000005, -0.000002, -0.000009, 0.000022, 0.005293, -0.000002, -0.000001, -0.385267, -0.000011, -0.000005, 0.060439, 0.000000, 0.000000, -0.326551, 0.000001, -0.000003, 0.000000, -0.000566, 0.411598, -0.000005, 0.347988, -0.000003, -0.000001, -0.000010, -0.000000, -0.000001, -0.563301, 0.000003, -0.639436, -0.447157, -0.000101, -0.000007, 0.392917, -0.073480, 0.000001, -0.000001, 0.003033, -0.502651}, {-0.000037, -0.000002, 0.000001, 0.000006, 0.000003, -0.000374, -0.027474, 0.000004, 0.000005, -0.026481, -0.000008, -0.000031, 0.011840, -0.000003, -0.000004, -0.131988, 0.000003, -0.000001, -0.000002, -0.000246, 0.032099, 0.000003, 0.025619, -0.000002, 0.000002, 0.000000, 0.000001, -0.000002, 0.007162, -0.000001, 0.027772, -0.105755, -0.000028, -0.000001, -0.049459, 0.016280, -0.000000, -0.000001, -0.001861, 0.027802}, {0.000065, 0.000001, 0.000003, -0.000005, -0.000005, -0.000020, -0.327536, -0.000001, -0.000003, -1.380480, -0.000006, 0.000004, 0.420612, 0.000002, -0.000003, -0.170631, -0.000001, 0.000004, -0.000001, -0.000563, 0.459604, 0.000001, 0.337295, 0.000003, 0.000000, -0.000001, -0.000001, 0.000003, -0.807444, 0.000000, -1.210640, -0.698719, -0.000089, -0.000005, 0.575868, -0.138812, -0.000000, -0.000002, -0.014607, -0.713658}, {-0.000006, -0.000001, -0.000005, 0.000004, -0.000005, 0.000054, 0.115631, 0.000002, -0.000001, -0.088410, -0.000008, 0.000002, 0.088272, -0.000002, -0.000001, -0.377352, 0.000001, -0.000003, -0.000001, -0.000626, 0.375290, -0.000002, 0.317853, -0.000003, 0.000003, -0.000008, -0.000004, -0.000000, -0.478357, -0.000002, -0.436737, -0.381445, -0.000107, 0.000002, 0.331829, -0.069911, -0.000003, -0.000001, 0.003546, -0.426382}, {-0.000046, 0.000004, 0.000005, 0.000003, -0.000002, 0.000116, -0.004262, 0.000004, 0.000001, -0.030325, -0.000000, -0.000035, -0.002704, -0.000001, -0.000003, 0.127138, 0.000001, -0.000003, -0.000000, 0.000008, -0.012666, 0.000001, 0.039749, 0.000002, -0.000001, -0.000002, 0.000002, -0.000003, -0.007102, 0.000002, -0.003458, -0.005972, -0.000061, 0.000000, -0.007579, 0.019641, 0.000001, 0.000011, -0.005111, 0.006003}, {-0.000066, 0.000003, -0.000001, 0.000004, 0.000005, 0.000087, -0.022874, 0.000000, -0.000000, -0.056746, 0.000003, 0.000019, 0.015127, 0.000000, -0.000008, 0.041477, 0.000002, 0.000003, 0.000004, -0.000100, 0.034002, -0.000002, 0.014163, 0.000004, -0.000003, -0.000003, -0.000002, 0.000001, 0.022460, -0.000001, 0.030016, -0.088141, -0.000061, 0.000001, -0.047881, -0.042309, -0.000004, 0.000003, -0.001958, -0.030611}, {0.000012, 0.000002, 0.000003, -0.000000, 0.000000, -0.000004, 0.052613, -0.000002, 0.000005, 0.017611, 0.000002, -0.000003, -0.002477, 0.000001, -0.000000, 0.145901, -0.000001, 0.000001, -0.000001, -0.000039, -0.022707, -0.000003, -0.017779, 0.000002, -0.000002, 0.000004, -0.000001, -0.000000, -0.024836, 0.000002, -0.035995, 0.115065, 0.000024, 0.000007, 0.057171, 0.033146, 0.000000, 0.000005, 0.011826, 0.012876}, {0.000035, -0.000002, -0.000002, -0.000001, -0.000003, 0.000035, 0.054750, 0.000002, -0.000003, 0.382950, 0.000003, 0.000035, 0.101712, 0.000003, 0.000004, 0.310832, -0.000002, 0.000002, -0.000001, 0.000560, -0.428571, -0.000000, -0.364880, 0.000003, 0.000002, -0.000001, 0.000003, 0.000002, 0.568969, 0.000003, 0.653263, 0.447773, 0.000073, 0.000001, -0.415792, 0.077777, -0.000001, 0.000001, -0.003478, 0.505596}, {0.000015, 0.000002, 0.000004, -0.000001, 0.000002, -0.000023, -0.028254, -0.000002, 0.000003, -0.061953, 0.000008, 0.000001, 0.028796, -0.000003, -0.000004, 0.265269, 0.000002, -0.000001, -0.000001, 0.000630, 0.104666, 0.000002, -0.189560, 0.000004, 0.000003, -0.000001, -0.000001, 0.000003, 0.245208, -0.000002, -0.027690, -0.483446, 0.000102, -0.000001, -0.062533, 0.085892, 0.000002, -0.000003, 0.009798, 0.225040}, {-0.000014, -0.000000, -0.000003, -0.000002, -0.000003, -0.000041, -0.002615, 0.000001, 0.000001, -0.031834, -0.000011, 0.000021, -0.009433, -0.000000, 0.000004, 0.089639, 0.000001, -0.000003, -0.000002, -0.000080, 0.003871, -0.000003, 0.014063, -0.000001, -0.000004, -0.000007, -0.000003, -0.000001, -0.015604, 0.000002, 0.013874, 0.012484, -0.000005, 0.000002, 0.001398, 0.041379, -0.000006, -0.000005, -0.002714, -0.013263}, {-0.000003, 0.000001, 0.000002, -0.000001, -0.000007, -0.000043, 0.040093, -0.000000, -0.000002, 0.042086, -0.000010, 0.000015, -0.024273, 0.000002, 0.000006, 0.039952, 0.000002, 0.000002, -0.000002, -0.000094, -0.025590, 0.000007, -0.023151, -0.000003, -0.000001, -0.000006, 0.000003, 0.000002, -0.030991, 0.000000, -0.039086, 0.121863, -0.000011, -0.000003, 0.060778, 0.042330, 0.000001, 0.000001, -0.001221, 0.012139}, {0.000043, -0.000002, -0.000001, 0.000002, -0.000006, -0.000168, -0.337134, 0.000003, 0.000004, -1.233179, -0.000002, -0.000030, 0.252062, 0.000000, 0.000009, -0.161859, 0.000004, -0.000001, 0.000001, -0.000677, 0.506968, -0.000001, 0.402669, 0.000004, -0.000003, 0.000001, -0.000000, -0.000003, -0.759862, -0.000004, -1.094638, -0.622227, -0.000113, -0.000005, 0.584278, -0.124099, 0.000005, 0.000001, -0.013171, -0.668600}, {0.000015, -0.000004, 0.000001, -0.000002, -0.000002, -0.000059, -0.221736, -0.000002, -0.000001, -0.535449, 0.000001, -0.000011, -0.104441, -0.000001, 0.000001, 0.016886, -0.000000, 0.000003, 0.000003, 0.000653, -0.270342, 0.000003, -0.262286, 0.000001, -0.000001, 0.000000, 0.000003, -0.000002, 0.210909, -0.000003, -0.277181, -0.255706, 0.000080, 0.000001, -0.273996, 0.058029, -0.000002, 0.000003, -0.000869, 0.157749}, {0.000023, 0.000004, 0.000003, -0.000001, -0.000003, -0.000000, -0.234631, 0.000002, 0.000003, 0.064166, 0.000003, 0.000015, -0.569978, 0.000004, 0.000005, -0.386961, -0.000001, -0.000003, -0.000001, 0.000545, -0.083109, -0.000001, 0.162217, 0.000001, -0.000002, -0.000002, -0.000002, -0.000002, 0.096251, 0.000001, -0.078224, -0.249502, 0.000082, 0.000003, -0.207646, 0.154120, 0.000004, -0.000001, 0.008241, 0.051415}, {-0.000047, -0.000005, 0.000001, -0.000004, 0.000003, -0.000049, -0.414019, 0.000003, -0.000003, 0.337318, -0.000010, -0.000069, -0.468743, -0.000000, -0.000016, -0.343828, -0.000001, -0.000003, -0.000002, -0.000370, -0.168461, 0.000008, 0.035151, 0.000001, 0.000000, 0.000003, 0.000002, 0.000001, -0.023409, -0.000001, -0.064119, -0.038884, -0.000047, 0.000005, 0.019973, -0.004097, -0.000002, -0.000004, -0.003246, -0.013141}, {0.000016, -0.000002, 0.000002, 0.000004, 0.000000, 0.000173, 0.014983, -0.000003, 0.000003, -0.018580, 0.000005, -0.000055, -0.010570, 0.000002, 0.000002, 0.196564, -0.000003, 0.000004, 0.000001, 0.000444, -0.019593, 0.000001, 0.000001, 0.000002, -0.000001, -0.000001, 0.000000, -0.000000, 0.011441, -0.000002, -0.010037, 0.054230, -0.000022, 0.000001, -0.005232, -0.029787, -0.000000, 0.000003, 0.001264, -0.014581}, {0.000023, -0.000001, -0.000004, -0.000001, 0.000001, 0.000014, 0.033469, -0.000002, 0.000004, -0.010719, 0.000008, 0.000019, 0.006316, 0.000000, 0.000003, 0.173671, 0.000000, 0.000001, -0.000001, 0.000494, -0.027191, 0.000013, -0.001168, 0.000002, 0.000001, 0.000010, 0.000003, 0.000002, -0.011392, -0.000001, -0.015929, 0.086429, 0.000078, 0.000005, 0.031179, -0.008146, 0.000006, 0.000004, 0.003796, -0.005768}, {-0.000013, 0.000002, 0.000001, -0.000001, 0.000002, -0.000112, -0.000697, 0.000000, 0.000002, 0.058348, 0.000005, -0.000006, -0.019846, 0.000000, 0.000009, -0.167056, 0.000000, 0.000004, -0.000003, -0.000007, 0.002868, -0.000003, -0.051730, 0.000002, -0.000001, 0.000003, 0.000001, 0.000002, -0.024023, 0.000003, -0.010070, 0.084726, -0.000021, 0.000006, 0.041591, -0.014925, -0.000000, 0.000003, 0.003875, -0.012381}, {0.000001, -0.000004, 0.000001, 0.000001, -0.000003, -0.000102, 0.487571, 0.000001, -0.000006, -0.045348, -0.000020, -0.000036, 0.621878, -0.000001, -0.000017, 0.051440, -0.000003, 0.000001, -0.000001, -0.001386, -0.652414, 0.000000, -0.629468, -0.000002, -0.000001, -0.000002, -0.000004, -0.000002, -0.648036, 0.000000, -0.062060, -0.695730, -0.000238, -0.000006, -0.641501, -0.164398, -0.000003, -0.000006, -0.004229, -0.720521}, {-0.000003, 0.000002, 0.000002, 0.000002, 0.000003, -0.000173, 0.045253, 0.000003, 0.000002, 0.005172, 0.000003, -0.000011, 0.003469, 0.000003, -0.000001, 0.151656, 0.000002, 0.000001, 0.000002, 0.000192, -0.028403, 0.000003, -0.016469, 0.000004, 0.000000, 0.000008, -0.000000, -0.000000, -0.016388, -0.000001, -0.016537, 0.070406, -0.000028, 0.000003, 0.034161, -0.067435, 0.000001, 0.000004, 0.008973, 0.048127}, {-0.000011, 0.000001, 0.000003, 0.000001, 0.000001, 0.000068, -0.496747, 0.000003, 0.000002, 0.039186, 0.000021, 0.000027, -0.620826, 0.000003, 0.000010, -0.044588, 0.000001, 0.000001, 0.000002, 0.001328, 0.675930, -0.000002, 0.650520, 0.000004, 0.000000, 0.000009, -0.000003, 0.000002, 0.712201, 0.000004, 0.073962, 0.761881, 0.000251, 0.000005, 0.639766, 0.199920, 0.000006, 0.000001, 0.003592, 0.784925}, {0.000055, 0.000002, 0.000003, -0.000005, 0.000002, 0.000322, 0.223942, -0.000002, -0.000002, -0.162173, 0.000016, 0.000054, 0.026742, 0.000002, 0.000001, 0.285590, 0.000002, 0.000003, -0.000001, 0.000290, 0.140718, 0.000001, -0.027207, -0.000002, -0.000002, 0.000009, 0.000001, 0.000003, 0.079794, -0.000000, 0.031651, -0.002053, 0.000042, -0.000000, 0.007563, 0.035650, -0.000001, -0.000002, 0.001382, 0.014243}, {0.000038, -0.000004, -0.000003, 0.000001, 0.000003, 0.000415, -0.025168, -0.000003, -0.000003, -0.056481, 0.000012, 0.000027, 0.032778, -0.000002, -0.000002, 0.147270, 0.000003, -0.000003, -0.000005, 0.000275, -0.005885, 0.000006, 0.045035, -0.000002, -0.000002, 0.000007, 0.000000, -0.000002, 0.043995, -0.000004, 0.016056, -0.113678, 0.000086, -0.000002, -0.055594, 0.047786, -0.000001, 0.000002, -0.004846, -0.017184}, {-0.000032, -0.000000, -0.000001, 0.000004, 0.000002, 0.000068, -0.442743, -0.000002, -0.000001, 0.366580, 0.000003, -0.000066, -0.495573, 0.000004, 0.000005, -0.178760, 0.000002, -0.000003, 0.000003, -0.000524, -0.102410, 0.000002, -0.101223, 0.000002, 0.000001, 0.000001, 0.000002, 0.000003, 0.100509, 0.000002, -0.076803, -0.215298, 0.000034, 0.000008, 0.063062, 0.017228, -0.000002, 0.000004, -0.002132, 0.086885}, {-0.000039, -0.000000, 0.000002, 0.000004, -0.000004, -0.000076, 0.036724, -0.000000, 0.000001, 0.009381, -0.000002, -0.000053, -0.009651, 0.000002, 0.000000, 0.183178, 0.000001, 0.000004, 0.000001, -0.000187, -0.038050, -0.000000, -0.008534, 0.000003, 0.000000, 0.000002, -0.000002, 0.000003, -0.002041, 0.000003, -0.019044, 0.096088, -0.000059, 0.000004, 0.035376, -0.020080, 0.000004, -0.000000, 0.005530, -0.022355}};
static const float * p_layer_0_weight = layer_0_weight;
static const float layer_0_bias[40] = {-0.303705, -0.126899, -0.113692, -0.077572, -0.079385, -0.200249, 0.574517, -0.175921, -0.044722, 0.614102, -0.357206, -0.094314, -1.376496, -0.107139, -0.117489, -0.941385, -0.115966, -0.103143, -0.099257, -0.487229, 0.013334, -0.095973, -0.033147, -0.238971, -0.133821, -0.271834, -0.203099, -0.212072, 0.137342, -0.077898, 0.120136, -0.180301, -0.475203, -0.156629, 0.746413, -0.597556, -0.122994, -0.159498, -0.365692, 0.054205};
static const float * p_layer_0_bias = layer_0_bias;
static const float layer_1_weight[40][40] = {{-0.004894, 0.001474, -0.001791, -0.002273, -0.004130, 0.003016, 0.000762, -0.002001, 0.002863, -0.002971, -0.014431, -0.011740, 0.016609, -0.037785, 0.000738, -0.001332, 0.000958, -0.006094, -0.003221, 0.001163, -0.003887, -0.006915, -0.003420, 0.001551, 0.002972, -0.016335, -0.003337, -0.008159, -0.000505, 0.002004, 0.006844, -0.006874, 0.003622, -0.006854, -0.007465, 0.000538, 0.001241, 0.004986, 0.004446, 0.014275}, {0.002569, 0.003347, -0.001534, 0.000856, 0.003702, -0.003667, 0.010475, -0.005155, 0.000297, -0.004340, -0.001450, -0.003734, 0.007883, -0.004541, -0.000815, -0.004129, -0.000736, -0.006635, -0.005307, -0.002157, 0.002697, 0.003419, 0.000383, -0.006269, -0.003219, 0.000244, -0.002550, -0.002397, -0.001481, -0.002265, -0.001672, -0.004535, -0.000060, -0.000519, 0.002736, -0.003715, -0.003126, -0.000874, 0.000730, -0.000657}, {0.001374, 0.000673, -0.004104, -0.000763, -0.004309, 0.001653, 0.001641, 0.003418, -0.001164, -0.001278, 0.001525, 0.000768, 0.004645, -0.001587, 0.000104, 0.001812, 0.001686, -0.004133, -0.003309, -0.005101, -0.004474, 0.002470, 0.001866, -0.001510, 0.003848, -0.004147, -0.000059, -0.003630, 0.002276, 0.000485, 0.003637, 0.000360, 0.003496, -0.000714, -0.001521, 0.002307, 0.000124, -0.001600, -0.001585, 0.002714}, {-0.000727, -0.004326, 0.003255, 0.001488, -0.004866, 0.000651, 0.001921, -0.000078, -0.008269, -0.005593, -0.000941, -0.002070, 0.004054, -0.001238, 0.002996, -0.005946, 0.003266, -0.004035, -0.003861, 0.001747, -0.004162, -0.004237, 0.004351, -0.005453, -0.003980, -0.003072, -0.001081, -0.002492, 0.002185, 0.001807, -0.001340, -0.007996, 0.002368, 0.002263, 0.003651, -0.003110, -0.001985, -0.000003, -0.004625, -0.005748}, {-0.005105, -0.001775, 0.002310, 0.002123, 0.006047, 0.002609, 0.001430, 0.000696, -0.002360, -0.000685, -0.011008, -0.005588, 0.005271, -0.000442, 0.001539, 0.000216, 0.002324, -0.002438, -0.002310, 0.000828, 0.000369, -0.000574, -0.003878, -0.002086, -0.001019, -0.001304, 0.001217, 0.000533, 0.002033, 0.002322, 0.004254, -0.002135, 0.001945, 0.002365, 0.005569, 0.001195, -0.000442, 0.002277, -0.000655, -0.004103}, {-0.001424, -0.003329, -0.000087, -0.003450, -0.003231, -0.004254, -0.003358, -0.000419, -0.019012, 0.001860, -0.004515, -0.003884, -0.006578, -0.026522, -0.006414, -0.006519, -0.000176, 0.002062, -0.000456, 0.002021, -0.004071, 0.001876, 0.004332, -0.005158, -0.000918, 0.000332, 0.000887, -0.002735, -0.011993, 0.002570, -0.010962, 0.009723, -0.003515, -0.003212, -0.011449, -0.002899, -0.000265, 0.008524, -0.001697, -0.010783}, {-0.007924, 0.000479, -0.002899, -0.000947, -0.193739, -0.000314, 0.000632, -0.015374, 0.325286, -0.003330, -0.000819, -0.007063, 0.007908, -0.299120, -0.093020, -0.018631, -0.004382, -0.002704, 0.000406, -0.003475, -0.010645, -0.003192, 0.003728, -0.002368, -0.001659, 0.146325, -0.035197, -0.005833, 0.000387, -0.004791, 0.128060, -0.165193, 0.001112, -0.006521, -0.053272, -0.000813, -0.001205, -0.537826, -0.009653, -0.013300}, {-0.000320, 0.003321, 0.000866, 0.002409, -0.001977, 0.002562, 0.000436, 0.003030, -0.003712, 0.001484, 0.002970, -0.000887, 0.001010, -0.003175, 0.001406, -0.000471, 0.002914, 0.000472, -0.002512, -0.002470, -0.002244, -0.001418, 0.000365, -0.005915, -0.001733, -0.002128, -0.001582, -0.005022, 0.000200, -0.004125, -0.004755, -0.000774, -0.004081, 0.000154, -0.000157, 0.003138, 0.001213, 0.002134, -0.000091, -0.000992}, {-0.004020, -0.001718, -0.003649, -0.001001, 0.000397, -0.000041, -0.003614, -0.005506, 0.002658, -0.001701, -0.003746, -0.006165, -0.001048, -0.010155, -0.003011, -0.003753, 0.001007, -0.000540, -0.003701, -0.002222, -0.004530, 0.000990, -0.000772, 0.001536, 0.001803, 0.001683, 0.001784, -0.001678, -0.005156, 0.001215, 0.007463, -0.007708, -0.005086, -0.004059, -0.000162, -0.002287, 0.001608, 0.001628, -0.005422, -0.005679}, {-0.000487, -0.000644, 0.002791, -0.003311, -0.233027, -0.001928, -0.005063, -0.007150, 0.473866, -0.003088, -0.001242, 0.005502, -0.019326, 0.232843, -0.127910, -0.004137, -0.002220, -0.000250, 0.004421, -0.006920, 0.000674, -0.000352, -0.003846, 0.003306, -0.004726, 0.577214, -0.015748, -0.003265, -0.001898, -0.003004, 0.404765, 0.024431, -0.000787, -0.002695, -0.102023, 0.000496, -0.004905, -0.627517, -0.007271, 0.006036}, {-0.003501, -0.001179, 0.002383, -0.008876, -0.000522, 0.002254, -0.002335, 0.000932, 0.004905, -0.001445, -0.007450, 0.000775, 0.005645, -0.000779, 0.002298, -0.000853, 0.000804, 0.002521, 0.003302, -0.006498, 0.000925, -0.006400, 0.002409, 0.002385, -0.004313, 0.005851, 0.000195, -0.009953, 0.002147, 0.000853, 0.001916, 0.002559, 0.001235, 0.002022, -0.000799, -0.003260, -0.002478, -0.008290, -0.004991, -0.005490}, {0.001068, -0.001537, -0.000120, -0.000144, 0.001357, -0.003304, -0.001056, -0.000210, -0.010312, 0.001288, -0.007108, -0.004406, -0.026821, -0.053337, -0.004102, -0.000483, 0.001896, -0.001152, -0.006571, 0.002086, 0.001411, -0.004366, 0.000068, 0.000369, -0.002558, -0.004524, -0.002374, -0.003256, -0.005586, 0.001343, 0.017032, -0.015623, -0.000944, -0.000012, -0.004310, 0.001528, -0.000790, 0.004498, -0.002141, -0.046425}, {-0.000108, -0.004365, 0.001622, 0.001118, 0.013000, -0.002931, -0.004832, 0.001368, 1.857318, -0.004731, 0.001741, -0.002820, 0.000799, -0.933886, 0.031674, -0.004744, -0.002962, 0.001539, -0.004836, 0.003112, -0.001669, -0.008554, -0.007453, -0.001340, -0.004733, 1.664300, 0.000372, -0.006969, 0.000818, -0.003923, 0.548833, -0.000180, -0.000496, 0.002199, 0.002184, -0.001736, -0.003227, 0.496293, -0.001593, -0.000616}, {-0.003780, 0.000442, -0.003000, -0.001924, 0.002644, 0.002515, -0.000953, -0.002595, -0.000388, 0.001426, 0.003299, -0.003908, 0.003686, 0.002210, -0.002419, 0.001482, 0.000741, 0.004234, 0.004431, -0.004171, -0.003425, -0.004060, -0.003842, 0.002865, 0.002047, 0.000463, 0.004374, 0.002865, -0.001026, -0.000016, -0.002588, 0.001152, -0.000001, 0.004301, 0.001128, -0.001456, 0.002561, 0.000633, 0.003766, -0.000733}, {0.001924, -0.001315, 0.003611, -0.003625, -0.005018, -0.003821, -0.003548, -0.003713, 0.005611, -0.004937, -0.008405, -0.007997, 0.008789, -0.013925, 0.001021, -0.001730, 0.003217, -0.000642, -0.004778, -0.001122, -0.000907, -0.007377, 0.000182, -0.003926, -0.000720, 0.004194, -0.004460, -0.006005, 0.001199, 0.001473, -0.000224, 0.011755, 0.001109, -0.001771, -0.002051, 0.002101, -0.002817, 0.002367, -0.001319, -0.006781}, {-0.000910, -0.002567, 0.001003, -0.003919, -0.032412, -0.002395, -0.003199, -0.012624, -0.975557, -0.000369, -0.007131, -0.011051, -0.099091, -1.312408, -0.035953, -0.002010, -0.003380, -0.006121, -0.000549, 0.001007, 0.002735, -0.006466, -0.005501, -0.005246, 0.002672, 0.035253, -0.007854, 0.000005, -0.009718, -0.004821, -0.549890, -0.152346, -0.004773, -0.008052, -0.029250, 0.003169, 0.000731, 0.098386, -0.008804, -0.069756}, {-0.002793, -0.000045, 0.004214, -0.001305, -0.003529, -0.000795, -0.004234, -0.000408, 0.003626, 0.003252, 0.002689, 0.002752, 0.002098, -0.002161, 0.001808, -0.001642, 0.001344, -0.002906, 0.004330, 0.001641, -0.001927, 0.000936, 0.002316, -0.000957, -0.002713, -0.001428, 0.000325, 0.001477, -0.003147, 0.003599, 0.002007, -0.003111, 0.002161, -0.003693, 0.002869, -0.000674, -0.000476, -0.003850, -0.004223, -0.000641}, {0.003558, -0.002561, -0.001986, 0.002246, -0.003611, 0.001223, -0.000889, 0.004405, 0.000004, 0.001394, 0.003792, 0.003517, 0.000790, -0.002333, 0.000430, 0.002108, 0.003770, -0.001075, -0.002796, -0.002019, 0.003299, -0.002838, 0.002847, -0.001817, -0.003974, -0.001014, 0.002749, -0.003245, 0.004745, -0.003103, 0.003133, -0.002165, 0.002927, 0.004377, -0.001145, 0.003036, -0.004439, 0.003703, -0.003463, -0.003294}, {-0.002367, 0.001115, 0.003819, -0.001245, -0.001628, -0.001270, 0.000585, -0.004576, -0.001240, 0.000753, -0.000859, -0.000777, -0.004950, -0.006428, 0.000964, 0.002536, -0.000579, -0.005009, -0.005037, -0.003064, 0.002605, -0.002984, 0.001350, -0.001777, -0.001528, -0.009188, -0.000891, -0.000333, -0.000015, -0.003044, -0.000513, 0.000973, -0.001019, 0.001381, -0.001720, -0.006081, -0.002945, -0.000032, 0.001009, -0.007576}, {-0.000520, -0.001384, -0.004498, -0.001850, 0.015802, -0.002832, -0.005592, -0.001961, 0.010937, -0.003217, 0.003231, 0.001736, 0.023612, 0.010606, 0.030621, -0.000660, -0.004117, 0.001550, -0.002637, -0.004611, -0.002319, 0.002157, -0.002275, -0.005198, 0.001078, 0.008170, 0.008538, -0.000572, -0.005414, 0.000289, 0.001115, -0.000090, -0.003644, -0.004574, 0.037364, 0.000694, 0.001432, 0.013348, -0.008165, 0.006719}, {0.001019, -0.003167, -0.002756, 0.001441, 0.004081, -0.003868, 0.001850, -0.010269, -0.764001, 0.002322, 0.000360, 0.000012, -0.000057, -0.018625, -0.013509, -0.003640, -0.001145, -0.003768, -0.002563, -0.003876, 0.002225, -0.002317, -0.003672, -0.001868, -0.001268, -0.082307, -0.003089, 0.000511, -0.005068, 0.000603, 0.100286, -0.204975, -0.002517, -0.004950, -0.021798, 0.000070, -0.000138, 0.630819, -0.002553, 0.007377}, {-0.002122, -0.003244, -0.001097, 0.002272, 0.002357, -0.001258, -0.002770, -0.002550, 0.000789, -0.005621, -0.004357, -0.001637, 0.000070, 0.000298, -0.001068, -0.008532, -0.002508, 0.000863, -0.004129, -0.001717, -0.002514, -0.007468, -0.002367, 0.000115, -0.005377, 0.001008, -0.004595, -0.007066, -0.004482, -0.003775, 0.000269, 0.002443, -0.000498, -0.003698, 0.000154, -0.005390, -0.001819, -0.000757, -0.007534, 0.000491}, {-0.003169, -0.000804, 0.003791, -0.002584, 0.009292, -0.003824, -0.002591, -0.014043, -0.186120, -0.004144, -0.009773, -0.003230, -0.009887, -0.044459, -0.011414, 0.000965, 0.003493, -0.000016, 0.001293, 0.001535, -0.001820, 0.001721, -0.001023, 0.000910, -0.003949, 0.004232, 0.000485, -0.005387, -0.009231, -0.001523, 0.318201, -0.275257, 0.002949, -0.004475, -0.009324, -0.002609, -0.002112, 0.581974, -0.000271, -0.018089}, {-0.000916, -0.004122, 0.002995, -0.000116, -0.002048, -0.003280, -0.002606, -0.002920, 0.000176, 0.007307, 0.000308, 0.005072, -0.002017, -0.004043, -0.000150, -0.003437, -0.004971, -0.001372, -0.001866, -0.005484, -0.001228, 0.003651, 0.002122, 0.001580, 0.001857, 0.000379, 0.000705, -0.001971, 0.001904, -0.003659, -0.004258, 0.001703, 0.000598, -0.000376, -0.000642, -0.002999, 0.000426, -0.005979, -0.004743, 0.002017}, {0.000414, -0.001519, -0.002262, -0.003269, -0.002507, 0.002738, 0.007978, -0.003621, 0.001752, 0.002689, -0.000143, -0.003804, -0.000686, -0.001139, -0.002416, 0.000412, -0.001861, -0.006175, -0.001844, 0.001587, 0.000417, -0.000497, 0.001914, -0.005749, 0.000769, -0.007422, -0.000161, -0.002251, -0.004359, -0.003886, -0.001610, 0.001387, -0.002809, -0.002387, -0.000540, 0.001625, -0.000312, 0.004069, -0.004350, -0.007816}, {-0.000092, -0.003770, -0.001354, 0.003319, 0.002731, -0.004051, -0.003360, -0.003385, 0.002623, -0.003586, -0.003623, -0.000841, 0.000688, -0.002231, -0.002990, -0.002149, 0.004118, -0.001412, -0.003990, -0.004397, -0.003593, -0.002130, -0.000368, 0.002778, 0.001046, 0.000982, 0.001976, -0.003369, 0.001714, -0.004245, 0.000915, 0.001639, -0.000475, 0.000458, 0.001370, 0.000110, -0.000969, -0.003479, 0.000638, -0.002437}, {0.003293, 0.002153, 0.000889, 0.003041, -0.004260, 0.000145, -0.003446, 0.001140, -0.003344, 0.001520, -0.000031, -0.000282, 0.001834, 0.002674, 0.004091, -0.000911, 0.000890, -0.003629, -0.004176, 0.004680, 0.004033, -0.004759, 0.002421, 0.000398, -0.003542, 0.003061, 0.003942, 0.001448, 0.004723, 0.002333, 0.003643, -0.001954, -0.004416, 0.004240, -0.003223, -0.003218, 0.001514, -0.002693, -0.000760, 0.003984}, {0.000969, 0.000212, -0.000476, 0.001901, -0.003165, -0.003229, -0.002606, 0.003708, 0.006801, -0.001141, 0.001944, -0.000703, 0.006586, 0.002838, -0.000246, -0.004557, -0.001844, -0.001288, -0.000774, -0.001283, 0.003149, 0.001481, -0.004369, -0.003828, 0.000732, -0.001282, -0.004074, -0.001969, -0.004937, -0.003054, 0.000891, 0.000606, 0.003509, 0.001701, 0.002358, 0.002276, 0.001558, 0.002526, 0.002133, 0.003668}, {-0.006815, 0.001922, 0.000825, 0.006371, -0.212855, -0.000427, -0.004492, 0.010515, 0.745876, -0.004021, 0.003290, -0.002361, 0.016929, 0.680855, -0.239230, -0.006656, 0.004535, 0.003407, -0.004247, -0.002479, -0.004943, -0.005185, -0.005224, -0.001599, 0.000014, 1.046257, -0.000466, -0.005809, -0.002078, -0.002750, 0.735123, -0.015896, -0.001004, 0.000451, -0.092824, -0.000360, 0.003824, 0.326933, -0.006612, 0.008127}, {-0.000261, 0.002436, 0.002023, -0.003718, 0.001435, 0.002097, 0.004886, -0.005266, -0.003872, -0.005305, -0.006516, -0.002951, -0.001888, -0.006134, 0.002924, -0.004292, -0.002053, -0.003367, -0.004052, 0.002470, -0.001511, -0.005397, -0.000617, 0.000158, -0.000718, -0.002680, 0.002266, 0.002101, -0.000114, -0.001956, 0.003642, 0.003246, -0.001369, 0.001055, -0.001007, -0.002514, -0.000045, -0.002313, -0.005811, -0.005492}, {-0.005958, 0.000067, 0.001542, 0.000254, -0.021096, -0.004860, -0.000436, -0.008188, 0.606612, -0.004239, 0.002384, -0.000522, 0.005497, 0.496710, -0.227995, -0.002488, 0.003489, -0.002622, 0.000580, -0.006086, -0.001668, -0.002711, -0.002819, 0.002030, 0.002361, 0.731644, -0.006934, -0.000459, -0.001221, -0.000810, 0.648705, 0.048336, -0.002493, 0.001263, -0.058523, 0.000161, 0.001262, -0.331514, -0.001320, 0.002656}, {-0.001740, -0.003443, 0.003827, 0.002783, -0.071995, -0.002887, -0.005973, -0.002537, 0.895540, 0.004037, 0.004829, 0.000980, 0.023377, 0.661041, -0.038033, -0.006133, -0.003272, -0.003908, -0.002130, 0.001826, 0.001618, -0.012689, -0.000277, -0.001306, -0.001044, 1.058073, 0.013046, -0.006476, 0.003852, -0.003721, 0.951502, 0.061398, 0.000655, 0.001746, 0.019588, 0.002489, 0.002756, 0.423620, 0.002357, 0.011862}, {-0.002336, 0.002325, 0.000058, -0.002368, -0.006414, 0.001267, -0.007520, -0.003870, 0.026060, -0.000925, -0.004070, -0.003382, 0.003009, 0.011548, -0.007565, -0.001701, -0.001738, -0.001525, -0.003670, 0.000852, -0.002374, -0.004178, -0.002607, 0.000971, -0.002454, 0.020978, -0.006649, -0.005798, -0.005025, -0.000713, 0.019223, 0.020787, -0.002075, 0.002666, -0.000007, 0.002366, 0.002120, -0.007479, -0.008000, 0.012992}, {0.001511, 0.000851, 0.000045, 0.000640, -0.002145, 0.003443, 0.004728, -0.003115, 0.003768, 0.001635, -0.008963, -0.001310, 0.000040, -0.001129, -0.003065, -0.004119, -0.004683, -0.002427, 0.001091, 0.001105, 0.000556, 0.002934, -0.003349, -0.000211, -0.004234, -0.003169, 0.000931, -0.006552, -0.005213, -0.000468, -0.002539, -0.007968, -0.001288, 0.001520, 0.000936, 0.000775, 0.001797, 0.003693, -0.005879, 0.000156}, {0.001686, 0.002779, -0.000478, -0.000673, -0.031728, 0.002086, -0.005110, -0.015211, -0.903879, -0.003202, -0.030290, -0.014063, -0.111413, -2.804026, -0.064606, -0.005175, -0.003619, -0.000485, -0.002609, -0.000103, -0.005976, -0.002016, -0.006079, 0.000565, -0.003648, -0.260802, -0.011249, 0.001279, -0.005950, -0.001686, 0.009566, -0.115363, -0.004049, -0.007702, -0.035926, 0.002243, 0.001019, 0.499168, -0.008980, -0.086254}, {-0.006998, 0.001757, 0.002215, -0.002227, 0.001968, -0.002507, -0.006218, 0.006431, 0.228285, -0.001391, -0.000550, -0.002875, 0.014745, 0.236930, 0.005207, -0.001668, -0.003846, 0.003287, -0.004873, -0.001017, -0.004288, -0.007722, -0.004149, 0.001255, -0.000940, 0.294077, 0.006119, -0.003649, -0.002795, -0.003237, 0.247917, 0.112354, 0.003653, -0.002298, 0.005209, 0.001801, 0.003011, 0.519819, -0.000270, 0.011084}, {-0.004048, 0.003930, 0.000056, -0.000796, -0.000844, -0.002907, -0.004885, 0.000291, 0.002135, 0.000895, -0.002602, 0.002403, -0.004518, 0.001945, 0.001940, -0.003670, -0.000122, -0.004833, -0.000965, -0.005065, -0.005330, -0.003585, -0.004379, -0.003664, 0.000372, -0.000494, -0.003547, 0.000779, 0.001717, 0.001603, 0.001793, -0.000742, 0.003901, -0.003484, 0.004032, 0.002239, -0.001508, -0.001888, -0.000454, -0.001973}, {-0.000434, 0.001245, -0.002709, -0.003152, 0.001822, 0.003012, 0.004240, -0.002781, -0.000612, -0.002445, -0.009082, -0.000087, 0.006314, 0.001282, 0.002588, -0.000302, -0.003382, -0.005033, -0.001488, -0.001344, -0.000132, 0.000068, -0.002124, -0.001747, -0.003274, -0.001291, 0.001106, -0.000722, 0.003258, -0.003420, 0.004017, -0.003715, 0.000110, -0.001358, -0.000510, 0.000004, -0.003474, -0.002561, -0.004202, -0.007040}, {0.003200, -0.002043, -0.003192, -0.006445, -0.049956, -0.002823, -0.001805, -0.011609, -0.041372, 0.000040, -0.003166, -0.005066, -0.004443, -0.017221, -0.031277, -0.001412, -0.002543, 0.000508, 0.000028, -0.002179, -0.000956, 0.001795, -0.002982, -0.005368, -0.004090, 0.011964, 0.002573, 0.000651, -0.006272, -0.003670, -0.046168, -0.027424, 0.003649, -0.003812, -0.026901, -0.000802, -0.005470, -0.006139, -0.002406, -0.014417}, {-0.007234, 0.003211, -0.002768, 0.000193, -0.109495, -0.000881, -0.003197, -0.001385, 0.643789, 0.004613, -0.002004, 0.006602, 0.018258, 0.613438, -0.155836, -0.009119, 0.001136, -0.003782, -0.006931, -0.003021, -0.008528, -0.004689, -0.002443, -0.002636, -0.002603, 0.991532, -0.007685, -0.003653, 0.001296, -0.002911, 0.628249, -0.017029, 0.002606, 0.001876, -0.057505, -0.000823, -0.002223, 0.428463, -0.005850, 0.014046}};
static const float * p_layer_1_weight = layer_1_weight;
static const float layer_1_bias[40] = {-0.090977, -0.122156, -0.255308, -0.197534, -0.039929, -0.131315, -0.367398, -0.103277, -0.157285, -0.047456, -0.416948, -0.209789, -0.820570, -1.309863, -0.059788, -0.079521, -0.148613, -0.143655, -0.293389, -0.110604, -0.038692, -0.162927, -0.244144, -0.195120, -0.221362, 0.468394, -0.001270, -0.147853, -0.184398, -0.050188, -1.159325, -0.531339, -0.049061, -0.024285, -0.000527, -0.314244, -0.163502, 0.647961, -0.069383, -0.791160};
static const float * p_layer_1_bias = layer_1_bias;
static const float layer_2_weight[40][40] = {{0.084022, -0.158611, -0.048845, -0.012627, -0.060477, -0.090532, -0.025306, -0.150864, -0.047725, 0.033780, 0.094948, 0.039151, 0.072284, -0.068625, 0.040558, 0.003329, 0.080494, 0.033407, -0.127732, -0.091053, 0.037390, -0.066847, 0.026588, 0.063869, -0.036230, 0.035363, -0.069220, -0.054063, -0.126609, 0.030236, -0.046351, 0.015076, -0.185453, 0.024425, 0.020889, 0.046341, -0.008618, 0.016738, 0.017831, -0.077970}, {0.055973, -0.006176, 0.042948, -0.016890, 0.103016, -0.077578, -0.057095, -0.119962, -0.118781, -0.203015, 0.024311, 0.091284, -0.017073, -0.027491, -0.132741, 0.026160, 0.067399, 0.099420, 0.046696, 0.011178, -0.008534, -0.029207, -0.108411, 0.015747, 0.062079, -0.000826, 0.048645, 0.067508, 0.047199, -0.104941, -0.064194, -0.067965, -0.134128, -0.101918, -0.005674, 0.104526, 0.012592, 0.036115, -0.152566, 0.102599}, {-0.073266, 0.028350, -0.056331, -0.020378, -0.101110, 0.028997, -0.087848, 0.067703, -0.017647, -0.170117, 0.003451, 0.057066, -0.032130, -0.122582, 0.097020, -0.099932, 0.037636, 0.195063, -0.063299, -0.131662, 0.021907, -0.034422, 0.015875, 0.028223, -0.021221, -0.100673, 0.210227, 0.036375, -0.054855, -0.068497, -0.010931, 0.036369, 0.067005, 0.104236, -0.127214, 0.028394, 0.133780, 0.158823, -0.077924, 0.043713}, {0.115831, -0.067468, 0.033142, -0.113786, 0.026350, -0.081526, 0.054720, -0.137979, 0.041212, -0.080980, -0.019893, -0.058477, -0.075583, 0.012811, 0.123355, -0.025405, 0.013409, -0.171076, -0.055757, -0.075159, 0.115809, 0.094730, -0.164343, -0.065486, -0.093203, -0.077741, -0.036874, -0.036485, 0.053716, 0.058940, -0.079265, 0.003005, 0.009729, -0.199818, 0.017939, -0.052947, -0.004687, -0.047822, 0.030077, 0.135288}, {-0.169475, 0.043651, -0.087681, 0.021207, -0.341460, -0.120219, -0.132722, -0.084861, -0.149722, -0.086782, -0.130848, -0.148893, 0.116735, 0.039326, -0.072521, -0.119297, -0.135321, 0.112557, -0.248319, -0.208939, -0.121095, -0.306277, 0.052316, 0.026456, -0.169596, -0.322173, -0.182404, -0.019835, -0.127390, -0.005267, 0.018951, -0.428061, -0.056516, -0.002956, 0.020338, -0.150005, -0.332875, -0.034820, -0.343096, -0.063298}, {-0.112950, -0.115910, -0.008094, 0.053239, 0.027673, 0.098089, -0.004827, -0.008086, 0.095626, 0.075421, 0.010947, -0.029570, 0.043298, 0.036828, 0.049757, -0.042427, 0.095641, 0.046474, -0.013435, -0.018997, 0.045695, 0.122411, -0.073984, 0.104947, -0.001817, 0.058557, 0.108947, 0.077757, 0.054719, 0.078367, 0.041029, -0.062434, 0.044182, 0.016548, -0.077875, 0.100884, -0.001797, 0.127035, 0.116614, -0.116927}, {0.049001, -0.026369, 0.121331, 0.176590, 0.146087, -0.040655, -0.100478, -0.018096, 0.037898, -0.065820, -0.083910, 0.125041, -0.058888, 0.043142, -0.062331, -0.076490, 0.052101, -0.003099, -0.046501, 0.120160, 0.003622, -0.275997, -0.044770, 0.082782, 0.054621, 0.156241, 0.040373, -0.083114, -0.206085, -0.075770, -0.148662, 0.117216, 0.127608, 0.017395, -0.121114, -0.010762, 0.046841, 0.133570, -0.089224, 0.009739}, {0.010788, -0.017870, -0.025570, -0.011301, 0.100054, -0.136956, -0.056666, 0.081255, -0.006061, 0.041688, -0.069889, -0.059310, 0.157727, 0.039661, 0.059245, 0.002248, 0.030419, -0.000502, -0.102693, 0.087707, -0.108457, -0.068198, -0.079764, 0.096573, 0.038856, 0.124454, 0.185321, -0.059033, -0.086093, 0.095073, 0.017561, -0.036236, -0.015461, -0.011086, 0.075523, -0.137141, -0.089450, 0.025634, -0.097316, -0.058231}, {0.072891, -0.015055, -0.257501, -0.931235, 0.000535, -0.252260, -0.046601, 0.109568, 0.011484, -0.022195, -0.002210, -0.159364, -0.056222, -0.040792, -0.052963, -0.101336, -0.151152, -0.078713, -0.053172, -0.008578, 0.012465, 0.169255, -0.091282, -0.052785, -0.074054, -0.336456, -0.162409, -0.071037, -0.163236, -0.343341, -0.147888, 0.642074, -0.110095, -0.005540, -0.045441, -0.289988, -0.279069, -2.602767, -0.936373, 0.034622}, {-0.115817, -0.067513, 0.124302, -0.049371, 0.029447, 0.026353, -0.025850, -0.160444, -0.032118, 0.097000, -0.112929, -0.034810, -0.043467, -0.120605, 0.033459, -0.042618, -0.069990, 0.120320, -0.100238, -0.071587, -0.003716, -0.051476, -0.031399, -0.029865, 0.071492, 0.110345, -0.069794, 0.087616, 0.056282, 0.027335, -0.056326, 0.039947, -0.128884, 0.113634, 0.025649, 0.090435, -0.137792, 0.039832, 0.060439, -0.048408}, {0.016684, -0.140389, -0.048532, 0.000351, 0.086060, -0.054598, -0.103356, -0.149908, -0.029481, -0.068011, -0.158989, 0.058452, -0.015590, 0.046538, 0.098814, -0.076539, -0.025668, -0.145417, 0.057296, 0.012869, 0.068623, -0.133254, 0.098144, -0.150562, -0.176046, -0.113275, -0.011652, -0.121658, 0.004071, 0.022822, 0.109455, 0.155203, -0.074215, -0.060623, -0.152789, 0.077197, -0.105111, -0.135228, -0.150535, 0.000103}, {-0.031344, -0.150081, -0.061702, -0.018816, 0.123320, -0.117873, 0.015707, -0.087073, -0.102538, -0.069746, 0.092736, -0.113034, -0.010442, 0.122942, 0.074737, 0.044406, -0.085425, -0.114591, 0.042500, 0.073868, -0.029248, 0.121795, 0.049018, 0.012718, -0.194517, -0.146846, -0.010148, -0.051246, 0.132227, -0.101984, 0.106496, 0.040442, 0.038502, 0.017920, -0.177402, -0.092775, -0.062646, -0.032521, -0.070979, -0.015594}, {-0.142324, -0.040838, -0.018372, -0.259685, -0.311399, -0.080995, -0.009400, -0.082881, -0.173088, 0.009179, 0.095920, -0.221803, -0.540622, 0.069537, 0.013404, 0.028260, -0.154397, 0.039514, -0.013941, -0.110193, -0.198897, -0.631297, 0.094496, -0.029917, -0.101804, -0.160839, 0.061918, 0.009298, -0.077793, -0.003369, -0.088903, 0.361903, -0.181329, -0.027469, -0.079373, -0.051573, 0.202846, -0.339870, -0.137062, -0.009624}, {0.099373, 0.015079, -0.164169, 0.126529, -0.125790, -0.032725, 0.041643, -0.149782, -0.185241, -0.112560, -0.019305, -0.184614, 0.002127, 0.111796, 0.052235, 0.151054, -0.043211, -0.029221, 0.131247, 0.119522, -0.063661, -0.234231, 0.043526, 0.095951, 0.056657, -0.154065, -0.183740, -0.055445, -0.111976, -0.046183, 0.053826, 2.256268, 0.014216, -0.040129, 0.030354, -0.148009, 0.363151, 0.084849, -0.093230, 0.036618}, {0.038615, -0.004028, 0.035452, 0.167497, -0.208756, 0.049935, -0.217493, 0.117057, -0.002354, -0.163199, 0.078217, -0.264634, 0.127075, 0.050756, 0.003906, 0.098535, -0.093000, -0.086697, -0.362040, -0.080463, -0.031847, -0.248460, -0.059319, -0.189456, 0.002491, -0.102004, -0.014837, -0.169710, -0.036566, 0.003270, -0.118007, -0.521756, -0.010043, 0.013419, 0.019226, -0.152081, -0.674919, 0.044778, -0.436473, -0.038910}, {0.097920, -0.065193, 0.012135, 0.040894, -0.019821, -0.162451, -0.084503, -0.034873, 0.101460, 0.041009, 0.020478, 0.029357, 0.155704, 0.027267, 0.004235, -0.110018, 0.091458, -0.118735, -0.164953, -0.034377, -0.061906, -0.091352, 0.083865, -0.091677, 0.129549, -0.107156, -0.124508, -0.115386, 0.039199, -0.142402, -0.084051, -0.246032, -0.162205, -0.210534, 0.057533, 0.001311, -0.039430, 0.017937, -0.112846, -0.087220}, {0.061121, 0.075558, 0.060138, 0.071992, -0.000202, -0.075109, 0.116985, 0.111131, -0.009027, -0.126216, -0.089608, -0.034721, 0.057561, 0.056553, -0.084151, 0.115715, -0.076591, -0.120237, 0.107827, 0.056164, -0.013036, 0.074926, 0.069732, -0.079384, 0.074569, -0.145742, -0.217728, -0.035056, 0.000471, -0.118048, 0.006950, -0.046965, 0.032342, -0.025493, -0.092422, -0.140292, -0.077725, -0.037414, 0.037994, -0.051996}, {0.124565, -0.064795, 0.014813, 0.161526, 0.096773, -0.013765, -0.064870, -0.010116, 0.010486, 0.014994, 0.004324, 0.151476, 0.044474, 0.042129, 0.118599, -0.087200, 0.057193, 0.082635, 0.098954, 0.128470, 0.132397, -0.079597, -0.086180, 0.054812, -0.023066, -0.003792, -0.061543, -0.103871, -0.031606, 0.018444, 0.148578, 0.039906, 0.021596, -0.083375, 0.131534, -0.061386, -0.130586, 0.130492, -0.089301, -0.063893}, {0.094495, -0.040787, 0.098696, 0.104057, 0.030763, 0.150624, -0.018538, -0.047991, -0.099830, 0.036556, 0.116522, 0.061919, 0.039124, -0.100467, 0.090027, -0.047020, -0.117352, 0.091371, 0.089837, -0.038292, 0.090562, 0.096179, 0.056340, 0.056126, -0.057243, -0.054126, 0.047258, -0.003208, 0.172571, -0.024375, 0.150121, -0.047840, -0.081288, -0.243329, 0.056596, -0.020022, 0.126135, -0.025403, 0.038501, -0.117189}, {-0.062769, -0.048912, -0.129585, 0.074950, 0.126470, -0.034132, 0.028017, -0.069490, -0.067467, 0.064765, 0.125891, 0.043196, -0.109048, -0.062259, -0.100156, -0.121638, -0.002860, -0.119544, -0.192358, -0.010285, 0.044341, -0.098071, 0.086626, 0.020789, 0.031942, 0.045130, -0.026728, -0.207710, -0.091939, -0.109802, -0.082242, 0.025418, -0.104916, -0.018753, -0.064498, -0.073153, 0.031418, 0.072577, 0.015856, 0.105704}, {0.010876, 0.068312, -0.040387, -0.005371, -0.073377, -0.047102, -0.002670, 0.025694, 0.025793, 0.022729, -0.085633, -0.117809, 0.104396, 0.006510, -0.034735, 0.014949, -0.069703, 0.070285, -0.062312, -0.174203, -0.064837, -0.026044, 0.003927, 0.102484, 0.031366, 0.094845, 0.098093, -0.108662, -0.074177, -0.087767, -0.093635, -0.024967, -0.019105, 0.019213, -0.045743, -0.038471, -0.111616, -0.120745, 0.042545, -0.030809}, {-0.050692, 0.028732, -0.166847, 0.145705, -0.107946, -0.056132, 0.010078, 0.078378, 0.035756, 0.060346, -0.049446, -0.070786, -0.004997, 0.049236, 0.028863, 0.036611, 0.047243, -0.079829, 0.066635, -0.117452, 0.128432, 0.054381, 0.023486, -0.011087, -0.026677, -0.023720, 0.020391, 0.039524, -0.065638, 0.122564, 0.100442, 0.060767, -0.044508, -0.028149, -0.152788, -0.099857, 0.058842, -0.148687, -0.072371, 0.097549}, {-0.018845, -0.002469, 0.115301, 0.037738, 0.026950, -0.065339, 0.175190, -0.027733, 0.056159, 0.010514, -0.044577, -0.035924, 0.048274, -0.068524, -0.051998, -0.005601, 0.122694, -0.092143, 0.235627, -0.033299, 0.062343, -0.112882, -0.084777, 0.093512, -0.014407, 0.083546, -0.023358, 0.002755, 0.082900, 0.069749, -0.014716, 0.018543, -0.100575, -0.173880, 0.108738, 0.078420, 0.010669, -0.005025, 0.131629, 0.001817}, {0.132251, -0.000790, -0.050979, -0.049249, 0.127257, -0.060122, -0.088876, 0.085962, -0.006769, 0.063574, 0.030333, -0.053494, 0.108583, -0.053157, 0.081922, -0.037740, -0.120316, -0.104071, 0.066213, -0.080311, 0.039663, -0.011423, -0.000210, -0.106114, -0.126999, 0.035204, 0.000724, 0.105430, 0.134214, -0.077258, -0.061964, -0.023017, -0.129789, 0.006212, -0.105495, 0.155264, -0.046524, -0.017505, 0.029529, 0.092637}, {0.028647, 0.089835, 0.069362, 0.112629, 0.132877, 0.038237, -0.168753, 0.132762, -0.125078, 0.014967, -0.084834, -0.064292, 0.030874, 0.003097, -0.119550, -0.039354, 0.102613, 0.123556, -0.071913, 0.004246, 0.080241, 0.037541, 0.088386, -0.056032, 0.121478, -0.104957, -0.132867, 0.105581, 0.093070, 0.028435, -0.039227, 0.040913, 0.052585, 0.147148, 0.105597, 0.059370, -0.045345, -0.008321, -0.111893, 0.002051}, {-0.083392, -0.058463, -0.423300, -0.565417, -0.473369, -0.110996, -0.043817, -0.130202, -0.090919, -0.090302, 0.017913, -0.298170, -0.561457, -0.013408, -0.063727, -0.054265, -0.003707, 0.018957, -0.054773, -0.051665, -0.075933, -0.482307, -0.096448, -0.041607, -0.078884, -0.291920, -0.167623, -0.263067, -0.106893, -0.078457, -0.013917, 0.939808, 0.039103, -0.026891, -0.010089, -0.018156, -0.060665, -0.643851, -1.047016, -0.092824}, {-0.123909, 0.013838, -0.021722, 0.067382, -0.147086, -0.178528, -0.134765, 0.092036, -0.091469, -0.100360, -0.095774, 0.108081, -0.052977, -0.077352, -0.112177, -0.117553, -0.010983, -0.035093, -0.191638, -0.066249, 0.038991, 0.026735, -0.149454, -0.168071, -0.050118, -0.205177, 0.018197, 0.014970, 0.030331, -0.182316, 0.016609, -0.149481, -0.018170, 0.040961, -0.027013, 0.065299, -0.290075, -0.139663, 0.011858, -0.069823}, {0.064214, -0.143164, -0.177257, -0.152553, 0.056970, -0.055538, -0.130418, -0.110427, 0.074182, 0.045392, 0.031757, -0.179875, 0.064307, -0.006257, -0.075029, -0.111809, 0.072796, 0.070775, -0.142108, 0.105621, -0.128743, 0.050350, -0.095854, 0.104259, 0.039352, -0.083687, -0.158672, -0.006748, -0.144417, -0.029015, -0.003488, -0.198935, -0.194488, -0.179395, -0.040483, -0.122703, 0.034436, -0.018448, -0.082177, -0.059642}, {-0.110143, -0.101854, -0.038399, -0.067771, 0.004847, 0.082261, -0.090390, -0.037064, 0.106030, -0.026320, -0.050997, -0.042671, 0.082373, 0.093536, -0.032409, 0.116153, -0.127859, -0.028963, 0.051857, 0.088484, 0.054444, -0.140650, -0.118638, -0.029413, -0.064802, 0.019609, 0.027707, 0.032060, -0.015561, 0.104820, 0.059254, -0.082168, 0.074232, -0.074736, -0.066608, -0.108513, -0.150985, -0.162124, -0.057426, 0.120117}, {0.087070, 0.117553, 0.093332, -0.071628, -0.081692, -0.056461, 0.005581, 0.023263, -0.133425, 0.149427, -0.125952, 0.145032, 0.143498, -0.027638, 0.052743, 0.127925, -0.047512, -0.044646, 0.064186, 0.073220, -0.118687, -0.064416, -0.029325, -0.047873, 0.065730, 0.024091, 0.100857, -0.108962, -0.097433, 0.091410, -0.032413, -0.080190, -0.060028, 0.057346, -0.007900, 0.060134, 0.063683, -0.045438, 0.126182, -0.079345}, {-0.120280, -0.001656, 0.168021, -0.421188, -0.166251, 0.074754, -0.010331, -0.073692, -0.036736, -0.092725, 0.010440, 0.045786, 0.045497, -0.074645, 0.085214, 0.100253, -0.085789, 0.081447, 0.003654, -0.058977, -0.154376, -1.102566, -0.086255, -0.025068, -0.028191, 0.003276, -0.131083, -0.107755, 0.054341, -0.160977, -0.082863, 0.996787, -0.017252, -0.013713, -0.015194, -0.086140, 0.039072, -0.402036, -0.121317, -0.105154}, {0.070001, -0.077504, -0.452989, -0.637383, -0.422192, -0.103570, -0.012050, -0.251568, -0.289364, -0.070796, -0.014937, -0.251216, -0.575402, -0.120685, -0.066966, -0.011163, -0.159348, -0.103024, -0.013373, -0.001046, -0.096630, 0.358379, -0.039484, 0.009383, 0.040040, -0.637993, 0.078414, 0.031429, -0.106699, -0.137615, -0.112298, 0.014304, -0.141930, -0.247626, -0.082531, -0.097788, -0.677841, -1.218064, -0.451937, -0.077064}, {0.055687, 0.116176, -0.049689, -0.001690, -0.010634, 0.031171, -0.075960, -0.000404, 0.125423, -0.061661, -0.092882, -0.076231, 0.071575, 0.049588, 0.014984, -0.047808, 0.072189, -0.100408, 0.042779, -0.013841, -0.076121, 0.060228, -0.102715, -0.002356, -0.125828, 0.072541, -0.007551, -0.050887, -0.068043, -0.080079, -0.067093, -0.089652, 0.003126, -0.022311, 0.112042, -0.059292, -0.077855, -0.019508, 0.093411, 0.046441}, {0.080927, -0.075128, -0.055957, -0.105857, -0.078212, -0.072896, 0.019122, 0.113418, -0.116222, -0.171294, -0.011358, 0.042431, -0.050399, -0.122457, 0.010884, -0.116965, -0.102771, -0.081716, 0.054860, -0.012198, -0.017473, -0.067692, 0.068772, -0.043448, -0.131139, 0.056302, 0.100718, -0.079296, 0.078905, -0.050622, -0.077594, -0.063201, 0.009758, -0.053164, 0.131721, 0.072694, -0.112478, 0.037352, 0.021673, -0.061927}, {0.015341, -0.046508, -0.241511, 0.058153, -0.224541, 0.041395, -0.206326, -0.139472, -0.183048, -0.217341, -0.083034, -0.149984, 0.142306, 0.085166, -0.206419, 0.048544, -0.117821, -0.077937, -0.273736, -0.044937, 0.021990, -0.288529, 0.010271, 0.003291, -0.035521, -0.079785, -0.053129, -0.031294, 0.042951, -0.087884, -0.049807, -0.704323, 0.061096, -0.247122, -0.072667, -0.065859, -0.475684, 0.032995, -0.251660, 0.042385}, {-0.122223, 0.017637, -0.089508, -0.043092, 0.059907, -0.114172, -0.000272, 0.096447, -0.001489, -0.168958, 0.044566, 0.095037, -0.061345, -0.050550, -0.061081, 0.106798, -0.094132, 0.085797, 0.080536, 0.099442, -0.128841, -0.015516, 0.116167, -0.054112, 0.061586, -0.110353, 0.053975, 0.118307, -0.134132, 0.094234, 0.064022, 0.104301, -0.003835, 0.109619, 0.133717, 0.085595, 0.024872, -0.036400, 0.069204, -0.110290}, {-0.048597, 0.060420, -0.065750, -0.014481, 0.000345, 0.051716, 0.158387, -0.044474, -0.130348, -0.012138, 0.044635, -0.080902, -0.020424, -0.052195, -0.051908, -0.020661, -0.097321, 0.100224, -0.001098, 0.082564, 0.039021, -0.009949, 0.036566, -0.100952, 0.113033, -0.011323, -0.064800, 0.033808, 0.091370, 0.099697, 0.013568, -0.054248, 0.010909, -0.066560, -0.073806, 0.111116, 0.011850, 0.003868, 0.075250, 0.016731}, {0.017135, -0.117613, -0.033929, 0.859486, 0.025829, -0.079576, -0.011566, -0.011845, -0.036124, -0.164597, -0.005416, -0.026195, 1.243790, -0.116118, -0.010345, -0.051947, -0.017278, -0.103261, -0.803968, -0.076132, -0.028650, -0.013846, -0.034866, -0.078579, -0.017035, 0.008024, -0.027010, -0.056350, -0.033688, -0.102214, -0.020367, -1.255307, -0.129228, -0.061869, -0.167043, -0.024283, 0.051588, 0.884651, -0.055529, -0.024559}, {-0.137491, -0.135238, 0.023685, -0.029889, 0.081540, -0.039178, 0.043155, 0.038862, 0.092165, -0.002750, 0.060320, 0.070245, 0.064857, -0.088009, 0.056059, -0.049647, -0.038521, 0.067603, 0.038789, -0.065369, -0.002724, -0.006163, -0.061503, -0.025835, -0.093707, -0.027163, 0.034223, -0.067578, 0.037516, -0.121259, -0.028634, 0.115889, 0.116123, -0.125769, -0.163320, 0.004752, -0.107513, 0.165795, -0.049299, 0.031054}, {-0.066533, 0.133834, -0.114770, -0.076883, -0.123658, -0.170812, 0.083595, 0.044527, -0.056739, -0.188615, -0.157906, -0.028071, -0.140015, 0.027300, 0.010634, -0.081169, -0.070748, 0.000917, 0.037453, -0.011119, -0.055182, -0.326159, 0.053167, 0.098297, 0.002682, 0.022669, -0.088964, 0.040692, -0.135576, 0.033276, -0.136791, 0.093260, -0.088263, 0.008839, 0.058108, -0.019190, 0.230478, -0.223065, 0.004293, -0.060279}};
static const float * p_layer_2_weight = layer_2_weight;
static const float layer_2_bias[40] = {-0.280811, -0.140578, -0.092805, 0.154903, -0.461172, -0.100356, -0.215664, -0.071411, -0.251810, -0.028661, -0.228666, -0.168459, 0.353067, -0.134231, -0.273259, -0.074824, -0.006286, -0.390876, -0.998673, -0.090605, -0.127724, -0.237101, -0.200977, -0.119277, -0.189999, -0.196548, -0.191381, -0.215628, -0.108742, -0.012986, -0.091949, -0.394700, -0.257622, -0.151604, -0.022410, -0.205233, -0.926719, 0.226830, -0.121177, -0.039522};
static const float * p_layer_2_bias = layer_2_bias;
static const float layer_3_weight[40][1] = {{-0.068323}, {0.039737}, {-0.028654}, {-0.616960}, {0.043562}, {-0.066468}, {-0.077900}, {-0.014049}, {-0.000267}, {-0.073839}, {0.031183}, {0.048523}, {-0.900861}, {-0.000871}, {0.076516}, {0.041825}, {0.101147}, {0.007608}, {0.005482}, {0.006056}, {-0.000088}, {-0.040446}, {-0.040718}, {-0.047093}, {-0.039783}, {0.002708}, {-0.083191}, {-0.004455}, {-0.077049}, {0.036751}, {0.077036}, {0.643193}, {0.007126}, {-0.043457}, {-0.003001}, {-0.070011}, {-0.066899}, {-0.626565}, {-0.072091}, {-0.009253}};
static const float * p_layer_3_weight = layer_3_weight;
static const float layer_3_bias[1] = {-0.750593};
static const float * p_layer_3_bias = layer_3_bias;
    
static float sigmoid(float num) {
    return 1.0f / (1.0f + expf(-num));
}

static float step(float num) {
    if (num < 0) {
        return 0;
    }
    return 1;
}

static float relu(float num) {
    if (num > 0) {
        return num;
    } else {
        return 0;
    }
}

static float linear(float num) {
    return num;
}

static void layer(const float * in, const float * layer_weight, const float * layer_bias,   
            int row, int col, float * output, int use_activation) {
    int ii;
    int jj;
    const float * p;

    for(ii = 0; ii < col; ii++) {
        p = layer_weight + ii;
        output[ii] = 0;
        for (jj = 0; jj < row; jj++) {
            output[ii] += in[jj] * (*p); 
            p += col;
        }
        output[ii] += layer_bias[ii];
        
        if (use_activation == 1) {
			output[ii] = relu(output[ii]);
        }
    }
}

const float* nn_rho_2(const float* input) {
	layer(input, p_layer_0_weight, p_layer_0_bias, STRUCTURE[0][0], STRUCTURE[0][1], output_0, 1);
	layer(output_0, p_layer_1_weight, p_layer_1_bias, STRUCTURE[1][0], STRUCTURE[1][1], output_1, 1);
	layer(output_1, p_layer_2_weight, p_layer_2_bias, STRUCTURE[2][0], STRUCTURE[2][1], output_2, 1);
	layer(output_2, p_layer_3_weight, p_layer_3_bias, STRUCTURE[3][0], STRUCTURE[3][1], output_3, 0);

	return output_3;
}
