/*
 * FILE: generated.c
 */

#include <stdio.h>
#include <stdlib.h>
#include <string.h>
#include <math.h>
#include "rho_2.h"

static const int STRUCTURE[4][2] = {{40, 40}, {40, 40}, {40, 40}, {40, 1}};
static float output_0[40];
static float output_1[40];
static float output_2[40];
static float output_3[1];
static const float layer_0_weight[40][40] = {{0.000298, -0.000082, 0.764018, -0.313686, 0.810030, 0.000625, -0.243308, 0.199676, 0.000163, -0.084110, -0.000106, 0.081822, 0.163183, 0.613959, 0.068432, 0.318889, -0.345262, 0.175839, 0.021854, 0.527683, -0.000082, -0.150845, -0.000136, -0.403766, -0.144981, -0.439111, 0.000099, 0.021432, -0.000116, 0.361551, 0.000136, 0.187711, 0.938468, -0.006303, 0.000073, 0.108169, 0.103000, -0.141680, -0.185458, 0.685566}, {0.000084, -0.000021, 0.132389, -0.014673, -0.105510, 0.000831, 0.089236, 0.065605, 0.000508, -0.242147, -0.000008, -0.105429, 0.095560, 0.194712, -0.001390, 0.163882, -0.127030, -0.227239, 0.074119, 0.052483, 0.000017, -0.108482, -0.000168, 0.006947, 0.013120, 0.030748, 0.000193, 0.010911, 0.000181, -0.145766, 0.000276, -0.032515, -0.074351, 0.060387, 0.000261, -0.097399, 0.035936, -0.427645, -0.083874, -0.010295}, {0.000147, 0.000064, 0.189872, -0.173933, 0.133355, -0.000112, -0.078875, -0.531214, 0.000030, 0.181772, -0.000035, -0.472850, -0.186961, -0.252864, 0.227738, 0.080851, -0.583868, -0.091746, -0.238020, 0.289265, -0.000174, 0.048347, 0.000056, -0.052149, -0.347076, -0.232997, 0.000113, 0.062323, -0.000052, 0.060487, -0.000028, -0.310245, 0.242320, -0.324624, 0.000265, -0.251395, -0.095323, 0.189419, -0.495472, 0.075839}, {-0.000030, -0.000092, 0.457166, -0.209211, -0.718477, -0.000153, 0.038718, -0.429326, 0.000080, -0.165133, -0.000214, 0.415997, 0.427487, 0.153516, 0.394777, -0.500317, 0.405282, 0.233884, -0.252227, 0.011069, -0.000111, -0.287708, -0.000189, 0.184069, -0.310439, -0.662893, -0.000107, -0.197349, 0.000099, 0.285624, -0.000262, 0.015476, -0.303715, -0.169331, 0.000172, 0.129406, -0.282000, 0.372947, -0.446261, -0.862870}, {-0.000298, 0.000051, 0.159765, 0.037250, 0.150775, 0.000404, 0.279101, 0.746245, -0.000289, -0.177745, 0.000163, 1.216326, 0.607532, -0.261357, 0.781198, -0.426311, 0.456846, 0.113308, -0.093243, 0.559357, -0.000233, -0.571112, 0.000092, -0.456092, 0.550232, -0.073693, 0.000008, 0.017284, -0.000062, 0.034865, -0.000438, 0.195831, 0.517462, 0.160356, 0.000010, -0.076737, -0.246205, -0.486077, -0.460309, -0.121471}, {-0.000150, 0.000092, 0.008541, -0.130349, 0.123098, -0.000169, -0.035932, 0.035550, 0.000163, -0.144035, 0.000158, 0.276345, 0.143722, 0.144670, -0.064926, 0.139736, -0.076193, 0.344159, -0.015504, 0.292785, 0.000192, 0.288633, 0.000194, 0.001497, -0.009533, 0.354037, 0.000027, -0.202559, 0.000005, 0.265591, -0.000146, -0.088916, 0.477858, 0.185961, -0.000187, 0.006015, 0.105685, -0.102934, -0.374391, 0.275216}, {0.000194, -0.000091, -0.428924, 0.182870, 0.388500, 0.000790, -0.056933, 0.223409, 0.000129, 0.215163, 0.000033, -0.080558, -0.451533, -0.143889, -0.431565, 0.127936, 0.076278, -0.472957, -0.117214, -0.169406, 0.000153, -0.255751, 0.000252, -0.300690, 0.126590, 0.454638, 0.000131, 0.137791, 0.000116, -0.231905, 0.000030, 0.191403, 0.184610, 0.253207, -0.000109, 0.112557, 0.195900, -0.525631, 0.461932, 0.134455}, {0.000252, -0.000038, 0.230869, -0.373260, 0.328687, 0.000260, -0.404401, -0.817540, -0.000027, 0.159646, 0.000092, -1.041673, -0.492862, 0.169850, -0.477123, 0.376567, -0.129879, -0.341803, -0.038097, 0.334764, -0.000084, -0.112359, -0.000025, -0.596985, -0.515276, 0.244135, 0.000115, -0.218949, 0.000057, 0.286588, 0.000092, -0.055011, 0.009533, -0.038403, -0.000118, 0.100415, 0.100115, 0.100406, 0.048718, 0.209732}, {-0.000165, -0.000225, 0.328396, -0.286319, -0.247937, -0.000550, -0.107548, -0.490868, -0.000208, 0.184553, -0.000147, 0.277790, -0.069815, 0.359820, -0.042736, 0.039765, 0.357810, 0.359152, -0.157546, -0.005615, 0.000146, 0.189033, -0.000297, -0.143306, -0.219665, -0.138335, 0.000151, -0.120135, 0.000026, -0.078177, -0.000165, 0.197933, -0.199255, 0.248698, 0.000095, 0.130946, -0.075445, 0.229119, -0.273437, -0.212843}, {-0.000407, 0.000096, -0.934372, 0.033809, 0.062422, -0.001325, 0.314027, -0.222467, -0.000562, 0.000274, -0.000219, -0.110517, -0.069269, 0.050270, -0.008385, -0.200200, 0.189648, 0.062235, -0.225376, -0.050769, -0.000032, 0.082441, 0.000038, -0.878487, -0.130369, -0.617123, -0.000143, -0.356337, -0.000114, 0.218944, -0.000591, -0.233732, -0.895355, 0.102836, 0.000076, -0.091076, -0.418656, 0.300129, -0.117129, -1.212716}, {-0.000113, -0.000231, -0.136065, 0.178913, 0.092015, -0.000977, 0.001790, -0.291164, -0.000483, 0.282340, -0.000218, -0.139053, -0.118858, -0.262082, 0.155763, -0.124180, -0.123174, 0.132085, -0.107341, -0.116902, 0.000152, 0.060548, -0.000143, -0.266026, 0.135174, -0.350935, -0.000114, 0.099524, 0.000074, -0.100283, -0.000171, 0.162923, -0.268950, -0.165289, -0.000118, 0.136072, -0.093968, 0.520057, 0.235114, -0.158091}, {-0.000215, 0.000047, 0.267904, -0.290686, -0.250357, -0.000264, 0.052450, -0.266876, 0.000011, 0.006293, 0.000116, 0.392134, 0.162559, 0.362777, -0.001268, 0.050496, 0.545454, 0.454610, -0.170470, 0.248523, 0.000191, 0.102503, 0.000061, -0.228230, -0.105002, -0.032292, -0.000151, -0.298086, 0.000142, 0.279773, -0.000376, 0.237592, -0.080729, 0.358406, -0.000251, 0.367389, -0.002907, -0.042743, -0.418689, -0.333488}, {0.000424, -0.000112, 0.446043, -0.023356, -0.054531, 0.000914, -0.176557, -0.037510, 0.000093, 0.977098, 0.000163, 0.477792, 0.995164, -0.106408, -0.029281, 0.773749, -0.205162, -0.053905, 0.322806, 0.308495, -0.000024, 0.685661, -0.000143, 0.129165, 0.239069, 0.190455, -0.000120, 0.788563, -0.000187, 0.112384, 0.000235, 0.278753, 0.007682, -0.174497, -0.000112, 0.099269, 0.515416, -0.186888, -0.198181, 0.467567}, {0.000114, -0.000197, -0.210768, -0.161348, 0.377516, -0.000022, 0.189433, 0.195735, 0.000221, -0.057265, -0.000085, 0.374408, 0.163596, 0.371064, -0.831443, 0.154432, 0.464369, 0.064738, 0.326717, 0.352160, 0.000111, 0.176144, -0.000022, -0.428952, 0.089993, 0.266642, -0.000114, -0.054142, -0.000045, 0.424491, 0.000165, 0.139159, -0.138925, -0.693093, 0.000122, -0.510336, 0.117418, -0.054125, -0.335232, -0.284684}, {-0.000249, -0.000044, 0.320076, -0.229550, -0.179689, -0.000418, -0.100934, -0.402024, 0.000029, -0.071030, -0.000197, 0.315503, -0.019157, 0.464971, 0.153617, 0.098122, 0.292939, 0.072578, -0.132566, 0.378910, 0.000023, 0.199164, 0.000191, -0.070895, 0.182563, -0.022919, 0.000055, 0.112418, -0.000053, -1.035593, -0.000099, 0.113435, -0.432626, 0.301325, 0.000129, -0.274724, -0.195802, -0.251993, 0.103784, -0.030442}, {0.000309, -0.000274, -0.018457, 0.176763, -0.311719, 0.000096, -0.155722, 0.080327, 0.000504, 0.044296, 0.000329, 0.523546, 0.249614, -0.606531, 0.117934, -0.263619, 0.074385, 0.012675, 0.984119, 0.958979, 0.000120, -0.371540, -0.000047, -0.326144, 1.257015, 0.774751, -0.000308, -0.401002, 0.000168, 0.305464, 0.000367, 0.330253, -0.410646, -0.312411, 0.000003, -0.037709, 0.254781, -0.251227, -0.415156, -0.061344}, {0.000313, -0.000173, 0.184900, -0.289647, 0.063627, -0.000094, -0.070704, -0.765710, 0.000111, 0.291280, 0.000049, -0.660333, -0.037456, -0.410016, 0.311040, 0.122614, -0.544203, -0.262193, -0.393030, 0.382039, -0.000056, 0.065141, -0.000016, -0.277995, -0.332122, -0.304131, 0.000028, 0.138241, -0.000175, 0.053931, 0.000067, -0.533774, -0.011246, -0.451222, -0.000164, -0.330716, -0.370642, 0.343595, -0.673379, -0.223187}, {-0.000393, 0.000360, -0.014964, -0.015753, 0.103902, 0.000685, -0.258573, 0.219161, -0.000078, 0.200432, -0.000029, -0.014355, -0.482103, -0.365851, -0.133354, -0.715829, 0.193301, -0.843803, -0.268665, -0.774739, 0.000099, -0.694893, -0.000024, -0.010573, -0.089322, -0.332285, -0.000133, 0.248124, 0.000012, -0.446900, -0.000169, -0.091913, -0.182717, 0.069604, -0.000131, -0.124104, -0.233246, -0.051160, 0.463484, 0.058071}, {-0.000002, -0.000122, -0.230668, 0.322585, 0.316796, 0.000180, 0.370709, 0.058301, -0.000008, 0.034208, -0.000168, 0.341531, 0.244681, 0.046169, -0.232099, 0.328633, 0.086747, 0.075171, 0.030972, 0.129326, 0.000128, 0.307403, -0.000039, -0.151095, -0.111874, 0.020674, -0.000091, 0.297273, -0.000161, 0.225596, -0.000077, 0.111968, 0.006758, -0.414025, -0.000220, -0.273822, 0.134198, 0.069047, -0.398647, -0.222625}, {-0.000762, -0.000077, -0.524829, 0.032125, 0.082317, -0.001690, 0.168912, 0.022598, 0.000026, -0.891570, -0.000007, -0.425662, -1.088407, 0.102645, 0.030001, -0.810417, 0.201777, 0.035159, -0.358418, -0.340403, -0.000136, -0.770331, 0.000108, -0.221227, -0.296907, -0.348126, -0.000086, -0.743505, -0.000072, -0.114561, -0.000262, -0.263241, -0.057226, 0.178840, -0.000236, -0.100578, -0.526144, 0.198683, 0.194783, -0.493324}, {0.000110, 0.000013, -0.257875, 0.419510, -0.189597, -0.000419, 0.115982, -0.259220, 0.000271, 0.177234, 0.000272, 0.210382, 0.320113, -0.289162, 0.383384, -0.241378, -0.114793, 0.296709, -0.156579, -0.348562, 0.000266, -0.144706, -0.000120, -0.228051, 0.441345, -0.092689, 0.000170, 0.317874, 0.000075, -0.259239, 0.000008, 0.369933, -0.243762, -0.198834, 0.000214, -0.098847, -0.059560, 0.289994, 0.470823, -0.283336}, {0.000238, -0.000153, 0.008678, 0.102070, 0.159684, 0.000164, 0.163254, -0.160091, 0.000016, 0.122464, -0.000058, -0.470448, -0.039331, -0.265235, 0.112306, 0.265277, -0.533048, -0.491910, -0.107573, 0.056865, 0.000165, 0.385392, -0.000148, 0.335157, -0.353545, -0.148751, 0.000020, 0.352475, 0.000184, -0.186722, -0.000103, -0.571208, 0.256005, -0.793739, 0.000182, -0.540693, -0.338841, 0.493581, -0.025307, -0.054505}, {0.000217, -0.000006, -0.444569, 0.088339, 0.139134, 0.000133, -0.206508, 0.353835, 0.000164, -0.106271, -0.000240, 0.315370, -0.132907, -0.005606, -0.419870, -0.117163, -0.185717, 0.164388, 0.325600, -0.295741, 0.000145, 0.437873, 0.000038, 0.276854, 0.525544, 0.301225, -0.000127, -0.020007, -0.000014, -0.276044, 0.000248, -0.156159, -0.267466, 0.190153, -0.000073, -0.202657, 0.128934, 0.161137, 0.229166, 0.385648}, {0.000014, -0.000081, -0.327981, 0.312162, 0.152554, -0.000346, -0.001432, -0.671920, -0.000472, 0.177016, 0.000121, 0.012154, 0.050107, -0.393458, 0.335432, -0.001180, 0.260483, -0.004050, -0.280575, 0.627867, 0.000091, -0.310779, -0.000153, -0.606527, 0.570204, 0.174246, 0.000164, 0.111092, -0.000006, -0.533082, -0.000238, 0.289652, -0.370578, -0.045835, -0.000049, -0.113434, -0.176917, 0.102680, 0.404870, -0.025079}, {-0.000354, 0.000122, 0.238788, -0.046447, -0.303493, -0.000477, 0.330268, 0.121532, -0.000017, -0.160610, -0.000098, -0.195531, 0.182585, 0.043961, 0.415420, 0.273391, -0.394147, 0.128489, -0.227811, 0.016165, -0.000130, 0.383003, 0.000270, 0.543918, -0.716885, -0.140785, -0.000102, 0.112570, -0.000113, 0.036240, 0.000286, -0.398475, 0.485215, 0.181556, -0.000165, -0.033545, -0.019350, -0.364303, -0.735540, -0.188384}, {-0.000369, -0.000155, -0.220701, -0.156119, -0.099010, -0.001150, 0.234156, -0.225374, -0.000264, 0.356940, -0.000241, -0.218884, 0.034646, -0.212664, 0.098532, 0.026080, 0.149058, -0.102773, -0.120061, -0.056091, 0.000053, 0.368731, -0.000116, -0.341347, 0.091906, -0.621021, -0.000082, 0.092494, -0.000184, -0.045942, -0.000370, -0.212787, -0.617620, 0.111165, -0.000071, 0.131967, -0.342172, 0.448678, -0.275674, -0.629788}, {-0.000436, -0.000061, 0.000072, 0.429057, 0.581212, -0.000474, 0.457414, 0.496618, -0.000039, -0.082289, 0.000025, 0.027297, 0.336631, -0.340965, 0.884144, 0.235590, -0.193720, -0.029535, -0.201308, 0.191385, -0.000167, -0.385596, 0.000102, -0.436483, 0.018875, -0.137391, 0.000122, 0.256433, -0.000194, -0.058207, -0.000126, 0.129415, 0.802475, 0.601982, 0.000184, 0.271045, 0.001546, -0.522185, -0.207622, 0.278822}, {-0.000082, 0.000245, -0.148295, 0.082878, 0.230955, 0.000114, -0.375388, 0.070133, 0.000155, -0.014056, 0.000005, -0.166045, -0.200465, -0.187250, -0.215305, -0.192737, -0.414179, -0.318072, 0.174343, -0.179214, -0.000021, -0.145778, 0.000079, 0.146636, 0.146627, 0.194266, -0.000098, 0.284290, 0.000169, -0.323435, -0.000008, -0.105741, 0.060824, -0.463905, 0.000259, -0.523038, -0.014945, 0.159024, 0.497273, 0.447441}, {-0.000256, -0.000245, 0.055073, 0.063559, 0.362694, -0.000052, -0.159169, -0.508885, 0.000198, 0.324650, 0.000124, -0.547777, -0.214326, -0.482610, 0.240158, 0.046961, -0.680819, -0.273688, -0.176160, 0.223069, 0.000025, -0.147242, 0.000045, -0.346343, -0.219730, -0.277655, 0.000192, 0.119793, 0.000078, 0.110255, 0.000223, -0.320679, -0.041034, -0.483956, -0.000107, -0.258313, -0.122631, 0.450068, -0.275401, 0.137197}, {-0.000054, 0.000134, -0.324625, 0.359897, -0.228309, 0.000578, 0.034026, 0.234331, 0.000042, 0.042612, -0.000070, -0.223432, -0.250514, -0.705095, -0.004008, -0.401166, 0.065613, -0.805147, 0.009744, -0.390546, 0.000147, -0.411371, -0.000064, 0.404419, 0.066309, 0.194683, 0.000258, 0.372133, 0.000056, -0.526369, 0.000128, -0.306534, -0.280271, -0.384440, -0.000083, -0.365243, -0.122100, -0.143677, 0.337011, -0.131424}, {0.000123, 0.000171, -0.252840, 0.666121, 0.444445, 0.000441, 0.655998, -0.015403, 0.000104, 0.104023, 0.000150, 0.262861, 0.249989, -0.071460, -0.074964, 0.368186, 0.075253, -0.016545, -0.217046, -0.049311, 0.000087, 0.375409, -0.000103, 0.008068, -0.303276, -0.174407, -0.000066, 0.524452, 0.000193, 0.001939, 0.000089, -0.085157, -0.022699, -0.396925, -0.000042, -0.415376, -0.044405, 0.205799, -0.374421, -0.225638}, {0.000237, 0.000030, -0.592251, 0.162583, -0.106843, 0.000115, 0.188591, 0.433126, 0.000258, 0.076597, 0.000176, 0.125640, -0.197243, -0.492616, -0.217905, -0.096319, 0.093573, -0.003690, 0.277697, -0.278005, 0.000034, 0.612616, 0.000135, 0.479529, 0.494415, 0.111076, 0.000207, 0.000194, -0.000075, -0.310750, 0.000222, -0.419820, -0.518633, 0.296286, 0.000165, -0.108033, -0.123481, 0.179084, -0.138377, -0.043145}, {-0.000137, -0.000088, -0.286555, 0.320968, -0.403270, -0.000359, 0.312872, 0.117464, -0.000090, 0.029210, 0.000108, 0.507326, 0.107236, 0.314558, 0.129546, 0.071232, -0.297645, 0.546102, -0.201626, -0.550670, 0.000098, 0.389966, 0.000139, 0.482385, 0.065084, -0.006092, -0.000100, 0.215097, -0.000041, -0.360816, -0.000279, 0.323973, 0.155559, 0.329068, -0.000017, 0.000091, 0.253566, -0.294264, 0.133842, -0.231405}, {0.000137, 0.000282, -0.222022, 0.236626, -0.084095, 0.001054, 0.453141, 0.576845, 0.000240, -0.291093, -0.000025, -0.192293, 0.020893, -0.186327, -0.022220, 0.313103, 0.334221, -0.533454, 0.118623, -0.002076, 0.000080, -0.001853, 0.000228, 0.471855, -0.078011, 0.482985, 0.000151, 0.141722, 0.000069, -0.074955, 0.000111, -0.167935, 0.482738, 0.175486, 0.000000, 0.188669, -0.027906, -0.509228, 0.171182, 0.013762}, {0.000106, 0.000284, -0.343490, 0.946663, 0.444624, 0.000610, 0.870478, 0.082245, 0.000215, -0.006037, -0.000107, 0.517762, 0.346952, -0.065291, -0.049649, 0.323515, 0.244909, 0.164976, -0.255509, -0.098090, -0.000011, 0.280635, 0.000054, -0.102348, -0.290902, -0.086215, 0.000068, 0.461165, 0.000128, 0.043445, 0.000406, 0.001320, -0.048750, -0.228016, 0.000123, -0.357213, 0.034238, -0.031457, -0.460090, -0.253721}, {-0.000041, -0.000079, -0.333396, 0.011213, 0.239248, 0.000236, -0.077192, -0.341703, -0.000035, 0.217285, -0.000241, 0.506255, -0.538625, 0.119814, 0.080249, 0.262497, -0.202996, 0.481464, -0.117088, 0.693134, -0.000221, 0.643464, -0.000225, -0.250300, 0.294818, 0.041498, -0.000078, -0.010796, 0.000107, -0.943865, -0.000170, 0.080087, -0.003077, 0.335987, -0.000180, -0.209100, -0.069893, -0.094871, -0.227874, 0.473043}, {0.000220, 0.000030, 0.635376, -0.421676, -0.066519, -0.000174, -0.334706, -0.121995, -0.000110, -0.098200, -0.000061, 0.226055, 0.051851, 0.454242, 0.055666, -0.201717, 0.232131, 0.273356, 0.173586, 0.078553, -0.000040, 0.086389, 0.000231, -0.011932, 0.068133, -0.448370, 0.000123, -0.076012, 0.000066, -0.426932, -0.000139, -0.020352, -0.465646, 0.173418, 0.000127, -0.195441, -0.233477, 0.318126, -0.069214, 0.243361}, {0.000112, -0.000187, 0.359032, -0.585904, 0.009264, -0.000019, -0.081917, 0.383971, 0.000147, -0.323407, -0.000016, 0.302821, 0.043050, 0.394629, -0.159814, 0.126880, 0.420629, -0.486212, -0.091566, 0.533763, -0.000023, -0.170254, 0.000181, 0.200736, -0.113695, 0.464106, 0.000056, 0.022942, -0.000178, -0.228619, -0.000084, -0.127692, 0.603076, 0.200187, 0.000116, -0.256989, -0.106913, -1.000391, -0.099531, 0.097460}, {-0.000000, -0.000108, 0.004931, 0.449158, -0.353211, -0.000491, 0.219116, -0.121383, -0.000032, -0.045803, -0.000136, -0.295733, -0.001350, -0.409560, 0.781276, 0.061510, -0.347209, 0.039045, -0.419279, -0.383642, 0.000166, 0.002082, -0.000101, 0.471968, -0.225396, -0.175865, -0.000088, 0.143466, -0.000091, -0.408577, 0.000169, -0.178229, 0.160170, 0.718305, -0.000066, 0.399469, -0.067252, -0.161453, 0.057023, 0.138395}, {0.000080, -0.000051, 0.450915, -0.212652, -0.048402, 0.000248, 0.332963, 0.162725, -0.000059, -0.077640, 0.000238, 0.264077, 0.392107, 0.311783, 0.510193, 0.161302, 0.213133, 0.175575, -0.240208, 0.350865, -0.000164, -0.160036, -0.000123, -0.188636, -0.223386, -0.378370, 0.000038, -0.070505, -0.000094, 0.262909, -0.000342, 0.182731, 0.447002, 0.164751, -0.000048, 0.276488, -0.089202, -0.329020, -0.334923, -0.278014}};
static const float * p_layer_0_weight = layer_0_weight;
static const float layer_0_bias[40] = {-0.398794, -0.317124, -0.952727, -0.174174, 0.262110, -0.142852, -0.157656, -0.454649, -0.210282, 0.729154, -0.193596, -0.204677, 0.343353, -0.179202, -0.501378, 0.278150, -0.802422, -0.264909, 0.599681, -0.184683, -0.201394, -0.552047, -0.196005, -0.970663, 0.024860, -0.414781, -0.126552, 0.480825, -0.165169, -0.211467, -0.329649, 0.752254, -0.696544, -0.828729, -0.168540, 0.332539, 0.890826, -1.536977, -1.722600, -0.110131};
static const float * p_layer_0_bias = layer_0_bias;
static const float layer_1_weight[40][40] = {{-0.000003, -0.000006, -0.000007, 0.000002, -0.000011, 0.000001, 0.000002, -0.000001, -0.000002, -0.000005, 0.000001, 0.000007, -0.000012, 0.000004, 0.000002, 0.000007, -0.000003, 0.000008, -0.000021, -0.000008, 0.000001, -0.000001, 0.000004, -0.000007, -0.000010, -0.000001, -0.000002, -0.000014, 0.000002, -0.000005, -0.000006, -0.000009, -0.000012, -0.000001, 0.000000, -0.000005, 0.000004, -0.000005, -0.000012, -0.000000}, {-0.000001, -0.000022, 0.000004, 0.000003, -0.000010, -0.000012, 0.000004, -0.000004, 0.000003, 0.000003, 0.000001, -0.000004, -0.000008, 0.000001, -0.000002, 0.000002, 0.000008, 0.000001, 0.000002, -0.000011, -0.000001, -0.000003, 0.000002, -0.000001, -0.000016, 0.000003, -0.000000, -0.000005, -0.000006, 0.000001, -0.000008, -0.000008, 0.000009, -0.000001, -0.000005, -0.000002, -0.000012, -0.000003, -0.000013, 0.000001}, {0.000003, 0.000146, 0.000000, 0.370699, -0.140116, -0.400771, 0.000002, -0.275933, 0.150072, 0.017476, -0.353212, -0.000010, -0.000854, 0.138078, 0.064031, 0.000001, -0.131666, 0.000010, -0.157801, -0.000002, 0.082456, -0.000005, 0.000004, -0.000004, -0.069083, -0.000002, -0.829975, -0.070875, 0.218982, -0.420605, -0.000034, -0.000030, -0.006883, 0.384246, 0.002094, -0.000193, -0.022288, 0.000000, 0.069609, -0.688285}, {-0.000009, -0.000339, 0.000002, -0.502082, -0.287874, 0.043661, 0.000002, 0.187237, 0.343032, 0.080849, -0.029524, -0.000000, -0.000707, 0.077651, -0.103617, -0.000007, -0.030519, 0.000004, -0.047015, 0.000001, 0.072726, -0.000022, -0.000000, -0.000008, 0.256205, -0.000000, -0.208466, -0.450548, -0.008963, 0.211974, -0.000011, -0.000005, -0.160367, -0.646491, 0.255244, -0.000032, -0.268827, -0.000005, 0.045146, 0.187453}, {-0.000000, 0.000020, -0.000008, -0.298143, 0.287324, 0.200444, -0.000000, 0.194406, 0.096469, 0.227831, 0.225516, -0.000002, 0.000064, 0.046917, 0.111877, -0.000003, 0.327889, -0.000003, 0.192197, -0.000006, 0.220279, -0.000015, -0.000006, 0.000005, 0.164552, -0.000000, -0.059709, 0.294768, 0.120140, 0.113163, -0.000004, -0.000032, -0.033784, -0.117747, 0.236362, -0.000056, 0.339346, -0.000003, 0.139048, 0.225598}, {-0.000007, -0.000042, 0.000004, -0.000015, -0.000010, -0.000006, -0.000004, 0.000015, -0.000014, 0.000034, 0.000012, -0.000009, 0.000031, 0.000016, 0.000015, -0.000007, 0.000023, -0.000008, 0.000048, 0.000001, 0.000002, -0.000009, -0.000008, -0.000006, 0.000003, 0.000011, -0.000043, -0.000050, 0.000024, 0.000054, -0.000005, -0.000007, -0.000007, -0.000001, 0.000027, -0.000005, -0.000016, -0.000007, -0.000007, 0.000003}, {0.000002, -0.000113, -0.000009, -0.538130, -0.174324, -0.213341, -0.000010, 0.018388, -0.265031, -0.142850, 0.144046, -0.000003, -0.000198, 0.273788, 0.103490, -0.000005, 0.223793, 0.000001, 0.095644, 0.000006, 0.190911, -0.000026, 0.000001, 0.000002, -0.555250, -0.000007, 0.137900, 0.224091, 0.026066, 0.008974, -0.000016, -0.000016, -0.184365, -0.040578, 0.056489, -0.000035, -0.731377, 0.000004, 0.174657, 0.122528}, {0.000006, -0.000261, -0.000003, 0.426872, -0.095020, 0.018166, -0.000009, -0.082518, 0.049266, 0.305487, 0.232585, -0.000012, -0.000415, 0.349961, 0.126175, -0.000015, 0.202009, -0.000006, 0.287400, -0.000003, -0.124062, -0.000021, 0.000001, 0.000005, 0.421383, 0.000002, -0.220477, 0.017197, 0.159380, -0.082371, 0.000003, 0.000008, 0.560336, 0.141030, 0.085482, -0.000005, -0.012318, 0.000003, 0.349367, -0.222663}, {0.000004, -0.000005, 0.000001, -0.000006, 0.000001, -0.000008, 0.000008, 0.000001, -0.000005, -0.000010, 0.000002, -0.000006, 0.000001, -0.000002, -0.000002, -0.000005, -0.000006, 0.000015, -0.000002, -0.000002, -0.000002, 0.000010, 0.000003, 0.000005, -0.000005, -0.000010, 0.000003, 0.000003, 0.000006, -0.000002, -0.000001, 0.000007, 0.000001, -0.000001, 0.000009, -0.000001, -0.000019, -0.000005, -0.000002, 0.000000}, {0.000002, -0.000046, -0.000006, -0.067635, -0.073381, 0.264864, 0.000007, -0.492192, -0.560441, -0.396891, -0.056607, -0.000000, -0.000905, -0.114014, 0.010773, 0.000002, -0.310896, -0.000004, -0.378549, -0.000005, 0.068278, -0.000034, 0.000001, -0.000009, -0.630669, -0.000006, -0.582779, -0.200984, -0.278196, -0.231245, -0.000044, -0.000044, 0.288464, -0.184418, -0.204432, -0.000207, 0.126595, 0.000005, -0.335391, -0.470969}, {-0.000003, 0.000001, 0.000003, -0.000007, 0.000005, 0.000007, -0.000005, 0.000003, 0.000004, 0.000001, -0.000001, -0.000007, 0.000010, 0.000006, -0.000001, -0.000007, -0.000000, 0.000003, 0.000003, 0.000004, -0.000004, 0.000003, 0.000000, -0.000004, -0.000000, -0.000008, 0.000005, 0.000004, 0.000005, 0.000007, 0.000007, 0.000001, -0.000003, -0.000002, 0.000005, -0.000003, -0.000003, 0.000004, 0.000003, 0.000002}, {0.000005, -0.000153, 0.000003, -0.640387, 0.014702, -0.409087, -0.000007, -0.201970, -0.070421, -0.417472, 0.211609, -0.000000, 0.001014, 0.029787, -0.001766, 0.000010, 0.114261, -0.000002, 0.027595, 0.000006, -0.420483, -0.000005, -0.000007, -0.000008, 0.006217, -0.000009, 0.542699, 0.504971, -0.163160, -0.116003, -0.000011, 0.000017, -0.113902, 0.064447, -0.045479, 0.000012, 0.294217, -0.000008, -0.243965, -0.445117}, {-0.000012, -0.000012, 0.000003, -0.279042, -0.338636, -0.363687, -0.000004, -0.340148, -0.027091, -0.347723, -0.379526, -0.000002, -0.002385, -0.813342, -0.783839, 0.000005, -0.176575, -0.000006, 0.297229, 0.000005, -0.636195, -0.000015, -0.000009, 0.000005, -0.151550, -0.000006, 0.099372, 0.193239, 0.036502, -0.231078, 0.000009, -0.000024, -0.154092, -0.381721, -0.411307, -0.000317, -0.981605, -0.000006, -0.051673, -0.836119}, {-0.000003, -0.000103, -0.000007, -0.077445, 0.060964, -0.046769, -0.000006, 0.370062, -0.443321, 0.273510, 0.072588, -0.000009, -0.000348, -0.044841, -0.192330, -0.000011, 0.168609, 0.000002, -0.161896, 0.000004, 0.173065, -0.000008, -0.000004, -0.000009, 0.079259, -0.000012, 0.205215, 0.264585, -0.197420, 0.323697, -0.000007, -0.000007, -0.110181, -0.227650, 0.332633, -0.000093, -0.439020, -0.000003, -0.237543, 0.341567}, {-0.000008, -0.000130, -0.000004, 0.149384, -0.081644, 0.097910, -0.000004, -0.302415, -0.426376, 0.010398, 0.151574, -0.000006, -0.001731, 0.248493, 0.185514, -0.000001, -0.135467, 0.000002, -0.444082, -0.000016, -0.024584, -0.000007, 0.000002, -0.000010, -0.164140, 0.000008, -0.432559, -0.135572, -0.469466, -0.466779, -0.000067, -0.000052, -0.364260, 0.141299, -0.517070, -0.000282, 0.307831, -0.000001, -0.342955, -0.084207}, {-0.000006, -0.000054, -0.000007, -0.293589, 0.070895, -0.217479, -0.000004, -0.120139, -0.107482, -0.419699, -0.457167, -0.000013, -0.001900, -0.459701, -0.943963, -0.000009, -0.460822, -0.000007, -0.041105, -0.000010, -0.426399, -0.000021, -0.000005, 0.000002, -0.369537, -0.000005, -0.363384, 0.040434, -0.599703, -0.150650, -0.000041, -0.000035, 0.014502, -1.006135, -0.208046, -0.000228, 0.252781, -0.000000, -0.530826, -0.348333}, {-0.000002, -0.000099, -0.000001, -0.603673, 0.089673, -0.235407, -0.000004, 0.262943, -0.259428, 0.032614, 0.042371, -0.000000, 0.000182, 0.156730, 0.074229, -0.000015, 0.318347, -0.000004, 0.106135, 0.000002, 0.135887, -0.000022, 0.000006, 0.000002, -0.361910, -0.000005, -0.040063, -0.187427, 0.195042, 0.212693, -0.000015, -0.000007, -0.262008, 0.141257, 0.180321, -0.000017, 0.310605, -0.000001, 0.229437, 0.094140}, {-0.000000, -0.000111, 0.000003, -0.273546, -0.227348, -0.863657, 0.000004, 0.232940, -0.207888, 0.602523, 0.276020, -0.000009, 0.000199, -0.133694, -0.173629, -0.000008, 0.266699, -0.000001, -0.144547, -0.000003, 0.220497, -0.000009, -0.000004, -0.000007, -0.345337, -0.000016, 0.021320, 0.269962, 0.016955, 0.116471, -0.000022, 0.000011, -0.247822, -0.195861, -0.005040, -0.000185, 0.006209, -0.000007, 0.179938, 0.131047}, {-0.000006, -0.000052, -0.000012, -0.166791, 0.046669, 0.099175, 0.000001, -0.108422, -0.266090, -0.390787, -0.296487, -0.000004, -0.000620, -0.462320, -0.009263, 0.000006, -0.146094, -0.000002, -0.738075, -0.000003, -0.357299, -0.000017, -0.000002, -0.000005, 0.070273, 0.000006, 0.056148, -0.223277, -0.261818, -0.174918, -0.000048, -0.000049, 0.086477, 0.055795, -0.136536, -0.000074, 0.071190, 0.000004, -0.544971, -0.093651}, {-0.000014, -0.000057, -0.000008, 0.123522, -0.484180, 0.196096, -0.000002, -0.608975, -0.309005, -0.038395, -0.237213, -0.000002, -0.001277, -0.210827, -0.245592, -0.000003, -0.180312, -0.000005, 0.028367, 0.000000, -0.524552, 0.000002, -0.000010, -0.000010, -0.151473, -0.000004, 0.228236, -0.224324, -0.430777, -0.660852, -0.000051, -0.000014, -0.138793, -0.680666, -0.672942, -0.000113, -0.201604, -0.000005, -0.194077, 0.137309}, {0.000001, -0.000002, -0.000005, -0.000008, -0.000002, 0.000002, 0.000005, -0.000004, -0.000007, 0.000000, -0.000005, 0.000006, -0.000002, 0.000002, -0.000007, -0.000013, 0.000004, 0.000002, 0.000005, -0.000009, 0.000001, 0.000007, -0.000007, 0.000003, -0.000007, -0.000002, 0.000001, -0.000002, -0.000002, -0.000007, 0.000005, 0.000007, -0.000001, 0.000004, 0.000004, -0.000002, 0.000001, -0.000001, -0.000001, 0.000005}, {0.000002, -0.000059, 0.000001, -0.114495, 0.034962, -0.960781, -0.000004, -0.874151, -0.156239, -0.347982, -0.312014, -0.000008, -0.000022, -0.112291, -0.318478, -0.000004, -0.236357, -0.000002, -0.165515, 0.000002, -0.295807, 0.000011, -0.000002, -0.000002, -0.602120, -0.000001, -0.070313, 0.361997, -0.162595, -0.616391, 0.000029, -0.000025, -0.154252, 0.314200, -0.872400, -0.000050, -0.310595, 0.000000, 0.011510, -0.685148}, {0.000005, -0.000017, -0.000004, -0.000002, 0.000003, -0.000002, -0.000001, -0.000006, 0.000009, 0.000002, 0.000000, -0.000001, -0.000003, 0.000009, 0.000002, -0.000002, -0.000000, 0.000004, 0.000007, 0.000009, 0.000005, -0.000007, -0.000007, -0.000002, 0.000005, -0.000002, -0.000005, -0.000002, 0.000003, -0.000004, 0.000005, -0.000003, 0.000008, -0.000012, -0.000006, -0.000000, 0.000005, 0.000007, 0.000006, 0.000001}, {-0.000003, -0.000039, -0.000002, 0.401764, -0.153706, 0.107861, -0.000002, 0.043447, 0.060165, -0.429956, -0.242944, -0.000001, -0.001505, -0.539731, -0.167549, -0.000020, -0.074523, 0.000014, -0.659484, 0.000005, -0.750930, -0.000013, -0.000007, 0.000001, -0.149979, -0.000025, -0.293995, 0.218551, -0.041932, -0.343611, 0.000022, -0.000021, -0.466141, -0.212619, 0.046496, -0.000091, -0.035407, -0.000004, -0.230900, -0.128038}, {-0.000003, -0.000087, -0.000000, -0.545724, -0.076248, -0.317803, -0.000008, -0.481028, -0.168933, -0.478919, -0.459746, 0.000000, -0.000709, 0.016356, -0.293454, -0.000000, -0.018363, 0.000002, -0.055442, -0.000006, -0.149220, -0.000029, 0.000001, -0.000003, -0.099302, 0.000003, 0.058706, -0.033677, -0.442751, -0.267042, -0.000008, -0.000011, 0.050084, 0.268339, -0.380531, -0.000034, 0.282537, 0.000000, -0.056708, -0.043631}, {-0.000002, -0.000045, 0.000005, -0.704403, 0.288964, -0.169943, -0.000004, -0.002388, 0.187755, -0.368538, -0.228071, -0.000009, -0.000359, -0.285379, 0.390371, -0.000005, 0.019143, -0.000002, -0.346479, 0.000006, -0.035636, 0.000013, -0.000000, -0.000004, 0.229618, -0.000006, 0.124533, -0.275227, -0.213115, -0.251539, -0.000010, 0.000026, 0.402519, 0.009424, 0.042176, -0.000136, 0.271553, -0.000005, -0.250340, -0.209368}, {0.000008, -0.000003, -0.000002, -0.000007, 0.000001, -0.000007, 0.000002, 0.000002, 0.000006, -0.000002, 0.000004, -0.000007, 0.000001, -0.000004, -0.000007, -0.000003, 0.000000, 0.000000, -0.000007, -0.000008, 0.000007, -0.000007, 0.000005, 0.000000, -0.000006, -0.000002, 0.000004, -0.000006, -0.000003, 0.000007, -0.000006, -0.000006, 0.000003, 0.000001, -0.000005, 0.000006, 0.000008, 0.000000, 0.000006, -0.000003}, {-0.000004, -0.000002, -0.000006, 0.137772, -0.303960, -0.319128, 0.000000, -0.142715, 0.044796, 0.147030, -0.263354, 0.000001, 0.001169, -0.208902, 0.062286, 0.000007, -0.093172, 0.000000, -0.266844, -0.000001, -0.377709, -0.000012, -0.000005, 0.000003, -0.084078, 0.000010, -0.440847, -0.025374, -0.043354, 0.028485, -0.000008, -0.000053, 0.493354, -0.406638, 0.059553, -0.000246, 0.150373, -0.000008, -0.047399, -0.314995}, {0.000003, 0.000006, 0.000003, -0.000005, -0.000003, 0.000003, -0.000005, 0.000003, 0.000004, -0.000006, -0.000003, -0.000006, -0.000001, 0.000005, 0.000001, -0.000006, -0.000002, -0.000001, 0.000004, -0.000001, 0.000007, 0.000004, 0.000005, -0.000004, 0.000000, 0.000006, 0.000004, -0.000002, -0.000004, 0.000006, -0.000006, 0.000000, 0.000003, -0.000004, 0.000001, 0.000006, -0.000000, 0.000001, -0.000006, -0.000004}, {-0.000004, -0.000108, -0.000002, -0.124249, -0.552507, -0.376987, 0.000000, -0.263271, -0.219367, 0.145386, -0.046494, -0.000006, -0.000287, -0.128179, -0.391692, -0.000007, 0.094491, -0.000004, -0.106473, -0.000003, 0.028398, -0.000004, -0.000004, -0.000005, 0.043211, -0.000033, -0.081980, 0.115529, -0.277496, 0.033538, -0.000000, -0.000005, -0.397009, -0.392329, 0.116600, -0.000033, -0.430237, -0.000007, -0.175873, -0.276864}, {-0.000001, -0.000009, 0.000005, -0.000004, -0.000002, 0.000013, 0.000007, -0.000004, 0.000014, 0.000012, -0.000000, -0.000003, 0.000008, 0.000007, -0.000000, 0.000012, 0.000005, 0.000009, -0.000001, 0.000002, 0.000009, 0.000004, -0.000005, -0.000000, -0.000011, -0.000010, -0.000012, -0.000001, 0.000011, 0.000000, 0.000006, -0.000007, -0.000009, -0.000014, 0.000004, 0.000003, -0.000038, -0.000001, 0.000003, 0.000003}, {-0.000010, -0.000124, -0.000002, 0.085515, -0.545836, -0.113461, -0.000008, 0.000928, -0.563556, -0.117094, 0.010423, -0.000012, -0.000798, -0.267494, -0.314455, 0.000001, -0.140833, -0.000007, -0.235813, -0.000009, -0.169297, -0.000046, -0.000011, -0.000015, -0.285217, 0.000001, 0.060834, 0.143007, -0.309664, -0.131524, -0.000059, -0.000034, 0.022889, 0.190211, -0.062893, -0.000138, 0.028638, -0.000004, -0.387427, -0.011028}, {-0.000016, 0.000035, -0.000004, 0.159530, -0.149042, -0.384970, -0.000003, -0.560635, -0.165513, 0.175889, -0.132624, -0.000007, -0.001172, 0.448243, 0.181789, 0.000000, 0.080384, -0.000013, 0.131748, -0.000009, 0.283109, -0.000001, 0.000001, -0.000002, 0.179074, 0.000004, 0.012801, -0.752694, -0.063713, -0.250238, -0.000010, 0.000028, 0.367182, 0.023801, -0.561790, -0.000055, -0.359639, -0.000003, 0.062332, 0.145757}, {-0.000010, -0.000126, 0.000003, -0.338315, -0.229668, 0.073682, -0.000003, 0.049553, -0.036594, -0.250029, -0.130338, 0.000006, -0.001535, -0.290070, -0.037321, -0.000018, -0.435554, -0.000004, -0.547965, -0.000010, -0.787753, -0.000012, -0.000009, -0.000013, -0.245997, -0.000000, -0.187835, 0.083556, -0.179499, 0.032478, -0.000018, 0.000005, 0.360269, 0.302420, 0.030369, -0.000077, 0.209841, -0.000012, -0.328349, -0.064110}, {0.000005, 0.000007, 0.000005, 0.000008, -0.000004, 0.000001, 0.000006, -0.000005, 0.000004, 0.000005, -0.000002, 0.000004, 0.000004, -0.000003, -0.000003, -0.000003, 0.000004, 0.000002, -0.000001, 0.000002, 0.000007, 0.000005, -0.000006, -0.000005, 0.000008, -0.000002, -0.000002, -0.000002, 0.000005, -0.000003, 0.000004, 0.000000, 0.000008, 0.000001, -0.000001, -0.000006, -0.000002, 0.000001, 0.000006, -0.000003}, {-0.000023, -0.000254, -0.000014, 0.102526, -0.409857, -0.008727, -0.000009, -0.005216, -0.332086, -0.098322, -0.070172, -0.000007, -0.000451, -0.116924, 0.000325, -0.000006, -0.697251, -0.000009, -0.113313, 0.000005, -0.127620, -0.000040, -0.000008, 0.000003, -0.077848, -0.000018, 0.078809, -0.115987, -0.333893, -0.044940, -0.000088, -0.000036, -0.154884, 0.177672, 0.027189, -0.000211, -0.266598, -0.000001, -0.491228, 0.077348}, {-0.000016, 0.000034, -0.000008, -0.138807, -0.009696, 0.055256, -0.000006, -0.058307, -0.381386, -0.028636, -0.448220, 0.000001, -0.002217, -0.425381, -0.604342, -0.000004, -0.580167, -0.000002, -0.517047, 0.000008, -0.126956, 0.000001, 0.000001, -0.000015, -0.089296, 0.000003, -0.010017, 0.150336, -0.504127, -0.222729, -0.000016, -0.000071, 0.127769, 0.151111, 0.029415, -0.000186, 0.049283, -0.000007, -0.598854, -0.162022}, {-0.000005, -0.000019, -0.000003, 0.178207, -0.427376, -0.442910, 0.000006, -0.244521, -0.065290, -0.413668, 0.085150, 0.000007, 0.000770, 0.014407, 0.139275, -0.000012, -0.307280, -0.000015, -0.667085, 0.000002, -0.179146, -0.000000, -0.000001, 0.000001, -0.224533, -0.000005, 0.430054, 0.039004, -0.072243, -0.224098, -0.000024, -0.000008, -0.248004, -0.889139, -0.232914, 0.000165, -0.711907, 0.000005, -0.039262, -0.645537}, {0.000004, -0.000163, 0.000001, -0.759937, -0.178615, 0.439593, -0.000003, -0.310512, 0.528683, 0.325875, -0.229942, 0.000006, -0.000668, -0.129625, -0.375856, -0.000003, -0.178522, -0.000007, -0.232402, 0.000002, -0.377469, -0.000043, -0.000009, 0.000002, -0.109827, -0.000001, -0.058555, -0.078124, -0.388660, -0.342843, -0.000032, -0.000042, -0.016378, -0.545501, -0.363231, -0.000072, -0.248872, -0.000000, -0.401721, -0.024785}, {0.000001, -0.000007, -0.000001, 0.093023, -0.559075, 0.302951, -0.000007, 0.144469, 0.198414, 0.083587, 0.024065, -0.000002, 0.001465, -0.487807, 0.400604, -0.000001, 0.106899, 0.000011, 0.236661, -0.000001, 0.043019, -0.000002, -0.000009, 0.000004, 0.095785, -0.000007, -0.124513, -0.257485, 0.278941, 0.423893, -0.000016, 0.000010, 0.482406, 0.169982, 0.106686, -0.000112, 0.193246, 0.000003, 0.395574, -0.264372}};
static const float * p_layer_1_weight = layer_1_weight;
static const float layer_1_bias[40] = {-0.048876, -0.070483, -0.330576, 0.401189, 0.084441, -0.239707, -0.118626, 0.394878, -0.114251, 0.175688, 0.295978, -0.089076, -0.226392, 0.275112, 0.350020, -0.010757, 0.375677, -0.063605, 0.442853, -0.194289, 0.345183, -0.045868, -0.104867, -0.093936, -0.111894, -0.077182, 0.379912, -0.201691, 0.608874, 0.322724, -0.120547, -0.004413, 0.224614, -0.076234, 0.338264, -0.274685, -0.032250, -0.106613, 0.378649, 0.603240};
static const float * p_layer_1_bias = layer_1_bias;
static const float layer_2_weight[40][40] = {{0.000304, -0.000308, -0.000261, -0.000021, -0.000266, -0.000254, 0.000059, 0.000099, 0.000185, -0.000062, -0.000190, 0.000262, -0.000458, 0.000146, 0.000454, -0.000079, -0.000725, 0.000327, -0.000122, -0.000288, -0.000104, -0.000303, -0.000361, 0.000063, -0.000298, -0.000335, -0.000086, -0.000041, 0.000370, 0.000004, -0.000255, 0.000149, 0.000201, -0.000255, 0.000118, 0.000035, 0.000356, -0.000022, -0.000305, 0.000330}, {0.000282, -0.000107, 0.000269, 0.000209, 0.000420, 0.000133, 0.000178, -0.000289, -0.000256, -0.000042, -0.000203, -0.000196, 0.000122, 0.000039, -0.000892, -0.000263, -0.003512, 0.000060, 0.001134, -0.000391, -0.002253, 0.001515, 0.000206, 0.002030, 0.000240, 0.000593, 0.000757, 0.000267, 0.000932, -0.000220, 0.000510, -0.000253, -0.000151, -0.002642, -0.000042, 0.000109, 0.000275, 0.000811, -0.000242, -0.000191}, {0.000197, 0.000150, 0.000379, 0.000128, -0.000030, -0.000175, -0.000428, 0.000488, -0.000130, -0.000413, 0.000160, 0.000152, -0.000180, -0.000183, -0.000442, -0.000420, -0.000226, -0.000009, 0.000215, 0.000054, -0.000221, -0.000181, 0.000322, -0.000158, 0.000104, -0.000071, -0.000083, 0.000486, -0.000078, -0.000130, -0.000063, -0.000004, 0.000487, 0.000433, 0.000145, -0.000205, 0.000024, -0.000152, 0.000423, -0.000358}, {-0.675174, -0.000165, -0.000490, -0.343670, 0.031784, -0.002241, -0.001068, -0.000028, -0.000166, -0.001298, -0.000277, -0.000288, 0.000239, -0.000067, 0.149384, -0.000669, 0.129013, -0.000168, 0.172951, -0.000061, 0.010566, -0.010439, 0.000028, 0.000039, -0.290169, 0.372685, -0.002504, -0.000207, 0.227134, -0.001007, -0.346238, -0.000641, -0.100070, 0.046752, -0.319605, -0.000835, -0.006174, -0.958214, -0.000577, -0.000638}, {0.442399, 0.000206, -0.000409, 0.450603, 0.320672, 0.002316, 0.000077, 0.000348, -0.000060, 0.000226, 0.000213, 0.000421, -0.000035, 0.000215, -0.138664, -0.000395, 0.294036, -0.000129, -0.173897, -0.000502, 0.018698, 0.014849, -0.000485, 0.000970, 0.437197, -0.155153, 0.000257, 0.000402, 0.265052, -0.001021, 0.449713, 0.000160, 0.282905, -0.126166, 0.435301, -0.000047, 0.061034, 0.432444, -0.000145, 0.000274}, {-0.296079, 0.000063, 0.000415, -0.349947, 0.080632, 0.001177, 0.000353, 0.000057, 0.000173, -0.000078, 0.000064, -0.000318, 0.000250, 0.000239, 0.084353, 0.000086, 0.110083, 0.000049, 0.366556, -0.000280, 0.184219, -0.000508, -0.000244, 0.000708, -0.254843, 0.163647, 0.000333, -0.000081, -0.120836, -0.000039, -0.211020, 0.000243, 0.113233, 0.241195, -0.356428, 0.000310, -0.015413, -0.322366, -0.000122, -0.000303}, {0.000015, 0.000455, -0.000433, 0.000018, 0.000393, 0.000059, -0.000323, 0.000256, 0.000106, -0.000481, 0.000124, -0.000261, -0.000222, -0.000295, 0.000120, -0.000074, -0.000453, 0.000207, -0.000109, 0.000029, -0.000362, 0.000048, 0.000085, 0.000425, 0.000306, 0.000091, 0.000147, 0.000300, -0.000253, 0.000563, 0.000286, 0.000262, 0.000121, 0.000242, 0.000518, -0.000127, -0.000147, 0.000510, -0.000330, 0.000291}, {0.305113, 0.000175, -0.000454, 0.324502, -0.507301, -0.000315, 0.000004, -0.000428, -0.000321, 0.000064, 0.000393, -0.000431, -0.000530, -0.000290, -0.230490, 0.000090, -0.367284, -0.000159, -0.015326, 0.000285, -0.391095, -0.002546, -0.000228, -0.000070, 0.294532, -0.074770, -0.000709, 0.000187, -0.263484, -0.000736, 0.323140, 0.000351, 0.052301, -0.387014, 0.290614, 0.000344, -0.004461, 0.330448, -0.000294, -0.000233}, {-0.406946, 0.000100, -0.000325, -0.882801, 0.147372, -0.001600, -0.000017, -0.001530, 0.000319, -0.000518, -0.000680, 0.000151, 0.000092, -0.000101, 0.150741, 0.000027, 0.051222, 0.000090, 0.391763, -0.000325, 0.251466, -0.009840, -0.000175, -0.000851, -0.878894, 0.048345, -0.000109, 0.000268, 0.150143, -0.000963, -0.833981, 0.000217, -0.570536, 0.212873, -0.837830, -0.000577, -0.022860, -0.410754, -0.000252, 0.000007}, {0.313328, -0.000234, -0.000294, 0.285216, 0.433934, 0.000208, -0.000392, -0.000283, 0.000032, 0.000044, -0.000277, -0.000252, -0.000185, -0.000317, 0.531681, 0.000102, 0.155554, 0.000177, 0.456712, -0.000433, 0.307555, -0.002282, 0.000003, -0.000090, 0.272669, -0.425369, -0.000178, 0.000270, -0.022622, 0.000019, 0.274159, -0.000053, 0.120849, 0.191426, 0.262865, 0.000254, -0.000760, 0.286619, -0.000367, 0.000267}, {0.051054, -0.000396, 0.000196, 0.142086, 0.117492, -0.000358, -0.000389, 0.000288, 0.000076, -0.000484, 0.000083, 0.000224, -0.000622, -0.000081, -0.754642, 0.000035, 0.079057, 0.000115, -0.413171, 0.000250, -0.622420, -0.003111, -0.000322, 0.000567, 0.114764, -0.117445, -0.000023, -0.000000, -0.627024, -0.000761, 0.140348, -0.000020, -0.121349, 0.056048, 0.108723, -0.000283, -0.007364, 0.055204, 0.000013, -0.000041}, {0.000096, -0.000077, -0.000305, -0.000197, -0.000186, 0.000157, 0.000300, -0.000033, 0.000043, -0.000158, 0.000260, -0.000064, -0.000222, -0.000003, -0.000338, -0.000095, 0.000232, -0.000187, 0.000167, 0.000023, 0.000061, -0.000295, 0.000321, -0.000343, 0.000537, 0.000415, 0.000426, -0.000019, 0.000379, 0.000252, 0.000519, 0.000089, 0.000263, 0.000380, 0.000133, 0.000342, -0.000278, -0.000260, 0.000203, -0.000490}, {-0.000828, -0.000269, 0.000267, 0.001060, -0.007095, -0.000360, -0.000455, -0.000092, 0.000004, -0.000434, -0.000000, -0.000263, -0.000128, 0.000029, -0.002201, 0.000280, -0.024180, 0.000180, -0.018830, 0.000077, 0.000664, -0.003126, -0.000343, -0.000620, 0.000260, 0.013888, -0.000270, -0.000624, -0.024594, -0.000359, 0.000668, 0.000328, -0.000893, -0.018445, -0.000649, 0.000237, -0.003157, -0.000697, -0.000281, -0.000129}, {0.193113, -0.000037, 0.000403, 0.387209, -0.761702, -0.000114, 0.000140, 0.000160, -0.000054, 0.000245, -0.000239, -0.000366, 0.000254, -0.000461, -0.310563, 0.000076, -0.604583, -0.000351, -0.510570, -0.000082, -0.024186, -0.002648, 0.000162, 0.000562, 0.358297, -0.221696, 0.000119, -0.000961, -0.148837, -0.000334, 0.381504, 0.000234, 0.106675, -0.512931, 0.352628, -0.000340, -0.002324, 0.097919, -0.000440, 0.000122}, {0.052363, -0.000070, -0.000228, 0.146526, -0.365169, 0.000011, -0.000308, 0.000028, -0.000128, -0.000078, 0.000005, -0.000112, -0.000545, 0.000299, -0.510642, -0.000084, -0.293101, -0.000435, -0.677221, 0.000328, -0.692631, -0.003005, -0.000515, -0.000258, 0.133172, -0.611386, -0.000435, -0.000438, -0.785272, -0.000611, 0.134129, -0.000250, -0.161440, -0.429881, 0.117068, -0.000414, -0.002394, -0.021372, -0.000327, 0.000162}, {0.000844, 0.000447, -0.000119, 0.000450, 0.000867, -0.001384, 0.000123, -0.000466, -0.000343, 0.000185, -0.000069, -0.000143, -0.000384, -0.000088, -0.000343, -0.000015, -0.000433, 0.000014, -0.000514, 0.000230, -0.000171, -0.000393, 0.000251, 0.000684, -0.000072, -0.000448, -0.000400, 0.000387, -0.000030, -0.000102, -0.000435, 0.000236, -0.000372, 0.000034, 0.000309, 0.000031, -0.000004, 0.000206, -0.000480, 0.000305}, {0.387865, 0.000276, -0.000215, 0.414750, -0.085204, 0.000158, -0.000273, 0.000316, 0.000127, -0.000183, -0.000060, -0.000004, -0.000212, -0.000286, 0.548464, -0.000135, -0.102404, -0.000456, 0.583690, 0.000146, 0.510014, -0.002763, -0.000236, 0.000224, 0.385006, 0.378463, -0.000490, -0.000309, 0.437496, -0.000055, 0.416252, -0.000282, 0.134220, -0.033864, 0.374724, 0.000053, -0.001168, 0.344868, -0.000017, -0.000099}, {-0.000094, -0.000295, -0.000023, -0.000233, 0.000159, -0.000742, -0.000397, 0.000216, 0.000402, -0.000109, 0.000394, 0.000247, -0.000053, 0.000156, 0.000447, 0.000466, -0.000494, -0.000444, 0.000073, -0.000276, 0.000167, 0.000369, -0.000405, -0.000160, 0.000046, -0.000260, 0.000636, -0.000053, -0.000260, 0.000145, 0.000114, 0.000024, -0.000060, 0.000114, -0.000174, 0.000474, -0.000357, -0.000126, -0.000416, 0.000335}, {0.354465, -0.000140, 0.000101, 0.394119, -0.073886, 0.000035, 0.000387, -0.000062, 0.000338, -0.000022, -0.000317, 0.000069, 0.000121, 0.000246, 0.474188, 0.000037, -0.058590, -0.000485, -0.299039, 0.000327, 0.223986, -0.002880, 0.000241, -0.001114, 0.364221, 0.090103, 0.000001, 0.000136, 0.094994, -0.000854, 0.392592, -0.000034, 0.117585, 0.088405, 0.360062, 0.000312, -0.003492, 0.357677, -0.000274, -0.000389}, {-0.000169, 0.000271, 0.000335, 0.000415, -0.000116, 0.000100, 0.000190, 0.000050, 0.000101, -0.000115, 0.000338, 0.000135, -0.000233, -0.000345, 0.000377, -0.000082, -0.000518, -0.000290, -0.000314, 0.000212, -0.000034, -0.000195, -0.000162, 0.000487, -0.000128, -0.000188, -0.000376, -0.000947, 0.000424, 0.000196, -0.000343, -0.000663, 0.000352, -0.000251, 0.000368, 0.000140, -0.000198, -0.000115, 0.000020, -0.000333}, {0.300881, 0.000002, -0.000221, 0.355319, -0.519995, -0.000044, -0.000133, -0.000284, -0.000192, -0.000096, 0.000425, 0.000042, 0.000139, -0.000259, -0.195352, -0.000084, -0.382020, -0.000336, -0.071510, 0.000152, 0.070074, -0.002112, 0.000128, -0.000020, 0.324578, -0.394862, -0.000416, -0.000197, 0.011891, -0.000157, 0.351429, 0.000071, 0.064394, -0.421269, 0.317014, -0.000277, -0.001550, 0.230110, -0.000694, -0.000361}, {-0.000233, 0.000186, 0.000060, -0.000243, -0.000110, -0.000010, 0.000089, 0.000050, 0.000317, -0.000390, -0.000276, -0.000437, 0.000189, 0.000104, -0.000014, -0.000430, -0.000778, -0.000300, -0.000395, -0.000027, -0.000427, 0.000021, -0.000190, 0.000163, 0.000027, 0.000256, 0.000292, -0.000044, -0.000226, -0.000313, 0.000407, -0.000173, -0.000009, -0.000152, -0.000120, 0.000070, 0.000131, -0.000042, -0.000430, 0.000029}, {-0.000344, -0.000430, -0.000243, -0.000082, -0.000199, 0.000273, 0.000425, -0.000194, 0.000288, 0.000006, 0.000348, -0.000006, 0.000243, 0.000353, -0.000321, 0.000002, 0.000229, 0.000100, 0.000242, 0.000374, 0.000280, -0.000416, 0.000043, -0.000206, 0.000206, 0.000140, 0.000365, -0.000371, -0.000373, -0.000262, 0.000226, 0.000003, -0.000342, 0.000307, 0.000444, 0.000376, -0.000038, -0.000003, 0.000168, 0.000130}, {0.000171, -0.000018, 0.000439, 0.000067, -0.000248, -0.000259, 0.000436, -0.000227, 0.000155, -0.000332, -0.000392, 0.000454, -0.000468, -0.000031, 0.000022, -0.000184, -0.000462, 0.000092, -0.000577, -0.000042, 0.000004, -0.000366, -0.000057, -0.000026, -0.000201, 0.000129, -0.000053, 0.000063, 0.000220, 0.000037, 0.000424, 0.000158, -0.000080, 0.000134, -0.000220, 0.000038, 0.000022, 0.000095, -0.000538, -0.000430}, {-0.653829, 0.000347, -0.000388, -0.264761, -0.365210, -0.000342, -0.000347, -0.000405, 0.000296, -0.000454, -0.000298, -0.000008, -0.000139, 0.000128, -0.210368, -0.000245, -0.202878, 0.000319, -0.142266, -0.000299, -0.111840, -0.001769, 0.000020, 0.000766, -0.098499, -0.349992, -0.000577, 0.000262, -0.624001, -0.000534, -0.220360, 0.000204, -0.721581, -0.092012, -0.198036, 0.000222, -0.002618, -0.855761, 0.000232, 0.000140}, {-0.000757, -0.000124, -0.000215, 0.000375, 0.000010, -0.000459, -0.000019, -0.000183, 0.000426, -0.000521, 0.000140, -0.000052, -0.000405, -0.000714, 0.000197, 0.000285, 0.000570, 0.000242, -0.000068, -0.000231, -0.000301, -0.000065, -0.000777, -0.000618, 0.000091, 0.000276, 0.000088, 0.000261, 0.000105, -0.000039, -0.000139, -0.000435, -0.000085, 0.000204, -0.000164, 0.000015, -0.000115, 0.000079, -0.000131, -0.000408}, {0.062109, -0.000457, -0.000209, 0.139734, -0.161182, -0.000589, -0.000538, -0.000128, -0.000185, 0.000034, -0.000669, -0.000415, 0.000095, -0.000326, 0.071670, -0.000233, -0.275989, 0.000108, -0.439490, -0.000049, -0.314621, -0.002807, 0.000151, -0.001484, 0.116884, -0.015992, -0.000055, -0.000059, -0.587391, -0.001021, 0.122346, -0.000347, -0.042456, -0.326865, 0.105524, -0.000422, 0.001518, 0.098910, -0.000269, 0.000144}, {0.253005, 0.000150, -0.000218, 0.203293, -0.036165, -0.000610, -0.000179, -0.000269, 0.000225, 0.000029, 0.000237, 0.000056, -0.000071, -0.000053, -0.268024, -0.000266, -0.076886, -0.000401, -0.315383, -0.000544, -0.520019, -0.002221, 0.000078, -0.002304, 0.187964, -0.011759, -0.001109, -0.000707, -0.672134, -0.000688, 0.203997, -0.000230, 0.031374, -0.078693, 0.182455, 0.000130, -0.003144, 0.244030, -0.000326, -0.000068}, {0.355733, 0.000019, -0.000348, 0.403912, -0.706988, -0.000175, 0.000045, 0.000107, 0.000293, 0.000208, 0.000428, 0.000368, -0.000150, -0.000379, -0.116595, 0.000078, -0.535917, -0.000114, -0.330668, -0.000023, -0.419668, -0.001414, 0.000013, 0.000561, 0.371383, -0.313232, -0.000369, 0.000065, 0.031369, -0.001071, 0.399889, 0.000097, 0.105254, -0.698257, 0.367000, -0.000381, -0.001828, 0.346122, -0.000446, -0.000144}, {0.193934, 0.000321, -0.000393, 0.258433, -0.248762, 0.000097, -0.000626, 0.000050, 0.000268, 0.000297, -0.000414, -0.000663, 0.000137, 0.000297, -0.352661, 0.000151, -0.366011, 0.000255, 0.061797, 0.000043, -0.193801, -0.002938, -0.000337, -0.001170, 0.228079, -0.052633, -0.000332, -0.000801, -0.299877, -0.000669, 0.252463, 0.000095, -0.021430, -0.182799, 0.221576, -0.000182, 0.000391, 0.160139, 0.000312, 0.000212}, {0.000104, -0.000357, 0.000137, -0.000172, 0.000369, -0.000915, -0.000361, -0.000231, 0.000212, -0.000160, -0.000427, -0.000109, -0.000613, 0.000052, -0.000349, -0.000527, 0.000071, 0.000047, 0.000333, 0.000091, -0.000254, -0.000101, 0.000314, 0.000256, 0.000078, 0.000191, -0.000524, -0.000182, 0.000294, 0.000121, -0.000337, 0.000092, -0.000491, 0.000618, -0.000446, -0.000611, -0.000368, 0.000067, 0.000378, -0.000206}, {-0.000008, -0.000300, -0.000330, -0.000229, 0.000042, -0.000055, -0.000488, -0.000752, -0.000505, -0.000519, 0.000025, -0.000310, 0.000007, -0.000301, 0.000058, -0.000036, -0.000174, -0.000065, -0.000748, -0.000131, 0.000218, -0.000267, 0.000183, -0.001043, 0.000047, -0.000071, -0.000817, -0.000063, 0.000099, 0.000373, 0.000385, -0.000497, -0.000481, 0.000290, -0.000066, 0.000017, -0.000410, 0.000059, -0.000272, -0.000394}, {-0.274762, -0.000335, -0.000022, -0.266782, 0.235554, -0.001094, -0.000638, -0.001190, -0.000406, -0.001054, -0.000187, -0.000307, -0.000309, -0.000256, -0.384340, 0.000302, 0.273725, -0.000339, 0.164600, 0.000090, 0.305367, -0.006317, -0.000415, 0.000080, -0.264466, -0.353933, -0.001861, -0.000318, -0.079439, 0.000638, -0.369328, -0.000370, -0.297276, 0.293019, -0.249572, -0.000413, -0.028847, -0.138010, -0.000098, -0.000364}, {-0.559504, -0.000410, 0.000074, -0.201708, 0.397320, -0.002092, -0.000223, -0.000783, 0.000052, 0.000010, -0.000004, 0.000360, -0.000495, 0.000051, 0.405485, -0.000696, 0.421063, -0.000363, 0.496235, -0.000426, 0.487981, -0.009450, -0.000187, -0.000189, -0.127901, 0.465027, -0.000941, -0.000183, 0.496985, 0.000319, -0.173914, 0.000413, -0.144874, 0.415656, -0.147386, -0.000225, -0.014840, -0.249105, -0.000457, 0.000031}, {0.246886, 0.000014, -0.000254, 0.236839, -0.459858, 0.000184, -0.000277, 0.000104, -0.000424, -0.000438, -0.000262, -0.000372, -0.000000, -0.000413, -0.293076, 0.000126, -0.332325, -0.000466, 0.355812, -0.000386, 0.150663, -0.002870, -0.000521, -0.000970, 0.207819, 0.043016, 0.000023, -0.000893, -0.038958, -0.000144, 0.235614, -0.000253, -0.029042, -0.236019, 0.200347, 0.000383, -0.005164, 0.258002, 0.000328, -0.000430}, {-0.000328, 0.000103, -0.000329, -0.000335, 0.001472, -0.001135, -0.000455, -0.000620, 0.000123, -0.000068, -0.000746, 0.000059, -0.000437, -0.000256, -0.000155, 0.000088, -0.001971, 0.000162, -0.001896, -0.000106, -0.000726, -0.001450, 0.000225, -0.000722, -0.000528, 0.000050, -0.000906, -0.000459, -0.001752, -0.001085, -0.000696, 0.000220, -0.000505, 0.000165, -0.000698, 0.000164, -0.001067, -0.000299, -0.000650, -0.000360}, {0.101660, -0.000362, 0.000029, 0.055094, 0.645129, -0.000323, -0.000484, 0.000769, -0.000031, -0.000087, 0.000382, -0.000356, -0.000280, -0.000252, 0.043895, -0.000393, 0.643834, 0.000003, 0.325222, -0.000007, 0.453206, -0.004658, -0.000271, 0.000635, 0.106985, 0.112183, 0.000092, -0.000494, 0.109048, -0.001594, 0.093542, -0.000189, -0.255538, 0.624186, 0.089571, -0.000800, 0.009200, -0.096131, 0.000157, -0.000028}, {0.000167, -0.000173, 0.000311, -0.000111, 0.000131, -0.000167, -0.000433, 0.000021, -0.000125, -0.000436, 0.000271, 0.000101, -0.000092, -0.000205, -0.000117, -0.000283, 0.000053, -0.000308, 0.000015, 0.000154, -0.000436, 0.000486, 0.000314, 0.000304, -0.000266, -0.000444, -0.000100, -0.000336, 0.000228, -0.000214, 0.000417, -0.000169, -0.000157, -0.000319, 0.000336, 0.000230, -0.000263, -0.000191, -0.000092, 0.000403}, {0.362761, 0.000274, 0.000076, 0.404037, -0.212663, -0.000368, -0.000376, -0.000316, -0.000171, -0.000483, -0.000195, -0.000123, 0.000250, -0.000432, 0.012371, -0.000419, -0.200038, 0.000269, -0.516162, 0.000018, 0.172938, -0.001884, -0.000274, -0.000040, 0.373208, -0.426508, -0.000770, 0.000314, -0.011309, -0.000588, 0.402347, -0.000164, 0.110938, -0.093826, 0.368479, 0.000246, -0.001656, 0.348669, 0.000500, 0.000056}, {0.273959, -0.000191, 0.000414, 0.234921, -0.373244, -0.000065, -0.000230, 0.000151, 0.000100, 0.000169, 0.000211, 0.000069, 0.000178, -0.000027, -0.005229, -0.000117, -0.138590, -0.000072, -0.125068, -0.000224, -0.238667, -0.002699, -0.000628, -0.000428, 0.208500, -0.460309, -0.000373, -0.000224, -0.159857, -0.000811, 0.231533, -0.000374, -0.017215, -0.049030, 0.197619, -0.000428, -0.007990, 0.347492, -0.000240, 0.000046}};
static const float * p_layer_2_weight = layer_2_weight;
static const float layer_2_bias[40] = {-0.051976, -0.196414, -0.199591, 0.651533, 0.613788, -0.070855, -0.123527, -0.008278, -0.170601, -0.102101, -0.174769, -0.123104, -0.220089, -0.133254, -0.050755, -0.338385, 0.752002, -0.176769, -0.185274, -0.082002, 0.103747, -0.137618, -0.232344, -0.216454, 0.537351, -0.503931, -0.051541, -0.210543, -0.297178, -0.166249, 0.612111, -0.094558, 0.169757, 0.647043, 0.570540, -0.068582, -0.163043, -0.057380, -0.038831, -0.033202};
static const float * p_layer_2_bias = layer_2_bias;
static const float layer_3_weight[40][1] = {{-0.565583}, {0.006882}, {0.081837}, {-0.772850}, {0.688701}, {-0.017264}, {0.057834}, {-0.000965}, {0.089976}, {-0.017240}, {-0.061245}, {0.049599}, {-0.052522}, {0.008241}, {1.451513}, {-0.039871}, {0.742753}, {-0.075462}, {0.749166}, {0.014492}, {0.704145}, {0.060620}, {-0.031385}, {-0.018087}, {-0.562258}, {0.570686}, {-0.009701}, {-0.008540}, {0.671368}, {0.111124}, {-0.753732}, {0.041116}, {-0.025952}, {0.679164}, {-0.533816}, {0.001747}, {-0.008800}, {-0.552760}, {0.013030}, {0.005206}};
static const float * p_layer_3_weight = layer_3_weight;
static const float layer_3_bias[1] = {-0.490409};
static const float * p_layer_3_bias = layer_3_bias;
    
static float sigmoid(float num) {
    return 1.0f / (1.0f + expf(-num));
}

static float step(float num) {
    if (num < 0) {
        return 0;
    }
    return 1;
}

static float relu(float num) {
    if (num > 0) {
        return num;
    } else {
        return 0;
    }
}

static float linear(float num) {
    return num;
}

static void layer(const float * in, const float * layer_weight, const float * layer_bias,   
            int row, int col, float * output, int use_activation) {
    int ii;
    int jj;
    const float * p;

    for(ii = 0; ii < col; ii++) {
        p = layer_weight + ii;
        output[ii] = 0;
        for (jj = 0; jj < row; jj++) {
            output[ii] += in[jj] * (*p); 
            p += col;
        }
        output[ii] += layer_bias[ii];
        
        if (use_activation == 1) {
			output[ii] = relu(output[ii]);
        }
    }
}

const float* nn_rho_2(const float* input) {
	layer(input, p_layer_0_weight, p_layer_0_bias, STRUCTURE[0][0], STRUCTURE[0][1], output_0, 1);
	layer(output_0, p_layer_1_weight, p_layer_1_bias, STRUCTURE[1][0], STRUCTURE[1][1], output_1, 1);
	layer(output_1, p_layer_2_weight, p_layer_2_bias, STRUCTURE[2][0], STRUCTURE[2][1], output_2, 1);
	layer(output_2, p_layer_3_weight, p_layer_3_bias, STRUCTURE[3][0], STRUCTURE[3][1], output_3, 0);

	return output_3;
}
