/*
 * FILE: generated.c
 */

#include <stdio.h>
#include <stdlib.h>
#include <string.h>
#include <math.h>
#include "rho_2.h"

static const int STRUCTURE[4][2] = {{40, 40}, {40, 40}, {40, 40}, {40, 1}};
static float output_0[40];
static float output_1[40];
static float output_2[40];
static float output_3[1];
static const float layer_0_weight[40][40] = {{0.000003, -0.000014, 0.023638, 0.025133, 0.000016, 0.000012, -0.000021, -0.000002, -0.000024, 0.000761, 0.000010, -0.000011, -0.000008, -0.000067, -0.047562, 0.000001, -0.000232, 0.053342, -0.034023, 0.000063, -0.000956, 0.000004, 0.000010, -0.000020, 0.000014, 0.023036, -0.000658, -0.000009, 0.000080, -0.012041, -0.000441, 0.000038, -0.050357, -0.000000, 0.000012, 0.067393, 0.000018, -0.031935, -0.000009, 0.001115}, {-0.000014, 0.000038, -0.028243, 0.053339, 0.000013, -0.000020, 0.000003, 0.000018, 0.000019, 0.000176, 0.000017, 0.000003, 0.000019, 0.000009, 0.164539, -0.000005, 0.000397, -0.065981, -0.030218, -0.000002, -0.000048, 0.000003, 0.000029, 0.000011, -0.000009, -0.005083, -0.000648, 0.000003, 0.000048, 0.133412, -0.043444, 0.000006, -0.064987, 0.000019, -0.000013, -0.050598, -0.000050, 0.029136, -0.000091, 0.004732}, {0.000026, 0.000011, -0.024745, -0.009710, 0.000007, 0.000010, -0.000007, -0.000013, 0.000008, -0.000079, -0.000008, 0.000007, 0.000004, 0.000024, 0.084924, 0.000005, 0.000189, -0.001808, -0.018886, 0.000026, 0.000069, 0.000014, -0.000006, -0.000000, -0.000014, -0.002313, -0.001951, 0.000003, 0.000007, 0.090453, -0.003774, 0.000003, -0.095896, 0.000003, 0.000014, 0.079641, -0.000004, -0.044010, 0.000017, 0.000874}, {-0.000001, 0.000040, 0.004297, -0.001839, 0.000023, -0.000017, 0.000021, -0.000001, -0.000005, -0.000262, -0.000005, -0.000010, 0.000026, -0.000011, 0.042826, 0.000012, -0.000025, 0.118070, -0.006736, 0.000011, -0.000260, 0.000015, 0.000112, -0.000015, -0.000016, 0.002029, -0.000940, -0.000011, 0.000037, -0.069372, -0.027252, 0.000061, 0.006512, -0.000003, -0.000008, 0.034203, 0.000031, -0.046282, -0.000106, 0.002110}, {-0.000030, -0.000053, 0.034220, -0.008462, -0.000002, -0.000015, -0.000020, -0.000018, -0.000016, -0.001522, -0.000010, 0.000005, 0.000027, 0.000048, -0.104638, -0.000009, 0.000422, 0.034693, 0.032575, 0.000058, 0.000193, -0.000024, 0.000003, 0.000007, 0.000007, -0.004724, -0.000665, -0.000017, -0.000005, -0.071697, 0.009413, 0.000016, 0.037853, -0.000011, -0.000018, -0.017625, 0.000033, -0.000207, 0.000020, 0.001255}, {0.000012, -0.000025, -0.253829, 0.603115, -0.000003, -0.000027, 0.000008, -0.000012, -0.000015, -0.000716, -0.000002, -0.000003, -0.000011, -0.000026, 0.567155, -0.000010, 0.000222, 0.049330, 0.429646, -0.000031, 0.000279, -0.000001, 0.000021, 0.000012, 0.000011, 0.871772, -0.000173, -0.000003, 0.000037, 0.629077, -0.362563, -0.000012, 0.234879, -0.000013, -0.000013, -0.414503, 0.000005, -0.101479, -0.000005, 0.002707}, {-0.000010, -0.000071, 0.257845, -0.567271, -0.000030, -0.000045, -0.000029, 0.000014, -0.000015, -0.000869, -0.000016, -0.000014, -0.000015, 0.000002, -0.405153, -0.000012, -0.000765, -0.192505, -0.420717, -0.000015, -0.001152, -0.000015, -0.000124, 0.000008, 0.000016, -0.701737, -0.002201, -0.000020, -0.000105, -0.297448, 0.170403, -0.000017, -0.872515, 0.000009, -0.000011, 0.279137, -0.000050, 0.121305, -0.000078, -0.002909}, {-0.000005, -0.000039, 0.920637, -0.512032, -0.000016, -0.000037, -0.000025, -0.000002, -0.000009, 0.000441, -0.000024, -0.000000, -0.000039, 0.000008, -0.700160, 0.000008, -0.000409, 0.125201, 0.454821, -0.000013, -0.001267, -0.000017, 0.000045, -0.000008, 0.000009, -0.363773, 0.001019, 0.000008, -0.000007, 0.240384, -0.366869, -0.000017, -0.158473, 0.000013, 0.000006, -0.286490, 0.000009, -0.147317, -0.000066, 0.002488}, {-0.000020, -0.000000, -0.066633, 0.374600, 0.000005, -0.000013, -0.000026, 0.000011, -0.000005, 0.000590, -0.000013, -0.000017, -0.000044, -0.000022, 0.484181, -0.000011, -0.000178, 0.201463, 0.269083, -0.000006, -0.000281, -0.000026, 0.000002, 0.000022, -0.000015, -0.193111, 0.000376, -0.000003, -0.000016, 0.134973, 0.055493, 0.000026, 0.560998, 0.000002, -0.000003, -0.074758, 0.000017, 0.041426, 0.000151, -0.006189}, {-0.000009, 0.000007, -0.001884, 0.008139, -0.000002, -0.000017, 0.000019, -0.000007, -0.000012, 0.000699, 0.000021, 0.000008, -0.000022, -0.000050, -0.085259, 0.000010, 0.000007, -0.105540, -0.029705, -0.000017, -0.000043, -0.000014, 0.000062, 0.000012, 0.000003, 0.037109, 0.000456, 0.000005, -0.000014, 0.128170, 0.038358, 0.000005, -0.064339, 0.000013, -0.000006, 0.103419, -0.000001, -0.047791, -0.000080, 0.000666}, {0.000006, 0.000051, -0.001696, -0.014314, -0.000001, 0.000026, 0.000003, 0.000016, 0.000003, 0.000026, 0.000019, -0.000004, -0.000011, 0.000021, 0.096708, -0.000013, 0.000203, 0.119381, 0.028838, 0.000007, 0.000566, 0.000009, 0.000115, -0.000013, 0.000004, -0.040284, -0.000261, -0.000006, 0.000042, -0.145221, -0.037520, 0.000003, 0.063063, 0.000014, 0.000011, -0.106793, 0.000042, 0.052777, -0.000062, -0.004706}, {-0.000011, -0.000006, -0.010336, 0.014662, -0.000006, 0.000003, 0.000002, 0.000001, 0.000014, -0.000464, 0.000002, 0.000000, -0.000004, 0.000010, 0.068954, 0.000006, -0.000194, 0.073221, 0.032073, 0.000005, 0.000107, -0.000003, -0.000030, -0.000008, -0.000010, -0.049541, -0.000588, -0.000004, -0.000032, -0.094819, -0.034325, -0.000010, 0.062857, -0.000013, -0.000008, -0.084144, 0.000007, 0.022324, 0.000018, -0.000249}, {-0.000013, -0.000019, 0.017220, 0.020198, 0.000022, 0.000049, -0.000005, 0.000008, -0.000007, -0.000390, -0.000010, -0.000006, 0.000021, -0.000023, -0.000448, -0.000011, -0.000534, 0.079340, -0.033610, -0.000035, 0.000598, -0.000024, -0.000011, 0.000014, -0.000008, 0.017711, 0.000467, 0.000006, -0.000040, -0.052077, -0.019845, -0.000006, -0.069057, 0.000008, -0.000015, 0.036183, -0.000022, -0.032697, 0.000068, -0.000660}, {-0.000011, -0.000039, -0.010721, -0.061870, -0.000041, -0.000029, -0.000026, -0.000010, -0.000020, -0.000943, -0.000011, -0.000001, -0.000019, -0.000025, 0.007479, -0.000010, -0.000356, 0.400260, -0.134899, -0.000041, -0.000345, -0.000014, -0.000046, 0.000015, 0.000001, -0.337744, -0.002025, -0.000012, -0.000033, 0.193293, 0.831984, 0.000002, 0.296685, -0.000021, -0.000007, -0.839688, -0.000029, -0.890572, -0.000055, -0.006428}, {0.000015, 0.000036, -0.006275, -0.026498, -0.000003, -0.000049, 0.000028, 0.000008, 0.000007, 0.000037, -0.000007, -0.000008, -0.000004, 0.000007, -0.011495, 0.000011, -0.000053, -0.108211, -0.022685, -0.000010, -0.000194, -0.000006, 0.000014, -0.000004, 0.000004, 0.031323, -0.000002, -0.000005, 0.000043, 0.121242, 0.022069, -0.000024, -0.034159, -0.000011, -0.000010, 0.055885, -0.000002, 0.001710, -0.000058, 0.002703}, {-0.000008, -0.000054, -0.010078, -0.021801, 0.000011, -0.000016, -0.000030, 0.000012, -0.000001, -0.000544, -0.000027, -0.000015, 0.000007, -0.000024, 0.118213, -0.000005, 0.000173, 0.102351, 0.036639, -0.000015, 0.000052, -0.000001, -0.000074, -0.000017, -0.000021, -0.047745, 0.000143, -0.000020, -0.000042, -0.123048, -0.034378, -0.000016, 0.082177, -0.000003, -0.000015, -0.097776, -0.000026, 0.047122, 0.000047, -0.005868}, {0.000004, -0.000050, 0.017819, -0.044614, 0.000014, -0.000036, 0.000007, 0.000023, -0.000014, -0.000477, 0.000002, 0.000011, 0.000000, -0.000004, -0.143979, 0.000020, 0.000574, -0.079190, 0.001485, 0.000059, -0.000052, 0.000015, 0.000007, 0.000019, 0.000012, 0.032202, 0.000512, -0.000006, 0.000163, 0.041452, 0.056463, 0.000025, 0.001277, -0.000005, -0.000004, 0.091877, 0.000011, -0.042774, -0.000061, -0.004495}, {0.000007, 0.000061, -0.012487, 0.039073, -0.000008, 0.000012, -0.000002, -0.000000, -0.000000, 0.000682, 0.000028, -0.000014, 0.000031, 0.000012, 0.038213, -0.000017, -0.000136, 0.038912, -0.006496, 0.000006, 0.000019, -0.000005, 0.000052, 0.000015, 0.000014, -0.026258, 0.001122, 0.000002, 0.000039, -0.066299, -0.019608, 0.000014, 0.007251, 0.000018, 0.000009, -0.085394, 0.000044, 0.041614, 0.000002, -0.000822}, {-0.000013, -0.000093, 0.277091, -0.618880, -0.000022, -0.000063, -0.000044, -0.000001, -0.000009, -0.000948, -0.000043, -0.000008, -0.000023, 0.000000, -0.467982, 0.000001, -0.000836, -0.159475, -0.372296, -0.000037, -0.001215, -0.000005, -0.000151, -0.000012, -0.000002, -0.699529, -0.002217, -0.000018, -0.000141, -0.369864, 0.173976, -0.000041, -0.772428, -0.000010, -0.000018, 0.336293, -0.000058, 0.149946, -0.000073, -0.002825}, {0.000018, 0.000054, 0.010911, 0.069774, -0.000002, 0.000015, -0.000000, 0.000005, -0.000009, 0.000986, 0.000003, -0.000010, -0.000014, -0.000017, -0.005914, 0.000007, 0.000357, -0.406299, 0.124603, 0.000024, 0.000379, 0.000016, 0.000037, 0.000014, -0.000009, 0.327054, 0.001823, 0.000003, 0.000032, -0.207367, -0.851180, 0.000010, -0.274750, 0.000007, 0.000017, 0.903649, 0.000022, 0.940728, 0.000065, 0.006414}, {-0.000002, 0.000007, 1.426443, -0.621410, 0.000026, 0.000000, 0.000023, 0.000004, 0.000015, 0.000628, 0.000007, 0.000010, 0.000025, 0.000080, -0.211084, -0.000003, 0.000205, 0.314174, 0.599939, 0.000058, 0.000119, -0.000001, 0.000126, -0.000008, 0.000013, -0.084278, 0.000192, 0.000012, 0.000088, 0.554221, -0.573998, 0.000020, -0.405126, 0.000006, 0.000012, -0.222913, 0.000022, -0.085741, -0.000010, 0.002153}, {-0.000011, 0.000031, 0.002511, 0.083942, 0.000027, 0.000043, 0.000025, 0.000020, -0.000002, 0.000959, 0.000002, 0.000010, 0.000014, 0.000002, -0.003751, -0.000003, 0.000378, -0.410090, 0.128244, 0.000027, 0.000340, -0.000008, 0.000024, 0.000014, 0.000019, 0.332848, 0.001534, 0.000004, 0.000021, -0.219794, -0.863078, 0.000015, -0.256465, 0.000004, -0.000004, 0.942413, 0.000032, 0.981459, 0.000070, 0.005786}, {-0.000004, -0.000035, -0.211391, 0.193966, -0.000002, 0.000015, 0.000007, -0.000011, -0.000016, 0.000365, -0.000020, -0.000016, 0.000009, -0.000032, -0.973572, -0.000004, 0.000170, -0.528225, 1.494883, -0.000003, -0.001331, -0.000020, -0.000009, -0.000019, -0.000022, 0.361086, 0.003226, -0.000024, 0.000014, -0.815101, -0.455157, 0.000009, 0.508920, -0.000005, -0.000002, -0.462302, -0.000047, -0.111716, -0.000089, 0.007811}, {0.000018, 0.000096, -0.098860, 0.049161, 0.000008, 0.000052, 0.000007, 0.000012, 0.000009, -0.000316, 0.000018, -0.000009, 0.000019, 0.000009, 0.408943, 0.000013, 0.000592, 0.425660, 0.369556, 0.000023, 0.000387, -0.000003, 0.000146, 0.000010, 0.000005, 0.010458, 0.001040, -0.000010, 0.000115, -0.127003, 0.157178, 0.000031, 0.530273, 0.000015, 0.000018, 0.118924, 0.000055, -0.049909, 0.000071, -0.005270}, {-0.000011, 0.000013, 0.024529, 0.089997, -0.000026, -0.000009, 0.000027, -0.000013, -0.000000, -0.000109, -0.000007, -0.000009, 0.000012, -0.000002, -0.169160, -0.000007, 0.000091, -0.096085, -0.042941, -0.000050, -0.000141, 0.000025, -0.000046, 0.000009, 0.000007, 0.056809, -0.002018, -0.000002, 0.000014, 0.126704, 0.024443, 0.000062, -0.102690, 0.000011, 0.000007, 0.109883, 0.000029, -0.068255, 0.000032, 0.006667}, {0.000006, -0.000009, -0.010135, -0.050590, 0.000002, -0.000015, 0.000006, -0.000012, -0.000009, 0.000493, -0.000011, -0.000011, 0.000019, 0.000026, -0.014106, 0.000016, -0.000258, -0.078035, 0.030976, 0.000023, 0.000165, 0.000003, -0.000057, -0.000012, 0.000012, -0.020105, -0.000788, 0.000006, 0.000006, -0.018920, 0.031121, -0.000016, 0.064190, 0.000000, -0.000005, -0.049830, 0.000019, 0.034516, -0.000050, -0.003796}, {0.000007, 0.000077, -0.357307, 0.227191, -0.000002, 0.000012, 0.000016, 0.000011, -0.000003, 0.000424, 0.000010, 0.000001, 0.000020, -0.000007, -1.047951, -0.000004, 0.000254, -1.224243, 0.168539, 0.000004, -0.001063, 0.000011, 0.000029, 0.000005, -0.000004, -0.247602, 0.002240, 0.000023, 0.000029, -1.215029, -0.450491, 0.000013, 0.219268, -0.000010, 0.000023, -0.326597, -0.000031, 0.182770, -0.000109, 0.007628}, {-0.000005, 0.000001, -0.006501, -0.047200, -0.000010, 0.000002, -0.000007, -0.000006, 0.000001, -0.000968, 0.000008, 0.000001, 0.000006, -0.000041, 0.094764, 0.000004, 0.000174, 0.015413, 0.027623, -0.000020, 0.000571, -0.000005, 0.000052, -0.000018, -0.000012, -0.021284, -0.000137, -0.000007, 0.000017, -0.023510, -0.019282, 0.000001, 0.054966, -0.000004, 0.000004, -0.084719, -0.000009, 0.047099, 0.000084, 0.002289}, {-0.000003, 0.000009, 1.183164, -0.257919, 0.000016, 0.000004, 0.000001, -0.000001, -0.000014, 0.000620, 0.000027, 0.000004, 0.000006, 0.000067, 0.158877, -0.000021, 0.000236, 0.337288, 0.610149, 0.000059, 0.000225, -0.000008, 0.000081, -0.000016, 0.000013, 0.261607, 0.000432, -0.000008, 0.000062, 0.774387, -0.497606, 0.000021, -0.349139, -0.000010, -0.000020, -0.172461, 0.000021, 0.018901, 0.000004, 0.002114}, {-0.000010, -0.000050, 0.000048, 0.004972, 0.000005, -0.000008, 0.000026, -0.000007, -0.000002, 0.000186, -0.000027, -0.000016, -0.000028, 0.000054, -0.060746, 0.000006, -0.000183, -0.067022, -0.050484, -0.000018, 0.000104, -0.000003, -0.000015, 0.000016, 0.000021, 0.049710, -0.000499, -0.000012, -0.000015, 0.099110, 0.031778, -0.000103, -0.094872, 0.000003, -0.000005, 0.080007, 0.000035, -0.016610, 0.000060, -0.000359}, {0.000006, -0.000032, 0.001641, 0.016797, -0.000013, -0.000035, -0.000004, -0.000002, -0.000018, 0.000754, -0.000019, 0.000004, -0.000010, -0.000024, -0.078140, 0.000002, -0.000069, -0.084736, -0.029763, -0.000002, 0.000676, 0.000003, -0.000052, -0.000022, -0.000019, 0.034393, -0.000613, -0.000017, -0.000061, 0.119783, 0.029265, -0.000025, -0.071602, -0.000015, -0.000003, 0.097680, -0.000022, -0.042944, -0.000046, -0.004979}, {0.000030, 0.000035, 0.020401, 0.018043, 0.000009, 0.000058, 0.000015, 0.000002, -0.000007, -0.000216, 0.000031, -0.000017, 0.000017, 0.000007, -0.071988, -0.000011, 0.000243, 0.033096, -0.028693, -0.000006, 0.000359, 0.000027, 0.000042, 0.000003, -0.000002, 0.016944, 0.000890, 0.000017, -0.000108, -0.021832, 0.006164, -0.000016, -0.029994, 0.000018, -0.000003, 0.068076, 0.000025, -0.034771, 0.000060, 0.004936}, {-0.000004, -0.000058, 0.245215, -0.503474, -0.000011, -0.000061, -0.000004, -0.000014, -0.000006, -0.000643, -0.000015, 0.000002, -0.000025, -0.000021, -0.409276, -0.000005, -0.000662, -0.244832, -0.516627, -0.000006, -0.000958, -0.000017, -0.000117, -0.000007, -0.000017, -0.803475, -0.002372, 0.000013, -0.000092, -0.232919, 0.179760, -0.000032, -0.900598, -0.000014, -0.000010, 0.200408, -0.000062, 0.068994, -0.000073, -0.003187}, {-0.000021, -0.000032, -0.019690, -0.085106, -0.000037, -0.000023, -0.000024, 0.000008, -0.000017, -0.000316, -0.000042, -0.000004, -0.000008, -0.000018, 0.134787, 0.000007, -0.000072, 0.055217, 0.038222, -0.000008, 0.000505, -0.000028, -0.000046, 0.000002, -0.000011, -0.059831, 0.000404, -0.000018, -0.000047, -0.089846, -0.024659, -0.000011, 0.084052, 0.000001, -0.000021, -0.119594, -0.000017, 0.077503, -0.000021, 0.000374}, {0.000010, -0.000051, -0.011004, -0.060572, -0.000017, -0.000029, -0.000008, -0.000003, -0.000009, -0.000886, -0.000010, 0.000011, 0.000011, -0.000005, 0.007225, 0.000009, -0.000317, 0.398688, -0.136052, -0.000012, -0.000395, 0.000007, -0.000024, 0.000004, -0.000015, -0.339173, -0.001962, 0.000008, -0.000018, 0.190544, 0.829182, 0.000012, 0.299736, 0.000014, -0.000005, -0.831201, -0.000011, -0.884171, -0.000060, -0.006311}, {-0.000010, 0.000036, 0.021538, 0.000706, 0.000009, -0.000038, -0.000017, 0.000011, 0.000008, 0.000746, 0.000004, 0.000007, -0.000024, 0.000009, -0.138949, -0.000009, -0.000243, -0.017010, -0.000797, 0.000045, 0.000172, 0.000028, -0.000072, -0.000000, 0.000006, 0.030523, -0.001227, 0.000011, -0.000020, 0.022493, 0.036914, -0.000015, -0.021189, -0.000003, 0.000022, 0.102289, 0.000027, -0.052795, 0.000056, 0.002164}, {-0.000015, -0.000033, 0.016378, 0.114053, -0.000001, 0.000025, 0.000016, -0.000002, 0.000011, -0.000561, 0.000007, 0.000014, 0.000015, 0.000020, -0.111016, -0.000013, 0.000474, -0.066584, -0.052419, -0.000018, -0.000902, 0.000016, 0.000037, 0.000007, -0.000010, 0.056978, 0.000903, 0.000004, 0.000023, 0.109171, 0.010850, -0.000027, -0.097004, -0.000008, 0.000018, 0.099597, 0.000045, -0.062327, -0.000056, 0.003066}, {-0.000000, 0.000009, -0.026369, -0.025538, 0.000011, -0.000011, 0.000012, 0.000009, -0.000001, 0.000179, -0.000002, 0.000017, -0.000011, 0.000029, 0.190039, 0.000006, -0.000077, 0.068386, 0.017019, 0.000012, -0.000216, 0.000005, -0.000054, -0.000001, -0.000020, -0.054951, -0.000802, -0.000007, -0.000098, -0.065114, -0.044749, -0.000094, 0.064058, 0.000002, 0.000010, -0.122578, -0.000001, 0.074561, 0.000061, -0.000285}, {0.000013, 0.000037, -0.336994, 0.228607, 0.000004, 0.000044, 0.000032, -0.000009, 0.000009, 0.000381, 0.000029, 0.000015, 0.000044, 0.000018, -1.074404, 0.000009, 0.000227, -1.241709, 0.113870, -0.000016, -0.000959, -0.000011, 0.000019, 0.000020, 0.000017, -0.287026, 0.001722, 0.000026, -0.000042, -1.160945, -0.440610, 0.000052, 0.192391, 0.000000, -0.000001, -0.344291, -0.000039, 0.167317, -0.000088, 0.007355}, {0.000009, 0.000021, 0.020824, -0.020035, 0.000001, 0.000022, 0.000032, -0.000010, 0.000018, -0.000283, -0.000004, 0.000008, 0.000018, -0.000053, -0.103798, 0.000007, 0.000199, -0.039104, 0.008357, 0.000009, -0.000474, 0.000001, 0.000039, 0.000014, 0.000000, 0.035577, -0.000878, -0.000017, 0.000055, 0.041283, 0.032431, 0.000008, -0.002258, 0.000003, -0.000012, 0.099987, 0.000014, -0.055033, -0.000073, -0.003510}};
static const float * p_layer_0_weight = layer_0_weight;
static const float layer_0_bias[40] = {-0.078278, -0.246841, 0.414961, 0.850396, -0.055182, -0.097646, -0.045622, -0.192932, -0.035884, -0.292679, -0.036962, -0.193932, -0.331338, -0.264900, -0.735093, -0.194432, -0.092397, -0.637395, 0.636094, -0.181674, -0.502136, -0.244264, -0.049747, -0.230211, -0.172875, 1.230887, -0.661959, -0.126725, -0.152030, 0.114530, -0.599189, -0.375139, -0.290642, -0.135190, -0.090920, 0.090662, -0.189518, -0.581051, -0.329722, -0.633994};
static const float * p_layer_0_bias = layer_0_bias;
static const float layer_1_weight[40][40] = {{-0.018908, -0.007035, 0.011668, -0.007438, -0.014332, 0.014510, -0.018766, -0.013783, -0.028166, 0.010306, -0.019669, -0.007694, -0.000568, 0.000768, -0.005417, 0.005094, 0.002242, -0.016142, -0.000011, 0.018406, -0.027164, 0.012241, -0.024126, -0.000069, -0.014388, -0.014812, -0.008133, 0.004740, -0.002667, 0.012324, -0.000279, -0.016311, -0.005736, 0.002993, -0.003581, 0.004168, 0.015199, 0.003571, 0.004927, 0.008548}, {-0.028412, -0.009111, -0.034398, -0.008322, 0.015976, -0.022361, 0.001668, -0.006539, -0.013590, -0.004160, -0.018811, 0.006310, -0.009483, 0.007585, -0.000449, -0.000460, 0.000638, -0.004611, 0.009242, -0.014286, -0.018037, 0.015282, -0.019877, -0.025915, -0.006256, -0.003648, 0.012397, 0.008584, -0.016429, -0.014470, -0.028573, 0.011212, -0.012448, -0.032374, 0.006211, -0.012091, -0.028091, 0.016391, 0.005240, -0.036611}, {0.007541, 0.006759, -0.091595, -0.070469, -0.031305, -0.024592, -0.012428, -0.038784, -0.011474, -0.084227, -0.023827, -0.005611, -0.021502, -0.290136, -0.011991, -0.032596, 0.006887, 0.007501, -0.035231, -0.092851, -2.324078, -0.009100, -0.007939, -0.014315, -0.569796, -0.014506, 0.482557, -0.020259, -0.028947, 0.000731, -0.238321, -0.016515, -0.021942, 0.588512, -0.003646, -0.028722, -0.034745, -0.061912, -0.017121, -0.013686}, {0.002495, 0.001331, -0.011036, 0.002498, -0.025035, -0.169949, -0.009585, -0.041440, -0.002101, -0.312274, 0.005316, -0.018989, -0.021228, -0.037449, -0.017388, -0.059322, -0.014949, -0.083180, -0.102015, -0.368153, -0.131835, 0.009773, -0.028073, -0.038240, 0.450340, 0.004090, -0.562547, -0.001745, -0.039527, -0.008084, -0.032014, -0.004803, -0.014065, -0.716670, -0.002656, -0.063757, -0.004023, -0.087823, -0.019095, -0.033925}, {-0.033517, -0.022678, 0.000676, 0.000876, -0.006876, 0.012835, 0.009062, 0.004289, 0.002020, -0.000547, 0.005097, -0.008688, -0.005809, -0.032757, -0.015116, -0.000582, -0.030302, 0.015467, -0.005556, -0.003057, -0.015215, 0.005739, 0.003995, -0.015522, 0.005869, 0.011999, -0.004921, 0.004229, -0.018353, 0.019972, 0.022876, 0.011376, -0.003629, -0.026117, -0.005311, -0.017149, 0.004801, -0.003442, -0.015793, 0.019172}, {-0.018251, -0.006536, 0.000353, 0.004438, -0.003083, 0.005056, -0.013362, -0.016330, 0.020179, -0.004351, -0.000653, -0.029104, -0.016509, 0.029277, -0.001838, -0.019058, 0.030191, -0.006661, -0.012319, -0.013593, 0.001967, -0.019717, -0.023637, -0.015781, -0.020028, 0.006184, -0.007167, -0.018048, 0.015349, -0.002310, -0.029353, -0.009173, 0.000533, 0.000809, -0.031098, -0.018176, 0.004262, 0.009406, -0.014972, -0.009688}, {-0.006666, 0.006074, -0.023581, -0.000501, 0.005216, -0.011754, 0.006815, 0.015070, 0.019486, -0.006717, -0.015886, 0.014067, -0.012575, -0.008411, -0.004504, 0.015095, -0.004329, -0.009326, -0.026323, -0.011297, 0.005834, 0.001225, 0.013843, -0.003254, -0.015473, 0.013730, 0.001352, 0.006943, -0.014518, 0.010463, 0.003747, 0.016302, 0.000200, 0.004990, -0.016239, 0.036368, 0.004581, 0.036952, -0.020063, -0.008226}, {-0.000721, 0.005263, 0.022817, 0.001631, 0.015342, -0.013207, 0.004319, -0.003900, -0.019385, -0.003119, 0.012379, 0.006052, 0.017797, 0.003888, 0.000137, 0.022455, -0.008881, -0.005306, -0.015962, -0.015238, -0.014488, -0.016214, 0.014520, 0.010392, 0.005223, -0.006184, -0.008911, 0.017308, -0.003116, 0.014688, -0.008225, -0.011821, -0.007287, -0.009399, 0.017755, -0.011622, 0.019000, 0.000685, -0.005451, 0.015279}, {0.001326, -0.009461, -0.021536, -0.011795, 0.006282, -0.007497, 0.008902, 0.007304, 0.010416, -0.019398, 0.005292, -0.009367, -0.008706, 0.017357, -0.002136, -0.007848, 0.018439, 0.017114, -0.007927, -0.010844, -0.007232, -0.014886, 0.017596, -0.011779, 0.000904, -0.001120, 0.023775, -0.015160, -0.009402, -0.001704, 0.018100, -0.013909, 0.009865, -0.021924, 0.020165, 0.005160, 0.013740, 0.010478, 0.017449, -0.000539}, {-0.019578, 0.004519, -0.004504, -0.002867, -0.019641, -0.015880, -0.020806, -0.015730, 0.012778, 0.010775, -0.018690, 0.008139, 0.000017, -0.059030, -0.018102, -0.042781, -0.017399, -0.071058, -0.068727, -0.022691, -0.051249, 0.001946, -0.021529, -0.022775, 0.024005, -0.019271, -0.001972, -0.010212, -0.003420, 0.006781, -0.015225, -0.003311, -0.021873, 0.043812, -0.011058, -0.071176, -0.011202, 0.095895, 0.000914, -0.024715}, {0.007810, 0.014231, -0.020022, -0.018305, 0.020605, -0.029166, 0.005609, 0.004643, -0.016064, 0.001476, -0.031885, -0.008455, 0.005894, 0.027060, 0.010073, -0.025935, -0.020478, 0.009309, -0.006796, -0.016448, 0.000025, -0.020642, -0.007416, -0.009674, 0.013293, 0.008327, 0.015000, -0.012017, -0.010576, 0.001445, -0.029346, 0.005568, 0.001891, 0.007129, -0.028513, -0.018346, -0.015851, 0.028361, 0.001363, -0.013857}, {-0.006985, 0.016967, 0.016072, -0.005706, -0.021003, -0.014512, -0.010089, -0.013497, -0.015478, 0.017971, -0.003059, 0.009135, -0.001153, -0.002941, -0.023970, -0.004372, 0.006068, -0.001998, 0.013272, 0.011493, 0.010117, -0.019548, 0.014058, -0.006419, 0.004779, 0.018868, -0.006005, 0.005157, -0.005464, 0.016279, 0.005584, -0.009939, 0.016169, -0.020544, -0.015286, -0.018001, -0.006712, -0.013063, 0.003760, 0.003569}, {0.020226, 0.004930, -0.012196, 0.006417, -0.018385, -0.003154, 0.007571, 0.020731, 0.002590, -0.005769, 0.004937, -0.002530, -0.004690, -0.007745, -0.014507, 0.004012, -0.008928, -0.011788, -0.020711, -0.019693, -0.013845, 0.000623, 0.012411, -0.011864, 0.002969, 0.016331, -0.003354, 0.013329, 0.000985, 0.010723, -0.020911, -0.012714, -0.008880, -0.031579, -0.014035, 0.003094, 0.018352, 0.000928, 0.005687, -0.016427}, {-0.014491, 0.010112, -0.042469, -0.046367, 0.019214, -0.000045, -0.032485, -0.015729, -0.009277, 0.006437, 0.008418, 0.007266, -0.029811, -0.021899, -0.003118, -0.027938, -0.018891, -0.007347, -0.016997, 0.021623, -0.013247, 0.001856, 0.004553, -0.023604, -0.054651, -0.005457, 0.003999, -0.009460, -0.024502, -0.031252, -0.028756, 0.001431, -0.018297, 0.023513, -0.010954, -0.023181, -0.035236, -0.020280, -0.022286, -0.017342}, {-0.004113, -0.027537, -0.019838, -0.019904, -0.012301, -0.004615, -0.016543, -0.048207, -0.017884, -1.107841, -0.021140, -0.016033, -0.017804, -0.024277, -0.017033, -0.009857, -0.040676, -0.015424, -0.098239, -0.222851, 0.382913, -0.030152, -0.014979, -0.006386, 0.675237, 0.001666, -0.912791, -0.001325, -0.010424, -0.019531, -0.009012, 0.002867, -0.010184, -0.617738, -0.013093, -0.081691, -0.007370, -0.057041, 0.002612, -0.015404}, {0.011962, 0.002049, 0.011531, 0.008887, 0.017554, 0.001724, 0.006655, -0.000336, 0.014656, 0.011108, -0.001950, -0.005630, -0.001470, 0.004438, -0.005834, 0.011088, 0.011401, -0.013756, -0.005968, -0.000459, 0.005193, -0.004126, 0.003864, 0.007644, 0.011683, -0.005085, 0.007134, 0.010753, 0.000755, 0.001048, 0.000175, 0.011854, -0.011301, -0.006872, -0.010342, 0.013599, -0.003682, -0.011183, 0.012967, 0.013118}, {-0.003204, -0.035958, -0.015208, -0.005310, 0.013443, 0.009631, -0.006865, -0.009268, -0.005774, -0.060474, -0.020206, -0.000224, -0.019544, -0.056434, -0.029326, -0.042551, -0.040541, -0.034878, -0.046676, -0.016452, -0.077179, -0.021956, -0.010345, -0.014346, 0.049963, -0.017658, 0.029783, 0.005256, -0.010300, 0.007932, -0.026949, 0.001707, 0.000018, -0.021550, -0.021784, -0.124282, 0.006262, -0.039588, -0.023166, -0.006766}, {-0.010714, -0.034533, -0.001618, 0.012695, 0.009256, -0.023734, -0.036603, 0.003184, 0.000782, -0.190055, -0.052332, 0.010540, -0.015367, -0.004313, -0.017566, -0.009639, 0.007574, -0.117170, 0.043220, 0.040593, 0.528823, -0.012393, 0.004837, -0.033793, 0.487485, -0.011291, 1.233648, -0.016532, -0.029903, -0.018282, 0.014440, -0.010422, -0.012468, 0.720940, -0.016648, -0.062340, -0.024323, -0.113010, -0.004772, -0.018862}, {-0.002260, -0.003412, -0.015175, -0.008348, 0.018326, 0.086045, -0.008582, -0.011218, 0.010731, -0.021094, -0.036381, -0.003279, 0.006523, -0.080520, -0.020816, -0.040887, -0.019942, -0.094415, -0.058382, 0.160398, -0.775650, -0.002094, -0.016565, -0.050486, 0.637757, -0.029167, -0.658448, -0.015760, -0.030552, 0.002878, -0.002617, -0.022370, -0.019178, 0.761268, -0.014978, -0.004971, -0.023662, 0.037294, -0.006068, -0.053555}, {-0.021541, 0.011620, -0.023595, -0.025777, -0.003862, 0.006426, -0.008524, 0.015105, 0.004929, -0.015246, -0.000908, -0.001248, 0.013379, -0.006191, -0.016125, 0.018391, 0.009167, 0.008487, -0.010802, 0.016057, 0.007855, -0.021496, -0.024267, 0.004783, -0.010521, 0.002090, -0.022133, 0.005768, -0.027870, -0.019657, 0.010685, -0.014740, 0.016678, -0.011760, 0.007517, -0.005688, -0.006660, 0.005618, -0.021264, -0.027425}, {0.005228, 0.003416, -0.020249, -0.029015, -0.004984, -0.032346, -0.026499, -0.023130, -0.012277, -0.075614, 0.013726, -0.001383, -0.007612, -0.099814, 0.000546, 0.014148, -0.002389, -0.059430, -0.012949, -0.035850, -0.017522, -0.003347, -0.024397, -0.020915, 0.018246, -0.027491, 0.012723, -0.022479, -0.016557, 0.013661, -0.049697, -0.011826, 0.001914, -0.075134, -0.010997, -0.060711, -0.010904, -0.059651, -0.008989, -0.010272}, {-0.020461, -0.007862, 0.011912, -0.006286, 0.035300, -0.001456, -0.000694, 0.001872, -0.000004, 0.000440, -0.008757, 0.009527, -0.001641, -0.008860, -0.005495, -0.020466, 0.000003, -0.010553, 0.008997, -0.001940, -0.012607, 0.005341, -0.033463, -0.024303, -0.018055, 0.009833, -0.028215, 0.006735, 0.000242, -0.011528, 0.007384, 0.001247, 0.000437, -0.000043, 0.001131, 0.026682, 0.016798, -0.016858, -0.013484, 0.000014}, {-0.018767, -0.006096, 0.001894, 0.007000, 0.008917, -0.002915, -0.013905, -0.008578, -0.008261, -0.002367, -0.053625, 0.006813, 0.011417, -0.007421, -0.038556, -0.016559, -0.015529, -0.019911, -0.005245, -0.020412, -0.026278, -0.013429, 0.019294, -0.015881, 0.015982, 0.014192, -0.014961, -0.016080, -0.020173, -0.015131, -0.001950, 0.002894, -0.006152, 0.003413, -0.028704, -0.006694, -0.006017, 0.012744, -0.009350, -0.024551}, {-0.016512, 0.010449, 0.000835, -0.016453, -0.010127, 0.020189, -0.017543, -0.019387, -0.016055, 0.006288, 0.031960, 0.001911, -0.012142, -0.010569, -0.023941, 0.021179, 0.004394, 0.002237, -0.008232, -0.007390, 0.016694, 0.016069, -0.017242, 0.004763, -0.005676, -0.019089, -0.000878, 0.020141, 0.017032, -0.013760, -0.004749, -0.014530, -0.020232, -0.010451, -0.014957, 0.003556, 0.023191, -0.011963, -0.006165, -0.008051}, {-0.019977, 0.018397, 0.015212, 0.001633, -0.004326, -0.023171, 0.017908, -0.005223, 0.000973, -0.021988, -0.013312, -0.019440, -0.014845, 0.004241, 0.020219, 0.003301, -0.000062, 0.007737, -0.002279, 0.003785, 0.013798, 0.016123, 0.002204, 0.014013, -0.014220, -0.003704, 0.011703, -0.007739, 0.008982, -0.009378, 0.008395, 0.018816, -0.001306, 0.000970, 0.006778, -0.010327, -0.005264, 0.012857, 0.012562, -0.003729}, {-0.014357, 0.017992, 0.001139, 0.023624, -0.020581, 0.022603, -0.030801, -0.007216, -0.020696, -0.929455, -0.031692, -0.015204, 0.003637, -0.045091, -0.010902, -0.006787, -0.034254, -0.096789, -0.090195, -0.209195, -0.198270, 0.012282, -0.001763, -0.021019, 0.986634, -0.012884, -1.347909, -0.009338, -0.028753, -0.011778, -0.022381, -0.000592, -0.006888, -0.171792, -0.004059, -0.031029, 0.015344, 0.004081, -0.018301, -0.017438}, {-0.033462, -0.007962, 0.006040, 0.006322, -0.005636, -0.017955, -0.005805, 0.001428, -0.026682, -0.026529, -0.030049, -0.015590, 0.009367, -0.119726, 0.011316, 0.008069, -0.037207, 0.000352, -0.026605, -0.075977, -0.058738, 0.009011, -0.015028, -0.000301, 0.011034, 0.019657, 0.026137, -0.005202, -0.010138, -0.019975, 0.039170, -0.001800, -0.005753, -0.044895, -0.019080, -0.030502, -0.012144, -0.029531, -0.002143, -0.007053}, {0.003109, 0.008561, -0.009675, 0.013844, 0.003302, 0.017993, 0.023013, 0.007655, -0.010807, 0.002833, 0.018765, 0.017340, -0.008886, -0.001034, -0.001835, -0.001481, 0.007026, 0.017246, 0.003852, -0.008184, 0.016578, -0.018307, -0.008104, 0.010625, -0.006671, -0.002033, 0.009649, -0.015609, 0.025390, -0.002494, -0.006461, -0.006375, -0.003409, -0.024582, 0.013564, 0.002415, -0.009258, -0.011739, -0.012874, -0.000342}, {-0.022712, 0.019713, 0.016058, -0.009342, 0.009411, 0.016714, -0.015697, -0.010035, 0.000121, -0.001385, 0.007174, 0.006074, -0.004292, -0.001126, -0.031532, -0.018820, -0.009452, 0.032813, 0.028137, 0.007968, -0.000769, -0.005988, 0.008048, -0.048666, 0.004035, -0.017410, -0.002075, -0.017341, -0.005686, 0.009754, 0.023634, -0.008926, 0.000227, -0.041603, 0.007380, 0.000662, -0.007020, 0.000475, -0.022854, -0.023253}, {0.005767, 0.002332, -0.024771, -0.018744, -0.020471, -0.100731, -0.001040, 0.007469, -0.018966, 0.105022, -0.063872, 0.006519, -0.001553, -0.180733, -0.031760, 0.013168, -0.019899, -0.072535, -0.012022, 0.049599, 0.674485, -0.023052, -0.037466, -0.022535, 0.039249, -0.007391, 0.804904, -0.029760, 0.003899, 0.012609, -0.043634, -0.013736, -0.021194, 0.969153, -0.015924, -0.006778, 0.003800, -0.004774, -0.027075, -0.002949}, {0.004946, 0.000445, -0.003790, -0.011107, -0.016232, -0.092184, -0.007044, -0.016851, -0.008360, -1.384090, -0.050543, -0.024701, -0.006031, -0.009911, -0.038377, 0.002874, 0.013238, -0.008831, -0.051326, -0.127546, 0.947662, -0.012102, -0.025153, -0.029071, 1.127926, -0.035478, -0.835968, 0.002693, -0.025729, -0.014088, -0.004126, -0.014406, -0.013126, 0.634929, -0.003832, -0.053888, -0.027749, -0.053197, -0.010657, -0.014499}, {0.002520, 0.012299, 0.002002, -0.009065, -0.012045, -0.017251, 0.004958, 0.007176, 0.005082, -0.017944, -0.015933, -0.013269, 0.008860, 0.010393, -0.000482, 0.011450, 0.013728, -0.031617, -0.047463, -0.020528, -0.007635, -0.008093, 0.000937, -0.017171, 0.007094, -0.012207, -0.008642, 0.018193, 0.003865, -0.020949, -0.004959, 0.019613, -0.017376, 0.030714, 0.005171, -0.017496, 0.009389, -0.019604, 0.016120, 0.016671}, {-0.018807, 0.009191, -0.030241, -0.015682, -0.016094, -0.020065, -0.026565, -0.007951, 0.007150, -0.648767, -0.063400, 0.007928, 0.008951, -0.071373, -0.017731, -0.015825, 0.002778, 0.011616, 0.004530, 0.036495, -0.352570, -0.006165, -0.030540, -0.034636, 0.681737, -0.028853, -0.082849, -0.009820, -0.029064, -0.005769, -0.014799, 0.001682, -0.032706, -0.137635, -0.020951, -0.033065, -0.024777, -0.004918, -0.021219, -0.014982}, {0.017716, 0.007797, 0.011404, 0.010959, 0.016026, 0.003265, -0.006536, -0.012412, -0.010957, -0.019704, -0.008397, 0.018622, -0.002045, -0.002299, 0.005285, -0.020796, 0.013453, 0.009446, -0.019929, -0.019280, -0.001089, -0.013730, 0.013714, -0.018517, 0.014321, -0.003032, 0.012540, -0.004827, -0.006508, -0.013758, -0.005149, 0.017955, -0.002418, -0.015889, 0.012682, -0.023323, -0.011161, -0.010911, 0.018380, 0.003949}, {0.004797, -0.015003, 0.001625, 0.010362, -0.018868, -0.014477, -0.018869, -0.007511, -0.009472, -0.014915, 0.010803, -0.020442, -0.001634, 0.012692, -0.011366, 0.013750, -0.020253, 0.015262, -0.014132, 0.008500, -0.003010, 0.003368, -0.007767, -0.005979, 0.018342, -0.020695, 0.020387, -0.020188, 0.014739, -0.005657, 0.011492, -0.013621, 0.017802, -0.015102, 0.019507, 0.005613, 0.002353, 0.007950, -0.013239, -0.004170}, {-0.010261, -0.008012, 0.000244, -0.004145, 0.001907, -0.027908, 0.006529, -0.008834, 0.000444, -0.024568, -0.020995, -0.008186, -0.024305, -0.007873, -0.016219, -0.003121, 0.004054, 0.001196, -0.019096, -0.052289, -1.504619, 0.004147, -0.014273, -0.017512, -0.937499, -0.004422, 0.792970, 0.009341, -0.020895, -0.004057, -0.050697, -0.000963, -0.015447, -0.612693, -0.012273, -0.014705, -0.013366, -0.010708, 0.009607, -0.019768}, {-0.006402, -0.020334, -0.011435, 0.010500, 0.005328, -0.025399, -0.021963, 0.006474, -0.005414, -0.008247, -0.009469, 0.011379, 0.007851, -0.012779, 0.003208, 0.020816, 0.001300, 0.000994, -0.005250, 0.022395, -0.024520, 0.010899, -0.023383, -0.048015, 0.017669, -0.008772, 0.000031, -0.003370, -0.030761, 0.014183, 0.009630, 0.013308, -0.019248, -0.014898, -0.008676, -0.025400, 0.006786, -0.023905, -0.003277, -0.004506}, {0.003748, -0.027624, -0.009588, 0.006097, -0.007064, -0.080076, -0.018268, -0.005420, -0.030725, 0.044067, 0.000758, -0.009348, -0.000022, -0.119807, 0.000462, -0.000953, -0.031457, -0.004378, 0.034383, -0.014495, -0.057395, -0.013620, -0.012400, 0.005534, 0.565122, -0.014910, 0.852413, -0.010709, -0.015579, -0.019099, -0.010663, -0.007043, -0.001535, -0.392058, -0.014104, -0.050652, -0.009558, 0.011269, -0.028676, -0.013819}, {-0.017929, -0.003516, 0.012633, -0.007894, 0.019972, -0.027727, -0.007103, -0.016951, 0.005042, 0.000074, -0.024470, 0.010448, -0.014696, 0.009676, 0.013556, -0.008937, -0.004730, 0.006891, -0.011516, -0.006131, -0.003019, 0.010319, -0.019220, 0.007484, -0.012504, 0.001488, 0.002786, -0.015917, 0.003763, 0.011285, -0.015901, -0.002348, 0.019078, 0.000194, -0.012957, -0.017179, 0.006950, -0.024290, 0.017852, -0.004018}, {-0.027389, -0.010799, -0.009283, -0.037540, -0.018137, -0.086055, -0.010545, 0.016375, 0.008639, -0.045492, -0.013649, 0.004521, -0.008819, -0.180318, 0.001658, -0.001716, -0.025195, -0.017096, -0.032806, -0.203533, -0.038398, -0.009213, 0.012240, -0.001845, 0.160488, 0.003035, 0.024749, -0.016893, -0.011310, -0.015153, -0.007102, -0.015931, 0.020755, 0.002779, -0.012738, -0.019947, -0.010571, -0.028442, 0.002556, 0.010674}};
static const float * p_layer_1_weight = layer_1_weight;
static const float layer_1_bias[40] = {-0.200445, -0.282077, -0.220931, -0.150821, -0.085643, -0.484655, -0.200288, -0.139219, -0.187213, -0.092405, -0.037051, -0.102222, -0.208485, -0.153644, -0.086766, -0.547885, -0.348378, -0.116539, -0.291398, -0.737330, 0.774364, -0.226304, -0.019595, -0.064462, -0.304460, -0.154927, 0.476626, -0.180126, -0.182325, -0.191262, -0.097023, -0.176470, -0.161370, 0.913912, -0.165737, -0.004171, -0.068014, -0.397191, -0.385292, -0.141715};
static const float * p_layer_1_bias = layer_1_bias;
static const float layer_2_weight[40][40] = {{0.144127, 0.080049, 0.011923, -0.019007, -0.021501, -0.022776, 0.073545, 0.115959, -0.089470, 0.075319, 0.100602, -0.057235, 0.085663, -0.021879, 0.036425, 0.083976, -0.119246, -0.062153, 0.007429, 0.021232, 0.129902, -0.079223, 0.029530, -0.068488, 0.054552, 0.023873, 0.040421, -0.067532, -0.113024, 0.114048, -0.013017, 0.036146, 0.060179, -0.026683, 0.029551, -0.070810, -0.140861, 0.032004, 0.030675, 0.055769}, {-0.135680, 0.052407, -0.061498, 0.046960, 0.009744, -0.071203, 0.058908, -0.038993, -0.126231, -0.082343, -0.104720, 0.077796, -0.061155, 0.000727, -0.098917, 0.155523, -0.031582, -0.013945, -0.009441, -0.089882, 0.072854, 0.107643, -0.108464, 0.071254, -0.029405, -0.052849, 0.001868, -0.067194, 0.139200, 0.093203, 0.051431, -0.008404, 0.041995, 0.039114, 0.059843, 0.075851, -0.035217, -0.097057, 0.050915, 0.116609}, {0.010051, 0.082885, -0.010156, 0.023248, -0.082848, 0.136992, 0.135538, -0.044205, -0.042516, -0.090540, 0.104072, -0.122239, -0.205698, -0.100050, -0.021634, 0.109863, -0.041621, 0.008725, 0.028610, 0.093304, 0.068009, -0.076483, -0.090913, -0.131067, -0.097399, -0.014764, -0.111537, 0.153005, -0.088282, 0.076295, -0.061993, -0.004268, -0.056186, 0.007666, -0.159123, -0.085721, -0.020643, -0.270234, 0.020630, -0.021443}, {0.073715, 0.129268, 0.044182, 0.024699, -0.168072, -0.181865, -0.036791, -0.148324, 0.051023, 0.017745, -0.180461, -0.105906, -0.099411, -0.038983, 0.168535, -0.049656, -0.069232, 0.012315, -0.235064, -0.050772, 0.091958, -0.073634, 0.052643, -0.131042, -0.478367, 0.034497, -0.086154, -0.260812, -0.007698, 0.088246, -0.195730, 0.111505, -0.165886, 0.003755, 0.001622, -0.111919, -0.334969, -0.294861, -0.108644, -0.098786}, {0.095511, 0.027631, 0.125845, 0.022843, 0.050783, -0.064759, 0.004071, -0.093086, -0.052572, -0.006833, 0.061533, -0.141661, -0.034071, 0.107592, 0.033249, -0.116154, 0.011228, 0.123167, 0.148567, 0.116976, -0.127613, 0.076037, -0.005846, -0.026935, -0.049352, -0.052662, 0.122010, -0.092166, -0.053062, 0.113909, -0.072889, 0.090523, -0.079607, 0.107123, -0.015936, 0.046974, 0.043156, 0.159166, 0.126111, -0.162485}, {0.091223, 0.030183, 0.043815, 0.101342, -0.012837, -0.156034, -0.030576, 0.043849, 0.105797, -0.100228, 0.075811, 0.040003, -0.276674, -0.073583, -0.038512, -0.269574, -0.134061, -0.022732, 0.031413, 0.029510, 0.002248, 0.020218, 0.067493, -0.103380, -0.167528, -0.969499, 0.017811, -0.174785, -0.359617, -0.091069, 0.029659, -0.164678, -0.127072, 0.063061, -0.074837, 0.061127, -0.059463, -0.145979, -0.207070, -0.117958}, {0.052569, -0.089801, -0.005632, 0.090856, 0.025539, -0.096458, -0.007785, -0.163951, 0.029548, 0.157587, -0.085110, 0.006693, -0.028610, 0.130643, -0.030624, 0.075299, 0.000531, 0.121883, -0.064062, -0.086048, -0.106327, -0.134570, -0.129043, 0.106316, 0.032056, 0.012754, 0.069608, -0.018834, 0.102282, 0.091608, -0.020047, -0.167584, -0.068042, 0.073712, 0.043167, -0.163483, -0.105050, 0.005734, -0.005006, -0.000542}, {0.112574, -0.123492, -0.005722, -0.119575, 0.066908, 0.098499, 0.035723, 0.009619, 0.125925, -0.043434, 0.046631, -0.134135, -0.007941, 0.080755, 0.025533, -0.018642, 0.121402, -0.096934, 0.103910, -0.084091, -0.072480, -0.007674, -0.124141, -0.076068, -0.083380, 0.006362, 0.003318, -0.088213, 0.150047, 0.079877, -0.029641, 0.134213, 0.059940, 0.047449, 0.030368, 0.008499, -0.060795, -0.113399, -0.033547, -0.137275}, {0.035072, 0.115164, -0.041741, -0.010966, -0.180034, -0.039055, 0.116772, -0.033609, -0.029377, 0.106464, -0.201145, -0.090866, -0.122438, -0.079892, 0.035944, -0.127393, 0.042385, -0.078968, -0.106704, 0.019283, -0.095922, 0.004544, -0.062804, -0.059172, 0.024336, -0.081044, -0.089092, -0.116029, -0.105186, 0.086943, -0.099050, 0.001529, 0.087995, -0.108589, 0.071717, 0.116047, 0.008705, -0.167948, 0.054599, -0.017214}, {-0.075620, -0.135227, -0.187649, -0.192958, -0.065539, -0.010928, -0.079175, -0.135571, -0.165429, 0.261514, -0.035037, -0.006608, -0.178598, -0.027775, -0.122253, -0.304003, -0.124269, -0.024815, -0.239973, 0.041859, -0.047630, 0.190827, -0.136503, -0.149741, -0.027156, -1.708273, -0.125837, -0.012225, -0.105675, -0.041433, -0.019942, -0.102452, -0.153046, -0.200306, -0.104851, 0.009453, -0.099524, 0.011448, 0.058639, 0.022119}, {0.086808, -0.114843, -0.096356, 0.033865, -0.095213, -0.022462, -0.115325, 0.094583, 0.069710, 0.134029, 0.104194, -0.075311, -0.086286, -0.154362, -0.056479, -0.050349, 0.112028, -0.062836, 0.241556, 0.054501, -0.135689, -0.059273, -0.151416, -0.165547, 0.106642, -0.132144, 0.032811, -0.038220, -0.144806, -0.087927, -0.065508, -0.020676, -0.078071, -0.146688, 0.080700, 0.118184, 0.156099, 0.035905, -0.144402, -0.004620}, {0.089991, 0.128481, -0.118547, -0.037762, -0.098608, -0.074460, -0.100315, -0.093556, -0.020583, 0.046168, 0.072376, -0.092762, 0.075660, 0.008994, -0.103567, 0.069118, -0.129580, 0.006707, -0.083398, 0.084700, 0.107165, 0.163165, -0.048722, 0.125755, -0.076742, -0.048931, -0.075100, 0.011981, -0.091896, -0.097661, 0.043286, -0.086653, -0.101973, -0.078950, 0.060987, -0.093273, -0.047313, 0.029034, 0.124566, 0.109937}, {-0.117054, -0.078530, -0.087132, -0.081784, -0.088573, 0.097237, -0.041038, -0.013446, 0.010428, 0.019800, -0.117329, -0.063425, -0.043619, 0.004288, -0.144493, 0.031596, 0.019358, 0.084645, 0.004039, -0.079899, 0.025454, -0.051545, 0.015157, -0.078582, -0.106200, 0.064900, 0.001196, 0.048807, -0.068170, 0.056411, 0.029630, 0.111181, -0.076260, 0.109049, -0.003105, -0.008980, -0.007169, -0.014385, -0.025851, 0.050015}, {-0.276472, -0.066437, -0.128739, 0.010709, -0.245941, -0.251697, -0.036765, -0.070782, -0.036206, 0.002727, -0.031046, -0.254495, -0.008092, -0.040685, -0.245111, -0.092486, -0.214043, -0.127546, -0.172634, -0.110836, -0.213766, -0.140691, -0.143567, -0.026612, -0.089864, -0.134213, -0.129306, -0.687213, -0.109256, -0.114924, 0.033658, -0.108933, -0.190427, -0.199774, -0.098336, -0.155598, -0.322984, -0.070799, -0.189122, -0.241829}, {-0.048612, 0.002175, 0.072951, -0.072954, -0.085754, -0.107373, 0.080049, -0.119352, -0.056003, 0.004388, -0.019688, -0.054885, -0.137088, -0.044749, 0.048353, -0.061953, -0.133030, -0.062523, 0.086560, -0.141178, -0.071514, -0.019669, 0.028001, -0.126189, 0.015139, -0.018273, -0.095372, -0.050324, -0.026697, -0.085389, -0.045783, -0.027680, 0.022725, -0.156458, -0.060414, -0.103910, 0.070970, 0.173591, -0.005029, -0.056144}, {-0.127438, 0.023706, -0.085906, 0.123478, 0.063684, 0.148116, 0.041216, 0.005352, 0.080541, -0.051101, -0.044389, -0.123735, 0.139348, 0.082451, -0.075852, 0.039355, -0.134435, -0.025308, -0.031362, -0.011502, 0.022619, -0.100543, 0.022890, 0.080748, -0.065429, -0.042648, -0.129475, -0.079031, -0.053062, -0.019440, -0.015407, 0.137399, 0.050452, 0.109801, -0.038858, 0.019945, 0.050079, 0.144365, -0.029273, -0.009604}, {-0.139913, -0.104279, 0.081059, 0.100098, -0.025349, -0.139533, -0.065219, -0.031816, 0.095136, -0.246637, 0.091608, -0.055894, 0.170207, -0.080067, -0.024923, -0.075970, -0.065200, 0.071648, 0.002730, -0.144286, 0.080852, 0.004469, -0.021663, 0.073086, -0.216741, -0.168643, -0.123102, -0.312430, -0.058334, -0.092674, -0.105521, -0.102388, 0.195514, -0.132498, 0.026583, -0.007790, -0.017409, -0.021590, -0.141270, 0.135917}, {-0.040828, 0.077048, -0.038385, 0.019119, -0.125109, -0.004991, -0.166708, -0.084547, 0.023427, 0.018701, -0.148921, -0.024678, -0.326878, -0.047302, -0.092269, -0.376880, -0.072465, 0.021923, 0.071126, -0.207482, 0.026016, 0.170962, -0.054745, -0.101834, -0.169617, -0.531453, -0.094639, -0.151803, -0.596547, 0.022874, 0.076209, -0.029771, 0.068664, -0.028478, -0.076621, -0.102397, -0.206236, 0.048919, -0.080547, 0.079992}, {0.034598, -0.082835, 0.029351, -0.019301, -0.070513, -0.092400, -0.054088, -0.098221, -0.039269, 0.113263, -0.140992, 0.054544, -0.160574, -0.007863, -0.031745, -0.186982, -0.185859, 0.140668, -0.060004, -0.037744, 0.019336, 0.129406, -0.161421, 0.024344, -0.350177, -0.454386, -0.068058, -0.222587, -0.832616, -0.043514, -0.043606, -0.178488, -0.040139, -0.277418, -0.010283, 0.115792, -0.048715, 0.064397, -0.059278, -0.058730}, {0.044156, 0.077820, -0.021042, -0.094649, -0.124772, -0.161806, -0.080319, -0.232421, -0.086734, 0.084004, -0.177073, -0.021113, -0.232673, -0.126538, -0.413494, -0.572055, -0.110308, -0.106777, -0.105242, -0.159907, 0.022983, 0.143077, 0.035333, 0.053432, -0.142859, -0.813457, -0.039846, -0.310863, -0.148537, -0.004350, -0.034599, -0.035104, 0.020820, -0.229373, -0.006283, 0.005152, -0.037496, -0.189084, -0.060409, -0.080051}, {-0.061061, 0.011371, -0.093865, -0.110622, -0.053526, -0.008408, -0.140429, 0.055475, -0.054230, 1.144398, -0.202804, -0.127411, -0.034467, -0.075423, -0.842824, -0.248482, -0.101170, -0.099026, 0.022167, -0.147804, -0.085037, -0.011776, -0.107242, 0.070186, -0.299714, -0.144732, -0.323851, 1.202965, -0.187782, -0.019339, -0.194432, 0.032099, 0.052860, -0.154394, -0.001244, -0.034168, -0.151281, -0.204576, 0.023259, -0.200591}, {-0.012991, -0.042115, 0.078828, 0.128290, 0.017465, 0.033762, 0.088841, -0.028336, -0.074781, -0.016660, 0.118948, -0.038216, 0.105428, 0.134341, 0.050320, -0.115312, 0.095210, -0.125708, -0.151523, -0.057723, 0.075225, -0.079425, 0.042829, -0.032431, 0.027561, -0.032648, 0.000494, -0.018009, -0.044303, 0.033714, 0.107133, -0.057199, -0.135850, -0.091104, 0.036204, 0.101336, 0.061845, 0.122230, 0.013210, 0.096123}, {0.015846, 0.054891, -0.066410, 0.024366, -0.025737, 0.080233, -0.057899, 0.049586, -0.058746, 0.133119, -0.180203, -0.010470, -0.171277, 0.003419, -0.082382, 0.035586, -0.104329, -0.129620, 0.007216, 0.010490, 0.129626, 0.072700, -0.013161, 0.075859, -0.020835, -0.035912, -0.017305, -0.148098, -0.030490, -0.108660, 0.024810, -0.007377, 0.087235, -0.088625, -0.050417, -0.135002, -0.158198, 0.031051, -0.067508, -0.030838}, {0.074575, -0.128385, -0.060845, -0.098904, 0.015371, -0.082069, -0.105640, 0.000928, 0.027876, -0.036955, -0.156879, 0.087408, -0.045597, -0.090874, 0.001984, -0.012133, 0.018883, 0.067829, -0.057194, 0.081423, 0.006390, -0.123867, -0.031896, -0.099510, -0.111527, -0.108793, -0.027677, -0.120669, -0.145191, -0.087176, -0.062919, -0.093722, 0.007891, -0.099111, -0.084617, 0.000170, 0.067655, 0.100670, -0.117654, -0.048555}, {-0.102603, -0.025685, -0.048033, -0.068317, -0.055651, -0.081157, -0.107674, -0.258482, -0.076918, 0.614111, -0.120683, -0.031773, -0.069048, -0.123469, -0.024008, 0.018831, -0.002829, -0.002446, -0.092441, 0.020628, -0.024004, -0.421586, -0.095955, -0.266320, -0.261782, 0.002550, 0.057643, -0.922005, -0.172298, -0.107024, -0.035618, -0.112059, -0.114412, -0.049981, -0.054122, -0.039259, -0.238028, -0.278719, -0.034135, -0.019571}, {-0.026770, -0.022570, -0.092392, 0.007429, 0.007305, -0.101675, 0.101805, 0.077573, -0.127258, 0.053361, -0.130513, -0.001608, -0.065935, 0.010660, -0.109250, -0.059010, 0.009575, -0.109647, 0.023111, -0.031118, -0.085178, 0.001987, 0.062527, -0.064083, -0.020837, -0.153847, 0.011117, -0.128417, -0.027630, 0.008142, -0.067406, -0.018377, -0.079571, 0.057908, -0.039416, -0.053021, -0.102260, 0.060169, 0.064326, -0.064870}, {-0.126218, -0.030990, 0.009951, -0.048888, -0.000922, -0.043856, -0.030207, -0.040290, -0.031978, -0.457839, -0.060765, -0.041997, -0.353520, -0.189100, -0.057934, -0.155988, -0.049275, -0.075252, -0.097665, -0.094610, -0.076752, 1.120296, -0.194616, -0.162608, -0.007869, -0.904560, -0.184939, 0.829306, -0.872516, -0.178018, -0.052728, -0.035207, -0.022081, -0.014435, -0.091264, -0.105960, 0.001462, -0.146066, -0.117733, -0.108911}, {0.124726, 0.118303, 0.133012, -0.077647, 0.005442, -0.188586, 0.039675, 0.090495, -0.077703, -0.124702, 0.004494, -0.081697, 0.018837, -0.125105, -0.083767, 0.051079, 0.019398, -0.029744, -0.029651, -0.102356, 0.119353, 0.107499, 0.047585, 0.103576, 0.114353, -0.121080, 0.011516, 0.038284, -0.089256, 0.088214, -0.092303, -0.135305, -0.086142, -0.006525, 0.108515, -0.036731, -0.015665, -0.092514, -0.050313, 0.098586}, {-0.056154, 0.013648, -0.173060, -0.010249, -0.015398, -0.017301, -0.157896, -0.083148, 0.046751, -0.058101, 0.004855, -0.035351, -0.145300, -0.035726, 0.144188, -0.089136, 0.067671, -0.036989, -0.238368, -0.117370, -0.065811, -0.105333, -0.007677, -0.153466, -0.070822, -0.002539, -0.122535, 0.010880, -0.106955, 0.031366, -0.049932, -0.147235, -0.088363, -0.036894, 0.010692, 0.069174, 0.174425, -0.056745, -0.118982, 0.027004}, {-0.023987, 0.110311, -0.070065, -0.021256, 0.128414, -0.078152, 0.104698, -0.044976, 0.104934, 0.104027, -0.020628, -0.021682, 0.033966, 0.087176, 0.098418, 0.119738, -0.068357, -0.103390, 0.064947, 0.031602, 0.081049, 0.094907, -0.081880, -0.017877, 0.084392, -0.074252, 0.053329, -0.027778, -0.053029, -0.027074, 0.097795, 0.019972, -0.005941, 0.116070, -0.002057, 0.105597, -0.072414, -0.052550, -0.128245, 0.087427}, {0.026847, 0.135527, -0.217285, -0.069826, -0.135160, -0.139465, -0.164213, -0.098779, -0.154695, 0.071984, -0.016000, -0.008997, -0.090687, 0.118498, -0.412253, -0.247361, -0.108358, -0.103379, -0.027433, -0.033344, 0.113176, 0.111498, -0.121654, 0.128885, -0.164317, -0.162142, -0.245135, -0.086330, -0.084044, -0.161193, -0.049955, -0.128054, -0.029201, -0.050013, -0.170671, -0.004117, -0.181122, 0.084778, -0.146257, -0.043389}, {0.026270, -0.097910, 0.099121, -0.095431, -0.155028, 0.018980, -0.070513, -0.113735, 0.077307, 0.125726, -0.039788, -0.039839, -0.000738, -0.127022, 0.100107, 0.018542, -0.065645, 0.006487, 0.073652, 0.091368, -0.047846, -0.121564, -0.070804, 0.076281, -0.124147, -0.031749, 0.132631, 0.013940, -0.046170, -0.084313, 0.101439, -0.008652, 0.127820, 0.055870, 0.098125, -0.051543, 0.060847, -0.057624, 0.121693, 0.078181}, {0.066361, -0.090324, -0.014300, -0.107868, 0.049457, -0.056090, 0.101566, 0.101820, -0.001921, 0.018038, -0.035402, 0.096511, 0.051484, 0.064085, -0.022013, -0.077433, -0.071096, -0.040879, -0.081248, 0.077593, -0.134082, 0.022055, -0.039633, 0.063171, 0.006874, -0.058455, 0.019407, -0.078365, 0.085328, 0.015881, 0.045966, 0.105227, 0.101591, 0.076106, 0.129478, -0.113062, -0.100522, -0.125254, -0.042588, 0.046925}, {-0.028324, -0.132001, -0.196529, -0.068492, -0.174776, -0.196964, -0.071631, -0.281404, -0.333257, -0.423356, -0.038112, -0.189454, -0.081007, -0.031533, -0.745181, -0.257345, -0.012005, -0.116188, -0.092956, -0.388961, -0.110953, 0.030740, -0.135200, -0.175938, -0.325738, -0.545966, -0.036100, -1.737434, -0.897052, -0.053370, -0.127745, -0.100088, -0.027000, -0.195337, -0.122139, -0.055357, -0.119559, -0.952392, -0.078545, -0.084916}, {0.061806, -0.002843, -0.054698, 0.017794, 0.037681, -0.015611, 0.013464, -0.021598, 0.096631, 0.012121, -0.102511, 0.057614, -0.059632, -0.060647, -0.029533, 0.038813, -0.115784, 0.000303, -0.032060, -0.062019, 0.037584, -0.015570, -0.070289, 0.020459, -0.116254, 0.041011, -0.060931, 0.097441, -0.006309, -0.035452, 0.038477, 0.047593, -0.024995, 0.118309, -0.020438, -0.059272, -0.044687, 0.028108, 0.208060, 0.004418}, {0.057445, 0.049033, -0.004574, 0.063382, 0.038764, -0.163951, 0.028141, -0.067014, -0.090567, -0.058296, -0.188427, 0.012076, -0.502575, -0.048145, 0.015981, -0.375480, -0.081644, -0.052611, -0.070277, 0.043674, 0.095162, 0.063058, -0.068517, -0.157434, -0.056087, -0.204280, 0.042137, -0.373082, -0.318575, -0.062435, 0.091048, 0.041349, 0.025842, -0.122327, 0.104281, -0.117479, 0.036754, -0.076325, -0.306306, -0.226419}, {-0.016415, -0.128758, -0.139709, -0.095925, -0.081376, 0.037236, 0.063419, 0.051547, -0.126597, 0.000928, -0.004097, 0.211483, -0.126037, -0.093167, 0.130800, -0.038615, -0.099025, 0.079953, -0.130262, -0.059163, 0.019018, -0.019730, -0.133240, -0.102784, -0.139208, 0.033404, -0.078376, 0.212440, -0.127218, -0.053788, -0.177755, -0.003961, -0.037918, -0.010872, -0.063745, 0.045566, 0.053623, -0.170250, -0.056011, 0.080402}, {-0.124234, 0.038321, -0.128299, 0.047452, -0.077582, 0.105825, -0.140321, -0.103099, 0.112978, 0.050220, -0.032665, 0.027092, -0.290053, -0.005563, -0.175930, -0.197762, -0.102454, -0.013377, -0.185919, -0.074935, -0.133281, 0.031414, 0.040671, -0.099399, -0.269370, -0.295918, 0.065121, -0.102217, -0.086338, -0.043154, 0.075401, -0.036731, 0.014427, 0.015552, -0.078976, 0.043382, 0.023058, 0.037782, 0.016337, -0.060312}, {0.075016, 0.121493, 0.060944, -0.056818, -0.036189, 0.095622, 0.188248, -0.082186, -0.009727, 0.098839, -0.047935, -0.074180, -0.050410, -0.034768, -0.056075, -0.009139, 0.050628, -0.006158, 0.019105, -0.063828, -0.061479, -0.039572, -0.104197, 0.086653, -0.066504, 0.010918, 0.073736, -0.067115, -0.039504, 0.018134, 0.007183, -0.041097, -0.069114, -0.086359, -0.005547, -0.103858, -0.222370, 0.017365, -0.004047, -0.116242}, {0.017512, -0.024191, -0.065085, -0.082744, -0.022333, 0.106490, -0.046446, -0.001113, -0.127750, -0.095136, -0.091019, -0.032620, -0.042884, -0.154310, 0.040909, 0.010503, -0.057294, 0.056783, 0.056300, -0.112154, -0.022561, -0.116701, 0.040363, -0.064514, -0.184711, -0.010453, 0.068557, -0.067054, -0.048164, 0.068452, -0.000167, 0.095507, -0.030029, 0.028823, -0.125372, 0.022664, -0.125097, -0.182259, 0.056600, -0.065161}};
static const float * p_layer_2_weight = layer_2_weight;
static const float layer_2_bias[40] = {-0.290940, -0.185088, -0.451188, -0.254554, -0.264399, -0.072908, -0.079171, -0.076023, -0.331002, 2.466602, -0.252391, -0.033259, -0.140368, -0.132791, -0.297518, -0.256545, -0.264232, -0.187473, -0.060518, -0.283129, -0.263952, 0.699038, -0.038517, -0.061656, -0.135672, -0.209144, -0.170402, 2.679743, -0.012566, -0.135205, -0.177236, -0.039077, -0.282448, -0.174208, -0.186073, -0.328201, -0.056359, -0.061712, -0.074610, -0.095735};
static const float * p_layer_2_bias = layer_2_bias;
static const float layer_3_weight[40][1] = {{-0.029399}, {0.037749}, {0.055299}, {0.042700}, {-0.010626}, {0.007260}, {-0.001603}, {0.065869}, {-0.030177}, {0.547373}, {-0.037474}, {0.000818}, {0.033016}, {0.061308}, {0.002118}, {0.039837}, {0.007019}, {0.068050}, {-0.010806}, {-0.006013}, {0.004999}, {-0.391502}, {-0.042821}, {0.057293}, {-0.045419}, {0.008958}, {-0.026836}, {-0.970268}, {0.007358}, {0.000327}, {0.016642}, {-0.014215}, {0.046061}, {-0.077121}, {-0.059201}, {-0.009229}, {0.027116}, {-0.075282}, {-0.036819}, {-0.065590}};
static const float * p_layer_3_weight = layer_3_weight;
static const float layer_3_bias[1] = {-0.463428};
static const float * p_layer_3_bias = layer_3_bias;
    
static float sigmoid(float num) {
    return 1.0f / (1.0f + expf(-num));
}

static float step(float num) {
    if (num < 0) {
        return 0;
    }
    return 1;
}

static float relu(float num) {
    if (num > 0) {
        return num;
    } else {
        return 0;
    }
}

static float linear(float num) {
    return num;
}

static void layer(const float * in, const float * layer_weight, const float * layer_bias,   
            int row, int col, float * output, int use_activation) {
    int ii;
    int jj;
    const float * p;

    for(ii = 0; ii < col; ii++) {
        p = layer_weight + ii;
        output[ii] = 0;
        for (jj = 0; jj < row; jj++) {
            output[ii] += in[jj] * (*p); 
            p += col;
        }
        output[ii] += layer_bias[ii];
        
        if (use_activation == 1) {
			output[ii] = relu(output[ii]);
        }
    }
}

const float* nn_rho_2(const float* input) {
	layer(input, p_layer_0_weight, p_layer_0_bias, STRUCTURE[0][0], STRUCTURE[0][1], output_0, 1);
	layer(output_0, p_layer_1_weight, p_layer_1_bias, STRUCTURE[1][0], STRUCTURE[1][1], output_1, 1);
	layer(output_1, p_layer_2_weight, p_layer_2_bias, STRUCTURE[2][0], STRUCTURE[2][1], output_2, 1);
	layer(output_2, p_layer_3_weight, p_layer_3_bias, STRUCTURE[3][0], STRUCTURE[3][1], output_3, 0);

	return output_3;
}
