/*
 * FILE: generated.c
 */

#include <stdio.h>
#include <stdlib.h>
#include <string.h>
#include <math.h>
#include "rho_0828_2_2.h"

static const int STRUCTURE[4][2] = {{40, 40}, {40, 40}, {40, 40}, {40, 1}};
static float output_0[40];
static float output_1[40];
static float output_2[40];
static float output_3[1];
static const float layer_0_weight[40][40] = {{-0.100748, 0.000038, 0.000026, 0.000023, 0.043303, 0.001723, -0.000004, 0.000009, 0.005691, -0.000019, 0.048196, 0.000002, 0.000020, 0.000026, 0.000017, 0.000689, 0.046093, -0.049103, -0.066300, -0.000021, 0.000018, -0.000006, -0.000005, 0.064440, 0.000040, 0.000003, 0.000028, -0.054387, 0.068184, -0.000009, 0.000022, 0.034730, 0.000047, -0.000017, 0.039993, -0.000012, 0.094846, -0.000002, -0.066339, 0.000040}, {-0.100394, -0.000072, 0.000025, -0.000015, -0.438755, -0.000900, -0.000021, -0.000013, -0.235996, 0.000023, -0.066102, -0.000003, -0.000001, 0.000002, 0.000015, -0.000669, -0.199213, -0.002391, 0.159368, 0.000021, 0.000012, 0.000013, 0.000019, 0.196827, 0.000032, 0.000004, -0.000002, 0.155261, 0.097864, 0.000019, 0.000004, 0.110506, 0.000007, 0.000001, -0.176868, -0.000011, -0.298738, -0.000020, -0.043039, 0.000002}, {-0.059101, -0.000002, -0.000008, 0.000011, -0.164161, 0.001679, -0.000021, 0.000021, -0.003259, 0.000011, 0.023573, -0.000016, 0.000007, 0.000044, 0.000034, 0.000975, 0.050675, 0.549461, 0.288192, -0.000023, -0.000004, -0.000005, 0.000016, 0.354004, 0.000169, -0.000004, -0.000011, -0.020291, 0.494379, -0.000001, -0.000017, -0.199996, 0.000133, -0.000009, 0.112046, 0.000023, 0.571748, 0.000000, 0.535239, 0.000074}, {0.187012, 0.000020, -0.000013, 0.000032, -0.352394, -0.001309, -0.000014, -0.000001, 0.482582, 0.000009, 0.141479, 0.000023, 0.000026, 0.000005, 0.000030, -0.000982, -0.211076, -0.011535, 0.577413, -0.000023, 0.000008, 0.000011, -0.000020, -0.020687, -0.000005, -0.000015, 0.000004, 0.010986, -0.032920, 0.000008, 0.000028, -0.027533, -0.000000, -0.000018, 0.201721, 0.000015, -0.329617, -0.000004, 0.041400, 0.000026}, {0.351890, -0.000016, 0.000020, -0.000008, 0.359039, 0.001591, -0.000026, -0.000017, 0.780921, -0.000030, 0.262099, 0.000009, -0.000003, -0.000008, -0.000007, -0.000521, -0.072555, -0.067535, 0.514574, -0.000006, 0.000005, -0.000038, -0.000025, 0.045282, 0.000141, 0.000009, -0.000037, -0.207418, -0.373106, 0.000025, -0.000014, 0.034944, 0.000034, 0.000003, 0.708730, -0.000005, 0.161810, -0.000018, 0.038179, -0.000002}, {0.374526, 0.000044, -0.000011, -0.000024, -0.225754, 0.001774, 0.000002, 0.000024, 0.220337, 0.000018, 0.640259, 0.000014, -0.000015, 0.000024, 0.000005, -0.001167, 0.624868, 0.031170, -0.091084, 0.000013, -0.000021, -0.000005, 0.000009, -0.162088, 0.000047, -0.000005, 0.000025, 0.726156, 0.224730, -0.000020, -0.000015, 0.380477, 0.000011, 0.000017, 0.242577, 0.000018, 0.033463, 0.000004, 0.099391, 0.000014}, {0.221155, -0.000095, -0.000005, -0.000013, -0.018632, -0.000676, -0.000025, -0.000016, 0.896991, 0.000001, 0.305844, 0.000001, -0.000005, -0.000043, 0.000011, 0.000916, -0.125681, -0.081314, 0.724837, 0.000016, -0.000025, 0.000014, -0.000005, 0.257913, -0.000057, 0.000008, 0.000009, -0.080933, -0.242485, -0.000047, 0.000002, 0.043175, -0.000144, -0.000019, 0.703036, -0.000009, -0.137097, 0.000029, -0.034081, 0.000010}, {-0.318081, 0.000039, -0.000012, -0.000014, -0.298599, 0.000434, -0.000025, 0.000017, -0.860402, 0.000030, -0.293555, -0.000019, -0.000021, 0.000047, 0.000006, -0.000416, 0.096191, 0.078114, -0.597252, -0.000008, 0.000003, -0.000012, -0.000008, -0.133654, 0.000050, -0.000005, -0.000023, 0.192076, 0.332098, 0.000020, -0.000016, -0.050080, 0.000198, -0.000014, -0.743219, 0.000007, -0.061431, -0.000010, -0.007805, -0.000006}, {-0.214279, 0.000036, -0.000007, -0.000017, 0.100940, -0.001753, 0.000019, 0.000014, -0.193354, -0.000014, -0.277839, 0.000021, 0.000013, -0.000015, -0.000005, -0.001305, -0.143977, 0.073232, 0.103469, 0.000006, -0.000033, -0.000024, -0.000008, 0.104611, -0.000082, -0.000022, -0.000022, -0.212699, -0.031818, -0.000005, 0.000008, -0.577846, -0.000033, 0.000000, -0.219533, -0.000019, 0.113202, -0.000014, 0.036904, -0.000023}, {0.115633, -0.000014, 0.000009, 0.000019, -0.566197, -0.001086, 0.000008, 0.000024, -0.315434, -0.000001, -0.119158, 0.000016, -0.000024, 0.000005, 0.000018, -0.000884, -0.117681, 0.038104, 0.242117, -0.000007, 0.000007, -0.000009, -0.000020, -0.104346, 0.000018, 0.000006, -0.000011, 0.195016, 0.035973, -0.000006, -0.000026, -0.076059, 0.000019, 0.000015, -0.180883, 0.000003, -0.207394, -0.000018, -0.016275, 0.000031}, {0.172238, -0.000010, 0.000011, 0.000021, -0.723101, -0.001303, 0.000002, 0.000008, -0.484741, -0.000009, -0.103374, -0.000015, 0.000019, 0.000005, -0.000010, -0.001028, -0.087631, 0.056349, 0.217071, -0.000002, 0.000016, -0.000010, -0.000011, -0.219891, 0.000022, -0.000021, 0.000035, 0.175116, -0.038183, 0.000006, -0.000017, -0.125800, -0.000009, 0.000011, -0.236740, 0.000000, -0.053144, -0.000012, -0.018845, 0.000001}, {-0.058087, -0.000039, 0.000017, -0.000018, -0.165135, 0.001421, -0.000008, 0.000003, -0.003138, -0.000014, 0.023439, 0.000002, 0.000011, 0.000022, -0.000004, 0.000839, 0.050595, 0.554687, 0.290061, 0.000022, 0.000015, 0.000007, -0.000004, 0.356560, 0.000094, 0.000002, -0.000005, -0.020063, 0.499679, 0.000014, -0.000020, -0.199600, 0.000079, 0.000011, 0.112867, 0.000019, 0.576838, 0.000001, 0.540485, 0.000006}, {-0.285931, 0.000064, -0.000000, 0.000015, -0.226256, 0.001434, 0.000005, 0.000009, -0.933340, 0.000049, -0.313021, -0.000001, -0.000019, 0.000028, 0.000005, -0.000837, 0.077439, 0.080642, -0.660153, 0.000010, 0.000021, -0.000016, 0.000013, -0.202268, 0.000042, -0.000007, -0.000016, 0.148152, 0.283266, -0.000007, -0.000018, -0.032352, 0.000193, -0.000004, -0.769077, -0.000015, 0.028950, -0.000008, 0.014917, -0.000040}, {0.058208, 0.000064, 0.000005, -0.000027, 0.165827, -0.001570, 0.000014, 0.000015, 0.002988, 0.000019, -0.024014, 0.000010, 0.000012, -0.000001, 0.000023, -0.000727, -0.050959, -0.553824, -0.289188, -0.000024, 0.000027, 0.000033, 0.000023, -0.355459, -0.000095, 0.000006, 0.000011, 0.019714, -0.498906, -0.000012, -0.000008, 0.198847, -0.000053, -0.000003, -0.113088, 0.000004, -0.575870, -0.000006, -0.539596, -0.000022}, {0.070210, 0.000053, 0.000004, -0.000030, 0.177051, -0.000722, -0.000006, -0.000008, 0.011122, -0.000022, -0.025691, 0.000006, 0.000005, -0.000006, 0.000013, -0.000520, -0.042712, -0.561012, -0.286577, 0.000010, -0.000020, 0.000024, -0.000012, -0.363425, -0.000037, 0.000008, 0.000003, 0.024035, -0.507775, 0.000020, 0.000024, 0.187731, -0.000049, -0.000038, -0.103606, 0.000019, -0.574001, 0.000015, -0.545421, 0.000009}, {0.339132, 0.000073, 0.000015, 0.000020, -0.216945, 0.002003, 0.000004, 0.000022, 0.225270, 0.000028, 0.622969, 0.000021, 0.000005, 0.000035, 0.000026, -0.000507, 0.540098, 0.009008, -0.087260, 0.000021, 0.000020, 0.000017, -0.000015, -0.142073, 0.000045, -0.000001, 0.000006, 0.635622, 0.178067, -0.000023, 0.000027, 0.477878, 0.000011, -0.000001, 0.249798, -0.000021, -0.003117, 0.000032, 0.068560, 0.000058}, {-0.198484, 0.000095, 0.000019, 0.000025, 0.115706, -0.001453, -0.000033, -0.000001, -0.200896, -0.000025, -0.282553, 0.000007, -0.000012, -0.000003, 0.000022, -0.001365, -0.132243, 0.072396, 0.102368, 0.000013, -0.000007, 0.000021, -0.000007, 0.093383, -0.000074, 0.000017, 0.000003, -0.201142, -0.034228, 0.000010, -0.000027, -0.609188, -0.000038, 0.000029, -0.227285, -0.000013, 0.117718, -0.000011, 0.034952, -0.000012}, {0.023933, -0.000086, 0.000023, 0.000020, -0.007175, 0.001338, 0.000001, -0.000021, 0.037078, 0.000035, -0.051376, 0.000001, 0.000015, 0.000024, 0.000029, 0.000916, 0.012326, -0.069981, 0.079932, -0.000012, 0.000023, 0.000006, 0.000009, -0.064608, 0.000133, 0.000015, -0.000010, 0.021465, -0.008397, 0.000019, -0.000003, 0.011961, 0.000114, 0.000033, -0.018567, 0.000031, -0.039527, -0.000009, 0.101966, 0.000020}, {-0.747298, -0.000155, 0.000015, 0.000002, -0.557224, -0.002190, -0.000021, 0.000018, -0.280958, -0.000015, -0.036174, -0.000017, 0.000011, -0.000022, -0.000004, 0.000654, -0.543983, 0.078281, 0.027398, -0.000023, -0.000029, -0.000011, -0.000015, 0.261759, 0.000024, -0.000024, -0.000042, -0.313224, 0.130311, 0.000004, -0.000000, 0.165587, 0.000012, 0.000020, -0.318228, -0.000002, -0.456984, -0.000009, -0.055436, -0.000042}, {-0.346704, 0.000126, -0.000005, 0.000009, 0.302697, -0.001594, -0.000014, 0.000007, -0.206774, 0.000024, -0.627411, 0.000012, 0.000015, -0.000013, 0.000031, 0.000936, -0.620429, -0.052666, 0.090476, 0.000002, -0.000011, 0.000010, 0.000011, 0.158607, -0.000092, 0.000033, 0.000042, -0.725848, -0.283709, 0.000001, 0.000001, -0.369957, -0.000061, -0.000021, -0.227162, 0.000002, -0.050021, 0.000005, -0.125672, 0.000018}, {0.588139, 0.000082, 0.000008, -0.000017, 0.584513, 0.000435, -0.000010, -0.000002, 0.207134, 0.000016, -0.139239, 0.000013, -0.000012, -0.000005, 0.000002, 0.000341, 0.400684, -0.071741, 0.019965, 0.000011, -0.000004, 0.000028, -0.000013, -0.237021, -0.000036, 0.000030, 0.000015, 0.204719, -0.203264, 0.000003, 0.000007, -0.377132, -0.000007, 0.000012, 0.180179, -0.000018, 0.271048, -0.000006, -0.048011, -0.000006}, {-0.065402, -0.000054, -0.000010, -0.000001, -0.170199, 0.001358, -0.000006, -0.000015, -0.007439, 0.000001, 0.025157, -0.000012, 0.000006, 0.000035, 0.000014, 0.000801, 0.047280, 0.549685, 0.285256, 0.000012, -0.000015, 0.000012, -0.000015, 0.355580, 0.000151, 0.000004, 0.000016, -0.021993, 0.495569, 0.000006, -0.000014, -0.194194, 0.000117, -0.000024, 0.107047, -0.000017, 0.567600, 0.000006, 0.534713, 0.000050}, {-0.221114, 0.000071, 0.000009, -0.000010, 0.096175, -0.001838, -0.000020, -0.000019, -0.191604, -0.000012, -0.278524, -0.000012, 0.000007, 0.000026, -0.000014, -0.001222, -0.150807, 0.073114, 0.103076, 0.000002, 0.000014, -0.000005, -0.000017, 0.108263, -0.000050, -0.000002, -0.000004, -0.219522, -0.031655, 0.000020, -0.000016, -0.567419, -0.000012, -0.000022, -0.217793, 0.000013, 0.110785, 0.000004, 0.037031, -0.000056}, {-0.476271, -0.000063, 0.000002, -0.000011, -0.474469, -0.002242, -0.000000, -0.000021, -0.614343, -0.000023, -0.133438, -0.000021, 0.000009, -0.000005, 0.000011, 0.001396, -0.115827, 0.052303, -0.314716, 0.000015, -0.000023, -0.000015, 0.000007, 0.150152, -0.000033, 0.000019, -0.000021, 0.098672, 0.349919, 0.000011, -0.000021, 0.115740, -0.000030, 0.000017, -0.564172, -0.000013, -0.289150, 0.000002, -0.071411, -0.000030}, {-0.342197, 0.000098, 0.000016, 0.000022, 0.369248, -0.001077, 0.000000, -0.000011, -0.165274, 0.000038, -0.470460, -0.000002, 0.000012, -0.000016, -0.000012, 0.000423, -0.610052, -0.077742, 0.097468, 0.000023, -0.000012, 0.000013, 0.000018, 0.203483, -0.000007, 0.000014, 0.000061, -0.694238, -0.391802, -0.000013, -0.000003, -0.222446, 0.000014, 0.000000, -0.190539, 0.000009, -0.112112, 0.000001, -0.182632, 0.000006}, {0.027073, -0.000098, 0.000027, -0.000003, -0.023467, 0.001314, -0.000008, -0.000021, 0.046192, 0.000029, -0.030065, 0.000010, 0.000010, 0.000014, -0.000004, 0.001011, 0.012574, -0.068311, 0.093602, -0.000017, 0.000014, 0.000002, -0.000019, -0.081842, 0.000183, -0.000017, 0.000015, 0.009215, -0.008629, 0.000005, -0.000028, 0.015713, 0.000168, 0.000042, -0.000567, -0.000016, -0.026675, 0.000009, 0.089422, 0.000032}, {0.314939, -0.000105, -0.000005, -0.000000, -0.289894, 0.001546, -0.000001, 0.000017, 0.216055, 0.000002, 0.613061, -0.000010, -0.000031, -0.000016, 0.000005, -0.000307, 0.548564, 0.039031, -0.077508, -0.000014, 0.000009, -0.000008, 0.000014, -0.131460, -0.000016, -0.000009, -0.000039, 0.649212, 0.252742, -0.000011, -0.000024, 0.438022, -0.000001, -0.000002, 0.238217, -0.000005, 0.030597, -0.000015, 0.109560, -0.000006}, {-0.272495, 0.000119, 0.000000, 0.000021, 0.281892, -0.001137, 0.000019, 0.000008, -0.222879, 0.000052, -0.519218, 0.000012, -0.000008, 0.000001, 0.000004, -0.000450, -0.457945, -0.041760, 0.052590, -0.000013, 0.000022, 0.000013, -0.000011, 0.102866, -0.000012, 0.000018, 0.000064, -0.548416, -0.274775, -0.000017, -0.000008, -0.411574, 0.000003, -0.000014, -0.247498, -0.000038, -0.048595, 0.000030, -0.127885, 0.000017}, {-0.261829, -0.000041, -0.000006, -0.000028, 0.095142, -0.001853, -0.000021, 0.000003, -0.054922, -0.000003, -0.020234, 0.000026, -0.000027, -0.000016, 0.000014, -0.000654, -0.342823, 0.023028, 0.158990, -0.000004, -0.000015, -0.000019, -0.000017, 0.334357, -0.000033, -0.000029, -0.000016, -0.243527, -0.291562, 0.000023, -0.000021, 0.046991, -0.000047, -0.000025, -0.107127, -0.000002, -0.152567, -0.000014, -0.122400, -0.000067}, {0.634930, 0.000120, -0.000014, 0.000023, 0.623095, 0.003259, -0.000018, 0.000008, 0.294912, 0.000024, -0.052649, 0.000019, 0.000023, 0.000034, 0.000020, -0.000299, 0.440260, -0.064195, -0.023563, 0.000012, -0.000008, 0.000022, 0.000003, -0.258692, -0.000027, 0.000029, 0.000017, 0.174882, -0.192398, -0.000011, -0.000011, -0.277080, -0.000016, 0.000026, 0.293231, -0.000012, 0.402727, -0.000013, 0.024769, 0.000069}, {0.065498, 0.000031, 0.000015, 0.000000, 0.171173, -0.000755, 0.000017, -0.000016, 0.008515, 0.000013, -0.023725, -0.000015, -0.000027, 0.000004, 0.000009, -0.000757, -0.044945, -0.560701, -0.289151, -0.000010, -0.000016, -0.000026, 0.000026, -0.362647, -0.000091, -0.000017, 0.000006, 0.023153, -0.506608, -0.000012, -0.000000, 0.193251, -0.000066, 0.000026, -0.106581, 0.000001, -0.577243, -0.000016, -0.545653, -0.000005}, {-0.250416, -0.000064, 0.000002, -0.000027, 0.029267, -0.001861, -0.000007, -0.000019, 0.058830, 0.000011, 0.030633, -0.000000, -0.000018, -0.000016, 0.000010, -0.000584, -0.294957, -0.009202, 0.234489, 0.000008, 0.000020, 0.000001, 0.000003, 0.410204, 0.000008, -0.000006, -0.000033, -0.087890, -0.216065, -0.000020, -0.000003, 0.159035, 0.000008, 0.000004, -0.016499, -0.000003, -0.191801, 0.000013, -0.086305, -0.000022}, {0.174485, -0.000053, 0.000013, -0.000016, -0.191084, 0.001009, -0.000008, -0.000021, 0.259100, -0.000008, 0.388905, -0.000009, 0.000022, 0.000027, 0.000026, 0.001149, 0.195999, -0.033837, -0.059024, 0.000008, -0.000016, -0.000011, 0.000004, -0.024742, 0.000131, 0.000007, -0.000027, 0.266664, 0.105158, 0.000015, -0.000021, 0.744730, 0.000066, -0.000016, 0.290839, 0.000015, -0.078897, -0.000015, 0.021387, 0.000012}, {-0.440746, -0.000146, -0.000008, -0.000010, 0.167759, -0.002032, -0.000021, -0.000003, -0.217943, -0.000009, -0.609343, -0.000011, -0.000027, -0.000053, 0.000019, -0.000037, -0.712628, -0.039669, 0.105990, -0.000000, 0.000006, 0.000010, -0.000021, 0.198296, 0.000023, 0.000003, -0.000028, -0.806430, -0.247707, -0.000003, 0.000014, -0.262980, 0.000015, 0.000005, -0.239186, -0.000001, -0.066616, -0.000006, -0.114047, -0.000043}, {-0.574913, 0.000028, 0.000017, 0.000012, -0.006334, -0.001829, -0.000010, 0.000011, -0.226564, 0.000019, -0.485285, 0.000019, -0.000007, -0.000028, -0.000011, 0.001701, -0.812960, -0.034735, 0.098243, 0.000003, 0.000010, 0.000014, -0.000002, 0.238717, 0.000004, 0.000001, 0.000024, -0.840783, -0.228415, -0.000011, 0.000013, -0.133385, -0.000006, 0.000016, -0.254802, -0.000007, -0.174684, 0.000002, -0.140802, 0.000014}, {-0.401374, -0.000081, 0.000009, -0.000034, 0.079590, -0.002235, -0.000033, -0.000023, -0.240093, 0.000002, -0.493988, 0.000009, 0.000003, -0.000063, -0.000029, -0.000453, -0.574106, -0.033752, 0.067330, -0.000011, -0.000024, -0.000026, -0.000014, 0.165931, -0.000026, 0.000004, -0.000030, -0.646713, -0.238891, -0.000023, -0.000003, -0.250407, -0.000001, -0.000018, -0.262951, -0.000028, -0.083210, -0.000017, -0.122118, -0.000072}, {-0.001461, 0.000059, 0.000017, 0.000003, -0.015079, 0.000441, 0.000009, -0.000024, -0.200974, -0.000003, 0.041249, 0.000024, -0.000004, 0.000087, 0.000041, -0.001017, -0.007134, 0.036887, -0.086775, 0.000024, 0.000006, -0.000001, 0.000003, 0.110991, 0.000082, -0.000007, 0.000029, -0.036200, -0.088758, 0.000044, 0.000025, 0.022893, 0.000202, 0.000036, 0.230973, 0.000009, 0.140497, 0.000018, -0.070702, 0.000019}, {0.415588, 0.000056, -0.000008, -0.000029, 0.544472, 0.001643, -0.000014, -0.000017, 0.356073, -0.000020, 0.025761, 0.000007, 0.000026, 0.000022, -0.000002, -0.000658, 0.255017, -0.032807, 0.007217, 0.000003, 0.000021, 0.000001, 0.000016, -0.261193, -0.000003, -0.000023, 0.000015, -0.034548, -0.229947, 0.000008, -0.000004, -0.162241, -0.000015, -0.000009, 0.334345, -0.000001, 0.397142, -0.000013, 0.067826, 0.000019}, {-0.050609, -0.000008, 0.000015, 0.000029, -0.159751, 0.001565, 0.000009, -0.000007, 0.001159, 0.000029, 0.021838, 0.000032, 0.000001, 0.000039, -0.000009, 0.000742, 0.054042, 0.560330, 0.294019, 0.000021, -0.000010, 0.000048, 0.000014, 0.356834, 0.000047, -0.000006, 0.000009, -0.017820, 0.504269, -0.000020, -0.000007, -0.204408, 0.000020, 0.000000, 0.118916, -0.000008, 0.586849, 0.000040, 0.546934, 0.000061}, {0.059556, 0.000066, 0.000020, 0.000014, 0.167682, -0.001697, 0.000016, 0.000018, 0.003472, 0.000010, -0.025287, 0.000014, -0.000006, 0.000020, 0.000010, -0.000643, -0.051076, -0.550693, -0.287333, 0.000018, 0.000022, 0.000015, 0.000017, -0.353537, -0.000112, 0.000008, -0.000011, 0.019577, -0.496093, -0.000017, -0.000001, 0.197111, -0.000087, 0.000012, -0.112331, 0.000009, -0.572108, -0.000007, -0.536381, -0.000010}};
static const float * p_layer_0_weight = layer_0_weight;
static const float layer_0_bias[40] = {-0.142482, -0.498165, -0.041377, -0.074986, -0.323497, -0.447713, -0.313272, -0.137942, -0.390104, -0.253794, 0.253786, -0.201307, -0.061915, -0.214477, -0.034435, -0.049415, 0.126131, 0.123795, 0.403313, -0.114681, -0.217234, -0.065304, -0.274942, 0.356467, -0.107517, -0.082229, -0.139254, 0.052503, 0.151046, -0.083717, -0.146564, 0.187148, -0.095338, -0.132359, -0.390871, -0.069184, 0.292588, -0.142228, 0.189144, -0.258050};
static const float * p_layer_0_bias = layer_0_bias;
static const float layer_1_weight[40][40] = {{-0.000566, -0.001576, -0.007596, 0.199932, -0.009102, -0.141581, 0.306002, -0.003750, -0.002948, 0.434075, -0.001556, 0.450666, 0.003011, -0.005823, -0.020664, -0.005804, 0.007583, -0.004214, -0.006961, 0.338276, -0.009855, 0.308501, -0.008237, 0.154049, 0.003619, -0.004165, 0.181645, -0.013323, -0.026238, 0.002557, -0.007232, -0.012964, -0.008411, 0.000250, -0.004525, 0.390049, -0.005829, 0.442757, 0.395871, 0.004290}, {0.000328, 0.011796, -0.000009, -0.020987, -0.002356, -0.018744, -0.023666, 0.009750, -0.010007, -0.024055, -0.000012, 0.020484, -0.006889, -0.015863, -0.009120, -0.007725, -0.002987, -0.007312, -0.000852, -0.007821, 0.009097, -0.018074, -0.007077, 0.004931, 0.009406, -0.005464, -0.005062, -0.004205, -0.024271, -0.001070, 0.000536, -0.001645, 0.001800, -0.009351, 0.008673, -0.017297, -0.003488, -0.033341, 0.005594, 0.002203}, {0.001832, 0.003823, -0.001240, 0.000724, -0.007818, -0.001005, -0.019625, 0.005463, 0.005587, 0.007826, -0.010493, 0.001152, -0.007506, -0.004498, -0.004656, -0.006796, -0.005264, 0.008800, 0.005766, -0.000612, -0.008443, -0.008366, -0.012601, -0.008851, -0.009303, 0.003221, 0.006057, 0.000340, -0.004507, -0.006002, -0.003354, -0.008580, 0.004964, -0.007792, -0.002911, 0.007929, -0.001191, 0.002526, -0.001213, -0.001337}, {0.000776, 0.001731, -0.010320, 0.004030, -0.004659, 0.003364, -0.002192, -0.001522, -0.007920, -0.010378, -0.008867, -0.005877, 0.002925, -0.012977, 0.003875, -0.001057, 0.004951, -0.015039, 0.003372, -0.001609, -0.004696, -0.000304, -0.003043, -0.003005, -0.003646, -0.005729, 0.005300, 0.005812, -0.002090, -0.003813, -0.013052, -0.007172, 0.003479, -0.011710, 0.004922, -0.009788, 0.001309, -0.005739, 0.002351, -0.008783}, {0.005178, -0.003169, -0.000247, 0.000753, -0.019968, 0.620538, -0.319388, -0.004533, -0.020674, 0.127339, -0.001823, -0.257102, -0.009135, -0.014373, 0.000041, -0.008848, -0.010632, -0.012944, -0.002541, -1.208316, -0.003476, 0.499468, -0.014707, -0.301668, 0.007090, -0.000205, -0.043399, -0.007343, -0.008797, 0.002103, -0.005079, -0.002500, 0.005140, -0.007550, 0.006086, -0.169857, -0.003361, 0.220271, -0.644795, -0.007320}, {-0.000682, -0.003348, -0.003619, 0.113542, 0.001638, 0.011628, 0.026781, 0.001815, -0.021733, -0.068072, -0.008525, 0.016390, -0.015837, -0.020797, -0.018385, -0.009960, 0.004907, -0.010107, -0.007999, 0.012744, 0.008276, -0.023724, -0.017558, 0.013287, -0.002456, -0.010638, 0.068413, -0.000181, -0.023290, -0.009028, -0.027826, -0.009099, -0.004225, -0.008659, 0.002137, -0.031650, 0.008017, 0.004072, 0.023913, -0.017603}, {0.006801, 0.002501, -0.001646, 0.009072, -0.002573, 0.004902, 0.012678, 0.009011, -0.002546, 0.004069, -0.009857, 0.004618, 0.006173, -0.006440, 0.008714, -0.009643, 0.005401, 0.007608, 0.002584, 0.007262, 0.008887, -0.002283, 0.010387, 0.002822, 0.006636, 0.009452, -0.003809, 0.007883, -0.006736, 0.008614, 0.009404, -0.007816, 0.000062, 0.007414, 0.003747, 0.005930, -0.003371, -0.004068, 0.005057, -0.007683}, {0.006283, 0.004970, -0.007339, 0.006014, -0.008899, 0.001699, -0.000453, -0.007192, 0.006217, 0.007447, -0.000111, -0.004934, -0.002909, -0.000610, -0.003595, 0.001463, 0.004179, -0.006379, -0.001451, -0.009244, 0.002936, 0.003016, 0.003723, 0.005920, -0.004656, 0.006443, -0.003226, -0.011264, 0.004508, -0.009211, -0.003751, -0.001516, 0.001827, 0.009832, 0.001845, -0.006287, -0.006754, 0.001378, -0.000316, -0.004631}, {-0.007608, 0.002316, -0.009684, 0.093031, 0.007942, 0.207268, 0.849796, 0.005991, 0.013386, 0.364492, -0.004666, 0.798133, -0.001991, 0.010526, 0.009066, -0.002273, -0.003580, -0.008559, -0.007275, 0.356913, -0.006565, 0.193766, -0.009251, 0.122801, 0.006727, -0.005565, -1.193826, 0.003454, 0.003158, -0.003826, 0.002866, 0.010396, 0.006390, -0.006562, -0.000343, -0.669620, -0.001774, 0.890535, 0.912763, -0.001738}, {0.003519, -0.003356, 0.000514, 0.004450, 0.008972, -0.003749, -0.002003, -0.007328, -0.006387, -0.000699, 0.010032, -0.007144, 0.005187, 0.005157, 0.012471, 0.001067, -0.008891, -0.005875, -0.001457, -0.010247, 0.003025, 0.011362, 0.000189, -0.003383, -0.009573, -0.001801, 0.008670, 0.008321, -0.000586, -0.007384, -0.006613, -0.006377, -0.002582, 0.002085, 0.003637, -0.002209, 0.004223, 0.003269, -0.011291, -0.006749}, {-0.006193, 0.001628, -0.008128, 0.035738, 0.008700, 0.121940, 0.215734, 0.002748, -0.037259, -0.404909, -0.010450, 0.309295, -0.005117, -0.034804, -0.038983, 0.008584, -0.006886, -0.008346, -0.009019, 0.166360, 0.000638, -0.382957, -0.004941, -0.042051, 0.009640, 0.005115, -0.457235, -0.008932, -0.053122, -0.007462, -0.025782, -0.013767, -0.000329, 0.003982, -0.009011, -0.420546, 0.000509, 0.228589, 0.254689, -0.010144}, {0.003068, 0.011489, -0.008406, -0.008752, 0.000442, 0.011566, -0.005571, -0.005183, -0.005541, 0.008875, 0.003572, -0.002610, 0.000610, -0.000640, -0.003710, 0.003181, 0.008701, -0.008859, -0.003176, 0.005685, -0.003767, -0.003592, 0.004481, 0.004920, -0.004756, -0.003971, -0.004939, -0.008446, 0.006693, -0.003736, 0.001399, -0.007132, -0.004519, -0.008962, -0.006287, -0.008028, 0.004235, 0.000273, 0.011422, -0.006458}, {0.008113, -0.006856, 0.000983, 0.002417, -0.003819, 0.006583, -0.011249, -0.001337, 0.007655, -0.002546, -0.003233, 0.010740, 0.009435, -0.009242, 0.003199, 0.005517, -0.007646, -0.008225, -0.002310, -0.009371, -0.003867, 0.010173, -0.005839, 0.002565, 0.004329, -0.007308, 0.003597, 0.002609, -0.007683, -0.001987, -0.001573, -0.014122, -0.001336, 0.001765, 0.006985, -0.004744, 0.002444, -0.012121, 0.015333, -0.002036}, {-0.006974, -0.004291, 0.000233, -0.001277, -0.002992, -0.001342, 0.001969, 0.002391, 0.009725, -0.000380, 0.004645, -0.010818, 0.008555, -0.004247, 0.007477, -0.004900, 0.009629, 0.005002, -0.011368, 0.005458, -0.004034, 0.011635, 0.000629, -0.002212, 0.005048, -0.009460, 0.011702, 0.001382, 0.001052, -0.012964, -0.007464, -0.004107, -0.004310, -0.005050, 0.009904, 0.001216, 0.005141, -0.004314, -0.001148, -0.002580}, {0.003741, 0.002282, 0.005934, -0.009186, 0.001260, -0.014837, 0.001043, -0.008198, -0.002801, 0.008067, -0.005652, -0.009081, -0.004055, -0.013606, -0.011506, 0.003065, -0.005715, -0.001268, -0.004489, -0.019357, -0.003729, -0.001776, -0.005767, 0.006288, -0.002185, -0.005928, -0.003883, -0.012345, -0.002802, -0.002260, -0.010282, -0.015162, -0.005404, 0.006257, -0.005360, -0.002531, -0.006696, -0.000533, -0.012629, 0.008066}, {-0.001271, 0.007128, 0.002387, 0.026391, 0.001805, -0.019297, 0.013996, 0.003018, -0.009600, 0.013930, -0.012943, 0.049600, 0.000060, -0.003394, -0.017131, -0.001229, 0.004980, -0.000187, 0.005758, 0.007410, 0.006735, 0.010307, -0.009645, -0.016098, 0.002325, -0.010334, -0.014907, -0.008449, -0.012242, 0.004439, -0.003372, -0.000404, -0.001433, -0.001814, -0.002543, -0.008295, 0.009493, 0.040826, -0.056865, 0.003472}, {0.003985, 0.006344, 0.005556, 0.128861, 0.007635, -0.063051, 0.503257, -0.012402, -0.007463, -0.268169, 0.004427, 0.489231, -0.007377, -0.014150, -0.006307, 0.000563, -0.005919, -0.005218, 0.008306, 0.381971, -0.003654, -0.167579, -0.004934, -0.150775, -0.001626, 0.004313, -0.456877, -0.006709, -0.010688, 0.000461, 0.000197, -0.015822, 0.006755, -0.007975, -0.006549, -0.491217, -0.002286, 0.329252, 0.568046, 0.001735}, {-0.001999, 0.002395, -0.002494, -0.215217, 0.005955, -0.251822, 0.268374, 0.002479, -0.011741, 0.419267, -0.012378, -0.063492, 0.003785, 0.002460, -0.012931, -0.002623, -0.003680, -0.003760, 0.000637, -0.832281, -0.003008, 0.416689, -0.009298, -0.040733, -0.003081, 0.001745, 0.327354, 0.004490, 0.003593, 0.000294, -0.013701, -0.006633, -0.009883, -0.007368, -0.005054, 0.352750, 0.000274, 0.766780, 0.168123, 0.002248}, {-0.006233, 0.006162, 0.003598, -0.291253, 0.000443, 0.453794, -0.679210, -0.000827, -0.021643, 0.255390, -0.013367, -0.797666, -0.009467, -0.005572, -0.000804, -0.000063, -0.006006, 0.009145, -0.000715, -0.463579, -0.006382, 0.260804, -0.000602, -0.012886, -0.005634, 0.002538, 0.210368, -0.008122, 0.005201, -0.001724, -0.000778, 0.001226, -0.009016, -0.011325, -0.003213, 0.207808, 0.009531, -0.216584, -0.475255, 0.000547}, {0.007364, -0.001109, 0.000946, -0.002595, 0.001342, 0.006328, -0.008444, -0.001402, 0.006013, 0.006658, 0.000761, 0.005416, -0.003866, -0.001665, -0.007609, 0.000792, 0.001384, 0.002554, -0.002467, -0.007589, -0.000801, 0.002172, 0.001771, 0.006647, -0.008470, 0.001034, -0.008438, 0.002098, -0.003472, -0.005437, -0.007947, -0.006445, -0.002889, -0.004455, 0.004447, -0.008850, 0.006295, -0.000987, 0.002644, 0.003801}, {-0.002410, -0.009251, 0.005648, 0.005299, 0.000137, -0.008612, -0.008420, 0.005907, 0.004482, 0.008215, -0.000842, 0.002793, -0.001611, 0.008426, -0.000981, 0.001803, 0.004256, 0.000623, 0.004035, -0.009155, 0.006582, -0.005513, 0.001114, 0.009802, -0.003932, 0.006916, -0.003505, -0.001258, -0.003448, -0.003838, -0.006228, -0.001848, 0.000637, -0.002222, -0.002941, 0.010159, 0.000427, 0.006739, -0.008431, 0.009611}, {-0.005488, -0.008746, -0.008225, -0.007856, 0.003438, 0.007958, 0.002988, -0.008216, 0.003195, 0.003129, 0.007512, -0.002021, 0.005840, 0.002952, 0.012777, 0.005579, 0.008179, 0.007273, -0.004826, -0.009198, 0.006932, -0.005435, 0.006582, -0.004585, -0.004519, -0.006965, -0.006053, 0.000329, -0.000346, -0.000700, -0.004909, 0.008017, 0.009628, 0.007423, 0.002623, 0.003725, 0.004024, -0.012737, -0.000549, -0.001161}, {0.002622, 0.001919, -0.000342, -0.009921, -0.000924, 0.005390, 0.001724, -0.002586, 0.002447, 0.000644, -0.001781, -0.003657, 0.003243, 0.011849, -0.006201, 0.003731, 0.008466, 0.007874, -0.000654, 0.001104, 0.002877, -0.004066, -0.006734, 0.008793, 0.005842, 0.003969, 0.012187, 0.004582, 0.001550, 0.010574, -0.002236, -0.007967, -0.004298, 0.008974, -0.007499, 0.010384, -0.000807, 0.003886, -0.007150, -0.003145}, {-0.007710, -0.006720, -0.005831, -0.197552, -0.035769, 0.515137, 0.152996, 0.004826, -0.006072, 0.223502, 0.003732, -0.972191, -0.005977, 0.000393, -0.001894, 0.005519, -0.005317, 0.000889, -0.005830, -0.933580, -0.003649, 0.274398, -0.008676, -0.031229, -0.004203, -0.009600, 0.173122, 0.005416, 0.005475, 0.002723, -0.013619, -0.006823, -0.001074, -0.004469, -0.007657, 0.187124, -0.006685, 0.145805, -0.942247, -0.010465}, {0.002711, -0.006163, -0.000105, -0.013835, -0.009135, -0.029827, 0.015656, -0.005483, -0.009119, 0.006317, 0.008065, 0.007933, 0.005787, -0.007690, -0.018146, -0.000606, -0.008100, -0.001655, 0.007307, -0.027730, -0.006738, 0.002156, -0.007224, -0.012634, 0.003947, -0.009955, 0.000576, -0.006635, -0.009589, -0.009037, 0.001145, -0.009168, -0.008064, -0.007147, -0.005004, -0.004315, 0.002364, 0.015807, 0.004263, -0.005171}, {-0.006123, 0.002844, -0.003636, -0.007260, 0.006310, 0.004586, -0.008549, -0.013077, -0.004594, -0.001352, -0.007791, 0.003645, 0.003564, 0.005816, 0.012921, -0.006051, -0.008640, -0.003670, -0.003032, 0.007591, -0.003958, -0.002140, -0.003844, 0.000007, -0.009948, 0.000120, -0.003031, 0.005131, 0.010939, -0.009425, -0.001397, 0.008153, -0.002495, 0.006850, -0.005681, 0.005769, 0.000814, -0.003279, 0.000287, -0.008495}, {-0.004768, 0.006319, 0.007451, 0.001139, 0.009875, 0.002887, 0.006877, 0.002878, -0.009260, 0.005200, 0.005073, 0.000041, 0.003828, -0.007053, 0.002236, -0.002653, 0.007169, -0.001672, -0.007021, -0.001646, -0.002351, 0.002358, -0.005507, -0.000836, -0.007245, -0.009196, 0.001475, -0.007462, -0.009889, 0.002126, -0.004587, 0.006148, -0.000126, -0.003887, 0.001122, -0.009923, 0.006609, 0.005072, 0.000635, 0.008050}, {0.003780, 0.001156, -0.000586, 0.199403, -0.008796, -0.019068, 0.379102, -0.012956, -0.011357, -0.373052, -0.010814, 0.503187, -0.015401, -0.009953, -0.008179, -0.009609, -0.007421, -0.003534, -0.009042, 0.443126, 0.004301, -0.422810, 0.001355, -0.011848, -0.007383, 0.000683, -0.545279, -0.000136, -0.048161, -0.009857, -0.006980, -0.009183, -0.004320, -0.005119, 0.002199, -0.510145, 0.005501, 0.144908, 0.477500, -0.009425}, {-0.000318, -0.008768, -0.005534, 0.020379, -0.009607, -0.366852, 0.689642, 0.007524, 0.005670, 0.524006, 0.003196, 0.262980, 0.006902, 0.000833, -0.014442, 0.003285, 0.006357, -0.004226, -0.002159, -0.330045, 0.001241, 0.477187, -0.017782, 0.085225, 0.003383, -0.003244, 0.465629, 0.001711, -0.001716, 0.000641, -0.003365, -0.006666, 0.002855, -0.010607, -0.005391, 0.471548, -0.008565, 0.083596, 0.514078, 0.006012}, {-0.001844, -0.007683, 0.003736, -0.024266, -0.003485, -0.018800, -0.009262, -0.004109, 0.000950, -0.003676, -0.006869, -0.002490, 0.003483, -0.004465, -0.010495, 0.005119, 0.004452, -0.007088, -0.014322, -0.017280, -0.001947, -0.003702, 0.003953, -0.002492, -0.000216, -0.006058, 0.007226, -0.005540, -0.003188, -0.013237, 0.004918, -0.007977, 0.002095, -0.002058, -0.008819, 0.009611, -0.001466, -0.011212, -0.007943, -0.005871}, {0.003969, -0.003519, -0.000496, -0.000505, -0.000358, 0.003166, -0.003510, -0.008677, 0.003669, 0.000226, 0.002336, -0.000088, -0.009913, 0.006961, 0.001399, -0.006358, -0.006416, -0.002063, -0.007003, -0.003634, -0.001308, -0.001951, -0.008201, -0.004629, 0.009172, 0.001287, -0.008759, 0.008869, 0.002941, 0.007518, 0.004905, 0.006686, -0.001064, -0.008194, 0.005249, -0.006758, 0.007253, 0.009403, 0.003894, -0.007864}, {-0.002436, -0.013881, -0.006326, -0.089576, -0.004208, -0.254580, 0.112763, -0.011474, -0.045265, -0.471447, -0.008332, 0.149080, -0.002104, -0.038506, -0.052070, -0.013613, 0.003836, -0.001364, 0.001457, 0.259161, -0.000901, -0.378704, -0.015512, -0.113552, -0.007786, -0.006240, -0.532108, -0.027728, -0.087522, -0.006595, -0.012333, -0.004655, -0.004108, -0.017016, -0.004484, -0.505593, -0.006965, 0.002908, 0.033797, 0.000773}, {-0.007203, -0.008335, -0.008769, -0.037380, 0.009628, -0.021782, -0.039294, 0.007118, -0.008287, 0.001268, -0.011048, -0.028960, -0.003033, -0.009684, -0.002625, -0.009794, -0.005692, -0.009309, 0.006005, -0.033449, -0.003929, 0.002719, -0.013305, -0.000533, 0.006228, -0.014895, -0.009629, -0.013776, -0.011471, 0.002714, -0.002904, -0.003434, -0.002001, 0.006275, -0.004187, 0.004326, -0.003890, -0.028215, -0.017859, 0.004435}, {0.006519, -0.004668, 0.001740, -0.011077, 0.000006, -0.000109, 0.005403, 0.012334, 0.003675, -0.003171, -0.005536, -0.003559, -0.009009, -0.005651, 0.002758, 0.000126, 0.003242, -0.005684, -0.008068, -0.006788, -0.005856, 0.002505, -0.005966, -0.007598, -0.007431, 0.000561, 0.000706, -0.000628, -0.010005, 0.002829, -0.007058, -0.007089, 0.001716, -0.001700, -0.008633, -0.003537, -0.000233, 0.009092, 0.002976, -0.000097}, {-0.006231, 0.003174, -0.005655, 0.258009, -0.003919, 0.267570, 0.580859, -0.007925, 0.003833, 0.443417, -0.001290, 0.560897, -0.006966, 0.010543, -0.002847, -0.003047, -0.008759, -0.014712, -0.000274, 0.142586, -0.004475, 0.319836, -0.008209, 0.057268, 0.009666, -0.002359, -1.003016, 0.002202, -0.010081, -0.006462, -0.004119, 0.002234, -0.000793, -0.000286, -0.008324, -0.575568, 0.004284, 0.696574, 0.664610, 0.003055}, {0.000601, -0.005402, 0.006683, -0.007262, -0.007996, -0.007646, -0.001535, -0.001099, -0.000601, 0.007316, -0.009335, -0.017001, -0.000701, -0.003005, 0.005711, 0.002116, -0.001573, -0.003630, 0.008425, -0.006471, -0.008176, -0.001145, 0.000793, -0.008399, -0.009170, -0.003968, 0.006788, -0.013023, 0.003932, -0.004966, -0.006553, 0.004374, -0.004718, -0.009038, 0.003643, -0.010804, 0.005748, 0.010872, -0.004592, 0.002564}, {0.002108, -0.004780, -0.007129, 0.336901, 0.005923, -0.610535, -1.035820, -0.008520, -0.019838, 0.392584, 0.003019, -0.781856, 0.006016, -0.005016, -0.020447, -0.002304, -0.001362, -0.003477, -0.000540, -0.441339, -0.003095, 0.399264, -0.002980, 0.014481, -0.007021, -0.011740, 0.373041, -0.015201, -0.001491, -0.010108, -0.011371, 0.002627, 0.002490, -0.012084, -0.006126, 0.380056, -0.006860, -0.795215, -0.783640, 0.004051}, {-0.000009, 0.000994, -0.004088, 0.006503, 0.001122, -0.008107, -0.004207, -0.006313, -0.005959, 0.002856, 0.004205, -0.003191, -0.002708, -0.001079, -0.002638, 0.004405, 0.006154, 0.005306, 0.001963, -0.010604, -0.001220, -0.001712, 0.007757, -0.008469, -0.009214, 0.000720, 0.000592, 0.004998, 0.009036, 0.007413, -0.000266, 0.005326, 0.008969, 0.006977, 0.002885, 0.001063, 0.008680, 0.006368, -0.012615, 0.005533}, {0.009930, -0.004189, -0.004248, -0.170564, -0.009253, -0.184219, -0.686656, -0.008589, -0.010831, 0.399344, -0.002883, -0.521910, -0.003669, 0.003344, -0.003145, -0.009337, -0.000521, -0.004089, -0.000998, -0.595766, 0.005216, 0.397440, -0.004125, -0.008586, 0.003001, -0.014711, 0.327917, 0.001537, -0.010401, 0.003394, -0.012612, 0.002068, 0.007658, 0.007487, -0.006096, 0.344883, -0.005093, 0.093813, -0.688755, 0.001176}, {0.003039, -0.009705, -0.009912, 0.014859, 0.000770, 0.002980, 0.012809, -0.004683, 0.005079, 0.006606, 0.002865, 0.006018, -0.005754, 0.000286, 0.003074, -0.002318, 0.003496, -0.000471, 0.000583, 0.007018, -0.002944, 0.006073, 0.004566, -0.002871, -0.006372, -0.003509, 0.008981, -0.007133, 0.002491, 0.007511, 0.011484, 0.000568, -0.001754, 0.006895, -0.001057, 0.007254, 0.001213, 0.017474, 0.010036, -0.002196}};
static const float * p_layer_1_weight = layer_1_weight;
static const float layer_1_bias[40] = {-0.114832, -0.125278, -0.086305, -1.400816, -0.139100, -0.744728, -0.573944, -0.114602, -0.132245, 0.317541, -0.073953, -0.180746, -0.125309, -0.068257, -0.018174, -0.075872, -0.093199, -0.104662, -0.034323, 0.087233, -0.144983, 0.508907, -0.154411, -0.097235, -0.120815, -0.051128, 0.250131, -0.052507, -0.051624, -0.131218, -0.043749, -0.012875, -0.104272, -0.007490, -0.115717, 0.199828, -0.110782, -0.810083, -0.351613, -0.052709};
static const float * p_layer_1_bias = layer_1_bias;
static const float layer_2_weight[40][40] = {{0.056414, -0.031428, 0.077095, 0.128591, -0.090633, 0.045371, -0.005300, -0.040754, -0.007115, 0.094683, 0.072875, -0.073137, -0.077061, 0.085930, -0.116767, 0.110548, 0.014409, 0.082929, -0.028507, 0.049600, -0.034463, -0.001650, 0.143819, -0.034890, 0.053213, 0.089192, -0.073548, -0.128518, 0.078395, 0.039410, -0.080832, -0.131356, -0.094763, -0.080616, -0.008742, -0.030813, 0.040919, -0.020002, 0.013783, -0.126972}, {-0.134008, 0.081526, -0.009287, 0.098857, -0.093900, -0.050207, -0.166381, -0.045032, -0.121020, -0.072104, -0.022376, 0.098856, -0.062008, -0.047345, -0.125455, 0.011411, 0.022843, -0.000865, 0.032403, -0.095334, -0.012924, -0.088023, 0.003544, 0.093956, 0.041384, 0.077779, -0.025130, 0.095023, 0.092919, 0.040720, -0.006622, 0.077430, -0.100192, 0.047689, 0.044771, 0.014337, -0.003585, 0.053734, -0.070879, 0.101822}, {-0.020170, -0.056882, 0.014459, -0.053954, 0.040226, -0.116545, -0.012769, 0.069123, 0.053781, -0.101305, 0.021033, 0.128813, 0.026564, 0.099640, 0.073707, -0.106206, -0.052759, -0.040157, 0.080930, 0.056988, -0.104429, 0.091386, 0.054393, -0.060167, 0.059952, -0.151331, -0.072272, 0.124808, 0.056609, -0.078916, 0.091144, 0.129142, 0.080141, 0.003058, 0.084423, 0.008956, 0.090823, -0.107450, -0.078073, -0.071796}, {-0.111765, 0.029150, -0.050944, -0.099103, -0.009031, -0.240279, -0.169160, -0.115617, 0.258853, -1.706659, -0.161700, 0.075731, 0.032292, 0.096811, -0.120678, 0.074286, -0.114114, -0.102247, 0.024917, -0.133912, -0.039498, -0.056412, -1.449420, -0.102409, 0.003921, -0.178523, 0.010064, 0.076638, -0.078647, -0.217611, -0.361268, -0.000249, 0.024676, 0.019509, -0.133391, 0.068915, -0.029772, 0.074407, -0.138866, -0.027878}, {-0.090837, 0.096464, -0.112425, -0.066223, -0.104499, -0.046832, 0.014222, -0.017945, -0.013467, -0.064748, 0.018769, -0.021395, 0.026309, 0.119093, 0.064759, 0.004102, 0.129377, 0.014831, -0.125360, -0.077228, 0.018356, 0.038086, -0.019811, 0.030453, -0.122315, -0.027668, 0.010280, 0.099472, -0.078875, -0.114347, 0.081033, -0.109865, 0.125626, 0.002576, 0.030826, 0.083434, -0.132878, 0.015733, -0.066512, -0.012513}, {-0.056398, -0.055531, -0.130934, -0.006241, -0.085805, -0.047233, -0.102966, -0.110539, -0.674719, 0.119194, -0.134730, 0.096678, 0.000887, 0.066496, -0.144883, 0.035096, -0.011664, -0.138490, 0.033932, -0.093849, -0.187939, -0.207418, 0.017990, -0.008398, 0.010095, -0.282341, -1.246133, -0.119429, -0.116064, -0.113124, -0.191094, -0.037662, -0.065884, -0.167688, -1.138562, -0.005773, -1.673839, -0.151164, -0.177102, -0.024353}, {-0.067058, -0.173796, -0.030128, -0.117313, -0.105192, -0.140809, -0.697028, -0.081609, 1.024041, 0.114496, 0.095673, 0.008701, -0.092264, 0.165873, -0.266244, 0.030821, 0.103701, 0.027852, 0.046097, -0.169574, -0.025484, -0.021134, 0.981547, -0.073286, -0.127424, -0.298483, -0.392746, 0.023491, -0.009016, 0.120948, 0.066315, -0.069083, -0.020750, 0.002316, -0.284279, -0.113744, 0.298366, -0.140813, -0.014399, -0.130185}, {-0.156976, 0.105474, -0.020485, 0.096485, -0.002276, 0.001123, -0.094730, -0.058752, 0.090353, -0.013260, 0.058210, 0.016312, -0.108082, 0.073694, -0.102506, -0.069404, -0.000111, -0.121193, 0.079244, 0.062907, -0.111686, -0.106540, 0.085952, -0.043711, -0.038400, -0.004074, 0.024920, -0.103550, 0.121219, -0.142295, 0.044069, -0.065680, -0.085787, -0.001188, -0.040142, -0.037829, -0.014741, -0.119560, 0.064840, -0.062308}, {0.032225, 0.098669, -0.093369, 0.122114, -0.117051, -0.058249, 0.000204, -0.035441, -0.045814, -0.064780, 0.091119, 0.023443, -0.116524, -0.273024, -0.067005, -0.068246, -0.098498, -0.111433, 0.064583, 0.049275, -0.010921, -0.091596, -0.137400, -0.047834, -0.040854, 0.127574, -0.009868, -0.076180, 0.122863, -0.018479, -0.033589, 0.013753, 0.078132, 0.032622, 0.152292, 0.061166, 0.090064, -0.041159, -0.057609, -0.106624}, {-0.108308, 0.035545, -0.035976, -0.079197, 0.050604, -0.159390, 0.102319, -0.166088, -0.222229, -0.263026, -0.084319, -0.059831, -0.065845, 0.072985, -0.130445, -0.058343, -0.014446, 0.015831, -0.151376, 0.072295, -0.025316, -0.022912, -0.882903, -0.038950, -0.147310, 0.056264, 0.861462, -0.098317, -0.101456, 0.039502, -0.265104, -0.019384, 0.009879, -0.058600, 0.910879, -0.163645, 0.271081, 0.026854, 0.004639, -0.077389}, {-0.047861, -0.072658, -0.058862, 0.105548, -0.105837, 0.064393, -0.025216, -0.119029, 0.132475, -0.029162, 0.080846, -0.098123, 0.115346, -0.061123, -0.129722, -0.097172, -0.098831, -0.156407, -0.007315, -0.126566, -0.071907, 0.096342, 0.015984, 0.062699, 0.077239, 0.205529, -0.009296, -0.028312, -0.064015, -0.013489, 0.122961, 0.078074, 0.035624, 0.082921, 0.096562, -0.127570, 0.164713, -0.036373, -0.127088, -0.035993}, {-0.012441, -0.090121, -0.147533, -0.128626, 0.065496, -0.272495, -0.461192, -0.139910, -0.205244, 0.093714, 0.000686, -0.139873, 0.030092, -0.439482, -0.041912, -0.108797, 0.031129, -0.057495, -0.138138, 0.009081, 0.026912, -0.041184, 0.910492, -0.028828, -0.129040, -1.062888, -0.614772, -0.037212, -0.009383, -0.015201, 0.016985, -0.152426, -0.090032, 0.008480, -0.467400, -0.158681, -0.731402, -0.001874, -0.444329, -0.049022}, {0.076138, 0.127169, 0.120188, 0.001116, -0.006437, 0.118755, -0.067987, 0.109598, 0.006899, -0.102298, 0.111663, -0.060664, 0.017388, 0.128728, -0.066530, -0.062018, 0.003951, -0.025773, -0.036512, -0.066468, 0.105372, 0.013562, 0.029997, 0.090130, -0.014503, -0.015153, 0.123179, 0.111728, 0.073730, -0.086620, -0.075437, 0.049951, 0.048659, 0.022682, -0.001693, -0.084060, 0.026905, 0.052423, -0.073460, 0.011795}, {-0.103122, -0.091986, -0.154179, -0.035644, -0.004604, -0.043351, -0.153258, -0.079871, -0.170901, -0.026638, 0.065970, -0.076619, -0.059479, -0.013573, -0.168999, 0.041905, 0.001252, 0.040480, 0.069161, -0.125293, -0.154300, -0.051865, 0.148171, -0.044451, 0.032991, 0.043657, -0.088948, -0.117498, -0.085177, -0.055529, -0.070300, 0.066331, -0.024610, 0.081666, 0.072881, 0.048918, -0.009192, 0.097091, -0.062933, -0.111145}, {-0.030411, -0.069690, -0.192912, -0.066857, 0.082535, 0.124086, -0.159178, -0.148456, -0.222524, 0.140698, -0.116077, -0.068577, -0.033175, -0.067061, 0.011865, -0.114478, -0.033537, 0.001744, 0.063277, -0.002230, -0.111033, -0.022284, -0.085740, 0.071460, 0.064183, -0.160693, 0.108958, 0.009644, 0.066821, -0.132357, 0.086868, -0.040202, 0.005244, -0.077491, 0.088366, -0.152646, -0.062124, -0.095814, -0.026235, -0.104328}, {-0.088194, 0.020975, 0.088315, 0.086845, 0.085143, 0.105808, 0.026088, 0.117102, -0.110664, -0.087315, -0.048983, -0.029610, 0.053066, 0.088878, 0.026595, -0.114224, -0.018638, -0.121415, -0.123167, 0.094766, 0.042208, -0.125879, 0.085995, 0.088033, -0.013374, -0.006053, -0.117682, 0.114657, 0.125604, 0.116937, 0.102179, -0.059545, -0.032894, 0.013151, 0.015272, -0.016018, 0.066371, 0.122458, 0.030524, 0.089502}, {0.089363, -0.032679, -0.006221, 0.054297, 0.055356, -0.152219, 0.014720, 0.057226, -0.120729, -0.002318, -0.042509, -0.132101, 0.125028, 0.021941, -0.053460, 0.010720, 0.127680, -0.103595, 0.116824, 0.004393, 0.073670, -0.109202, -0.080233, 0.098759, -0.127401, 0.043909, -0.136442, -0.105672, -0.084303, 0.031944, -0.075412, -0.091399, 0.104061, -0.004677, 0.023211, -0.080352, 0.050725, 0.013579, 0.075696, 0.041082}, {-0.029219, -0.081602, 0.022708, 0.120198, -0.107830, -0.130435, 0.173099, 0.089601, 0.024017, -0.034473, -0.111968, 0.003844, -0.072521, 0.091797, 0.083243, 0.038321, 0.018558, -0.122464, -0.019944, 0.121435, -0.034765, -0.028391, -0.041523, 0.012816, 0.111636, -0.073918, -0.021643, -0.083770, 0.080046, 0.052446, -0.111065, -0.049713, 0.110255, 0.100162, 0.132550, 0.031885, 0.068601, 0.027220, 0.035406, -0.066315}, {0.019933, -0.028011, 0.111086, -0.039910, 0.060255, 0.174164, 0.029961, 0.110458, -0.014539, 0.050308, 0.058380, -0.056453, -0.090499, 0.061563, 0.049208, 0.105944, 0.100233, 0.067404, 0.056056, 0.130351, 0.110171, -0.058257, 0.059294, 0.083049, -0.051043, -0.013463, 0.159924, 0.058484, -0.047214, 0.019947, 0.090002, -0.031773, -0.028839, -0.105771, -0.087376, 0.016546, -0.088424, -0.096617, 0.048680, -0.033832}, {-0.102198, -0.035290, -0.192376, -0.081072, -0.033127, 0.025823, -0.308379, 0.027944, -1.194918, -0.052396, 0.024631, 0.062564, 0.009571, -0.026200, -0.227388, -0.007459, -0.118540, -0.019019, -0.063852, 0.022592, -0.059040, -0.018019, 0.818874, -0.045610, 0.045886, -0.533688, -0.888532, -0.028969, -0.110119, -0.041332, -0.119799, 0.007507, -0.037122, -0.207594, -0.782769, -0.103354, -0.818795, -0.042818, -0.360088, -0.036090}, {-0.056914, 0.009980, -0.001794, -0.014523, 0.068090, -0.069674, 0.004625, 0.111933, 0.074329, -0.108517, 0.001996, -0.058065, 0.043248, -0.043848, -0.050081, -0.132214, -0.001470, 0.111892, -0.008254, -0.045642, -0.006585, 0.126988, -0.074533, 0.078720, 0.081316, 0.038513, 0.049592, 0.027362, -0.130625, -0.125870, 0.047639, 0.042589, -0.107870, 0.067279, 0.077066, -0.039614, -0.016983, -0.039677, -0.109080, 0.031339}, {-0.166132, -0.093323, -0.079691, 0.010299, -0.104135, 0.026441, 0.039247, -0.120585, -0.316143, 0.397254, -0.026214, -0.035671, -0.017135, -0.058407, -0.252674, -0.097792, 0.022616, -0.075397, -0.234837, -0.031155, -0.181572, 0.010807, -1.622875, -0.010215, -0.081213, -0.064465, 0.860834, 0.053441, 0.007389, -0.359315, -0.518740, -0.111647, -0.116296, -0.002118, 0.893087, -0.018693, 0.346809, -0.086057, 0.010669, 0.087275}, {-0.086483, 0.022928, 0.045677, 0.115490, 0.017815, -0.048438, -0.117641, -0.022410, 0.015418, -0.233923, 0.018038, 0.016064, 0.010260, -0.032211, -0.034657, -0.019873, 0.078784, -0.092181, 0.073606, 0.048206, 0.000208, 0.030601, -0.124014, 0.059848, -0.109009, 0.109207, -0.021138, -0.082494, -0.084080, 0.077464, 0.077941, 0.025797, -0.054048, -0.078527, 0.101903, 0.063264, 0.073195, 0.033079, -0.008969, 0.126671}, {0.042154, -0.091809, 0.074829, 0.031952, 0.034794, -0.128539, -0.139058, -0.203257, -0.304399, -0.362348, 0.070068, -0.007179, 0.051867, -0.101798, 0.102023, 0.059544, -0.227068, -0.000537, -0.056715, -0.069606, 0.021669, -0.070352, 0.094984, -0.014297, -0.106702, -0.292701, -0.034433, -0.138764, -0.066264, -0.106744, -0.145580, -0.034260, -0.121147, 0.039872, 0.142208, -0.170972, -0.167031, -0.090973, -0.126705, 0.017323}, {0.110137, -0.032641, 0.073525, 0.102141, 0.033907, -0.081670, 0.021908, -0.113327, 0.108951, -0.074412, -0.011936, -0.076123, -0.021744, -0.000570, 0.095414, 0.010309, 0.066247, 0.096760, -0.107630, 0.087690, 0.082050, -0.120659, 0.063117, -0.048417, -0.088855, 0.001102, -0.016177, -0.084101, 0.103541, -0.031288, -0.099379, -0.128233, -0.112023, 0.028140, 0.124695, 0.110132, -0.078090, 0.036539, 0.076345, 0.054809}, {0.038676, -0.092696, 0.074656, -0.120455, 0.066719, -0.108645, -0.107509, -0.027725, -0.013663, 0.106084, -0.045093, -0.058067, 0.042004, -0.096268, -0.077228, 0.007768, -0.010099, -0.067943, 0.073493, -0.130314, -0.096468, 0.047367, 0.073951, 0.056059, 0.109620, -0.166794, -0.008907, -0.088809, 0.042396, 0.045857, 0.043924, -0.123252, -0.104110, 0.019937, -0.174490, -0.067936, -0.080285, 0.045957, -0.107667, -0.045843}, {-0.032168, 0.010998, -0.104379, -0.025219, -0.116524, -0.106157, -0.078265, 0.109254, -0.125200, -0.372324, -0.214394, -0.087252, -0.031457, -0.062048, -0.178348, 0.026272, -0.123416, -0.051677, 0.039119, 0.073375, 0.034875, 0.014780, -0.180303, 0.048379, -0.114934, -0.103172, 0.788928, -0.040649, 0.074357, -0.029651, -0.069937, -0.156418, 0.026904, -0.093475, 0.696532, -0.001308, 0.283543, -0.000886, -0.060462, -0.123830}, {-0.027156, 0.047368, -0.131414, -0.035684, -0.035772, -0.022934, -0.014040, -0.041667, -0.030841, 0.077010, -0.093042, -0.149587, -0.136097, -0.068069, -0.096779, 0.019607, 0.018580, -0.124765, -0.154837, -0.136449, 0.051782, -0.011838, 0.047719, 0.072310, -0.073341, -0.018343, -0.071182, 0.128997, 0.017369, -0.103782, -0.130320, -0.162748, 0.122773, -0.028113, -0.004582, -0.181377, -0.164802, -0.092850, -0.092175, -0.090262}, {-0.082549, -0.140625, -0.227527, -0.044720, 0.083945, -0.077020, -0.035995, 0.070841, -0.011806, 0.095699, -0.139277, -0.098754, 0.054306, -0.185476, -0.067468, -0.093298, -0.047724, 0.054275, -0.008545, -0.130239, -0.158221, 0.115542, -0.096801, -0.137698, -0.123434, -0.084350, -0.023320, -0.020231, 0.084060, -0.172380, -0.056610, -0.089457, -0.012432, -0.161741, 0.081919, -0.010457, 0.042710, -0.020860, -0.121319, 0.066462}, {0.028131, -0.004173, -0.066625, 0.085656, -0.144578, -0.111868, -0.067186, 0.004827, 0.063327, -0.187256, -0.118281, -0.005299, 0.069623, -0.091596, -0.056799, -0.033180, -0.040650, 0.007577, -0.080095, -0.016936, -0.019478, 0.111903, -0.120996, -0.088597, -0.120160, 0.066567, 0.034193, 0.061262, -0.117166, 0.066687, 0.165059, -0.030608, -0.084208, -0.051654, -0.084698, -0.093871, 0.043805, -0.045662, 0.012887, -0.014851}, {-0.168419, -0.042742, 0.018883, 0.107538, 0.012718, 0.042087, 0.066576, 0.022964, 0.024586, -0.058697, 0.083410, -0.053088, 0.042098, -0.086746, 0.098425, -0.100656, -0.081339, -0.128354, -0.019161, -0.119792, -0.065504, 0.017383, -0.227997, -0.019460, 0.028462, -0.153244, -0.010894, -0.124871, -0.012124, 0.060098, 0.001058, 0.035465, -0.061411, -0.074269, -0.163368, -0.024107, 0.059449, 0.092577, 0.018662, -0.093450}, {-0.095004, -0.108959, -0.169441, -0.009700, -0.130619, -0.068989, -0.005686, 0.039281, -0.026484, -0.074626, -0.018064, -0.045564, -0.111764, 0.035674, 0.046576, -0.082160, 0.021025, -0.026671, -0.062464, 0.034020, 0.024436, 0.069028, -0.100661, 0.083156, 0.077992, 0.129555, -0.056864, 0.004385, -0.095804, -0.084765, -0.120296, 0.107076, 0.123401, -0.095279, 0.017325, -0.119130, 0.101147, -0.089243, 0.120909, -0.016201}, {-0.062965, 0.051538, 0.105731, 0.014945, -0.127420, -0.030944, 0.009666, 0.037253, -0.015214, 0.029149, 0.053555, 0.007371, -0.001748, -0.101055, 0.064989, -0.101530, 0.079822, 0.069487, 0.037293, 0.070038, -0.025991, 0.065834, -0.069379, -0.032998, 0.035856, 0.088709, 0.124608, 0.037204, 0.100197, 0.113148, -0.036639, -0.006780, -0.107675, 0.036682, 0.095081, -0.088847, 0.088627, 0.030155, 0.041539, 0.025272}, {0.000764, -0.032353, 0.113339, 0.010775, 0.089742, 0.087096, -0.095173, 0.003922, 0.095441, 0.048699, 0.109142, -0.037102, -0.028154, -0.130342, -0.085220, -0.021729, 0.012411, 0.066450, 0.075915, 0.028133, -0.033319, 0.127442, -0.100961, -0.005502, 0.029543, 0.022409, -0.112163, -0.058329, -0.028355, 0.142502, -0.053530, -0.114407, -0.098061, -0.005983, 0.062343, 0.102143, -0.050118, 0.029381, 0.061951, -0.035641}, {0.093515, -0.058307, 0.105104, 0.025537, -0.092450, 0.001734, 0.120621, 0.001774, -0.042874, 0.081928, -0.130873, 0.072796, 0.100467, -0.090642, 0.049345, -0.102712, -0.017574, -0.018404, -0.010916, -0.038955, 0.030870, 0.040454, -0.020100, 0.125757, -0.114033, 0.017328, -0.080272, 0.116684, 0.071231, -0.015439, -0.032951, 0.049031, -0.131926, 0.113625, -0.098118, -0.127098, 0.096094, 0.117227, 0.024373, -0.035232}, {-0.054860, -0.103419, 0.017952, -0.131027, -0.003320, -0.027500, -0.189118, -0.013030, -0.127797, -0.045232, -0.146426, -0.093525, 0.071412, 0.036248, -0.138662, -0.064555, -0.095700, -0.087916, -0.195931, -0.108347, -0.040900, 0.004244, 0.318755, 0.041634, 0.017826, -0.143167, 0.728074, -0.112082, -0.125567, -0.298966, -0.280673, -0.020062, -0.010346, -0.094139, 0.851574, -0.134367, 0.323929, -0.120745, -0.185925, -0.042373}, {0.038172, 0.028160, 0.068945, -0.034438, 0.025949, -0.071341, -0.027410, 0.077425, 0.096284, -0.023480, 0.041099, 0.072103, -0.088677, 0.051806, -0.117957, 0.097368, -0.100561, 0.111369, 0.122294, -0.112113, -0.002694, 0.074242, 0.129207, -0.053205, -0.103678, 0.077207, 0.127858, -0.103124, -0.093550, 0.002850, -0.010656, 0.026920, -0.071473, 0.068557, -0.070315, -0.097699, 0.037509, -0.046940, 0.120245, 0.060097}, {0.033395, 0.023589, -0.068878, 0.077117, 0.082422, -0.195989, -0.632426, 0.064781, 1.289781, -0.178378, -0.025773, 0.014783, -0.045839, -0.082640, 0.048370, 0.014995, -0.032713, -0.102826, 0.040653, -0.117666, -0.169291, -0.048450, 0.845026, 0.047209, 0.044131, -0.100169, -0.192320, 0.039988, 0.100142, 0.154380, 0.089517, -0.002726, 0.028645, -0.147675, 0.150079, -0.080126, 0.275845, -0.064847, 0.072824, -0.020254}, {-0.037977, -0.074095, -0.013732, -0.079015, -0.059804, -0.112061, -0.556846, -0.128749, -0.318579, 0.074227, -0.068509, -0.080331, -0.137562, -0.082594, -0.181189, -0.015004, 0.012808, -0.143253, -0.164781, 0.050580, -0.094642, -0.098992, 0.861516, 0.067418, -0.024497, -0.576711, -0.341064, 0.019731, 0.028612, -0.033492, 0.031382, -0.124719, 0.045736, 0.004670, 0.293485, -0.117013, -0.370117, -0.064423, -0.434869, 0.107130}, {-0.029594, -0.021708, 0.116511, 0.037588, -0.085078, 0.075162, 0.000120, -0.073943, 0.114232, 0.025070, -0.070809, -0.104043, -0.113238, 0.046667, -0.000907, -0.091157, -0.064423, -0.057795, -0.005496, 0.099648, 0.048999, 0.108315, 0.070630, 0.067619, 0.127705, 0.040962, -0.069896, -0.007276, -0.088021, -0.026513, 0.045400, -0.110612, -0.034332, 0.048574, -0.069907, 0.061771, -0.117571, -0.034090, -0.058420, -0.000977}};
static const float * p_layer_2_weight = layer_2_weight;
static const float layer_2_bias[40] = {-0.204826, -0.006912, -0.053526, -0.104284, -0.149366, -0.055012, -0.268777, -0.081628, -0.382738, -0.835541, -0.222213, -0.165284, -0.121134, -0.139739, -0.046396, -0.154160, -0.260208, -0.033477, -0.076836, -0.102903, -0.119725, -0.245259, -0.315423, -0.207066, -0.213578, -0.362079, 0.200057, -0.264146, -0.119779, -0.594337, -0.460555, -0.047007, -0.172279, -0.134104, 0.312772, -0.015164, -0.090898, -0.069735, -0.138642, -0.143295};
static const float * p_layer_2_bias = layer_2_bias;
static const float layer_3_weight[40][1] = {{0.005592}, {0.009458}, {-0.002551}, {-0.099637}, {-0.016455}, {0.014995}, {0.007585}, {0.080494}, {0.043641}, {0.011689}, {0.014521}, {0.004141}, {-0.003532}, {0.005440}, {-0.055517}, {-0.047797}, {0.043557}, {0.089973}, {0.043781}, {-0.074672}, {0.081693}, {-0.060780}, {0.806438}, {0.018659}, {-0.004512}, {-0.035982}, {-0.792815}, {0.046416}, {-0.071988}, {-0.009516}, {0.017215}, {-0.024102}, {0.106011}, {-0.066694}, {-0.835559}, {-0.016450}, {-0.274753}, {0.012760}, {0.077780}, {-0.087021}};
static const float * p_layer_3_weight = layer_3_weight;
static const float layer_3_bias[1] = {-0.406488};
static const float * p_layer_3_bias = layer_3_bias;
    
static float sigmoid(float num) {
    return 1.0f / (1.0f + expf(-num));
}

static float step(float num) {
    if (num < 0) {
        return 0;
    }
    return 1;
}

static float relu(float num) {
    if (num > 0) {
        return num;
    } else {
        return 0;
    }
}

static float linear(float num) {
    return num;
}

static void layer(const float * in, const float * layer_weight, const float * layer_bias,   
            int row, int col, float * output, int use_activation) {
    int ii;
    int jj;
    const float * p;

    for(ii = 0; ii < col; ii++) {
        p = layer_weight + ii;
        output[ii] = 0;
        for (jj = 0; jj < row; jj++) {
            output[ii] += in[jj] * (*p); 
            p += col;
        }
        output[ii] += layer_bias[ii];
        
        if (use_activation == 1) {
			output[ii] = relu(output[ii]);
        }
    }
}

const float* nn_rho_2(const float* input) {
	layer(input, p_layer_0_weight, p_layer_0_bias, STRUCTURE[0][0], STRUCTURE[0][1], output_0, 1);
	layer(output_0, p_layer_1_weight, p_layer_1_bias, STRUCTURE[1][0], STRUCTURE[1][1], output_1, 1);
	layer(output_1, p_layer_2_weight, p_layer_2_bias, STRUCTURE[2][0], STRUCTURE[2][1], output_2, 1);
	layer(output_2, p_layer_3_weight, p_layer_3_bias, STRUCTURE[3][0], STRUCTURE[3][1], output_3, 0);

	return output_3;
}
