/*
 * FILE: generated.c
 */

#include <stdio.h>
#include <stdlib.h>
#include <string.h>
#include <math.h>
#include "rho_0828_2_3.h"

static const int STRUCTURE[4][2] = {{40, 40}, {40, 40}, {40, 40}, {40, 1}};
static float output_0[40];
static float output_1[40];
static float output_2[40];
static float output_3[1];
static const float layer_0_weight[40][40] = {{0.000468, 0.000233, -0.000040, 0.039491, 0.000038, 0.000168, 0.000106, 0.000186, 0.048525, -0.000292, -0.071096, -0.000208, 0.000076, -0.000153, -0.000033, -0.066435, 0.012778, 0.088917, -0.000047, -0.000109, 0.017003, -0.000110, 0.025359, 0.000363, -0.078759, -0.000086, -0.000193, -0.000017, 0.057392, 0.000004, -0.000258, -0.000014, 0.022973, -0.072556, 0.000251, -0.000030, -0.000147, -0.000089, -0.000182, -0.094697}, {0.000051, 0.000452, -0.000346, -0.201830, -0.000157, -0.000314, -0.000072, 0.000270, 0.454756, -0.000373, 0.477410, -0.000207, 0.000263, -0.000041, -0.000296, 0.169198, -0.662816, 0.063475, -0.000197, 0.000389, 0.132692, -0.000189, -0.563900, 0.000143, 0.631939, -0.000133, -0.000122, 0.000162, -0.117776, 0.000105, -0.000330, -0.000142, -0.378270, 0.267766, 0.000063, 0.000073, 0.000136, 0.000114, -0.000038, -0.482167}, {-0.000043, -0.000108, -0.000024, -0.078516, 0.000252, 0.000075, -0.000056, 0.000072, -0.031897, -0.000071, -0.063318, 0.000056, -0.000179, 0.000052, 0.000005, -0.071728, -0.007074, 0.258258, -0.000030, 0.000178, -0.158388, -0.000064, -0.023732, 0.000082, -0.278557, 0.000230, -0.000054, -0.000094, 0.235174, 0.000056, 0.000084, 0.000126, -0.197469, -0.072309, -0.000076, 0.000214, -0.000107, -0.000171, 0.000058, -0.238686}, {0.000217, -0.000129, 0.000204, -0.044067, 0.000190, -0.000267, 0.000107, 0.000144, -0.000246, 0.000179, -0.010060, 0.000313, 0.000059, 0.000067, -0.000046, -0.003048, 0.026584, 0.004406, 0.000149, 0.000111, 0.015015, 0.000461, 0.054163, 0.000081, -0.033152, -0.000084, 0.000113, 0.000180, -0.003076, 0.000091, 0.000299, -0.000147, -0.013917, -0.011599, -0.000139, 0.000235, -0.000169, 0.000023, 0.000165, 0.034131}, {-0.000219, 0.000221, -0.000109, 0.280910, 0.000034, -0.000165, -0.000121, -0.000151, -0.215169, 0.000119, -0.208250, -0.000145, -0.000144, 0.000064, -0.000061, 0.739993, 0.034889, -0.034895, -0.000062, -0.000209, -0.271897, -0.000015, -0.451679, -0.000012, -0.168993, 0.000124, -0.000157, -0.000066, -0.334099, -0.000460, -0.000378, 0.000236, 0.298761, -0.379162, -0.000140, -0.000149, 0.000051, -0.000176, 0.000022, -0.234549}, {-0.000226, 0.000179, 0.000205, -0.025426, -0.000061, -0.000145, -0.000067, 0.000068, 0.043361, -0.000015, -0.031047, -0.000112, 0.000199, -0.000037, -0.000269, -0.035870, 0.014178, 0.033101, -0.000070, -0.000013, 0.008220, 0.000094, 0.089304, -0.000185, -0.050567, 0.000011, -0.000043, 0.000011, 0.020706, -0.000053, 0.000302, -0.000149, 0.054921, -0.056938, -0.000067, -0.000053, 0.000034, 0.000253, -0.000141, -0.093376}, {0.000050, 0.000320, -0.000181, 0.207811, -0.000115, -0.000009, -0.000233, 0.000011, -1.133368, 0.000114, -0.624052, -0.000063, -0.000100, 0.000201, -0.000208, 0.253769, -0.995881, -0.007457, 0.000143, -0.000012, 0.075367, -0.000276, -0.377682, -0.000040, -0.447335, -0.000028, -0.000111, -0.000189, -0.584181, 0.000251, 0.000008, -0.000058, -0.300855, 0.009886, 0.000274, -0.000057, -0.000157, 0.000112, -0.000122, -0.400495}, {-0.000070, 0.000051, 0.000087, -0.007123, -0.000149, 0.000024, -0.000097, -0.000279, -0.001877, -0.000223, -0.097781, -0.000194, 0.000156, 0.000035, -0.000249, 0.224724, -0.022031, -0.077269, -0.000116, -0.000181, -0.334460, -0.000104, -0.261491, -0.000086, -0.293894, 0.000091, 0.000017, -0.000008, 0.065807, -0.000302, -0.000105, 0.000211, -0.055199, -0.309297, -0.000017, -0.000175, 0.000209, -0.000064, -0.000190, -0.191120}, {-0.000154, -0.000139, 0.000105, -0.432497, -0.000037, 0.000148, 0.000006, -0.000109, 0.119228, 0.000271, 0.105077, -0.000067, 0.000152, 0.000036, 0.000146, -0.264482, -0.512245, -0.193676, 0.000074, 0.000092, -0.129909, 0.000444, -0.597036, -0.000160, -0.483985, 0.000207, 0.000097, 0.000150, 0.194675, 0.000419, -0.000117, 0.000000, -0.905714, -0.379374, 0.000194, 0.000135, 0.000009, -0.000124, 0.000005, -0.795844}, {0.000153, 0.000217, 0.000434, 0.264872, 0.000111, 0.000452, 0.000144, -0.000024, 0.150380, 0.000241, 0.222455, -0.000011, 0.000018, -0.000038, 0.000435, -0.271335, 0.096735, -0.237005, -0.000045, 0.000060, -0.463365, 0.000369, 0.256945, -0.000225, -0.312665, -0.000053, -0.000108, 0.000116, 0.312640, 0.000694, 0.000912, 0.000233, -0.654573, -0.420850, -0.000046, -0.000195, -0.000018, 0.000058, -0.000412, 0.170132}, {0.000052, 0.000015, 0.000017, 0.063257, 0.000031, 0.000165, 0.000024, 0.000282, 0.027346, -0.000004, -0.010729, 0.000079, -0.000050, -0.000052, -0.000099, -0.028237, -0.018593, 0.000763, 0.000231, -0.000029, -0.005893, -0.000063, -0.043386, 0.000030, 0.041472, 0.000064, -0.000083, -0.000262, 0.008884, 0.000248, 0.000114, 0.000178, 0.033946, 0.004611, -0.000099, 0.000056, 0.000003, 0.000113, -0.000246, -0.056826}, {-0.000354, 0.000100, 0.000194, 0.277076, -0.000124, 0.000092, 0.000188, -0.000037, 0.128682, 0.000371, 0.060234, 0.000071, 0.000057, 0.000089, 0.000527, 0.273601, 0.111765, -0.228819, 0.000354, -0.000198, -0.406652, 0.000376, 0.075037, -0.000234, -0.204670, 0.000026, 0.000112, 0.000138, 0.094371, 0.000502, 0.001155, 0.000237, 0.065819, -0.401751, 0.000058, 0.000238, 0.000000, -0.000012, -0.000102, 0.085180}, {-0.000116, 0.000248, -0.000162, -0.066395, 0.000092, -0.000018, -0.000152, -0.000165, 0.012315, 0.000062, -0.012895, 0.000145, -0.000171, 0.000200, -0.000254, 0.007376, 0.007707, 0.089743, 0.000254, 0.000188, 0.012921, 0.000263, 0.114893, 0.000080, -0.077419, 0.000023, -0.000104, 0.000319, 0.038523, -0.000284, -0.000523, -0.000048, 0.038197, -0.049316, 0.000212, 0.000122, -0.000241, 0.000009, 0.000062, -0.031969}, {-0.000003, -0.000041, -0.000346, -0.032534, 0.000171, -0.000026, -0.000158, -0.000059, -0.010681, -0.000056, 0.009717, 0.000051, 0.000017, 0.000110, 0.000069, 0.012974, -0.005875, 0.011132, 0.000278, 0.000138, 0.002901, -0.000185, -0.000913, 0.000067, 0.004764, 0.000136, -0.000204, 0.000081, -0.001362, -0.000443, -0.000079, -0.000023, -0.033598, -0.000504, 0.000118, 0.000065, 0.000329, 0.000010, 0.000129, 0.067721}, {0.000043, 0.000141, 0.000054, -0.054733, 0.000081, 0.000085, 0.000026, -0.000155, -0.076721, -0.000021, 0.065395, -0.000105, -0.000264, 0.000006, -0.000123, 0.071451, 0.003121, -0.035639, 0.000079, 0.000109, -0.024639, 0.000105, -0.050221, 0.000165, 0.008648, 0.000217, -0.000154, -0.000104, -0.018945, 0.000013, 0.000504, 0.000258, -0.035197, 0.032281, 0.000011, 0.000167, 0.000366, 0.000072, 0.000026, 0.113398}, {0.000721, 0.000199, -0.000338, -0.114743, -0.000049, 0.000825, -0.000007, 0.000176, -0.181972, 0.000223, -0.182999, 0.000233, -0.000021, 0.000136, -0.000223, -0.790950, 0.102482, -0.188547, 0.000064, 0.000227, -0.253295, -0.000020, 0.395215, 0.000123, -0.794346, -0.000030, -0.000302, 0.000167, 0.451063, 0.000161, -0.000006, 0.000020, -0.506748, -0.346278, 0.000236, 0.000327, 0.000417, 0.000042, 0.000058, 0.144564}, {0.000072, -0.000268, -0.000064, 0.042662, -0.000108, -0.000352, -0.000067, 0.000126, -0.042845, 0.000116, 0.037909, -0.000049, -0.000197, -0.000058, -0.000427, 0.040196, -0.021659, -0.027865, -0.000422, 0.000015, -0.006269, -0.000154, -0.095213, -0.000242, 0.071622, -0.000220, -0.000154, -0.000116, -0.020946, -0.000330, -0.000231, -0.000092, -0.061173, 0.059024, -0.000233, -0.000087, -0.000188, 0.000113, -0.000008, 0.085964}, {-0.000038, 0.000166, 0.000063, -0.002448, -0.000124, -0.000071, 0.000176, 0.000063, -0.375143, -0.000233, -0.432014, -0.000181, -0.000183, -0.000089, -0.000111, 0.171895, 0.646107, -0.284017, 0.000088, -0.000099, 0.028080, -0.000393, 0.422486, -0.000188, -0.531848, 0.000115, 0.000028, 0.000261, -0.039779, -0.000079, -0.000135, 0.000155, 0.333064, -0.345432, 0.000095, 0.000151, -0.000137, 0.000197, 0.000281, 0.367403}, {-0.000004, 0.000072, -0.000144, -0.295173, 0.000013, 0.000056, 0.000038, 0.000109, -0.081972, 0.000040, -0.117087, 0.000033, -0.000089, 0.000181, -0.000054, -0.324454, -0.118312, -0.112811, -0.000030, 0.000216, -0.176146, -0.000224, -0.185276, -0.000138, -0.646688, 0.000083, 0.000178, 0.000031, 0.259493, -0.000018, -0.000120, 0.000245, -0.806259, -0.358222, 0.000092, -0.000177, 0.000109, -0.000043, 0.000081, -0.485266}, {-0.000007, 0.000090, -0.000027, -0.262094, -0.000002, 0.000077, 0.000044, 0.000110, -0.035674, 0.000073, 0.023488, -0.000146, -0.000076, 0.000209, 0.000166, -0.584950, -0.025671, 0.195017, 0.000093, 0.000144, 0.453557, 0.000116, 0.360777, 0.000090, 0.213894, 0.000158, 0.000250, 0.000108, 0.076794, 0.000361, 0.000312, 0.000069, -0.151718, 0.438929, -0.000047, 0.000107, -0.000143, -0.000023, -0.000029, 0.186932}, {-0.000085, -0.000047, 0.000347, 0.186450, 0.000074, 0.000318, -0.000048, 0.000346, 0.100449, 0.000308, -0.087333, 0.000169, -0.000017, -0.000063, 0.000000, -0.201948, -0.221936, 0.458572, 0.000194, 0.000333, -0.248890, 0.000118, -0.050877, -0.000068, 0.015565, -0.000069, 0.000045, -0.000104, 0.121860, 0.000335, 0.000004, -0.000133, 0.035089, 0.194648, 0.000096, 0.000177, 0.000167, 0.000197, -0.000140, -0.101199}, {-0.000160, -0.000034, 0.000119, -0.199471, -0.000091, -0.000391, 0.000036, -0.000077, -0.080926, 0.000193, -0.016979, -0.000322, 0.000103, -0.000101, -0.000034, -0.176131, -0.065221, 0.209558, -0.000207, 0.000092, 0.384688, 0.000073, -0.059798, -0.000049, 0.248137, 0.000107, -0.000204, 0.000069, -0.104800, -0.000164, 0.000055, 0.000088, 0.036728, 0.383864, -0.000296, -0.000273, -0.000115, -0.000238, 0.000008, -0.051922}, {0.000071, -0.000137, 0.000086, 0.069395, 0.000059, 0.000021, -0.000150, -0.000058, 0.015702, -0.000171, 0.000611, -0.000109, -0.000121, -0.000299, -0.000206, -0.010165, -0.006628, -0.021249, 0.000084, -0.000052, 0.003748, 0.000153, -0.051654, 0.000004, 0.058805, -0.000060, -0.000050, -0.000265, 0.006543, -0.000595, -0.000296, -0.000181, 0.020527, 0.023414, -0.000039, -0.000073, 0.000142, -0.000098, -0.000103, -0.044979}, {-0.000038, 0.000145, 0.000265, -0.499811, 0.000093, 0.000275, 0.000198, 0.000093, 0.205361, -0.000056, 0.203594, -0.000123, 0.000014, -0.000137, 0.000382, -0.121181, -0.608341, -0.269383, -0.000121, 0.000155, -0.068618, 0.000147, -0.704261, -0.000308, -0.287711, -0.000230, -0.000049, -0.000122, 0.111758, -0.000039, -0.000548, 0.000071, -0.885790, -0.333624, -0.000126, -0.000025, -0.000147, 0.000052, -0.000294, -0.831218}, {-0.000302, -0.000103, -0.000093, 0.414679, -0.000132, -0.000087, 0.000223, -0.000145, 0.801617, 0.000184, 0.768875, -0.000228, -0.000219, -0.000227, -0.000067, 0.018512, 0.585957, -0.159430, -0.000150, -0.000141, -0.399989, 0.000009, 0.311493, -0.000026, 0.135916, 0.000154, -0.000159, 0.000083, 0.455310, 0.000124, 0.000155, -0.000186, 0.288334, -0.301576, -0.000083, -0.000025, 0.000340, 0.000135, -0.000151, 0.315495}, {-0.000026, 0.000145, 0.000126, -0.373708, 0.000279, -0.000103, 0.000128, -0.000043, -0.506735, -0.000229, -0.618325, 0.000094, -0.000012, -0.000070, 0.000036, 0.271524, -0.394587, 0.183802, 0.000105, -0.000096, 0.445884, 0.000066, -0.352556, 0.000137, 0.057387, -0.000104, -0.000176, -0.000120, -0.472557, 0.000124, -0.000220, -0.000172, 0.365397, 0.363843, 0.000010, 0.000015, -0.000253, 0.000107, -0.000097, -0.303849}, {-0.000137, -0.000231, 0.000044, 0.110610, -0.000136, 0.000041, -0.000272, 0.000189, -0.635427, -0.000205, -0.421427, -0.000191, 0.000008, 0.000223, -0.000217, 0.670716, -0.400244, -0.076259, 0.000160, -0.000062, 0.053388, 0.000079, -0.438540, 0.000204, -0.239633, -0.000031, -0.000171, 0.000151, -0.637757, 0.000008, -0.000011, 0.000160, 0.429861, -0.084706, -0.000104, 0.000096, -0.000051, 0.000015, -0.000191, -0.373819}, {-0.000084, -0.000047, -0.000082, -0.130696, 0.000172, -0.000235, -0.000199, -0.000093, -0.051681, 0.000226, 0.057551, 0.000012, 0.000149, -0.000088, -0.000159, -0.532922, -0.059843, 0.205173, 0.000031, -0.000005, 0.378371, -0.000062, 0.209011, -0.000188, 0.218578, 0.000102, -0.000253, -0.000180, 0.018475, -0.000012, 0.000190, 0.000189, -0.122715, 0.400675, -0.000066, -0.000295, -0.000104, 0.000021, -0.000250, 0.094922}, {0.000191, 0.000273, 0.000235, 0.097375, -0.000038, 0.000031, 0.000101, -0.000025, -0.036029, 0.000072, 0.043085, -0.000110, -0.000166, 0.000200, 0.000086, -0.009353, -0.037761, -0.023046, 0.000186, -0.000246, 0.011122, 0.000489, -0.052182, 0.000041, 0.083371, -0.000060, -0.000030, 0.000017, 0.006129, 0.000278, 0.001406, 0.000064, -0.025157, 0.015074, -0.000029, 0.000295, -0.000089, 0.000324, 0.000051, -0.075248}, {0.000043, -0.000004, 0.000153, 0.405800, 0.000185, -0.000117, -0.000012, -0.000273, 0.041467, 0.000035, 0.189611, 0.000078, -0.000103, -0.000085, 0.000022, -0.221054, -0.655741, 0.624014, -0.000019, -0.000210, -0.193024, -0.000099, -0.231495, 0.000061, 0.399069, -0.000107, -0.000203, -0.000023, -0.014364, -0.000340, -0.000327, 0.000000, -0.086256, 0.401470, -0.000117, 0.000022, 0.000298, -0.000278, 0.000095, -0.240723}, {-0.000159, -0.000094, -0.000053, -0.407151, 0.000062, -0.000192, 0.000097, -0.000243, -0.797442, 0.000127, -0.796984, 0.000100, 0.000138, -0.000045, 0.000244, 0.003341, -0.633008, 0.149372, -0.000311, 0.000119, 0.397273, 0.000004, -0.331675, -0.000171, -0.140201, 0.000163, 0.000025, 0.000120, -0.467019, 0.000076, 0.000071, 0.000030, -0.333796, 0.293093, -0.000142, -0.000191, -0.000200, -0.000207, 0.000065, -0.335571}, {0.000274, 0.000171, -0.000170, -0.103027, -0.000131, -0.000099, 0.000148, 0.000332, 0.026115, 0.000276, -0.036923, -0.000050, -0.000055, -0.000085, 0.000110, 0.014328, 0.033342, -0.013946, -0.000251, 0.000029, -0.023229, 0.000104, 0.060687, -0.000149, -0.068398, 0.000124, -0.000009, 0.000100, -0.013468, -0.000068, -0.000128, -0.000068, -0.006342, -0.007311, 0.000293, -0.000040, -0.000217, 0.000143, -0.000096, 0.082651}, {0.000001, 0.000137, -0.000022, -0.387834, -0.000013, -0.000049, -0.000001, 0.000000, 0.044383, 0.000034, 0.043933, 0.000119, 0.000083, 0.000186, 0.000147, -0.325644, -0.480685, -0.165039, 0.000279, 0.000173, -0.155989, -0.000025, -0.536700, 0.000018, -0.591790, -0.000146, 0.000142, 0.000159, 0.218072, 0.000065, 0.000098, -0.000033, -0.923195, -0.404919, 0.000143, 0.000024, -0.000087, -0.000052, -0.000063, -0.770266}, {-0.000613, 0.000067, 0.000213, -0.392917, -0.000078, -0.000059, -0.000158, 0.000035, 0.397804, 0.000372, 0.268468, 0.000032, -0.000134, 0.000048, 0.000204, -0.848751, -0.000381, 0.049726, 0.000027, -0.000187, 0.239576, 0.000340, 0.548405, 0.000055, 0.190034, -0.000141, -0.000147, -0.000233, 0.771403, 0.000124, 0.000236, 0.000018, -0.355357, 0.454164, -0.000064, -0.000187, -0.000048, -0.000157, 0.000155, 0.357087}, {-0.000316, -0.000278, 0.000208, -0.008821, -0.000110, -0.000258, 0.000046, -0.000270, 0.026012, 0.000286, 0.147689, -0.000022, -0.000065, -0.000245, 0.000216, -0.553059, -0.049253, 0.113675, -0.000300, -0.000247, 0.283999, 0.000247, 0.324491, -0.000192, 0.221025, -0.000304, 0.000213, 0.000067, 0.016393, 0.000073, 0.000223, 0.000018, -0.142976, 0.350372, -0.000122, -0.000232, -0.000211, 0.000106, -0.000333, 0.169519}, {-0.000610, -0.000015, 0.000567, 0.258223, 0.000246, 0.000125, 0.000058, -0.000313, 0.086497, 0.000419, 0.023109, 0.000242, -0.000196, 0.000001, 0.000499, 0.286870, 0.084707, -0.214397, 0.000140, 0.000211, -0.402874, 0.000592, 0.034206, 0.000081, -0.222518, -0.000302, -0.000098, -0.000187, 0.067431, 0.000718, 0.000448, 0.000007, 0.059547, -0.395721, 0.000173, -0.000119, 0.000115, -0.000161, 0.000066, 0.053019}, {-0.000324, -0.000132, 0.000275, 0.587480, -0.000060, -0.000368, -0.000097, 0.000033, -0.316185, 0.000216, -0.168545, 0.000003, -0.000212, 0.000120, 0.000148, 0.989647, -0.044753, 0.007226, 0.000112, -0.000030, -0.249610, 0.000100, -0.681026, -0.000146, -0.019954, -0.000050, -0.000115, -0.000217, -0.813056, -0.000106, 0.000227, 0.000037, 0.374180, -0.376994, 0.000192, -0.000213, -0.000467, 0.000094, 0.000015, -0.416397}, {-0.000227, -0.000271, -0.000182, -0.067125, 0.000099, 0.000612, -0.000071, 0.000167, 0.016234, 0.000132, -0.014110, 0.000120, 0.000101, 0.000227, 0.000013, 0.005600, 0.004322, 0.094688, -0.000243, 0.000196, 0.011258, -0.000003, 0.122684, 0.000437, -0.082237, 0.000019, -0.000052, -0.000139, 0.044291, 0.000007, -0.000284, -0.000083, 0.037615, -0.059112, 0.000023, 0.000170, 0.000389, -0.000170, -0.000003, -0.049933}, {0.000180, 0.000222, 0.000010, -0.241744, -0.000103, 0.000457, 0.000255, 0.000330, -1.112259, 0.000044, -1.043095, 0.000308, -0.000036, 0.000086, 0.000171, 0.075483, -0.781198, 0.002531, 0.000331, 0.000125, 0.245014, 0.000293, -0.319475, 0.000364, -0.422569, -0.000008, 0.000124, -0.000060, -0.545096, 0.000384, 0.000340, 0.000145, -0.426809, 0.100359, 0.000238, 0.000235, 0.000150, 0.000015, 0.000100, -0.351040}, {0.000073, 0.000050, -0.000211, 0.230746, -0.000118, -0.000097, -0.000151, 0.000085, 0.072429, 0.000017, -0.004675, -0.000152, -0.000031, 0.000110, 0.000055, 0.415809, 0.061338, -0.212165, 0.000114, -0.000037, -0.415540, -0.000252, -0.099683, 0.000111, -0.222719, -0.000116, 0.000132, 0.000165, 0.011414, -0.000200, -0.000119, -0.000151, 0.095742, -0.406652, -0.000065, 0.000137, -0.000112, 0.000232, 0.000139, -0.031086}};
static const float * p_layer_0_weight = layer_0_weight;
static const float layer_0_bias[40] = {-0.170873, -0.128807, -0.111090, 0.458850, -0.093568, -0.162304, -0.074862, -0.363219, 0.051790, -0.118134, 0.233926, -0.050640, -0.167913, -0.300797, -0.138848, -0.050814, -0.077677, 0.076820, -0.056322, -0.401722, 0.372030, -0.070263, -0.170060, -0.181139, -0.135220, -0.162046, -0.039257, -0.097342, -0.116925, -0.108144, -0.103038, -0.087138, -0.525066, 0.185832, -0.135192, -0.082525, -0.369616, -0.250599, -0.194277, -0.191817};
static const float * p_layer_0_bias = layer_0_bias;
static const float layer_1_weight[40][40] = {{-0.000085, 0.005241, -0.001544, 0.002611, -0.000054, 0.001988, -0.000071, -0.001031, -0.002121, -0.000072, -0.001761, -0.000924, 0.001202, -0.001648, -0.000938, 0.000277, 0.000788, 0.000462, -0.001100, -0.001054, -0.001143, 0.002553, -0.001690, 0.000299, -0.001946, 0.002565, 0.001626, -0.000176, -0.000714, 0.001046, 0.001297, 0.001396, 0.001155, -0.002178, -0.000407, -0.000781, 0.000634, 0.000198, 0.000615, -0.000307}, {0.000174, -0.001483, -0.000459, -0.003238, -0.001057, -0.003324, -0.000550, 0.000892, -0.000547, -0.000618, 0.000868, -0.000374, -0.002455, 0.000697, 0.002513, -0.000903, -0.001224, -0.001295, 0.000614, 0.001037, 0.001832, -0.000126, -0.000043, -0.001162, -0.001151, 0.000280, -0.002281, -0.000957, 0.000098, 0.000358, 0.001281, 0.000467, -0.000402, 0.003062, 0.001118, -0.001819, 0.001435, 0.001351, 0.000581, -0.002106}, {-0.000053, -0.003002, -0.002863, -0.002654, -0.001854, 0.001777, -0.001352, -0.000131, -0.000744, 0.002476, 0.000293, 0.000020, -0.001200, 0.000018, 0.004749, -0.001815, -0.001506, 0.001966, -0.001807, 0.002595, -0.000108, 0.004663, -0.001825, -0.000585, -0.001426, -0.000823, -0.001745, -0.001578, -0.002447, -0.000958, -0.000764, -0.003079, 0.000300, -0.007996, -0.002519, -0.000467, 0.000481, -0.003708, 0.003636, 0.000708}, {0.000183, -0.004380, 0.085901, -0.000101, -0.009024, -0.206926, -0.001211, -0.302578, -0.000285, -0.346609, -0.000095, -0.002499, -0.014989, -0.003393, -0.064765, 0.000812, -0.010514, -0.002134, -0.011570, 0.240152, 0.000483, 0.120599, -0.001173, 0.000413, -0.006788, -0.005941, -0.022874, 0.000784, -0.654820, -0.031117, -0.756089, -0.007501, -0.003491, -0.038177, -0.175595, -0.724056, -0.001522, 0.000499, -0.013106, -0.658724}, {0.001932, -0.001764, -0.001356, 0.001804, 0.001552, -0.001696, -0.001138, -0.001081, 0.000377, 0.002915, -0.000961, -0.001487, -0.002235, -0.002298, -0.000357, -0.002249, -0.001856, 0.000715, -0.003833, -0.003752, -0.002891, 0.001258, 0.001465, 0.001170, -0.001175, -0.001623, 0.000983, -0.000513, -0.001747, -0.002141, 0.000749, 0.001119, -0.002728, -0.005571, -0.001108, 0.000636, -0.001151, -0.001115, -0.001972, 0.001750}, {-0.001069, 0.000036, 0.002075, -0.002512, 0.000127, 0.001541, 0.000570, 0.002042, 0.002308, -0.001903, -0.000779, 0.001406, -0.003186, 0.001730, -0.000923, -0.000554, -0.001557, 0.000588, -0.000337, -0.003168, 0.000825, -0.000287, 0.000563, -0.002316, -0.000300, -0.002510, -0.002759, -0.001447, 0.001759, 0.000668, 0.002297, -0.002782, 0.001570, 0.003247, 0.002297, -0.001889, -0.000217, 0.001392, -0.002281, 0.000519}, {0.001637, -0.001478, -0.001740, -0.001579, 0.002236, 0.000130, 0.001458, -0.001972, -0.001631, -0.001807, -0.002016, -0.001123, 0.001520, 0.000907, -0.000438, 0.002298, -0.001974, -0.000521, -0.002744, -0.003364, 0.000506, -0.001902, 0.000511, 0.000802, -0.000274, 0.000686, 0.000283, -0.000259, -0.000952, -0.002222, 0.002884, -0.001068, 0.001741, 0.000286, 0.001047, -0.000069, -0.001989, -0.002105, -0.001572, 0.002401}, {-0.002785, 0.001161, -0.000161, 0.000687, 0.000921, 0.002253, 0.000259, -0.000749, -0.000882, -0.003873, 0.001519, -0.000152, 0.002114, 0.001732, 0.000585, 0.000735, 0.001436, -0.003719, 0.000808, 0.001901, -0.002430, 0.001115, 0.001524, -0.002257, 0.000701, -0.000294, -0.002460, -0.002437, 0.001942, -0.001201, -0.001798, 0.000907, -0.003519, 0.001886, -0.001188, -0.001538, -0.001456, 0.000445, -0.000007, -0.002867}, {-0.002421, -0.006609, 0.411636, 0.000740, -0.008584, -0.642829, -0.002361, -0.644788, -0.002678, -0.286618, -0.000384, -0.002125, -0.005231, 0.000493, 0.270441, -0.002985, -0.004980, -0.003976, 0.001835, -0.012208, -0.002821, 0.565367, -0.002335, -0.001671, -0.004053, -0.007061, -0.021135, -0.000146, -0.381415, 0.371051, 0.248987, -0.002376, -0.004635, 0.461863, -0.479500, -0.350900, -0.003262, -0.001744, -0.008120, 0.224939}, {-0.000836, -0.002259, -0.005673, 0.002242, -0.003181, 0.000426, -0.002474, -0.001713, -0.000176, -0.001019, -0.001212, -0.001259, -0.000671, -0.003743, -0.006196, 0.002328, 0.000325, 0.000558, -0.000895, -0.007969, -0.000134, -0.004915, -0.000087, 0.002148, -0.003172, -0.000270, -0.001700, 0.000756, -0.002790, -0.002890, 0.001629, -0.003048, -0.002416, -0.005516, 0.002511, 0.002625, 0.003626, 0.000306, 0.000419, 0.000389}, {0.000076, -0.000864, 0.322188, -0.001662, -0.006914, -0.516594, 0.000590, -0.777600, -0.001930, -0.115386, -0.002102, -0.002483, -0.014157, 0.000504, 0.240525, -0.002772, -0.006104, -0.001759, -0.000158, 0.132021, -0.002953, 0.425446, 0.000934, 0.000294, -0.007425, -0.003993, -0.013663, -0.001456, -0.743470, 0.385326, -0.226973, -0.005220, -0.006803, 0.228984, -0.201406, -0.798238, -0.001161, 0.000592, -0.008475, -0.251294}, {-0.002366, 0.001793, 0.003169, -0.002868, -0.001117, -0.000533, 0.000310, -0.001455, -0.000497, 0.001591, -0.002728, 0.001616, -0.002871, -0.001916, 0.000194, 0.000285, -0.001376, 0.001628, -0.005191, -0.002992, -0.003141, 0.002494, -0.001052, -0.001818, -0.000093, 0.001556, -0.001445, 0.000512, 0.001314, -0.002175, -0.000654, 0.000493, 0.000460, 0.001255, 0.001717, -0.001415, 0.000366, -0.003392, -0.004507, 0.002268}, {-0.001639, 0.000242, 0.002128, -0.001989, 0.000078, 0.000420, 0.000200, 0.000414, -0.001360, -0.001306, 0.000609, -0.000085, 0.000492, -0.002238, -0.001869, 0.000550, -0.002347, 0.000740, 0.001640, -0.000638, 0.000124, 0.001184, 0.000990, 0.002169, -0.001681, -0.001339, 0.002321, -0.001088, 0.001233, -0.002360, -0.001388, -0.000478, -0.001794, -0.000011, 0.000417, -0.000418, 0.001933, 0.001783, -0.000811, -0.001370}, {0.000957, -0.002913, -0.000672, -0.002200, -0.003089, -0.001912, -0.001454, 0.000247, -0.000846, 0.000528, -0.000169, 0.000114, -0.000156, -0.001396, 0.003888, 0.002287, -0.000329, -0.000262, 0.000417, -0.001280, -0.001198, -0.002363, 0.001673, -0.001002, -0.000722, -0.001299, -0.001609, -0.001824, -0.002266, -0.001219, 0.000258, -0.000856, -0.001484, -0.002581, -0.001737, 0.000337, -0.001964, -0.001701, -0.002547, -0.002304}, {-0.001088, -0.000339, -0.005741, 0.000108, -0.002184, 0.001545, -0.001700, 0.002318, -0.000019, -0.000366, -0.000053, 0.000110, 0.000256, -0.001776, -0.002342, -0.000144, -0.003518, 0.000061, 0.000403, -0.006697, -0.002538, -0.000058, -0.000114, -0.001767, -0.001032, 0.000303, -0.003232, 0.002317, 0.000378, -0.001124, 0.000856, -0.001910, -0.000219, -0.003239, -0.000881, 0.000484, 0.001154, -0.000059, -0.001837, -0.002382}, {0.000355, -0.004252, 0.286861, -0.008649, -0.001569, -1.251947, -0.000589, -1.235207, -0.003654, -0.325907, -0.003063, -0.002685, -0.009240, -0.002093, -1.790302, -0.002250, -0.001529, 0.000375, -0.028057, -0.651013, -0.001292, 0.263322, -0.001817, -0.001833, 0.001662, -0.003116, -0.009942, -0.000347, -0.335553, -0.477670, -0.267777, -0.001553, -0.004276, 0.178422, -0.314053, -0.363667, 0.000517, -0.002921, -0.007031, -0.284276}, {-0.002251, 0.002646, 0.565040, -0.001482, -0.002295, 0.074573, 0.000128, -1.049476, -0.000254, -0.524809, 0.000967, -0.002300, -0.015486, -0.001696, 0.288479, 0.000733, -0.005346, 0.000106, 0.013653, 0.467141, 0.000027, 0.473673, 0.001403, -0.003696, -0.002999, 0.000680, -0.005942, 0.001581, -0.650289, 0.211542, -1.319752, 0.002264, -0.000964, 0.559740, -0.016407, -0.648643, -0.002063, -0.002975, 0.011310, -1.269828}, {0.002004, 0.000024, -0.601985, -0.002967, -0.000527, 0.074076, 0.000639, 0.064468, -0.000766, 0.207652, 0.000089, -0.002184, -0.002707, -0.001562, -0.076377, -0.001723, -0.001278, 0.000117, -0.014459, -0.397672, 0.001704, -0.048274, -0.002339, -0.000418, -0.001766, -0.001751, -0.009506, -0.000865, 0.044908, -0.388627, 0.010388, -0.000342, -0.004465, -0.576757, 0.134254, 0.078358, -0.001207, -0.001055, -0.017157, 0.001064}, {-0.000011, -0.001724, 0.001258, 0.001358, -0.000984, 0.001300, -0.001007, -0.000893, -0.000843, 0.001231, -0.000025, 0.000398, -0.000507, -0.003384, 0.000124, -0.001849, -0.003104, 0.001411, 0.001701, -0.008322, 0.000130, -0.000144, 0.001422, 0.001582, -0.001328, -0.001060, -0.001121, -0.001234, -0.003150, 0.001907, -0.002963, -0.003073, -0.002267, 0.001959, -0.000812, 0.001966, -0.000101, -0.003504, -0.000499, 0.001781}, {0.001291, -0.000325, -0.000575, -0.002429, 0.000275, 0.002471, 0.001226, -0.000908, -0.001431, -0.001813, 0.002478, -0.001993, 0.002361, 0.000656, -0.002529, -0.000586, -0.001090, 0.002504, 0.000614, -0.001825, -0.000805, 0.000631, 0.001940, -0.001635, 0.002407, 0.001447, 0.000749, -0.000734, -0.000908, 0.002343, 0.001968, 0.001522, 0.000653, -0.001292, 0.001969, -0.000722, 0.001144, 0.002006, -0.000671, 0.000763}, {0.001007, -0.000419, -0.667384, -0.001819, -0.000346, 0.257233, -0.001843, 0.240737, 0.000287, 0.320617, -0.000785, 0.002211, 0.001248, -0.000406, -0.055824, -0.003430, -0.015496, -0.000780, -0.024193, -0.117988, 0.000316, -0.614082, 0.000471, 0.000989, -0.001208, -0.000585, -0.009955, 0.001402, 0.244397, 0.051677, 0.224128, -0.002040, -0.000208, -0.115363, 0.345622, 0.299258, -0.000931, -0.003083, -0.021102, 0.236835}, {0.001717, -0.003370, -0.004204, 0.001208, -0.002932, -0.001088, 0.001667, -0.000592, 0.001201, 0.002622, 0.000075, 0.001594, -0.001499, 0.000853, -0.002163, -0.000223, -0.002321, 0.000444, -0.004221, -0.005109, -0.001515, -0.003797, -0.000555, -0.000341, -0.002008, -0.003448, -0.003080, -0.001646, 0.000772, -0.000399, -0.000853, -0.002990, 0.000433, 0.000737, 0.000054, -0.000124, -0.002759, -0.000621, 0.002198, 0.000443}, {0.000241, -0.002019, 0.519240, 0.001963, -0.000323, 0.138517, -0.000834, -0.008511, -0.002830, -0.424074, 0.001134, -0.001507, -0.010428, -0.001504, 0.505271, -0.000972, -0.003960, -0.001210, 0.017459, 0.498184, 0.000574, 0.731145, 0.001000, 0.001409, -0.002527, -0.002682, -0.004176, 0.000630, 0.064804, 0.422613, 0.108077, -0.000719, 0.002826, 0.601980, 0.108755, 0.003234, -0.001958, -0.002731, 0.009640, 0.053870}, {0.002349, -0.000104, 0.002785, -0.002131, -0.000368, -0.000546, -0.002944, -0.000235, -0.002291, -0.001026, 0.000229, 0.000178, -0.001793, 0.001773, 0.000963, -0.002414, -0.001002, 0.001150, -0.002858, -0.002389, 0.001017, -0.000300, 0.001009, -0.002148, -0.000670, -0.002070, -0.001344, -0.001596, 0.001194, -0.001773, 0.001089, -0.000928, -0.000650, -0.001293, -0.001097, 0.002536, 0.002384, -0.000547, 0.002702, -0.001653}, {-0.001242, -0.004811, -0.777387, 0.001211, 0.000038, 0.139404, -0.001422, -0.044586, -0.001114, 0.367623, -0.001170, -0.002361, -0.001904, -0.002174, -0.933518, -0.001738, -0.004564, -0.000131, -0.015638, 0.086215, 0.000621, -0.955926, -0.001703, -0.001944, -0.001919, -0.001540, -0.008717, -0.001463, -0.035815, -0.262415, 0.179540, -0.002508, -0.002766, -1.222046, 0.345393, -0.046221, 0.000120, 0.000646, -0.016094, 0.179930}, {-0.000447, -0.001891, 0.002528, 0.000822, 0.000148, -0.001312, 0.001415, -0.000435, -0.000850, 0.001290, 0.001437, -0.001296, -0.001267, -0.001963, -0.001415, -0.000906, 0.002392, -0.000682, 0.001048, 0.000615, -0.001833, 0.000155, 0.001648, 0.002164, 0.000230, 0.000897, 0.002822, -0.002411, 0.000920, 0.001033, -0.000483, 0.002159, -0.001569, 0.003364, 0.003103, -0.000145, 0.000946, 0.002161, -0.000584, 0.001537}, {-0.000799, -0.002244, 0.000287, -0.001234, 0.001274, -0.001760, 0.001959, 0.000742, 0.001851, 0.002058, 0.000108, 0.000883, 0.001819, -0.000010, -0.000113, -0.001026, 0.001337, -0.000546, 0.000630, 0.000947, -0.000205, -0.001254, 0.002278, -0.002375, -0.000926, 0.002382, -0.000916, -0.001647, -0.001339, -0.001200, -0.001203, -0.002665, 0.000334, 0.000360, 0.001214, 0.000744, -0.000981, 0.000939, -0.002607, -0.001733}, {-0.002076, -0.000585, -0.001208, -0.000191, -0.001634, -0.000409, 0.001520, -0.000764, -0.001367, 0.000486, -0.000036, 0.001918, 0.000643, 0.001611, 0.000037, -0.000017, 0.001559, 0.002007, 0.000917, -0.002256, 0.000310, 0.001837, 0.000749, -0.002215, 0.000818, -0.001653, -0.001631, -0.002933, 0.000674, 0.000516, -0.000906, 0.001750, 0.002273, -0.000333, 0.001957, -0.001469, 0.000327, 0.000891, 0.000456, 0.001361}, {0.001740, 0.000837, 0.458070, -0.002662, -0.006360, 0.117722, -0.001375, -0.196888, 0.000905, 0.178175, -0.001900, -0.000272, -0.022593, -0.003715, 0.227721, -0.000030, -0.009370, -0.001006, 0.000900, -0.041149, -0.001611, 0.522175, 0.000204, -0.003204, -0.005985, -0.001695, -0.014094, -0.001496, -0.205835, 0.388893, 0.531771, -0.002258, -0.003155, 0.204477, -0.254183, -0.289860, -0.003964, 0.000303, 0.002118, 0.422799}, {-0.001299, -0.000747, -0.004055, 0.001668, -0.001675, -0.002423, -0.002312, -0.000467, -0.000497, 0.001205, 0.001657, -0.002947, -0.003938, -0.001720, 0.002526, 0.001754, -0.000989, 0.000569, -0.004127, 0.001084, -0.002241, -0.001715, -0.001896, 0.000799, -0.004383, 0.000972, -0.001972, -0.002026, -0.002142, -0.006180, -0.001223, -0.002259, -0.002448, -0.004408, -0.001336, -0.000059, 0.000169, -0.003644, -0.003199, -0.000536}, {-0.000958, -0.005072, -0.000346, -0.000443, -0.002943, -0.000195, -0.002189, 0.001381, -0.001264, -0.001370, 0.001569, -0.001210, -0.003552, 0.000339, -0.002996, 0.000096, -0.002257, 0.000274, -0.002010, -0.011593, -0.002781, 0.010543, 0.001482, -0.001488, -0.001183, -0.002359, -0.008245, 0.002088, -0.004157, 0.009427, -0.003142, -0.000997, -0.002674, -0.001192, 0.000006, 0.000335, -0.002464, -0.001006, -0.004290, -0.002812}, {0.001662, -0.000771, -0.001866, -0.002478, -0.001495, 0.002050, 0.002001, -0.000198, -0.002152, 0.000347, -0.000280, -0.002840, -0.000238, 0.000775, -0.002893, 0.001037, -0.003610, 0.001001, -0.001921, -0.002367, -0.000857, 0.002348, -0.000787, -0.001173, 0.000466, 0.000507, 0.000256, 0.002515, -0.001140, 0.000665, 0.002072, 0.001098, -0.000821, 0.001499, -0.000680, 0.001171, 0.001021, -0.000998, -0.002127, -0.002202}, {-0.004863, -0.005325, 0.772182, 0.002665, -0.005734, -0.200919, -0.000405, -0.055163, -0.000497, 0.797681, -0.000772, -0.001382, -0.003673, -0.001010, -0.858380, -0.000051, -0.005904, -0.003835, -0.028896, -1.283469, 0.000556, 0.798630, -0.001884, -0.000570, -0.001775, -0.003073, -0.005060, -0.002973, -0.036775, -1.588806, -0.171456, -0.007064, 0.000189, 0.490693, 0.313488, 0.039017, -0.001922, 0.001946, 0.018319, -0.135816}, {-0.001014, -0.003354, -0.372517, 0.000286, -0.001526, 0.287155, -0.002315, 0.259323, 0.001119, 0.400047, -0.002369, 0.001849, 0.000916, -0.000061, -0.290095, 0.001983, -0.001090, -0.001576, -0.018126, 0.120929, -0.001098, -0.217337, -0.000981, -0.001287, -0.000561, -0.000418, -0.005210, -0.000421, 0.220392, -0.046498, 0.178862, -0.002514, -0.004234, -0.647001, 0.336078, 0.262364, -0.001576, 0.000491, -0.023957, 0.174958}, {0.001782, 0.000870, 0.002781, -0.000960, 0.000641, -0.001404, -0.001175, -0.001403, 0.001737, -0.000090, 0.000125, -0.000032, 0.000751, -0.001480, -0.001379, -0.000503, -0.001013, -0.000980, -0.004041, -0.003793, -0.002148, 0.000781, 0.002249, 0.001819, 0.001288, -0.001848, -0.000339, 0.000209, -0.001068, 0.001133, 0.000698, 0.002143, 0.002644, 0.001956, 0.001668, -0.002016, -0.001978, -0.001114, -0.002275, 0.001689}, {-0.000067, -0.002060, -0.002083, -0.000921, 0.001544, -0.000474, -0.002702, 0.002554, 0.002394, 0.001659, -0.001844, 0.000895, 0.000469, -0.000219, -0.002132, -0.002421, 0.001968, -0.002507, -0.002141, -0.001590, -0.002103, 0.001579, 0.001076, 0.000040, -0.002582, -0.001264, -0.000494, 0.002214, -0.001713, 0.000010, -0.000181, 0.002202, -0.001115, 0.001298, 0.002071, -0.000882, 0.001552, -0.001588, 0.000265, -0.001396}, {-0.001465, 0.002759, -0.001435, -0.003713, 0.002171, -0.000558, 0.000246, -0.001350, -0.001798, 0.000837, -0.001394, -0.001329, -0.001651, 0.001265, 0.002444, 0.002484, 0.001440, 0.000026, 0.001360, 0.002323, 0.001850, 0.001009, 0.001020, -0.002142, -0.003044, 0.000607, 0.002515, -0.001477, 0.000321, 0.001068, 0.002905, -0.000067, -0.000195, -0.001764, -0.002008, 0.001355, -0.000393, -0.002337, 0.001196, -0.000920}, {-0.003032, 0.001496, 0.000948, -0.000566, -0.000365, -0.000393, 0.002341, -0.002767, 0.000480, -0.000365, 0.001563, -0.000585, 0.002211, -0.001875, 0.000419, 0.001123, 0.000037, 0.002457, 0.001283, 0.000635, 0.001434, 0.001167, -0.001247, -0.002064, 0.000431, -0.002389, 0.001672, -0.001883, 0.000155, -0.000059, 0.001599, 0.000793, -0.002504, -0.002773, -0.001251, -0.000242, 0.000926, -0.001604, -0.002066, -0.002273}, {-0.001394, 0.000708, 0.000874, 0.003398, -0.000800, -0.000400, -0.001206, 0.000249, -0.002239, -0.001867, 0.000737, -0.001232, 0.000154, 0.002078, 0.000195, -0.001505, 0.001954, -0.000498, 0.002747, -0.000365, -0.001367, -0.001251, 0.001426, -0.000510, 0.001695, 0.002254, -0.001991, -0.002492, -0.001128, -0.000027, 0.001455, -0.000801, 0.002336, 0.000704, 0.002327, -0.000926, 0.002328, -0.001346, 0.000734, 0.001110}, {0.001850, 0.002144, 0.325067, -0.001973, 0.002771, 0.343961, 0.000093, 0.002239, -0.000943, -0.641039, 0.001051, -0.001365, -0.009974, -0.000465, 0.581633, 0.000741, 0.002423, 0.001321, 0.008566, 0.604555, 0.000262, 0.464960, 0.001144, 0.000832, -0.001528, -0.003260, -0.001209, -0.002946, 0.200466, 0.465805, -0.140019, -0.002159, -0.000111, 0.519331, 0.219532, 0.138317, -0.000957, -0.001547, 0.005985, -0.124136}};
static const float * p_layer_1_weight = layer_1_weight;
static const float layer_1_bias[40] = {-0.119060, -0.060562, -0.193102, -0.026414, -0.005437, 0.486759, -0.068736, 0.444469, -0.245845, 0.291359, -0.159719, -0.092740, -0.021672, -0.133982, 0.168925, -0.148684, -0.071325, -0.090316, -0.589653, -0.710520, -0.153319, -0.116653, -0.092401, -0.149913, -0.090436, -0.005054, -0.067719, -0.126512, 0.238906, -0.401160, 0.196556, -0.030409, -0.012203, 0.355076, 0.431581, 0.241721, -0.095002, -0.131863, -0.454118, 0.191933};
static const float * p_layer_1_bias = layer_1_bias;
static const float layer_2_weight[40][40] = {{0.001237, -0.053595, -0.041072, -0.007733, -0.016415, -0.008102, -0.052747, -0.031427, -0.024792, -0.015779, -0.064537, -0.041534, -0.048211, -0.038340, 0.013215, 0.001055, 0.024165, 0.043586, -0.036159, -0.010567, 0.020585, -0.027548, -0.038507, 0.024752, -0.047619, -0.018750, -0.050411, 0.034720, -0.031299, -0.008561, 0.054759, 0.014433, -0.028298, -0.044095, 0.044092, -0.013031, -0.015002, 0.011001, 0.031791, 0.023124}, {0.007988, 0.009748, 0.046669, -0.017714, 0.000175, 0.032729, 0.005264, 0.031162, -0.040862, 0.038668, -0.072321, -0.001346, -0.022498, 0.011063, 0.047265, -0.035656, -0.024282, -0.032938, 0.023752, 0.041342, 0.062017, -0.007159, 0.028986, -0.007756, -0.054589, -0.041903, -0.019614, 0.007350, -0.041609, -0.008016, -0.010060, -0.004442, 0.009474, 0.018535, 0.029905, 0.006578, 0.020028, -0.073399, -0.042709, 0.064327}, {0.021280, 0.010387, -0.081853, -0.094710, -0.159008, -0.112337, -0.077305, -0.132219, 0.002563, 0.529011, -0.056750, -0.043387, 0.007254, -0.140859, -0.827037, -0.121949, -0.202122, -0.369675, -0.061650, 0.008835, 0.000720, -0.041488, -0.173930, -0.335030, 0.023913, -0.017300, -0.024889, -0.158762, -1.252165, -0.001897, -0.019746, -0.560888, -0.022675, 0.017585, 0.029704, -0.020562, -0.017293, -0.037854, -0.094513, 0.670820}, {0.029496, -0.002233, 0.026999, 0.040671, 0.024175, 0.017172, -0.031586, 0.042487, -0.002893, -0.035819, -0.006539, -0.006355, 0.014694, 0.015368, 0.009140, 0.028955, -0.042956, -0.034006, 0.007202, -0.036053, -0.017104, 0.027815, -0.008250, -0.031553, -0.046104, -0.026606, 0.006351, -0.017038, 0.020623, -0.013800, -0.007637, 0.021694, 0.024071, 0.006454, 0.004547, -0.020037, 0.037915, -0.035535, -0.025764, 0.031285}, {0.026397, 0.034816, -0.012342, -0.039377, -0.036073, 0.004239, -0.030756, 0.026255, 0.034210, -0.025189, -0.025432, -0.015937, -0.034169, 0.028179, 0.027190, 0.014997, 0.021802, 0.024738, -0.000264, 0.030048, -0.054265, 0.010938, -0.008308, -0.037610, -0.040184, 0.003218, 0.009962, -0.051899, -0.003775, -0.040269, 0.013184, -0.049185, 0.004184, 0.023060, 0.030338, -0.026796, -0.044880, -0.055727, -0.009977, 0.019078}, {-0.020904, -0.028059, -0.073393, -0.021863, -0.181225, -0.006832, -0.010657, -0.097575, -0.019961, -0.065355, -0.064864, -0.012766, -0.038389, 0.540821, 0.502973, -0.047838, -0.047316, -0.046338, -0.070331, 0.034543, -0.001126, 0.000782, 0.224485, 0.033353, -0.016599, 0.031493, -0.076450, -0.086192, 0.599058, -0.019209, -0.039631, 0.552830, -0.040863, -0.036728, 0.013989, 0.028124, -0.085010, -0.006999, 0.019204, -0.496869}, {-0.018919, 0.063748, 0.015626, 0.024631, -0.018449, -0.040490, -0.021574, -0.052405, 0.003921, 0.009225, -0.018163, 0.016953, 0.037840, -0.033886, 0.002882, -0.051868, 0.014600, -0.030729, -0.006862, 0.009265, -0.026337, 0.067879, 0.023397, -0.046587, 0.032950, 0.031030, -0.002036, -0.007085, -0.004880, -0.001515, 0.036784, 0.003869, -0.008522, -0.022376, 0.028052, 0.002833, 0.022144, -0.033792, 0.036622, 0.036674}, {-0.037168, -0.017448, -0.009716, -0.041431, -0.141834, -0.034613, 0.028593, -0.091384, 0.046657, 0.487063, -0.040915, -0.082863, 0.021479, 0.558811, 0.589294, -0.005534, -0.046842, 0.028422, -0.035407, -0.014026, -0.023135, -0.016406, 0.257959, 0.027879, -0.059922, 0.021019, -0.048739, -0.068126, 0.586376, 0.018537, 0.001102, 0.637712, -0.018163, -0.008944, 0.010100, 0.008020, -0.073917, 0.009474, -0.015067, 0.319898}, {-0.002302, 0.056632, -0.038031, -0.030842, -0.001250, -0.035224, -0.000367, 0.018374, 0.024931, 0.009653, 0.055971, -0.047302, 0.006306, -0.020154, 0.010733, -0.043904, 0.013370, 0.032924, 0.025473, 0.003080, -0.010222, 0.016483, 0.044353, -0.010986, -0.032157, 0.004210, -0.000781, 0.001268, 0.013495, -0.026732, -0.014524, -0.044717, -0.008411, -0.044428, 0.010769, -0.038530, 0.038466, -0.041032, 0.040719, 0.011975}, {-0.002677, -0.056487, -0.092866, -0.020452, -0.042073, -0.042748, -0.046836, -0.076208, -0.020130, -0.480848, -0.151637, -0.033624, -0.034302, 0.491853, 0.508676, -0.075573, -0.034301, -0.041723, -0.007228, 0.024238, 0.021296, -0.051315, 0.292691, -0.034243, -0.017197, -0.025016, -0.030618, 0.029528, 0.537522, -0.026173, -0.001224, 0.599426, -0.043456, -0.023868, 0.040326, -0.039143, -0.002127, -0.002536, -0.010823, -0.194388}, {-0.006179, -0.011555, -0.005441, -0.029003, 0.027308, 0.005249, -0.029824, 0.006292, 0.031999, 0.006937, 0.061012, -0.045301, 0.012493, -0.005765, -0.021422, 0.032333, 0.034644, -0.047805, 0.031360, 0.037213, 0.010953, 0.019299, -0.059381, -0.043401, 0.031354, -0.035793, -0.015494, 0.004988, 0.009760, -0.017235, -0.015246, -0.013147, 0.008039, -0.001813, -0.048372, 0.026927, -0.043376, -0.026311, 0.009497, -0.002307}, {0.001571, 0.026356, 0.027259, -0.011957, -0.001351, 0.026384, 0.002665, 0.045325, -0.042467, 0.037268, 0.014830, 0.037275, 0.015831, 0.018142, -0.003271, 0.007109, -0.029846, 0.007615, -0.038271, -0.014472, 0.006786, -0.035423, -0.016104, 0.001874, -0.042441, 0.013461, -0.042376, -0.059372, 0.039261, -0.005630, 0.020197, -0.019572, 0.000006, -0.025792, 0.040927, -0.035585, -0.026639, 0.019859, -0.023474, 0.002115}, {0.009914, 0.052044, -0.025938, -0.050678, -0.056987, -0.029944, 0.018715, -0.006412, 0.031416, -0.039582, -0.066182, 0.014761, 0.019907, 0.004295, 0.038118, 0.021402, -0.029362, -0.075692, -0.035223, -0.027328, -0.048504, -0.045527, 0.000841, -0.062884, -0.004178, -0.045215, 0.020197, -0.113726, 0.020034, 0.006028, -0.042998, 0.017057, -0.041132, -0.003122, -0.045043, -0.025512, 0.014231, -0.022159, 0.021012, 0.084649}, {0.026858, 0.038903, 0.024289, 0.006357, -0.022397, -0.024397, 0.000814, 0.038308, 0.015973, -0.010319, 0.049472, 0.055717, 0.036247, -0.027851, -0.005225, -0.015227, -0.018784, -0.033263, 0.012066, 0.006784, 0.040567, -0.051411, -0.000930, -0.049741, 0.027387, 0.026306, 0.052293, -0.030530, 0.018811, 0.012549, -0.025624, -0.004211, 0.009343, -0.035339, 0.032068, 0.014006, -0.009828, 0.025793, -0.038469, 0.026783}, {0.010437, -0.015683, 0.031073, -0.031120, -0.035723, -0.042162, 0.016894, -0.016376, 0.028509, 0.557422, -0.016982, -0.022742, 0.023262, -0.407581, -0.677579, -0.028932, -0.076389, -0.919760, -0.051632, -0.028159, -0.035367, -0.031325, -0.890292, 0.051790, -0.010516, 0.037232, -0.063747, -0.049649, -0.107540, -0.046661, -0.042989, -0.258171, -0.001583, 0.033808, -0.030340, -0.035911, -0.021256, -0.076661, 0.044703, 0.803992}, {-0.019556, 0.010230, -0.009001, 0.022095, 0.020861, -0.013930, -0.011139, 0.039868, -0.043365, 0.037476, 0.011266, 0.017435, -0.047466, 0.014083, -0.071374, -0.028554, -0.062885, -0.053483, 0.004628, 0.007478, 0.028306, -0.009397, 0.015780, -0.006403, -0.040739, -0.043470, 0.009449, 0.009233, -0.035068, 0.038280, 0.071172, -0.036534, -0.008782, 0.019272, -0.043989, 0.019748, 0.030583, -0.026312, -0.011694, 0.033723}, {-0.024440, -0.030580, -0.035619, -0.044738, -0.037900, -0.043531, -0.021031, -0.016248, -0.041009, -0.058871, -0.123882, -0.041239, -0.062179, -0.027710, -0.022362, 0.005149, 0.005162, -0.080905, -0.063565, 0.032837, 0.011388, -0.034483, -0.030331, 0.004813, 0.013191, 0.029782, -0.077379, 0.018926, -0.012558, -0.013548, -0.079851, -0.060543, 0.046426, 0.017789, -0.032639, -0.015770, -0.012394, -0.072642, -0.037802, 0.080605}, {0.027998, -0.004914, 0.028251, -0.023114, 0.018344, -0.039985, 0.002507, -0.004556, -0.026914, -0.014218, -0.092755, 0.007907, 0.019882, 0.008002, 0.036582, -0.043884, -0.023507, -0.022427, 0.021189, 0.012073, 0.020088, 0.002599, -0.005290, -0.006153, -0.048441, -0.027472, -0.061755, -0.054663, 0.005091, 0.030159, -0.027795, 0.019809, -0.027769, -0.038482, -0.022476, 0.031303, 0.031659, -0.036028, -0.017128, 0.020757}, {-0.033625, 0.021798, 0.051705, 0.010706, 0.014400, 0.016822, -0.049669, -0.051359, 0.045573, 0.146944, -0.115372, -0.050068, 0.021838, -0.112786, 0.002885, -0.030978, -0.017641, 0.029832, 0.071859, 0.015943, -0.040285, -0.015006, -0.015139, -0.014630, -0.057351, -0.011557, -0.035978, 0.004944, 0.054210, 0.026678, -0.039005, -0.076489, -0.007545, -0.027365, -0.034298, 0.012421, 0.015920, 0.019826, 0.014928, 0.089989}, {-0.002534, 0.011573, -0.027240, 0.028059, -0.002852, 0.014929, 0.002454, -0.033704, -0.007274, 0.787813, 0.078635, -0.027863, -0.042826, 1.222371, -0.094995, 0.031592, -0.026209, -0.359405, 0.039993, -0.050867, 0.018295, 0.021351, 0.016520, 0.052976, 0.025284, -0.045787, 0.092330, -0.004939, -0.340044, -0.025697, 0.029648, -0.133207, -0.023216, -0.006159, 0.020374, 0.042255, -0.028242, -0.079241, 0.000676, 0.909929}, {0.018384, -0.030964, -0.020645, 0.035360, -0.031686, 0.000926, 0.014021, 0.054633, 0.001245, -0.027008, 0.068439, 0.015755, -0.009427, 0.040820, -0.024799, -0.009903, -0.008414, 0.028510, -0.000274, 0.020637, 0.028796, -0.023947, -0.026717, -0.038840, -0.009066, -0.037825, 0.056907, 0.027880, -0.027143, -0.014127, -0.033113, 0.019636, -0.001844, -0.013973, -0.026759, -0.037013, 0.019066, -0.002736, 0.038625, -0.005392}, {-0.066240, -0.002421, -0.051071, -0.047104, -0.218100, -0.113590, -0.039245, -0.072616, 0.024014, 0.606290, -0.000683, -0.053019, -0.058585, -0.389262, -0.378890, -0.056998, -0.077906, -0.859688, -0.000005, -0.018909, -0.035855, -0.009312, 0.687174, -0.131139, -0.007021, -0.035521, 0.050508, -0.031596, -1.556028, -0.016117, 0.011963, -1.087270, -0.024238, -0.041377, -0.019028, -0.039249, -0.048707, -0.047164, -0.150199, 0.848043}, {-0.017691, 0.017610, -0.042851, 0.002146, 0.021240, -0.011525, -0.025295, 0.023935, -0.020355, -0.033554, 0.031416, -0.009855, 0.023506, 0.037243, -0.000574, 0.000739, -0.003238, 0.006431, -0.044043, 0.015818, 0.019902, -0.019706, 0.008946, -0.029498, -0.025072, -0.044972, -0.026443, -0.012846, -0.047578, -0.001054, -0.015431, 0.029839, 0.023424, 0.039590, -0.039307, 0.042357, -0.016491, -0.013707, 0.009279, 0.006040}, {-0.015625, 0.004231, 0.009570, -0.010100, 0.036557, 0.001858, 0.004455, 0.034684, 0.019353, 0.016222, 0.026935, -0.045690, -0.032491, 0.044007, -0.006189, 0.005227, 0.006841, 0.024214, -0.033956, -0.011876, 0.028797, -0.022895, -0.010404, -0.017330, 0.016535, 0.030500, -0.028947, -0.017986, 0.047705, -0.004774, -0.036108, 0.046981, 0.044224, 0.008730, 0.004950, -0.045053, -0.001221, 0.033655, -0.038139, -0.019783}, {0.004844, 0.037306, 0.019338, -0.035672, -0.054368, -0.036242, 0.002028, 0.044159, 0.018376, 0.026901, -0.074576, -0.027645, -0.047433, -0.019968, 0.003578, -0.023625, -0.015591, 0.037009, 0.026995, 0.024228, 0.014695, 0.040850, 0.035751, -0.052178, 0.029861, -0.039155, -0.050194, -0.054889, -0.042363, 0.030052, -0.042598, 0.039145, 0.007525, -0.002344, 0.027229, 0.035956, -0.021060, -0.001253, -0.008948, 0.033587}, {0.019766, -0.070706, 0.006453, -0.070132, 0.012257, -0.025932, -0.055274, -0.030391, 0.019388, -0.021580, -0.016105, -0.026609, -0.032691, -0.026849, 0.011219, -0.005683, -0.065841, -0.005063, -0.018403, -0.018073, 0.006071, 0.018708, -0.008035, -0.028805, -0.060965, -0.040820, -0.075975, -0.035196, -0.043962, 0.027352, 0.015427, 0.005134, -0.023711, 0.014716, -0.037591, -0.044786, -0.033616, 0.012023, -0.036114, -0.082935}, {0.020397, -0.046536, 0.010577, -0.048776, -0.032447, -0.045055, -0.001557, -0.022501, 0.031297, -0.001660, -0.013191, 0.017450, -0.058794, 0.007383, 0.006788, 0.031506, -0.056069, 0.043154, 0.017386, -0.037912, 0.031655, 0.030854, 0.030201, -0.056722, -0.003034, -0.030006, 0.015179, -0.085682, -0.000232, 0.001384, -0.034942, 0.064809, 0.003771, -0.007515, 0.025395, -0.020506, 0.010608, -0.022898, -0.037834, -0.041259}, {0.034226, -0.004701, 0.024726, -0.041308, -0.023039, 0.015238, 0.048281, -0.027727, 0.030731, 0.029516, -0.012297, 0.018960, -0.025073, 0.041096, 0.010542, -0.023284, -0.008232, -0.023614, 0.009339, -0.039958, 0.001383, 0.008336, 0.008758, 0.001103, 0.008084, -0.030061, -0.020573, 0.033995, -0.046324, 0.017886, 0.021251, -0.024546, -0.045625, 0.007004, 0.021746, 0.008661, 0.011630, -0.002916, 0.037289, 0.020447}, {-0.025433, 0.024488, -0.032848, -0.033453, -0.165171, -0.035856, -0.052661, -0.072853, -0.019490, 0.125669, 0.033794, 0.031069, 0.003558, 0.401763, 0.320762, -0.026273, -0.027996, -0.161472, -0.038789, -0.033057, 0.011973, -0.055855, 0.096183, -0.020404, -0.035691, 0.044891, -0.037338, -0.070592, 0.365886, 0.041256, 0.045204, 0.457894, 0.024876, 0.013493, -0.032068, -0.010356, -0.050495, -0.056488, -0.017005, 0.168275}, {-0.038023, -0.024023, -0.061836, -0.011628, -0.002412, -0.025804, -0.000512, -0.055884, -0.046172, 0.419729, 0.018965, 0.030194, -0.059545, 0.221422, 0.915548, -0.020099, 0.005306, -0.246191, -0.047727, -0.028490, 0.011318, -0.007208, 1.208940, 0.047449, -0.025471, 0.022622, 0.057624, 0.018773, -0.283573, -0.006212, -0.033980, -0.364170, -0.050014, 0.033973, 0.020570, -0.000475, -0.052399, -0.075426, -0.090479, 0.551928}, {-0.040426, 0.028392, -0.022215, -0.083047, -0.169899, -0.053324, -0.085621, -0.044414, -0.011099, -0.820473, 0.048271, 0.024945, -0.016667, 0.360009, 0.321863, -0.034587, -0.035259, -0.212397, -0.023299, -0.005495, -0.017197, -0.020942, 0.006224, -0.094514, -0.034005, -0.017609, -0.091315, -0.114795, 0.318469, 0.008212, -0.012217, 0.409948, 0.017443, -0.003806, 0.004263, 0.010490, -0.050507, -0.064293, -0.015491, -0.151037}, {0.015501, -0.065251, 0.009678, 0.003693, 0.025231, -0.050624, -0.004905, -0.031897, 0.033478, -0.024501, -0.032248, 0.021129, -0.079661, 0.009466, -0.063442, 0.015256, 0.025533, -0.000127, -0.003865, 0.019240, 0.017821, 0.033681, -0.007298, -0.017053, 0.032456, 0.011953, -0.019091, -0.026881, -0.020524, -0.048779, 0.027952, -0.031529, -0.031175, 0.023375, 0.034379, -0.015792, 0.030518, -0.027638, 0.001475, 0.021053}, {0.003677, -0.020815, -0.037849, -0.006558, 0.023382, 0.012527, -0.042921, 0.003514, 0.034803, -0.011353, -0.057838, -0.058043, -0.052884, -0.018709, 0.017898, -0.000858, -0.018226, 0.050628, -0.015029, -0.028750, -0.036816, 0.037426, 0.004360, 0.045846, -0.014249, 0.040762, -0.058279, -0.047735, -0.025797, -0.030587, -0.033984, 0.019224, 0.019178, 0.038740, 0.037829, 0.039130, 0.024712, 0.004151, -0.009566, 0.006207}, {-0.030551, -0.018038, -0.100340, -0.225273, -0.210569, -0.206642, -0.107437, -0.172659, -0.045584, 0.241800, -0.109848, -0.061742, -0.061458, -0.090146, -1.305500, -0.135933, -0.242384, -0.345711, -0.208393, 0.007157, -0.003008, 0.009739, -0.972087, -0.307159, -0.032083, -0.040777, -0.078039, -0.441589, -0.788936, 0.013359, 0.006841, -0.445200, -0.013434, -0.009496, -0.049341, -0.062221, 0.019233, -0.018542, -0.134974, 0.437334}, {-0.005732, -0.108455, -0.028273, -0.065627, -0.062564, -0.085821, -0.115625, -0.153937, -0.013928, -0.420235, -0.076327, -0.017881, -0.052648, 0.409848, 0.269290, -0.121022, -0.037308, -0.221176, -0.080073, -0.028095, -0.034076, -0.005865, 0.149891, -0.107345, -0.022566, -0.016878, -0.072878, -0.016636, 0.377661, -0.027953, -0.076882, 0.433801, 0.012250, -0.002139, -0.046716, -0.005476, -0.012044, -0.017941, -0.031434, -0.429856}, {-0.027254, -0.026546, -0.040810, -0.026264, -0.029189, -0.053424, -0.047962, -0.023666, -0.027512, 0.270582, -0.050496, -0.074898, -0.015349, 0.469134, 0.517368, -0.056761, -0.071972, -0.021371, -0.028144, -0.014837, -0.004291, 0.022568, 0.267557, 0.016819, 0.030561, -0.042374, -0.045930, -0.009468, 0.545932, -0.011354, 0.010377, 0.625036, 0.042640, 0.007429, -0.022267, -0.061630, 0.007241, 0.008705, 0.017004, 0.156213}, {-0.008410, -0.061600, 0.023159, -0.014889, 0.021509, 0.037611, 0.024678, -0.018184, -0.002708, 0.033589, -0.017432, 0.043688, 0.014990, -0.021819, 0.026286, -0.004807, -0.019473, 0.011304, -0.070881, -0.040497, 0.038774, 0.025317, 0.040736, 0.034742, 0.047203, 0.008500, -0.028439, 0.011766, -0.004000, -0.032439, 0.006157, 0.025585, -0.022652, 0.051328, -0.002293, -0.025802, -0.019643, 0.032057, 0.013545, -0.021140}, {-0.010954, -0.024111, 0.003518, 0.050127, -0.007468, -0.016548, -0.011042, -0.055943, 0.021044, -0.014790, -0.012490, -0.004269, 0.020922, 0.012721, -0.003046, -0.022568, -0.024227, 0.042765, 0.011261, 0.048148, 0.025366, 0.019255, 0.003840, 0.036867, -0.034422, -0.030146, -0.001632, 0.011586, 0.046040, 0.019701, -0.037222, 0.027091, -0.046853, -0.003271, -0.045768, 0.047595, 0.001282, 0.034253, -0.022525, -0.043946}, {-0.004141, 0.006955, -0.045329, -0.071307, -0.082527, -0.057132, -0.008918, -0.074825, -0.046498, 0.045296, -0.078080, -0.078588, 0.007812, -0.063605, -0.065365, 0.013461, -0.123263, -0.159876, -0.064408, -0.007892, 0.027586, -0.056815, -0.181200, -0.035801, -0.010253, 0.025744, -0.026731, -0.047337, -0.004066, -0.017577, 0.011250, -0.133465, -0.022846, 0.027505, 0.013912, -0.046377, 0.019516, 0.016071, -0.118493, 0.015602}, {-0.043948, -0.035303, -0.010015, -0.053306, -0.130513, -0.015339, -0.051405, -0.032480, -0.035065, -0.784585, -0.031632, 0.011806, 0.009764, 0.347494, 0.296105, -0.053605, -0.076659, -0.250159, -0.037925, 0.022042, 0.020505, 0.030426, 0.078107, -0.080504, 0.003344, 0.024506, -0.009387, -0.051233, 0.328670, 0.019945, 0.019066, 0.312717, -0.006399, 0.025452, -0.047993, -0.010919, -0.063586, -0.061361, 0.024094, -0.381154}};
static const float * p_layer_2_weight = layer_2_weight;
static const float layer_2_bias[40] = {-0.144210, -0.214236, -0.093274, -0.047311, 0.007979, 0.007844, -0.019270, -0.027295, -0.021644, -0.262156, -0.450714, -0.083541, -0.153483, 0.661414, 0.222537, -0.059550, -0.032568, 0.051610, -0.119682, -0.129653, -0.124012, -0.165321, 0.125442, -0.076189, -0.306250, -0.072685, -0.233455, -0.032671, 0.346261, -0.140982, -0.168186, 0.428118, -0.213890, -0.122960, -0.167790, -0.140077, -0.056780, -0.151138, -0.008452, -0.141490};
static const float * p_layer_2_bias = layer_2_bias;
static const float layer_3_weight[40][1] = {{0.022926}, {-0.004771}, {0.071963}, {-0.062370}, {-0.049200}, {0.058560}, {0.002149}, {0.045130}, {0.136912}, {0.408953}, {-0.009651}, {0.077540}, {0.067693}, {-0.465849}, {-0.630846}, {0.057486}, {0.030711}, {-0.034888}, {-0.070105}, {0.077526}, {0.012686}, {-0.004955}, {-0.216998}, {-0.072626}, {-0.065138}, {-0.104505}, {0.001512}, {0.013527}, {-0.676309}, {0.137764}, {-0.003919}, {-0.748649}, {0.071769}, {0.064964}, {-0.029111}, {-0.025451}, {0.015760}, {-0.058422}, {-0.002262}, {0.837705}};
static const float * p_layer_3_weight = layer_3_weight;
static const float layer_3_bias[1] = {-0.601133};
static const float * p_layer_3_bias = layer_3_bias;
    
static float sigmoid(float num) {
    return 1.0f / (1.0f + expf(-num));
}

static float step(float num) {
    if (num < 0) {
        return 0;
    }
    return 1;
}

static float relu(float num) {
    if (num > 0) {
        return num;
    } else {
        return 0;
    }
}

static float linear(float num) {
    return num;
}

static void layer(const float * in, const float * layer_weight, const float * layer_bias,   
            int row, int col, float * output, int use_activation) {
    int ii;
    int jj;
    const float * p;

    for(ii = 0; ii < col; ii++) {
        p = layer_weight + ii;
        output[ii] = 0;
        for (jj = 0; jj < row; jj++) {
            output[ii] += in[jj] * (*p); 
            p += col;
        }
        output[ii] += layer_bias[ii];
        
        if (use_activation == 1) {
			output[ii] = relu(output[ii]);
        }
    }
}

const float* nn_rho_2(const float* input) {
	layer(input, p_layer_0_weight, p_layer_0_bias, STRUCTURE[0][0], STRUCTURE[0][1], output_0, 1);
	layer(output_0, p_layer_1_weight, p_layer_1_bias, STRUCTURE[1][0], STRUCTURE[1][1], output_1, 1);
	layer(output_1, p_layer_2_weight, p_layer_2_bias, STRUCTURE[2][0], STRUCTURE[2][1], output_2, 1);
	layer(output_2, p_layer_3_weight, p_layer_3_bias, STRUCTURE[3][0], STRUCTURE[3][1], output_3, 0);

	return output_3;
}
