/*
 * FILE: generated.c
 */

#include <stdio.h>
#include <stdlib.h>
#include <string.h>
#include <math.h>
#include "rho_0902_2.h"

static const int STRUCTURE[4][2] = {{40, 40}, {40, 40}, {40, 40}, {40, 1}};
static float output_0[40];
static float output_1[40];
static float output_2[40];
static float output_3[1];
static const float layer_0_weight[40][40] = {{-0.000078, -0.000236, -0.000487, 0.001077, -0.002161, 0.000492, 0.000128, 0.002541, 0.003666, 0.000418, -0.001536, -0.000023, 0.000258, 0.001500, -0.000421, 0.075649, 0.007482, -0.001183, -0.002519, 0.005344, 0.000216, -0.001373, -0.000717, -0.041133, 0.000898, -0.001030, -0.147025, -0.000377, 0.003612, -0.000325, 0.064345, -0.000033, 0.001020, 0.000844, -0.001351, 0.000068, -0.000665, -0.012915, 0.000608, -0.001443}, {-0.000741, -0.000415, -0.001092, -0.001084, -0.000493, -0.002205, 0.000992, -0.002522, -0.000282, -0.001946, -0.000255, -0.001125, -0.000667, -0.000194, -0.001089, -0.634790, -0.003845, -0.001967, 0.571103, -0.001568, 0.000086, -0.000113, 0.000709, -0.378682, 0.001154, -0.000294, -0.514995, -0.001282, 0.546180, 0.000934, -0.236125, 0.000490, 0.000290, 0.000677, -0.000609, -0.000045, -0.002303, -0.010471, 0.000207, 0.001156}, {0.000709, 0.001148, -0.000251, -0.000888, -0.000584, 0.002384, 0.000509, 0.000023, 0.000559, -0.000882, 0.001905, -0.000326, 0.000450, -0.001414, 0.001556, 0.044512, -0.004008, 0.000645, -0.026868, -0.004478, 0.001533, 0.001539, 0.001743, 0.006955, 0.000624, -0.001254, -0.321504, 0.000442, 0.043655, 0.001520, 0.334501, -0.001124, -0.003148, 0.001065, 0.000328, 0.000847, -0.011334, -0.017714, -0.000104, 0.000877}, {0.001384, 0.001016, -0.000570, 0.001148, 0.000723, -0.001745, 0.000895, -0.001288, -0.003089, -0.006291, 0.000015, 0.001072, -0.001272, 0.000347, -0.000351, -0.003742, 0.003403, 0.001935, -0.013439, 0.004963, 0.001666, -0.003457, -0.002473, -0.001122, 0.000413, 0.000209, -0.047988, 0.004550, -0.023339, -0.000218, 0.018178, -0.001160, -0.000820, -0.001386, 0.002560, -0.001047, -0.005479, -0.018484, -0.000584, -0.002093}, {0.000963, 0.001441, 0.001480, -0.000021, 0.003038, 0.002516, 0.001032, -0.001324, 0.000519, 0.006025, -0.000176, 0.000244, 0.001495, 0.000318, -0.000109, 0.056439, -0.007999, -0.002010, 0.013539, 0.001215, 0.000580, -0.001912, 0.000865, -0.023584, 0.002061, -0.002407, -0.025591, -0.000186, 0.004181, 0.000301, -0.058688, -0.000039, 0.002250, -0.000388, 0.001735, 0.001147, 0.005696, 0.011605, 0.001953, 0.001659}, {0.000384, 0.000226, 0.000498, -0.000593, -0.000598, -0.000366, -0.001543, -0.001614, 0.006170, -0.000816, -0.000884, -0.001285, -0.000574, -0.001063, 0.001495, -0.037471, -0.009751, 0.001852, -0.000878, -0.003722, -0.001103, 0.003911, -0.000908, 0.013680, -0.000755, 0.002244, 0.050210, -0.001167, 0.009167, 0.000623, 0.008132, -0.000384, -0.001031, -0.001314, 0.002361, 0.000052, 0.007880, 0.013932, 0.001977, -0.000151}, {0.001310, 0.002531, 0.000508, -0.000232, 0.002869, 0.004109, -0.000592, 0.000852, -0.000524, -0.002853, 0.000159, 0.002581, -0.000595, -0.001136, -0.000052, 0.069653, 0.003861, 0.001163, 0.001951, 0.005803, 0.002379, -0.004578, 0.001046, -0.035232, 0.002432, -0.000123, -0.134417, -0.002415, 0.000426, -0.000569, 0.051808, -0.000446, 0.000319, 0.002731, -0.001527, 0.000445, -0.003850, -0.016896, 0.001376, 0.000078}, {0.001028, -0.000609, -0.000488, -0.000990, -0.001116, -0.000998, -0.000690, -0.002091, -0.002709, -0.000166, 0.000577, -0.001324, -0.000240, 0.002488, 0.000122, -1.231630, 0.003563, -0.000702, 0.380557, 0.003010, -0.001837, -0.000089, -0.000254, -1.277083, 0.000032, 0.000320, -0.761196, -0.002543, -0.432001, -0.001307, -0.642308, 0.000254, 0.006296, 0.001069, -0.002078, -0.001645, 0.002962, -0.020904, 0.000514, -0.002008}, {0.000805, 0.001551, 0.000180, 0.001351, -0.001496, -0.000384, 0.000971, -0.001644, -0.000622, 0.000396, -0.000531, -0.001338, 0.000727, -0.000590, -0.000648, 0.577885, -0.000451, -0.003083, -0.828926, -0.001696, 0.000465, -0.001784, -0.000294, 0.551870, -0.000125, -0.000211, 0.447299, -0.001065, -0.863221, 0.000935, -0.312890, -0.001027, -0.002044, 0.000009, -0.000956, -0.001666, 0.003444, -0.022288, 0.000589, -0.000812}, {0.001064, 0.000001, 0.001194, -0.000625, -0.000260, -0.000087, 0.001368, 0.001368, -0.000267, -0.000565, 0.000148, 0.000204, -0.000583, 0.001462, 0.000960, 0.631034, -0.000348, -0.002820, -0.697557, 0.000826, -0.000645, -0.001169, -0.000238, 0.515995, 0.000752, 0.001161, 0.506781, -0.001191, -0.705076, 0.000892, -0.005993, 0.000264, 0.000061, -0.001267, -0.001204, 0.001111, 0.002289, 0.001927, 0.001655, -0.000367}, {-0.001230, -0.001890, -0.000621, -0.000941, 0.001727, -0.004781, -0.000058, -0.000337, -0.003644, -0.001687, 0.000660, 0.000770, -0.000585, -0.000170, -0.002341, 0.038781, 0.000095, 0.001448, 0.006437, 0.004352, 0.000444, 0.004142, -0.000194, -0.006547, 0.000036, -0.001488, -0.076070, -0.001438, 0.015893, 0.000963, 0.024555, 0.001110, -0.002485, 0.000883, -0.003175, -0.000067, -0.001069, -0.012212, -0.000703, 0.001231}, {-0.000794, 0.000644, 0.000325, -0.001230, -0.001088, 0.002383, -0.000879, -0.000294, 0.001240, 0.000314, -0.000870, -0.000023, -0.001549, 0.001486, 0.001519, 0.617274, 0.002549, -0.001884, -0.591371, -0.000263, -0.001296, 0.000920, -0.001708, 0.394524, 0.001514, -0.000143, 0.495444, -0.000168, -0.579460, -0.001199, 0.124584, -0.000017, 0.001174, -0.000317, 0.001163, -0.000839, 0.001755, 0.010527, -0.000316, -0.000606}, {0.000867, 0.002323, -0.000763, 0.000688, -0.002535, 0.002149, -0.000745, 0.000594, 0.000646, 0.003361, 0.000012, -0.001670, 0.000855, -0.001262, -0.000217, 0.023121, -0.002450, 0.001317, -0.016261, -0.004485, 0.001925, 0.000466, -0.000038, -0.031291, -0.000712, 0.004310, 0.047200, 0.001846, 0.001201, -0.000695, -0.020318, 0.000624, 0.007846, -0.000191, 0.007686, -0.000495, -0.002084, -0.009561, -0.001396, 0.000153}, {-0.000558, -0.000168, -0.001008, 0.001110, 0.001326, -0.003496, 0.000522, 0.000055, -0.001643, -0.008184, 0.001436, -0.001681, -0.001822, -0.000080, -0.000615, 0.073627, 0.004294, -0.005446, -0.000307, 0.005869, -0.001756, -0.002264, -0.000464, -0.036869, 0.000193, -0.000991, -0.150667, 0.002354, -0.001417, 0.001874, 0.054154, -0.000898, 0.000887, -0.000892, 0.001281, 0.000042, -0.003666, 0.000889, 0.001794, -0.002664}, {-0.000625, -0.000413, 0.001412, -0.000888, 0.001871, -0.000848, -0.000970, -0.000859, -0.001605, 0.000357, -0.000511, -0.000406, 0.000704, -0.002214, -0.002138, 0.082119, -0.002547, 0.000295, -0.004482, -0.004287, 0.002051, 0.002726, 0.001478, -0.045899, -0.001613, 0.001311, -0.170855, 0.004157, 0.003996, 0.000605, 0.073029, -0.000178, 0.005460, -0.000394, 0.000221, -0.000031, 0.010016, -0.005276, -0.000120, -0.000667}, {-0.000543, -0.000513, 0.000835, 0.001089, 0.002351, 0.002488, 0.001211, -0.001841, -0.000243, -0.000912, 0.000564, -0.000274, 0.000960, 0.005090, -0.000039, -0.612374, 0.002409, 0.001398, 0.363096, 0.003862, 0.000976, 0.006782, -0.000139, 0.266200, 0.000288, 0.000773, -0.129997, 0.001588, -0.333433, -0.000298, -0.896481, 0.000437, 0.005777, 0.000570, 0.001739, -0.000048, 0.008589, -0.002675, -0.001322, 0.000196}, {0.001128, -0.003642, -0.001009, 0.000111, -0.002906, -0.003315, -0.000778, -0.002510, -0.004035, -0.005162, 0.000827, 0.001326, 0.000633, -0.001824, -0.002559, -0.051333, -0.000044, -0.003626, -0.001645, -0.007740, -0.000510, -0.000378, 0.000234, 0.022864, -0.002909, 0.000444, 0.045502, -0.002534, -0.016577, -0.000171, -0.015552, 0.000161, -0.003679, 0.000456, -0.002229, -0.001211, -0.010959, 0.019614, 0.000172, 0.000394}, {-0.000241, -0.000965, -0.000862, -0.001293, -0.000672, -0.000449, -0.000337, 0.000595, -0.001462, -0.000657, -0.000984, 0.000260, -0.001080, -0.001514, 0.001590, -0.644598, -0.003329, -0.000109, 0.643890, -0.001854, -0.000560, 0.000989, 0.001048, -0.472935, -0.000050, -0.000897, -0.518184, 0.001197, 0.636438, 0.000185, -0.116539, -0.000351, 0.001964, -0.001543, -0.000840, 0.000282, -0.001749, -0.005768, -0.000993, -0.000362}, {0.000544, 0.004406, -0.000614, -0.001642, -0.002883, 0.000661, 0.001294, 0.002786, 0.002338, 0.006721, -0.001004, 0.001395, 0.001370, 0.001540, -0.000773, 0.044515, -0.013388, 0.003410, 0.013831, 0.005542, 0.001579, -0.000840, 0.001544, -0.013724, 0.001347, -0.000171, -0.103032, 0.001185, -0.001985, 0.000360, 0.026128, 0.000036, -0.002561, -0.001715, -0.002084, -0.000295, -0.002400, -0.003637, -0.000861, -0.001217}, {0.000672, 0.000477, -0.000753, -0.001154, -0.002901, -0.000767, -0.000003, -0.000555, -0.001126, -0.003813, 0.000373, -0.000012, 0.000187, -0.005567, 0.000219, 0.056215, -0.007017, -0.001725, 0.004542, 0.004080, 0.001245, -0.001465, 0.001567, -0.026308, -0.000624, -0.003442, -0.126946, 0.001176, -0.000950, 0.001510, 0.055910, -0.000081, -0.001736, 0.000264, -0.002741, -0.001224, -0.007726, -0.013737, -0.000566, 0.000916}, {0.000495, 0.001298, -0.001550, 0.000777, 0.003420, 0.000486, -0.000213, 0.001978, 0.003865, -0.001847, -0.001470, -0.000193, -0.001101, -0.001582, -0.002309, 0.055175, -0.002164, -0.004236, 0.007590, -0.004091, 0.000449, 0.002925, -0.000222, -0.027496, -0.000191, -0.003985, -0.052924, -0.000955, 0.002546, 0.000312, 0.019943, 0.001208, 0.000130, -0.000077, -0.000688, -0.001155, 0.007178, 0.001084, 0.000757, 0.001099}, {-0.001065, 0.004642, 0.000677, -0.000406, 0.001149, 0.003091, 0.000980, 0.000309, 0.003604, 0.004534, 0.001210, 0.001157, 0.000072, 0.000292, 0.001448, -0.007340, 0.007606, -0.000222, -0.003564, 0.001021, -0.001383, -0.002118, 0.002298, 0.008288, 0.002217, 0.001520, -0.079020, 0.001511, -0.009804, -0.000986, 0.041864, -0.000977, 0.002440, -0.000414, -0.000187, 0.001435, -0.003951, -0.013079, 0.000500, -0.000955}, {-0.000352, 0.002288, -0.001412, -0.001156, 0.000082, -0.002008, -0.001417, -0.000260, 0.007689, -0.001586, -0.000778, 0.001974, 0.000182, -0.000623, -0.000026, 0.002693, -0.008076, 0.004252, -0.001847, -0.002046, 0.001633, -0.000520, -0.000273, -0.012038, -0.000218, 0.000439, 0.071291, 0.000683, 0.012563, 0.001778, -0.001517, 0.001341, 0.001883, 0.001456, -0.000493, 0.000680, 0.005467, -0.006703, 0.000853, 0.000300}, {-0.001525, -0.002775, 0.000609, 0.000142, -0.003343, 0.000612, -0.000889, 0.000095, -0.001276, -0.005175, 0.001027, 0.000963, -0.000789, 0.001931, -0.000413, 0.032158, 0.006222, 0.001634, 0.003854, -0.003699, 0.000035, 0.004238, 0.001517, -0.008958, -0.000436, 0.001729, -0.067056, -0.001123, -0.009033, 0.000603, -0.005036, 0.000833, 0.004687, 0.001183, 0.002807, 0.000379, 0.001573, 0.007622, 0.000100, 0.000960}, {0.000969, -0.002802, 0.001098, 0.000951, 0.001762, 0.000619, 0.000483, 0.000951, -0.006956, 0.003843, -0.000302, -0.000735, 0.000254, -0.003034, 0.000015, -0.022349, -0.005983, 0.000184, 0.008121, -0.005149, 0.000639, -0.000818, -0.000335, 0.015876, 0.000015, 0.001182, -0.071095, -0.002029, -0.011985, 0.000037, 0.029261, -0.001342, -0.006337, -0.001050, 0.003935, 0.001453, -0.003671, -0.007983, 0.001752, -0.001402}, {0.000140, -0.000777, -0.000945, 0.000039, 0.001544, 0.000398, 0.000797, 0.001856, 0.002977, 0.000975, -0.000487, -0.000919, 0.001131, 0.002718, -0.000595, 0.584247, 0.004999, 0.001924, -0.423084, 0.002298, 0.000627, 0.001439, -0.000864, 0.138143, 0.000203, 0.001299, 0.483755, 0.001417, -0.369130, -0.001226, 0.449274, -0.000878, 0.001520, 0.001530, 0.001546, -0.000929, 0.001781, 0.016598, 0.001499, 0.001361}, {-0.000941, 0.000152, 0.001044, -0.001640, 0.002338, 0.003310, 0.000921, 0.002167, 0.005402, 0.002917, 0.001189, 0.001334, -0.001168, 0.009515, 0.000189, -0.077052, 0.001541, 0.003264, 0.000261, 0.004818, -0.000438, 0.009016, 0.001994, 0.041455, -0.000413, 0.004137, 0.145456, 0.003585, -0.004055, 0.000371, -0.063542, -0.000838, -0.000003, 0.001463, 0.004212, -0.001029, 0.008737, 0.028716, 0.000946, 0.000442}, {-0.001351, -0.000021, 0.001244, 0.001621, 0.000170, -0.003967, -0.001322, -0.000511, -0.002206, -0.006828, 0.001391, -0.002531, -0.000815, 0.001067, 0.000649, -0.067075, 0.009434, -0.001491, -0.002637, 0.004554, 0.002245, -0.002912, -0.000930, 0.033011, -0.000981, -0.000940, 0.125144, 0.001699, -0.000866, 0.000052, -0.044882, 0.000179, -0.002023, -0.000739, 0.001856, 0.000488, -0.004132, 0.005653, -0.000811, -0.000118}, {0.000225, 0.000264, -0.000503, 0.001009, 0.003140, 0.000492, -0.000942, 0.001128, 0.001911, 0.001677, -0.001184, 0.000009, -0.000200, 0.001535, -0.000145, 0.002277, -0.007013, 0.001043, -0.001648, 0.005806, 0.000079, -0.002233, -0.000660, -0.008693, 0.000935, -0.000732, 0.052590, 0.003043, 0.009775, -0.000735, 0.001027, -0.000890, -0.002882, -0.001601, -0.001218, -0.000615, -0.002046, -0.005220, 0.001347, 0.000491}, {0.001122, -0.000918, 0.000415, 0.000955, 0.002062, 0.001153, 0.001175, 0.000987, 0.002918, 0.002350, 0.001107, -0.000046, 0.001003, 0.006792, -0.001107, -0.512045, -0.001213, 0.000016, 0.226259, 0.006413, -0.000709, 0.007784, -0.000745, 0.434464, -0.000904, 0.003260, -0.083787, 0.001958, -0.192507, 0.000487, -1.202279, -0.000225, 0.005873, -0.001072, 0.003852, -0.000263, 0.006293, 0.046031, -0.000871, -0.001184}, {-0.000136, 0.001806, 0.000789, 0.000358, 0.002897, 0.001143, 0.000243, 0.000385, 0.001623, -0.000199, 0.000532, 0.000561, 0.000957, 0.001001, 0.001178, -0.083542, 0.004555, 0.003111, 0.006019, 0.002861, 0.001439, 0.001032, 0.001832, 0.045052, -0.000300, 0.000034, 0.173909, -0.000479, -0.002708, 0.000259, -0.067556, 0.001394, 0.002921, -0.001036, 0.001512, 0.001843, 0.002556, 0.022702, 0.001646, 0.000922}, {0.000448, 0.001158, -0.001165, -0.000480, -0.003423, 0.002691, 0.001358, 0.002010, -0.004017, 0.009758, 0.000002, 0.001389, -0.000816, 0.000841, 0.002367, -0.065071, 0.006038, 0.002559, -0.005439, 0.003088, -0.000384, -0.000425, -0.000156, 0.030188, 0.002076, 0.000389, 0.124942, -0.001329, 0.003229, 0.000253, -0.043035, -0.000993, 0.001130, 0.000110, -0.001141, -0.000019, -0.001194, -0.014341, 0.002831, 0.000608}, {-0.000035, -0.000588, -0.000016, 0.000269, -0.001856, -0.002954, -0.001277, -0.001453, -0.001630, -0.001839, 0.000727, -0.001387, 0.001725, -0.001933, 0.000337, -0.965002, 0.002683, -0.003056, 0.438050, -0.001352, 0.001859, -0.002908, 0.000500, -0.629680, -0.000046, -0.001553, -0.533275, -0.002128, -0.425707, -0.001543, -0.717698, 0.000548, 0.005604, -0.001588, -0.004439, 0.001110, 0.001608, -0.013547, 0.001385, -0.000854}, {0.001027, 0.000847, -0.001087, 0.001133, 0.004719, -0.000700, -0.001270, 0.001516, -0.002791, -0.006691, 0.001734, 0.001441, 0.000501, -0.004955, -0.000153, 0.062979, 0.004680, -0.001889, 0.003713, 0.006389, 0.000680, -0.004368, -0.000494, -0.030869, 0.000519, 0.000144, -0.129802, 0.004274, -0.003047, 0.001066, 0.054977, 0.001248, -0.002483, 0.001783, 0.000046, 0.002009, -0.001389, -0.016377, 0.002774, 0.001718}, {0.000455, 0.002153, -0.000464, -0.000257, 0.001210, 0.002836, 0.000111, 0.001389, 0.001326, -0.000433, 0.001511, 0.000740, 0.000180, 0.002297, 0.001699, -0.071222, 0.003323, 0.001526, -0.001624, 0.001698, 0.000858, 0.000624, 0.000835, 0.035505, 0.000262, 0.001047, 0.127480, 0.000707, -0.000006, 0.000469, -0.036930, 0.001338, 0.000119, -0.000049, 0.002323, 0.000964, 0.004040, 0.019925, 0.001009, -0.000513}, {-0.001085, -0.000324, 0.001339, -0.001035, 0.002117, 0.001514, -0.001039, 0.002118, 0.001126, 0.001365, 0.000714, 0.000031, -0.000363, 0.005367, -0.000937, -1.272290, 0.005300, 0.001474, 0.372564, 0.005756, -0.001801, 0.005999, -0.000557, -1.186625, 0.000104, -0.000594, -0.779317, 0.003685, -0.457544, 0.000780, -0.646452, 0.001317, 0.008073, 0.000125, 0.004170, -0.000697, 0.008085, -0.016768, 0.001205, 0.000528}, {-0.000783, -0.001222, -0.000276, -0.000648, 0.006020, -0.002693, -0.001099, -0.000885, 0.002470, -0.000493, -0.000449, -0.001079, -0.000131, 0.002638, 0.000091, 0.052754, 0.007611, 0.002664, 0.008457, -0.003448, 0.000432, 0.004109, 0.000160, -0.023766, 0.000619, 0.003829, -0.109253, -0.000643, -0.000076, -0.001347, 0.057963, 0.001405, 0.005313, -0.000566, 0.003207, -0.000869, 0.004023, -0.013671, 0.001001, -0.000767}, {0.000495, -0.001264, 0.001140, 0.001686, -0.000538, -0.000278, -0.000907, -0.001344, -0.001486, -0.000071, -0.000873, 0.000606, 0.000725, 0.000087, -0.000854, 0.589611, 0.000042, -0.002289, -0.744172, -0.001039, 0.000469, 0.001557, -0.000409, 0.523263, 0.001428, 0.000680, 0.453001, -0.001612, -0.764669, 0.000869, -0.232357, -0.000359, -0.002063, -0.000988, 0.000873, 0.000051, 0.002373, -0.010759, -0.001224, -0.000593}, {-0.000156, 0.002051, 0.000003, 0.000947, 0.002121, -0.000537, -0.001072, -0.001742, -0.002195, 0.000720, 0.000402, -0.000729, -0.001553, 0.000110, -0.000154, -0.080055, -0.008825, -0.002967, 0.004925, -0.005421, 0.000133, -0.000334, -0.000111, 0.045600, 0.000371, 0.000170, 0.159687, -0.000018, -0.005566, -0.000908, -0.075326, -0.000764, 0.002961, 0.000215, 0.000399, -0.000264, 0.002760, -0.006876, 0.000396, 0.000335}, {0.001549, -0.000607, 0.001337, -0.000013, -0.001093, -0.001377, 0.000337, -0.001339, -0.001272, -0.000456, 0.000270, -0.000171, 0.000936, -0.000799, 0.000847, -0.526905, -0.002404, -0.001622, 0.381587, -0.001723, 0.000169, -0.000488, -0.001452, -0.052851, 0.000387, -0.001573, -0.431848, 0.000466, 0.342879, 0.000058, -0.377860, -0.000103, -0.002631, 0.000864, -0.003368, 0.000743, -0.002906, -0.015739, -0.000860, -0.000360}};
static const float * p_layer_0_weight = layer_0_weight;
static const float layer_0_bias[40] = {-0.103879, -0.315084, -0.159356, -0.170390, -0.131059, -0.262555, -0.128910, -0.222288, -0.272418, -0.377192, -0.167349, -0.299148, -0.085629, -0.370951, -0.150461, -0.494751, -0.450041, -0.328683, -0.112245, -0.356761, -0.131683, -0.258998, -0.258421, 0.521465, -0.192877, -0.287333, -0.823435, -0.426797, 0.273912, -0.164567, -1.335912, -0.255187, -0.496739, -0.302745, -0.422077, -0.160233, -0.291235, -0.457105, -0.553311, -0.363791};
static const float * p_layer_0_bias = layer_0_bias;
static const float layer_1_weight[40][40] = {{-0.010541, 0.063661, 0.022316, -0.005164, -0.005921, 0.032908, 0.032649, 0.060407, 0.036728, 0.032806, 0.021353, 0.021072, 0.070494, -0.062296, 0.045064, -0.064348, 0.032861, 0.052329, 0.036735, -0.044619, -0.062009, 0.008782, 0.038243, -0.064160, 0.009968, -0.001277, -0.016490, 0.042616, 0.025189, 0.039714, 0.000303, -0.068324, 0.060660, 0.015032, 0.057109, -0.033804, 0.065514, 0.008882, -0.058515, -0.056622}, {0.028525, -0.029253, -0.005546, -0.047677, 0.028913, -0.044636, 0.042726, -0.008934, -0.018216, -0.015907, 0.043182, -0.030764, 0.031724, -0.025129, 0.036606, 0.030882, 0.027209, -0.025283, 0.050409, -0.184483, 0.021315, -0.132377, -0.020874, 0.044339, -0.033246, -0.058369, -0.017022, 0.012768, -0.072260, 0.026780, -0.047904, -0.022208, -0.051791, -0.013353, 0.036183, -0.007546, -0.041464, -0.004895, -0.036045, 0.010844}, {-0.043264, 0.035794, 0.014371, 0.015134, -0.038972, -0.064119, -0.029076, -0.043930, 0.038236, -0.050378, -0.010730, 0.011138, -0.016972, 0.042288, 0.006751, 0.067836, -0.064371, -0.002203, -0.039096, -0.009117, 0.003495, -0.041436, 0.053110, -0.044373, 0.020095, 0.046585, 0.011954, 0.064561, -0.058118, -0.056386, 0.001770, 0.017823, 0.068352, -0.037671, 0.015800, 0.000104, 0.020879, -0.022510, 0.084407, -0.017997}, {-0.071899, -0.040835, 0.008249, -0.051579, -0.007240, -0.013050, 0.049096, 0.050939, 0.011797, -0.016370, -0.013093, -0.047554, 0.002927, -0.016745, -0.056084, 0.025070, -0.019829, 0.056934, -0.030779, -0.050184, -0.027375, 0.044098, -0.031010, 0.055745, 0.035281, -0.022189, -0.021294, -0.000204, -0.068143, 0.029665, -0.021019, 0.036047, -0.050210, 0.023258, -0.037872, -0.066266, 0.030629, -0.076075, -0.059890, 0.042149}, {-0.008104, -0.049770, -0.001006, 0.038698, -0.001764, -0.052194, -0.052896, -0.026404, -0.069699, -0.044682, 0.022376, 0.032696, -0.062634, -0.037533, 0.011038, -0.055562, -0.085908, -0.008124, -0.009319, -0.000676, -0.041183, -0.077199, -0.076499, -0.023140, 0.022335, -0.016528, -0.036164, -0.071880, 0.011534, 0.001720, -0.047633, 0.010952, -0.057637, -0.157459, -0.073897, 0.033078, 0.013881, -0.002280, 0.035407, -0.058247}, {-0.001433, 0.005122, -0.001506, -0.029664, 0.019726, 0.011849, 0.057713, 0.093816, 0.005946, -0.021724, 0.003949, 0.064624, 0.016795, -0.026784, -0.036745, 0.069713, 0.018555, -0.055166, -0.030867, -0.065972, -0.059856, -0.011444, 0.050803, 0.005952, 0.008659, -0.000084, 0.005980, -0.000469, -0.042716, 0.028907, 0.010567, 0.013557, -0.033984, -0.039607, -0.025034, -0.055371, 0.082985, -0.039356, 0.021835, 0.055564}, {0.066369, -0.042731, 0.010872, 0.058194, 0.003392, -0.012556, -0.004971, -0.049871, -0.023137, -0.029352, -0.032486, 0.053159, 0.052052, -0.045214, -0.023019, 0.020811, 0.047998, 0.046096, 0.060802, 0.039233, 0.068137, -0.078594, 0.060455, -0.060861, -0.036952, 0.008600, -0.033208, -0.057531, -0.003733, -0.038675, -0.038902, 0.008096, -0.038199, 0.008971, 0.069684, -0.017839, 0.008742, 0.029939, 0.056181, 0.049099}, {0.063444, -0.061010, 0.008640, -0.007623, -0.047750, -0.027268, 0.004644, -0.039439, -0.000222, -0.003440, -0.062727, 0.008053, -0.014033, -0.022445, -0.024423, -0.027341, 0.029394, -0.009809, -0.063043, -0.144717, -0.008851, 0.050541, 0.003853, -0.036879, 0.041535, 0.006817, 0.008238, -0.001543, -0.019567, 0.066066, 0.022089, -0.077374, -0.072860, 0.023755, 0.001789, -0.026792, -0.011345, -0.075233, 0.039606, 0.002172}, {0.005260, -0.034851, -0.020922, 0.084953, -0.003306, -0.072050, -0.042816, -0.077934, -0.043822, -0.071945, 0.052490, 0.035557, -0.014395, -0.071075, 0.009190, -0.007183, -0.008710, 0.005420, -0.084290, -0.174972, -0.006348, -0.097343, -0.067159, 0.025061, 0.068930, -0.024464, -0.078848, -0.024448, 0.020405, -0.053573, -0.021338, -0.064315, -0.025077, -0.052727, -0.033402, -0.007160, -0.061499, 0.081134, -0.018038, -0.027056}, {0.056293, -0.000103, 0.043620, 0.003050, 0.040523, -0.090333, -0.017070, 0.034580, -0.046614, 0.006311, 0.047270, -0.034606, 0.058691, -0.061162, 0.004387, -0.025646, 0.004562, -0.001662, 0.061472, 0.006810, 0.029070, -0.100461, -0.042733, -0.033622, 0.016061, 0.020821, 0.003933, -0.070625, 0.033624, 0.070366, -0.000279, 0.021269, -0.031431, -0.031592, 0.027090, -0.012257, 0.022534, -0.051719, 0.037009, 0.025894}, {-0.022796, 0.042024, 0.043963, 0.045813, 0.037400, 0.056817, 0.033994, 0.027245, 0.009434, -0.062952, 0.068072, 0.067510, 0.051218, -0.033429, 0.055907, -0.052049, -0.011018, 0.023547, 0.038454, -0.038305, 0.027666, -0.078041, 0.042029, 0.035705, 0.000459, 0.052773, 0.007707, -0.061228, -0.014587, -0.000187, -0.014798, -0.075192, -0.033793, 0.008649, 0.005240, 0.044620, -0.028154, -0.059384, -0.015104, 0.042558}, {0.011273, -0.036800, 0.023583, 0.008819, -0.068300, -0.043944, 0.058062, 0.014751, 0.015461, 0.031193, -0.068661, -0.028622, -0.030602, -0.012193, 0.019828, 0.024390, -0.015468, -0.033204, -0.065791, 0.014949, 0.056711, -0.033762, 0.049643, 0.022875, -0.001804, 0.031673, -0.039086, 0.041229, -0.025872, -0.036917, -0.014560, -0.065044, -0.003418, 0.007476, -0.058920, -0.010209, 0.036361, -0.054912, -0.009892, -0.001075}, {0.028663, -0.033833, 0.078918, 0.041248, -0.044528, -0.031657, 0.058944, -0.049020, -0.049938, -0.036466, -0.044744, -0.031611, 0.045132, -0.044129, 0.021556, 0.025250, -0.012889, -0.070925, 0.031662, -0.001662, 0.017183, -0.055996, 0.063183, -0.062848, 0.019588, 0.011239, 0.044380, -0.043403, 0.067230, -0.030629, 0.047726, 0.053205, 0.061899, -0.005705, -0.067030, 0.031396, -0.011412, -0.053156, -0.000620, 0.011762}, {-0.012075, 0.003542, -0.090557, 0.035146, 0.020106, 0.021035, -0.074302, -0.019092, 0.057507, 0.078478, 0.037348, 0.024298, -0.008902, 0.009372, 0.034964, 0.116630, -0.071590, 0.063803, -0.036080, 0.012197, -0.002346, -0.036375, -0.062552, 0.035497, -0.010910, -0.009180, 0.039645, 0.054836, -0.023444, -0.053830, -0.022974, -0.019516, -0.010249, -0.057029, 0.006448, -0.046657, 0.007799, -0.042640, 0.022220, 0.018897}, {-0.049151, -0.004605, -0.039372, -0.068597, -0.024445, -0.090996, 0.021120, 0.016565, -0.103687, -0.032224, -0.008412, -0.048419, -0.029309, -0.087195, -0.063920, -0.010200, 0.001860, 0.051666, -0.052720, -0.064916, 0.017207, -0.038153, -0.047134, -0.052539, 0.007321, -0.012578, -0.134638, 0.025644, 0.061730, -0.031879, -0.055275, -0.045064, 0.050157, -0.026203, 0.029235, -0.073758, 0.019722, -0.011725, -0.070045, 0.007762}, {0.008989, -0.290467, -0.106695, -0.565954, -0.131271, -0.104137, 0.012768, -0.068953, -0.079210, -0.093762, -0.003168, -0.025948, -0.017584, 0.013187, 0.008288, -0.048376, 0.014648, 0.040410, -0.039751, 0.049488, -0.087621, -0.041371, 0.068479, 0.123477, -0.751330, 0.035530, -0.037656, -0.040178, -0.080287, -0.020493, -0.019768, -0.087363, -0.227694, -0.035294, -0.164894, -0.000709, -0.085991, -0.069776, 1.639222, -0.014654}, {-0.068495, -0.069649, 0.028414, 0.011231, 0.044709, -0.076774, 0.020025, 0.038182, -0.003272, 0.035336, -0.066082, -0.080717, 0.013801, -0.112731, -0.016671, -0.064818, 0.032167, -0.068805, -0.052947, -0.029399, 0.045498, -0.137423, -0.042581, -0.022924, 0.173995, 0.027099, -0.052445, -0.049113, 0.034526, 0.042476, 0.050038, -0.020777, 0.144565, -0.012433, 0.038759, -0.076586, -0.066461, -0.109378, 0.011426, -0.022200}, {0.003047, 0.031829, 0.024203, -0.052379, -0.100025, -0.033252, 0.028959, -0.064418, -0.089210, -0.023597, 0.017868, 0.006559, -0.106999, -0.046358, 0.004149, -0.015586, -0.031656, -0.014118, -0.073085, -0.020933, -0.014662, -0.055784, -0.098315, 0.011482, 0.024620, 0.011590, -0.023073, -0.053987, 0.029703, -0.013654, -0.036672, -0.024505, -0.052338, -0.065581, 0.007284, -0.033835, -0.075159, -0.048687, -0.082137, -0.026227}, {0.036290, 0.056683, -0.060590, 0.883660, -0.030834, -0.015453, -0.051242, -0.037983, -0.088041, -0.042783, -0.056307, -0.001351, 0.009839, -0.121504, -0.045006, -0.020494, 0.008319, -0.034176, -0.011104, 0.014876, -0.006319, -0.142118, -0.058729, -1.148006, 0.867709, -0.027563, -0.042604, 0.003682, 0.048868, 0.024480, -0.036997, -0.025336, -0.067167, -0.003191, -0.048913, -0.026359, -0.033915, -0.004555, -1.028537, -0.054652}, {-0.036994, 0.049363, 0.048927, -0.022803, -0.038442, -0.080859, -0.038927, -0.067604, -0.096495, 0.029357, 0.008499, -0.055146, 0.057643, 0.008540, 0.030882, 0.036978, 0.021474, 0.049241, -0.024452, 0.012423, -0.009623, -0.066045, 0.064654, -0.021578, 0.054553, 0.009400, -0.054839, -0.057124, -0.056358, -0.064226, 0.018658, 0.056940, -0.016059, -0.015394, -0.022531, 0.035683, -0.092726, -0.051512, 0.067002, -0.022347}, {0.011928, 0.004633, 0.058761, -0.006476, 0.038216, 0.032482, 0.002129, 0.011168, -0.043894, -0.037149, 0.041790, -0.019659, -0.058656, -0.031682, 0.063203, 0.033137, -0.060265, 0.048021, -0.032827, 0.058075, -0.016661, 0.085769, 0.069511, -0.013828, -0.008291, -0.030799, 0.011674, -0.030614, 0.001580, 0.067711, -0.021645, -0.044951, 0.044025, 0.044051, -0.060784, 0.037616, -0.050979, 0.013035, -0.014213, -0.042228}, {-0.054109, -0.019534, -0.075979, 0.048584, -0.023941, -0.056171, 0.047026, -0.083350, -0.085448, -0.008115, 0.019632, 0.019187, -0.027527, -0.073594, -0.053094, -0.021966, -0.050095, -0.021221, -0.060304, -0.077605, -0.103594, -0.091459, -0.079354, -0.162871, 0.059719, -0.036559, -0.013922, -0.015671, -0.034016, -0.052672, -0.049257, 0.031747, -0.005349, -0.080974, -0.039590, -0.068244, -0.096006, -0.027718, -0.070479, -0.027398}, {0.012155, 0.015324, -0.120127, 0.025788, 0.006414, 0.022148, 0.055612, -0.035348, -0.056696, -0.002703, -0.046175, 0.017238, 0.007378, -0.104597, -0.075694, 0.053075, 0.073772, -0.029507, 0.018304, 0.058160, -0.068996, -0.026912, -0.007741, -0.022513, -0.063840, -0.021698, 0.098465, -0.030244, -0.030035, -0.002070, -0.010802, -0.096630, 0.042106, -0.013156, -0.025497, -0.080294, -0.013646, -0.036936, 0.043213, -0.124072}, {0.011468, -2.457331, -0.111883, -0.633985, -0.057841, 0.007909, -0.071496, -0.057156, -0.027098, -0.053425, -0.011584, 0.006176, -0.105937, -0.010854, -0.002498, -0.014337, -0.042733, -0.089304, -0.044342, -0.046787, 0.002291, -0.215630, -0.059224, -0.362212, -0.135697, -0.036113, -0.047558, -0.066240, -0.014640, -0.070930, 0.001829, -0.081343, -1.353274, -0.012559, -0.220333, -0.000092, -0.093826, -1.210234, 0.863800, 0.003214}, {0.030104, 0.036904, -0.003789, 0.012453, -0.034837, -0.026715, 0.011122, -0.008218, -0.035496, 0.013989, 0.014834, -0.065436, -0.011765, -0.066508, -0.004608, -0.050864, -0.042028, -0.049719, -0.011276, 0.009979, -0.011165, -0.079890, -0.024883, 0.014209, 0.011907, -0.029690, -0.089971, -0.086533, -0.063062, 0.070669, -0.016460, -0.007790, 0.026227, -0.057646, 0.035601, -0.087977, -0.070834, -0.063672, -0.003464, -0.002295}, {0.029256, -0.005238, -0.088880, 0.009598, -0.024600, 0.032292, -0.032064, -0.048416, -0.041415, -0.128205, -0.027798, -0.046660, 0.020918, -0.062647, 0.012720, 0.016614, -0.056440, -0.082963, 0.039809, -0.011250, 0.006164, -0.086593, -0.011376, -0.089449, -0.029963, 0.036267, -0.118934, -0.013554, -0.024480, 0.014525, -0.012651, -0.006620, -0.073369, -0.020764, -0.055615, 0.070704, -0.084428, -0.026393, 0.039955, -0.065419}, {-0.062049, -0.707629, 0.000688, -0.371121, -0.090991, -0.095347, 0.017254, -0.041374, -0.056325, -0.032040, 0.035351, 0.027611, -0.002142, -0.065669, 0.006983, 0.012243, -0.081523, -0.036921, 0.001863, 0.005203, -0.024396, 0.008498, -0.045345, -0.228568, 0.091045, -0.107265, -0.038745, 0.008278, -0.025109, 0.029695, -0.039080, -0.068222, -0.327542, 0.013628, 0.056815, -0.061277, -0.078315, -0.201249, 0.512153, -0.087742}, {-0.014469, -0.005724, 0.027230, -0.017768, 0.043137, -0.049450, 0.001210, -0.062243, -0.132900, 0.009196, 0.017604, -0.064250, -0.038341, -0.122319, -0.101389, 0.045589, 0.024264, -0.017527, -0.021543, -0.036177, 0.034722, -0.024578, -0.045250, 0.081695, -0.050020, 0.005832, -0.087085, 0.017351, 0.031342, 0.055937, 0.025183, 0.025037, -0.028359, 0.044208, 0.012426, -0.053497, 0.025746, -0.078465, -0.052933, -0.042747}, {-0.066073, 0.017789, 0.011080, 0.878090, -0.003588, -0.138642, -0.090569, 0.000750, -0.001199, 0.019395, -0.016738, -0.026164, -0.054274, -0.050602, -0.065380, -0.121740, -0.036986, -0.051286, 0.005688, -0.070127, -0.026155, -0.122205, 0.027003, -0.781626, 0.916522, -0.051345, 0.015780, -0.044009, -0.060654, -0.059021, -0.005547, -0.027798, -0.122831, -0.036482, -0.040259, -0.053212, -0.006219, -0.014470, -1.639755, 0.014310}, {-0.046794, -0.055386, 0.061587, -0.090043, -0.043767, 0.070140, -0.002811, 0.043483, -0.057078, -0.055359, -0.063335, -0.063010, -0.009699, 0.027300, -0.062070, 0.037711, 0.019784, -0.029259, -0.033302, -0.053778, -0.011527, 0.030746, 0.006809, -0.020898, 0.068191, 0.067854, 0.014889, -0.011111, 0.013713, 0.057191, -0.066306, 0.024699, -0.007681, -0.004682, -0.019022, 0.036244, -0.058098, -0.061603, 0.014622, 0.031409}, {-0.042659, 0.375220, 0.006041, 0.523471, -0.064010, -0.147720, -0.020033, -0.065698, -0.084643, -0.092804, -0.119936, -0.061500, -0.019214, -0.050027, -0.086242, -0.027597, -0.065256, -0.048646, -0.011464, -0.029331, -0.026358, 0.004307, -0.050735, 0.999881, 0.332263, -0.111040, -0.053254, -0.024090, -0.014053, 0.036199, -0.007675, -0.041373, 0.396059, 0.016882, 0.037137, -0.006673, -0.033375, 0.011352, 2.069958, -0.025612}, {0.046705, 0.045260, 0.004162, -0.064145, -0.066250, -0.064388, 0.013226, -0.087787, 0.033067, -0.033635, -0.022740, 0.012678, 0.027388, 0.012432, -0.030605, -0.062686, 0.065340, 0.030692, -0.015024, 0.031610, 0.049061, -0.046342, 0.054063, 0.015142, 0.043894, -0.014961, -0.017149, -0.066744, -0.027644, 0.067046, -0.016198, 0.015909, -0.018465, 0.065997, 0.046308, 0.053740, 0.012000, 0.012432, 0.011439, 0.062624}, {-0.084590, -0.076879, -0.064953, 0.031703, 0.004336, -0.117379, -0.050248, 0.004753, -0.077900, -0.025233, 0.004045, -0.063461, -0.021019, -0.020553, -0.001898, 0.029534, -0.003550, -0.025213, -0.021253, 0.071059, -0.050525, -0.216795, 0.035522, -0.124032, -0.047939, -0.016519, -0.160214, -0.007977, -0.059420, -0.025979, -0.046261, -0.002567, -0.047317, 0.081312, -0.023477, -0.044833, -0.027578, -0.045157, 0.083106, 0.070428}, {-0.006195, 0.050383, 0.058573, 0.021360, -0.012088, -0.020173, -0.050496, 0.053046, -0.057037, 0.014815, 0.051809, -0.022968, 0.004611, -0.043234, -0.068129, -0.056798, -0.056934, 0.036847, 0.006777, -0.045564, -0.021112, -0.034935, 0.039182, 0.032688, 0.003013, 0.017294, 0.012690, -0.015447, 0.036268, 0.002414, -0.025699, 0.008205, -0.006211, 0.030006, 0.078275, 0.032034, -0.008718, -0.022759, -0.002866, 0.048227}, {0.011397, -0.031274, -0.065769, 0.043250, -0.061863, 0.040610, -0.060713, -0.014368, -0.089341, -0.084687, -0.069065, 0.019180, -0.064117, -0.142789, -0.010245, 0.012077, -0.023745, -0.099527, -0.040236, -0.045397, -0.016447, -0.022560, -0.027793, 0.066396, -0.048271, 0.046738, -0.015183, -0.078884, -0.065858, -0.068567, 0.049047, 0.033669, -0.002956, 0.014128, 0.053400, 0.003812, 0.002225, -0.036337, -0.003787, -0.028640}, {-0.073068, 0.063057, -0.036092, -0.057995, -0.049240, 0.002891, -0.033226, 0.000532, -0.085208, 0.019752, -0.004904, -0.047455, 0.006001, 0.009024, 0.052183, -0.024196, -0.032035, -0.002707, -0.028667, 0.070028, -0.051735, 0.014612, -0.010726, 0.010530, 0.039574, -0.000923, 0.017628, -0.058985, -0.047338, -0.029962, -0.057266, 0.050257, 0.019084, 0.000495, 0.021829, -0.010727, 0.055735, 0.019779, 0.002176, -0.000521}, {-0.006931, -0.006227, -0.013079, 0.003435, -0.034644, -0.028867, 0.019348, 0.052885, -0.079261, 0.005974, -0.060663, -0.085079, -0.025133, -0.018727, -0.081418, 0.032608, -0.072428, -0.002883, -0.044631, -0.043144, 0.034978, -0.093567, -0.035526, 0.018002, 0.007341, -0.072281, 0.014196, -0.072156, -0.035291, -0.034462, 0.013564, 0.052992, 0.066688, -0.034863, -0.001209, -0.023260, -0.006845, -0.000044, -0.010050, -0.070593}, {0.038536, -0.033431, -0.051766, 0.103064, -0.077018, -0.042373, -0.068418, -0.073407, 0.025918, 0.039613, 0.027887, -0.008623, -0.010109, -0.018381, -0.011722, -0.042083, -0.040452, 0.012165, 0.008528, -0.057932, -0.058129, 0.082518, -0.010994, -0.243313, 0.022849, 0.018337, -0.031916, 0.050430, -0.030750, 0.028946, -0.054716, -0.029578, 0.003008, 0.019419, -0.019877, -0.016504, -0.030070, -0.262562, 0.011286, -0.098382}, {-0.036607, 0.028366, -0.057697, 0.005057, -0.055852, 0.051267, 0.065430, -0.097097, -0.048759, 0.032613, 0.044253, -0.035530, -0.023694, -0.022014, -0.000654, 0.067108, -0.058742, -0.026525, -0.060252, 0.059580, 0.021951, -0.098467, -0.016825, -0.044244, -0.050565, 0.051618, -0.033119, 0.065895, 0.017584, -0.019365, 0.004653, -0.051097, -0.081626, 0.015035, 0.021174, 0.014856, 0.005815, 0.013631, -0.000525, -0.013759}, {0.032421, 0.008210, -0.042425, 0.067349, 0.094212, -0.161496, -0.028786, 0.018510, 0.000911, 0.062578, 0.010819, -0.062729, -0.032583, -0.151743, -0.002177, -0.047764, -0.058363, 0.002202, -0.042329, -0.036165, 0.062932, -0.104932, 0.014215, 0.003372, 0.034576, 0.046673, 0.099190, -0.076684, -0.039908, 0.041840, -0.048176, -0.070810, 0.061377, -0.033813, -0.036702, -0.025965, 0.044487, 0.058371, 0.002096, 0.065458}};
static const float * p_layer_1_weight = layer_1_weight;
static const float layer_1_bias[40] = {-0.138178, -1.169863, -0.251504, 0.087834, -0.138104, -0.149884, -0.033789, -0.157605, -0.086643, -0.169392, -0.096192, -0.118516, -0.127925, -0.002051, -0.175172, -0.265612, -0.073232, -0.150091, -0.236499, -0.146474, -0.307762, -0.091200, -0.231408, -1.458297, -0.024382, -0.100020, -0.245574, -0.199564, -0.237118, -0.155134, -0.098285, -0.084852, -0.336351, -0.167382, -0.163596, -0.149932, -0.242995, -0.237920, -0.177996, -0.209940};
static const float * p_layer_1_bias = layer_1_bias;
static const float layer_2_weight[40][40] = {{-0.046424, 0.021176, -0.022436, 0.037062, -0.070889, -0.102841, 0.065487, -0.038398, -0.047142, -0.009701, -0.103392, 0.152344, -0.026640, 0.014027, -0.003303, -0.067531, 0.031445, 0.065094, -0.081354, 0.055620, -0.069403, 0.073303, -0.035914, 0.105069, -0.073375, 0.024229, 0.007306, -0.034894, 0.029873, 0.007336, 0.124572, 0.012818, -0.088704, 0.067104, -0.128921, -0.051703, 0.105321, -0.058679, -0.008909, 0.012158}, {-0.162674, -0.033666, -0.108777, 0.066718, 0.089393, -0.168898, -0.170532, -0.231647, -0.281146, -0.038725, -0.012943, -0.128054, -0.168121, -0.852810, -0.125096, 0.044870, 0.083740, -0.198034, -0.069876, -0.291638, -0.020765, 0.097736, -0.121665, -0.174211, -0.244899, -0.186903, -0.247569, -0.130848, -0.088189, -0.060157, -0.240039, -0.311035, -0.209359, 0.007016, -0.119263, -0.232186, -0.125979, -0.004949, -0.018108, -0.158484}, {-0.050439, -0.000746, 0.047034, 0.064081, -0.031630, -0.155198, 0.113099, 0.027727, -0.153639, -0.025566, -0.048928, -0.033299, -0.010308, -0.111056, 0.105357, -0.103419, 0.115421, -0.170207, -0.066017, 0.089406, -0.075177, -0.116342, 0.045960, -0.116572, -0.178538, 0.091006, -0.084284, 0.091396, -0.040384, -0.173185, -0.123449, 0.018411, 0.133189, -0.106411, -0.027550, -0.040458, 0.137177, -0.131031, 0.066597, 0.025852}, {-0.002057, -0.093291, -0.495125, -0.152703, -0.143426, -0.039266, -0.024518, -0.147220, -0.003312, -0.106528, 1.015703, -0.029200, 0.066187, -0.161899, 0.028637, -0.098589, -0.088752, -0.121403, 0.028437, -0.004593, -0.022211, -0.074121, -0.047238, -0.096986, 0.054216, -0.140417, -0.062035, -0.235089, 0.002674, -0.008737, -0.085436, -0.359391, 0.042089, -0.131755, -0.070719, -0.066781, -0.136197, -0.144628, -0.154570, -0.201568}, {0.045340, -0.015834, -0.342823, -0.148280, -0.032563, 0.064104, 0.099570, -0.071172, -0.076149, 0.023241, -0.071314, 0.086764, 0.054415, 0.078555, -0.055401, 0.116084, 0.053409, -0.164453, -0.265923, -0.090828, -0.106739, 0.060367, -0.196814, 0.004213, -0.043358, -0.031118, -0.026607, -0.135314, 0.054307, 0.033059, 0.080869, -0.081048, 0.084943, -0.070194, -0.016672, 0.101930, 0.118086, 0.010239, 0.009974, -0.054641}, {-0.051023, -0.086400, 0.082169, 0.018523, 0.028645, 0.042251, 0.082624, -0.053287, 0.132978, 0.073549, 0.017780, -0.053240, -0.015269, 0.175880, 0.125323, 0.061622, -0.120323, -0.046050, 0.013286, 0.071288, -0.134786, 0.066834, -0.147300, -0.012851, -0.161293, -0.090653, 0.144417, -0.170601, -0.070484, -0.019829, -0.080012, 0.075444, -0.147325, 0.049365, -0.055416, -0.070376, 0.154882, -0.153470, -0.082504, 0.008297}, {0.189069, -0.058502, -0.038328, 0.008189, 0.070382, -0.127466, -0.143754, -0.063358, 0.122841, 0.073795, 0.059895, -0.038640, 0.027600, 0.149341, 0.107624, -0.149631, -0.004070, 0.038213, -0.074802, 0.033474, 0.124327, 0.102389, -0.021671, -0.139035, -0.116409, 0.117708, 0.106662, 0.133776, -0.013937, -0.079130, -0.031182, 0.116622, -0.153818, -0.045004, -0.142487, -0.033919, 0.013966, 0.008138, -0.091557, 0.063394}, {-0.077787, 0.040732, -0.101712, -0.076265, -0.088605, 0.168531, -0.053910, -0.001930, 0.005884, -0.018151, -0.031738, -0.079763, -0.006216, -0.071937, -0.248049, -0.042458, -0.113541, -0.120041, 0.040725, -0.171056, 0.078700, 0.146744, -0.010808, -0.159463, -0.050244, -0.081319, -0.076389, -0.128203, -0.244317, -0.099438, -0.090033, -0.088369, -0.109483, -0.159947, 0.048233, 0.016751, -0.020200, -0.113252, -0.150382, -0.045840}, {-0.009787, 0.072923, -0.022994, -0.134377, -0.123885, 0.005417, -0.080930, -0.033355, 0.044925, -0.033000, 0.140892, 0.043174, 0.123096, -0.296497, 0.058326, -0.154621, -0.103593, -0.017624, -0.270386, 0.087102, 0.134905, 0.005619, 0.076570, 0.094896, 0.034115, -0.014960, 0.094713, -0.086804, -0.060943, 0.024080, -0.018133, 0.018082, 0.071990, 0.013557, 0.115257, -0.034219, 0.156130, -0.042362, 0.269001, -0.059449}, {-0.048009, -0.116085, -0.213155, -0.080659, 0.000706, 0.025426, -0.100099, -0.144106, -0.176190, 0.071909, -0.034800, 0.094032, -0.079920, -0.034912, -0.137993, 0.061885, 0.051470, -0.078649, -0.091450, -0.133250, 0.053115, -0.009489, 0.033267, -0.120541, -0.080265, -0.021145, -0.077099, -0.164075, -0.198006, 0.009355, 0.143155, -0.073624, -0.156924, -0.163342, -0.074181, 0.132991, 0.062200, 0.123805, -0.126471, 0.014214}, {-0.060790, -0.058860, -0.023840, 0.051409, -0.105589, -0.033903, 0.018256, 0.003111, 0.022884, 0.106336, -0.072318, 0.097903, 0.002031, -0.098903, -0.140065, 0.032737, 0.096016, -0.131153, -0.073589, 0.047327, 0.150834, 0.074719, -0.092386, -0.071248, 0.013333, 0.108785, -0.037769, -0.023763, -0.078653, 0.142300, -0.141919, -0.080926, -0.120481, 0.043173, 0.119667, 0.009776, 0.040755, 0.066491, -0.157547, -0.155822}, {-0.065375, 0.073117, -0.067011, 0.008306, -0.156980, 0.124005, -0.151214, -0.095002, -0.083167, 0.139082, -0.011216, -0.098678, 0.047780, -0.048001, 0.041557, -0.148032, -0.149702, -0.144380, -0.136811, 0.084832, 0.022257, -0.091576, 0.056431, -0.024281, -0.024422, -0.089579, 0.020963, 0.105618, -0.150380, -0.019353, 0.073527, -0.028265, 0.113331, -0.062324, -0.093049, -0.108417, -0.150742, -0.099697, -0.023460, -0.057369}, {-0.137152, -0.114936, -0.183243, 0.093851, 0.081673, 0.042962, -0.161714, -0.014441, 0.034937, -0.028100, -0.055783, 0.068695, -0.087466, -0.049131, -0.077157, 0.049899, 0.008745, 0.125193, 0.141352, -0.102190, 0.026190, -0.107746, -0.081401, -0.088884, -0.008102, -0.055523, -0.009159, 0.051599, 0.040887, -0.175037, 0.129108, -0.006781, 0.137186, -0.125038, -0.175787, 0.095676, -0.071008, 0.038058, 0.039510, -0.128472}, {0.173778, 0.087357, -0.013626, 0.127148, 0.098771, -0.139558, 0.056575, 0.002983, 0.107486, 0.065194, -0.057611, 0.034043, -0.079409, -0.220355, -0.052470, -0.043117, -0.150018, -0.133355, -0.036187, -0.233812, 0.026543, 0.049445, -0.088909, 0.078377, -0.044034, 0.060696, -0.121671, -0.055330, 0.012444, -0.076755, 0.028670, -0.070907, -0.122603, 0.051959, -0.092776, -0.144953, 0.057582, -0.098741, 0.003948, -0.008545}, {0.185500, 0.078250, -0.086131, 0.107934, -0.009605, -0.066806, -0.077973, 0.048159, 0.045912, 0.094395, 0.202657, 0.067781, -0.039455, 0.094312, 0.090194, 0.026487, 0.101616, -0.097891, -0.132111, -0.053378, 0.070556, 0.138167, 0.112470, -0.099195, -0.012020, 0.101937, -0.050096, 0.072501, -0.139715, 0.003128, -0.037140, 0.107956, 0.153027, -0.002360, 0.157672, 0.002415, 0.080275, 0.109797, 0.066063, 0.056362}, {0.138050, -0.067422, 0.097128, 0.070463, 0.130300, 0.011692, -0.099026, 0.111333, 0.087966, -0.119380, 0.036805, -0.094828, -0.046237, 0.308046, -0.064369, 0.072355, -0.033464, -0.104275, -0.111148, -0.091330, -0.047580, 0.112944, 0.119562, 0.042664, 0.109983, -0.101609, -0.040913, -0.061305, -0.031828, -0.047806, 0.051937, 0.081522, -0.037565, 0.024711, 0.097390, -0.038798, 0.084133, -0.122879, 0.127387, 0.125241}, {0.024117, 0.073631, -0.119093, -0.103247, -0.094005, -0.145686, 0.060879, 0.060598, -0.011800, 0.002054, -0.026570, 0.088776, -0.333830, 0.042381, 0.103859, 0.077456, -0.031099, -0.161947, 0.022124, -0.032899, -0.085841, 0.055627, 0.045493, 0.068788, 0.228160, -0.088530, -0.186343, 0.061078, 0.068120, -0.062328, -0.130512, -0.204483, -0.073556, 0.078472, 0.050740, -0.000754, -0.108576, -0.120413, -0.143902, -0.028799}, {-0.046845, 0.056640, -0.169702, -0.100938, 0.060029, -0.097492, -0.111442, 0.108034, -0.160678, 0.121000, 0.044775, 0.015978, -0.130596, -0.027079, 0.031951, 0.038041, 0.020242, -0.093278, -0.166636, -0.105090, 0.108789, 0.091957, -0.129854, 0.043029, 0.076970, 0.115457, 0.013497, -0.072107, 0.020802, -0.043708, 0.142282, -0.176487, 0.081908, -0.063197, -0.003278, -0.163633, 0.098453, -0.152803, -0.207409, 0.132773}, {-0.151923, 0.124655, -0.074476, 0.036325, 0.010845, -0.076064, 0.058031, -0.174894, -0.057247, 0.040826, -0.013340, -0.046536, 0.155447, -0.057935, -0.024550, -0.061329, 0.108327, -0.021857, -0.083343, 0.144164, 0.146285, 0.081060, -0.046801, -0.036527, 0.085315, 0.140345, 0.142544, -0.130191, -0.052936, 0.019253, 0.056182, -0.039607, 0.046860, 0.179075, 0.107144, -0.088821, -0.138649, 0.120167, -0.117884, 0.079216}, {-0.192360, -0.001357, -0.073514, -0.135205, 0.144347, -0.197731, -0.118941, -0.030376, -0.060037, 0.127227, -0.073265, 0.131285, 0.022098, -0.027073, 0.090567, 0.018944, 0.039476, 0.010020, 0.002785, 0.087396, 0.054585, 0.101205, 0.123269, -0.054556, -0.167403, -0.019057, 0.000161, -0.149540, 0.042154, 0.050683, -0.078353, 0.033601, -0.067142, 0.026263, -0.091375, -0.194558, -0.098012, -0.120042, -0.164056, -0.075156}, {0.119385, 0.001077, -0.130038, -0.012308, 0.156633, -0.032144, -0.074582, -0.151652, -0.174087, -0.033283, 0.025168, -0.077480, -0.085621, 0.004076, 0.106687, 0.078207, -0.058983, 0.037876, 0.154252, 0.007864, -0.087812, -0.067046, -0.066624, -0.010590, -0.121773, 0.086648, 0.131674, -0.018220, -0.152145, 0.103807, -0.046283, 0.091404, 0.027696, 0.069789, -0.139088, -0.220352, -0.104336, -0.063644, -0.092548, 0.116532}, {-0.038790, 0.074696, 0.114391, 0.122387, 0.066196, -0.067605, 0.083638, 0.038537, -0.125945, -0.010594, 0.071481, -0.066656, -0.125418, -0.021160, -0.029443, 0.082898, -0.141579, -0.167442, 0.118161, -0.028129, 0.071036, -0.070111, -0.131824, -0.066132, -0.034574, -0.134666, -0.068138, 0.173197, -0.095558, 0.055503, -0.139365, -0.156620, 0.003365, 0.134699, -0.023270, -0.186182, 0.080504, -0.059619, -0.082596, -0.265270}, {-0.061227, -0.082560, -0.038832, 0.120835, 0.017808, 0.049270, 0.021847, 0.057664, 0.029584, 0.121826, 0.043810, -0.015516, -0.106936, -0.073393, -0.089289, 0.036275, 0.081242, -0.027240, 0.032515, 0.051405, 0.028225, -0.096744, -0.131479, -0.111527, -0.025535, 0.088474, -0.122406, 0.021677, 0.049322, -0.197601, 0.130713, 0.110918, -0.121398, -0.045730, 0.084994, -0.066676, -0.012347, -0.124704, -0.145864, -0.048755}, {-0.336977, -0.152202, -0.320716, -0.151252, -0.020938, -0.118862, -0.080424, -0.068577, -0.003457, -0.142653, 0.154517, 0.039720, -0.149776, 0.013067, -0.294040, -0.221819, -0.066539, -0.214651, -0.033445, -0.652371, -0.273548, -0.197876, -0.233191, -0.057101, 0.148072, -0.000488, -0.145071, -0.206674, -0.441178, -0.640938, 0.001434, -0.126305, -0.000528, -0.060417, -0.037007, -0.517528, -0.131730, -0.087812, -0.043883, 0.077332}, {-0.020361, 0.021816, -0.460400, 0.029129, -0.066525, 0.011113, -0.007758, 0.048747, -0.022771, -0.002155, 0.947292, -0.052826, -0.111947, -0.328030, -0.161395, -0.020077, -0.019974, 0.008874, -0.207244, -0.052127, 0.009528, -0.089975, -0.006112, 0.060470, -0.070252, -0.001893, -0.001115, -0.016161, -0.048460, -0.025722, -0.045031, -0.090717, -0.066636, -0.028291, 0.005977, -0.028971, 0.001382, 0.037107, 0.057347, 0.113163}, {-0.167096, 0.108458, -0.167627, -0.157450, 0.024907, 0.106898, -0.001131, -0.048858, 0.099315, 0.075703, -0.022177, 0.155573, 0.017660, 0.048721, 0.113113, -0.143364, -0.044786, 0.051724, 0.062536, 0.023553, -0.066767, 0.131352, -0.117305, -0.001312, 0.102986, 0.128880, 0.097163, 0.090623, -0.123941, -0.133691, -0.093570, 0.040812, 0.008995, -0.084197, -0.047942, 0.017700, 0.075215, 0.065142, 0.043504, -0.013600}, {-0.251913, -0.090643, -0.095358, -0.069143, -0.128122, 0.135559, -0.027924, -0.128127, -0.190339, -0.010241, 0.000224, -0.031617, 0.020389, 0.095087, -0.134268, -0.040696, -0.165064, 0.127966, -0.154884, -0.003687, -0.162598, -0.076976, 0.078127, -0.085045, -0.056381, 0.037083, -0.112700, 0.015328, -0.103511, -0.096703, -0.024515, -0.303393, 0.011502, 0.038528, -0.127726, -0.124895, 0.060265, -0.052746, 0.015816, 0.249338}, {-0.246953, -0.023920, -0.015315, 0.110326, -0.027183, -0.054607, 0.115953, -0.216430, -0.129641, -0.022512, -0.140784, 0.062775, 0.094854, 0.018232, 0.034703, 0.038832, 0.133181, -0.004660, 0.041386, -0.186550, -0.097285, -0.044532, 0.034776, -0.120956, -0.024053, -0.001001, 0.007627, -0.120582, 0.062717, -0.029485, 0.022000, -0.209120, 0.094570, -0.040540, -0.019741, 0.017412, 0.019767, -0.014992, -0.092313, 0.013460}, {-0.136383, 0.106818, 0.041866, 0.018308, 0.078768, -0.056225, -0.126871, 0.039240, 0.000104, -0.024582, 0.141989, -0.026942, -0.105316, 0.079343, -0.001194, -0.153199, -0.102596, 0.088194, 0.106489, -0.142269, -0.080899, -0.026796, 0.065241, -0.009476, -0.001674, 0.046231, -0.156813, 0.071804, -0.037698, -0.033616, -0.136257, -0.014611, 0.090260, 0.058398, 0.094770, 0.120473, 0.041812, 0.080186, -0.142294, 0.063672}, {0.023815, 0.005803, 0.040060, -0.112200, 0.078247, 0.072841, 0.012237, 0.054310, 0.152557, 0.006296, 0.031831, 0.100762, -0.124216, 0.085963, 0.052501, 0.146691, 0.054955, 0.088376, -0.060113, -0.126330, -0.124297, -0.153810, -0.144302, 0.133074, 0.006419, -0.017101, 0.125175, -0.066266, -0.093549, 0.084649, 0.120365, 0.056932, -0.104963, -0.056223, 0.065608, -0.073927, -0.153890, -0.049304, 0.039330, -0.065118}, {-0.066699, -0.123898, -0.108180, 0.117110, 0.052517, -0.023029, 0.110951, -0.081631, 0.104639, 0.081235, -0.030190, -0.134754, 0.133133, 0.014571, -0.007371, 0.017694, 0.001173, -0.081528, 0.066546, 0.075762, -0.145488, -0.074702, -0.036432, -0.070522, 0.011361, 0.046239, -0.003027, 0.180480, -0.068869, -0.083080, -0.023986, -0.014837, 0.009607, 0.088241, 0.135864, -0.075544, -0.109406, 0.140618, 0.013321, -0.003413}, {-0.026515, -0.064470, -0.079658, -0.036863, 0.029640, -0.052742, 0.153999, -0.044874, 0.101438, -0.111930, 0.042091, 0.030856, 0.026109, -0.073397, 0.106388, -0.151207, -0.143303, 0.002535, -0.151751, 0.012419, -0.157949, 0.006803, 0.043860, -0.069817, 0.083256, -0.020351, -0.087016, 0.077936, 0.077643, -0.037618, 0.135282, 0.046501, 0.053023, -0.064106, -0.177512, 0.135066, 0.066994, -0.068152, -0.080506, -0.077196}, {0.021848, -0.179551, -0.103176, -0.062206, -0.000084, 0.149585, -0.012697, 0.028098, -0.006056, 0.001352, -0.037483, 0.090971, -0.004165, 0.033643, 0.069824, -0.154667, -0.028880, -0.270840, -0.041995, -0.003180, -0.226117, -0.089702, -0.159138, -0.148089, -0.034022, -0.046904, -0.111589, -0.041112, -0.017596, -0.140890, -0.133508, -0.105188, -0.179779, -0.040420, -0.108582, -0.045142, 0.044752, 0.018260, 0.077841, 0.095886}, {-0.138211, -0.094251, 0.138069, -0.031455, 0.143670, 0.056170, 0.107436, 0.084600, -0.013363, -0.092630, 0.101123, -0.055999, 0.017718, -0.004232, 0.025972, 0.062177, 0.003605, 0.105720, -0.069465, 0.070623, 0.108080, -0.012469, -0.109679, -0.128991, 0.061879, 0.082944, 0.151901, 0.026056, -0.111605, -0.154175, -0.088139, 0.152928, 0.000584, 0.157478, 0.109500, -0.046784, -0.050837, 0.134621, -0.115981, 0.073785}, {0.007685, 0.020501, -0.262254, -0.120894, -0.098836, 0.200823, -0.070764, -0.028721, 0.043874, 0.107260, -0.013084, 0.077129, -0.019031, 0.098737, 0.001683, 0.070306, -0.059295, -0.195234, -0.192194, -0.099660, 0.004340, -0.083897, 0.040571, 0.089162, 0.074986, -0.150065, 0.005434, -0.165988, 0.079107, 0.034330, 0.040800, 0.057859, -0.164222, 0.041006, -0.009713, 0.146870, -0.075584, 0.065082, -0.091028, -0.027184}, {-0.061384, -0.135208, -0.006740, 0.128432, -0.069836, 0.000076, -0.188062, -0.091533, 0.089237, 0.026660, -0.023819, -0.027681, 0.006731, -0.051876, 0.052917, -0.049500, -0.048384, 0.094049, -0.129089, -0.002950, 0.024232, -0.152082, -0.128117, -0.092003, 0.166152, -0.033306, 0.090843, 0.063108, -0.149806, -0.033928, 0.006292, 0.012172, 0.089529, 0.132727, -0.011516, 0.035106, 0.006495, -0.113309, -0.162106, -0.120036}, {-0.130102, 0.124136, 0.010048, 0.002443, -0.020076, 0.043540, -0.088828, 0.077947, -0.061754, -0.139529, -0.015304, 0.032411, -0.169065, -0.009211, 0.029191, -0.137345, 0.045913, 0.069505, -0.073576, 0.143759, -0.063032, -0.027756, -0.069730, -0.086637, -0.117805, 0.111680, -0.157549, -0.145460, -0.254087, -0.007759, 0.068838, -0.051549, -0.098556, -0.052955, 0.104298, 0.216094, -0.053965, -0.130235, -0.017883, 0.138117}, {-0.124148, -0.226247, -0.218829, -0.104418, -0.149591, -0.181505, -0.071610, -0.110595, -0.237917, -0.023867, -0.015993, -0.025536, 0.008051, 0.014718, 0.049831, -0.008750, -0.008697, -0.076780, -0.164261, -0.176804, -0.190207, -0.151770, -0.211427, 0.058829, 0.010753, 0.047400, -0.059205, -0.012504, 0.090203, -0.087188, 0.017178, -0.068764, 0.133421, -0.150867, -0.206925, -0.395442, -0.033690, -0.120220, -0.134065, -0.030728}, {-0.034159, -0.084272, 0.032401, -0.026503, -0.150155, -1.524841, -0.028699, -0.008737, -0.027768, -0.138491, -0.181308, -0.056568, -0.151642, 1.051116, -0.025997, -0.032344, -0.044462, -0.094471, -0.151306, -0.926507, 0.007549, -0.000036, -0.013512, -0.156614, -0.193196, -0.096577, -0.165570, -0.036849, -0.185269, -0.181370, -0.021258, 0.016288, -0.138414, -0.073678, -0.052699, -1.558204, -0.033189, -0.039182, -0.197184, -0.183325}, {0.071943, 0.133796, 0.044140, -0.043021, -0.154061, 0.081053, 0.074149, -0.067111, -0.007774, -0.072848, -0.051335, -0.102936, 0.071877, -0.141772, -0.031746, 0.058488, -0.114305, -0.095416, -0.178149, -0.077962, 0.107496, -0.037333, 0.063849, -0.179746, 0.004330, 0.028042, 0.067823, -0.194073, -0.041656, -0.009839, 0.065745, -0.013216, 0.061571, -0.029811, 0.065406, 0.039565, 0.063836, -0.047907, -0.115564, -0.106210}};
static const float * p_layer_2_weight = layer_2_weight;
static const float layer_2_bias[40] = {-0.132520, -0.182873, -0.942389, -0.039668, -0.199722, -0.063069, -0.162805, -0.092565, -0.136683, -0.094983, 0.404563, -0.174109, -0.186579, 1.043493, -0.042322, -0.324209, -0.176313, -0.072572, -0.208003, -0.195162, -0.226845, -0.223893, -0.164263, -0.306513, -0.250456, -0.227950, -0.069373, -0.305018, -0.010599, -0.188264, -0.111218, -0.507201, -0.393447, -0.103620, -0.241773, -0.153845, -0.257593, -0.054618, -0.211765, -0.168874};
static const float * p_layer_2_bias = layer_2_bias;
static const float layer_3_weight[40][1] = {{-0.054833}, {0.011476}, {0.033563}, {-0.134871}, {0.045840}, {0.008686}, {-0.017999}, {-0.049157}, {0.056436}, {-0.062474}, {-0.656923}, {0.087284}, {0.055562}, {0.640301}, {0.001969}, {0.017119}, {0.001187}, {-0.057540}, {0.003753}, {-0.052157}, {0.023182}, {-0.034874}, {-0.016822}, {0.030221}, {-0.050252}, {0.000600}, {0.050610}, {-0.062909}, {-0.002358}, {-0.079359}, {0.019439}, {-0.022607}, {0.014871}, {0.067912}, {0.078453}, {0.062523}, {-0.071713}, {-0.041117}, {-0.046431}, {0.015375}};
static const float * p_layer_3_weight = layer_3_weight;
static const float layer_3_bias[1] = {-0.563225};
static const float * p_layer_3_bias = layer_3_bias;
    
static float sigmoid(float num) {
    return 1.0f / (1.0f + expf(-num));
}

static float step(float num) {
    if (num < 0) {
        return 0;
    }
    return 1;
}

static float relu(float num) {
    if (num > 0) {
        return num;
    } else {
        return 0;
    }
}

static float linear(float num) {
    return num;
}

static void layer(const float * in, const float * layer_weight, const float * layer_bias,   
            int row, int col, float * output, int use_activation) {
    int ii;
    int jj;
    const float * p;

    for(ii = 0; ii < col; ii++) {
        p = layer_weight + ii;
        output[ii] = 0;
        for (jj = 0; jj < row; jj++) {
            output[ii] += in[jj] * (*p); 
            p += col;
        }
        output[ii] += layer_bias[ii];
        
        if (use_activation == 1) {
			output[ii] = relu(output[ii]);
        }
    }
}

const float* nn_rho_2(const float* input) {
	layer(input, p_layer_0_weight, p_layer_0_bias, STRUCTURE[0][0], STRUCTURE[0][1], output_0, 1);
	layer(output_0, p_layer_1_weight, p_layer_1_bias, STRUCTURE[1][0], STRUCTURE[1][1], output_1, 1);
	layer(output_1, p_layer_2_weight, p_layer_2_bias, STRUCTURE[2][0], STRUCTURE[2][1], output_2, 1);
	layer(output_2, p_layer_3_weight, p_layer_3_bias, STRUCTURE[3][0], STRUCTURE[3][1], output_3, 0);

	return output_3;
}
